1.518941044535102369e+00
2.747930388187082573e-01
-8.383027211258665956e-02
-1.279031392719590432e+00
-6.993663774944489653e-01
1.068620594704757926e-01
1.981770362843098487e+00
4.036564611902075939e+00
9.520700623210154312e-01
-2.144973019535876269e-01
3.185469585187350017e+00
-1.412006808767816424e-01
-1.054774323284011661e+00
-9.652009247735831021e-01
3.535743523214023742e+00
3.382675137607258908e-01
-2.607730246412635067e-01
-2.486746276294930169e+00
-1.572818918872891103e-01
-1.701513646783757994e-01
1.135388311886893709e+00
-5.410178245971524191e-01
-1.402110997229007727e-01
-6.559466384653552806e-01
4.008104607505803829e-02
6.637481088217719316e-01
1.579308991814762475e+00
3.577991374242775802e+00
-4.745767130528482647e-01
5.791008345230027388e+00
-1.054323086257139330e+00
-2.809733344700241497e-01
-8.688828391708138810e-01
-7.502008377530827721e-01
-2.877847182963683137e-01
-1.167943726644875557e+00
-2.157794946930648439e-01
-1.454744964345106473e+00
9.222913857837439222e-01
-3.393372983786697161e-01
-6.824836301956274109e-01
-2.732096348775705508e-01
-2.121419716395815058e+00
1.953041650725657163e+00
3.363371842929732125e-01
2.526795279439197905e+00
-4.368024856817880330e-01
-9.464222369602264262e-01
6.320008896971771151e+00
-1.091384540394074287e+00
-8.328308944926082757e-01
-1.492130950883813478e-01
-3.822003744135718528e-01
-9.232858032032343898e-01
-5.319813950882749110e-01
-2.350627307628795126e+00
4.367337083994407010e+00
-1.127254336156317871e+00
-5.297796452907286291e-01
-1.530156973586176861e+00
-7.813894923633960543e-01
-1.235817657265687819e+00
4.763573059565001655e-01
2.601639123806124054e+00
-1.528715531357659474e-01
-1.155861480355705878e-01
-1.280006493321201644e+00
-1.039060020317180477e+00
-7.071598093959206022e-01
-7.480317353002456926e-01
-1.019170670987966099e-01
-1.458053600125605847e-03
5.253050894950689553e+00
2.299722039465184498e+00
-2.331136907199212516e+00
-3.671890994634575134e-01
2.785915062840738976e+00
-1.517658981909847382e-01
-5.252321588469445190e-01
-8.678731913576372969e-01
-2.225529671031290513e-01
-1.262042277334893603e+00
-3.638976390546754258e-01
1.596362938697360123e+00
1.349893406575229271e+00
1.473360860871420208e-01
-5.246487511608101117e-01
-1.099414494215364413e-01
-5.617046326295242059e-02
-1.144796460865685483e-01
-6.210992715187366731e-01
3.707405755775250888e+00
-9.563520228620947528e-01
-1.303771346756472216e+00
-2.209266964774838637e+00
-3.475707997228735247e-01
8.495942782977381480e-01
1.331894640394226226e+00
7.146448349526315358e-01
-2.150826906798347371e-01
-1.053989681763160213e+00
-4.087658360066634966e-01
-7.416288572233823428e-01
-4.655566959006432470e-02
-1.455879283105095991e-02
-5.489631097702630802e-01
-4.136590017068015324e-01
3.977599139687122864e+00
-5.240132275617477298e-01
3.795318178182990110e+00
-2.646016787812397464e+00
-7.116159729858553273e-01
-4.728780161288085870e-01
-2.432861080053178582e-01
-1.561150628755221259e+00
-5.459776707013016539e-01
-2.175035432312005523e-01
8.402183211851176337e-01
-5.563831803211980453e-01
-8.512165293729787585e-01
3.012448118507832784e-01
-2.610505329113422146e+00
-1.437086041642472001e+00
-2.437450004387357871e-01
-1.742417272323309341e+00
6.136119653306959520e+00
-1.594997850087912061e+00
-6.839171242657978711e-01
2.141223370298329876e+00
-8.708995146358319284e-01
1.643662482815374526e+00
-2.207000222007152956e+00
-1.235541367899691600e+00
7.977541984678002684e+00
2.643574922811344763e+00
-2.263519255903899019e+00
-3.195030954284999170e-01
-2.126400510508557495e+00
7.223435550618956258e-01
-8.636923111110121898e-01
-8.150405396441785522e-01
-4.269544312566531108e-01
2.110025787113831264e+00
-8.006348917746046734e-01
-2.494437465790130481e+00
9.665533156496474154e-01
-2.967749297877570136e+00
-3.801304563613258081e-01
-2.269349677653462738e-01
-2.318716041181215992e+00
-4.357794954197625192e-01
-2.818243194896787873e+00
-1.086513925859020402e+00
-6.074384956885591214e-01
1.558784050607956717e-01
-5.491945940888827149e-01
-3.621875312620621012e-01
-2.488693836298774276e-01
-3.638654060625697295e-01
-1.672873031020986945e+00
8.921343449305632056e-01
2.762267639139482256e+00
1.984043184863784060e+00
-1.525045677139683642e+00
-1.117208075589604777e+00
1.747532401057222684e-01
-1.429194480083456842e+00
-1.785320592302662157e-01
-1.455763935786418051e+00
-1.503669912219459226e+00
-5.174949202425891404e-01
-1.589816700243164904e+00
-1.579967219960691227e-01
-2.058697690272385028e+00
2.476179043233600829e+00
7.383271980958598935e-01
-4.627925755345483894e-01
7.587373598205019443e-01
1.122581364947715515e-01
-3.290079819335389733e+00
-1.638447774181226724e-01
-3.813358793384176160e-01
-1.141198647582890822e-02
-2.210246666700000362e-01
8.264209831149050833e-01
-1.561065734259834414e+00
-9.377736088640961087e-01
2.540487222314782856e-01
-3.116584632497290674e-01
1.389828146191134928e-01
1.910688234745631098e+00
-1.366076894753426529e+00
1.499063356321133966e+00
1.679633147641188762e+00
5.532771817588983509e+00
-1.160487432482484982e+00
-7.616869519041031822e-01
-3.080904932244009409e+00
-1.338471941385563468e+00
-7.047534860126878353e-01
-2.586183522767080967e-01
3.145670008303104882e-03
-3.240174158632255219e-01
-1.034164418144228215e+00
-6.758071558406764101e-02
-1.030259971195920804e-01
-7.209821081153465760e-01
-1.030229511866792125e+00
8.055573882946988062e-01
-1.719990199888002946e-01
-4.024468071366263389e-01
8.715087923243031165e-02
-8.827884477571878996e-01
-3.925003578504905333e-01
-3.245546691792127736e-01
-1.742340046414675714e-01
-2.373044211354413957e-01
6.998155437281558200e+00
-8.627594381574356375e-02
-2.514580174072355012e-01
-6.680015194890771557e-01
-2.786136388209278447e+00
7.313953079862037243e-02
-4.596934356836121505e-01
-1.091004428510571556e+00
-1.084628600286611677e+00
8.980886644795580201e-03
-8.313085196237256502e-01
-2.041143316250195738e-01
-8.918386781752954962e-01
-1.276359496326857634e+00
-2.239460747341023017e-01
-5.723848325127864900e-01
-6.091917875445960195e-01
-3.353320304541327901e-01
4.125039650234424982e-01
-1.333248422196585681e-01
-1.019423873448212614e+00
-8.507738894273034203e-02
-4.621637681636471262e-01
-4.200161277105415869e-01
-3.517367154687268682e-01
-8.207111646337100774e-01
-1.056869782243462064e+00
-8.426208412107408785e-01
-3.048965134162947010e-01
1.116286473822528796e-01
-6.873551626487673927e-01
-6.891828965768721504e-01
-6.977568986099728088e-01
-7.146686633891244922e-01
-8.759544833763668881e-02
-5.864704742051010111e-01
2.188708464680684695e+00
-4.338173846827472202e-01
-2.464663427949370877e+00
-5.420053828334606694e-01
-4.431038007479820573e-01
-1.680055871938080647e-01
2.835233907956761445e+00
-6.386851993784798953e-01
-9.198020409059316504e-01
-2.019177944433693528e-02
3.024085491673490278e+00
-1.104920663545178993e-03
-2.059591147638908937e-01
-8.273660979735429910e-01
3.462356888168119706e+00
-6.484341761122394132e-01
-9.543038493051220206e-01
-6.608725454093101748e-01
-6.953612062503857771e-01
-1.582567612346827746e+00
-7.196132841993644336e-01
6.265417974697224501e+00
-3.080302734341607840e-01
-1.996882874917252249e+00
-5.528208955509520406e-01
-1.938545627140648153e-01
-6.630387761414450187e-01
-1.683044156951994663e-01
-1.084373480773701826e-01
-1.405738549280690086e-01
-3.304930449326777819e-01
-1.322166192091454862e-01
-4.055276947291373141e-02
-1.685414409560245241e-01
-9.198872033486807376e-02
-9.826750309003377815e-02
-5.258141429207890960e-01
-3.045976286319503901e-01
-2.377675705185248844e+00
4.803674179347720008e-01
-5.025587685879145949e-01
-1.297953618389364738e+00
-1.638715611821153495e-01
1.655866791249755998e-01
-8.354468217945639763e-01
-5.558913350721915725e-01
-1.166782831782580271e-01
1.165812686727242531e-01
-1.430008687013708313e+00
-1.854579979661985789e-01
-3.972510167017476723e-01
-5.278699785222888685e-02
-6.145220941469903275e-01
-4.772244557105056323e-02
-2.146099073463048068e+00
5.215228976884159762e-01
-6.941048857559674046e-01
-2.715363057356401377e+00
-7.545050458576791907e-01
-5.910609391125430656e-02
5.124915225076079328e-02
-4.779383120265380258e-01
-2.051809469965261146e-01
-1.722898602482458297e-01
-4.850954846538874099e-01
-6.821811198743804594e-01
4.373960569096480566e-01
-3.277826478947847844e-01
-1.321301820759914536e+00
5.895120069416257103e+00
-3.716242393417582557e-01
-5.520851646743123453e-01
-1.168681087336389757e+00
5.644026287889822413e+00
-3.183934110623739544e-01
-1.101711438113932351e+00
-6.434954936350473220e-01
-4.110495578392156513e-01
-7.466082775738470678e-01
-7.451367216338079524e-01
-1.026362020341075265e+00
-8.830220378980246920e-01
5.046861509205444740e+00
4.461370701821260276e+00
4.985464768186486317e+00
-6.860175398390054857e-01
3.508656025799012479e+00
-2.481861492021441684e+00
5.579086516292125708e+00
-8.586122654143311106e-01
-4.171542634228124213e-01
-8.212890439251329111e-01
-5.985300980099524937e-01
-2.190453947907847532e+00
-4.323765320898872999e-01
-1.021902362874357761e+00
6.317221383085465547e+00
6.704701826175032409e-01
4.135744668947575420e+00
2.052758966964488341e+00
-2.696715640065804331e-01
-1.890279583971487820e-01
-1.078584974801143070e-01
-8.074169524101416917e-02
-4.178071493654157975e-01
2.761341883344865966e+00
-7.737260904639068348e-01
4.698044838266675870e-03
-1.081869019403586263e+00
-1.370801077384168565e+00
-1.546353001841125785e+00
-1.411386170298364329e+00
2.627556200570953515e-01
6.046471534443005780e+00
-3.222588986242643783e-01
-7.070414713638006887e-01
-6.613750527642520138e-01
2.781491738025728688e-01
5.214208498376451395e+00
-1.264214565457712769e-01
6.724367294013425811e-01
-1.731658565420010953e+00
9.088763682355002205e-01
-2.869862817208581052e-01
-6.422571215316387194e-01
-1.533461272325656018e-03
-1.687787836119664986e+00
-5.529021912265211919e-02
-1.833644913060279436e-01
-2.315910724055989245e-01
-2.390915733827810030e-01
-2.418664719629390336e-02
4.144201518864121248e+00
-3.457047049402551253e-01
-2.056946706386022020e-02
-1.887284455478099865e-01
-1.321991164299976818e-01
-1.107210079906852496e+00
-7.997564835576925768e-01
-4.369916830851492962e-01
-9.558328235692199470e-01
-1.044521197451542704e+00
-6.518654253026378020e-01
-2.923340351980820429e-01
5.251033068360871248e+00
-2.064984879863525968e+00
-5.896569589881055506e-01
-7.889814967652509781e-01
-7.939228612325681042e-03
-1.005272208224742975e-01
4.939037886830696777e+00
1.968033804482222926e-01
-5.620150394789554804e-01
-6.129865644573168071e-01
-2.430443421388689629e+00
6.515568304651755960e-02
-5.777650871961482748e-01
-1.267052480959300009e+00
-2.554267931480601050e-01
7.476752921060336732e-01
4.572623687421345728e+00
-4.693209440054675330e-01
-4.259142779428898851e-01
-5.612882631207761763e-01
-3.210050891135199369e-01
7.155855529129407921e-01
-7.772572656124774326e-01
-1.220952003083605630e+00
8.156144958852215021e-01
9.362923588474493519e-02
-1.501814523055910122e+00
-5.094693987392028278e-01
1.770501705147980775e+00
-9.933987794804872706e-01
-3.201957511796171385e+00
1.192646534246402379e-01
-1.216404462323196434e+00
-1.043825482251965697e+00
-4.803571150439320814e-01
1.394856958406624381e+00
-1.808017784536524175e+00
-4.589458258522236545e-01
4.040105973796257466e+00
-4.641434386327584760e-01
-2.631282313677394402e+00
-6.379764339268854112e-01
-1.362164256319909006e+00
-1.289982676063819778e+00
-2.389192542326929736e-01
-1.387739219093779397e+00
2.159329676516750229e+00
-8.726414470352996666e-01
4.798856133108951594e-02
2.792903311614373663e-01
1.354141791491191071e+00
-1.950575195220932256e+00
-1.082138109116874247e+00
-1.253913993672987282e+00
-5.614051449956991569e-01
5.192389938834225394e-01
2.835657595647854134e-01
5.627639223125587703e-02
3.718297720717878452e+00
-2.247164646768297747e+00
-4.719018145754885762e-01
-7.797596776447619504e-01
-2.518312088114160296e+00
-1.903441108027168260e+00
2.961436718807454849e+00
-6.164883059704004964e-01
-2.195193973466342374e+00
2.539339303439436812e-01
-3.225099428475707852e-01
-9.517902953068781841e-03
-1.168495544252978302e+00
-2.352330142493474607e+00
-1.591728570939137111e+00
-1.479958772458778826e+00
1.466045585143403440e-01
-8.151820397939552043e-01
2.849371763099083354e-01
-6.474702222593685663e-01
-5.325590825837349662e-01
2.149034292045854500e+00
2.093079355051011003e-01
1.228390121518599720e+00
3.309523532049927219e+00
-4.828321442541411157e-01
2.615318094244553748e+00
3.871626923079938831e-01
1.777580529493205441e+00
1.603855004988913591e-01
9.559769342220304500e-01
2.012204989129658395e-01
-1.705012464572522035e-01
1.436499514376801956e-01
-1.283490390866857345e+00
-6.450452135744049187e-01
3.532076441981666370e+00
-5.985297430679181740e-01
-3.868011569637888614e-01
2.340930546273534585e+00
-5.226578807694113316e-01
-6.896727646208983264e-01
4.309550343809060102e+00
-1.560651442151429480e+00
6.342555699509312417e-01
-1.684561413268715224e+00
2.938881925503901815e+00
-6.389591723104312004e-01
-1.225038879595366392e+00
-1.198717398455192984e-02
-9.317717296015296524e-01
-6.160284707036104423e-01
1.625605028645880079e+00
-4.847876207567891615e-01
-1.275649679687995475e+00
4.822424270807904811e+00
6.452287799451722483e-01
-8.403865675738230179e-01
-4.727977493977122969e-01
3.044241627416060858e+00
-9.914624570213932397e-01
6.916595058563805853e-01
8.603853943773924762e-01
4.248339047806330981e+00
-1.367640918935119743e+00
-6.802085878842367705e-01
8.132992184623249798e+00
-2.456910163311512463e+00
-1.279615812200797453e+00
5.452473847251384065e+00
1.373034893641024157e+00
1.638111860829936928e-01
-9.076003767859978089e-01
-1.943278224915831576e+00
-1.114208657465315611e+00
-1.439070432714349534e+00
-2.074975519105822563e+00
-1.939292682958278391e+00
-3.122069388213298602e+00
-2.038481462946025058e+00
-2.558190907782632806e+00
-1.911146920538357330e+00
1.963331829529457062e+00
-5.690463009825013074e-01
-4.364727286262983785e-01
3.454513723478728870e+00
-1.985081995208281658e+00
2.284299338948546865e+00
8.541580100141216159e-01
5.817724628379482565e-01
-1.010972687120057723e+00
2.743269599697112149e+00
-2.586156711648808070e-03
-2.372277293650054020e+00
-2.288319256744625996e+00
-5.337066829934998813e-01
-9.767390782783823278e-02
1.249762705182010825e+00
-7.898147199171042798e-01
9.540860503654362557e-01
8.929143901516645165e-01
-9.020306984165363806e-01
3.197659453224347192e+00
-3.564087888316655461e-01
-4.462188108994023794e-02
-1.357502425178734040e-01
-3.049679741789502074e+00
-2.309272895425880101e+00
2.984697685471763062e+00
-1.796932191227162301e+00
4.389340658319291766e-01
-2.639553050776374921e+00
-5.996872389522147628e-01
-7.688627626215134292e-01
3.600925922858296158e+00
-5.789817176141892618e-02
2.066993203671876611e-01
-4.170821168945594293e-01
3.159244827691250368e+00
3.260528191558481392e+00
-4.411887461513940289e-01
-6.002369173975476979e-01
-2.259752261980398025e+00
-8.697628735895736318e-02
-1.208360187667002039e+00
-1.764203110696546117e-01
-5.431422085290406043e-01
2.436593366988762943e-01
1.152520489332533149e+00
5.338165110905744859e-01
3.841680622062388917e+00
-1.393547346137482768e+00
-1.706621726826369478e-01
-8.477869985318919888e-01
-4.170387770363601088e-01
-2.221773894984388598e+00
-1.643996004733714766e+00
-6.244478202664732747e-01
-2.116223679715164785e+00
-3.275647659331249795e+00
4.789521146450229416e+00
1.209450540604324109e+00
-2.559492234914609310e-01
5.345118340116544964e+00
-1.151412664665096175e+00
-6.596065436372007262e-01
-2.617062498878806043e-01
-3.618210036284333353e-01
-4.988209773185290352e-01
8.909534582097858868e-01
-2.411541994967958125e-01
1.175830020828520395e+00
1.857895993043130689e+00
-1.039630979447813353e+00
1.015071638781010810e+00
-3.391388231854970403e-01
-6.341433292686243783e-01
2.154984636112031282e+00
-1.138603599257098642e+00
-1.145359448928357615e+00
-8.679172198615543038e-03
-6.464918345843551073e-01
-2.654239340558040450e+00
6.696296070853831328e-02
3.038643749670572602e-01
-1.298744797924655137e+00
5.345520122642339444e+00
2.138238979696487074e-01
-9.072882478134270956e-01
9.103902056726861369e-01
1.266368643494496293e+00
-8.287238612003864358e-01
-2.736411655381329577e+00
9.757319799646368974e-01
-3.820770776862436158e+00
6.398363179874811735e+00
-3.035429217560261517e-01
-1.217349068594302919e+00
3.989665612786766680e+00
4.875284015080852407e-02
-1.713191815520378247e+00
-2.885813092034322791e-01
5.967273860207901848e+00
-9.024809893365289826e-01
3.221208321259116492e+00
-8.709545338726175367e-02
6.252634247702159032e-01
-1.112476052120652259e+00
-4.716997223298995401e-01
2.338513996150203944e+00
-8.432508799351799977e-01
-5.515746362577892414e-01
9.480381953147062335e-01
-1.606674904505458690e+00
3.861801568377088989e-01
1.822373819967030295e+00
1.084774837671260705e-01
-3.584051649243175097e-01
-1.894544394914109642e+00
2.325273399125522999e+00
-1.453484327997615067e+00
-4.191226246487410045e-01
2.492579407408357817e+00
4.345694157489629617e-01
-2.400756997369459356e+00
3.317544694513431036e+00
2.312822825022235185e-01
-1.628902673699381132e-01
-1.120576763830432476e+00
-6.430345354439198635e-01
5.712810821061067301e-01
3.837356728561199248e-01
4.536458504442799633e-01
5.186107623134953215e+00
-1.283605664968596960e+00
2.738452757820474037e+00
-5.518981395188983230e-01
5.842685379815112379e-01
-3.313855145392192170e-01
-1.081615406781537558e-01
-4.266485376721154132e-01
-3.207930573856798695e+00
-1.258572264099661941e+00
-2.895088228398652874e-01
-1.212074062935783347e+00
-9.454532982781685413e-02
-1.219057810966915900e+00
-1.357431816496655064e-01
2.393906513710426440e-02
-5.894906276875135909e-01
-7.813769192929670426e-01
-4.312438157553719620e-01
1.830486451933948655e-01
6.508708850316850814e-02
-1.080036422476877922e+00
2.236834779198448864e+00
4.516129614335131492e-01
3.009250648182488219e-01
3.632316290073203557e+00
-2.441601093458575011e+00
-9.916329257834506639e-02
-6.746745701911515125e-01
-2.291283556745719263e+00
2.568492238947963191e+00
4.121124159188556679e-01
-1.006708974973624660e+00
6.065591730467440046e-01
2.422541081790196671e+00
7.075044620220380942e-01
9.838791630827885548e-01
-7.926830529886819132e-01
-3.466258523089666976e-01
-4.699006697667378885e-01
1.230830209793570384e+00
-2.153547162512246427e+00
3.680781092873496085e+00
2.390764539271728495e+00
-5.141352103500266280e-01
7.729096742650718443e-01
-8.693154288046039957e-01
-7.765740534671925488e-01
-2.953701083779203262e-01
-7.035102554402407060e-01
-2.013593682170069066e+00
9.161012264638084268e-01
4.874174634333133804e-01
-7.301728641983757928e-01
-1.611611510322126906e+00
-1.277986840113672695e+00
-6.567454290294112429e-01
-3.763335805191799555e+00
-2.252421264722696659e+00
-8.590414331103191081e-01
-1.196017833665714791e+00
-3.466223693315869658e-01
-1.018885536211475040e+00
5.374529909208273004e+00
-2.000831395089515130e+00
-9.300326633130253651e-01
2.234650426375806020e+00
3.261888519229532157e+00
-1.640993701460938370e+00
-2.169546446423604724e+00
1.570408102518727533e+00
-1.667221121163106057e+00
3.378081440629411514e+00
-2.027603605512808382e+00
-1.729510655686989695e+00
-9.773513612962717589e-01
8.307745228884334532e-01
2.138574248826188295e+00
-2.847883079942601814e+00
-1.283671635809846001e-01
6.196821739107249094e+00
1.098548344458195603e-01
-4.468685221633575955e-01
1.327921026335412424e+00
-1.734224962080375576e+00
-7.643392322391411309e-01
-5.847442919784477944e-01
-3.987064989800549741e-02
1.243677569620590673e-01
-1.549096481063506392e+00
-1.159111778473815857e+00
4.696209749746640960e-01
-4.943407157564716492e-01
3.778359440101219047e+00
3.822672040389572423e+00
-1.826101627794210813e+00
1.117292517354387504e+00
-4.880321597348426521e-01
-2.430045701588528395e+00
-4.130623294496659215e-01
-2.568267800354956040e-02
-5.852626267537319737e-01
2.739685801953381517e-02
-1.707296672371229063e+00
-1.796357420693207307e-01
-2.666458439201346842e+00
-2.129371406898598273e+00
-5.263800951914430343e-02
-6.891911993663857317e-01
-1.585413455361573964e+00
4.995053614401034209e-02
7.263537985023088561e-01
-2.014266259955837524e-01
7.027731093121373229e-01
1.061868872542815367e+00
-3.485511175965012587e-01
-5.922102936053361688e-01
-3.821325438309559175e+00
5.627426808247947276e-01
-7.509295637147390956e-02
-6.635354744814754291e-01
4.449692070874342598e-01
3.018718603127049871e+00
1.758996138589455471e+00
3.925126902743155122e-01
-2.407996695052065039e+00
-3.088141023262672924e+00
-9.123429767687832870e-01
2.136599622737519688e+00
5.745028932952034317e-01
-2.455647658840698799e+00
-7.373725385837487378e-01
2.494452615738372847e-01
3.045935241496568018e-03
8.800489094373870058e-01
-2.174940874470670860e+00
-2.523062256521997893e-01
8.108943140520957771e-01
-1.850956581871978868e+00
-2.451049316083508067e+00
-7.904734672780776572e-01
-1.497656769796139042e-01
-1.184555535946219873e+00
9.406589406531044029e-01
-9.631216478964926830e-01
-2.127613193418603998e+00
-1.579080587322119866e+00
2.730299535994851201e-01
1.633050045979110410e+00
-1.619963803039025985e+00
-5.656278302258377355e-01
8.635646895771542653e-01
2.025797435232432608e+00
-2.875193335224803359e+00
-1.619410257202427150e-01
3.538236902078021107e+00
6.821806450996412696e-01
-2.603533872744010491e+00
2.143428651888035219e-01
3.248490207463679447e+00
-3.907210918387696297e-01
1.326228019312664652e-01
-3.011799975330200052e+00
1.285348424924227517e+00
1.286673282704429599e+00
-8.653022341670882911e-01
1.051810564342809728e+00
-1.597624250353795405e+00
1.143466174839936178e+00
-8.809708324711917893e-01
6.619053252557737244e-01
-1.063958340990063922e+00
2.510230697459469251e+00
2.344884904671753756e-01
5.473403256906613557e+00
-2.623885731621952377e+00
-9.353688524581581509e-01
-1.453346811838428732e+00
5.812392666188372914e-01
-6.160884699604877168e-01
-2.012954637390381052e+00
2.545780033045457191e+00
9.105879257238908009e-01
6.597993507995078000e-01
8.256206826806389287e-01
3.702586366001283102e-01
-1.356903497468715747e+00
2.562288061657655547e+00
-1.174323984313560221e+00
-4.790487564617774141e-01
1.074727623393676446e+00
3.588498749530483867e+00
-1.310930322630650055e-02
-1.051199016265156327e+00
2.985165128202027507e-01
-2.297492651374782202e+00
4.783531988374261634e-01
1.261714408728308034e-01
1.715979833374236874e+00
-1.705646543749660404e+00
-1.480946952095169245e+00
4.549058664683265363e+00
-4.623891237697403400e-01
1.123674236631840628e+00
-3.507072144652742196e+00
-1.544604058138302483e+00
-3.156378219293472398e+00
1.578640399706757069e+00
3.132756077626093760e-01
1.719870386864203571e+00
-1.078404627544880257e-01
-6.000369292063506554e-01
1.034759120427068746e+00
-5.398351568763973263e-02
3.319993298895302924e-01
-3.108659851797415108e+00
-8.124703214543261831e-01
-2.654717209920964827e-01
8.851609136923237475e-01
2.310828265453748753e-01
-1.301105598489766813e-01
3.055010751733234553e+00
-6.355932865925918440e-01
-5.277988959683431069e+00
7.616682083011923066e-01
-1.454381927231106486e+00
3.662242260853239895e+00
1.113707436021022623e+00
2.928844183037593862e-01
-2.468232541581853567e+00
-1.086352097317614396e+00
-6.906296570490595421e-01
3.631721815485182248e+00
-1.710006669895885789e+00
-8.764303649800654350e-01
9.282054698966364370e-01
-9.332675671394983219e-01
2.915203718087629792e+00
1.457815090743786568e+00
-2.928432135567183181e+00
-6.999704749632079670e-01
2.760446259733704832e-01
-3.185102343390731505e+00
-1.546808380071640565e+00
1.923615863363472123e+00
-9.528794321621215924e-02
-6.897838297812727837e-02
2.531712637766792007e+00
-2.299288390319773404e-02
-4.117368136161742020e-01
-1.029018883836767539e+00
8.818097949458596485e-01
2.320426413763102547e-01
-3.468417117888122458e+00
-3.314335012463481833e-01
3.199138591665840803e+00
-2.500256310403014215e+00
-2.548745041295810587e+00
-1.943923222373589610e+00
2.730292517476162750e+00
2.056702427598996241e+00
3.017301997839080485e+00
1.218810031684579798e+00
-4.429610647364728981e-01
5.914863577197205124e+00
-2.891943377083435962e+00
-2.013161656771956576e+00
-3.524124465753042390e+00
-6.276324166327896803e-01
-2.603356533703751197e+00
-1.077178824543545632e+00
-5.533107025945994684e-01
-3.582915540928108378e+00
-1.151184731437479236e+00
-1.787583947672506834e+00
1.299473476754067880e+00
1.904489662576936304e+00
-1.509276325692568976e+00
5.289965638741313647e+00
9.245846075970739486e-01
-2.570170551187189734e+00
-1.758602500214653030e+00
7.674304104802124327e-01
-2.526111912605471410e+00
-4.777258582379531049e-01
2.427139306211637315e+00
-3.904355114530250193e-01
-1.542733918460514608e-01
1.219788751775780389e+00
-9.638306956843362139e-01
-9.244509673709485620e-01
2.040640713431104647e+00
-2.993521649334904833e-01
-2.391312692888777125e+00
-2.143635552964217261e+00
1.932022022919949622e+00
3.205190241283198738e+00
-4.219578182327485827e-01
4.287724784392636379e-01
1.492727500123270490e+00
2.992574959229729714e+00
-8.556057839431628897e-01
2.842725204583840259e-01
-2.180771224690678078e+00
8.571366883734812259e-01
9.527887313973090189e-01
-1.882560302222260340e+00
-1.151970291708152905e+00
2.024243734086869750e+00
3.706672781371261660e+00
-8.848722953070931041e-02
5.382880565263299388e+00
5.803404962278380097e-01
3.781761780605790157e-01
-1.049940014438595526e+00
-3.916094187503539881e-01
-7.222032012526351519e-01
-2.635812769214445517e+00
2.068870652958648026e+00
6.958751822570666094e-03
1.986279342020555783e+00
-3.514854418944742681e-02
-1.601687214986216024e+00
2.055030053537198143e+00
-7.947710248255182020e-01
3.736099549723289392e+00
1.792030005223391953e+00
-2.100877160533154431e+00
-2.330649386231430586e+00
-2.510211117790064783e+00
4.819491258406218837e-01
3.179383350915216067e+00
-2.023537468462923428e-01
-1.048529045803688664e+00
2.011362391436102570e-01
3.212041737386447937e-01
6.931981264582640634e-01
