1.554500107483383964e+00
1.044891243926589219e-01
4.126683429772862871e-02
-7.087681905745542021e-01
-8.703412289997497497e-01
1.748911530765419053e-01
1.730597831884417737e+00
4.120099113035562866e+00
7.018037532837873016e-01
-1.658555735210248128e-01
3.749713704798885772e+00
-1.872626890596778421e-02
-1.084943956155719258e+00
-1.281644403788204434e+00
3.908395058880461459e+00
1.064780654702957019e-01
-2.389747525129931327e-01
-2.514532840083285592e+00
-1.745229849191853311e-01
-1.015857693503248310e-01
1.504113257299515061e+00
-6.919517183317930309e-01
-3.409600068103590953e-01
-6.627489214772643855e-01
1.225026615012188902e+00
7.585214533356238187e-01
1.427317720984311311e+00
2.793649165933443257e+00
-5.506837111833181586e-01
5.725296870917000014e+00
-6.465872195403825629e-01
-3.574944742440198109e-01
-9.554178052274434618e-01
-9.801314164406580431e-01
-2.873287913279159445e-01
-1.148257675708882264e+00
-2.774455543942536129e-01
-1.520577303277028003e+00
1.256972929589766697e+00
-1.532856278178931220e-01
-6.694944238621669541e-01
-3.253742536318777190e-01
-2.169549476571586588e+00
1.929927673357759055e+00
-1.761255145690125701e-02
2.783651353515499416e+00
-3.156014627915911808e-01
-1.001963881643738175e+00
5.429627272201739352e+00
-1.052530446999109470e+00
-1.012607402382015964e+00
-1.014075463396103133e-01
-3.183852482821776797e-01
-1.198272010823309142e+00
-6.095652143248075916e-01
-2.346179368019516875e+00
4.156096277915337645e+00
-1.037945175091147476e+00
-5.205670918949649728e-01
-1.498127903728737609e+00
-6.453913980689609531e-01
-1.409110855088636427e+00
3.233642138486845230e-01
2.275361916940436213e+00
-1.557321798726465367e-01
-1.341372975352480290e-01
-1.149080161159938829e+00
-1.019586312009219897e+00
-9.138243932789132939e-01
-7.019370657227010923e-01
-1.803170080696099575e-01
7.851176363336990205e-01
4.793304129858057649e+00
2.529611748101948887e+00
-2.500112058373821888e+00
-3.260165816884136869e-01
2.240453380537684502e+00
2.072275865300902964e-01
-6.134475153969143335e-01
-8.149302495995299767e-01
-3.071538706614057035e-01
-1.264458749046267316e+00
-4.641033968762306450e-01
1.481162351863613669e+00
1.118137902375198722e+00
5.411753390150079168e-01
-7.398727724137572626e-01
-1.266279247978564781e-01
3.246769234173602775e-02
2.821541446549675203e-01
-7.338282035840122397e-01
3.493404522714393057e+00
-1.110742684948167192e+00
-1.187277100871607871e+00
-1.883434255037884419e+00
-2.635210655055278406e-01
8.828476146095816102e-01
1.240929870565087301e+00
6.062783449411338621e-01
-2.887620966450817894e-01
-9.357289526516148204e-01
-4.028177728066414387e-01
-6.616249448084333684e-01
1.167250755027961912e-01
1.255784245522510723e-01
-5.859715239050360402e-01
-4.432985275761164301e-01
3.436174970418386820e+00
-4.963838148584294729e-01
4.131154010767999374e+00
-2.805864484831832595e+00
-7.642910309132190383e-01
-4.457810999941217434e-01
-3.092351682544760005e-01
-1.631442076054592460e+00
-6.365230747859740301e-01
-1.933099371079696482e-01
1.236297805496885616e+00
-3.044327543487516108e-01
-8.590725324180970013e-01
2.483466284707250005e-01
-2.622455646046531808e+00
-1.408472887395271878e+00
1.052128383268194634e-01
-1.845115781946385702e+00
6.076466145439693101e+00
-1.622447654868657052e+00
-6.510054706691166260e-01
2.305333064831668999e+00
-1.044827267480521016e+00
1.398327856596113694e+00
-2.477581607796424112e+00
-1.245049235747591077e+00
6.619057912087521700e+00
2.709248178219772818e+00
-1.999275511035989439e+00
1.406882103435487807e-01
-2.191812317764874507e+00
3.632049379015477308e-01
-1.011720740566666166e+00
-2.140070475376739945e-01
-4.722032008840399975e-01
5.404112716638241887e-01
-4.033338565273004162e-01
-2.349347202504039167e+00
8.416621602652984979e-01
-2.895346099466139300e+00
-3.054146489471396553e-01
1.756154575825207564e-01
-2.355455186506101750e+00
-4.325139736770540755e-01
-3.684527903965459039e+00
-1.095869118194997549e+00
-5.727540527665364589e-01
2.093390133037504874e-01
-4.293213272894680910e-01
-3.745291119246468847e-01
-2.081583645150749950e-01
-5.673891809767332983e-01
-1.665575448912870904e+00
4.968887336604368432e-01
2.964099732027147827e+00
2.851534447752063883e+00
-1.534473823917031243e+00
-1.129436251225322208e+00
-1.230720424907374433e-01
-1.645269139917083345e+00
3.386198768746630505e-01
-7.278535842530605704e-01
-9.681508126921815061e-01
-6.126167248781101415e-01
-1.619270224596834451e+00
-1.925499139446112951e-01
-2.095853701549409198e+00
2.134685061573034837e+00
9.768482365991028038e-01
-6.124306560635198737e-01
1.125565323250533600e+00
1.412601286552581659e-01
-3.092136871415559263e+00
-1.452675743931143015e-01
-5.207065568852132786e-01
2.354756973743441506e-01
-2.510103325529032259e-01
4.472808780504219928e-01
-1.583530711656085943e+00
-1.017630161234305053e+00
2.471491689338506659e-01
1.664439906373306466e-02
2.170835416421857400e-01
1.332391831769156765e+00
-1.529087540478630158e+00
1.595519187856668131e+00
1.921768906013644695e+00
5.251965912135388770e+00
-1.189422671138862464e+00
-3.494825919218553234e-01
-3.305398307407323433e+00
2.464829562797887785e-01
-7.560389916966181456e-01
-8.544597023214246800e-02
-5.894822736006290198e-02
-2.866299342846572173e-01
-1.039648532867245345e+00
8.706371960169702329e-02
-1.773946950236626394e-02
-8.302971619424104333e-01
-1.070734395723232479e+00
1.970981319941553234e-01
-1.482651653803821190e-01
-5.678686063776392512e-01
2.962234205010043642e-01
-7.684275473173584059e-01
7.161760030297432689e-01
-3.329404585030456554e-01
-1.791868951061150184e-01
-2.933068906549686217e-01
6.704677890892808634e+00
-6.892755479367747296e-02
-2.111288163100808746e-01
-5.197132220821261139e-01
-2.967538902676028378e+00
6.607105600176434168e-02
-4.041228601504642248e-01
-1.140658847186547309e+00
-6.575840783766451203e-01
1.789844811121424906e-01
-8.645655477766931440e-01
-2.719970834240929558e-01
-9.254126703032560242e-01
-1.462648013193163843e+00
-2.130978536016840952e-01
-5.406367977575631256e-01
-6.133397902805669544e-01
-3.833031855487863959e-01
6.668417425034571799e-01
-2.540473034208298175e-01
-1.274929702317910252e+00
-2.941681232224707121e-01
-4.982065235974639239e-01
-5.051827719649111259e-01
-3.639839143314070879e-01
-6.780838276693552658e-01
-7.676354219526309031e-01
-7.866461672122083693e-01
-4.365337884076194164e-01
1.889285320370274190e-01
-8.127958986699327371e-01
-7.097158829329712759e-01
-5.445440669102736830e-01
-6.701169398593925797e-01
-1.841993733244929876e-01
-7.147114068878205329e-01
1.743086867053869060e+00
-3.736220782634447901e-01
-2.356467850391139596e+00
-7.075989802854270039e-01
-4.911273795486641447e-01
3.162173678182842590e-02
3.010062709535828329e+00
-7.387046413463891348e-01
-1.278367316024539457e+00
-1.233324624406734321e-01
3.010366399789591529e+00
1.798411362487372100e-01
-2.838921585807454018e-01
-9.211745438154013144e-01
3.542569905975497146e+00
-7.265911993648468403e-01
-1.084469421186676996e+00
-8.226337227005037223e-01
-5.985871185530933225e-01
-1.400333399570592219e+00
-6.480562612810105705e-01
5.743570872339044620e+00
-4.048238743990550947e-01
-2.021103357245337406e+00
-6.715536542477670290e-01
-4.333531765198944674e-01
-4.209937333603574472e-01
-1.922982069085968082e-01
-6.923159831993150326e-02
-1.739620124959645187e-01
5.680465116861601604e-01
-1.433144588275332698e-01
1.405638831381265247e-02
7.940608594114502150e-01
-2.165852013107484320e-01
-7.639514212902677459e-02
-5.835388847050337890e-01
-2.417624056209084493e-01
-2.064682061164704319e+00
4.173809788797164799e-01
-6.585044865732518904e-01
-1.474927440946257384e+00
-1.635426291792816955e-01
2.319418021720237588e-01
-1.050920099860823242e+00
-5.605752946491986410e-01
-2.168712156570718474e-01
3.310001433347354444e-02
-1.167643023433168059e+00
-1.615300016636033731e-01
-2.383093777722465889e-01
-5.516138978787112068e-02
-7.445416848933474885e-01
6.299328673928646094e-02
-1.976077587048268080e+00
9.424863024729376315e-01
-6.649868510756439255e-01
-2.496370434230653412e+00
-8.756787446183915691e-01
-2.143452431582664602e-02
-2.369136395301634501e-01
-3.025114523599510205e-02
-2.829153568410835984e-01
-1.282781325372775172e-01
-4.572108059929694823e-01
-6.585756198762815483e-01
-2.868271265720777063e-01
-2.329804563433888476e-01
-1.589520458623388421e+00
5.522583371385099582e+00
-4.198441063073432011e-01
-5.912451542425505302e-01
-1.181091055515820720e+00
6.271229344593569621e+00
-2.909767556803681821e-01
-1.099548480340843515e+00
-7.004343989424115513e-01
-4.048675017769406415e-01
-7.807477152006335741e-01
-7.588454367315410343e-01
-9.399557590460652090e-01
-7.751703279229636978e-01
4.719092750308071516e+00
4.491449516815259280e+00
4.618454749409623084e+00
-6.365667922165210157e-01
3.203427693387080222e+00
-2.509598102539426723e+00
5.894947095190387287e+00
-8.798516636532798252e-01
-4.061427665554877553e-01
-7.342529077163788553e-01
-6.710244272245956543e-01
-1.837018313671380243e+00
-5.173478594333082992e-01
-1.040832172434061009e+00
7.253244351670279144e+00
3.858723865243452456e-01
4.185812166244318178e+00
2.127154600978807597e+00
-3.516050782368315697e-01
-1.447102193100371081e-01
3.793831279505843063e-02
-2.635087765473011212e-02
-3.628639850172526438e-01
2.653806578785948833e+00
-7.736902081758979532e-01
3.231282323977235221e-02
-1.061656890269591313e+00
-1.583454900769304841e+00
-1.523207447506518708e+00
-9.598786270544297228e-01
2.294402898470261076e-01
4.930023752437342033e+00
-4.698011934446630344e-01
-5.206626605651965001e-01
-7.797700161810554587e-01
4.121885596139315266e-01
5.462744126617314677e+00
-1.921748749341523899e-01
5.540187887325054295e-01
-1.947757237587593782e+00
8.262824674597446517e-01
-3.805489425456571317e-01
-6.892297156793927293e-01
5.929065504799874500e-03
-1.462105925803363293e+00
-4.724026225207286767e-02
-1.913916959979540811e-01
-2.578559536553090559e-01
-1.939343242331723338e-01
-1.540580367071796852e-01
4.566208153376591916e+00
-5.909373837641438421e-01
-3.019660775837848185e-02
-2.679352626935467829e-01
-1.994041141476288193e-01
-9.119904746584298616e-01
-9.111802404863121874e-01
-4.792727245133773240e-01
-8.889416027270085063e-01
-1.043958899445812882e+00
-6.462303820453011438e-01
-3.115356599010156158e-01
4.475229779333280256e+00
-1.863376433425846912e+00
-6.675572705597607737e-01
-8.477217725123591396e-01
1.785321385058993848e-01
-6.560256398686437063e-02
4.484316851676155125e+00
2.443296808814284654e-02
-3.930850888083757821e-01
-1.416956230453801036e+00
-2.678636349365919322e+00
7.576715782779658293e-01
-5.404454658334246764e-01
-6.870896607045282600e-01
-8.428631832110182465e-02
2.070151106534302843e-01
3.769003212929630919e+00
-1.160648364288897838e+00
-1.009014625650115349e+00
-5.205721371606021330e-01
-5.664535619925497451e-02
6.601188256951848743e-01
-6.451828112183721764e-01
-1.067847621446259776e+00
7.043639550767538671e-01
5.331958395037383891e-01
-1.271159351684419958e+00
-2.648443485984051660e-01
1.481031188216510364e+00
-7.329693226283625629e-01
-3.150845284529555368e+00
3.356450096206881617e-01
-1.235908246741342031e+00
-8.137145384476770493e-01
-4.561952932591414323e-01
1.430348181431770893e+00
-1.839953230235601422e+00
-5.462551329234072162e-01
3.635686478249733344e+00
-4.699295546214741770e-01
-2.786652663561167032e+00
-6.020088158158845015e-01
-1.438044255187081122e+00
-1.045374580626062144e+00
-1.730234504096180570e-01
-1.283937450831185600e+00
1.574980439351012507e+00
-5.926292718646746227e-01
3.773196330874455384e-01
4.222742103296681093e-01
1.717068678074594290e+00
-1.887300073173460380e+00
-7.056655318117762699e-01
-1.192299285776711404e+00
-4.092133306643017665e-01
3.476663171742166436e-01
3.086799018758490387e-01
2.459654917470996682e-01
4.030729281952069698e+00
-2.160213561637376767e+00
-8.026925629203885970e-01
-6.288926071217649794e-01
-2.311179796609277748e+00
-1.735988781469607778e+00
3.536611775300151361e+00
-6.883909089020709970e-01
-2.356355433503904528e+00
6.820669536326825488e-01
-3.759232281070050696e-01
4.223748058549398054e-01
-6.683347280589646555e-01
-2.478344368539716402e+00
-1.463135238975333374e+00
-1.609624824856291658e+00
2.702758567140542412e-01
-1.084394416485746415e+00
-2.956144009783336357e-01
-3.083165884734858642e-01
-3.920735618709708104e-01
1.762462887771403253e+00
5.201123573014339307e-02
1.490779001918834057e+00
2.251861906740272534e+00
-4.996880456882232813e-01
2.437013236735757093e+00
2.121782387725447139e-01
1.268086833317124018e+00
5.572837995760445695e-01
4.690100078905022341e-01
-1.129959058388527128e-03
-3.479780506719743483e-01
5.314562349636438310e-02
-1.688340274838789901e+00
-6.077284276883730962e-01
3.325850215848218827e+00
-6.252881265888382556e-01
4.772406221993916176e-01
1.963871295396952377e+00
-4.758115560984625403e-01
-7.237414575073654044e-01
4.025852812792080293e+00
-1.562490430737969005e+00
7.115710142395182958e-01
-1.395275729614793292e+00
1.885387081321763691e+00
-4.335351532665039920e-01
-8.050304509481983617e-01
1.897934195577421490e-01
-1.008852070651602872e+00
-7.495933840009126881e-01
2.214186021664806603e+00
-4.796214363605017517e-01
-1.346715719772470399e+00
5.016503778376275591e+00
5.403268124386894078e-01
-7.271339850184472819e-01
-7.087897017341937556e-01
2.969948067320974161e+00
-1.003606037240811322e+00
6.360264517738929424e-01
7.538793640155929676e-01
4.573690378168895343e+00
-1.110080522192258057e+00
-7.397372172024172521e-01
7.899608412856320427e+00
-2.285320446383177551e+00
-1.422932213392782197e+00
5.298905132044282595e+00
9.733091202244090745e-01
-7.119383862629001802e-01
-7.746228662989996794e-01
-1.649965385365972814e+00
-1.145283445102426967e+00
-1.346798892377500945e+00
-2.071143046287164946e+00
-1.689795021496965255e+00
-3.038457203180794597e+00
-1.617685679043263658e+00
-2.584973971383654145e+00
-2.112152955168561164e+00
2.086805182445384599e+00
-7.294480558131190007e-01
-3.244952346018158407e-01
4.140441362164622774e+00
-1.914618225629233450e+00
3.335472307408818171e+00
6.626686981836910073e-01
4.301044342415255017e-01
-1.563102604489681191e+00
1.764774061761174906e+00
2.141111436380347191e-02
-2.298340219270497364e+00
-2.180819486304985677e+00
-7.314431293372906095e-01
5.070116699739523475e-02
1.041023061230967883e+00
-6.171611130094584174e-01
9.768081637283594354e-01
7.135580888084518403e-01
-9.020696534104548636e-01
2.802391562250249546e+00
-1.862176597645021914e-01
-4.051844390042199651e-01
-2.920171944343621928e-02
-3.139108219703870439e+00
-1.861880659579451258e+00
3.160428437009176417e+00
-1.136885391943754708e+00
5.671801672587738485e-01
-2.252950610096097872e+00
-6.273273781246448966e-01
-2.255763773575613917e-01
3.127352920691019111e+00
7.831964903244523213e-02
4.568068625667450200e-01
-3.577048649401434743e-01
2.163520234561841615e+00
3.518532830966498270e+00
-3.975671048821058373e-01
-9.894414664659252345e-01
-1.748142995043066250e+00
-6.215265511554077249e-02
-1.161847004321627796e+00
-8.592205248478740343e-02
-4.124756620901718351e-01
2.867653323669790422e-01
1.025495501221832306e+00
1.063074480514829556e+00
3.224504883859698801e+00
-1.399334125071791890e+00
-4.862625884391793413e-02
-9.709214029709363203e-01
-5.030314295328280894e-01
-2.371753152098937445e+00
-1.463099536058530603e+00
-6.572575976861085856e-01
-1.822903267166988917e+00
-3.027837176422857546e+00
4.639657389270578136e+00
8.245915049952003972e-01
3.177882207184679064e-01
4.447220529377650777e+00
-1.106190520010826850e+00
-7.580101820690317016e-01
-2.191410031338856534e-01
-5.036554545306818342e-01
-4.986607264352456159e-01
1.022306561160222893e+00
-3.149043126041702889e-01
2.330779848728440129e+00
1.913300436379699265e+00
-6.776417500031099994e-01
1.112654812807024607e+00
-1.139871818103482815e+00
-4.796600174636138081e-01
2.613327436000873583e+00
-1.317075148058800549e+00
-1.226532154304047717e+00
3.721662326468512961e-03
-7.590139694662472181e-01
-1.985920852424284400e+00
2.724246579773314733e-02
2.075085135408476500e-01
-1.566636791139232932e+00
6.079947760343687335e+00
1.358419861552852548e-01
-8.091855363931383938e-01
4.231262899620728546e-01
8.765721184946819733e-01
-8.341548364466746524e-01
-2.368009113229481155e+00
1.246558588787788135e+00
-3.492069075093643171e+00
5.948078619829436420e+00
-4.110420963755682111e-01
-1.159491145144508684e+00
4.415790954298806525e+00
-1.406293820560221286e-01
-1.634594725314737707e+00
-3.797498322168292861e-01
6.510013068833950811e+00
-9.418543729400985498e-01
3.152568943255379619e+00
-2.652173185601343630e-01
6.830998061325354032e-01
-1.433709052396888062e+00
-2.442813082716688289e-01
2.011449634056989844e+00
-1.358249075949841345e+00
-4.734407560826842110e-01
6.919141028324764520e-01
-1.148114692274135873e+00
1.321936989142205865e-01
2.312636485296354572e+00
4.066317377682740486e-02
-2.470495534953119354e-01
-2.252077604222847640e+00
1.851254364068704916e+00
-1.879456358057250531e+00
2.901387612804189331e-01
2.800197354057418764e+00
1.004004952277108148e-01
-2.203669681798573254e+00
2.854765053544283671e+00
3.244072687293388380e-01
-4.063552223658291329e-02
-4.758111135294949556e-01
-8.590021836124671628e-01
5.697997457878510863e-01
5.832611265085592134e-01
-2.165946304299292968e-01
5.599605572310801804e+00
-1.278577047883721951e+00
2.791674888658690179e+00
-1.078964840991032403e+00
7.450835168152536436e-01
-1.483571184489362871e-01
-2.015986230394779116e-02
-2.034376631492172127e-01
-2.665583612177405026e+00
-1.354024924621128001e+00
-2.950912129756876334e-01
-1.010117800109545882e+00
-2.815204434297962077e-01
-1.132413252083290800e+00
1.844621598509630922e-01
-5.137292821877117999e-02
-6.625996615662916867e-01
-7.771554086767105129e-01
-5.313762427832313673e-01
2.917803674586529755e-02
7.628153434619910911e-02
-1.365576371301962855e+00
2.365728773617377545e+00
-1.025872963740776800e-01
1.019248960741086618e+00
2.604999809189145754e+00
-2.458941892659875617e+00
-1.347891841178160688e-01
-6.030140857869308313e-01
-1.883130198227866314e+00
2.352291177519181709e+00
4.708749928593741196e-01
-9.288338333988791495e-01
1.353182026575822317e+00
2.066895741783382423e+00
-5.466693366352406297e-02
3.936136055541121226e-01
-8.123724159465411931e-01
-1.763032804200409809e-01
-6.915204026744243837e-01
8.205155173810503300e-01
-2.142145684723623766e+00
3.224089654119173698e+00
2.527053773473263654e+00
-3.637361056555767913e-01
9.540779165633743730e-01
-8.849062524073886271e-01
-6.969079552900443453e-01
-4.208338493620558673e-01
-1.046054761244561870e+00
-2.346739982579301831e+00
1.808786136528762967e+00
6.878966961784327427e-01
-1.662919930982298122e-01
-1.790141598082124252e+00
-1.320273423265753365e+00
-2.448089469599796231e-01
-3.303998459490840922e+00
-2.190241471183843380e+00
-8.019524330878455842e-01
-1.345704430662362894e+00
-4.231355874139555162e-01
-1.338497090925025779e+00
6.018479612611148610e+00
-1.979148463842232308e+00
1.870591361703823619e-01
1.255616295226389179e+00
3.347455298858549533e+00
-1.317558651196194974e+00
-1.855327898667555653e+00
1.911984163383087187e+00
-2.128053094198475215e+00
2.488023303010954645e+00
-1.482143357206983092e+00
-1.718297623291610732e+00
-1.039047082700389923e+00
2.684840898231650730e-01
2.934379364278676405e+00
-2.101835765900097019e+00
-1.734503209510515065e-01
5.381534064068377532e+00
-7.107027189594397054e-01
-6.206233773556181221e-01
1.147324566162490678e+00
-1.666623936903670167e+00
-7.314066639617097243e-01
-7.860519148670956913e-01
-9.602278767497302026e-02
2.372520479142484207e-02
-1.363709863436256553e+00
-1.020919089327948948e+00
6.451119213003918551e-01
-3.220502488250425732e-01
3.471290716434190848e+00
3.002755685868570890e+00
-1.409722139550236619e+00
1.123428814608483428e+00
-3.658194974887178375e-01
-2.132932548138206652e+00
-2.813508714283963763e-01
-7.380711995785423918e-01
-1.477341025127338614e-01
7.909466498728279227e-02
-1.927137437536778686e+00
-6.751678525659605967e-02
-2.680066685910746926e+00
-1.413852405598861051e+00
-1.582851896162578709e-01
-6.681125759966106692e-01
-1.512537154061027733e+00
6.485006519242171585e-03
-3.596259098023935064e-01
-2.033921110877397187e-01
3.644543858392592095e-01
8.148321665352584731e-01
-2.736340511283404386e-01
-5.434391132546695369e-01
-3.506086385768254488e+00
1.090742765443788009e+00
-1.053917108212497344e-01
-8.965657069858605777e-01
-2.178298242554327357e-01
3.210876894986548269e+00
1.015234352600924872e+00
6.971536152456772051e-01
-2.151656606407005956e+00
-3.105110724008181666e+00
-1.116764667285256030e+00
1.901443263413044038e+00
8.421716856056543632e-01
-1.777739266015505359e+00
-8.189647195778475552e-01
1.892764326026045441e-01
2.961549792574304230e-02
8.211082257109578730e-01
-2.270029364659058135e+00
-2.562530981144787723e-01
5.238051969946080355e-01
-1.840574255895027100e+00
-2.295321511511027701e+00
-9.049244284471912314e-01
-2.409139558777586565e-01
-1.392754003619968151e+00
2.816338663059819170e-01
-9.370760853714661387e-01
-1.905624184961784540e+00
-1.205438792429192940e+00
1.116651890205919928e+00
1.827571456242869097e+00
-2.116281361608874256e+00
-3.686673871425092952e-01
7.117721809562893576e-01
1.658700445114740685e+00
-3.076374787039028558e+00
-3.836446391853620130e-01
3.175931596097549825e+00
-2.223283677492151889e-01
-2.432632698848416375e+00
-3.256030823881436026e-02
3.598346004874110271e+00
-7.015499988485472960e-01
-3.510357651269757628e-02
-3.032620590746574862e+00
1.435373140116387836e+00
1.256536911731625183e+00
-9.987915302697804032e-01
1.393893064739355703e+00
-1.490432896470508917e+00
1.396891498937179010e+00
-9.280938413791443020e-01
5.390017983185922956e-01
-1.009669206648969197e+00
2.413228638307699736e+00
1.510189326443838742e-01
5.549338336369391556e+00
-2.491371656421842218e+00
-6.331972654513544629e-01
-1.347068194873293878e+00
2.263519707649375989e-01
-6.126807126594560060e-01
-1.646038689879572914e+00
2.195005904713575706e+00
5.340115022871018136e-01
6.680992346638212620e-01
9.104376337685535781e-01
1.449518423122772903e+00
-1.142096973208906352e+00
2.532721870178870738e+00
-1.602866668542811457e+00
-4.652954938920280115e-01
1.046796397548200419e+00
2.962742215408266766e+00
2.756203175844381681e-01
-1.284725125058562956e+00
5.440979597442454629e-01
-2.358918074884939653e+00
1.630780103243576473e-01
1.983000119131411720e-01
1.058556000646149409e+00
-1.663197071188915910e+00
-1.437937047737267937e+00
4.455669330211766699e+00
-2.202871976020488731e-01
5.954538820930406207e-01
-3.078535499292657907e+00
-1.462317475651355725e+00
-2.861597033352041297e+00
1.300220975032853055e+00
7.014569358172727531e-01
1.780009162032490044e+00
-2.116608089355965505e-01
1.526054791672213327e-02
1.370044462818533759e+00
-2.895285049060193627e-02
2.513185656183963279e-01
-3.259828673451788283e+00
-8.513594957373005201e-01
-2.108486287156078054e-01
5.372025442367809323e-01
6.676196069919571041e-01
-7.882166861560584159e-02
3.369483540624513385e+00
-7.582949993206196115e-01
-4.665851350865124481e+00
2.821806461665980481e-01
-1.301094699153116929e+00
3.906779319623259639e+00
1.032442273646361208e+00
1.756602669348245327e-01
-2.362091574577541930e+00
-8.776291082187559489e-01
-7.121266690579135528e-01
3.148033339747810633e+00
-1.683059537302730169e+00
-7.865201554474613443e-01
1.009420427448100233e+00
-6.760171154897312018e-01
3.129437538153602372e+00
1.398270818627616485e+00
-3.003057726364202651e+00
-7.676220422866597559e-01
2.553435344075169131e-02
-2.970185182797484558e+00
-1.372710482664498022e+00
1.645017910745259826e+00
2.493467228694457305e-01
-4.390067539838897748e-01
2.616894477105887962e+00
2.643029488643462016e-02
-5.028354632753393449e-01
-1.290575681139372044e+00
4.681876707570073459e-01
9.373865585445455284e-02
-3.521230755081971253e+00
-2.586070201653648849e-03
3.112837716300284718e+00
-2.640572852836545970e+00
-2.519229315840667560e+00
-1.746727898858583261e+00
2.550339073860733219e+00
1.807662724613770422e+00
3.342267842743234407e+00
1.668276973269594787e+00
-5.994231863001997507e-01
5.667235656563922142e+00
-2.831979013173672843e+00
-1.666590163471166175e+00
-3.483276864517251159e+00
-1.122325721452876790e+00
-2.664035420070735682e+00
-9.003660848633052716e-01
2.429955991465407306e-01
-3.861630598352193466e+00
-1.996735065280691890e+00
-1.244729461612330557e+00
1.191886950850841620e+00
2.424439955991829265e+00
-1.539442631457176525e+00
5.060821315664962405e+00
1.007070101393007233e+00
-2.219614059963106900e+00
-2.021933035466114692e+00
1.429322656312476791e+00
-1.703820802391289968e+00
-3.598480364844451329e-01
2.317729160910896535e+00
-2.113339103218696835e-01
-2.216571402912375921e-01
1.253838459142944339e+00
-8.509030850570710180e-01
-8.197776925590892771e-01
2.244198562428624921e+00
-1.419239736418163866e-01
-2.268331042638912276e+00
-2.377869959899116648e+00
1.279062618240313087e+00
2.133307101040260445e+00
-2.900387052159646428e-01
1.088553182689214971e+00
1.017738442446044278e+00
2.253642514866311508e+00
-1.231454841077026074e+00
1.401549908616210594e-02
-2.357137746165812064e+00
8.272405396495303709e-01
2.141951983166312967e+00
-2.237782383676010234e+00
-1.270534752687082714e+00
2.614204154710689565e+00
2.867853664496761379e+00
-8.255218350532010640e-02
6.008063237745121299e+00
4.763818116613702802e-01
7.771974370108446495e-01
-1.051208714733289584e+00
-3.439892588716639277e-01
-8.336907826747567141e-01
-2.683997648154853533e+00
1.894981595873258096e+00
-4.778361267915525595e-02
2.090196530479403236e+00
6.822250269808328715e-01
-1.217551141166606676e+00
2.899319096766758808e+00
-1.100669564344065376e+00
2.888384914660043989e+00
1.868014006921527193e+00
-1.706281694951083949e+00
-2.063022878622611689e+00
-2.302094133378305152e+00
-1.072998883656654634e+00
3.283769413132373138e+00
-1.314875458476622294e-01
-1.027917892187194093e+00
1.651244198039975852e-01
3.290937001216757141e-01
6.173133095745091392e-01
