4.526037659106110192e-04
-5.567688370284613598e-05
4.706527746479944110e-04
9.142401935577158367e-04
8.531867246414211138e-04
8.462919590551126617e-04
8.393058980032949766e-05
2.591467535245378260e-04
-3.829084198340277322e-04
1.621274643613080063e-04
1.165997128591240301e-03
7.341827444231731684e-04
1.030750332592147815e-03
4.571087899608047931e-04
-2.153559182720893089e-04
-1.310271875418082864e-04
-1.519003200752833301e-03
-1.125898388349009594e-03
-1.897291055017715975e-04
4.367597311882058997e-04
4.739173528785514352e-04
-3.382746499978761686e-04
-5.945900092788811413e-04
-3.934588146058575538e-04
-2.140015322044907554e-03
-1.507412205290489110e-03
-1.569897523196256070e-03
9.831013279620544104e-05
2.182487378346205376e-04
-1.164110972980508980e-03
-6.623731219136843977e-04
-1.527323196022673272e-04
-1.669302639566741259e-03
-2.502260888253259215e-03
-1.137635389975909976e-03
-1.203787225939477413e-03
-1.000024793959814525e-03
-1.702332215834454886e-03
-6.663342994435117418e-04
-1.068234235514934315e-03
-8.686457454919081431e-04
-2.253438432804679651e-03
-1.167132157846319978e-03
-1.480518057887459044e-03
-1.116949589174475376e-03
-1.177163174518851795e-03
-8.984184545146247248e-04
-8.762491754111786978e-04
-1.417380424192873521e-03
-1.384684480783586729e-03
-1.487916680575565890e-03
-1.105170062262931076e-03
-1.505972740396928182e-03
-1.412366550579741272e-03
-3.842265211464029862e-04
-4.569663057797833318e-05
-1.571303229049851374e-03
-2.949621808486980849e-03
-2.447040033920114700e-03
-1.953439570329387840e-03
-7.319508620121992345e-04
-8.141167846429883150e-04
-1.482380405954206604e-03
-2.767231579006817739e-04
7.531165846356461732e-04
4.339352064154729152e-04
9.482219179558770694e-04
1.607691654771712178e-03
1.460210123329683035e-03
1.261796811842098897e-03
5.868146784187345567e-04
1.789997528287115428e-03
-3.878305139470705895e-04
4.906629387850137015e-04
5.206168052392421515e-04
1.418075113374402726e-03
6.747216737534139338e-04
7.706025420382370001e-04
8.189358061241572458e-04
1.200422695298658960e-03
-6.936534405785381918e-05
-5.028504700850188695e-04
1.358137741604073924e-04
9.823649345998631058e-04
9.026835716475495449e-04
-6.395996068963603421e-04
3.679967546534127767e-05
2.314395027491489298e-04
-1.576975062685535139e-03
-1.182361880677095748e-03
-1.248252741465065603e-03
2.717113703533506901e-04
-1.460149703703558744e-04
-7.323287372672667404e-04
-2.803156124217478107e-04
-4.070707040227628209e-04
-1.130556690250206177e-03
-1.677878481653252273e-03
-1.642064893870611580e-03
-7.397973823393588950e-04
-1.030033663850114713e-03
-4.290045983476234838e-04
-2.030853516253914128e-04
-8.698321344130146432e-04
-1.735965843494389257e-03
-1.754725193813201981e-03
-1.411816254038910116e-03
-3.220726857270627135e-04
-1.762276390623849793e-04
-9.510092670969984372e-04
-1.060551598231624087e-04
-5.283737971456138995e-04
-9.900621063994355896e-04
-1.518189327828866567e-03
-2.300256800633063842e-03
-5.358980719671103694e-04
-1.071703145150138025e-03
-9.922031923587850289e-04
-6.740010032755627909e-04
-1.345836308933049058e-04
-1.874524473184674411e-03
-1.928911714964247695e-03
-2.059970012070162088e-03
-9.135380425292917005e-04
-1.215941561502728542e-03
-5.021517944432783579e-04
-7.123668173857908910e-05
-9.487239652341620784e-04
3.610123906455033234e-04
9.209701115467116596e-04
1.031354487513697332e-03
1.966887923625658223e-03
1.222987927621097806e-03
5.724558588110363177e-04
9.037045358896273438e-04
1.291310006198012530e-03
-1.175204659356721246e-05
6.898225486266974403e-04
7.163216388582789021e-04
1.453567443639077741e-03
1.466381735484919169e-03
2.449269330111887816e-04
1.186342943661320695e-03
9.076701790656686126e-04
-7.693602547749416693e-04
-2.712702667970933661e-04
3.936169701716983019e-04
1.301297043870258642e-03
3.248070458711777692e-04
1.973981192921486923e-04
4.007422029386600642e-04
4.866842605296712188e-04
-6.928718338221973375e-04
-1.942471755011134643e-03
-6.398502104664776551e-04
-1.474073892695563202e-05
4.541020044494891545e-05
1.838328931547793677e-05
-6.005116869378392640e-04
-1.907507241476581262e-04
-1.364600159260969964e-03
-1.404425172603630334e-03
-8.690750005077417127e-04
-1.828363718020311072e-04
8.581155505220121793e-05
-3.640618337192285249e-04
-9.064371080675152860e-04
2.516628576660044506e-04
-8.230860381081252708e-04
-1.814174527275872915e-03
-1.479074892798973567e-03
-9.064672979704885541e-04
-5.707738106854472714e-04
-5.613240628383050698e-04
-4.946931721275387188e-04
-5.199584663978559351e-04
-1.442798873721648544e-03
-1.611929994209926635e-03
-1.190051354801061707e-03
-5.451127585820457521e-04
-6.250413978507178732e-04
-4.253801718529953181e-04
-8.445662128311974808e-04
-5.866417010977806302e-07
-1.271868262320180985e-03
-1.641081096543362244e-03
-1.491337644405418914e-03
-1.292802892627674697e-03
-4.979432634535544766e-04
-1.026111603653947699e-03
-5.493522183916205648e-04
-6.242371577701449643e-04
5.594261677294712831e-04
5.715590132348433638e-04
7.582307198313199131e-04
1.774877677499897121e-04
6.582376696889906701e-04
-1.996087828823028126e-04
-3.211204202385489715e-04
-2.692052162034485176e-05
5.975915258203915326e-04
-1.182810076850013048e-04
8.516528545350482426e-04
-3.538106891852682914e-05
-1.988558912975688510e-04
2.983961417956458974e-04
7.159683848516510763e-04
4.830647743281489179e-04
3.975563678264460864e-04
2.297284236295575740e-04
-8.010886300711030777e-04
1.620812639006220671e-04
-2.692040007963740272e-04
8.889271181290517559e-04
5.039638547261655627e-04
2.141498677005283574e-04
-1.450291236176940942e-04
-1.007835774800143643e-03
-4.040565529213429566e-04
-7.807816828155038228e-04
5.713456925133410637e-04
9.658276993876552599e-04
1.019246486347999111e-03
6.862495591375051716e-04
-7.206864138310713035e-04
-1.157657089478109037e-03
-4.950217277028697536e-04
1.597900489291010728e-04
7.654368179708060868e-04
7.213187169328054210e-04
1.168536861708719971e-03
7.551366403497955428e-04
-8.804566279736631427e-04
-7.196078623525555039e-04
-1.719300407566511568e-03
-8.241147471543788707e-04
8.349960897380119020e-04
6.235862564342862157e-04
6.700363600844440803e-04
1.101842705201117349e-03
-1.207944321536432971e-03
-7.810175159663175840e-04
-7.485001872701329195e-04
1.359743410096166452e-05
3.548023400294684853e-04
9.946984991988372382e-04
8.323036440889427200e-04
6.550489585516735625e-04
-1.605636683462204495e-03
-1.578327250807039662e-03
-3.754346945329557891e-04
-6.911460683330707686e-04
6.547194166896530554e-04
7.248727925282509197e-04
8.547466275459381525e-04
1.513427232134765209e-04
-5.986335679183037465e-04
-7.909745204232969385e-05
-2.471121592729882055e-04
2.015993015163970335e-04
-3.929160234374211563e-04
-6.840055308794042470e-04
-3.844027578437268430e-04
-7.261478232709527242e-04
-5.254180582222583301e-04
-3.628619772365608998e-04
1.502820912688295797e-04
-4.397949611892423730e-04
-4.293239912533768077e-04
-2.565523283596148410e-04
-4.716202249191838781e-04
9.279933385061806634e-05
-5.504015152644988786e-04
-8.862039082849332804e-04
-1.497857118296991568e-03
-5.297943791217544877e-04
-5.561410419056295878e-04
-7.222240968743353111e-04
4.616373725878023925e-04
-2.479794342554786412e-04
-1.324364953266866018e-03
-1.586969616515718174e-03
-1.379828337233096093e-03
-9.008591676067835433e-04
-4.035104048708130543e-05
-5.016791640492158271e-04
-1.432387418744653562e-04
-3.026557035715398769e-04
-1.557791802477182137e-03
-1.698854839524101138e-03
-1.820702918706906554e-03
-1.003259161177192521e-03
-6.795005604440288415e-04
8.926710786478562858e-04
9.327699905904338583e-04
-2.773732768364371585e-04
-9.672131610641679410e-04
-1.407979995058583882e-03
-2.084633969255960447e-03
-5.454071855820653717e-04
2.197375075468022078e-04
-8.345462679284102272e-06
-1.686090826624349868e-04
4.195698126870863625e-04
-1.055239966949381592e-03
-1.537500651767338905e-03
-1.911427186232395655e-03
-1.240983746988179402e-03
-2.792869703266265659e-04
3.815527488919188102e-04
6.046435416173622651e-04
4.358672251716583977e-05
-1.071215224422904667e-03
-2.167977824573625277e-03
-1.802236500928318169e-03
-1.388202788484796824e-03
1.554810969994518575e-04
3.794942726553769772e-04
-1.969907890462794012e-04
-5.583174643451057836e-04
2.326092095094030397e-04
-4.791857727211847008e-04
-2.493682293103998532e-04
-8.645198755234951822e-04
-1.012480352869101407e-03
-1.213050835943784269e-03
-9.385116051366186032e-04
-1.165189266275806811e-03
-9.442357119779245080e-04
-6.738939707392714714e-04
-1.061507957171597570e-03
-1.067594801281639182e-03
-8.295788977330370833e-04
-1.790221993617286365e-03
-1.112873117414812582e-03
-1.077065720317314790e-03
-4.330414019061545189e-04
-1.527911715286112745e-03
-1.128877414026710187e-03
-8.421310209409436183e-04
-6.726467013258495510e-04
-2.497392542850677358e-04
-5.417574261482009526e-04
2.350887259178899226e-04
-1.723153090639768315e-03
-1.203265332521423177e-03
-1.906554009744529593e-03
-1.235092941459692457e-03
-7.442007755195332317e-04
2.523430404633910263e-04
-1.351712263306458590e-04
-8.579793121180339256e-04
-8.554074565626002035e-04
-1.312499086223960654e-03
-1.406770207838099057e-03
-1.072793552909676647e-03
-2.476261703879387068e-05
-3.627074493536593526e-04
-1.980514567802129158e-04
-6.400478782067327375e-04
-1.332672483996379239e-03
-1.844329983584484280e-03
-1.426220458355250418e-03
-1.069240885830272363e-03
-8.147365520531310058e-04
7.988378574867710915e-04
3.870839567657702958e-05
-4.614356614645380938e-04
-1.977940127351807999e-03
-1.322481674546802880e-03
-2.011671668495194128e-03
-1.327157941271364053e-03
-3.366165655266174284e-04
7.658058688046788520e-04
-1.584756394013540372e-04
-8.217527039027118637e-04
-1.538873944560094267e-03
-1.231448707340267092e-03
-1.681070296166503868e-03
-5.341714544473343158e-04
-5.630747013405833700e-04
9.094562090258985878e-05
5.681425050321347063e-04
-4.874989789668383400e-05
-1.460392767512807676e-03
-4.633990813489082677e-04
-2.793262199893872095e-04
1.236459959777247994e-03
2.755498161592757835e-04
3.141496842988036604e-04
6.758364344367419774e-04
9.865418920664520246e-04
-3.596642341402677117e-04
-4.973469851535901797e-04
-2.740811939374305888e-04
3.706709323094789402e-04
-2.232600174764127598e-04
-6.955509616093084229e-04
3.271362359059780270e-04
-5.126684984420724791e-07
-1.198391770785658971e-04
-5.549637097424546192e-05
-7.160138892775888943e-05
6.347947434416689521e-04
7.167777957180135730e-05
-4.700043805400107386e-04
-1.457432326889783458e-04
5.582599500315971967e-04
2.127410177056736937e-05
3.864090546700941825e-04
3.252418654279752531e-04
-4.338437363857662750e-04
-3.202931064814400165e-04
-1.120322856370416838e-03
1.799552510782711644e-04
-8.611308800053149733e-05
-9.920485251959297276e-05
-4.283234780177276537e-04
-4.522117536401465431e-04
-6.626042811525365960e-04
4.981170476226055540e-05
-8.970445486488489535e-04
4.716274972728870822e-05
-2.222085312805136665e-04
-4.812029017741931516e-04
-1.049677457191676606e-03
-8.897440198843334759e-04
-6.293676373324604955e-04
-4.399840333112297859e-04
-4.028548492614355517e-04
-7.287457795200390567e-04
-2.952905345590852836e-04
-1.178249231675462371e-03
-1.637842691225596106e-03
-1.668155472054375131e-03
-5.453526140937111364e-04
-5.553069530872015939e-04
-4.581815456130326693e-04
-4.059733814535444892e-04
-4.051793240636692144e-04
-2.727816075422216744e-03
-2.270760856149537689e-03
-2.278493561152194948e-03
-1.899750878830094164e-03
-1.446854785345448634e-03
-1.629136608045851512e-03
-9.025492477272052802e-04
-1.874128131333441054e-04
-6.576966949447097827e-04
-5.502945429962423710e-04
-1.547284571510889565e-04
7.299440580371458929e-04
3.434934061119868662e-04
-3.714433975337197566e-04
-4.737329197250480302e-05
5.762944204552466641e-04
-2.383816779561108673e-04
-7.014405576204177286e-04
6.862317492877677196e-04
1.270041619840753830e-04
8.702253347641686126e-04
-5.094487501719417288e-04
6.464530342310939376e-04
5.220948265020923171e-04
-1.284433932260597359e-04
-8.818772397107781775e-05
4.954685284646661182e-04
1.781205692659471073e-04
1.765436723879673599e-05
-5.181187054423418321e-04
-3.902218184581633881e-05
6.132818284585589419e-04
1.129997077896029216e-04
7.407367134099749522e-04
-1.051517414487695111e-04
-3.820229978953912473e-04
3.167220645844406272e-04
-9.370238019670341662e-04
-5.325024379794929697e-04
7.980617364688601546e-04
2.007370307070375658e-04
2.119184732735604373e-04
2.227451870443473460e-04
-3.678991181330576801e-04
-6.433260797023903309e-05
-3.325154324736765777e-04
-4.723727095430194827e-04
-5.267198138376259623e-05
-4.101540419763527088e-04
-1.267670174982113039e-03
-1.031542538302358727e-03
1.623636964151974863e-04
-7.386650426412253790e-05
-1.350648487486555112e-04
-8.410494457818070476e-04
-2.683199963202654290e-04
-1.411415384823139999e-03
-1.573880387156829323e-03
-1.927662381110778695e-03
-1.553906281533352701e-03
-4.538046636126657216e-04
-1.214734662182025658e-03
-9.680104992292206225e-05
4.327527912824489132e-04
-2.409819114061852088e-03
-2.615550800408449495e-03
-2.290499397484626470e-03
-1.810682407264202487e-03
-8.462288187318224401e-04
-7.943210132747034529e-04
-1.077864145114171106e-03
-3.621327400599019049e-04
-1.364933472999728826e-03
-6.088419992827172767e-04
-7.518980824998317035e-04
2.282120672163565479e-04
4.634632121909087825e-04
7.151300335227791898e-04
2.255414756962211844e-04
4.085229691817434078e-04
-2.678510770844897727e-04
-3.781625454023850681e-04
-1.070828343350454853e-04
3.523858589062223308e-04
1.599282316726479889e-05
1.542463402616654419e-04
5.316220078860745381e-04
5.362070586707681384e-04
3.271664529961176317e-05
-1.408708080729733606e-04
6.137759627999547773e-04
2.865981085976662831e-04
-6.185847502598715211e-04
-1.098195673390171476e-03
-6.917181085924979699e-04
-2.234480649230790987e-04
1.458797652379608518e-04
-2.704178546130695578e-04
-6.073938605671926104e-04
2.651718694601585733e-04
-1.728644923980337546e-04
-1.101640349895259769e-03
-6.531604745588695917e-04
2.253948202668329902e-04
-6.956675624847117679e-04
-3.846724633173621431e-04
-9.761121890941789356e-05
-2.882454552278668116e-04
1.868603965394103673e-04
-2.797001509376090050e-04
-5.971545892694038839e-06
3.552484228803259826e-04
-5.694766601336486659e-04
-8.382167345885948402e-04
-1.006266284403665350e-03
-5.672906546953622930e-04
-8.757644860085809406e-04
-1.225323001377210579e-03
-7.145717277597692227e-04
4.564595292646767780e-04
-1.102406121053951370e-03
-2.277438195415245302e-03
-1.580134941972756923e-03
-1.384333502345405685e-03
-8.234240242945074957e-04
-5.804292497952438790e-04
-3.300635127668024487e-04
-7.773121848096383509e-04
-2.268051145691402613e-03
-2.805824452655951949e-03
-2.273306507612822547e-03
-1.358040724128848275e-03
-5.224511785653856251e-04
-6.570574301765805085e-04
-8.923925810383508865e-04
-2.714421389737007055e-04
-2.691608131920021196e-03
-1.577753313795493160e-03
-2.088578569859592463e-03
-2.058531284920771601e-03
-2.110502118288954364e-03
-2.269069311913454561e-03
-2.251291253581458231e-03
-1.112361412299336244e-03
-2.699272716683785191e-03
-1.893195033131483095e-03
-1.595634884841188456e-03
-1.601615484217303216e-03
-2.084127663344652933e-03
-2.144819811551576874e-03
-1.498528164562187284e-03
-1.370496867474671650e-03
-1.148577658367668126e-03
-1.007111106597482781e-03
-1.135292505130884588e-03
-8.946339005717992470e-04
-1.868547726138443778e-03
-1.943407624889997897e-03
-1.733133595432402802e-03
-1.626526011723541292e-03
-5.843517345710129473e-04
-2.248649652029005629e-04
-2.012298009849804170e-04
-6.438474687781888103e-04
-1.359319060369374756e-03
-1.592583712084789417e-03
-1.083698400608888853e-03
-6.102672421444343357e-04
-9.173299801713737925e-04
-2.926943563818398104e-04
-5.737350963137986468e-04
-1.084566550824281014e-04
-5.961054083914166983e-04
-1.001156993301026941e-03
-5.522665585377634989e-04
-8.310306638775759227e-04
-1.139009471892934305e-03
-6.720173854022149298e-04
-4.560556539091619225e-04
-1.927664373441853119e-04
1.614437078715872395e-04
-8.882962754188218710e-04
-1.287791778305419127e-04
-8.879955308317399312e-04
-9.864863938206756833e-04
-9.537337367824717414e-04
-5.691206313270393653e-04
-5.553643236057304597e-04
-1.129234493988516308e-04
-5.002297031728803129e-04
-7.032044799310520648e-04
6.426025040212412316e-05
-1.103864522568674938e-03
-1.298137371268018704e-03
-1.442081147172748603e-03
-1.167486781885806015e-03
-9.799407699090144711e-04
-1.003190622333108599e-03
3.742482994210046855e-04
-5.521396420338782040e-04
-1.306305631568117041e-03
-6.242053754290063147e-04
-9.837445318079353004e-04
-1.543957211815363741e-03
-1.153587642313909931e-03
-6.879162125738389616e-04
-9.049041053507813704e-04
-6.912416366394982716e-04
-9.968441966245464910e-04
-1.322821931635489306e-03
-4.689667008503853448e-04
-6.958900120274616073e-04
-1.256468527862474385e-03
-1.447877220216891355e-03
-1.113074556700351103e-03
-2.489273777180842106e-04
-1.306782060145625932e-03
-2.679935086152663388e-04
-8.741154141176571467e-05
-9.463334984478998652e-04
-1.023236648698416015e-03
-1.012439925535435362e-03
-6.462522890092242591e-04
-8.371041450972618696e-04
3.563225699732365851e-04
1.468984153545740468e-04
1.776379302677479185e-04
-1.823084223156658940e-04
-2.748688212739886470e-04
2.330018998045379954e-04
-3.140392386235142923e-04
2.141937903931875729e-05
7.099797678654520090e-05
3.851608194462667611e-04
1.077944982266946334e-03
3.277266671919186014e-04
6.676434814044794760e-05
8.582185283303174310e-04
-3.594208912769701939e-04
2.081180004308521062e-04
4.624914088285675038e-04
6.168380090275034410e-04
4.765312711092183355e-04
4.260035218342688237e-04
-1.408040760606763279e-05
9.117353591797744622e-04
1.008585510047169207e-03
6.927652509263935131e-05
-6.017882852307549412e-04
-8.848607811521024295e-04
-4.638056795935496975e-04
-1.034904888042715410e-04
1.774853112047222422e-04
-1.098437394557137139e-04
1.257506999927845634e-03
5.106033545457097026e-05
-1.247005850699497856e-03
-8.563028666409311937e-04
-4.479314261213281014e-04
-1.403774123903308289e-04
2.875525442173055527e-04
1.387305317337866894e-04
-1.677241783897034087e-05
6.999931588672672058e-05
-8.433550621671862804e-04
-8.965523671125814409e-04
-1.142670099324404531e-03
-1.191340271846944628e-03
-5.313615631301036885e-04
-1.114611033565507739e-03
-9.242857187689758206e-04
-5.467904793814959939e-04
-8.788244104696969154e-04
-1.832011036219950955e-04
-5.920899096710074277e-04
-5.575785454211237184e-04
-1.415384129547765961e-03
-4.767111943287739894e-04
-5.763502102740290876e-04
-6.266239371062043558e-04
-1.643283282861854430e-04
-2.705450350268992065e-04
-3.394773228539075920e-04
-6.340673114220593499e-04
-2.867906133578999894e-04
-2.978869218535144228e-05
-2.854375743563004062e-04
-2.560777538762085376e-04
-3.026659306142174990e-04
5.501060896402965635e-04
4.070414597157864561e-04
7.429821833372999814e-04
5.361579449559935500e-04
3.218949080974269853e-04
4.877096701116916296e-04
-4.212221301512164779e-04
7.101026364066300844e-04
5.985507007700396464e-04
7.004804683707803806e-04
1.657777899065404409e-03
6.517240551761385161e-05
9.588260620119462216e-04
9.178083867437748008e-04
2.812680992506453453e-04
-5.614947627436346926e-04
-2.438294581439993404e-04
1.273943088246706854e-03
8.229286159527136445e-04
2.575745024429065052e-04
1.241478706129128980e-03
9.098277514582745005e-04
7.346427171556974348e-04
3.413262141334813776e-04
-6.922167310482332347e-05
2.249645027535507010e-04
5.520172740545465501e-04
3.713565952998330150e-04
6.942570233769879444e-04
3.399834108183414499e-04
6.952544145692322094e-04
-5.555523676037447088e-04
-5.002605086186494602e-04
-4.758405217594920546e-04
4.369699224654051114e-04
-5.096352026023102765e-05
5.681953469860984542e-04
1.368593685999528646e-03
1.021389735476337969e-03
9.950262112752253797e-04
1.004609082624533791e-03
1.020012873206384632e-03
1.420593553209816224e-03
2.993424100146369667e-03
2.559050533462217322e-03
1.702468875369908237e-03
7.179465491302669880e-04
1.933108242597006453e-04
3.968674926377197551e-04
6.525080218626519825e-04
8.800826001911204576e-04
2.445635834856193548e-03
2.191753664939195129e-03
2.347165594982789452e-04
-4.957351707483921197e-05
2.713238749769505574e-04
-8.603484731679663256e-04
-6.249260051756362459e-05
3.428751819742890711e-04
9.030481497181088325e-04
1.253005078307931931e-03
4.160235677729230892e-04
-9.322522337764654757e-04
-2.392979313398300957e-04
-1.084954340167809238e-03
-9.842710876180765268e-04
-1.418502327572005361e-04
2.284460526487712894e-04
6.951003549833236969e-04
-2.290943671947680261e-04
-1.659427758954888079e-03
-6.950593252061214051e-04
-7.098005318988010056e-05
-7.086988908077731511e-04
-9.977734433371088078e-05
7.223706843705593114e-04
8.202914254235925233e-04
3.634008442291155401e-05
-8.610772229639895251e-04
-5.332292805392175889e-04
-4.886195122044752095e-05
-3.182241553291131593e-04
-5.566872344853912189e-04
-5.769268030892012178e-05
1.387073149072247120e-03
-1.355012339996523939e-04
-6.676552216912030099e-04
-7.832675556766655230e-04
-3.207146328808207678e-04
-4.466340275372433256e-04
-5.928571256394823442e-04
2.124222075646876125e-04
-5.759065785490790040e-05
1.637486352789689615e-05
-2.062100379298196888e-03
-3.399511912383325275e-04
-1.290429845743757201e-03
-1.101107074585856195e-03
-1.680719433956431559e-03
-8.165261534822324929e-04
-1.476822107330131080e-05
-1.164422097095929630e-03
-1.080618454193425912e-03
2.815989759273530737e-04
2.697456022977283473e-04
6.011870603444419972e-04
5.407787768859902231e-04
1.727291504149714536e-03
2.053349658356570101e-03
9.099100498258549160e-04
-3.780137972048485903e-04
5.554199639045979877e-04
-7.222410968073525927e-04
-1.280893983772478427e-04
1.419341476480452387e-04
1.960608788909334963e-03
1.559739638118585190e-03
4.045614087160461739e-05
-6.957555461257063393e-04
-1.194415120361455931e-03
-8.469152426676610900e-04
-1.205844060343641512e-03
-8.756092841888061260e-04
1.098773274574645943e-03
6.964547205560618626e-04
-9.714370482532293368e-04
-1.367531551163629665e-03
-8.965282061589086894e-04
-7.577782446144190739e-04
-9.478963974057738086e-04
-1.116710666059950174e-03
-3.130116988599067687e-04
8.712960940150882771e-04
-9.764432244238090879e-04
-1.568409599985220136e-03
-9.621309772379270332e-04
-8.780203433743321954e-04
-1.694637794533800654e-03
-1.714650960535332985e-03
-1.653532044422109909e-04
7.071877745923129972e-04
-1.416219616396052175e-04
-1.962737124746167811e-03
-7.855870603646828961e-04
-1.565786010215938556e-03
-1.529265376295216913e-03
-1.040680201704602664e-03
4.393167627499753019e-04
3.857348293902112851e-05
-4.845771227537680665e-04
-2.049036780437231073e-03
-6.467584865450283233e-04
-1.279231510442589053e-03
-2.062373947372793219e-03
-1.259524402055222378e-03
-1.884728712355397879e-04
-8.241745307001143881e-04
-5.168164761091062617e-04
-1.750952309569315558e-03
-1.170130220148578098e-03
-8.174279463462108325e-04
-1.641422392887250531e-03
-1.715252021762776703e-03
-1.719473610471974195e-03
-4.335412104896910136e-04
-1.389888330488468987e-03
-1.923324467974566777e-03
-3.613347961016625994e-05
-6.405943017976571500e-04
-6.557054789107666457e-04
2.063614940424076359e-04
1.346221114923765692e-03
1.301269474132334819e-03
1.004004157131577896e-03
-7.617263792559862126e-04
-3.149684594823257740e-04
-4.698781144101360041e-04
-7.801375343899199849e-04
5.785328278671564295e-04
1.020498454391931742e-03
1.492929910800676677e-03
-3.118444874746172904e-04
-7.468498959243705581e-04
-3.764749536789298951e-04
-1.105383431801804095e-03
-1.694158059771767259e-03
-8.917930600467841593e-04
6.180308589909699240e-04
5.916134012583040922e-04
-4.167105786320958916e-04
-1.563847951894683889e-03
-7.687093688337469800e-04
-2.164961384366707701e-03
-1.632332474883246669e-03
-1.339226897789767877e-03
-4.559450252284376380e-04
5.581044371042290274e-04
-9.153188871049921464e-04
-1.722125426564008639e-03
-1.676515475116824305e-03
-1.160944428266856782e-03
-1.523278562342741038e-03
-1.154379555867358952e-03
-1.311783164950774841e-04
-2.124972030713741375e-04
-1.385954580158335007e-03
-1.522202451510948048e-03
-4.856759767329025938e-04
-1.375224458184385809e-03
-1.224672320379107358e-03
-1.134159366755457202e-03
-5.156246851224348133e-04
-4.557283204809000894e-04
-1.448284193215738968e-03
-2.008422449910093714e-03
-1.241738198028108061e-03
-1.848165388419573986e-03
-1.475782718619333446e-03
-2.004634149665773194e-03
-8.844059295355417459e-04
-9.833404851932788654e-04
-6.330696821195617822e-04
-1.634764829757885153e-03
-7.728937077422726393e-04
-1.878610885268022258e-03
-2.298600854501000809e-03
-1.996283761524636925e-03
-1.495499007222215191e-03
-9.071766674608707426e-04
-1.748597036434520503e-03
-2.181580387416517074e-03
-8.201357419606149571e-04
-1.573922390598432239e-03
-2.142494815982004617e-03
-9.884777379065249215e-04
-3.791366825435796761e-04
-2.578630867710040588e-04
-4.539061364583955958e-04
-2.947258282742531879e-04
-7.481985783422948934e-04
-1.397902406238263643e-03
-2.001128154847315547e-03
-1.907634975683137214e-03
-1.424238037262885682e-04
-1.469005646749808663e-04
-6.159823437782342313e-04
-2.178097054490366578e-04
-1.058546090873875535e-03
-1.715940148174297485e-03
-1.652396782281825025e-03
-1.641883668288273259e-03
-2.549139337650699897e-04
-6.048847031364179230e-05
-2.516848476872500496e-04
-6.505588917515825985e-04
-9.431447699306520381e-04
-2.224208873967544690e-04
-1.110835867282433274e-03
-6.894985921901983315e-04
3.818418020024105059e-04
5.145284877402887943e-04
9.420311207551837051e-04
2.527798755091394838e-04
2.960729387634582796e-05
-5.727312502932751896e-04
-8.761402065516059757e-04
-3.149952708151933386e-04
2.036585735073850358e-04
7.377979531373732780e-04
1.380299076810869276e-03
7.476303621209078000e-04
5.723484946877504826e-04
-1.437111575563103719e-04
-3.301579294082717829e-04
-8.112088327487824773e-04
1.840145853620761703e-04
1.599484806745404830e-03
4.147008906342422975e-04
3.072337568546410570e-05
-5.087437512638023657e-06
4.061059491984571139e-04
-3.615956790341438376e-04
-8.537603254998214980e-05
-5.172145640061930928e-04
9.508783688072232039e-04
7.260708050966513394e-04
-5.569739262477296608e-04
3.416083376121689880e-05
7.727356208866406921e-05
-5.950235996020651272e-04
-3.302091945044776104e-04
-2.178330312107251254e-04
6.910759409227682816e-04
7.135725694705335456e-04
-4.875521028781274412e-04
-7.185627264137170022e-04
-1.416962464205700481e-03
-1.168843107308311898e-03
-1.022760108299877692e-03
-6.260899352787698794e-05
1.376013483536592588e-04
8.234794756493857173e-05
-6.545254272517829833e-04
-5.370140804324532785e-04
-1.061176020844833718e-03
-1.839715577673253430e-03
-1.045604911379124620e-03
-7.033273001218670389e-04
-3.623182391362342889e-04
-6.952551883841616876e-05
-7.668208620978476248e-04
-5.412839534948770629e-04
-8.790335278065375011e-04
-2.258095455345655173e-03
-1.239763165001198531e-03
-8.464727839819092539e-04
2.857854778987226996e-04
-1.526963062788431785e-04
-3.765645613658223385e-04
-2.180105196714331997e-04
-6.401529677728561626e-04
-1.221773516773651432e-03
-9.924573338014862096e-04
1.771780746158229910e-04
1.423742829355465790e-03
1.847549885304432932e-04
4.884342804862435447e-04
-3.826869178433485539e-04
-4.304105359938482575e-04
-6.947688631402306348e-04
-4.130280369537131101e-04
4.340494519439569670e-04
1.063058800550410873e-03
1.738917497793982447e-03
1.230463817991574757e-04
-3.112236976731228716e-05
6.815270999277430776e-04
1.026784335072778944e-05
-7.419273263740825720e-04
1.194337291217883318e-03
9.528849105593191135e-04
7.376046349698294228e-04
8.535508437554971232e-04
2.737387911219453930e-04
-7.539197776027862282e-05
-7.423579920202387624e-04
1.473415876566056665e-04
2.311717531234539605e-05
3.507768123428148862e-04
7.647388457496837695e-04
5.945965744595506450e-04
2.460464917397156060e-04
8.882997861399639450e-04
2.485084457555655291e-04
-5.197712363833723297e-04
1.694263035618996844e-04
7.296715309701558511e-04
1.280335019322311830e-03
-3.804618952652811950e-05
-2.038101605515282942e-03
-1.985926410931363861e-03
-1.830697101041634314e-03
-1.977310849951782485e-03
-1.031985106406186833e-03
-9.349901337859424662e-05
-1.334323777048611976e-03
-8.086368591118052972e-04
-1.604647272945784091e-03
-1.735486767768416828e-03
-2.120291440956402311e-03
-2.300978836825874185e-03
-8.495764370177428474e-04
-5.069650802943539113e-04
-4.711228222663483059e-04
-7.969984870240130661e-04
-9.090398451331606604e-04
-1.681879302981751072e-03
-2.508267042822220384e-03
-1.868113562647414141e-03
-1.134231030175216794e-03
-1.033638026886312972e-03
-1.014113021827297212e-03
-8.730375767648111598e-04
-8.746639994341060291e-04
-1.317736454447937522e-03
-1.748199535684461176e-03
-2.280560345744032415e-03
-7.966313933259921206e-04
1.604070348334172625e-04
-3.400560648879428767e-04
-9.325801212640198951e-04
-2.758496309188206001e-04
-1.273901929218471726e-03
-7.270265196544806619e-04
-1.145345676134766318e-03
-5.969640338074258925e-04
5.489437329971847378e-04
1.318422822816106186e-05
-1.149774005665648289e-04
-1.033715080562476983e-03
-1.002412419633302767e-03
-1.522001446807208242e-03
-1.285667404085762567e-03
3.695881758752907979e-04
8.505483014274141862e-04
6.163729120401701799e-04
-1.555121692901222964e-04
1.160786085510457055e-04
-5.651488976407387753e-04
-9.073006617739604908e-04
-6.127395586415280591e-04
-7.218906824053759018e-04
-3.901977081973657187e-04
4.121748344597671960e-04
-2.684039720516016034e-04
2.876017698733447214e-04
-9.149769153910115426e-04
-1.456217110283866342e-03
-1.661368768963051310e-03
-7.032347313163246193e-04
-7.914278210044102188e-04
-1.349008136004362622e-04
-9.839780214311152819e-04
-3.099263747229165692e-04
-7.457401710931662719e-04
-1.606613682093490096e-04
1.658291542812113559e-04
-1.088962987228537539e-05
-2.553125998409163153e-05
3.382886087062045928e-04
5.299910840311659790e-04
-1.463241449676161215e-04
-9.465315599304913174e-04
-1.901191607952136650e-04
8.584292491181596846e-05
7.142119312829202154e-04
1.925662146142024123e-04
3.343814320418227507e-04
6.045044295934666597e-04
-2.709131208017147817e-04
-5.910839641916158229e-04
5.129457180650654185e-04
6.798798191703192377e-04
1.535443977322034550e-03
5.255344621970120273e-04
7.245805082584477579e-04
9.358429859834230431e-04
-1.070606458930398013e-03
-9.078378822149245830e-05
3.680401266237466780e-04
8.723631688979167258e-04
1.730476277766527767e-03
1.062175896239520153e-03
1.463983458762011750e-03
1.099886030720648254e-03
-4.971392880456345026e-04
-3.995339068965825008e-04
-2.029544479314403477e-04
8.845216554328868760e-04
1.359010356302272097e-03
1.131521796236318548e-03
2.219890653957091032e-04
4.851915752440425010e-04
-3.107877745364840262e-04
1.178941672090540909e-04
2.144353605278736846e-06
1.222004708388251979e-03
8.021691009339896108e-04
4.998061558592441223e-04
9.425606193578207827e-05
6.359947478608445103e-04
3.891088892216811946e-04
8.449289423262848183e-04
2.687431806184647359e-04
1.817107717308986882e-04
5.831540435690383585e-04
1.747322126300358998e-04
3.909243569286941335e-04
9.759782036584705800e-04
4.547433608442909910e-04
2.061028617015086227e-04
9.242258336183630137e-04
6.041126618207510806e-05
-3.569573437911155076e-04
-2.557899367180073056e-05
7.017393121377773742e-04
-5.776550580962247147e-05
-2.267869401986388235e-03
-1.785079853174562645e-03
-2.012545588469263035e-03
-1.428921675940831183e-03
-5.348676384347296302e-04
-1.416415949186845737e-03
-1.563445531250003736e-03
-7.300290610270324804e-04
-1.021718174707125955e-03
-1.517689312178044283e-03
-1.089253700423139940e-03
-8.587539323607429418e-04
-1.037481985247290040e-03
-5.585501293533238392e-04
-6.602140317979348413e-04
-8.391966087838431676e-04
-1.894341296399226901e-03
-2.221058644969453426e-03
-7.721458581798150943e-04
-6.234154544161327541e-04
8.363050315553021774e-05
-6.168366059556359840e-04
-2.144439675735326139e-04
-5.837133414432793034e-05
-1.573442681519979756e-03
-2.117187004237225129e-03
-1.349261116416169493e-03
-6.156068055163408997e-04
4.537345327833492478e-05
-3.676588229396701669e-04
-9.135095080570014830e-04
-1.107488505329343696e-03
-1.945668492581080749e-03
-1.824701567885685279e-03
-1.661915968441042123e-03
3.464895015308922920e-04
-6.093416479810186744e-04
-5.172459819662456743e-04
-5.284824065200577825e-04
-1.092567295535705084e-03
-1.422174114292775555e-03
-1.285209454448582546e-03
-1.247432124485020307e-03
-4.805957108870177654e-04
-1.100966453191419385e-03
-8.257960293109087952e-04
-1.243143039454394985e-03
-1.342357534713455340e-03
-8.412667870235698148e-04
-4.202278047427414256e-04
-6.133810855093897989e-04
-3.204636286152954486e-04
-9.084834515933618493e-04
-2.266801727875157428e-03
-2.119304013078246625e-03
-1.095901392460637376e-03
-4.885582627218920324e-04
-1.614236078693839001e-04
-7.257680058049689265e-04
-9.243695593780284613e-04
-1.147803053908131622e-03
-2.036143423191427888e-03
-1.766810666184272845e-03
-1.823190584870279735e-03
-1.334075104206928781e-03
-6.492144598700241766e-04
-1.230014723975847565e-03
-4.471371063288835353e-04
-2.034600062207840131e-04
-1.073665082474765204e-03
-4.818361887805623352e-04
-1.052181231204649082e-03
-6.485156412552150595e-04
-1.113180366162568003e-03
-8.826567777119507206e-04
-2.603581781403166017e-04
-7.683449356736325557e-04
-8.907001013223060345e-04
-7.610603113534116209e-04
-2.672627451680847655e-05
-8.629734453708827035e-04
-1.193058672951034403e-03
-4.523480264893783311e-04
9.120689490845972856e-06
-4.922733714807409110e-04
-2.255610686576218962e-04
-2.948832645644854067e-04
-4.415911597721381408e-04
-6.311415445705286387e-04
-1.461279362346106468e-03
-7.752412206053232611e-04
-2.081116301103780460e-04
8.528661851233772153e-04
-1.909186332634469881e-04
-3.807310107516452720e-04
-2.977251712469099220e-04
-1.132619441551885190e-03
-5.655890430344340030e-04
-6.678069264915335130e-04
-2.101853390234403646e-04
-5.396617794578454990e-05
-9.067396667341176162e-04
-3.880268245042656173e-04
-3.166361481819698095e-04
-9.178946795211359111e-04
-3.651177886027313826e-04
-4.337509509001251465e-05
-1.866684336044852933e-04
-3.870886860181906638e-04
-1.391677335262827067e-03
-6.880736270862001158e-04
-1.011677507702865315e-03
-4.160718839566117464e-04
-4.614394640364240978e-04
-2.135479632342337153e-04
-9.343697604565238133e-04
-5.241472890321891140e-04
-9.942570035550741137e-04
-1.906618004309374803e-03
-9.006663046324314215e-04
-4.578671368490638588e-04
-7.468730434337203549e-05
-7.717595739981215029e-04
-8.166104136072112546e-05
-1.002672822822914429e-03
-1.113638663705177967e-03
-1.600717790283749014e-03
-1.212521783616163102e-03
-6.417049968228540719e-04
-7.901145522448096330e-04
-7.282018722235723829e-04
-1.917346299889800549e-04
-4.166906413213675902e-04
-2.241502759097022904e-03
-2.702970760738330688e-03
-2.041201832145991737e-03
-6.443376872144874990e-04
1.538150670532012520e-05
-5.722514028220195221e-04
-7.978289148604249302e-04
-1.204438552443396968e-03
-2.180010421812860269e-03
-2.482448038218104409e-03
-2.036878296699658544e-03
-1.942057704261972596e-04
-7.489546196404536652e-04
-3.721899725812086949e-04
-1.426866441060986503e-03
-1.202024385297491933e-03
-2.005231000563484269e-03
-2.730838929828548981e-03
-1.732958111498783234e-03
-1.148258428939717820e-04
-5.971172354229206420e-05
-3.307984856205799760e-04
-1.012742073161405822e-03
-3.825933473547029717e-04
-2.024394805198835665e-03
-2.567413506757653795e-03
-1.751690545097571222e-03
-3.495237181178824544e-04
6.121171675892752694e-04
-6.519410840843566221e-04
-6.232406274704429573e-04
-3.322685647835021223e-04
-1.610526506263832000e-03
-1.148668592968955229e-03
-1.026290185808164876e-03
-2.202080145905304471e-04
-1.027707422775008244e-03
-3.428143020979332995e-04
-1.618453847701535706e-04
1.639436992860523752e-04
-6.525438595946071946e-04
-6.743084402282168181e-04
-1.282763419195074401e-03
-2.057193473717796022e-03
-1.903060935012825883e-03
-1.409274864417721720e-03
-1.393775080090203658e-03
-4.346635565222309230e-04
-1.495204902487757247e-03
-1.567361563217492797e-03
-1.206077186341505004e-03
-1.970492017686056949e-03
-2.855277849093273371e-03
-1.748388475902308255e-03
-1.581241837539605535e-03
-1.269999069815392788e-03
-1.367573337605099441e-03
-1.058014310408045755e-03
-1.290065662376770148e-03
5.145086672374230832e-04
5.303943052649306880e-05
8.968804936140549228e-05
9.340477838251594247e-05
3.645006951756988764e-04
-1.379703199447901256e-03
-8.974136615048171860e-04
-8.654786763460987388e-04
7.799236361389566899e-04
8.303138642804219196e-04
3.691815088992651773e-04
1.776571916919807669e-04
1.493588548453617427e-05
-1.204231703922649171e-03
-1.946219327134581694e-03
-1.208081448990736039e-03
8.569084924249532192e-04
7.496748423127358148e-04
7.394986379345392866e-04
6.744147420742634992e-04
-2.159179410296787813e-04
-1.119877616028648474e-03
-1.658428391476002642e-03
-7.044137158027011627e-04
1.192542585183178384e-03
1.372797736386287704e-03
5.495670084303072795e-04
1.018166943182972949e-03
3.711429995797731521e-04
-6.904289533440187291e-04
-1.003208226737364352e-03
-7.620327193101855776e-04
8.588681283092112822e-04
8.264181120459931310e-04
1.143397492991432823e-03
7.111619928592977915e-04
1.179351300933224878e-03
1.025663355335217537e-05
-3.867279097709570412e-04
-5.970010131276501226e-06
7.728750116766873023e-04
3.979020786524390535e-04
2.111188667061481960e-04
4.571618928197978388e-04
8.094550504341119050e-04
1.422184880741359024e-04
-2.310184040704698087e-04
1.350718570293137359e-04
-3.134681095146405350e-04
2.936012164891296523e-05
-8.931380138582071431e-04
6.687729501218824153e-04
-1.696483727871908728e-04
3.892270547654153663e-04
-7.638394787743438361e-05
7.489172308376833721e-04
-9.844450845229151675e-04
-9.012435875910545114e-04
-7.540559412942261612e-04
-2.188223312155298562e-04
-4.544060984856542422e-05
-3.592343805689419164e-04
4.231699493027546097e-05
2.169542347778806186e-05
4.968557242352263006e-04
-1.827519902138884913e-04
8.439763559483497591e-04
8.332878501538514438e-04
-7.083826579928317923e-04
-8.253500256017813055e-04
-1.243275346966353501e-03
-9.681890897789703328e-04
1.442972258789585404e-04
3.684980961177814125e-04
-3.293380494877976320e-04
-1.989365326978636921e-04
-4.839288509034560997e-04
-1.049341137131761751e-03
-1.412978798442602680e-03
-8.254033317148855384e-04
3.578351199660824021e-04
8.332015013071556657e-06
-1.448388541049193293e-04
-2.006301123727381578e-04
-2.601494115191426478e-04
-1.442403225872904669e-03
-1.423087121092047377e-03
-1.525637214784132363e-03
5.257917727748020022e-04
6.792395837297276334e-04
5.592484788824930502e-04
7.874349093563080782e-04
1.705562709108530885e-04
-1.276919943700740006e-03
-1.058339912990506268e-03
-1.319301524363760683e-03
6.233994835103696128e-04
4.606791961086859023e-04
1.155886953827896940e-03
9.282274679431099353e-04
3.941759591817743441e-04
6.909153420619533145e-05
-7.561513849688458007e-04
3.278383985121973229e-05
5.241623012967659657e-04
1.497186738704149459e-05
-1.069090569382283046e-05
1.052756966289050689e-03
4.425208120052444142e-04
-4.091268936891465026e-04
4.185815220075829479e-04
-6.198795723268018013e-05
-1.386798929910107317e-03
-8.405142781476168060e-04
-7.220678302077326762e-05
4.765184834439252937e-04
6.986522890652466927e-04
-4.304997197624590381e-04
-6.621658122088584786e-04
7.320635741666806995e-05
-9.959750676529265188e-04
-1.007506155737229996e-03
-9.006884172872100689e-04
-8.697871247192430835e-04
-6.395694721199568326e-04
-6.568944182824754856e-04
5.644632242066215772e-05
-2.773116748653553596e-04
-2.076790447952307859e-03
-1.666528220089134871e-03
-1.442994263116580784e-03
-2.071945009220180559e-03
-1.383904437966727591e-03
-7.234555961035199706e-04
7.015064468114070347e-05
7.686946507442599065e-04
-1.998639324573947117e-03
-1.819208024021740219e-03
-1.260171764189897811e-03
-1.084682115525853214e-03
-1.001115130113746504e-03
-2.974850107829322206e-04
1.777514983679955528e-04
3.346763111497877440e-04
-9.892347699164247450e-04
-8.424890490420007972e-04
-8.741301781065059784e-04
-7.158468437365877752e-04
-8.172714033567547373e-04
-4.196973347262349194e-04
6.329992635098306841e-04
3.907817685889153694e-04
-1.130417705249583005e-03
-3.510607246887085002e-04
-4.754920168698609706e-04
-2.486709077696203129e-04
-5.535625869210563624e-06
-5.828781342803497504e-04
4.079534980803859790e-04
3.336453765641319354e-05
-6.061462301978028837e-04
-4.077191097250894920e-04
-4.596952951838427373e-04
1.096618901470331484e-03
2.190482925286680444e-04
-1.640407081178195977e-04
4.196958261958247936e-04
3.919320619636270471e-04
-6.131384872762567217e-04
6.437261851945826605e-05
2.370286724668603620e-05
3.717172260417476353e-04
7.008738700578507133e-04
-4.062394318873767981e-04
-5.192333096124104918e-04
5.345337721824669616e-04
-6.339935730662644856e-04
-2.578830804072158086e-04
1.583190277659249758e-04
6.902877066409830731e-04
2.504501381248120328e-04
-5.476144521608807643e-05
2.313011527226028206e-04
1.200553047111107424e-04
-9.211103437990247802e-04
3.275326587985495207e-04
3.287797216027169966e-04
9.005977838446161104e-04
7.747644069651001258e-04
-4.061635748866718708e-04
2.326283169555513192e-04
-8.246833503436855860e-04
-2.659879616768983084e-03
-1.856854965515529086e-03
-2.710098756197259519e-03
-1.881920204376014410e-03
-2.211260418006634129e-03
-1.472551214505159840e-03
-5.741073765835149386e-04
-9.634137902444394252e-04
-2.631703130564349690e-03
-2.102249220443385379e-03
-2.426131842619571981e-03
-1.989545459659354965e-03
-2.305900542028598271e-03
-9.829208598407593311e-04
5.993126400029705935e-05
2.985887803986799719e-06
-2.326095331009510412e-03
-2.266614052549743765e-03
-1.784483123967577859e-03
-1.144333625783054914e-03
-6.813941214518099690e-04
-7.867603267927805082e-04
5.980571738527096638e-05
-3.406085291853442015e-04
-1.067607754667972792e-03
-1.339873428445910366e-03
-4.002631259794682712e-04
-9.702380367084347977e-04
-9.379317082721241395e-04
-4.009393861467731445e-04
-8.123120072617421358e-04
-5.959239673820851835e-04
-4.642301486456208693e-04
-5.258877118636790622e-04
-1.173347303838333331e-03
-3.933890819152739454e-04
-2.672151488087072817e-04
-9.465805619485187852e-04
-4.594855157889598109e-04
-3.470638180610712432e-04
-3.368179674805936831e-04
-8.892277729695182830e-04
-1.999204305529037919e-04
-9.658089171546294441e-06
4.542181416638995718e-05
-8.432776762626707778e-04
-5.751157964935738531e-04
-1.367767187098578802e-03
-1.250184184687229373e-03
1.337339719839831023e-04
3.545139366938820577e-04
7.823359964836462460e-04
-8.973078766154186209e-06
-5.044340325774082211e-04
-1.066438201593982458e-03
-1.221269599144629613e-03
-8.737775661335748676e-04
-9.893238448134510348e-04
-3.400335402314950115e-04
1.026566147251690980e-04
2.436797334190521705e-04
-3.101707077324654263e-04
-1.053866713654132625e-03
-7.096072739158864034e-04
-4.874505801772575312e-04
-8.955452755815112567e-04
-1.229669421746061326e-03
-1.720797292046115628e-03
-7.002735691230317508e-04
-8.453224933146918528e-04
1.234651557652284180e-04
8.741150531869001580e-04
-7.647456196860413563e-04
-1.255835601706609302e-03
-1.711426557990727675e-03
-1.014331526869883919e-03
-8.595229998264637423e-04
2.547548737062936140e-04
6.835361553646149681e-05
3.564188014185563566e-04
-3.984612983351079390e-04
-1.230961190833639723e-03
-3.374700606030339094e-04
-7.642418434138870467e-04
3.005156452457006795e-04
6.748031975790905906e-05
4.508675024620666691e-05
6.476926127868983234e-04
-2.527302656827023477e-04
-1.670234811687751016e-04
-2.696759580216283726e-04
3.687162697347769386e-04
5.593699984989656832e-04
2.978889179035814358e-04
-3.020336598288315467e-05
2.319616486262497809e-04
-1.554152446938190826e-04
2.042463215110288961e-04
8.560052373176229787e-04
4.663631340728353197e-04
2.606422038542785665e-04
-5.886865346851385527e-04
2.096551375101075464e-06
-2.650277716926946990e-04
3.991889761306791355e-04
2.448930599490419750e-04
2.915545338069509742e-04
4.569673794846070588e-04
7.840113026329662525e-04
-5.974720723374391407e-04
1.021710114469374952e-04
-6.276406804706644634e-04
-2.303753941568483573e-04
1.072259074949914216e-03
6.837605996140482456e-04
5.241166938940956463e-04
2.891472920484295089e-04
-2.214699137049512350e-04
-4.114559449477187296e-04
-4.683730450773433435e-04
-3.223578996673724510e-04
2.029788304330087966e-04
3.965222818037416469e-04
8.874183815240902677e-04
1.193421941783564394e-03
3.100869230491732275e-04
-2.378042358679041083e-04
-3.323291792650687545e-05
-2.463748947952672935e-03
-2.126686747790970233e-03
-1.653883121964730071e-03
-2.169636416011319971e-03
-1.683324863853117876e-03
-2.510046119781938426e-03
-1.930139968875381820e-03
-7.200139746339627618e-04
-2.513179250932489131e-03
-1.764209290642621605e-03
-1.304600214655084233e-03
-9.520767848975517349e-04
-1.481151916680485854e-03
-1.476776398773938523e-03
-1.484046352016613057e-03
-1.396587769120163306e-03
-2.772902202472748903e-03
-2.061732664537987720e-03
-9.425607438774957899e-04
-7.870269814321404411e-04
-1.139902069123157214e-03
-1.538069804211415975e-03
-1.252278259496203937e-03
-1.815797707139157630e-03
-2.496215464137723460e-03
-1.950592653336389887e-03
-1.206709079861492239e-03
-5.810625031868144009e-04
-2.459062397175016540e-04
-1.416057307091268293e-03
-1.198806995600143520e-03
-1.583298065726987565e-03
-2.843241062459262846e-03
-2.057243443012356232e-03
-2.107335491992171506e-03
2.168207968285195363e-04
-2.322126303035982470e-04
-4.455938030228990317e-04
-5.057239241828906124e-04
-1.729569987645680545e-03
-2.649110388930233165e-03
-1.612361603049245829e-03
-1.367806507650024071e-03
-1.675821746652859196e-04
-1.268316275475322964e-04
-6.125386828239034131e-05
-3.337164229639992346e-04
-6.797026504649896156e-04
-2.031468389890941830e-03
-1.725952605795922322e-03
-1.312566333746926616e-03
-9.064281688181916605e-04
2.594676942967523480e-04
3.113030405588353405e-05
-5.072178522300801453e-04
-1.165503153724039816e-03
-2.814987012950967253e-03
-2.092932138234313792e-03
-1.755307867072759733e-03
-2.828593542308185027e-04
-8.577044218218126542e-04
-2.491495550774989890e-04
-6.072447165272615169e-04
-1.235221298396201083e-03
-1.745263967881542644e-03
-1.190883428869380116e-03
-1.020660285053005779e-03
-8.825054609411935069e-05
-8.385913553456108682e-04
-9.160367467486727269e-04
-8.876621459268175043e-04
-7.570573739409768152e-04
-1.497387329044186409e-03
-5.843703893078348475e-04
-7.866049132564321674e-04
1.347409636506064965e-04
-1.121142262144645720e-03
-9.492538130309749553e-04
-4.452677252640920057e-04
-4.043370149956335342e-04
-1.764739703141366290e-03
-7.485084750835533859e-04
-2.675853576822177001e-04
6.469146799833791267e-04
6.099517355484260564e-04
-2.976802592216126362e-04
-4.722293679759928921e-04
-1.767167103410081756e-04
-1.996733704976405479e-03
-1.515997299355923778e-03
-7.000591310235615211e-04
9.517126686883280824e-04
1.033320949313242714e-03
2.280442453735645122e-04
9.905682446526460898e-05
3.175498110771923658e-04
-7.746183576534779354e-04
-1.655843253865999561e-03
-5.877838547050815918e-04
1.107017114423802535e-03
7.776702703397487962e-04
1.142967585073638350e-03
-3.896519903808945634e-04
2.621690256959738623e-04
-6.479465579216838345e-04
-4.130152431653520326e-04
-3.774216227756453613e-04
5.156918927962125896e-04
1.210374036994289748e-03
1.650016495133228064e-04
8.908993761379518494e-05
1.393961641929349559e-04
-8.666247603007451884e-04
-4.903531385451959719e-05
-1.329027128156820320e-04
9.966442248501674369e-04
7.436069838766413542e-04
5.472714209656352876e-04
6.722672058970441443e-04
5.654221406008862888e-04
-1.101017698014708675e-03
-1.536729217646384989e-03
-8.074890866768654396e-04
8.238887978814411978e-04
3.722174513769811927e-04
4.632143407313213997e-04
1.713140652963921200e-04
6.294457841935819937e-05
-6.319830064000524954e-04
-3.832404521164464641e-04
-3.926592409454756033e-04
-8.118210690575930911e-04
-6.877518433338090454e-04
-4.603284910598438580e-04
5.843577734910756355e-04
-1.509308916673199428e-04
-1.088727180956180433e-03
-1.245430785908866692e-03
4.924645932018739810e-04
-1.153376487262256216e-04
-2.937529449420688086e-04
7.505797955143568871e-05
6.482087700727235226e-04
6.405828790010572172e-05
-2.784290340191587060e-04
-9.394704885496390871e-04
-1.639851548309742503e-04
1.446925592862703105e-03
8.609036923614535905e-05
-9.056563577862707614e-05
-8.018653005480250737e-05
-1.839658936743657019e-04
-6.761044604997495152e-04
-7.904483030269089227e-04
6.592603224742250032e-04
1.724023905098323204e-03
1.329806774828091445e-03
1.247593394753166319e-03
6.481917459187321647e-05
2.068140733877428387e-05
-3.601973387884558199e-04
-3.998836713535173950e-04
4.646313226894258975e-05
1.332987983664748284e-03
1.573692010384943355e-03
1.248710637954368900e-03
9.144105637446292610e-04
8.713169304850866765e-04
2.485223796369085829e-05
-5.982560173209261868e-04
-6.661182296265555846e-05
1.467866107900410791e-03
1.471553153690714245e-03
1.317019385916311496e-03
5.215392490835591257e-04
4.490578787434794513e-04
-2.406437567084618073e-04
1.089249086613780973e-05
4.814959560677059308e-04
1.511806954273537014e-03
1.082325816070866783e-03
1.177150725967801787e-03
7.631548035558272840e-04
7.854854367167499402e-04
-8.716560352261320740e-04
-2.223869647234118685e-04
8.474941024232135337e-04
6.935571931091701753e-04
2.147410882482752442e-03
9.672544599647572199e-04
5.461343239714316986e-04
1.194510789354338376e-03
-6.063674029262674549e-04
-1.051300261890091448e-03
-1.922348627460266626e-03
-2.218429790626321851e-03
-2.357382582832541658e-03
-2.824721127592230707e-03
-1.525564726487946927e-03
-1.507408889874225751e-03
2.127430257420758624e-04
2.391371886215933312e-04
-6.674259107984597920e-04
-1.733265119655623193e-03
-1.692967448506851533e-03
-2.110640076874161983e-03
-6.477569359410310403e-04
-1.964005655562425529e-03
3.192112910567990679e-04
-5.382952702914291536e-04
-6.617689265705240529e-04
-7.905825769599785597e-04
-2.150505120915757479e-03
-9.883268616228879297e-04
-8.320134877686891995e-04
-4.884809964727722560e-04
9.591010449380666866e-05
2.732581403895440299e-04
-8.986814661899909318e-04
-1.021582541461925038e-03
-1.098191066180608400e-03
-7.365051608612629324e-04
-8.068661046167602919e-04
-2.211425046470604861e-04
1.062590107476789596e-03
-3.714652594569924798e-04
-1.272079425924996839e-03
-1.339432218906212160e-03
-1.530754102458087426e-03
-1.048778403234769136e-03
-1.200559867723526627e-03
-1.497703651209168155e-03
-7.020977900803932771e-05
-3.648736964119684992e-04
-1.261225845596618701e-03
-1.754216504004415741e-03
-1.608042848593772356e-03
-2.182048752303804122e-03
-1.043658421048706143e-03
-6.762387831929456226e-04
-1.262585405103830839e-04
-3.304556718910945799e-04
-9.697787009814867482e-04
-1.287458605027822335e-03
-1.582418330855267161e-03
-1.469364905565277626e-03
-1.108780649102576342e-03
-1.752551304126388982e-03
-3.394056183611431809e-05
-9.422080883453452967e-04
-7.329541388712971280e-04
-9.427528147864560129e-04
-1.372309783784021568e-03
-2.610633654557693428e-03
-2.027227995795679357e-03
-1.983740089362961371e-03
4.870548756884985502e-04
2.947801201248878675e-04
-8.019148266325339417e-04
-1.530979175816217074e-03
-2.096874174609979127e-03
-1.612286186354215363e-03
-1.375681441367215905e-03
-1.429542766698387946e-03
7.430121973510321436e-04
3.655429381753846061e-04
-2.964635237090134496e-04
-1.197771974551235536e-03
-1.509307440072648124e-03
-9.156457973427157030e-04
-1.157775375721589034e-03
-5.482457143717374849e-04
1.031352254243891918e-03
2.912219507365217726e-04
-5.857032988026507261e-04
3.648107316149955541e-05
-1.155054735727720043e-03
-4.096279731928323918e-04
6.517508786308048169e-04
-6.489183903035730271e-05
8.824162949895469118e-04
6.213707984807330257e-04
6.716548741585638574e-05
-5.279934164330865121e-04
-5.736957959182334898e-04
2.583997129331297720e-04
9.187718117699793913e-05
-3.008047998891230927e-04
6.174427478115944966e-04
9.267883956544022302e-05
-1.644211821481012794e-04
-8.909112880233355236e-04
-1.000195991662169211e-03
-9.720812946894629011e-04
-1.462230197936855022e-04
-1.067706715485365290e-04
1.358422689024012513e-03
-1.745270810071109901e-04
9.977898986526146004e-05
-7.126497219424901509e-04
-7.502396244678560984e-04
-6.974032970483872752e-04
-5.258567885556437440e-04
-3.495577572941953575e-04
5.435522840606390408e-04
-1.762119540036876904e-04
-1.368439651389813123e-04
-4.120756899066190036e-04
-1.243171086723093930e-03
-6.279543355749307026e-04
-4.777642315987151831e-04
-3.808344690076148967e-04
-9.259938795376306702e-05
3.484263987328688130e-04
-8.093873682058732970e-04
-6.921440726734419228e-04
-9.576198002955449429e-04
-1.161007760374142047e-03
-9.954293768695042857e-04
-6.163928639867927032e-04
1.141621690492692969e-03
5.393633525565469508e-04
-2.278930061914114869e-04
-4.208677088395450109e-04
-8.395221057447550643e-04
-1.213847514444652128e-03
-1.441591084133279866e-03
-9.039442005646924081e-04
1.431794019700293602e-03
7.225116404550143345e-04
1.837755122299788730e-04
-9.285331176447547729e-04
-6.316054596387176388e-04
-1.876124536635324729e-04
-4.968172459675044856e-04
-3.282227020695807781e-05
1.158480794737799585e-03
9.626729234456681602e-04
-2.021533887471762419e-04
7.186486940819650606e-05
-3.337247012335526209e-05
-1.237089411144875442e-04
3.774437154914351265e-04
3.229103897420692757e-04
1.232413549976046820e-03
1.354717378594641822e-03
6.030368609350126707e-04
-1.418113742215984128e-04
-6.945987996570788820e-04
-9.296081541579904171e-05
5.783118298455795954e-04
8.359725111062192354e-04
1.825774730446798593e-03
5.060217740760783543e-04
6.209305867520312997e-04
-7.727780872577261434e-05
-6.199837087107561541e-04
-2.382173545473321801e-04
5.981435633825986928e-04
1.274140982617995321e-04
1.136921426303977084e-03
1.392666430255526389e-03
1.837670884221764725e-04
-5.717785666776465390e-04
-2.304882185591401798e-04
-2.885160977332845191e-04
-5.334644956069495639e-04
-5.166817677329692748e-04
1.634916710349268269e-03
1.020120783281778859e-03
-2.795912864861671733e-05
-3.733671911254281923e-04
-7.549425039953560658e-04
-1.067030388004218443e-03
3.012180230446630897e-04
-4.692412571680936936e-04
6.866672252594895184e-04
8.473105781848907971e-04
-4.128365278672754195e-04
4.498369656435595876e-04
-1.278820049124377591e-04
-1.950748628987297880e-04
-3.293991779673500803e-04
-2.179148085253571131e-04
7.184486246995598797e-04
4.352086929066884317e-04
1.041394580588392424e-03
-4.191134345098737569e-04
-9.633902130373898703e-04
-1.205395783043190783e-03
-9.987381712942414776e-04
-1.046703011219417712e-03
5.354950622300732894e-04
6.225009868769969040e-04
1.040349495064302578e-03
3.621902010210285719e-04
-4.354271920796995887e-04
-7.073443643783092595e-04
-6.508036557821914991e-04
-2.096920812403946037e-04
-2.713087908731079412e-04
-3.753187237722088059e-04
4.290480544096556166e-04
1.064889232067848732e-03
1.435040447803276938e-04
-3.843354945612693506e-04
1.654956861101985360e-04
3.958725042515696653e-04
-9.269878601647409686e-04
1.574774046886776664e-04
-2.195627400612718905e-04
1.638457689134271630e-03
5.935376129877271935e-04
-2.092482696057335306e-04
3.759743256559673640e-04
-5.228176353961821402e-04
-1.008467054245730391e-03
-1.704063833830544127e-03
-9.328124192682429395e-04
-1.616085356652312353e-04
1.197430532647203341e-04
-9.793604708478401838e-04
-1.135390986497322426e-03
-2.771978754810509589e-04
-2.882000910991604648e-03
-2.482358504683258339e-03
-1.750424288402657215e-03
-1.439683849454939527e-03
-7.552610538192951759e-04
-1.474928962264097313e-03
-2.023805839020901848e-03
-2.116675232926164621e-03
-3.846155158055552126e-03
-3.550937168394485092e-03
-2.689023301645751367e-03
-1.673700294058934508e-03
-2.065709009973821456e-03
-2.370282843497057822e-03
-3.096484517757946801e-03
-2.339608536282521394e-03
-4.064150659841502498e-03
-4.267553614140406383e-03
-3.067509651207546602e-03
-2.877323217681073894e-03
-2.098371602419942406e-03
-2.772272987954018178e-03
-2.437631642707986657e-03
-2.521456263963996105e-03
1.208355181015113855e-03
1.449499687868526605e-03
6.042637939045969681e-04
2.850901177935963250e-04
-7.318250709680271032e-04
-8.769274001829766019e-04
-6.913429361271838632e-04
-9.593319346841138059e-05
4.310549231840568119e-04
5.212177564568308032e-04
6.688178697573592775e-04
6.738761086558390026e-04
2.309974374822889318e-04
-6.852480567798061809e-04
1.324022527423248958e-04
-4.735171530923548873e-04
-9.147315413784705440e-05
8.130943257550801283e-04
1.110596190209753916e-03
1.604314887547264763e-03
1.594896280228430248e-03
-2.312443202768583084e-04
-2.366733293594789147e-04
5.518565943947522593e-04
-5.142790397555975501e-04
-1.667107763330280632e-04
4.916230561829767337e-04
1.338541939725394238e-03
1.417708083104918726e-03
-5.541208523131129773e-05
2.196801798022090754e-04
-4.489709708291879885e-05
-1.033052521984053869e-03
-1.040903953143828761e-03
-3.409925552118496712e-04
7.305786879920721233e-04
-1.703441467482503320e-04
-3.380785677000219857e-04
-9.424187895298441605e-04
8.360674527669516060e-05
-2.225720865585070242e-03
-1.968486608346370868e-03
-1.314741161663473754e-03
-1.142201670927265374e-03
-9.109572624708658960e-04
-1.127053921585169545e-03
-1.582781715642781698e-03
-1.426946318679126824e-03
-3.211925099371959035e-03
-3.459185034522426622e-03
-2.844634627683462896e-03
-1.929012063924058018e-03
-1.136384661450554967e-03
-2.196999758723895604e-03
-2.112521504218699796e-03
-1.194188801443835015e-03
-3.803684267808972366e-03
-4.403270806784164576e-03
-3.197681308806964336e-03
-1.786247749447235746e-03
-1.240968673697454006e-03
-2.529724658238276074e-03
-1.975062311364978590e-03
-2.158067791697494079e-03
1.703057397240784979e-03
2.134510816299025823e-03
1.571019373989393161e-03
1.156722070230439521e-03
9.106530090324205197e-04
5.415892684127176653e-05
1.180604499408301417e-03
9.383180044635496984e-04
1.867427092289858761e-03
1.949085521654921006e-03
2.210162621662499580e-03
2.530605384571519602e-03
1.133465901490287968e-03
6.706692849205329529e-04
4.668335804934212294e-04
5.062328193864808808e-04
1.589620558669630227e-03
1.721821291504432036e-03
1.696245021700387885e-03
2.249900668942594450e-03
1.649207909062296550e-03
9.169488672465550636e-04
9.553419272915414720e-04
8.665360996171359367e-04
1.432204401537601635e-03
6.647609512782300415e-04
1.618518324900010321e-03
2.298957971707605782e-03
2.434560489281079303e-03
1.241318725260766309e-03
1.557920180951252644e-03
8.221787309802363166e-04
1.573387054108835723e-04
7.375112175086604360e-04
4.638962782711625061e-04
1.029288466985191133e-03
1.536029243534048783e-03
1.016410232853809945e-03
1.453108401328478418e-04
7.166353605696263200e-04
-1.493802582200145536e-03
-6.008346711983909893e-04
-8.553766823884020008e-04
1.746920105608180355e-04
5.281556297207406006e-04
-7.769058053518289970e-04
-1.996902138095899134e-04
-2.104559797168414166e-04
-2.111571670667789120e-03
-1.924073265214139381e-03
-9.760774057698210632e-04
-7.133444369569336141e-04
-1.958395154549189617e-04
-1.491865967072792927e-03
-1.236715062898084737e-03
-1.125485563975991195e-03
-2.686480611238919926e-03
-2.209059602756207556e-03
-1.263133991745426284e-03
-1.356043202206614002e-03
-8.603551177824542932e-04
-9.510318029881157471e-04
-7.106329879038378317e-04
-1.397759389985921098e-03
5.087852793545417657e-04
4.252486313348368720e-04
-2.132459126897085682e-04
-2.823729445588103715e-04
-6.663099304234258247e-04
-5.865112377006230287e-04
-4.436207459251402161e-04
-1.016253121078074164e-03
1.100394418723620212e-03
1.042751281911070624e-03
6.387416909827235830e-04
-1.769563734206211708e-04
-7.812173954617531455e-04
9.657542065695722759e-05
-5.699710326834640708e-04
-6.466092071623738731e-04
1.344038314517863233e-03
1.054090528691930444e-03
4.903993232323885327e-04
4.656235457053953383e-05
4.200416628026541906e-04
6.275789809028250576e-04
1.049300289143918362e-04
-5.956201852475279763e-04
4.762294892894289571e-04
1.186695032916661131e-04
5.573601096412856507e-04
5.160851445127776155e-04
9.181280754982720110e-05
-2.289033095402985313e-05
7.603645125996136072e-04
1.319232685362817974e-04
-4.158712760832711567e-04
-3.022215164020971689e-04
-3.438425894824557062e-04
1.751583374017608738e-04
-2.095196349571483538e-04
-4.732008998271538245e-04
-3.138504070678858676e-04
-5.884407495507395884e-04
-4.504478786297050493e-04
-8.580377466723720144e-04
-1.251205632209602620e-03
-6.121579129064756751e-04
-7.681331591865011655e-04
-6.527764345228045505e-04
-1.036025227402174445e-03
-1.307505564474082749e-03
-1.435977737245338953e-03
-1.294580873544268424e-03
-1.720123823538665265e-03
-1.480277769455845722e-03
-1.466476572098077439e-03
-1.138516387110881118e-03
-1.231854145097524165e-03
-2.659594406266356861e-03
-2.365186429436954771e-03
-2.723617344203286758e-03
-2.573595652669281170e-03
-2.141357172608778382e-03
-2.297667146849628576e-03
-1.799299820233684656e-03
-2.420752041970914131e-03
-2.386019888430899669e-03
1.298506422330261093e-03
6.045586359555336171e-04
2.059083352513823813e-04
-3.742905698961504490e-04
-2.854886295412129168e-04
-9.801908189083778818e-04
-8.729474336379874997e-04
-4.336752610623452551e-04
1.191363646134875392e-03
1.284986363305105081e-03
3.811375560258289832e-04
2.979876586473493259e-04
-5.270863344176983552e-04
-2.899187166908447034e-04
6.978893212102041995e-04
-2.640564577870743420e-04
1.341743851573212179e-03
1.231080910476430642e-03
8.897118872951045301e-04
1.422381875712558797e-03
2.046975475785527002e-04
3.979775933186780845e-05
3.824823298041774185e-04
-2.340245663181932351e-04
6.274726505585405357e-04
6.743240915148261975e-05
3.455298112196641068e-04
6.283065736850019806e-04
5.979556551416975686e-04
1.233495160150976716e-03
4.999187232366204608e-04
-2.985165106262768027e-04
6.064558629610864804e-04
7.934816413181837945e-05
3.342981250828303409e-04
-5.474419364742526013e-07
3.181880896875156439e-05
3.421963622629511513e-04
-1.665241622223816934e-05
1.433256358518990206e-04
-3.456829658523560356e-04
-9.943203559112765051e-04
-4.785225688468991607e-04
-4.109768683226262755e-04
2.776191045060480748e-05
-1.250253865178366881e-04
1.872483802411135999e-04
-8.265303127849443375e-04
-7.230941433348378944e-04
-1.554678052081860402e-03
-1.064433035950408061e-03
-1.459355029144134225e-03
-8.572304558225182433e-04
-1.776245933156331150e-03
-6.550449329096971101e-04
-1.577187377400766748e-03
-1.577584729346143957e-03
-1.829930881929949221e-03
-2.242453205303468391e-03
-1.691104088932294603e-03
-2.418114814609636544e-03
-1.824703809947085748e-03
-2.235483691009169504e-03
-2.178352197336248190e-03
7.150819688794214689e-04
5.604425459177415393e-04
4.260819754942363072e-04
-1.007010178013566151e-03
-1.103829856971151125e-03
-1.131268765152641386e-04
-1.145643869826748371e-04
-1.618857313012568577e-03
1.260278324737080201e-03
6.990767760915110162e-04
4.928474844761283023e-04
1.644800390488805543e-04
-2.207483135354873624e-04
-2.954260292293388931e-04
-1.927621112275916125e-04
-4.883826642155001882e-04
1.298716436377917848e-03
4.884849105248023323e-04
7.218991877296530250e-04
1.000186238319642797e-03
-2.373513347723117716e-04
4.269403066228543873e-04
2.490905974211533619e-05
-4.070459633561632640e-04
9.766217851221244313e-04
6.386415190933462287e-04
4.484105804028230228e-04
7.492998594133844616e-06
8.793248275086680468e-04
-7.713906910089560003e-05
5.732829109225219197e-04
-1.676295457196166352e-04
3.848545322888489691e-04
-3.552053453115236090e-04
6.234202235135394277e-05
-5.146724427202854345e-04
-3.566520163004163388e-05
-4.400510692599091198e-04
-3.604206391914000266e-04
-5.929873989431427416e-05
-3.038822912814037299e-04
-9.137768926484057547e-04
-3.681423096756130200e-04
-9.986480890388576507e-04
-1.133560781522808744e-03
-4.380208713964690989e-04
-2.705509962523163642e-04
-1.162095879712458403e-03
-1.402922745561994543e-03
-8.273374160630416960e-04
-1.287274041364935926e-03
-1.393717299496792213e-03
-1.610051111905759329e-03
-1.705233356207522038e-03
-1.507986076532963782e-03
-1.851590075088949561e-03
-2.217732770636517744e-03
-2.041766356871972492e-03
-2.629913687875541466e-03
-2.261725018229479578e-03
-2.051508052372225978e-03
-1.764576845755907054e-03
-1.553936759441220967e-03
-2.700233375542451537e-03
5.917027199139721257e-04
6.624402964919345535e-04
2.704568862853755752e-04
1.119681423787022376e-03
3.417375162872766004e-04
4.924558013089296244e-04
1.209778898490266891e-04
-5.481776453442253308e-05
4.535334948853813144e-04
-8.411979214622586451e-05
3.348532855526435703e-04
-1.004103749665632636e-03
-4.558764090472381628e-04
6.812225274650010294e-05
-1.822824004100070722e-04
-4.832966154824140334e-04
-7.104513957004722447e-04
-5.736886430851279419e-04
-1.163114790204422978e-03
-7.121833655182176030e-04
-1.318004008290314568e-04
-3.226729515924625733e-04
-1.157148233292223634e-03
-8.723707354641994406e-04
-5.631538399997033061e-04
-1.693946427446303606e-03
-2.084834534901137959e-03
-1.274651934457697979e-03
-1.241980447042437740e-03
-6.401266380799442183e-04
-8.256300923092747476e-04
-6.104103896529218315e-04
-1.202942931615497884e-03
-9.336148168998551974e-04
-2.021672438957176562e-03
-1.194107575287318024e-03
-9.753972009215721578e-04
-1.106880395025204794e-03
-1.555412182341738491e-04
-4.352947295226008268e-04
-1.057395727565198012e-03
-7.638067799591383026e-04
-1.586812465542119773e-03
-1.583400322157113701e-03
-5.740975737110546586e-04
-1.037787381317352995e-03
-1.176917370421237528e-04
-1.207837320158469305e-04
-1.171032344360349066e-03
-1.058708963975654727e-03
-1.090515219716040735e-03
-1.007168668392618722e-03
-7.248902791964313350e-04
-6.432899719099118311e-06
-2.756214941357351873e-04
-5.612723881303692368e-04
-4.743252810490788626e-04
-1.248886060936876688e-03
-6.394541709101478170e-04
-1.281569888567944682e-03
1.128198124088715989e-04
1.627781434329858448e-04
-1.556920519990524971e-04
2.812361518326531962e-05
1.397935862519415155e-03
1.090941855505927170e-03
2.129073639654051504e-04
-1.264592195806578997e-04
1.213205013632266888e-04
5.012968899576924261e-04
6.765868928099974446e-04
-1.716651838390822668e-04
-6.683298260522791009e-05
5.174446412758077797e-04
-1.272496905984975377e-04
-7.506351124271175681e-04
-5.208018209885298616e-04
-6.289726450911395719e-06
5.100378712226197320e-04
-1.546741319615318880e-04
-5.665142907940941578e-04
-3.176329024855105692e-04
-6.327413994276668641e-04
-8.976366218582638263e-04
-1.087329569276070671e-03
-8.380020873816756977e-04
-2.471778836471222253e-04
-6.036705354697327890e-05
-1.306446694691228106e-03
-1.261033504118206977e-03
-1.162867181069829640e-03
-1.059490026870066022e-03
-4.874756057842663548e-04
-8.844248310535791175e-04
-4.429537087991612361e-04
-7.684739014693194254e-04
-1.528343742539658165e-03
-1.388408971619440333e-03
-1.504125010351157468e-03
-1.287394801200832106e-03
-9.669303072516274205e-04
-3.860000364135640085e-04
-7.256301787231396981e-04
-2.940733564628119062e-04
-7.005248992723818241e-04
-1.014484979635079396e-03
-1.938065559347730343e-03
-1.155121756497708282e-03
-4.598308413460998247e-04
-2.999118063593370315e-04
-4.949969204576553424e-04
-1.636759141121678037e-04
-5.233081361519708805e-04
-1.193278085769321640e-03
-1.070320505616648632e-03
-1.295160333939420231e-03
-5.150431260255144278e-04
-5.461644403450848558e-04
8.226085537994223991e-04
8.831874484069094896e-04
-5.718009799289369526e-04
-1.057832845575491006e-03
-6.366944133361242654e-04
-8.137705101749273789e-04
-3.108485075990763402e-04
1.861157446081919344e-04
-2.534652975480795184e-04
1.999189622194486699e-04
8.179851126968422240e-04
3.754373829679902232e-04
2.907655784977023904e-04
2.411638839312009344e-04
5.532574788336607971e-05
9.377054219887780628e-04
7.171373087920153563e-04
5.065282525410768222e-04
8.831979945800764531e-04
9.736227490257576744e-05
2.344200001995352619e-04
-2.981690811163322224e-04
2.132429954059723181e-04
-1.456746666552873851e-04
2.651750679810392902e-04
2.972798452794134239e-04
-7.256146423294986946e-04
-6.240675738006101758e-04
-1.502252426723737220e-03
-1.571368408710809191e-03
-3.663937724928636764e-05
-1.653617913743576375e-04
9.893550377689231377e-05
-6.799311142938106820e-04
-9.562311750117527976e-04
-5.148648392425740584e-04
-8.378265631262435094e-04
-1.171905967235748521e-03
-1.113104042208719335e-03
-1.061221793140456953e-03
-3.111572160705360860e-04
-2.316600894873837994e-04
-1.080299561690234098e-03
-1.122772081211660623e-03
-1.877421347278410233e-03
-1.289457937641484350e-03
-8.310939884607352257e-04
-8.228346524576401512e-04
2.218842119304605587e-04
4.995731535560833582e-05
-8.631462118651916969e-04
-4.195156346763041040e-04
-9.785519829492354913e-04
-8.033248177151652283e-04
-5.149475507316579517e-04
-5.121438965994830859e-04
-3.204775107194532749e-04
-6.454551243296131121e-05
-4.125391038567597962e-04
-6.075161972523650516e-04
-1.256059025261217722e-03
-1.948536544494813827e-04
-7.828730282683162196e-06
8.012943136742912693e-05
7.083197728031877683e-04
1.512784633808514009e-04
-4.891672697238536992e-04
-2.329453856483226836e-04
-4.114339288525415425e-04
3.018898912171471280e-05
5.282888093614817194e-04
7.053857762622133595e-04
1.246631627115411898e-04
4.909550451455257231e-04
-3.181574435419570518e-05
-5.519134957203223344e-04
-1.567166490527820827e-04
-5.662362930432125437e-04
7.408500708822067168e-04
1.774224052457158327e-04
1.286221336664521365e-05
-8.710132374025191014e-04
-7.010299697324891190e-04
-3.635193673795938420e-04
-8.283650827540810007e-04
-3.632956344676816233e-05
-1.254632507496750669e-04
-1.368224279726258023e-04
5.192100481944628089e-05
-2.367515391769311811e-04
-1.372206572390494541e-03
-8.304979242000383585e-04
-1.160426738579637112e-03
-5.832068932828347050e-04
-1.951380992632912182e-04
-2.454939320305586908e-04
-4.625476195517892676e-04
-1.957505264985085695e-04
-7.278521498877435708e-04
-8.878322678590324464e-04
-1.438369896615123399e-03
-1.765095910645490818e-03
-1.184924288714420820e-03
-1.201540771863758529e-03
-7.962916062805612061e-04
-1.109073161988833207e-04
-1.370519318446106237e-03
-3.256042726150974970e-04
-6.057437422920176244e-04
-7.930352528476215150e-04
-1.203814697529480239e-03
-1.325135655547824212e-03
-1.095861898207180565e-03
2.028599329304428631e-04
4.185392816517619161e-04
3.014549901809806024e-05
-1.802594608300258012e-04
-1.135137964926446075e-03
-1.466972126568360808e-03
-1.636745180059388620e-03
-1.939698738503483743e-03
-1.201305556963653100e-03
3.847585154681841058e-04
6.971186702500179648e-04
-1.759272573875576492e-04
-4.985423444361857751e-04
-7.924687922584471630e-04
-1.599455064237342719e-03
-1.187570101876360851e-03
-7.147940194915363560e-04
1.691151329958579669e-03
8.061626701989343512e-04
9.769143104136137365e-05
4.523304685253524407e-04
-9.825712909244306049e-04
-1.275053500094639912e-03
-8.449987614784952930e-04
-1.307567000277623558e-03
-2.851229381787497063e-04
-1.188379289219145853e-03
-6.157634655942399943e-04
3.633241709205186709e-04
3.124665405573435291e-04
1.391284991843601347e-04
-8.959614730482777642e-04
-5.493605080096748390e-04
-1.294243761544752215e-03
-7.763124391908392177e-04
-2.811093471493823553e-04
-6.916580067542624569e-04
-8.383223118800582521e-05
3.781317760539965392e-04
-9.981557387261992716e-04
-5.658045280339962400e-04
-1.115416169641865593e-03
-2.405472866102127758e-04
-2.043775517077101413e-04
-1.211524270423904308e-04
-7.556352069094161936e-04
-2.923887043238002168e-04
-1.042217571756205545e-03
5.675510519326984720e-05
-3.273381034206971794e-04
-3.195032377005288093e-04
-8.630153231160369275e-04
-7.846968298993304463e-04
-1.930614030859788884e-03
-1.096324649890942143e-03
-1.205133917617076666e-03
-6.353043782863608416e-04
-4.728674163889680891e-04
-5.329848614743894555e-04
-1.317382207728311737e-03
-9.572290298435437396e-04
-1.673254905581847245e-03
-1.672239165625869634e-03
-1.763634159917152689e-03
-9.226884555650620597e-05
7.253819540975933971e-05
-1.627000528570569585e-05
-2.906124442697779640e-04
-1.309637875016261268e-03
-1.407965102111194021e-03
-2.149941354120512692e-03
-1.629048696874659669e-03
-6.789604348692703049e-04
7.747791995911277132e-05
2.379772491045401115e-04
4.947745425373176057e-04
3.199550051867857021e-04
-1.418898660255935897e-03
-1.168462154220172543e-03
-1.911822249083128776e-03
-1.522754847393960852e-03
6.198428906807244929e-04
1.126405101395659041e-03
9.142241874670343485e-04
-3.673259098971049246e-04
-5.759031608439954628e-04
-1.674946193652411238e-03
-1.055602722539379775e-03
-1.200199640300148290e-03
-5.594669365352526692e-04
-5.132369948363202329e-04
3.663386474669117518e-04
8.458553125168856998e-04
7.274679511566991717e-04
-3.033434876784189957e-04
2.826861351343629928e-04
-3.231163997509810433e-04
6.358116016472504270e-05
-3.459003123118725492e-04
-1.530545027597375303e-04
8.938259911948774790e-04
9.733370615668984250e-05
-5.559623403216876203e-04
-1.905825084442331805e-04
1.027814292834194578e-04
2.047118550226078898e-04
1.302083928784072270e-04
-3.175476609453781272e-04
-3.875790432942305972e-04
-4.695657439187731212e-04
2.208952960719045742e-05
-3.365233730187166400e-04
-1.209934684304313647e-04
-2.190447171199870350e-04
-2.473247812004170641e-04
2.435020690079936424e-04
-3.366170151952633616e-05
-1.186601640496174779e-03
-1.180671967271196190e-03
-8.270533617132316438e-04
-6.599023085370507244e-05
-5.420202282306717115e-04
-5.362806382237777364e-04
-5.310030175736952639e-04
-1.030814770676620246e-04
-9.800526650575235119e-04
-8.881132107806024439e-04
-2.026792134847617581e-04
-2.830810626035399420e-04
6.956944743184237953e-04
6.671026813834959966e-04
4.711884438669270347e-04
-4.589348274964893341e-04
-1.142945353462974413e-03
-1.789238526112232842e-03
-1.817966657521833925e-03
-6.351418292857431399e-04
9.032368409014997690e-04
1.316870604886406521e-03
9.868339698828353969e-04
4.434888897474619255e-04
-9.324994184564057475e-04
-9.241140608667575661e-04
-8.890222758923815860e-04
-8.075596788373678395e-04
1.155079945978026859e-03
9.112836021054383524e-04
1.176322643247815517e-03
5.236075591398119686e-04
-5.740359501913488635e-04
-9.530143961634640875e-04
-5.195977163959221911e-04
-1.967576171718391203e-04
7.415462028580476796e-04
-2.228486430490221983e-04
3.432118666569415827e-04
3.836297987647378609e-04
1.515027824528538498e-03
9.989970447218359927e-04
1.475070655193829730e-03
-2.218641382042425944e-04
3.065885359449305246e-04
-1.026073136572776701e-04
-8.627259201596599789e-05
4.977856920007188175e-04
7.142678428601389800e-04
1.389683162524712936e-03
2.178820878946553655e-05
-1.886483506740519985e-06
9.848282447026686208e-05
-1.056285977843044507e-03
-7.927864086351382820e-04
-7.925868733386947284e-04
2.133148469923155694e-04
9.447597082125118407e-04
-1.863280566059018325e-04
-9.576486019259430795e-04
5.862557352618206563e-04
-9.657525737326073815e-04
-5.515967542786449776e-04
-3.740178385095221047e-04
6.370744702183728984e-05
8.959177698300251199e-04
-4.469749484716387328e-04
-1.283653990978164162e-03
2.042292326110445744e-04
-6.632573554970361013e-04
-8.449099736102828060e-04
1.180425639474195847e-04
3.836544752217492505e-04
7.218368755351653151e-04
5.285384282186982941e-04
-1.188107050794414560e-04
9.587126291615704363e-05
-2.441926831560700803e-05
-4.114147103431141654e-04
-3.257985443293895866e-04
1.364553507975942951e-04
7.438569555777298876e-04
4.985974786074972047e-04
-6.356572017013349717e-04
2.206024122499797584e-04
-3.318121705816824197e-04
-9.785236473079910857e-04
4.101975186472370857e-04
5.919723727711742427e-05
2.955003504623098616e-05
-7.207620223727312803e-04
-6.729846159458353037e-04
1.697404568894092655e-04
-2.177631462155571809e-04
-5.772156928311503697e-04
-2.685830003491065671e-04
-3.750135133549345121e-04
-2.303934932563181024e-04
-4.712731986759709918e-04
-1.121056704541988167e-03
3.770035099770767308e-05
-1.001642647339687567e-03
-6.552183113327865373e-04
-1.602908225319058118e-04
7.888233223505793004e-04
5.908579877096323697e-04
-3.891475640426142707e-04
-9.958816644539810956e-04
-6.660441354778006036e-04
-1.217412757145279380e-03
-1.151083425771908626e-03
-3.100300269137298012e-04
9.386930917008561026e-04
3.193815140127390399e-04
-5.803290603246324215e-04
-5.697591215874798620e-04
-1.015760180419758227e-03
-6.303618769862020469e-04
-1.591075047939583681e-03
-4.432778964351516459e-04
2.814541300480959281e-04
5.095507125377732489e-04
-1.264402091085459461e-03
-1.228814641766579497e-03
-7.654346967625420351e-04
-1.505928168837260056e-03
-1.839316209868119322e-03
-5.719446616266733816e-04
-2.319302178972808498e-04
1.084011817044532630e-04
-6.488491337700841560e-04
-1.534757641235160765e-03
9.139639539188399190e-05
-8.767190063859707245e-04
-1.238209185139986773e-03
-1.073456770070682111e-03
5.964427062576839066e-05
-4.802938000980693585e-04
-1.042849855878250423e-03
-1.945983538852104518e-03
1.493257811033359942e-04
-9.150381962691185415e-04
-1.684769207966612271e-03
-9.423407032681715154e-04
7.499733578976056393e-06
3.237834409540890656e-04
-1.027099863165840087e-03
-9.259434006977792456e-04
1.794128145395910458e-04
-8.645281978657834779e-04
-1.131547102529422994e-03
-8.708629602734428189e-04
-5.866593106830893982e-05
-9.115113536749560967e-05
-1.132501369869546182e-03
-1.466157096061920838e-03
3.489320803365765153e-04
-1.347730669947814347e-03
-9.113814743705431253e-04
-6.880056380595448665e-04
-2.165782103102439774e-04
-3.701223100315880398e-04
-1.529309041145103564e-03
-1.552402936442816338e-03
-1.440772178213914269e-04
-8.966329525215723493e-05
-5.527210681824505124e-04
5.210391458446121541e-04
4.743385957773099031e-04
2.991760348889340370e-04
4.397369800871873307e-04
-8.044542740384165447e-04
-6.826194132131731826e-04
-3.113051686299628598e-04
-8.783643364905100110e-04
4.821094416730188929e-04
2.592425932490602511e-04
9.596703804515352172e-04
-3.107442837633452373e-04
-1.212487495122629034e-03
-1.291370180800611100e-04
-8.450411562230564525e-04
-7.184312233901221081e-04
-1.195097397352570768e-03
-3.508740641528706669e-04
-5.330559321441860014e-04
-1.074591861646178193e-03
-1.373009029505580392e-03
-4.339716954303715016e-04
-9.144262564761921480e-04
-1.557302474241894228e-03
-1.378633229459142210e-03
1.261035846461645653e-04
-2.720857714876704953e-04
-4.681796655010075914e-04
-1.557598895763765779e-03
-6.976017953032319667e-04
-1.047783738285148125e-03
-2.205496469504652102e-03
-4.213280051680976142e-04
-4.835216207160119499e-04
5.425405310166121851e-04
-6.405575060796669289e-04
-1.709331561969314097e-03
-5.641725219141609151e-05
-7.846076895397255477e-04
-1.882694352836812579e-03
-8.525606584917556257e-04
1.561956896172595692e-04
-3.014023215791998317e-04
-1.128421885140540185e-04
-1.504900245162418999e-03
-5.531021015545157778e-06
-8.023702424134688052e-04
-1.023809552179574941e-03
-7.817797816997452140e-04
-8.304973806185906009e-04
-4.234521754764004431e-04
-8.577545670261596013e-04
-2.271029379292747313e-03
4.917888754908167261e-04
-1.318243354824832686e-03
-1.396763912620642336e-03
-1.410091034242471307e-03
-1.304622734489139287e-03
-1.041884614146741141e-03
-1.349004918484492241e-03
-2.398290742713291446e-03
5.135062494421170805e-04
5.502415002338726952e-04
7.237507855845609454e-04
1.627480980763200630e-04
-9.257589608082849794e-04
-9.064839680730318134e-04
-1.370826031333582332e-03
-2.001825223581856633e-03
7.237163432620573496e-04
6.163308340047518727e-04
8.384143962161934261e-04
-7.729593515553344688e-04
-3.523315825294373376e-04
-1.637964532908530672e-03
-1.285109908764796261e-03
-1.958680649604398888e-03
5.482448527709409165e-05
4.838700691715256178e-04
5.413768228312011667e-04
-5.006617931145158039e-04
-6.416466930468029458e-04
-1.566823979173255022e-03
-2.227648672261527303e-03
-1.778809356165843682e-03
5.463490377335786415e-04
2.712181842728796609e-04
1.060191299122554241e-03
1.416112308289444561e-04
-1.217646895661672396e-03
-1.840849017076072631e-03
-2.233224102707920093e-03
-2.787970852093470293e-03
-1.564928549735631030e-04
6.304896450960200327e-04
7.276996976239837002e-04
-1.497740019067411558e-04
-5.974057045592133432e-04
-1.582070622735873375e-03
-1.789880296424492577e-03
-1.783243590127508819e-03
-3.497261046022039251e-04
8.629956987918954150e-04
1.381680658737251526e-03
4.100243967550883540e-04
-6.174069179267863703e-04
-1.878051732359169775e-03
-1.892335423242686322e-03
-2.593988612640051299e-03
8.090414834838346005e-04
4.437196705612304285e-04
8.510235127433071365e-04
7.781856206028699065e-05
-1.013668622250059299e-04
-1.412667980813069697e-03
-1.297586881687613205e-03
-1.310787281986626647e-03
3.624671513179808209e-04
8.089172170950919378e-04
1.179655039925094203e-03
2.152358500883908292e-04
-6.028617185501575259e-04
-4.525041235908679031e-04
-1.231394414893483089e-03
-1.348642874233969011e-03
6.277066639584807624e-04
9.189703206407977320e-04
1.405120153324458101e-03
-9.144065306368040957e-05
-6.109210358147524776e-04
-1.052639170857326729e-03
-9.245278941076823893e-04
-9.192681360076006844e-04
9.442109789788487393e-04
5.079096686084325811e-04
1.836874996753805312e-04
-6.415896899681838503e-04
-5.488862961223258275e-06
-6.299641861528833655e-04
-1.963594880537693470e-03
-1.127965906460961284e-03
8.644864011400237892e-04
2.683504846882125701e-04
2.582147490252795631e-04
-4.772993405322820452e-04
-6.298830512469557079e-04
-1.000830919992423901e-03
-2.194198663192451111e-03
-1.952004562418762626e-03
4.141784866243395291e-04
6.233624688672452941e-04
7.132692959071638885e-05
-7.911085100656874971e-04
-1.249083745524727030e-03
-2.398051525466216114e-03
-1.907788877765952910e-03
-1.685231973375180946e-03
1.075309973760718097e-03
1.080766192587781158e-03
5.066972053149203020e-04
7.795700715578788361e-05
-9.694615975695579846e-04
-2.474994248757093375e-03
-2.448653799615314354e-03
-1.951385052019530752e-03
7.446613186863995128e-04
1.212505876276528342e-03
6.961097112494710887e-04
5.579378242229465074e-04
-3.656129069411372850e-04
-1.283831030889711396e-03
-1.277942569592755567e-03
-2.430887773853158268e-03
5.285601851412374862e-04
1.757854793520232262e-03
8.191634563429415474e-04
1.382898510046352673e-04
-6.165969755392156689e-04
-5.635310715808981461e-04
-1.412958323315995253e-03
-2.154437426573262756e-03
1.030407868583768823e-03
1.003901731994236894e-03
1.285287740080895847e-03
5.355690468762480628e-04
9.628734729796512080e-05
-1.230727330534291813e-03
-1.741180828301156338e-03
-1.025638055598141266e-03
1.128588959883744785e-03
1.234903069445565920e-03
4.270048644448713499e-04
5.058681697026371719e-04
-3.181115008365893683e-04
-1.172250890372595862e-03
-9.405702579072409758e-04
-1.532499867876653456e-03
1.086830611882402603e-03
9.737515823262253480e-04
4.112008590242383185e-04
-1.826862345190716417e-05
-8.574626967368605048e-04
-8.701053853632591305e-04
-1.532777495386334525e-03
-1.690337206795854618e-03
1.487257113424175564e-04
5.966582410136840727e-04
8.208526586101799099e-04
-5.092085465474918693e-04
-1.430883604751203523e-03
-1.924033274520024674e-03
-2.126301264211814899e-03
-2.181443558288705120e-03
9.004247531181803783e-04
4.057710035248615838e-04
6.747651240242757888e-05
-1.270163881481988221e-05
-7.862021292348815365e-04
-1.594256748950719210e-03
-2.513241951897868948e-03
-2.354439590763937173e-03
5.280992759347658000e-05
6.752674488748526636e-04
3.426981948502005404e-04
-1.864159983386787039e-04
-1.681779063648861355e-03
-1.623888010948957650e-03
-2.315667466958879102e-03
-1.943005760020946604e-03
9.218273738238481332e-04
4.746868260053031525e-04
1.376332660699499310e-03
1.490253815019318016e-04
-1.019734120219541792e-03
-1.740809391103761636e-03
-1.821682698346363191e-03
-2.599147470872871946e-03
4.035576360130266132e-04
1.037781205856817910e-03
1.292311508078427835e-03
-2.698057401482757537e-06
-4.706568059789245119e-04
-1.014573855639283552e-03
-1.588935555806664235e-03
-1.347562316853237723e-03
5.944219998451662212e-04
1.312233980574686659e-03
1.223233619363059323e-03
1.055094977524379061e-03
-3.606510421176873217e-05
-4.121344835869884685e-04
-1.634549419047168608e-03
-2.021346462552241121e-03
-3.792461972334343584e-04
-8.064867400170521155e-04
-1.260344884214905986e-03
-1.939878849578229297e-03
-1.825783140141256982e-03
-9.077948422113355734e-04
5.065677070726480212e-04
4.722724777225964336e-04
7.922576977026458077e-05
-3.977401951458650267e-05
-8.445239717964575597e-04
-1.205610350969735017e-03
-7.416624736655656747e-04
1.036300152377916690e-04
5.431414232232021667e-04
4.120003439517329119e-04
3.841483514263598097e-04
-5.713587971711718745e-05
-4.225682714304182454e-04
-1.925360550140755038e-04
-3.439638873315766779e-04
-1.099514124454677307e-04
8.975133778767554506e-04
1.076165480485406041e-03
-5.689397519515555692e-04
-1.110594444609953359e-03
-1.666061904598601035e-03
-1.458843015879469050e-04
8.201939520366692657e-05
1.117207506192274564e-03
1.519098730581757610e-03
1.581205386184068471e-03
5.243980900187912250e-05
-1.899644288367681325e-03
-1.957402111773073883e-03
-2.325167888931063795e-04
9.422875587533050034e-05
1.149235939217083200e-03
1.792035082335688596e-03
1.275534768057600635e-03
-7.477370844659865599e-04
-1.736762337252681712e-03
-1.494117881848872672e-03
-9.170833250048703077e-04
1.624860428746574808e-04
1.043209011290723368e-03
8.703242297333860797e-04
1.540804714967433349e-03
-1.090665665545980084e-03
-9.511877355329478477e-04
-2.005080425194648384e-03
-7.355883087370659879e-04
7.896788189878349714e-05
3.835353213277450718e-04
1.421933580188847060e-03
1.348454493664602918e-03
-2.100583035182231311e-03
-1.994290979312273761e-03
-1.971225634419137510e-03
-1.542731701372289984e-03
-2.859970566108472690e-04
6.943805509385190654e-04
1.345751977473870194e-05
9.363580581083077526e-04
-6.210811782894630527e-04
-8.668210151033798510e-04
-1.750833722251298949e-03
-1.996869848437326980e-03
-1.648120776771609371e-03
-9.797131959006597380e-04
-3.150560736081136097e-05
-9.290266154456266502e-04
-9.902763923283341031e-04
-1.133434919395882347e-03
-9.957288008854041968e-04
-1.645537961250693277e-03
-4.740355289593590452e-04
-5.443371054161530095e-04
4.444792306668620871e-04
7.435703049333386005e-04
-5.531381736655361639e-04
-5.982324534476073444e-04
-6.126825766357032977e-04
-1.018976518433669038e-03
-1.852207686769183868e-04
-4.902036168331108841e-04
5.403032040937337825e-04
5.113221737694264007e-04
-8.005151934585806324e-05
-7.481715334744004544e-04
-1.679598241320927462e-03
-6.586141777246846529e-04
7.509471958696029448e-04
2.468914224947452488e-04
5.617321073652499453e-04
4.862350249240642323e-04
-5.192968053913713617e-04
-9.377718855238246273e-04
-2.036449053834357183e-03
-9.871216305129145406e-04
-2.058855146905845567e-04
3.841436901645740756e-04
1.152808729321799959e-03
1.205933797574603112e-03
-3.601207770476044578e-05
-8.519544567073966549e-04
-2.092347162798044620e-03
-5.379103415870686942e-04
3.879822903320672388e-04
5.506325614040006623e-04
3.527344244022013716e-04
1.555760617953138962e-03
-7.847530825380138715e-04
-1.292305242168552892e-03
-1.425648398724863736e-03
-4.466989441906791310e-04
6.351969706200680243e-05
6.569011400336013506e-04
1.033410856626859522e-03
1.227019220925165081e-03
-1.352152520599729252e-03
-1.655369262342882512e-03
-2.170754078398154721e-03
-1.162476488394071457e-03
-3.939418320719647974e-05
-2.108292444350504309e-04
-2.486601968089583933e-04
4.515191950625867408e-04
-7.818482253658027605e-04
-5.824963099060916213e-04
-1.637158383672511182e-03
-2.246326269168351115e-03
-1.888093207527779442e-03
-1.333597741559817409e-03
-1.268803427559080359e-03
-1.061372043653964654e-03
-4.072941483271687378e-04
-5.582367318470449202e-04
-4.599340691769092685e-04
-1.077859338752567469e-03
-1.001594267973270492e-03
-2.038184787582964950e-04
4.940182915413964242e-04
1.505504669611130064e-04
7.690588912485893966e-05
-2.332955915778566424e-04
-1.220788782363928411e-03
-1.194302515730611162e-03
-2.140816405290225889e-04
-8.506529638130809132e-04
6.774786205165773782e-04
4.129083158471976507e-04
8.493520638713916238e-05
-6.705128845091474100e-04
-1.397214315736702113e-03
-1.451005488734347050e-03
2.082196123557390256e-04
-4.954195658555759184e-04
2.638246384487318301e-04
1.149013978328546374e-03
-3.621930773645151507e-05
-8.865156507790665323e-04
-1.547465687220810678e-03
-5.712615411366408049e-04
-3.726862716504493163e-04
-5.158731485964027867e-04
-5.215912955348183386e-05
1.319181004769809113e-03
1.920089433821880911e-04
-6.471660966759459118e-04
-1.147527074206213405e-03
-1.002622932916883390e-03
-1.622296365262776582e-04
3.038870469318213029e-04
3.659064189672611559e-04
2.476926390345673815e-04
-6.589514896205723440e-04
-1.284887409086378073e-04
-1.131921208042504373e-03
-1.370539328128111099e-03
-3.066514999908350999e-04
2.261507328524872131e-04
2.180094504332160277e-04
1.152607273501920701e-03
-1.125401771939806613e-03
-1.444465278195716925e-03
-1.438803495181711824e-03
-1.289486905324312973e-03
5.141943008543203419e-04
-1.817993326926812506e-04
-9.772615090756538040e-05
6.180846923539380427e-04
7.068253596584626354e-04
9.637527880417152683e-06
-9.013925170848357702e-04
-1.333699492148490836e-03
-1.417608660239354614e-03
-6.048422936146960807e-05
5.452932382126732995e-04
-2.425589592558882409e-04
3.296275362183649377e-04
-4.748722921676554014e-04
-2.943305157982277877e-04
-8.742366325176227203e-04
-1.394023751578386859e-03
-1.471270696006055144e-04
1.674428238106296448e-04
5.126842067296648396e-05
2.040298806022244351e-04
-3.460532157174833474e-04
-1.405809049079646865e-03
-1.245073314640736612e-03
-1.195950791163033836e-03
-3.732784898717979652e-04
-6.700428929071372596e-04
1.906114751220267726e-04
1.567583524176694343e-04
-6.313623637761244618e-04
-1.367757080764528139e-03
-7.194154259516678676e-04
-1.321061235405699167e-03
-1.091641342682657390e-03
-3.795019263210386165e-04
-1.427777718301670830e-03
1.461713583297953134e-04
-1.221435587235080973e-03
-1.319430992205633969e-03
-1.197605698500883026e-03
-1.657012454606386414e-03
-1.323362600000317461e-03
-1.576017761672005284e-03
-1.151792577336707745e-03
-8.027803322204236512e-05
-7.388916888135784247e-04
-1.339569885739577259e-03
-7.163210957009540124e-04
-8.978404893946286729e-04
-1.466340790217505585e-03
-1.314480873756511620e-03
-1.304300196887833935e-03
-3.569872511334644632e-04
-1.449524348115272280e-05
-1.261320367466109427e-03
-3.943441235174287383e-04
-1.174810049211367927e-03
-7.980157808322030496e-04
-3.929034682217230059e-04
-9.467084302868316540e-04
-6.222296117304668139e-04
-6.473948123516199207e-04
-1.733890648501003632e-03
-9.706885282682663034e-04
-4.902147896468454086e-04
-1.053729538470026157e-03
-1.278023537158278237e-03
-1.054325771864612644e-03
1.228096064921869448e-03
7.733246761780596546e-04
-8.230337713847286950e-04
-8.469680885976088765e-04
4.097083021141671266e-05
7.089402541182869858e-04
8.302670555841247437e-04
6.797129764644700050e-04
1.319445993322874945e-03
5.507287295169352535e-04
-2.664601803730086774e-04
-1.205612382526674402e-03
-8.072055686772092392e-04
2.372902406164248152e-04
1.294154541135141955e-03
4.352810580236010965e-04
1.625760181469482852e-03
1.320859546113009977e-04
-3.857210030883436564e-04
-1.721655134250732922e-04
1.923319312398207557e-04
-6.877179333916838382e-04
-6.084371954991621900e-05
-2.805904476202076593e-04
3.384225493693487929e-04
-8.104665177344844368e-04
-9.335275580394178114e-04
-6.625965361909297606e-04
-9.733886769609653104e-04
-9.209254511902038604e-04
-7.087930267519666240e-04
1.113771823347211616e-04
2.888364722422191765e-04
-2.372903406657309760e-04
-1.741775358851999425e-03
-1.184563448166593268e-03
-4.749117487516573625e-04
-8.067060371175071177e-04
-8.081347718580617978e-04
-4.049299180142923492e-04
8.263377440546203385e-04
-4.982363716437928801e-04
-8.958748462198444767e-04
-1.298569769369990528e-03
-7.671087565091585549e-04
-7.933649881762975869e-04
-1.513304719297393821e-03
-8.501944600345740996e-04
6.527123678701251576e-04
-3.362163977352350137e-04
-3.566324716824520588e-04
-6.875906632377752148e-04
-8.206068328806370542e-04
-8.211638636149191321e-04
-6.012646147159724690e-04
1.687197018843492611e-04
-1.654193606807665134e-05
-1.094637263072274769e-03
-1.023388567407920420e-03
-7.379294056694066109e-04
-3.274689998663505658e-05
-6.366059369530294252e-04
-2.142908469916536898e-04
-9.436723890417996440e-04
1.022305451712082498e-03
2.710252863322945051e-04
-1.589577486754990810e-04
-1.123632162740954886e-03
-3.113882636897725531e-04
7.373320771337013840e-04
8.771412768870305663e-04
2.226782759352455981e-04
1.374311580973694522e-03
-1.603424369935137802e-04
-8.045525254687545995e-04
-1.134839088262281498e-03
-8.626623248194566392e-04
-1.300302623784010969e-04
7.653372607186928857e-04
5.875818244347825927e-04
1.057872466769443692e-03
6.488413679236707410e-04
-7.059918730172411779e-04
-8.782433540921513390e-04
-8.447484044291301425e-04
2.722187639104251661e-05
-3.467331139689469664e-04
-6.944454503012100800e-04
2.444598027224832498e-04
-1.266723848051846068e-04
-9.954473241400418459e-04
-1.019484107387074031e-03
-1.216240400157513459e-04
-1.002895934663994813e-03
-7.461750514451208046e-04
-5.577300267131223704e-04
8.117531793535150229e-04
-1.874796749863875554e-04
-1.132804595428198342e-03
-1.198529049260299876e-03
-9.081461776495790500e-04
-1.393048152606084049e-03
-9.566430236505466585e-04
-1.438347116458218479e-03
5.630726503448876081e-04
6.010900088962556733e-04
-4.963297535687434276e-04
-9.642594126027041442e-04
-1.025879156042843300e-03
-9.748089374600866315e-04
-1.119127286886456574e-03
-1.133012848664799975e-03
7.639934925717232388e-04
2.454985940331249087e-04
-9.375525656723016684e-04
-1.931170444681462074e-04
3.720467026334337035e-04
-2.431036685596257851e-04
-6.222851788073687418e-04
-7.905440916527442172e-04
-1.431323814453963985e-04
-2.180555687715135147e-05
-1.164149205821670210e-03
-7.440586965553684217e-04
3.548280190993921101e-04
-5.020537256123888854e-04
-8.636549920030165643e-04
-1.029566065547574247e-05
-1.291773002758615134e-03
-1.415141932815464380e-03
-4.454835010905130945e-04
-2.939042920749033224e-04
5.843806780016333642e-06
-4.607356748570974906e-04
1.482000814212749930e-04
-1.868071261147520503e-03
-9.219604678521846081e-04
-4.596670021522193499e-04
3.889603630216813897e-04
4.571049261496942686e-04
3.072605368713502826e-04
8.180502865848329752e-04
-6.566665526110027247e-04
-8.041521948455635470e-04
-7.757846508579876879e-04
-1.065584844149912577e-03
2.513724609656939790e-04
7.494431872679445600e-04
1.783595748684542980e-03
2.709789603043360031e-04
-7.536884769952616192e-04
-7.170047265867385104e-04
-1.188424639261155720e-03
-5.071186046516045886e-04
-1.379045420718092872e-05
9.242609175671794540e-04
1.021051301412691497e-03
5.207267171355970010e-04
-8.302715387021131297e-04
-9.333387279070166995e-04
-1.428752672248802561e-03
-8.619324022079184874e-04
6.719956260787065573e-05
7.677629656636902455e-04
1.258558268811961955e-03
1.394389008283553803e-04
1.497140840935618498e-04
-8.036627781189922175e-04
-1.385341620604581617e-03
-5.705871328542213617e-05
-3.570729200626641302e-04
1.056619347766614078e-03
3.363926804684872493e-04
1.274659687946645269e-04
-8.269386561153146834e-04
-1.215015198988392449e-03
-1.445131671520889132e-03
-1.194791514842891362e-03
2.876282616466541630e-04
2.732111888241744871e-04
3.354644230230834664e-04
2.926983217308535830e-05
-1.353100091169372925e-03
-1.210882014030925224e-03
-1.473307906126569483e-03
-1.612045018557378608e-03
-2.838160302935338435e-04
5.428270684677267803e-04
1.999539073716792049e-04
-4.202138008043715552e-04
-1.402259289497092198e-03
-1.994615065019377399e-03
-1.717961611699802844e-03
-1.255666452253343182e-03
-8.479109473641905726e-04
7.803677506591565971e-05
-3.145999793196851751e-04
1.366906795937526588e-04
-5.092630097596815945e-04
-1.931374467489074386e-03
-2.041670029107758074e-03
-1.444564978137199236e-03
-2.745197556473256148e-04
4.712602838881864344e-04
7.254447355079745143e-04
-2.494529603179392063e-04
-2.797006594757698054e-04
-1.052622059028554633e-03
-1.803605375685925303e-03
-1.251796283942206234e-03
-4.601560041570782497e-04
6.060854035656037002e-04
1.138635001294175525e-03
-2.617372686489401347e-05
-9.791005885626299487e-04
-9.212804813188202107e-04
-1.536015141646862592e-03
-1.186654029401387235e-03
-3.482775266433065192e-04
3.732699378715143576e-04
9.190022781207614821e-04
2.566435296793044617e-04
-1.307726640528155575e-04
-2.012694886229800684e-03
-1.025976221272507970e-03
-1.533969405654490078e-03
-4.285941963701327432e-04
6.212344278370283057e-04
2.941975083147202333e-04
-3.182671410303120562e-04
-7.852459543527789401e-04
-1.141587772332791151e-03
-1.085382454148020159e-03
-7.367692388342397857e-04
-5.929985555767043962e-04
7.499653664528966798e-04
9.629693163626226651e-04
-9.569481494240395479e-04
-1.512909964608511989e-03
-1.875895257089613306e-03
-6.631111938310697666e-04
-1.482856293218954603e-03
-1.661459835608572466e-04
4.146048893294282996e-04
7.843865542367823174e-04
-1.086112272833611794e-04
-1.777656639270795225e-03
-1.789898889026308353e-03
-2.373225461187621586e-03
-1.280829647608040583e-03
-1.270810201275659589e-03
-3.664198166067777389e-04
2.836589800091947268e-04
-1.245998657576334861e-03
-1.269152945794705528e-03
-2.033483578182764678e-03
-1.605565477911670728e-03
-3.203474823892514425e-04
-6.763788616048816739e-04
6.219262279587799667e-04
2.720799949986247202e-04
1.404252854951659312e-04
-1.497832384861405434e-04
-9.530665135874135090e-04
-1.046629239583150720e-03
-1.345745965320406480e-03
2.468588242232974965e-04
2.497426720284149130e-04
5.008643805267320396e-04
-3.243138759538164361e-04
-2.985885910140285374e-04
-6.198075618522541717e-04
-9.080841057843955406e-04
-5.206871053938802929e-04
-1.121663880525456460e-04
6.254183764527768098e-04
7.684942835402447684e-04
-2.334311204407095788e-04
3.414590903289206787e-04
-8.401802930349693867e-04
-4.237953738733917495e-04
-8.743519576246082912e-04
-4.827242639287150053e-04
7.457606897283624659e-04
1.172158668206780456e-03
7.115263214118513211e-04
2.223977051721768281e-04
-1.365642852910067470e-03
-1.292136670451812927e-03
-1.351126214584205459e-03
-5.976723035813174666e-04
1.368294445246011218e-03
1.059345787207415304e-03
1.383419689344500309e-04
-5.772801486508520466e-04
-1.761815208602188383e-03
4.612761968118527238e-06
-4.028248496878097809e-04
7.695962843037085005e-04
4.592886764920864405e-04
1.021145204868565901e-03
8.141268571611541256e-05
-9.567096120985594783e-04
-1.325049159079709276e-03
-9.025751487150538051e-04
-4.629193708885653066e-04
-3.011799844461201603e-04
6.980790493744877838e-04
5.000890660709287868e-04
1.759104090867430925e-04
-4.545219511210236768e-04
-1.763220057059886135e-03
-1.725053870324272983e-03
-8.756206673153690010e-04
-8.650949057699483383e-05
3.914965593500115875e-04
-9.794948726766993202e-05
-7.553186575806816868e-04
-1.383734522004277656e-03
-1.651062460896514763e-03
-2.281093690864632363e-04
-4.464901333028825289e-04
3.941569077534392283e-05
-7.323624356953842502e-04
-1.262858294709598688e-03
-1.135941150368376291e-03
-1.000324424913615713e-03
-1.839764217631766150e-03
-4.753176109578405827e-04
-9.964592971311669965e-04
-8.544494905221118521e-05
2.174647074812535708e-04
-3.120651687361853852e-04
-1.168271071884471922e-03
-8.498725295928407156e-04
-1.604597880214841694e-03
-1.144045316764611287e-03
-1.481678713526003905e-04
-7.854561358493173870e-05
8.376770081151024448e-04
-1.637910270282569563e-04
-9.599679775343368353e-04
-6.948651004911656501e-04
-5.430782902250690276e-04
-1.422304191148854010e-03
-6.061157208676202146e-04
7.164170912514131184e-05
4.145228823247459936e-04
6.910628452713744787e-04
-5.021073591773017337e-04
-9.005391351055360306e-04
-1.061010223661310427e-03
-1.308186881511271774e-03
-1.496983317403461928e-03
-7.413117517446715351e-04
-1.400833539907959523e-04
9.582608936257758659e-04
-7.078432631437607883e-05
-8.455219601106931087e-04
-7.177830205031957619e-04
-1.581775751208071550e-03
-1.393992937328558234e-03
-7.857359449745119143e-04
9.533987342434956970e-04
8.615662073865006836e-04
-4.070504525641587836e-04
-1.404652934522651695e-03
-5.689272123327212801e-04
-1.885424371409102819e-03
-1.259207961159069253e-03
-8.537725410158476108e-04
7.198233641887565677e-05
9.837414390601931496e-04
2.402044722142883892e-04
