1.169678884543184742e-02
1.551335797792253481e-02
6.044593595904208805e-03
7.863308768219164774e-03
-3.714084345557747135e-02
-9.808647142441062616e-02
-2.520661305861683285e-02
5.751214943468898472e-02
3.824199119538188724e-02
3.209513373632784383e-02
-1.710312634371164396e-03
-5.098665167626586711e-03
-4.666852350537582100e-02
-1.117078866938799320e-01
-3.672648101148552613e-02
5.209189818826791968e-02
4.827011836773839604e-02
3.218420239114871961e-02
-2.532631648523542278e-02
-2.274594912213857498e-02
-3.021266313921073393e-02
-9.335783212749512727e-02
-4.688803708122118302e-02
3.012623476241279435e-02
2.646888570647832478e-02
-4.700220595939436433e-03
-5.219016159389359977e-02
-5.230223695503926143e-03
2.602705734615261973e-02
-4.347478088420433234e-02
-4.278991479506930734e-02
4.389868881473115748e-03
-1.168318364786512242e-02
-3.566418736416250568e-02
-5.396779620292725677e-02
2.787726017324445096e-02
8.003712865215235894e-02
-5.158171135091964114e-03
-3.968770017103126491e-02
-2.243222223635154763e-02
-4.165336115549443663e-02
-4.523925384087929685e-02
-4.027997079331083197e-02
3.577801274061277043e-02
5.965088199967157750e-02
-3.265837241199526231e-02
-6.835579786790785262e-02
-5.320010328465642202e-02
-4.006623157099133831e-02
-1.814577801722972589e-02
-6.968003639828510010e-03
2.779807618071265113e-02
2.250200540090629628e-02
-5.510337519550490698e-02
-7.787678085218208146e-02
-5.775099007176178606e-02
-2.462650239844888303e-02
1.676426927336738606e-02
2.780277332197246890e-02
3.791823495743963657e-02
2.209852933887882995e-02
-3.404852272092404736e-02
-4.298968502032560896e-02
-2.844007019736127101e-02
2.079119683863515228e-02
2.278666647247925420e-02
7.056531859910573738e-03
2.351594469744309676e-03
-4.548513567735899821e-02
-1.045616250544926934e-01
-3.121469269605325891e-02
5.157535120795101596e-02
4.686343020625319961e-02
3.782936402905144602e-02
7.549469954346358074e-04
-9.705608850025016637e-03
-5.412512765653614000e-02
-1.140744757206992172e-01
-4.595777433957363989e-02
4.971199568937627322e-02
6.307298446987612273e-02
3.779392080959381034e-02
-2.221042454807443250e-02
-2.551891673754609624e-02
-3.973224172025838913e-02
-9.426278015067528215e-02
-5.101550774869859084e-02
2.570212441402310033e-02
3.719873941678009804e-02
4.228759878773961922e-03
-4.595970941944985122e-02
-9.089698223182117107e-03
1.968292966547937131e-02
-4.772775918290804442e-02
-4.897294094361918232e-02
2.223628952623897038e-04
-1.222541999619208321e-03
-2.681671264090318071e-02
-4.721811017884951917e-02
2.905434597634867430e-02
7.312755074827484436e-02
-4.218585340397578570e-03
-3.756356041904973520e-02
-1.906903783101387626e-02
-2.906259256136036612e-02
-3.377409820113517341e-02
-3.324635990091838467e-02
3.345243859798820163e-02
5.892625820871634501e-02
-3.082244289909711818e-02
-6.819072488118931019e-02
-5.243063633902827342e-02
-2.992393056939344001e-02
-5.305621997702934974e-03
1.920298087250534025e-03
3.115961471941193148e-02
2.567714366386263450e-02
-4.858121860284570631e-02
-7.262432109348820886e-02
-5.166984860209263702e-02
-8.850606410418541611e-03
2.924423624852729581e-02
3.923320848544657041e-02
4.284351158750224903e-02
2.754674474222296512e-02
-2.931146424072113288e-02
-3.911602332264817877e-02
-2.225521605846355125e-02
2.334763051731351610e-02
2.217718414988300440e-02
2.488841624263962238e-04
-9.130280934683309216e-03
-5.446957865878120780e-02
-1.153503112025803523e-01
-4.548660263503725987e-02
3.667115735247239439e-02
4.684723288742769637e-02
3.979197937498281379e-02
-5.012452743355313642e-03
-2.045581761133051860e-02
-6.766464681597010589e-02
-1.252630260339395174e-01
-5.865648643792946426e-02
3.045934670888637147e-02
6.155107842501655879e-02
3.718927204557721800e-02
-2.469012291323463906e-02
-3.374608790071394887e-02
-4.928709309469344463e-02
-1.068302478578629922e-01
-6.415628443415974380e-02
9.257734356133648715e-03
4.395390909372501320e-02
9.832138579279536481e-03
-4.867046498687805506e-02
-1.666986979040315300e-02
6.229644879069747010e-03
-5.648223732375975970e-02
-5.432510488533381920e-02
-1.040715973844104185e-02
5.360326417514645579e-03
-1.999096274381838290e-02
-4.849840837716339059e-02
1.861056392519407077e-02
6.273843485135591203e-02
-1.415805622687228010e-02
-4.565037528134881228e-02
-2.845576402934383090e-02
-2.044769355007105410e-02
-2.590948583789003806e-02
-3.032709196591400549e-02
2.864880879882787668e-02
4.849581255866269869e-02
-3.536139626433345423e-02
-6.837801533607464066e-02
-5.548100524776600900e-02
-1.898775011513308131e-02
1.390719221146403386e-03
3.238279650804126459e-03
2.835524152405223888e-02
2.072856640761120903e-02
-5.216124431194207184e-02
-6.906272031270899170e-02
-5.190999251579448553e-02
6.308797934005780806e-04
3.605403901738624128e-02
3.770407416255248251e-02
4.090850355690009432e-02
2.207977858810117669e-02
-2.915094737351156540e-02
-3.348035637741050841e-02
-2.447976251050887342e-02
4.889137783369549434e-02
1.836477325054755583e-02
1.709545419877197409e-02
9.550320490659656991e-02
8.957836774053495876e-02
-1.166460459111423598e-02
-1.937862015796396747e-02
-4.033000478452274107e-02
9.246724347839303804e-02
3.763095512141820947e-02
1.439112858669092847e-03
7.074203445447888039e-02
6.819032236014019310e-02
-3.407393246046518109e-02
-1.873418442428755049e-02
-3.665634166963143564e-02
1.244298831806441435e-01
5.458590098065050494e-02
-3.143606748541321466e-02
2.004968225537711798e-02
3.970764739641426122e-02
-4.050518130976402120e-02
1.985261483931410019e-03
-1.921602549472764196e-02
1.067939306047501896e-01
3.718288169531059478e-02
-7.195147172628410526e-02
-2.269002872750051913e-02
4.399419831611613672e-03
-6.859236074888581947e-02
-1.935822992716219534e-02
-4.132170546292294327e-02
3.733913242129852789e-02
-1.401662757160655574e-02
-7.485447512740875387e-02
-1.720146419428404336e-02
-9.006706748802609935e-03
-1.005705685971342717e-01
-6.180676363297105819e-02
-7.524632930742981840e-02
-4.771471375146998234e-02
-5.535816082003339883e-02
-4.572964582646010800e-02
2.168905263357638613e-02
1.051552824198777152e-02
-8.762159091938129252e-02
-5.651218966171964869e-02
-7.177330121374025929e-02
-1.012335026198419308e-01
-7.428491805746288701e-02
-2.132167073736235957e-02
4.244376472753796231e-02
3.583102267307174127e-02
-3.219204801788019127e-02
1.473306166802672464e-02
-1.069025644882348747e-02
-1.212684437277024296e-01
-8.761255989966312829e-02
-3.405450738704988989e-02
2.117629301360251723e-02
3.257701193063290701e-02
1.405538709692389504e-02
7.763298236534102448e-02
4.838630241018680028e-02
9.430929463657275469e-02
5.772997915558061854e-02
4.481229582954548291e-02
1.043786552303467008e-01
7.799582942820530718e-02
-5.038194560438601782e-02
-7.278389600896142952e-02
-1.032861589037590982e-01
1.393670283223819584e-01
8.071088899405497175e-02
3.375258335615737709e-02
8.736296081512007206e-02
6.022706956480838175e-02
-7.294879873503354317e-02
-7.755529830372545619e-02
-1.007475901575230343e-01
1.730919534064621346e-01
9.798106172175594097e-02
-1.531378601849509588e-03
3.489379812157967359e-02
2.686474636361150040e-02
-8.074234675236728609e-02
-5.737143105152481964e-02
-8.501214063331608006e-02
1.537284942191287362e-01
7.267566728546373533e-02
-4.222183333225595914e-02
-1.425538076206413554e-02
-9.603427635681940563e-03
-1.114696201993990721e-01
-8.148619563032559465e-02
-1.057510403672973914e-01
7.637820140957951587e-02
2.177655453709528496e-02
-5.336369541776724706e-02
-1.159726524120639930e-02
-2.280474353352475447e-02
-1.403117384398067657e-01
-1.224052656010123086e-01
-1.394231332257004907e-01
-1.479217207711199661e-02
-2.807672133644528376e-02
-2.765541096445926425e-02
2.920650838504130695e-02
-7.407024736640534929e-03
-1.258410668113166542e-01
-1.120105164165461908e-01
-1.323362194371082157e-01
-7.342631168842782274e-02
-4.976568076783128430e-02
-8.795585103066567295e-03
4.630070990619428867e-02
1.655595803053951098e-02
-6.770424105607325549e-02
-4.260442216791497649e-02
-7.069615449410603103e-02
-9.859215659861182701e-02
-6.732964138975314206e-02
-2.420628549899512399e-02
2.226478193535253586e-02
1.341397023779389470e-02
-2.249325654964511034e-02
2.645522750684231941e-02
-8.030069353054922893e-03
1.769451545768029321e-01
1.369659114053514704e-01
1.114148673123841748e-01
1.517450131522286305e-01
9.675806573089329454e-02
-5.247582594084642532e-02
-8.774857003505841246e-02
-1.234779295687303963e-01
2.266088346152956845e-01
1.663492240824764323e-01
1.054903267237200931e-01
1.324051025657443925e-01
7.711055566506293257e-02
-7.365537697942983741e-02
-9.347902476851895071e-02
-1.257390545383458569e-01
2.603374955643362187e-01
1.832744810634543142e-01
7.201683329416158630e-02
8.445656422540669117e-02
4.723650488991514712e-02
-8.313959726740059730e-02
-7.739212279072056611e-02
-1.123170232223999476e-01
2.403436626746382754e-01
1.575881083614753819e-01
3.177086803308652729e-02
3.707282462403222595e-02
1.437954859887935477e-02
-1.105627336403222499e-01
-9.674704355229693520e-02
-1.299552822084498738e-01
1.614460705275591046e-01
1.037673249768849421e-01
1.833516194525303122e-02
3.823167924740537155e-02
3.158590624079414631e-03
-1.390961490198358297e-01
-1.371570341832926143e-01
-1.626649640426815202e-01
6.325542814958635962e-02
5.100248592356754207e-02
3.932723785196371585e-02
7.522209067177856867e-02
2.017206480221876014e-02
-1.228068051076363076e-01
-1.246901880080848735e-01
-1.551178720714511683e-01
1.177968459599799348e-03
2.478816731355485900e-02
5.659943753239917580e-02
9.220748906947343060e-02
4.320174262121735664e-02
-6.505842378379106394e-02
-5.449391038620865491e-02
-9.046679957098686942e-02
-2.793061336279132473e-02
1.047478581726113802e-03
3.542215092014157352e-02
6.235196285677963024e-02
3.951505040651454026e-02
-1.777980779658586141e-02
1.294957153117433021e-02
-2.732316171039726044e-02
-4.580354326830091832e-02
-4.183811739944795494e-02
-5.352961373233702802e-02
-5.223564058103995905e-02
-5.176355794269885818e-02
-4.504921469306152892e-02
-4.042333803208718324e-02
-4.923393285229779592e-02
-5.294537675331308091e-02
-6.003732780612137249e-02
-6.111832847282395315e-02
-5.008386223193530412e-02
-4.878465001576748339e-02
-5.687302396108184083e-02
-4.083040374398493044e-02
-4.196168208186138587e-02
-6.044888604722271908e-02
-6.451184654711605848e-02
-6.452127378428575144e-02
-5.501242440996283178e-02
-4.965091536228694036e-02
-6.179753834811484159e-02
-4.922455397024370904e-02
-4.545432912760655891e-02
-5.141372994527636936e-02
-5.401436610578604774e-02
-5.835932035565054993e-02
-5.329205704265694427e-02
-4.955188728004487897e-02
-5.614424185958198643e-02
-5.028545997116661004e-02
-5.902556759957042209e-02
-6.146634051851986025e-02
-5.834033704325739672e-02
-5.637652959830028593e-02
-4.984986695848386135e-02
-5.012832182162844930e-02
-5.414978093759355293e-02
-5.381324530257283745e-02
-5.784550433466600222e-02
-5.910172217444916581e-02
-5.035595617816977787e-02
-5.121720515774760840e-02
-4.462614260060867449e-02
-4.939280011891724470e-02
-6.100381589998713633e-02
-5.949066162571593763e-02
-5.992034543407553232e-02
-5.900740722966220375e-02
-4.456720806186662692e-02
-5.083891975821609038e-02
-4.152806714840173719e-02
-5.330643541603131974e-02
-5.392220453886804876e-02
-6.284692430473937108e-02
-6.425748349131500670e-02
-5.627855684335777292e-02
-5.115296867910659739e-02
-4.978203641546777303e-02
-4.502932376714794543e-02
-5.343642205967930048e-02
-5.708860819734155184e-02
-5.460118577629405334e-02
-5.562764568448064217e-02
1.833382429708710071e-01
1.927433234633184334e-01
1.866092339026382829e-01
1.928218279259776569e-01
1.929231672523699093e-01
1.963973103861125502e-01
1.952344129614066170e-01
1.818302877486992764e-01
1.778746089233781136e-01
1.887940682810704540e-01
1.928628883497874036e-01
2.058062509553212072e-01
2.070535688977585553e-01
1.946122893816452926e-01
1.997818087625361227e-01
1.884532906885651726e-01
1.797254643467340318e-01
1.951612570827113979e-01
1.987744784387207586e-01
2.093227616287840209e-01
2.110511074421307642e-01
2.009319808573181987e-01
1.981408804292263681e-01
1.863650625731627097e-01
1.924289643759032886e-01
2.027646099057981710e-01
2.074553720381333843e-01
2.135082977720648423e-01
2.167362158145028084e-01
2.064447749831274936e-01
1.994621543905934491e-01
1.763406502721683311e-01
1.843685855202688295e-01
2.022921414809101537e-01
2.068910944204625513e-01
2.150591879033341147e-01
2.172096910152059301e-01
2.070035481718557613e-01
1.957573803051300132e-01
1.814282315151976577e-01
1.812171942417887260e-01
2.024475632243734058e-01
2.095036556267502459e-01
2.159022200133925429e-01
2.164331904571745180e-01
2.002877368890141896e-01
1.887728929691267210e-01
1.806931435641628558e-01
1.761802998606896431e-01
2.028136603291443574e-01
2.080197774690926149e-01
2.167181916785818063e-01
2.053778469228638159e-01
1.954692614545738005e-01
1.826296741153004277e-01
1.722442118095500740e-01
1.786587529497668247e-01
1.941827741347341152e-01
1.979315204014575336e-01
2.032518581730007323e-01
1.913553250245378368e-01
1.818118032708658793e-01
1.826593370196080979e-01
1.734610525113259027e-01
-8.440315400331145634e-02
-9.202359345457314377e-02
-1.039468950150134602e-01
-1.041864931611546086e-01
-1.035120910042386516e-01
-1.030103359231997889e-01
-8.815816706785106760e-02
-8.950634514060368252e-02
-9.097561599645978547e-02
-1.033028424249260030e-01
-1.158555719661715361e-01
-1.080871706212268579e-01
-1.062102989247395018e-01
-1.130181549741239716e-01
-9.071098908774852254e-02
-8.611137940815928593e-02
-9.975162648244743913e-02
-1.103452423334215921e-01
-1.244559681457343969e-01
-1.175334889008855244e-01
-1.148703369474148861e-01
-1.234403808569642658e-01
-1.110362839962776710e-01
-9.731240661880090348e-02
-1.018505795327051267e-01
-1.141525973774333153e-01
-1.213217759819216757e-01
-1.180745993252590303e-01
-1.217858226902306523e-01
-1.234116720547597801e-01
-1.129431338507947968e-01
-1.077227855748928570e-01
-1.085071481161637708e-01
-1.177345801196596486e-01
-1.248429914297660703e-01
-1.187264532419063379e-01
-1.202548789682310465e-01
-1.207406639376530227e-01
-1.098302403448259273e-01
-1.090631222107825843e-01
-1.018010614736757635e-01
-1.063384727412599040e-01
-1.195852962237056727e-01
-1.110421811412289350e-01
-1.149405781927603509e-01
-1.260392159744089524e-01
-1.226981516198991928e-01
-1.105850972336715615e-01
-1.017179883541098756e-01
-9.824134059319743206e-02
-1.091660574543482920e-01
-1.018021277488088544e-01
-1.112402228668304266e-01
-1.201128411518880557e-01
-1.206748373587627626e-01
-1.097151439302732623e-01
-9.675840747795441676e-02
-9.842520493077167032e-02
-1.042548384790797367e-01
-1.033660469304512608e-01
-1.151139228300615824e-01
-1.173309239034443507e-01
-1.135150356576477559e-01
-1.021357641412607431e-01
-8.208301828763966967e-02
-2.536526125481304225e-02
4.599495378498795473e-02
1.862504042436395960e-02
-3.959473522776652682e-02
-6.801387510316501961e-02
-8.329538978979622588e-02
-4.850870215715147316e-02
-8.514698478284751793e-02
-2.332913386808572326e-02
6.937396112026635031e-02
5.396471229585320800e-02
-2.035477816034787779e-02
-6.000598616353447490e-02
-7.369111534154509924e-02
-2.790397914837388499e-02
-9.700956926426418381e-02
-6.195886033289211420e-02
2.068925002471666205e-02
2.817039382470981970e-02
-8.602114728483425607e-03
-4.293247401747078001e-02
-5.042013321110574292e-02
-9.006300180677622239e-03
-9.141313935951994596e-02
-8.561460251331542981e-02
-4.836352216456276526e-02
-2.742756567054589409e-02
-2.746123067353030064e-02
-2.720409378381115351e-02
-2.901860415264938264e-02
6.130215873900797703e-03
-3.386265010852392010e-02
-5.945894309859119792e-02
-6.621259668470175219e-02
-6.356711489773989032e-02
-3.916182518594033685e-02
-1.760354702000344052e-02
-1.536006885716667547e-02
8.173028394302733410e-03
4.573409284852530954e-02
2.840227606136262566e-03
-4.462519429098837226e-02
-6.010054314530463571e-02
-3.062524146780698162e-02
-3.213543111757824911e-03
-1.770190342701558062e-02
-9.439447970706721716e-03
7.492891453830145820e-02
1.356104974166476469e-02
-4.651093741107921453e-02
-5.635017751605884279e-02
-2.126693903983249007e-02
1.431741258063616226e-02
-2.247478821745732894e-02
-3.417266451537778055e-02
3.998975098232270681e-02
-2.309489067937660692e-02
-7.613121460275477925e-02
-8.071898502447241719e-02
-4.118653364641853415e-02
4.582424884174600595e-03
-2.781245769317000280e-02
-4.679684728831089158e-02
-7.055657655583820465e-02
-1.111780769862134519e-02
6.212278373363291917e-02
3.723035796580173584e-02
-1.850584307804838471e-02
-4.789996885099530310e-02
-6.112425325126061293e-02
-2.846348982864640650e-02
-7.101384809587682478e-02
-8.024281489596194611e-03
8.601803604769080180e-02
7.136696177190980650e-02
4.269863565987251468e-03
-3.574829243311992283e-02
-5.108057386358642177e-02
-1.054059375903928196e-02
-8.058553108021242195e-02
-4.392800971440447705e-02
3.687523829294861444e-02
4.954396519229856827e-02
7.719255858686309077e-03
-1.960309266734969538e-02
-2.841222600990976968e-02
9.282047935422288107e-03
-8.093654857660260993e-02
-7.570456650988741099e-02
-2.952703295756387708e-02
-1.201586960241919459e-02
-8.001226503102474782e-03
-6.767548856288690094e-03
-1.308787767214863139e-02
2.327024909530028482e-02
-2.510694323458688773e-02
-4.494579898853678229e-02
-5.093188432525468795e-02
-4.779302211715676096e-02
-2.174881571150732301e-02
4.583744597047607373e-03
2.157346437821558612e-03
2.428401988519863705e-02
5.191855354176206500e-02
9.832310300991669444e-03
-3.368074472403670416e-02
-4.513574378602670800e-02
-1.621738951884196117e-02
1.295708236014293455e-02
-3.979859107639822924e-03
2.742610010868945427e-03
8.004751323509567973e-02
1.848723786916039308e-02
-3.837665517844652402e-02
-4.609071115117905487e-02
-8.537989925045513448e-03
2.649207981641082607e-02
-9.622160625355702379e-03
-2.310483513143717083e-02
4.613376488678970488e-02
-2.111606696203195341e-02
-6.717213827310382357e-02
-7.430706730414581018e-02
-2.875684817660774384e-02
1.408814999874334270e-02
-1.404103212709527371e-02
-3.760569494040762878e-02
-6.156259199543406141e-02
-3.793716978234596554e-03
6.875218480804154431e-02
4.808603972520377606e-02
-4.529675876773146641e-03
-3.202447140177491769e-02
-4.820404833577358189e-02
-1.959447786722931864e-02
-6.682658217420915647e-02
-4.296885480776264248e-04
9.093012978318298911e-02
7.986063590508186982e-02
1.722806030202015878e-02
-1.949996716332793797e-02
-3.525265213506462159e-02
-1.310232480288579457e-03
-7.829991815014548939e-02
-3.897910744096688695e-02
4.211592989512286805e-02
5.758551656084480441e-02
2.161925111649713738e-02
-4.986172718583302757e-03
-1.721671997500830859e-02
1.918404701278678820e-02
-7.435697938206831115e-02
-6.833736741678399229e-02
-2.481075655440969502e-02
-1.333079099190049004e-03
5.131570466505877559e-03
6.819936913911792131e-03
1.614538804849824805e-03
2.845445656062640244e-02
-2.535617965449978375e-02
-4.462559509927953305e-02
-4.371785332066503715e-02
-3.633212374729615640e-02
-1.131292823844565719e-02
1.229861200478821366e-02
1.204771903558356574e-02
3.164873847646148403e-02
4.625463910941526174e-02
3.962435963361985933e-03
-3.405613454857452788e-02
-4.168678002082305822e-02
-1.181089541853450747e-02
2.003230145937437423e-02
3.670820427240482128e-03
7.771926495774202255e-03
6.922736582417522710e-02
1.246238647814379430e-02
-4.210192492997868324e-02
-4.299416255662513731e-02
-3.570212922229565843e-03
3.027952496848101277e-02
-5.724202491455729694e-03
-2.189687028642251995e-02
3.275534390728195022e-02
-2.459893346278084481e-02
-7.068780941233392123e-02
-7.126059724379042726e-02
-2.720973976236340519e-02
1.776439067512195630e-02
-1.640154158406469456e-02
-3.335584730978793933e-02
4.410283023423834659e-02
8.084248559191739569e-02
1.171307151638869282e-01
9.469205433391583715e-02
4.728460897053672618e-02
5.019107834469399565e-02
1.081304953983903833e-01
1.303872923165838860e-01
-5.957307157280560678e-02
-4.945957700352084097e-02
-1.627972030237402612e-02
-1.629391507602098027e-02
-4.680536325738837017e-02
-1.720596254321652210e-02
6.522250008077325190e-02
9.561126732791419558e-02
-1.022511229006806965e-01
-1.047460336572539480e-01
-7.590589573995495942e-02
-7.374490035711760150e-02
-8.806282384021758836e-02
-6.596046827271241642e-02
-7.622547196711379740e-04
2.773847129115590213e-02
-7.084108697838441271e-02
-5.680306382753233518e-02
-2.992191615705871305e-02
-1.775964605913890604e-02
-3.314128861054308622e-02
-3.507301470273771482e-02
-1.261766663494264147e-02
-5.634688012196109250e-03
-5.726199833085039020e-02
-4.611743320483036035e-02
-2.744450109272111166e-02
-5.902979843688941665e-03
-1.094407005930157339e-03
3.524491083487820212e-03
2.888596231953526484e-03
-1.544389779754801011e-02
-5.813758023431359057e-02
-5.679039913447381932e-02
-5.521777723793096226e-02
-4.085509401436641236e-02
-1.763531020501245272e-02
1.327348421565052901e-02
1.223256603528988934e-02
-2.207793007464890073e-02
-3.584113126372793362e-02
-3.597793924203630811e-02
-4.479846714059960294e-02
-4.046222420238835410e-02
-2.648468396272694175e-02
8.129918192664594215e-03
1.941191921267764950e-02
-2.103981494865924187e-02
-2.235201182331084720e-03
-3.426428455209094403e-03
-1.359730124332369366e-02
-2.176522937739950800e-02
-2.681855147230282135e-02
-5.060443588792835207e-03
6.309386577296205792e-03
-2.104743905901288251e-02
5.261478936716194182e-02
8.552470741391675346e-02
1.180876426707053034e-01
9.438724350080954228e-02
3.928251435913358847e-02
3.888485887656237955e-02
8.845718746177248792e-02
1.039975965145885639e-01
-4.653941473290680586e-02
-4.158601296937686903e-02
-1.076604907287336509e-02
-1.953498844255446149e-02
-5.444984708757941855e-02
-3.232687129132559567e-02
4.107143960464722937e-02
7.215403658490956995e-02
-8.825450828364443667e-02
-9.031150825177360064e-02
-6.974232782533917874e-02
-6.741315055141285095e-02
-9.319116170935896892e-02
-7.812498475585152868e-02
-2.147245963324146550e-02
5.757023656306561182e-03
-5.060081175232198497e-02
-3.814471830736267804e-02
-1.574440977340321041e-02
-1.010828997170350359e-02
-3.116805889790734765e-02
-4.204504597240914243e-02
-3.224434604799475412e-02
-2.937485864840170408e-02
-3.643352104766706817e-02
-2.438635322046701567e-02
-8.549148191698031918e-03
8.069011551220126033e-03
6.339132105954056219e-03
6.696291509827340550e-04
-1.099599410643219664e-02
-3.315675114571453586e-02
-3.194450619319416651e-02
-3.292334772924331715e-02
-3.330925038295500656e-02
-2.342504685868004519e-02
-9.155966220380661394e-03
1.450904419586651617e-02
5.717648709943829941e-03
-3.485628870165464327e-02
-7.162691874265604032e-03
-7.990272127166499205e-03
-2.115909070480488652e-02
-2.346670397960328239e-02
-1.590453250218236414e-02
9.845711093824016311e-03
1.244307636521707443e-02
-3.388788189640077469e-02
2.396809553374311397e-02
2.708914629898484874e-02
1.031422876173844830e-02
-2.248726942706346949e-03
-1.201251366624766885e-02
1.346142531709539070e-03
4.143852836056469667e-03
-3.141334374419003234e-02
4.333396898911291012e-02
7.402527742646726472e-02
9.984437511110169639e-02
7.138060278041311046e-02
1.730310492849109621e-02
7.886753125383026697e-03
5.389567179247951867e-02
6.120611279314034509e-02
-5.127394566313667884e-02
-4.502771874053448919e-02
-2.163731657024762015e-02
-3.134986687907263120e-02
-6.965549940277208918e-02
-5.801844352485995698e-02
6.159776596672537387e-03
2.830408730157626604e-02
-8.410935645428992136e-02
-8.845567279882243783e-02
-7.116837470435716240e-02
-7.485124034991601227e-02
-1.031577049393503087e-01
-9.579459086550544400e-02
-5.170610643102255266e-02
-2.869302540527038717e-02
-4.597092818458747149e-02
-3.681120741024551668e-02
-1.790802201018242695e-02
-1.411902608052611335e-02
-4.229814301942632498e-02
-5.789348813921079556e-02
-5.871828769077933052e-02
-5.919716405845436985e-02
-2.694040795123119406e-02
-1.742388788526792395e-02
-6.583810442189148848e-03
5.043154802906310227e-03
-2.080540379479970531e-03
-1.300414157583396589e-02
-3.548367411899985141e-02
-6.014698937435138809e-02
-2.543761019390605033e-02
-2.577995224473897048e-02
-3.131323993796540639e-02
-2.335243441437582362e-02
-1.582319309021056053e-02
-1.715448321142807502e-03
-1.840686486874382882e-02
-6.614649895951409120e-02
-9.275915727434397686e-04
-2.456670684758388221e-03
-1.530652915069873402e-02
-2.085922177494962254e-02
-2.019105264528108304e-02
-3.335530344599732609e-03
-8.910011406351087127e-03
-5.791090541174395007e-02
3.090716196579892938e-02
3.161757181923759846e-02
1.425653887651630487e-02
-3.062921422947688507e-04
-1.664705011192499709e-02
-1.263782069682827490e-02
-1.748650833611262514e-02
-5.249994077054663533e-02
-1.109671619191121041e-02
-4.000060869897280325e-02
-6.410910451531258436e-02
-7.368829211046203087e-02
-4.503770823987179178e-02
-4.327478114088391392e-02
-1.066336014256270837e-01
-1.066251202751226368e-01
1.820082163671690387e-02
3.782350655038220141e-03
-1.255263120594943792e-02
-1.931922968142183589e-02
1.677274555213422932e-02
2.118546486677973240e-02
-5.110361063352056310e-02
-5.173035696640774367e-02
3.442620679489055702e-02
2.392709367447027474e-02
9.600932007153693826e-03
-8.278135797616081306e-04
2.815748863822503320e-02
2.629341957415781694e-02
-2.887353811164370884e-02
-9.963636120016560599e-03
3.636152708848545967e-02
1.536963796151738851e-02
-1.499509977520768929e-02
-4.062826925790648247e-02
-2.840965140123856425e-02
-2.448967421563640404e-02
-4.890108512561145565e-02
-3.398344690845996486e-03
3.090411551023320921e-02
-3.746741702309259407e-03
-3.755295134061500256e-02
-6.306687185445986055e-02
-5.060300153000350798e-02
-3.792260137205458181e-02
-4.427630740993846598e-02
1.305594260083695404e-02
6.323811115005864569e-03
-3.367799162690900128e-02
-4.741203710874789673e-02
-4.766725813402390710e-02
-1.471389968048561307e-02
-3.417328943830553502e-03
-1.039843916009052134e-02
3.064262986885157164e-02
-1.188860178367368188e-02
-5.158451910184795597e-02
-5.652458528377612285e-02
-3.618433047158350901e-02
5.653854446304817580e-03
6.928130536047046387e-03
-2.644923058227335866e-02
5.383273774528167348e-03
-1.695694071198102296e-02
-4.916900154465101563e-02
-5.792123085426043039e-02
-4.174675041174882861e-02
-8.164923446619072600e-03
-2.144775576199606931e-02
-6.335558112092534722e-02
-4.176347141616703479e-02
-2.320894150428893035e-02
-4.656491782393398088e-02
-6.450627532746446013e-02
-6.884105271669543891e-02
-3.804619483649607919e-02
-3.209943369349915754e-02
-9.134184733419700719e-02
-9.498773889073690302e-02
1.072717394014327009e-02
-4.332457562852200239e-03
-1.503318794633855086e-02
-1.650740120079060777e-02
2.903363676153835476e-02
3.267099816554578512e-02
-3.598970573768570103e-02
-3.697219114275315799e-02
2.251342785210118033e-02
1.394516366685873837e-02
8.400219399269388820e-03
3.064136689522886561e-03
3.746474154307905674e-02
3.899545686498641361e-02
-1.224530482505283360e-02
4.714712698716074825e-03
2.722171770913683550e-02
6.694266700343158398e-03
-1.274629995817060275e-02
-3.799826134854145804e-02
-2.284792163396487039e-02
-1.252709322941766325e-02
-3.449632169745532606e-02
1.371999625898026251e-02
1.968260039390653041e-02
-1.178919226698840056e-02
-3.775099787957188896e-02
-5.694223962802140437e-02
-4.244789516796783346e-02
-2.444144602874048083e-02
-2.901274704401650070e-02
2.571550305708204462e-02
-1.563565569550442883e-03
-3.828911853841505258e-02
-4.800987586003041541e-02
-4.225465371528542430e-02
-6.529176422720280037e-03
1.213990005672968726e-02
1.644311185824043082e-03
4.404649581105835043e-02
-1.910403618787668775e-02
-5.658376262332520668e-02
-5.519847804390033003e-02
-2.926569449173924489e-02
1.465048188348952278e-02
2.074639851823918690e-02
-1.159179240233591986e-02
1.828417297862663243e-02
-2.584663729869747864e-02
-5.714631476720586495e-02
-5.661535251070948932e-02
-3.715774576780488808e-02
-3.485896074251221104e-03
-1.120844588398992904e-02
-5.236579414948005357e-02
-2.911393005553032307e-02
-2.869468349649982944e-02
-5.114185871422970847e-02
-6.325322183976951618e-02
-6.868240167980869948e-02
-3.147553201743760048e-02
-2.540879160059578146e-02
-8.396918056771249250e-02
-8.849908619253964159e-02
-1.022211009792578723e-03
-1.177884557688820000e-02
-1.749487754957625499e-02
-1.755649395811151314e-02
2.723929342148872015e-02
3.181426281915521181e-02
-3.083678154876790672e-02
-3.326600354294129147e-02
1.252780067284125186e-02
7.098812819060879367e-03
4.223817938871407204e-03
1.623155838602659360e-03
3.355709386968674934e-02
3.859498488270977912e-02
-1.015194183452120674e-02
3.725559411055024903e-03
1.372857438247599218e-02
-3.498640179019808436e-03
-1.704210259096465910e-02
-3.684504831080224335e-02
-2.028080309180388049e-02
-1.078918949311650187e-02
-3.190656312157185565e-02
1.049893751381561838e-02
9.066411616376189586e-03
-2.054320910241293208e-02
-3.934922858175567834e-02
-5.746872176846184316e-02
-3.999479906039208471e-02
-2.152243699954627110e-02
-2.405695128374829225e-02
2.493970293208256847e-02
-1.431692415767833737e-02
-4.692877919287852251e-02
-5.237927151823368321e-02
-4.338315942384973062e-02
-1.207772398435512026e-02
6.890022631734274254e-03
2.006002632268274848e-04
4.014162508260467332e-02
-2.956094537449176565e-02
-6.081081526204802634e-02
-5.771172656514004379e-02
-3.356874337739193526e-02
1.044457647506691692e-02
1.317205951094662687e-02
-1.563968996720323246e-02
1.215571306961964367e-02
-3.467253429962743883e-02
-6.178385146188376809e-02
-6.184760513789591685e-02
-3.896765446390704907e-02
-4.883432576031092667e-03
-1.317304502129506769e-02
-5.220580729581642682e-02
-3.028383600641234435e-02
-7.008549004194088161e-02
-6.018706969750027558e-02
-8.601398968326638694e-02
-4.723454813751434833e-02
3.195455791672374701e-02
1.838142623470565007e-02
6.728737725881113463e-02
1.165610020314672077e-02
-6.065797159103619718e-02
-4.520702379213017291e-02
-7.926272383342954087e-02
-5.230067726471147871e-02
1.606122484877779699e-02
-2.790860357169153497e-02
1.930058339062941386e-02
-4.604815087430357001e-02
-5.282887935450432393e-02
-2.366171669354478341e-02
-4.169564354357020719e-02
-1.378046723065563632e-02
2.095650950988117017e-02
-6.419320173977298427e-02
-3.301223805570580733e-02
-8.779607983957060657e-02
-5.615905736549273858e-02
-2.884321545330104097e-02
-3.557783237621956612e-02
1.272108197419219260e-02
3.693854105772081259e-02
-6.021315205146367255e-02
-1.337724399384698955e-02
-5.813692863138956307e-02
-4.838361851127717661e-02
-3.908765477788597037e-02
-5.634408264226739571e-02
-8.650925837210704256e-05
3.798767210104059960e-02
-3.785919742972328889e-02
4.663144413257094140e-02
2.056409087158823229e-02
-2.623003559640979185e-02
-2.989463412407852502e-02
-6.903921167507712231e-02
-2.746809030998900725e-02
1.227145405140086729e-02
-4.162912020749084951e-02
8.282586586641157989e-02
8.053333985631729031e-02
1.673070370850333888e-02
4.856574902821638416e-03
-6.215583944422006790e-02
-4.745857214426972559e-02
-3.254400855702528628e-02
-8.379322473372055602e-02
5.174049547403643257e-02
7.819615192055949515e-02
4.406587056764492416e-02
2.954509998375458649e-02
-4.879142384758523160e-02
-5.576065806190515922e-02
-6.423961968122039734e-02
-1.219351474867636509e-01
-4.204029595544555263e-03
3.003599397795907525e-02
-4.527335775073204616e-02
-3.287545712861739827e-02
-5.939911032226149329e-02
-2.095960937569133625e-02
6.275354360842395895e-02
4.958695816346679608e-02
9.976652071204289429e-02
3.849871790523988480e-02
-3.503376313610446352e-02
-1.838475019308761366e-02
-5.302463878287922566e-02
-2.381956340577167514e-02
4.576886290559895737e-02
2.770065026323625512e-03
4.898509187185372954e-02
-1.748859274963051116e-02
-3.052015953272860238e-02
3.664976919626331594e-03
-1.699270356200782012e-02
1.213720495508679303e-02
4.504966346950804029e-02
-3.928288184609801670e-02
-4.271699232823722436e-03
-6.004220972692298625e-02
-3.678461069649921478e-02
-8.240766148423618945e-03
-1.125914241762638116e-02
3.301485563017432512e-02
5.860357981698581520e-02
-4.076720836719073537e-02
7.282320953230772206e-03
-3.436062077239640522e-02
-3.594594693020448234e-02
-2.599736197217445213e-02
-4.262645290097483164e-02
1.312777448729652956e-02
5.191620041643771333e-02
-2.284030058663699680e-02
6.379320391127833723e-02
3.799495620211144897e-02
-1.734065851055378860e-02
-2.411664940055315010e-02
-6.383926958710658961e-02
-2.109400953119126843e-02
1.719200811074474491e-02
-3.265152210705981467e-02
9.315421549226531039e-02
9.288140312220453942e-02
1.822042774255609038e-02
6.419112797988772538e-03
-5.996693419809331904e-02
-4.606982268781253942e-02
-2.941395593429569494e-02
-8.426499987403698877e-02
5.925782944182021034e-02
8.555404849855179072e-02
4.225058844997747060e-02
2.801635017764173702e-02
-4.781310264837190793e-02
-6.206371767568703152e-02
-6.580086944733816445e-02
-1.222829358788873333e-01
-1.795815095568561830e-03
3.132518749472751329e-02
-4.540121690587989312e-02
-3.251161913263825309e-02
-5.702126765894179744e-02
-1.973620014736384917e-02
5.969752893679520361e-02
4.865861052432816219e-02
9.886334914012831487e-02
4.153852286333487714e-02
-4.167982480681984431e-02
-1.815732954351504530e-02
-5.083445911539877932e-02
-2.461059752029799361e-02
4.331881380823425498e-02
4.467752672959891987e-03
4.880616879515642381e-02
-1.455682939098500335e-02
-3.724850888667897986e-02
-5.974835091290170257e-03
-1.905257952485781697e-02
7.880528024358127853e-03
4.232918397949522737e-02
-3.482815589350291008e-02
-1.546596240028154162e-03
-5.653094465141715597e-02
-4.379900313329763983e-02
-1.788262891274337504e-02
-2.084290012183350610e-02
2.617168519218114262e-02
4.750198653471919552e-02
-4.190008078532762165e-02
7.107820688612111713e-03
-3.092957149141286124e-02
-4.751705010402091506e-02
-3.830880707664559987e-02
-5.114671768729279339e-02
3.838651872845501821e-03
4.056424635643099408e-02
-3.139313832162390211e-02
5.615450416509999709e-02
3.504092511026787177e-02
-3.550845103610350550e-02
-3.751229601370329597e-02
-7.808515168604480972e-02
-3.809951870515194267e-02
-8.915918618289124433e-04
-4.398999402137545450e-02
8.044051908907380588e-02
8.279072997994123273e-02
-1.153079061281002838e-03
-1.361734452690585052e-02
-7.685190508345340898e-02
-6.671039437536932515e-02
-4.991751787900815251e-02
-9.744294638885160620e-02
4.549661609404782869e-02
6.852878309630953957e-02
1.972975650094721187e-02
7.847638649191886542e-03
-6.541639282643477160e-02
-7.885335444237297209e-02
-8.190561924383416015e-02
-1.369700686818360047e-01
-1.546543539090780052e-02
1.738774049951787026e-02
-1.295902795013564694e-02
-1.430783914838252950e-02
-5.416166811120783769e-02
-5.782584165013247152e-02
-1.889950641285804631e-02
2.780341902230870285e-02
1.193317558535215983e-02
-2.516272676393667418e-02
2.373598104828930405e-04
1.390955614875883685e-02
-1.232037273776491991e-02
-2.143090346034871863e-02
7.501345817272666618e-03
3.429037604360540836e-02
1.332763229380177659e-03
-4.324878504851452365e-02
-1.936119579694651691e-02
1.879046758002390557e-02
1.384290427373078072e-02
7.572980914066399817e-03
1.328648549190463747e-02
9.505356718338835859e-03
-2.937359133852068815e-02
-6.144673749571857163e-02
-6.747962070766151677e-02
-1.767416130196504398e-02
-2.179585959076338689e-03
-9.170373986030634639e-03
-1.983676236367147919e-02
-2.285930974628797713e-02
-4.197584419698530134e-02
-5.592326476906320926e-02
-9.390252707508402186e-02
-4.669895196349054672e-02
-2.409730222447543577e-02
-3.890992265247623927e-02
-4.843088367935854260e-02
-4.515199645328376449e-02
-4.671371016060070491e-02
-4.615640481613837026e-02
-8.439401700324823674e-02
-4.300086173129286787e-02
-3.080682728224830649e-02
-5.265694913569501923e-02
-6.770384019841003964e-02
-6.194466037255264707e-02
-5.503014535194753615e-02
-4.427191892277022173e-02
-5.868796413127614492e-02
-2.348614653076933415e-02
-3.490323594840995941e-02
-5.842177168621779521e-02
-7.464725703992314276e-02
-7.293905138549296174e-02
-6.198875757929991209e-02
-4.300937989951139628e-02
-3.866463895114900795e-02
-1.823671887150526277e-02
-3.536349753468694124e-02
-5.645143954404049924e-02
-6.554317077673955938e-02
-7.222978417052942912e-02
-6.645119866935722541e-02
-4.689229394687838282e-02
-5.527363414500573863e-02
-6.005813882622176164e-02
-9.534363749974122948e-02
-9.921887886433562731e-02
-5.640560926044872053e-02
-8.285655205618715907e-03
-1.817480036231861051e-02
-5.278892375034766743e-02
-3.893734575247096569e-02
-2.982014970998004069e-02
-5.546592501849947898e-02
-5.986413789432691590e-02
-2.853585576335626942e-02
5.124910375609561565e-03
-2.568110507708536508e-02
-6.946262151386148331e-02
-5.145115216402132430e-02
-1.803167021509370985e-02
-1.653081462975186308e-02
-2.039692241472595285e-02
-1.081218659568865953e-02
-9.748913327447440366e-03
-4.634242849224561728e-02
-8.140317676483591058e-02
-8.860058227395688213e-02
-4.209835210022892793e-02
-1.853196524667533734e-02
-2.480930947176653717e-02
-3.198413829075974490e-02
-3.323468743698769490e-02
-5.079654064658085943e-02
-6.277794697778556199e-02
-1.060612909384329311e-01
-5.432234988628659861e-02
-2.622854646471376935e-02
-3.721013583410037739e-02
-4.276079529931632595e-02
-3.923478047412277958e-02
-4.001395337913546402e-02
-3.926812370177813760e-02
-8.243345580969432818e-02
-3.464456678401296730e-02
-1.859289826805425247e-02
-3.677272034870533030e-02
-4.583852253369612856e-02
-4.130422728400379856e-02
-3.485079531142758896e-02
-2.911050984912428446e-02
-4.494372738559667541e-02
-8.254263105334062184e-03
-1.212654568775340357e-02
-2.825244648620385546e-02
-4.015178246990585426e-02
-4.346805297128447654e-02
-3.295402197580467318e-02
-1.814144247183659131e-02
-1.946694940266286561e-02
6.041799500496855373e-03
-3.911028397838169947e-03
-1.880701655925893709e-02
-2.984770722777388072e-02
-3.768452379394432450e-02
-3.442252527210366148e-02
-1.656304172403278915e-02
-4.434182005579015429e-02
-4.985864962289820318e-02
-7.960594275638552264e-02
-8.678085522448153455e-02
-4.297417582248294621e-02
1.129614110360900462e-03
-9.073568809099043578e-03
-4.025970366184899313e-02
-2.846547491427034449e-02
-1.660085823663987742e-02
-3.902470387526246060e-02
-4.107705232659623895e-02
-1.140218548261772401e-02
1.566121695563271049e-02
-1.528321292844522609e-02
-5.470590878878766466e-02
-3.216021000472155111e-02
2.538730080863687059e-04
4.061340512383099580e-03
5.821933396029752451e-04
8.008804635592798454e-03
8.105337090105598982e-03
-2.623527238921460891e-02
-5.744704937231461667e-02
-5.675117958795357354e-02
-1.025204490520647931e-02
1.386992519685745565e-02
9.266213375905605829e-03
3.257908789272540451e-03
-1.124210003684297495e-03
-2.087606474333930998e-02
-3.402407485894318878e-02
-6.351958576381840083e-02
-9.932955166998807400e-03
1.856031910327304163e-02
9.663161918902271955e-03
5.671709166506075026e-04
8.319441096824916476e-03
3.584478810455430514e-03
-1.939356040633232825e-03
-3.003594406902845154e-02
1.818070009692243985e-02
3.824927963095024058e-02
2.459566954974132247e-02
1.314520177621347416e-02
1.696442022074175909e-02
1.468030356388348723e-02
1.759681785450928349e-02
1.289913921743737410e-02
5.606323060823984600e-02
5.424571805486998188e-02
3.838424387404355126e-02
2.461237233858037943e-02
2.087393040099430608e-02
2.421800820795596068e-02
3.422640251078919171e-02
3.886485763088719930e-02
7.008135599206673227e-02
6.384690166117364118e-02
4.873648482292793765e-02
4.005252551790827731e-02
2.853211255214269451e-02
2.987143136733213383e-02
3.535638144975198488e-02
-4.483333062665526003e-02
-3.257537983761384787e-02
-2.733479340227231574e-02
-1.724630358271758354e-02
-8.243705996734923547e-02
-1.400168485259905837e-01
-8.254652748366202164e-02
-6.174602683030119832e-02
-2.840244221042981937e-02
-1.883265181806265468e-02
-2.052761298714651794e-02
5.629151497304471681e-03
-4.845394749570346160e-02
-1.014337506602573380e-01
-4.941937561314944938e-02
-4.293409615496375509e-02
-2.482464691432634610e-02
-3.620761026321894782e-02
-4.525924757300233553e-02
-6.741362334563145292e-03
-2.110585482413612768e-02
-6.494131317520565605e-02
-2.294102680602534347e-02
-4.166641575925118801e-02
-2.770331188870393119e-02
-5.714288159682068269e-02
-7.956393199687826490e-02
-2.922256680999570783e-02
-1.606718091004569193e-02
-4.627917588774811686e-02
-2.600602697380140910e-02
-6.053921339961927661e-02
-2.178042428377706050e-02
-5.991909477171343534e-02
-8.069154228254317440e-02
-2.603696781544629496e-02
2.494600834185335854e-03
-2.997072863242021198e-02
-3.246132664562754316e-02
-8.299612492609100001e-02
-9.192980747729910876e-03
-3.421695491587404409e-02
-5.120167806520618120e-02
-2.587180165017488077e-03
2.305073382470074900e-02
-9.016373401183433098e-03
-2.848378484452572176e-02
-8.839332376754771570e-02
-4.971458668489945470e-03
-1.644169543047374615e-02
-3.327282047469234949e-02
-1.127364938892280906e-02
6.452412657515089502e-03
-1.453229314879692265e-02
-2.421298312453298504e-02
-7.910374836918485086e-02
-2.053992967476661602e-02
-2.692397104266087277e-02
-4.936381054512586908e-02
-4.519827621314221472e-02
-3.744866931389258941e-02
-4.563627840560133958e-02
-3.913464922212780278e-02
-8.014868585355534869e-02
-5.916213415112702920e-03
5.646514928687197503e-03
1.027567327415954135e-02
1.733312743309167389e-02
-4.685872227909235188e-02
-1.090601911629898585e-01
-5.694335903938567423e-02
-3.861160523182402549e-02
1.340278964815524651e-02
2.480417681753168194e-02
2.254995293025694597e-02
4.422906604218652948e-02
-1.320158334774138541e-02
-7.331783438257664931e-02
-2.444217168489454597e-02
-2.400522188375415339e-02
1.227159593820438023e-02
1.533550724427028191e-03
-8.974677662844333589e-03
3.095113590115271957e-02
1.029391606580786801e-02
-3.726793240702349491e-02
4.169289430619403376e-05
-2.647761372313097578e-02
6.585250010276224274e-03
-2.540831082237315908e-02
-4.487505511281113246e-02
3.004611330140168155e-03
7.396583429292045465e-03
-2.639801188453744923e-02
-6.503689403131154324e-03
-4.400405094925325528e-02
1.326017544124226226e-02
-2.714805174832661538e-02
-4.788878645628215358e-02
2.870859366890473642e-03
2.265423407497991690e-02
-1.358369524798253708e-02
-1.976266299960674488e-02
-7.394829532941588068e-02
1.861222226323031026e-02
-7.764907985150793120e-03
-2.191941988219159310e-02
1.769152827428726454e-02
4.300873967652032309e-02
3.458787266110517362e-03
-1.659836594395450865e-02
-7.928051925030564495e-02
2.144891760390957997e-02
1.133971491012356406e-02
-9.527758051388664912e-03
7.021942114476847907e-03
1.878004005871959994e-02
-5.565206084833302334e-03
-1.768361922306444650e-02
-7.463808583519482287e-02
4.367985238587148746e-03
-7.009581490257997365e-03
-3.196358132083480796e-02
-2.883714267769678721e-02
-2.495520073781081968e-02
-3.747464620080159792e-02
-3.419137278491032883e-02
-7.756833802726385840e-02
2.137108539973290103e-02
3.543250774193724972e-02
4.041607109004270032e-02
4.639278597126537257e-02
-2.091784557060566430e-02
-7.956497703600906579e-02
-3.194260732544081799e-02
-2.122758075361914562e-02
3.766730304885425318e-02
4.759393675857239575e-02
4.996037731439967322e-02
6.979094172050549771e-02
1.436937137660368805e-02
-4.603642740294498076e-02
-1.545261040096912583e-03
-5.578525196174486354e-03
3.345382573420652150e-02
2.606763807283905832e-02
1.683146054828777230e-02
5.175588528905723795e-02
2.746760080069157381e-02
-1.419290038319172102e-02
2.023258426227178552e-02
-9.204154359178219266e-03
2.421681218825684143e-02
-4.608431806808620419e-03
-2.488801880342303430e-02
2.233824375405723400e-02
2.504026071834399014e-02
-9.510844468768627283e-03
3.826270719995338628e-03
-3.587748468965189230e-02
2.187973538892142369e-02
-1.324920557279967229e-02
-3.419554960966485202e-02
1.315658952602638196e-02
3.422122283540803694e-02
-3.361314948615318904e-03
-1.358060754314756660e-02
-6.538282927189710547e-02
2.554969455581301840e-02
2.408581571112468431e-03
-1.498846467648981898e-02
2.192204753131884662e-02
4.167135830176765116e-02
7.151614136410984653e-03
-1.777011590739594263e-02
-7.974204911302017196e-02
2.702519043657923906e-02
1.185289839930317099e-02
-5.015368083960923366e-03
1.131476501802308569e-02
1.714612163641567738e-02
-6.922331198975324382e-03
-1.811336071070798748e-02
-7.535578316462107629e-02
7.551396817989906862e-03
-1.393213022269462666e-03
-2.593959979653330875e-02
-2.920967859667838312e-02
-2.445504421114693197e-02
-3.930812565699463162e-02
-3.873167862423231717e-02
-7.614732412946982609e-02
7.035876357654370639e-02
4.928777978366316592e-02
2.966609047876300753e-02
2.905121637016720715e-02
3.362411274070174760e-02
3.644708960610408555e-02
2.495921839693427888e-02
1.097797268275004477e-02
3.041849427251214905e-02
1.525981582961415464e-02
-9.797099741881450455e-03
-5.610913508962114132e-03
-2.942501802612023428e-03
-3.597003879014042636e-03
-1.572119020930283842e-02
-2.492586149273928048e-02
-1.503525559574576910e-03
-1.033886259588007173e-02
-2.459442628173586290e-02
-1.778087957989068352e-02
-2.191397256056069193e-02
-2.847956468149709375e-02
-3.876163695552875543e-02
-3.334126564183374081e-02
-1.170948781814138279e-01
-1.311787977647423109e-01
-1.431566484973740283e-01
-1.309532087436997283e-01
-1.195220983645450402e-01
-1.080821484874919802e-01
-9.269658164947189305e-02
-6.171339315636308054e-02
-2.399393594614653846e-01
-2.593049409216851009e-01
-2.441351780846947039e-01
-2.163875283236828817e-01
-1.778153818491375326e-01
-1.359568881827799836e-01
-9.935376896034080196e-02
-5.586850477718893759e-02
-7.895450640582196700e-02
-4.712153728583444445e-02
-2.290401456655256646e-03
4.115745162618183323e-02
7.745058033149540555e-02
9.142772514716641929e-02
1.000984768709162476e-01
1.009305709502199416e-01
1.786943281959639529e-01
2.458246046097254389e-01
2.546373406990301014e-01
2.452840119959276699e-01
2.402136016254673434e-01
2.114873644129685315e-01
1.850931820490268886e-01
1.632931358524480348e-01
2.280829398798302210e-01
2.385841299840500696e-01
1.816008770409163475e-01
1.290376041248161576e-01
1.046793096720601696e-01
8.340897345151708497e-02
6.286460401017615607e-02
5.975435037692196361e-02
3.263088953262367753e-02
1.880693986694826833e-02
-7.197105429883706405e-03
-5.959007718344843350e-03
1.688260128867000859e-03
7.920008941770089947e-03
-3.033155713756746901e-03
-1.173178481930662806e-02
-4.032141698411715117e-03
-1.991641344178536610e-02
-4.501339534186874630e-02
-3.712310607318528716e-02
-3.294191700869043143e-02
-3.026058675622588304e-02
-3.909082337965556070e-02
-4.471321460780127571e-02
-3.402852979037331027e-02
-4.328394323208843014e-02
-5.183872218309028279e-02
-4.429916861466593608e-02
-4.799062395234547640e-02
-5.227926847675928163e-02
-6.004691096474408518e-02
-5.015449017850430458e-02
-1.417086439410437659e-01
-1.577370452488811026e-01
-1.656483281908510963e-01
-1.504799079529932637e-01
-1.425582021615294515e-01
-1.284371093621342330e-01
-1.139044731693957535e-01
-7.824054055540329011e-02
-2.631298993825843535e-01
-2.787101734973608247e-01
-2.635259139830560260e-01
-2.314110046070112503e-01
-1.920179717422898502e-01
-1.467581645039278959e-01
-1.097843213791059036e-01
-6.410940153808733499e-02
-9.287364920090783460e-02
-5.897342618471854148e-02
-7.874288192080773283e-03
3.703063838060732110e-02
7.167476713334312854e-02
9.031841267307455512e-02
9.612549789349279783e-02
9.546356201339044334e-02
1.743251556982025052e-01
2.435728439090182051e-01
2.533669064089325018e-01
2.534693131134724275e-01
2.450740420145726961e-01
2.187787885969283697e-01
1.867649143955136259e-01
1.638515129090769018e-01
2.258069496898953421e-01
2.411529203131017873e-01
1.874118175914529227e-01
1.385345265107230939e-01
1.131740667461387795e-01
9.015496263712230451e-02
6.593861631411879198e-02
6.598480878495910362e-02
1.122972155750992518e-02
-8.256118249887017119e-03
-3.294556707782184818e-02
-2.869921215622556546e-02
-2.392406382566795997e-02
-1.924698427497364278e-02
-2.869882595862012151e-02
-3.765047100167827343e-02
-2.268317672384912581e-02
-4.026734200495490218e-02
-6.704115284242362360e-02
-5.547549050089017886e-02
-5.244248217897066328e-02
-5.340990348220246015e-02
-6.262805870483960369e-02
-6.611495038340207964e-02
-4.798275586032403617e-02
-5.740187655116164162e-02
-6.741877089993138228e-02
-5.926145623270741292e-02
-6.201346460662322119e-02
-6.811440658836556694e-02
-7.591442688648078474e-02
-6.862318246932068433e-02
-1.430667183232278150e-01
-1.529921865061202590e-01
-1.642159971658133932e-01
-1.498399057329664608e-01
-1.385004289105161435e-01
-1.292607968822741538e-01
-1.172694229377743702e-01
-8.564614634708549168e-02
-2.475170156150084677e-01
-2.613749104095982601e-01
-2.471952649273383706e-01
-2.120654753607174037e-01
-1.753801637030417693e-01
-1.340895595765337345e-01
-1.006463788626308919e-01
-6.201127609164184401e-02
-7.823200852493593371e-02
-3.831303778983427555e-02
1.137936897107138211e-02
5.355324655061637074e-02
8.582596708257610174e-02
1.015068121368656734e-01
1.037132101961146941e-01
9.785368450794156014e-02
1.887544423984238717e-01
2.593453908856809820e-01
2.732094478199382781e-01
2.710391973245949160e-01
2.622611407672404971e-01
2.311213106704158027e-01
1.973867351631283795e-01
1.704772081270046480e-01
2.416822597952979768e-01
2.598796153624258198e-01
2.115016949442853067e-01
1.642543436364281018e-01
1.348344536202826793e-01
1.093202107865113709e-01
8.742378276431353457e-02
8.000930320924913575e-02
-3.978402787428449855e-02
-1.074863071152435193e-02
3.696143051683712516e-02
5.384348495970699838e-02
6.625440893011748378e-02
7.545048922294800287e-02
6.533536272071971407e-02
8.977286703101593213e-02
-7.962604923160150616e-03
3.697662634816797217e-02
7.411773871707649786e-02
6.907565737002988038e-02
4.406754885116462295e-02
3.346443121554116412e-02
7.215482571941273481e-03
5.027231490494551980e-02
1.280751090923760646e-02
6.793469668165866282e-02
1.070190248623685142e-01
9.173754988996848936e-02
5.288937160745887239e-02
1.480904860628357023e-02
-1.857734566231764722e-02
3.556529392552317675e-02
-7.468542014871216127e-03
3.785052604730972797e-02
8.457230806855982330e-02
8.097219043575064334e-02
5.554254766955271649e-02
2.365687193936557436e-02
-4.886288742468054835e-03
4.476875868721780921e-02
1.083528719239871055e-03
1.373168231243521338e-02
3.101895499372809770e-02
3.245623326486853089e-02
2.398446098980643731e-02
1.035855492581933858e-02
-1.468929046253031161e-02
2.906272220247261076e-02
5.389805268773170677e-02
2.244660642480369658e-02
-1.446531688517222955e-02
-2.694154719510510540e-02
-2.668806069980769746e-02
-3.212903404897581028e-02
-5.056302596870886068e-02
-1.070813198025748376e-02
8.645486843987267023e-02
2.552588185870654711e-02
-6.071589490926332378e-02
-9.297414431895202613e-02
-7.624634759558318597e-02
-6.520875584847748985e-02
-7.340148414439383318e-02
-3.415400507629506865e-02
6.443156869179221535e-02
-4.495378104268886454e-03
-9.624582694075206613e-02
-1.255820456650447725e-01
-9.946351104572344337e-02
-6.842917541095100420e-02
-7.193328393415757138e-02
-3.445606319718859389e-02
-7.781582859703402300e-02
-5.719608372078872904e-02
-1.282955970130800205e-02
7.733815413253694940e-03
2.369434093010765532e-02
3.867359864107233758e-02
2.804134704299436967e-02
5.559387031531996121e-02
-4.937947608775335867e-02
-1.339070399233985471e-02
2.768751731104155192e-02
2.332570372896052707e-02
2.145023779889475724e-03
-5.228325179903989955e-03
-2.493272069820734113e-02
1.987161714829116521e-02
-2.491754392981707436e-02
2.728583181493722878e-02
6.615727868998798333e-02
5.244951054029430709e-02
1.855550185280957151e-02
-1.774247454760570497e-02
-4.710797547248090494e-02
8.714108800308864242e-03
-3.647508271107221395e-02
8.477855258959398482e-03
5.292669820407056719e-02
5.365590669328254569e-02
3.486566123617250434e-02
7.645421523824797241e-03
-2.249541649863217099e-02
3.241285169290731433e-02
-1.548450304145034852e-02
-5.236823523007684729e-03
1.413949364660613967e-02
1.817529848897452005e-02
1.648636465706468379e-02
4.596101706497270414e-03
-2.000107752180579554e-02
2.509717778316880935e-02
4.840903776533215380e-02
1.849900693453461475e-02
-1.363298615716342435e-02
-2.169438230920879215e-02
-1.851654166896298664e-02
-1.635598664745495021e-02
-3.915579495235042146e-02
-3.837112694829896038e-03
8.588121091123640527e-02
2.940031264075195286e-02
-5.018982167060432459e-02
-7.333019831482927298e-02
-5.304182066580918897e-02
-3.667965374104868725e-02
-4.999371987235176618e-02
-1.570317645090044470e-02
7.364022114701437860e-02
6.134350364699989178e-03
-7.592350098350514331e-02
-9.921684554056446614e-02
-6.744509654276122090e-02
-3.823887882599392302e-02
-4.320525908133458770e-02
-1.236086486147143157e-02
-1.541751906983341303e-01
-1.366219481478400943e-01
-9.792631390398962021e-02
-7.573600224726044494e-02
-5.708206834759328024e-02
-3.875840666748894825e-02
-4.594105271997564466e-02
-1.651088018199184729e-02
-1.252262262657887204e-01
-9.406845617273768001e-02
-6.019036887010990183e-02
-6.289809048647795886e-02
-7.337669093412624299e-02
-8.003684514211582834e-02
-9.476654935575212768e-02
-4.645504241700272596e-02
-9.448434741307192020e-02
-5.196787432162355141e-02
-1.488950431897174444e-02
-2.874396538948777863e-02
-5.329937232539089242e-02
-8.120849158444340410e-02
-1.048453354974661078e-01
-4.592201648177308276e-02
-9.718088625088185106e-02
-6.271185691401050255e-02
-1.633987394080342950e-02
-1.274286363828402296e-02
-2.362373536260523044e-02
-4.215912637877942959e-02
-6.645262439874660698e-02
-1.561287407646688025e-02
-6.978882152196469457e-02
-5.833997625227126810e-02
-3.486411593880640869e-02
-2.036875285247452885e-02
-1.996507114284732515e-02
-2.194193028392736264e-02
-4.498864197337278104e-02
-4.180055289884894096e-03
3.899596739637494879e-03
-1.973301738688219148e-02
-4.133867823811327585e-02
-4.440695566900167146e-02
-2.989653315371544606e-02
-2.585237488589012256e-02
-4.676283303037920280e-02
-1.489942038228478545e-02
5.476870322926847418e-02
4.710645097271291132e-03
-6.426178958405867614e-02
-7.393848033022243360e-02
-5.180209193208842877e-02
-3.218208497505499477e-02
-4.483591903421072639e-02
-1.704310697379610162e-02
4.545572276542491491e-02
-1.049012851952514300e-02
-7.853089038034277714e-02
-8.946852658744346154e-02
-5.383130162984211403e-02
-2.426877728133875964e-02
-3.093165861167175221e-02
-5.527344247415002555e-03
-1.152870709569027152e-01
-1.076444499675481142e-01
-8.367776736710438867e-02
-4.041092402101493369e-02
-2.789289940425758105e-02
-4.837286465409828401e-02
-5.878086704520380651e-02
-5.025058371474695057e-02
-1.078491437915571616e-01
-9.980504468550981112e-02
-7.829029735043822880e-02
-4.421992680779082696e-02
-3.083681925084632430e-02
-3.494573638741989285e-02
-3.001583528555507724e-02
-1.151274578981157336e-02
-1.007230061172876556e-01
-9.005902237771372387e-02
-8.252352061045263587e-02
-7.179169784137152954e-02
-6.461070091567043538e-02
-5.049842115420453970e-02
-1.906792329234169997e-02
8.046081511423053279e-03
-9.282901407214957934e-02
-7.848623972873836063e-02
-7.674351221382921806e-02
-8.627973496285197552e-02
-8.804260499380056615e-02
-7.341180715590615857e-02
-3.497267866090644772e-02
-9.200056506611588476e-04
-1.052137152353407046e-01
-7.714436751993131169e-02
-5.976344660155510913e-02
-6.601699532534532899e-02
-7.411879892162097361e-02
-6.636080304802807750e-02
-4.367899014216072850e-02
-2.396065767674776525e-02
-1.274403761984243821e-01
-9.375321155435077658e-02
-6.239759969405996032e-02
-5.911295992915795855e-02
-5.938631039060699585e-02
-4.892602066810222694e-02
-4.347311966058851201e-02
-3.827415606327279340e-02
-1.274142102129464660e-01
-9.797381612845128263e-02
-6.820645173038224207e-02
-6.905176218868525062e-02
-6.022519884344042229e-02
-3.803139890039292093e-02
-3.055757999894270077e-02
-4.567318340210663880e-02
-1.216108719608614136e-01
-9.349530805914856024e-02
-7.614676332364030131e-02
-8.167784560483525025e-02
-7.137462445719899851e-02
-4.061762405331201947e-02
-2.807618409427042536e-02
-4.247312464482688732e-02
-2.565504068794710602e-02
-1.776827760718768454e-02
8.547783645850036416e-03
4.609360340432230863e-02
5.616784650757688374e-02
3.222509884743116060e-02
1.572170884013451841e-02
1.380546976043379136e-02
-1.768091653397387344e-02
-4.484174263050227927e-03
1.500512521672158275e-02
4.700035122587021413e-02
5.529973948469655426e-02
4.562489016178910423e-02
4.676747720757352261e-02
5.261224560175405823e-02
-3.992663269531967520e-03
9.074907452292221149e-03
1.663540077208631660e-02
2.135538772216396056e-02
2.462341552709884640e-02
3.007358323094065644e-02
5.798442709111454457e-02
8.055761104025328800e-02
3.408887066837060827e-03
2.232975390004075453e-02
1.995991113428204414e-02
8.534607232706790947e-03
2.791774351716321337e-03
1.242968077117392878e-02
4.404809716928496932e-02
7.172863643312030191e-02
-6.925876571528692509e-03
2.619988818254833859e-02
4.445549037115124891e-02
3.153320291928217445e-02
2.252069503266421191e-02
2.413557467370926538e-02
3.762018193601897320e-02
5.130169292575516293e-02
-2.519726501433605312e-02
1.039556625200889657e-02
4.363222155658513790e-02
4.280291021993155864e-02
3.525942905270372518e-02
4.078517896869759962e-02
3.843720557191060427e-02
3.341377420232948675e-02
-2.705056749027457200e-02
7.755295349870827346e-03
3.502306008124317360e-02
3.413947860830643388e-02
4.019459087558968635e-02
5.568090310354641831e-02
5.051944992999488071e-02
3.134526913146316873e-02
-1.670492995275996845e-02
1.156848060734510381e-02
2.738756758175829586e-02
1.839117696862559506e-02
2.209032693496349592e-02
4.904466469098912179e-02
5.224939612055416044e-02
3.168822442750593438e-02
-1.578832951070284138e-02
-1.123713415423009676e-02
-9.550791628232199217e-04
1.769257370294010159e-02
1.378592092725288917e-03
-3.867844225322639162e-02
-6.869116824821812350e-02
-7.732577861486539250e-02
-3.075236674599566601e-03
7.080490956970448896e-04
9.481908036791709266e-03
1.260568676243512334e-02
1.997226230350866369e-03
-2.842129668217783026e-02
-4.558697478787122892e-02
-4.112400567671474494e-02
1.081439327896097959e-02
1.723526477364105067e-02
6.289113591734455527e-03
-9.651481455062347128e-03
-3.001999755078773799e-02
-4.798064483656133000e-02
-3.823906696867249155e-02
-2.267015727405687422e-02
2.531692334265909713e-02
3.100199752833474390e-02
1.813535555816624470e-02
-1.545844205320981955e-02
-4.332111414775308145e-02
-5.904845036307182493e-02
-5.006238608804004092e-02
-2.994562372173098508e-02
1.549393092879552611e-02
4.172805343426911479e-02
3.964759254316558429e-02
8.541841386134806091e-03
-2.704457291360635313e-02
-4.937687772657235741e-02
-5.359300797661135235e-02
-4.786119787502603889e-02
-2.461355683455667635e-04
2.762169706451704856e-02
4.325231277702103194e-02
1.953685678303880568e-02
-7.628076617713842010e-03
-2.804593635277410901e-02
-4.791187288185513177e-02
-6.119476599601054306e-02
1.112342550693037717e-03
2.978595145429754204e-02
3.666811655435468081e-02
1.516305510288068828e-02
-5.093670301533756960e-03
-1.229182240971895407e-02
-3.100980464616429413e-02
-5.683284993545551639e-02
5.198680789360836038e-03
2.803917802918218932e-02
3.326040113487054722e-02
1.527954823161412502e-03
-1.382284049511029941e-02
-1.308397500068690655e-02
-1.977691146797549634e-02
-4.962312795393407361e-02
-6.487232667300328603e-02
-1.637881447760545367e-02
-3.668955138022342993e-02
-7.945765573406769755e-02
-7.528663385309126987e-02
-3.546480680431765564e-02
-1.526048414020171259e-02
-7.757523370475458147e-02
-5.039456008216981059e-02
2.214870569862450317e-02
3.392569050591093607e-03
-5.226507045046197703e-02
-5.115388219803845143e-02
-1.664567460378297767e-02
-1.120935914387416986e-02
-9.320779687414382231e-02
-4.893869608070834654e-02
3.103965352145192369e-02
2.422828509779736267e-02
-1.525010388878787065e-02
-1.109165811365396895e-02
2.414287978437366575e-02
1.513731187574062290e-02
-8.324581346358535250e-02
-6.766824730235630747e-02
3.022710662453094183e-03
2.046476454228867824e-03
-1.288632220304265774e-02
8.211034357618746116e-03
4.149095510481520810e-02
4.490393974544161504e-02
-5.041941087128453541e-02
-8.385982057736990347e-02
-3.629741183601277454e-02
-3.517622121196485596e-02
-3.309554434117996380e-02
-1.420593548622132996e-02
1.479044690092247601e-02
4.765790925089331831e-02
-8.739577081797414437e-03
-9.481068252197989710e-02
-5.812244042552162926e-02
-5.356777476514631292e-02
-4.300511720095023110e-02
-4.807116061366183135e-02
-4.428632832365919647e-02
2.215687873449930650e-02
1.315752680129686492e-02
-9.489955695262280999e-02
-5.784939409031565616e-02
-3.947510761118652040e-02
-2.484573565788590968e-02
-5.240313820154093166e-02
-7.311760756514781856e-02
2.726246434463220920e-03
1.800607830942988624e-02
-8.551743129195246707e-02
-3.987012394133684218e-02
-1.476127306650077894e-02
8.411447897975708179e-04
-2.801382548092740121e-02
-5.644937296839237784e-02
-3.198668680568952320e-03
6.611004851030524883e-03
-3.500745654123308542e-02
1.214921122871029380e-02
-1.165506187692442845e-02
-5.292000904254586663e-02
-5.265793160390684624e-02
-1.786483715590557811e-02
-3.852555727382201041e-03
-6.417812251953566860e-02
-2.403395337590350303e-02
4.792472407702755982e-02
2.955899930031860232e-02
-2.248736262744825340e-02
-2.780812271417568843e-02
2.634197777519224366e-03
6.165726927358922138e-04
-8.340304176273720393e-02
-2.226007844900169605e-02
6.159630892761974036e-02
5.016764940940989653e-02
6.947621183594920695e-03
1.155488925231503740e-02
3.890313996651018069e-02
2.544885299668134607e-02
-7.489895405301312536e-02
-3.961613929905224984e-02
3.048808512544640831e-02
3.107048406946428740e-02
1.328412471710375617e-02
2.882384838916373856e-02
5.525210313242649024e-02
5.607627071521734813e-02
-3.747274613172184993e-02
-5.543124503166151767e-02
-3.362852134896848408e-03
-5.245336554638678483e-03
-1.915411499006534771e-03
9.257234866852984828e-03
2.929803200608287195e-02
5.992862908496282559e-02
4.684480883880239488e-04
-5.901653872048698984e-02
-2.185090791337473623e-02
-2.202456128027429835e-02
-1.426336455645909815e-02
-1.943241800274108852e-02
-2.136760188957043463e-02
3.783772187804478049e-02
2.715658734359816667e-02
-5.994119598889226241e-02
-1.992962133311501627e-02
-3.650345110384080067e-03
8.165908334853217571e-03
-2.347526870102642493e-02
-4.700842412801531367e-02
1.774401296051938276e-02
2.985108414180694808e-02
-4.925901023001193202e-02
-5.608007763115033760e-03
2.272887114774703801e-02
3.396939307154782373e-02
3.428490909487377954e-03
-3.277768718144764143e-02
1.386290562793709297e-02
2.441006846051704815e-02
-4.519403217700791037e-02
-7.292769192161818520e-04
-2.671091207970886436e-02
-6.887829131156446294e-02
-7.729619990648543826e-02
-5.185821340798159318e-02
-4.565982342178724618e-02
-1.092409954516190967e-01
-3.531981152622982317e-02
3.559837992148585928e-02
1.071019404456455791e-02
-4.507157589632685563e-02
-5.598377949265932046e-02
-3.420123342248376080e-02
-4.253707390520176934e-02
-1.288280454646772155e-01
-2.981050672044499583e-02
4.516005794493529318e-02
2.704408431676748673e-02
-1.396012116416951547e-02
-1.648022265898333935e-02
-2.744082238308249121e-03
-2.279462076365216042e-02
-1.199588937508281605e-01
-4.485933000855485409e-02
1.833275750351809341e-02
1.218079210149122273e-02
-5.556985051106272389e-03
-3.604528904842997043e-03
1.422955891752719290e-02
5.002421163622487905e-03
-8.755328208439011606e-02
-5.503277000481018172e-02
-1.118559989253228165e-02
-1.648863096108559370e-02
-2.294805964741149923e-02
-1.393900895591128342e-02
-9.795521842515799923e-03
1.242856919642247246e-02
-4.903326349552311614e-02
-5.821474982787649965e-02
-2.537664986711645615e-02
-2.798135779496319087e-02
-2.674281149615619427e-02
-4.370111259109833723e-02
-5.439871182573736280e-02
-6.343645372597345525e-03
-2.080226939058970811e-02
-5.625858051103351659e-02
-1.783975404579782667e-02
-7.706610393065094385e-03
-4.706025595623258145e-03
-3.986835850596739950e-02
-7.313403012325084274e-02
-1.890700554805390884e-02
-1.323917760177059644e-02
-4.182342720634524280e-02
-2.526481138333350109e-03
2.131355772725817416e-02
2.382514758838907148e-02
-1.600525188658064382e-02
-5.753119212220525469e-02
-1.908791773996115770e-02
-1.477639345870749611e-02
-4.610008768214736256e-03
-4.162858902108063086e-02
1.858076596792706744e-02
4.557415343920576817e-02
2.563938469412123736e-02
1.877097675375727706e-02
-1.623347177892501408e-02
-5.387754702220522163e-02
-1.505841352812643807e-02
-8.602083379773457772e-02
-4.897475275184974552e-02
-3.003280153873570668e-02
-4.702641460618255803e-02
-3.730395942537999970e-02
-5.787828297953402645e-02
-8.285971048945763029e-02
2.192449168290979897e-02
-6.986782902008389917e-02
-5.909614102721223727e-02
-5.192788759227701806e-02
-6.291070924964092814e-02
-4.319453621694715334e-02
-5.836957924894818628e-02
-7.944494275836741504e-02
4.343550923292663346e-02
-4.823924246982790737e-02
-3.896980855399920923e-02
-3.130702617769481888e-02
-2.944651107642503457e-02
-1.358238432897237481e-03
-1.901858938009391709e-02
-4.878858145117877243e-02
1.397132794500849547e-02
-8.595603034640648954e-02
-7.341610236798842837e-02
-6.054528563751580134e-02
-4.840765575640071372e-02
-1.042260505097322362e-02
-1.506086187189322433e-02
-3.740999267681895807e-02
-4.532462249988911855e-04
-9.633397708411994831e-02
-7.823128957358901903e-02
-6.738002651545924038e-02
-6.867070747208960102e-02
-3.754837352674556678e-02
-2.578417156470882293e-02
-2.959864107357702834e-02
5.344448298537421427e-02
-2.224326096902220357e-02
-1.503362200065311164e-03
-6.294321053384373602e-03
-3.777293406842471141e-02
-2.485858654266442924e-02
-4.805328447794792769e-03
2.756629700095940012e-04
1.059931655848025400e-01
5.212256504301384513e-02
6.498288513269939726e-02
4.429180585865401948e-02
-1.071429801472563491e-03
1.193066153470385277e-03
2.170211386994271366e-02
2.316486018928503449e-02
7.655784507733260497e-03
-2.843492815500092002e-02
2.904159533536623816e-02
5.774324749004886709e-02
3.829207797655590634e-02
2.950806572347514090e-02
-6.244049145286622790e-03
-4.936893462855494741e-02
-6.564595076908429604e-03
-7.471942320821686745e-02
-4.011566529054137048e-02
-2.276765361713070299e-02
-3.707643933050761703e-02
-2.935910943007872045e-02
-5.022514273954361425e-02
-7.764301628414278789e-02
2.648181885465553109e-02
-6.243905834747482536e-02
-5.374535523813928073e-02
-4.506743475967470852e-02
-5.399564030956907623e-02
-3.672658268327379932e-02
-5.485455977240510234e-02
-7.734103547795335987e-02
4.844925788533689659e-02
-4.278666111168819702e-02
-3.480300272289216235e-02
-3.129022284178460678e-02
-3.057399922679862603e-02
-2.225264538224265305e-03
-2.125360979005916709e-02
-5.341832141648591298e-02
9.906841159110909775e-03
-8.971899058279439454e-02
-7.836590950012563284e-02
-6.720890895541872800e-02
-5.641409924681931032e-02
-2.040920423196826081e-02
-2.892507717248553670e-02
-4.834768374600285218e-02
-9.671585075680853849e-03
-1.064698224982726926e-01
-9.317055595275680613e-02
-8.271859480580814883e-02
-8.574958543007953071e-02
-5.480968536249550271e-02
-4.531268486008178942e-02
-4.763076314775250425e-02
3.833043174168240808e-02
-3.750137945714811932e-02
-2.265675265793990964e-02
-3.181483630123734668e-02
-6.414590715822696132e-02
-5.560232158168667421e-02
-3.190730843744205014e-02
-2.447261633897631836e-02
8.844479503552472865e-02
3.210540616325383706e-02
4.358267251254177577e-02
1.573525147491497758e-02
-3.072989348687885092e-02
-2.950800399530649140e-02
-1.254079553382001465e-02
-5.832472982349123924e-03
5.621816540975911602e-02
2.220746974095762216e-02
8.449104545409044653e-02
1.071454519626942742e-01
9.018844777489305742e-02
7.677500123764222084e-02
4.323284676078684857e-02
-1.288167270134432836e-04
4.788810180380075054e-02
-1.898336631036835406e-02
1.714926321615932794e-02
3.401821639848435358e-02
1.836710168280399069e-02
2.598075919605183012e-02
-4.431710879306990881e-04
-3.121281072935862266e-02
7.532611232475454333e-02
-9.332946825304718613e-03
3.887970035703879664e-03
6.852332091143046276e-03
-2.004979076831002113e-03
1.113937435593433285e-02
-6.541713456962278996e-03
-3.476533003183510107e-02
9.209500520798336032e-02
6.271668149831300353e-03
1.457222186395679651e-02
1.956399364766711266e-02
1.477408010553177622e-02
4.255715702868653055e-02
2.128689161882866068e-02
-1.370885677153690051e-02
5.284461999953128652e-02
-4.247568019887983798e-02
-3.154801208245605615e-02
-2.488096853530983449e-02
-1.709283226318149274e-02
1.706857503462571105e-02
7.726591679934015876e-03
-1.631431400180875790e-02
2.698432631122452130e-02
-6.720289032238559168e-02
-5.585268613450340008e-02
-4.611207442028490006e-02
-5.163863349285011117e-02
-2.762331719534272950e-02
-1.574439713099911806e-02
-2.310511598773030278e-02
6.852436562090101491e-02
-6.174581018466265142e-03
8.961669764177219999e-03
-5.096849135233536693e-03
-4.230486242094195354e-02
-2.963795827438512817e-02
-1.103348821810212245e-02
-5.838401336734137109e-03
1.125260676145987127e-01
5.640790119759234167e-02
6.589632450898340321e-02
3.674538534632849907e-02
-1.198657787848672433e-02
-1.059033808534554782e-02
4.353012819378015812e-03
1.135849599251406716e-02
-4.281262971101121306e-02
-8.845055447699845183e-03
3.638312170624024428e-02
2.658688549219774544e-02
-2.895135749702598682e-02
-4.399497140928556455e-02
3.991859008374066403e-02
-8.463962027549948655e-03
-3.284366636524094912e-02
8.078266436557970942e-03
6.125286368520398844e-02
4.161361615783456397e-02
-3.931390388272257286e-02
-6.124367794313939628e-02
5.435008976981602069e-02
2.556282716597616748e-04
-3.479419012896326630e-02
-7.093082654508820958e-03
4.563577787483225762e-02
3.048739336706834946e-02
-5.372823845958078076e-02
-5.780482352391817791e-02
8.642124327950839735e-02
2.005735515392273113e-02
-5.908190069596185034e-02
-6.276808961688190580e-02
-1.711416073442206462e-02
-8.382084459150705019e-03
-5.351215414185137020e-02
-1.644478688049229656e-02
1.500261871847135275e-01
6.981418910868786298e-02
-5.516166141209813412e-02
-8.434740260180211002e-02
-4.959734286799149378e-02
-3.536428315216663676e-02
-5.795364203481572635e-02
-3.713586954208972311e-03
1.875011007077994896e-01
1.176480316756717687e-01
1.388213189571082910e-03
-2.266818192963853534e-02
-1.574362758322340669e-02
-3.003867217347187465e-02
-8.111013293811707159e-02
-5.253896566068264745e-02
1.465838496298258742e-01
1.078183702719806014e-01
6.973314165096852757e-02
4.674066558417915018e-02
3.320842010642573172e-02
-2.057740513434622165e-02
-1.058293589673263008e-01
-1.146482666134046452e-01
5.834895875806528354e-02
6.025587176559194652e-02
8.811827398583667315e-02
7.085289040740579136e-02
4.482397653622990225e-02
-1.897702630781417793e-02
-1.088928506321701212e-01
-1.372261693022680251e-01
-4.073719688799581559e-03
8.251730898282412519e-03
-6.560212363465547925e-02
-3.196683306359753701e-02
1.450902416097660241e-02
9.642382227482775361e-03
-3.061643064062865086e-02
-3.271630525575781184e-02
5.821220829286603143e-02
1.895627416253790193e-02
-5.573827954368219123e-02
-2.054715068116869103e-02
3.320780799827921514e-02
2.489820556495219231e-02
-4.558857608139062212e-02
-5.229808713381366159e-02
7.431521292209708474e-02
2.610220826217575160e-02
-6.256640197652052482e-02
-3.936205295619556177e-02
1.491201777759933872e-02
9.210382319714638041e-03
-6.090370375121514218e-02
-5.155461726590748750e-02
1.085151970564118551e-01
4.961955697584361641e-02
-9.272708900638122753e-02
-9.872167366658375631e-02
-4.904849511809167978e-02
-2.970954076676767322e-02
-6.596725431529412709e-02
-1.518130611918800874e-02
1.705703504690415651e-01
9.924401451717602962e-02
-9.571365478755797240e-02
-1.223921032985141460e-01
-8.540001064940806741e-02
-6.458561659261943810e-02
-7.585938714419124262e-02
-4.014569074663912156e-03
2.060174889304379198e-01
1.375141337116256024e-01
-3.920954935711197520e-02
-6.841138578970358541e-02
-5.842000773414802312e-02
-6.381095848566654960e-02
-1.036036842717904249e-01
-6.164259212845737274e-02
1.526372631308618444e-01
1.258328452289839139e-01
2.575793940578633909e-02
3.588693516994467207e-03
-1.394846266144404538e-02
-6.008309647575045542e-02
-1.322242140229928364e-01
-1.274864428299304631e-01
5.787464587163026336e-02
6.937096797378922153e-02
4.449444399271357264e-02
2.291378992566963507e-02
-2.975667010907216410e-04
-5.700569007745395766e-02
-1.347524794488214051e-01
-1.521409277501205304e-01
-8.278422490133711953e-03
1.291233575086111855e-02
-7.501596585864385436e-02
-4.269318720985184473e-02
1.014856367204513415e-02
1.968615344344490370e-02
-1.009328627773245501e-02
6.912858946310607156e-03
1.093392314244268776e-01
7.218124838982631353e-02
-7.053443030821390791e-02
-3.081589544437709008e-02
2.842329058172640005e-02
2.812646765509667010e-02
-2.378543802579839370e-02
-1.125808975382398998e-02
1.259607429516076404e-01
8.460069525736758911e-02
-7.900045386789260327e-02
-5.170536207420584757e-02
2.858090494015978929e-03
9.981746049615098162e-03
-4.245456958984274859e-02
-9.116265495540235714e-03
1.590042424673419885e-01
1.068881857803075375e-01
-1.090620766773255784e-01
-1.137133871099359206e-01
-6.269007065764364839e-02
-3.297320894462032331e-02
-4.691693338251509693e-02
2.044990785529636132e-02
2.194082328613255195e-01
1.544797547390953651e-01
-1.146799629381785035e-01
-1.431632045927180019e-01
-1.023492143210731758e-01
-6.739535910306564126e-02
-6.464456383366849745e-02
2.274555848102538524e-02
2.479928514663758132e-01
1.920000039479718146e-01
-6.588688335345771474e-02
-9.341140736037466252e-02
-7.781661905327948159e-02
-7.460736221160871318e-02
-9.822000049664970922e-02
-3.347277104287466748e-02
1.890220335458295819e-01
1.712034917415121982e-01
-4.434782673691646700e-03
-3.130444980360548579e-02
-3.809910828369458130e-02
-7.356941782192041868e-02
-1.303280163835494332e-01
-1.088668995837916015e-01
9.473426800272100046e-02
1.122531004669304194e-01
1.471226884593357896e-02
-7.670061257509503891e-03
-2.372859001532194242e-02
-7.471845220610646987e-02
-1.353657767573733794e-01
-1.356434046476187316e-01
2.337519041590568197e-02
5.087389785999441028e-02
-1.268596816687674045e-01
-1.458487210048472205e-01
-1.131381894556113266e-01
-8.577007288612038122e-03
4.421101654960052363e-02
4.269111261932137351e-03
-2.339416785513164301e-02
-2.956349751386109365e-02
-5.018886346393450909e-02
-7.635252783618609596e-02
-7.930318704790770279e-02
-1.726109792824693720e-02
1.493670012398082888e-03
-4.109309462501575111e-02
-4.637595548545941221e-02
-4.168174050463255981e-02
8.800437702917672522e-02
6.937194131844108547e-02
1.330359017724673520e-02
-1.367941174462447866e-03
-3.410415489879634748e-02
-7.122560123746210503e-02
-3.328385109068170838e-02
-8.092240571645455474e-03
1.671548574888946093e-01
1.683593332588306513e-01
9.563626669583301376e-02
4.497038619296347961e-02
-1.885461629296707534e-02
-6.424044522106393817e-02
-1.391838311741756991e-02
7.191745323843095825e-03
1.437361645418028522e-01
1.730726944328571659e-01
1.276389725622479598e-01
7.892247927700722643e-02
1.468001143322633650e-02
-2.341510765847506018e-02
3.633377558889485173e-03
1.084630688107479646e-02
4.232353666809940407e-02
8.501305728765297387e-02
7.527725721061513664e-02
5.350271901162266530e-02
2.456508202611169117e-02
1.368369557306824309e-02
3.195221731745406107e-02
3.169948810728288185e-02
-1.053224824867320109e-01
-9.440089671767074031e-02
-9.550385209965930877e-02
-7.068783201513623160e-02
-3.477309055576855573e-02
3.242417445266534189e-03
4.572552768349112673e-02
4.929272898352768384e-02
-1.934384481801647016e-01
-2.110679261330460632e-01
-2.166558324743149688e-01
-1.700607281582200425e-01
-9.721982186834202122e-02
-1.892422751157206082e-02
4.624405711057012758e-02
5.344752115174478818e-02
-1.158568688832983945e-01
-1.358393238689216964e-01
-1.051332124509757882e-01
-4.618382346911273015e-03
4.280614540676148244e-02
2.324967221080909922e-03
-3.123502602945798026e-02
-4.245702061084618423e-02
-4.238899411320035809e-02
-6.623748411446951645e-02
-7.421612820224686435e-02
-1.468109759055838230e-02
9.836135958987387087e-05
-4.619560185209357905e-02
-5.522386804599679205e-02
-5.576709845296397294e-02
9.777666291833379819e-02
7.839853581496647461e-02
1.746271057327341072e-02
1.487511197062260345e-03
-3.736826975134847906e-02
-7.814235896987353769e-02
-4.576308670643469689e-02
-2.362113426912995987e-02
1.755965685934246789e-01
1.741199710181724203e-01
1.007018256377879700e-01
4.322741817757032312e-02
-2.682802790278689814e-02
-7.181700707267367478e-02
-2.982664175037417001e-02
-6.366760221598646505e-03
1.533363389093539420e-01
1.797085209618422552e-01
1.325455825222585926e-01
8.006957612798970558e-02
6.797954135672495089e-03
-3.752671434733923644e-02
-1.500547490661754101e-02
-8.677932965750687067e-03
4.884763911490726251e-02
9.497958305532089307e-02
8.223386677638921949e-02
5.151054803099434920e-02
1.849140784378873470e-02
1.330613482867987587e-03
1.656350446538592397e-02
9.472775993972693334e-03
-9.650279400987361866e-02
-8.686262811592798672e-02
-9.005807154385060687e-02
-7.056008876050801071e-02
-4.027906502351902285e-02
-7.698194522304928691e-03
2.923844023208857154e-02
3.167466031495599910e-02
-1.820032632179223175e-01
-2.050353205353493691e-01
-2.099012204823024474e-01
-1.676455952762510859e-01
-1.017976709252285533e-01
-2.505344473102428041e-02
3.514408035700521127e-02
3.858800093597321984e-02
-1.023677798884883028e-01
-1.213582287428629503e-01
-9.176939624985361310e-02
-2.072191096489563330e-04
4.081816194808948056e-02
-8.881813035302563077e-04
-3.928829230055112115e-02
-5.227386159281285916e-02
-2.631090406409326496e-02
-5.264668082270546751e-02
-5.703443621798999497e-02
-6.778177664610557374e-03
-8.625146005971256243e-04
-4.856626855498900192e-02
-6.608114216244073691e-02
-6.519529152853720255e-02
1.095945346787089297e-01
9.047238165299410773e-02
3.044613438685508586e-02
3.942787344456256601e-03
-3.781271750622724331e-02
-8.168331346970993112e-02
-5.871153640531796836e-02
-3.884584601250799796e-02
1.837528569848547455e-01
1.857026935602332784e-01
1.083828497187537682e-01
4.948062810803550288e-02
-2.853853731835268720e-02
-8.045236004265067520e-02
-4.755977810283889412e-02
-2.462536512301401886e-02
1.628182243102932747e-01
1.899590324369601624e-01
1.385859598780038171e-01
7.958416538546854435e-02
1.341539635886965579e-03
-4.945376538502935931e-02
-3.050669691486534996e-02
-2.967713462651180509e-02
6.407408110395466927e-02
1.086673360129804672e-01
8.918469164254712311e-02
5.819481270230255493e-02
1.065047108745959849e-02
-9.920252968085569237e-03
-5.213594664813974051e-03
-1.081934896956305084e-02
-7.479728860552775638e-02
-6.396366704093726929e-02
-6.808351943409850227e-02
-6.061921474668557214e-02
-3.724456437337746867e-02
-1.439952353970652514e-02
1.467266748579782593e-02
1.057976312863995010e-02
-1.569309630214407170e-01
-1.758324576484864565e-01
-1.847825104148637099e-01
-1.506990774052507365e-01
-9.472894718903647482e-02
-3.236150817323663054e-02
2.401507736328213974e-02
2.132342964488478584e-02
-5.064673080629608637e-02
-7.136908362817170892e-02
-9.014917848690516544e-02
-8.704423476624059686e-02
-4.053807227058697782e-02
4.429834669640642791e-02
9.920110009332813727e-02
1.199893122062588718e-01
-5.623194420954247957e-02
-8.717034629531496270e-02
-1.316752879971887225e-01
-1.518893152469557306e-01
-1.232251480519195447e-01
-3.352563634771500711e-02
3.206093354022270664e-02
6.179390759973361902e-02
-3.905370212209068048e-02
-7.394792369493011219e-02
-1.300251967603292258e-01
-1.758167357683079191e-01
-1.570897068386796769e-01
-7.454906369727200277e-02
-2.318802049910197866e-02
1.158568549148466034e-02
1.147564444355260796e-02
6.680632608672425546e-03
-2.072363986514142234e-02
-5.222202735293977188e-02
-4.109763538660817644e-02
6.203657928052793910e-03
-1.329530051203616425e-03
-1.156972825760917145e-03
3.793307540477366263e-02
6.213698913901877230e-02
7.631580598845523478e-02
7.747100279796596822e-02
7.899742368966239381e-02
6.609140268163601895e-02
-6.672656344707249623e-03
-3.452847374356012716e-02
1.190600925918651118e-02
3.662515005876338520e-02
6.981200491600803026e-02
8.194561831846573774e-02
7.111622339546441740e-02
2.319957043245542139e-02
-6.671930629972148974e-02
-1.017378584500635563e-01
-1.414911887886221263e-02
7.672768940321718877e-03
4.340407640386585719e-02
5.782924173178612820e-02
5.078230784207202197e-02
1.447143980758307594e-02
-6.965220344163780553e-02
-1.072618999627770880e-01
-2.090710428872243239e-03
2.068225091790538636e-02
5.755858929645182864e-02
8.373041594967413348e-02
8.905558670317366421e-02
7.708171057593511677e-02
1.152668578097673646e-02
-4.015667834222896859e-02
-6.984173563101409021e-02
-9.972299763166703190e-02
-1.286347238107829749e-01
-1.367439970004046268e-01
-1.069269412868576741e-01
-3.144876477534063602e-02
1.340336452310826772e-02
3.752848235982854386e-02
-6.521781029115163164e-02
-1.098413595148736155e-01
-1.634541779259060801e-01
-1.983011489438618880e-01
-1.859928068131051493e-01
-1.053405859052071875e-01
-5.315442857664107873e-02
-2.255781136559280309e-02
-4.315009900372018814e-02
-8.582610265373240288e-02
-1.564699617961584355e-01
-2.159762192632823374e-01
-2.133356462140187093e-01
-1.455408274207219133e-01
-1.003824732510165130e-01
-6.946881746596808571e-02
2.357076540963056951e-02
1.330071671222235463e-02
-2.511382793542522862e-02
-7.777178277809190798e-02
-7.912890269041000790e-02
-5.062228794118204395e-02
-7.171512899373758132e-02
-7.500402425576994936e-02
5.879521630875639282e-02
7.871050118701722331e-02
9.000932741825568018e-02
7.176520323209220620e-02
5.569844637194318326e-02
2.242639618043702418e-02
-6.208754673425962572e-02
-1.016507912108959993e-01
4.121336062343911033e-02
6.715961940935699648e-02
9.188774780536940190e-02
9.204561834357706529e-02
6.089364233856157937e-02
-5.487323794383217740e-03
-1.116458492601169750e-01
-1.565365271173646822e-01
2.190425046456754427e-02
4.157869678160749927e-02
7.128767055310562817e-02
7.794119849864437899e-02
5.424935351911435583e-02
-5.297826550894375744e-04
-1.052642856733966847e-01
-1.531326843113180458e-01
3.291301198641037595e-02
5.446562363120250466e-02
9.066634615128375818e-02
1.044129579530539698e-01
1.008782439692483962e-01
6.831016261040698256e-02
-1.501649069004847535e-02
-7.846518558622292416e-02
-2.394358102264371180e-02
-5.316160635605134827e-02
-8.871946638293640164e-02
-1.077349621662183204e-01
-8.725502296119189150e-02
-2.509761085656114429e-02
1.372444381182722807e-02
3.164119037488556663e-02
-9.816605780607830928e-03
-6.058079023251645989e-02
-1.191941934560329375e-01
-1.615499506618447156e-01
-1.579180525779707023e-01
-9.426578678019334467e-02
-4.792380803738995054e-02
-2.283830387482017887e-02
2.224560911985081976e-02
-2.220399321941914084e-02
-9.876927667071416783e-02
-1.696384078737112333e-01
-1.778120248358148192e-01
-1.194526093895058316e-01
-8.988903332367541299e-02
-6.374304678289524628e-02
9.667627543838587523e-02
8.346157668291520615e-02
3.912910084429910978e-02
-2.098938542627163881e-02
-3.421846296815053701e-02
-2.060579071384242150e-02
-4.877858100310910466e-02
-5.900241005042153319e-02
1.445159945840596705e-01
1.646817379437246764e-01
1.685130895650430449e-01
1.433305318894294578e-01
1.137229154122815916e-01
6.983516285708045446e-02
-3.348014170739227469e-02
-7.885323323566303944e-02
1.325629987277983646e-01
1.590390004833025783e-01
1.810385806529599684e-01
1.726063684159805101e-01
1.352885146353652590e-01
5.149867994353442280e-02
-6.958558681989762684e-02
-1.204967546764561109e-01
1.151694564490613470e-01
1.410838281913980030e-01
1.711493726350422906e-01
1.655474797834849687e-01
1.320369783797240848e-01
6.360666878696190352e-02
-5.509788673449380475e-02
-1.110632872538499100e-01
1.293406119052579739e-01
1.542156499060966801e-01
1.875245828852211138e-01
1.947634471563080283e-01
1.786794181527935899e-01
1.307639120811721622e-01
3.566122590747204668e-02
-3.696302581350214417e-02
-2.641678684974686428e-02
-2.253437147409304703e-02
4.003365226687653072e-03
3.293501579057302869e-02
2.549767549256980875e-02
-8.730801815741824623e-03
-3.705034532955014948e-02
-8.654038013681669694e-02
1.062925053326606653e-02
1.170766868399986116e-02
1.394458290556287693e-02
9.585049205446588561e-03
-1.411494577677719145e-02
-1.216734850297383069e-02
3.010584452743050692e-03
-3.277584318739124730e-02
3.809342317118379756e-02
4.340935391779030678e-02
2.455551503129484517e-02
-1.595867020168961412e-02
-5.866317369730923714e-02
-2.828881288948580444e-02
4.053138584288523694e-02
2.408212671849472089e-02
2.222477167505645598e-02
3.648920020769509664e-02
3.371913921397894087e-02
-1.550978494835760987e-02
-6.450503196236491432e-02
-4.834578833875000786e-02
2.174913924979257965e-02
1.046867887162058683e-02
-1.920049360692685503e-02
-1.811784411510650953e-03
2.610146873816633975e-02
9.396982781404796675e-03
-3.772799503351997874e-02
-5.813539442524352785e-02
-3.900913133050733228e-02
-5.512380105755643883e-02
-5.960513724147115111e-02
-6.059384047035191317e-02
-3.316466928425948479e-02
-1.833095115761385757e-02
-4.922381939382745875e-02
-8.365676133325579411e-02
-9.567502472295116855e-02
-1.146859449496815675e-01
-3.568447528579185568e-02
-4.592320263717899337e-02
-4.126245592931250539e-02
-4.354446571870125571e-02
-5.850068879352166018e-02
-6.762356270329679397e-02
-7.417648296315962342e-02
-1.057884298720980776e-01
4.504634970031359820e-02
3.885599025647967775e-02
1.489267522961382727e-02
-5.365151101168264165e-03
-1.842864570716359202e-02
-6.013917310879415661e-03
-2.910033040630869566e-03
-4.450649755781161537e-02
-7.640658646630470174e-02
-7.033627823989273276e-02
-3.712533428400643931e-02
-4.477175149678094259e-04
1.057126489246679440e-03
-2.022350981933530162e-02
-3.971305959151689297e-02
-8.047854024568965037e-02
-4.019614083019108774e-02
-3.823265131361348185e-02
-2.753619505707299159e-02
-2.383644585948822489e-02
-3.227390214603036156e-02
-2.104943412305818398e-02
5.665286874242753991e-03
-2.441678055404634604e-02
-1.086257564708777504e-02
-2.228227337485164539e-03
-1.153861461396561011e-02
-4.485738994406317237e-02
-7.446793127715024829e-02
-3.299272630951097240e-02
5.130983788481546098e-02
3.672642451598530366e-02
-2.006581037287167094e-02
-2.205217386719797012e-03
4.549278892932020341e-03
-3.090158873015080507e-02
-6.900313895695933675e-02
-4.139232714006033792e-02
3.832310156475874502e-02
3.303958118747006567e-02
-5.507587216259336726e-02
-3.355998922503104082e-02
5.282329926730915635e-03
4.365278644094263381e-03
-2.873549003097908283e-02
-3.620885147023623213e-02
-1.305206394945233883e-02
-2.280521487710256839e-02
-8.740272982441422978e-02
-8.187749685794026844e-02
-3.961311948920037684e-02
-1.589902880541823812e-02
-3.074251841300131710e-02
-5.337928072615208408e-02
-6.093113894202446118e-02
-7.854278321263545581e-02
-5.052104988116616624e-02
-5.408658831353221202e-02
-4.251190902851260250e-02
-3.099596768446011633e-02
-3.526034983155748592e-02
-3.487583570177198167e-02
-3.377534895096277745e-02
-6.290729788686705293e-02
3.319661763311907571e-02
3.545675397977457455e-02
2.420244869977546467e-02
8.253628869575951876e-03
1.060858111954107209e-02
3.166427637344006868e-02
4.193727522361927890e-02
-1.351537775928698991e-03
-1.061401442456877536e-01
-9.732704385929376312e-02
-6.053539159040365047e-02
-1.668776798978640480e-02
-5.399156737275657633e-03
-1.630588883236876174e-02
-2.401104642521236995e-02
-6.321964095866972055e-02
-7.024048121203221862e-02
-6.629198095779666178e-02
-4.784756992135582448e-02
-3.441935706109689602e-02
-3.429329721591985181e-02
-1.639069904440269149e-02
2.177724768206918890e-02
-2.028268630361928192e-03
-3.964277317047547322e-02
-2.769596912801404118e-02
-2.699159184174295886e-02
-5.015890120774078170e-02
-6.504398470246103292e-02
-2.010144510671153795e-02
6.798004502679071137e-02
6.290096814410128800e-02
-4.260357945486786813e-02
-2.317493737588872255e-02
-6.460145004873526532e-03
-3.044608145461915119e-02
-5.438934719475039398e-02
-1.285062728287487792e-02
6.705888085738274940e-02
6.597054727469810198e-02
-6.573725948578497402e-02
-4.378811190846972068e-02
4.375825926730941839e-03
1.658858371859367117e-02
-6.413153306911806295e-03
-5.426098989222194252e-04
3.180951002558236179e-02
1.970804271942201702e-02
-9.084588009678924714e-02
-7.795203868273695158e-02
-2.678143016315684063e-02
7.473243078379653535e-03
2.908343450544093652e-03
-7.821506621245852275e-03
-5.927689814759166259e-03
-2.316955680428267605e-02
-4.971268404021619847e-02
-4.855731330143451402e-02
-2.298208183003278351e-02
-2.629073238423484948e-03
5.067801150209752005e-03
1.484653250882384846e-02
2.278387354877777979e-02
-7.003264032278555193e-03
3.471363073721860093e-02
4.436512631205415808e-02
4.411078367949401724e-02
4.345661999646505125e-02
4.978526369177761063e-02
8.145082692762602161e-02
9.682003849693114617e-02
5.378645948733529886e-02
-4.589235809178630887e-02
-4.453695017891903807e-02
-5.629988286748532217e-02
-3.182658342951255603e-02
-1.759771570397138801e-02
-3.213390697074718777e-02
-4.056253787092108792e-02
-6.470686825461902103e-02
-2.755125889999788732e-02
-3.340376326603360785e-02
-6.182491855528608748e-02
-3.151530252657185754e-02
-8.732286549447442967e-03
-1.979526210046038057e-02
-2.629817709791852989e-02
-5.482797669157389586e-02
2.807231115797189855e-03
8.285522235617088366e-03
-3.078538749023504092e-02
-1.781497656917625100e-02
1.132392106110646258e-02
1.300865813385325073e-02
1.710448773026788938e-02
-8.412794280073359818e-03
1.518530784878569136e-02
4.592663288293187540e-02
1.340725473693621557e-02
5.401954325849043538e-03
1.519381123401649172e-02
2.204720761964054296e-02
4.164968576302749415e-02
2.872264794601878113e-02
-3.074907607518130928e-02
6.059795718264846670e-03
-1.996724571407555368e-02
-3.608390536278675148e-02
-3.752592943006403253e-02
-3.152742708040515845e-02
-4.953942562325368802e-03
-1.450940182979676071e-03
-1.341804971469334473e-01
-1.149945807683162985e-01
-1.238048664510286584e-01
-1.233491551105384970e-01
-1.116055877621059400e-01
-1.014730138965359157e-01
-7.691759766726957714e-02
-6.127920470589132834e-02
-1.410444667595068258e-01
-1.056614783112694855e-01
-7.829068097504955637e-02
-4.750893003084361715e-02
-3.229439236505762117e-02
-3.697029330120738672e-02
-2.972612388475384324e-02
-2.550775769607256660e-02
-1.382021034809183431e-02
5.957181962986900919e-02
1.252429839127344458e-01
1.644108294416954941e-01
1.658441888835001654e-01
1.312066270179169103e-01
1.067540641109284705e-01
8.131449060693558828e-02
-2.706024163604383789e-02
-2.161535397393704941e-02
-4.142557280412044463e-02
-2.312123181726985499e-02
-1.079786405701176413e-02
-3.394717000463511741e-02
-5.191854521195247985e-02
-7.805753847282913271e-02
-6.342277408779655422e-03
-1.029191510799785068e-02
-4.377545058511934234e-02
-2.390616710466506381e-02
-6.545888669144498198e-03
-2.398869469092761164e-02
-3.443138945746419127e-02
-6.672818294086817204e-02
2.248768888690311218e-02
3.024270036039179363e-02
-1.234616769731323657e-02
-5.766503495345844284e-03
1.423120171292909138e-02
7.680892048457938978e-03
6.529046161176760461e-03
-2.413903968587833432e-02
3.627680459182808237e-02
6.956697158923133562e-02
3.359935861173175137e-02
1.807753902448607647e-02
1.974444545633971190e-02
1.951711286401818651e-02
3.310356089502197036e-02
1.428576107747387032e-02
-1.405982584851152122e-02
2.863797946663987695e-02
-2.995780330034126301e-03
-2.607793977160161036e-02
-2.888199982353619952e-02
-3.316777309029633053e-02
-1.289302606641858084e-02
-1.361198255110800809e-02
-1.165430538085754225e-01
-9.606446331035765895e-02
-1.086736157209409193e-01
-1.140784012006798714e-01
-1.060825462271363651e-01
-1.038273640563062705e-01
-8.857185450397173088e-02
-7.458853314367346055e-02
-1.265282320796150828e-01
-8.874114078955074036e-02
-6.476818071295151191e-02
-4.075126221530263326e-02
-2.890002675141992855e-02
-4.246773653215901723e-02
-4.032615495310909459e-02
-4.020032805722487113e-02
2.690355264162385285e-03
7.161826588971574592e-02
1.349831047317223143e-01
1.701883502125503822e-01
1.705106042446078163e-01
1.271001375198063665e-01
9.684924189765974079e-02
6.850837226472004937e-02
-1.793894995853920551e-02
-1.514228528649006270e-02
-2.955999389881403330e-02
-2.158032251153931685e-02
-1.724332665793456079e-02
-4.954685102457258294e-02
-6.648318718770306057e-02
-9.770164484355496615e-02
5.030785088126881952e-03
1.698335354490052582e-03
-3.042173751344384378e-02
-1.896557303484285376e-02
-1.309418870026115428e-02
-3.518574839219930361e-02
-5.334090926464685883e-02
-8.891346400099395253e-02
3.513972498594983979e-02
3.648497183177272507e-02
-4.321895302560955533e-03
4.048785929907510210e-04
8.037154062947759331e-03
-4.611740676784373792e-03
-1.488414958520373720e-02
-4.585726664378076550e-02
4.689440368388766295e-02
7.760684831506095560e-02
3.964998523718225171e-02
1.940337904666463581e-02
1.341652595340915577e-02
2.702997146743295418e-03
1.417621528901744608e-02
-7.972971910003470719e-03
-4.691461924817459661e-03
3.748942644852316930e-02
4.678716004600572825e-03
-2.086239534584434160e-02
-3.490944929886233977e-02
-4.523411597735180201e-02
-3.469918068060971750e-02
-4.118186910577047166e-02
-1.023647153536105525e-01
-8.421830194780803580e-02
-1.014978579909708994e-01
-1.065157332577721105e-01
-1.088209033585752217e-01
-1.129112054874084475e-01
-1.004756697805900961e-01
-9.524961940847126440e-02
-1.133967313643093056e-01
-8.212861202214395695e-02
-5.997860105265947345e-02
-3.903039940038630778e-02
-3.947599383894480340e-02
-5.296096207880424123e-02
-5.675778872851265644e-02
-6.184849626097842223e-02
6.469389960459539894e-03
7.370457689961294745e-02
1.288509440993509392e-01
1.599865664995696324e-01
1.524245159994533638e-01
1.060407167088149721e-01
7.218084026310676860e-02
4.264305007986310403e-02
-1.296498358561088970e-01
-8.481121788893977720e-02
-1.344027862807853184e-02
8.034198473666804771e-03
2.169316388035794421e-02
7.907873465879537711e-02
6.479758098896680474e-02
1.896234215544820301e-02
-1.159140479762413994e-01
-6.807932125057682138e-02
-1.838557775740650747e-03
2.121973093209166342e-02
5.476881643530612243e-02
1.358620817054204399e-01
1.366472993412336523e-01
8.685596674585618904e-02
-9.620425385746408931e-02
-7.234128007073900579e-02
-3.215284449112042198e-02
-1.023943176735695251e-02
3.016023895614062394e-02
1.182462408815028315e-01
1.586691777978377071e-01
1.333145363459265487e-01
-7.647782540369967019e-02
-8.363743183172001050e-02
-6.098705455188757618e-02
-3.337238032397830956e-02
-7.415658822032533508e-03
6.249718531657751791e-02
1.201687956370555976e-01
1.233918547596580123e-01
-2.934929271219121477e-02
-5.705268045941319643e-02
-3.695575130237201134e-02
1.591894334742774073e-02
3.997304834890008651e-02
6.406436108385278605e-02
9.965128012286333936e-02
1.078915188806176262e-01
1.269589868296421703e-02
-3.689639030821263710e-02
-1.915137305372346249e-02
6.450161126153132474e-02
8.692128404394335039e-02
6.683547286002683441e-02
6.348998423202885377e-02
7.479824007024205024e-02
3.275747148616750537e-02
-3.081739181260897617e-02
-3.660376112933891313e-02
4.505074682090241117e-02
6.015510811474723829e-02
9.949803753814203885e-03
-8.964709398643104163e-03
1.122847264879095301e-02
3.051602033300083658e-02
-2.938472990823119343e-02
-5.567005068780368771e-02
-7.990373783550989333e-04
-2.547555814652528120e-03
-5.016245677799343466e-02
-6.488792008064693528e-02
-4.260635258018530963e-02
-8.420002722011057927e-02
-4.936025880018143908e-02
-5.352534085467998068e-03
-1.624033091789579830e-02
-3.753210627938149274e-02
-3.291396742876299356e-03
-2.988074090453640003e-02
-8.193517340254941050e-02
-6.404260312719413373e-02
-3.205885614415441426e-02
6.660697485380295130e-03
-3.639852690698938426e-03
-7.006641382895794148e-03
4.656804572481441223e-02
3.469492551940865643e-02
-1.875020404697586365e-02
-4.201948375885038861e-02
-3.642654781081723636e-02
-2.495261011793399944e-02
-3.816967346855058146e-02
-3.631340238584114533e-02
2.260094765016758961e-02
4.480526819047327136e-02
2.218410831566313551e-02
-2.354340439900736229e-02
-4.911391375484853994e-02
-5.433280405428841942e-02
-6.397265864798086510e-02
-7.610650300193187723e-02
-3.711880909227786851e-02
7.592440456096701852e-03
1.312024068835944933e-02
2.169626263654164319e-02
-2.372629041906650776e-02
-3.222674396248977058e-02
-1.704062506429850077e-02
-2.842491665440503509e-02
-3.300752143945032135e-02
-1.495135525985949627e-02
-2.734449258580718811e-03
6.266460281382355002e-02
-1.704393027020694069e-03
-1.522388335402607117e-02
3.770327934339687964e-02
2.731133516830605221e-02
-2.764635071098912530e-02
-4.293646980873001145e-02
-3.341028266040302341e-02
7.509468811701175417e-02
-1.414792299484191355e-03
-3.056688225160852576e-02
1.840926736283767309e-02
-4.096811857244678787e-04
-7.230707524777472972e-02
-1.064089244334619211e-01
-8.942126653756184151e-02
7.173784779742642392e-02
-4.017001282605454741e-03
-4.851744672998487690e-02
-2.631568627217989106e-02
-5.427991073868539129e-02
-1.229574417316818685e-01
-1.527493840005106351e-01
-1.311232258843396670e-01
-2.856516703781412925e-02
-6.508874295314696738e-03
2.195785076488726215e-02
-1.357987646998835667e-02
-5.081306070678882209e-02
-3.290253458051142083e-02
-6.411037089724751226e-02
-1.167045288469149844e-01
-7.667430925412977404e-03
1.379326641681426387e-02
3.006980344304243866e-02
-2.046685096425987765e-03
-2.677461267329859021e-02
4.542520728394761585e-03
-1.305579623974002616e-02
-6.216032623658281769e-02
9.129385039687824485e-03
1.059717121944131132e-02
1.503344320707794730e-03
-3.934949661232986506e-02
-5.917298386147160777e-02
-1.961272654054755510e-02
-4.245749935316023467e-03
-2.867385470409725828e-02
2.696926267259721136e-02
-4.924759380761241888e-03
-2.692259447129193711e-02
-6.519225253723075209e-02
-9.908995601534183184e-02
-7.806290110948108096e-02
-4.671315496872856937e-02
-4.039100151737134992e-02
6.573065367036469431e-02
1.005464330781791725e-02
-1.162484703106690838e-02
-2.067337713623404460e-02
-5.678678037533436279e-02
-7.371317980789697522e-02
-6.645527543932766568e-02
-5.680495680105985407e-02
1.008260219417095455e-01
3.107725176787257126e-02
1.462419072769871901e-03
2.738526271410955323e-02
-4.343515438289134202e-03
-6.779275450611589593e-02
-8.746583430026551309e-02
-8.321031924366779908e-02
1.119226529182858476e-01
2.961021130345594179e-02
-1.373569925048712288e-02
1.214288392953586336e-02
-2.360652085570236897e-02
-1.074263667006975786e-01
-1.424295503180639522e-01
-1.260456766386989780e-01
1.041803993976190418e-01
2.605205171168447145e-02
-3.341199729913445216e-02
-2.660828978053459554e-02
-6.913181051986450054e-02
-1.474161514507762172e-01
-1.800444319862360421e-01
-1.597839794284396375e-01
-1.056829271636300777e-01
-1.148480248621604888e-01
-1.238746016231337538e-01
-1.223472510828541443e-01
-1.084451597704513548e-01
-9.695320212922294012e-02
-1.066327638032250474e-01
-1.166050271980954012e-01
-1.081946843924688345e-01
-1.166444971157323540e-01
-1.181160179127472981e-01
-1.201339476369040898e-01
-1.103074136661408577e-01
-9.697437275926071298e-02
-1.154377858291259912e-01
-1.213650757621592829e-01
-1.108645720584904848e-01
-1.199514835273032543e-01
-1.097128591217315374e-01
-1.142784704840884846e-01
-1.145143807417335485e-01
-1.051146235651593819e-01
-1.182124827590233379e-01
-1.252688245392753474e-01
-1.011658776296640166e-01
-1.174075375567203428e-01
-1.034936875096517245e-01
-1.106259040713477582e-01
-1.176692157971722108e-01
-1.085608700051771958e-01
-1.142935965080741495e-01
-1.240577313591547520e-01
-9.848445705017791485e-02
-1.122390350253136826e-01
-1.004407853083901514e-01
-1.070588866783757365e-01
-1.167785908693091124e-01
-1.092399124587977305e-01
-1.156631535051430154e-01
-1.128986495905962145e-01
-1.028458217431476723e-01
-1.092398603321445560e-01
-1.005967205369735357e-01
-1.030429959561867392e-01
-1.140015163243027763e-01
-1.036847564622380424e-01
-1.059822687306177652e-01
-1.023462288835383927e-01
-1.090351469770640125e-01
-1.120313987050608057e-01
-1.016993531817540070e-01
-1.034204608269064518e-01
-1.118389560253413434e-01
-9.537938471161884479e-02
-9.408640994220324183e-02
-9.705424549137320334e-02
-1.025303590077288884e-01
-1.053371451649168927e-01
-9.866638940311002470e-02
-1.020760167077838093e-01
