2.609602121154275603e-02
3.083147609439804149e-02
4.305036665818875313e-02
2.505806027295232746e-02
2.011624752282940159e-02
7.125476099207395109e-02
1.258676009132717322e-01
1.625199007970836995e-01
5.832463249375039599e-02
5.007805693647491424e-02
2.975350164557188926e-02
6.790159562590605651e-03
2.966748610184362020e-02
9.784039088899144920e-02
1.672156890495738457e-01
2.092104439772529134e-01
6.519765080113583411e-02
4.941674327119005561e-02
1.949090446868505938e-02
-2.878849053522349478e-03
4.841964460496588768e-02
1.263153914500213248e-01
2.105223274968157643e-01
2.515120995851015673e-01
4.101115393623663841e-02
4.678731014201788913e-02
4.764979029976678521e-02
3.441222643067824716e-02
7.102906051919237462e-02
1.553812181537291004e-01
2.482417668000802824e-01
2.823186320314943765e-01
-9.863669006632206759e-04
2.130878753760619138e-02
4.617362443879725886e-02
4.514952221527979148e-02
8.040492156670364654e-02
1.715996025928741286e-01
2.706670425399044788e-01
3.014940385202593554e-01
-1.793061541215770771e-02
-2.481116618774132851e-03
2.372867615362237587e-02
3.411712497172803699e-02
8.572161258627616909e-02
1.623001777800880674e-01
2.534680262743845836e-01
2.902911053726369706e-01
-1.443188212843487389e-02
-1.517407558332197447e-02
1.631067895440894110e-03
2.101733034844146045e-02
7.007607675534484326e-02
1.366005979143024018e-01
2.263482769285556362e-01
2.681367419976226074e-01
-1.385546427893201253e-02
-3.045951995528617742e-02
-1.964269563456190124e-02
7.700263562241896863e-03
4.828953230936830487e-02
1.062424576890706324e-01
1.833967218836395630e-01
2.297925495784080563e-01
-5.466708940044348597e-02
-4.717884839819974641e-02
-2.752055183711143646e-02
-4.156076185898183173e-02
-7.150319072895200412e-02
-1.134755080519414400e-01
-1.837490640059396274e-01
-2.179929894783112776e-01
-1.474768251310757707e-02
-2.504869474692290182e-02
-3.947853574777811236e-02
-6.769021429279681312e-02
-8.241766352956284014e-02
-1.186069541152037776e-01
-1.893812273801106782e-01
-2.354519873018739440e-01
1.696308905362732371e-03
-2.610724105711025381e-02
-5.734263237329891710e-02
-8.763240682629537537e-02
-9.440940036596941198e-02
-1.382626849438920169e-01
-2.073640572604889820e-01
-2.500827645119664266e-01
-1.409836482346707789e-02
-1.658565832538957605e-02
-2.794087003796331958e-02
-6.523187613957270869e-02
-9.854785737296616055e-02
-1.540483647290100677e-01
-2.183517114639181023e-01
-2.594633651466118351e-01
-3.257094262938171891e-02
-2.063572258752475325e-02
-2.112033825586611888e-02
-5.833583362031032754e-02
-1.076824815522650913e-01
-1.607111521030206991e-01
-2.151966434316183452e-01
-2.605468503607629716e-01
-3.001739593239653031e-02
-1.849149608685634119e-02
-2.181455795099819864e-02
-5.806921689883750431e-02
-1.033750964852717530e-01
-1.558234294350149540e-01
-2.175037869203887142e-01
-2.565479931024231552e-01
-1.442305422906979724e-02
-1.558023301696936057e-02
-2.995603017795796935e-02
-6.891794607717324772e-02
-1.034482082966817346e-01
-1.595707442541571264e-01
-2.099511568344417656e-01
-2.363127951428755369e-01
-1.105638747363813131e-02
-2.772736312162783767e-02
-5.250052407910552749e-02
-7.691044462472536314e-02
-1.056006560531334570e-01
-1.627888870786624309e-01
-2.023881412374524125e-01
-2.114930189898843460e-01
-4.586241556962301902e-02
-2.478166291196784096e-02
2.645292154700994505e-02
6.134313742752769277e-02
7.915273052926632968e-02
7.112150592259212922e-02
2.111131036751959927e-02
-2.043897916433429218e-02
-1.915331916251771308e-02
-1.794766936098498786e-02
6.599124728342556888e-03
3.133387960625029500e-02
6.574377265857345165e-02
6.546985693432987030e-02
1.214699812459157403e-02
-4.162481842677235450e-02
-8.533810634616502758e-03
-2.276972833843930386e-02
-1.728948248696677431e-02
8.394463824772629978e-03
4.747048044478607842e-02
3.855892801461584946e-02
-1.453441797697272407e-02
-6.528854089288127494e-02
-2.072052354023036155e-02
-1.176200799776193177e-02
9.054318858463352923e-03
2.292250058215571443e-02
3.186998038992421706e-02
1.228007916447813701e-02
-3.623523648847762346e-02
-7.979510635033096322e-02
-3.325943792040152169e-02
-1.052288795139956316e-02
1.987270572769776755e-02
2.940448176445651859e-02
2.484371335886794915e-02
-1.024989079815752119e-03
-4.308773766367928609e-02
-8.722804707455140971e-02
-2.605034173973648504e-02
-5.293761306394712679e-03
2.269536928083105976e-02
3.521484910267537460e-02
3.576872378560786575e-02
6.829009219039628049e-03
-4.798915893482528366e-02
-8.410108494582813066e-02
-6.775846527125677608e-04
1.445369167950517376e-02
2.624640883905749247e-02
3.084898454689059474e-02
4.019230782598197382e-02
5.800948995370844991e-03
-3.785214347045413180e-02
-6.467964336742829112e-02
1.641074866450742409e-02
1.740379876910572859e-02
1.978357453557088447e-02
2.836566450766980774e-02
4.041470253265547208e-02
4.564603122345644443e-03
-2.957948428716928452e-02
-4.541943484752041654e-02
-1.028893455240756788e-01
1.292302289749233390e-01
4.217328049854801586e-01
2.388051564306699626e-01
-6.314851628302031727e-02
-4.008048034327894166e-02
-6.689128997955758743e-03
-4.872931175036838286e-02
-1.851347894813611394e-01
-2.155040238522054064e-01
-6.762468486542595270e-04
2.266417962732468760e-01
2.097356953965383020e-01
1.082369982038783596e-01
1.809279332332386012e-02
-6.248530978536887773e-04
1.850740496395661752e-02
-1.328251576441449033e-01
-3.095172350648627835e-01
-1.564965779177866778e-01
1.408403435987965469e-01
1.760924432332193201e-01
1.262709468290470760e-01
1.046478250028477358e-01
6.877806790877623311e-02
3.730384167829909475e-02
-1.198623567250340083e-01
-2.269734325963831678e-01
-1.233179152573622983e-01
-2.526563339252978560e-02
7.343735288526639926e-02
1.235825278428149404e-01
-4.454984776816516695e-02
1.347873243621961967e-02
4.194646420581937818e-02
-2.664449523167366010e-02
-1.029777907924942920e-01
-1.227183788401397802e-01
-8.564354919056038629e-02
-3.647113235376803902e-02
1.231154272973767217e-03
1.265837612119432784e-02
1.972725729340220682e-02
1.723547989563248284e-02
-2.973421406709406134e-02
-3.529492697682093394e-02
-5.176485560635130101e-02
-8.850987103241651777e-02
5.445165898755408018e-02
1.284806780210201969e-02
-3.708194032846000299e-02
-2.386548500820799210e-02
-2.157400768152095347e-02
-1.638980241837811533e-02
2.086325239443440754e-03
-2.558496966332870007e-02
5.160841963906898783e-02
6.795179295134395371e-03
-4.651885931995664025e-02
-2.094704374548559192e-02
1.369999468980645854e-02
-6.184046693594308190e-03
2.583961252597331577e-03
-5.597827375225248973e-03
-1.159835690640762251e-01
1.215794027683851503e-01
4.216723319587883934e-01
2.388164348897593159e-01
-6.596821499542732115e-02
-4.459838061788011510e-02
-9.866499352257748073e-03
-5.039479993632940691e-02
-1.975676830832919506e-01
-2.281160970022504120e-01
-1.058080898131290651e-02
2.208442338871998423e-01
2.044519741976162930e-01
9.957157096193205992e-02
1.059872432323010968e-02
-5.857772737030534499e-03
9.791764016798940387e-03
-1.421024116659844738e-01
-3.211175860785717706e-01
-1.716513021126290783e-01
1.262995249449289648e-01
1.625331988559854668e-01
1.141402453237987807e-01
9.817675172151368868e-02
6.169952739637423605e-02
3.130750157959041879e-02
-1.228741474661408511e-01
-2.324117748110726966e-01
-1.366235133369891053e-01
-4.042940550934352034e-02
6.013621888836889057e-02
1.179177287740912211e-01
-5.160267300941643459e-02
1.172587720958132712e-02
4.520113009830112327e-02
-2.309655157990024577e-02
-1.014447546182310339e-01
-1.261800777439913424e-01
-9.041196061351218505e-02
-3.781833812797671251e-02
-1.031289772144303261e-05
1.569578687627367838e-02
2.579345606158093759e-02
2.598816790137943242e-02
-2.126199660712588257e-02
-3.096512740042902875e-02
-4.877008563536481406e-02
-8.370183151508496511e-02
5.774200365677882585e-02
2.169685632889892593e-02
-2.639470976110156950e-02
-1.233637092147866002e-02
-9.168124582637385972e-03
-2.565528185471468992e-03
1.035149397636050093e-02
-1.797556024727832089e-02
5.866865586862936299e-02
1.811929956209363049e-02
-3.089588165457394370e-02
-4.248108789178771383e-03
2.787632501219700770e-02
8.943182737470585508e-03
1.328000361456297893e-02
4.226767318304050849e-03
-9.410280946122623336e-02
1.368340888290785207e-01
4.294630224229508686e-01
2.540249067918102788e-01
-4.215252555032596160e-02
-2.402986989857481062e-02
4.405880675924768453e-03
-3.919331692496053066e-02
-1.756667660315746893e-01
-2.018439931909081497e-01
1.130186795068669793e-02
2.318009929558191018e-01
2.131031163835762077e-01
1.034713153412577663e-01
1.702933626408829199e-02
-5.963583534008675552e-05
1.616810354744077291e-02
-1.256786093189839193e-01
-2.918359848678611645e-01
-1.516236309573162633e-01
1.284665940682242491e-01
1.578403669624943439e-01
1.093959742760844261e-01
9.436480290889769085e-02
6.080027428640654569e-02
3.770386216163899157e-02
-1.052714690821304894e-01
-2.120054123485579367e-01
-1.249765102016792001e-01
-3.591382929411515712e-02
6.148106049289274455e-02
1.153921587658133380e-01
-5.029339642173560887e-02
1.483293439687076616e-02
4.958956112077473471e-02
-1.961720249384440312e-02
-9.349214532024335833e-02
-1.197600234509617889e-01
-8.204824196393722957e-02
-3.161540544365916416e-02
-4.900899391328954711e-03
8.529629758929511626e-03
2.081181488129077092e-02
2.053839505863980577e-02
-2.525906202231277889e-02
-3.405737996300502862e-02
-4.347378154080179524e-02
-7.457245476693850905e-02
5.054903081000068632e-02
1.185478418583730056e-02
-3.054388387596396887e-02
-2.014028788106879755e-02
-1.661295631204050272e-02
-9.155820193113362385e-03
1.073862440241651374e-02
-1.334928573192054914e-02
5.102894564910520625e-02
1.084580764433995710e-02
-3.432230118681894177e-02
-1.420180718036591870e-02
1.348355486007303018e-02
-8.419760652557406206e-05
1.041047698715031125e-02
7.236386156539600760e-03
-2.972753107690661104e-02
8.640530966025673082e-03
3.049809851020494206e-02
1.025094799091355764e-02
3.021051249661504262e-02
7.252135719289702631e-02
7.393785750028036841e-02
6.113017264144168794e-02
2.691224736376362711e-02
2.304331338320004391e-02
3.884956140833659838e-02
6.763607279725801502e-02
7.438379597956208678e-02
3.284296943560895826e-02
-1.255813102773905426e-02
-1.023529803262940643e-02
3.908642771263027421e-02
1.405652467729976915e-02
2.746910787644438190e-02
7.162264232695557398e-02
6.707125653129213105e-02
9.127831319281083655e-03
-2.133065399927279102e-02
-1.582542393549554727e-02
2.316143428483100064e-02
1.199300078419171002e-02
2.250553172971755944e-02
3.165154814750791024e-02
1.078652557424435339e-02
1.806294122189931392e-02
5.149238836008068754e-03
-3.355044515969468621e-02
3.618846360071342055e-02
-5.209638037114100451e-02
-7.445286545226448283e-02
-4.397676774402860950e-02
-5.197922363135844964e-02
-6.577492510238616003e-03
1.023107512534753016e-02
-2.085181096532973816e-02
-4.580118304300120902e-02
-1.875543048814582170e-01
-2.186496313559899429e-01
-1.046693604470336769e-01
-3.395304497400458005e-02
9.860724464660892627e-03
7.076005580789115901e-02
1.038392394820144976e-01
-1.295403969880671302e-01
-4.892583920166983236e-02
1.386184007459343587e-02
4.319834023832809511e-02
5.136503758741526454e-02
3.201189057726006731e-02
5.504913140124849391e-02
1.070673634832948473e-01
-2.636899577373518280e-02
2.729063938862557603e-01
3.510037817671073368e-01
1.654799593284195236e-01
3.720127971009692947e-02
-4.601748710616488519e-02
-6.272869182103275876e-02
-1.604532346396343040e-02
-4.677477706231211729e-02
-5.887403793324173101e-03
1.878264109999934137e-02
9.002754906496043558e-04
2.327079798449664672e-02
7.027590706292052847e-02
7.325899717717988813e-02
5.702933996222787211e-02
9.344738217228925822e-03
9.201455837289592571e-03
2.469256535789534149e-02
5.645522998222591432e-02
6.657876115326713529e-02
2.768280899743702853e-02
-1.734688977144475605e-02
-1.508279458410050587e-02
2.026829487356429996e-02
-1.933990708680724795e-03
1.187218241954419648e-02
5.674452220628327381e-02
5.518434513829962446e-02
-2.565257519617112399e-03
-3.307633422425210884e-02
-2.651999725943902583e-02
3.906341398122010859e-03
-5.450954403398216783e-03
4.297035346947256779e-03
1.115609609611890526e-02
-1.072287210998537112e-02
-3.266572332978629183e-03
-1.469573892054860248e-02
-5.021757808847973625e-02
2.072762184661615381e-02
-6.713568286457789747e-02
-9.339376143291437671e-02
-6.811782037789032573e-02
-7.882309641906398712e-02
-3.330031356338226251e-02
-1.317734441537935300e-02
-4.272531422323617295e-02
-5.579332805432746234e-02
-1.995151852429161987e-01
-2.358048708847522712e-01
-1.270006275755277692e-01
-5.810997524388206853e-02
-1.463412720003752325e-02
4.601768081101668267e-02
8.060785310969757755e-02
-1.392011737784192849e-01
-6.264123027267828880e-02
-1.727765201677522802e-03
2.383765658023937264e-02
2.830114867025469716e-02
8.426161268716605979e-03
2.990625663486416383e-02
8.348872691200902307e-02
-3.572220564051506453e-02
2.647626929845785515e-01
3.400605534460902080e-01
1.484385441958428198e-01
1.441409590222766067e-02
-6.953444834095186267e-02
-8.545590064700826771e-02
-3.593818948596246010e-02
-4.678619459418299070e-02
-6.343600247437498896e-03
1.803455396331837823e-02
-6.804663612540964206e-04
1.956819698286199616e-02
6.419836727226115036e-02
6.395497090224559755e-02
4.759148237478924570e-02
6.960665738692865985e-03
7.116436591765972451e-03
2.269408961034143427e-02
5.150794812113865945e-02
6.036751523521624585e-02
2.150112895105781019e-02
-2.449582161351409812e-02
-2.131151018343227510e-02
1.737671486917078539e-02
-2.711315232113328290e-03
9.870935633264736608e-03
4.894839398036895245e-02
4.700790634360574316e-02
-9.345371845999045010e-03
-4.149780077765627406e-02
-3.532304520838858153e-02
5.221423860131794992e-03
-4.337690715119053332e-03
3.869014153216603080e-03
4.134083667487078832e-03
-1.966598926366932079e-02
-1.356519739147758925e-02
-2.599661230086501573e-02
-6.075551727231240373e-02
2.701466740977665620e-02
-5.716254569535542812e-02
-8.784991966784228001e-02
-7.021220513660871021e-02
-8.482787202146015171e-02
-4.377321114205129371e-02
-2.541855192318996995e-02
-5.561429931937878629e-02
-4.066004785015817774e-02
-1.786200102625922215e-01
-2.173354444927052265e-01
-1.202061057054414767e-01
-6.129523105578165570e-02
-2.348790496808109141e-02
3.308984942136582175e-02
6.365992821174466798e-02
-1.174642845447865791e-01
-4.353121074359494330e-02
1.071623581410983787e-02
2.864888455819145779e-02
2.509517137862075919e-02
3.146463061887410512e-03
2.320264831159971758e-02
7.085843756463804100e-02
-2.136529283154007045e-02
2.680692858214365759e-01
3.395752480496795345e-01
1.474387424357625209e-01
1.540455880406859171e-02
-6.557168587358865042e-02
-8.077928964910102705e-02
-3.788535017427188678e-02
-9.715029302138855627e-02
-4.737015213799107560e-02
1.659764349287784144e-02
5.237159547232107804e-02
1.044292305897603634e-01
8.154424583920827363e-02
4.641206511795819417e-02
-2.856024414547102958e-02
-9.421713534600655027e-02
-7.864960056719623449e-02
-1.092853766547840881e-02
2.146960124519964319e-02
2.808756768504937565e-02
-4.399824885509615036e-02
-6.432701549501777805e-02
-9.647383199539855125e-02
7.422987692982319563e-04
-3.391395865469991333e-02
-1.409313472116451200e-02
-1.988530972830297727e-02
-5.634030100011255121e-02
-1.261171383399496138e-01
-1.387684293443998129e-01
-1.407165181296487488e-01
1.059434651944916872e-01
6.384748318186550531e-02
1.750500583444450017e-02
-2.923346194531735096e-02
-3.458113579618096040e-02
-3.974438708423076727e-02
-5.570413578690273232e-02
-7.827140919508761285e-02
9.358341581194409842e-02
6.784342991589552285e-02
1.482598440814953018e-02
-2.202036016527927562e-02
-1.890630411209729203e-02
1.349120662945755026e-03
2.043311199769442740e-02
1.760502805931500950e-02
-1.190926346989711407e-02
2.778836576040475889e-02
7.773825185363298328e-03
-1.897701905001443826e-02
-3.796056641853260555e-02
-2.682333922195003287e-02
1.467708791248831940e-02
3.886264276549915297e-02
-1.659435911921258722e-01
7.116323182419241524e-04
3.561382084092611783e-02
-5.408448416840528836e-03
3.741326197805443579e-03
1.549856384478156927e-02
5.766017562787172134e-04
-6.946348793649239836e-03
-1.758880053977548430e-01
7.701981044188893621e-02
1.623499888847427519e-01
9.868849046575886574e-02
1.065961243064036668e-01
9.743131881779960868e-02
2.973287584128742403e-02
-2.076308928680330873e-02
-6.778267969488892264e-02
-1.778725505185454331e-02
4.353911952991380840e-02
8.100497708913964590e-02
1.333022150050651999e-01
1.118593893872722456e-01
7.878417294495582146e-02
3.372052562667583048e-03
-6.671214245612223925e-02
-5.038029307737935253e-02
1.611003555504482432e-02
5.059654019842386302e-02
5.743338397191515010e-02
-1.168760605519979581e-02
-2.892936239759678896e-02
-6.056513133784869468e-02
2.498412311020897780e-02
-9.236214424596848535e-03
1.044322696798220991e-02
8.253284974288420395e-03
-2.469586377743954175e-02
-9.159411128325010976e-02
-1.023626198481229627e-01
-1.043426502453988491e-01
1.280589451641040433e-01
8.625511996990703478e-02
4.116805165376533071e-02
-1.871823569146918937e-03
-2.605078284994495706e-03
-7.362252072879315982e-03
-2.278427256610953897e-02
-4.484845376930008537e-02
1.162615654386580516e-01
9.148785078211459088e-02
3.771301554025752178e-02
3.564681176664872934e-03
8.439122591519996469e-03
2.903148822406701607e-02
4.930244968690472573e-02
4.779416591372716294e-02
1.372596571471278865e-02
5.226271179216612078e-02
3.039502749763618034e-02
5.519445686459309094e-03
-1.365462379108269356e-02
-1.628053814717581992e-03
4.016028258933800055e-02
6.561999504598776956e-02
-1.384799141461445504e-01
2.578084507967281017e-02
5.893568825711509307e-02
1.733956267207130766e-02
2.510804997129926358e-02
3.847310384868965483e-02
2.524303250830074730e-02
1.836052592232183950e-02
-1.506056286808983846e-01
1.010203705995202234e-01
1.843299805870484143e-01
1.188741356933467191e-01
1.257655781288287700e-01
1.176435890976827298e-01
5.306769084590336888e-02
4.814937528129733559e-03
-9.705633077842509837e-02
-5.449107575932841258e-02
8.100659431014611877e-04
3.582700950709812732e-02
8.573061027640076215e-02
6.682221848009760323e-02
3.707363790502074541e-02
-3.223492496454476164e-02
-9.574814431104665402e-02
-8.541059001594250577e-02
-2.699603099079471435e-02
5.483284749301421852e-03
1.518129384945574034e-02
-4.690146454589676911e-02
-6.086601437909423123e-02
-8.779827304824022738e-02
-1.045665724551076044e-02
-4.615581668255628461e-02
-3.184050678362219250e-02
-3.481546268186457710e-02
-6.270506766346367611e-02
-1.219656755979774410e-01
-1.275953432018538392e-01
-1.267031555288410383e-01
8.751583847862562382e-02
4.340744882004330535e-02
-3.334870762001601770e-03
-4.587852392788707018e-02
-4.567451432171413389e-02
-4.698134889727931252e-02
-5.653132116821987102e-02
-7.490576475625637665e-02
7.993359248135289974e-02
5.092882916400780918e-02
-4.629310352333470754e-03
-4.060267474737785237e-02
-3.687599306620226169e-02
-1.790282537579170052e-02
5.873524033723995577e-03
7.294731929333921061e-03
-1.244680650163636215e-02
1.861825897474584171e-02
-8.857752950352786037e-03
-3.755146522378101370e-02
-5.798426137811659581e-02
-4.775714787045295256e-02
-4.153108616647936679e-03
2.270722717947841821e-02
-1.525259219309019199e-01
7.804117535857926780e-07
2.233955627430580723e-02
-2.624179169556383959e-02
-2.208986198680901528e-02
-8.724980668734885411e-03
-1.909524928427184035e-02
-2.395240429066827770e-02
-1.631312869750029537e-01
7.093039005456112933e-02
1.394313685147130222e-01
6.993509244540380143e-02
7.335542190805637019e-02
6.537750387813436037e-02
5.164833421255678528e-03
-3.799049170291975835e-02
-2.044578262301451066e-01
-2.204016962064316298e-01
-1.394918173643552861e-01
-3.165243624229590463e-02
6.958597915488137081e-03
2.091844740692484425e-02
3.454609047482849055e-02
3.552997811981409987e-02
7.455003524549848326e-02
-9.322406487974048417e-03
-1.376875433555352080e-01
-2.016178688869692537e-01
-1.921005910160987762e-01
-1.206757948334694075e-01
-1.110740084546331247e-01
-1.247121766806355142e-01
2.082938981610276408e-01
2.073211732008413688e-01
2.040273056530597096e-01
1.416378032869709813e-01
3.092489439374187382e-02
2.413422439835755454e-02
2.583418118878898564e-03
-4.782875491850607091e-02
3.621715142971328877e-02
2.126352019112367694e-02
8.440055168517879292e-02
1.462659845972421602e-01
6.656697886068004000e-02
5.383496730077581491e-03
3.232555729172789660e-03
1.276732896542912346e-02
5.455067253202184469e-02
4.433856931606949131e-02
4.667351755064429522e-03
1.155069320166953600e-02
2.394869778736641655e-02
-7.917029806447765244e-03
-2.027916384678797243e-02
1.182543120349452068e-02
2.744576954055734722e-02
4.824793159640086704e-02
1.833755182869467940e-02
-1.525859993648205019e-03
4.529885389707126453e-02
3.152992314500008275e-02
-4.173322688110892194e-03
6.215443328222634151e-03
1.059705660398827139e-02
2.692633306745113170e-02
2.025177889344693602e-02
5.488999850371343268e-03
3.687328374530707970e-02
1.065323556188266588e-02
5.106136871075812877e-03
4.126672965242489388e-02
7.908345908913938516e-02
7.764176798973208837e-02
5.515749253461736668e-02
3.009438485205456759e-02
3.524143920823318010e-02
-6.505594635338471463e-05
1.666825867834336242e-02
7.593522461938090329e-02
-2.487250375534182378e-01
-2.629717134824583469e-01
-1.759014693863282519e-01
-6.690738279779262498e-02
-2.915693260497191977e-02
-1.592277941390606369e-02
-3.063975999595378290e-03
4.587686103643521824e-05
2.888502534611651212e-02
-5.055279749243436760e-02
-1.698220757502926503e-01
-2.300319758671542092e-01
-2.224810381107615309e-01
-1.511342045229345787e-01
-1.430367682892038639e-01
-1.561171639835096381e-01
1.681115989107949127e-01
1.742655045251999268e-01
1.815157242078801469e-01
1.224099801688494082e-01
8.128627042872175676e-03
-1.780934193442785304e-04
-2.010694211989660918e-02
-7.063846123342613914e-02
-1.537041386115477973e-03
-9.120181616727835242e-03
6.589355091287611710e-02
1.338633084249920002e-01
5.180757054803138140e-02
-1.292236306210680849e-02
-1.494262747758837336e-02
-5.367754260998335546e-03
1.678066294457061791e-02
1.567636437259390184e-02
-1.426387886096618443e-02
1.866106977521828048e-04
8.241248774176920117e-03
-2.838986227362368456e-02
-3.976178511361404266e-02
-9.513949485954810090e-03
-1.346162650364648126e-02
1.494449334003547340e-02
-3.828976834555200548e-03
-1.618520529054005147e-02
2.571309566358171220e-02
7.728970020006267413e-03
-2.721479994091133975e-02
-1.926418690574075582e-02
-3.095350022041989252e-02
-8.224637839394682154e-03
-4.635484255478272697e-03
-1.384835276480137281e-02
1.311572835978253720e-02
-1.700234867479321829e-02
-2.316391490827972299e-02
1.303150355932150561e-02
4.038643385854267381e-02
4.217903058244727721e-02
2.522366806144798676e-02
7.379593615204623619e-03
1.094950588763875590e-02
-2.803941114208415714e-02
-1.465445270456240678e-02
4.619318699410011886e-02
-2.224147783911472886e-01
-2.318587799179294417e-01
-1.481329152457903364e-01
-4.600943656690260203e-02
-1.156370027609447508e-02
-1.860444037672030803e-03
4.792466109014899972e-03
1.080026190614928952e-02
4.284979191244783076e-02
-2.540765636152642060e-02
-1.325819562177211197e-01
-1.875704809272602802e-01
-1.804407304344447516e-01
-1.177866690803489602e-01
-1.168730621574903400e-01
-1.306782616363902916e-01
1.836507564059063624e-01
2.003197836521258823e-01
2.159332788422319849e-01
1.631602170260439411e-01
5.333044645330425187e-02
3.717773943039386075e-02
1.056415923883531095e-02
-4.109284040830181450e-02
2.735895450656019440e-02
3.028709837160479049e-02
1.102401235404952412e-01
1.798765775394816080e-01
9.827334342805704726e-02
2.996989372594667869e-02
2.296213085252701500e-02
2.425801393487650795e-02
4.359083976802240884e-02
5.021652544669766988e-02
2.952495864131669812e-02
5.013248173038119260e-02
5.540094164304162211e-02
1.455191085968747522e-02
1.756359117192152772e-03
2.204070585789457207e-02
1.078870322456366472e-02
4.302919566012155389e-02
3.246025130325032315e-02
2.649625109944522133e-02
6.563103757131942551e-02
4.399748314477647249e-02
8.151282298431896528e-03
9.032268526956922089e-03
-1.272601661561275320e-02
1.533443013819521528e-02
2.512955476879854405e-02
2.094960265250254625e-02
4.577464451958303260e-02
1.402891919721306092e-02
5.969644920461927677e-03
3.511313179737918927e-02
5.301620891058504703e-02
5.934735933111937034e-02
4.654446260296762894e-02
3.324023135910844640e-02
3.795839807187474657e-02
-2.429410671361755154e-03
9.163073533343321642e-03
6.344898840430554521e-02
-1.670577581828950053e-01
-1.243849207612845315e-01
-4.883594027537561250e-02
-3.367114323756009719e-02
4.371924377160067710e-02
1.109372484999948949e-01
-6.552573609625660621e-03
-8.266675974186693532e-02
1.526933381759401631e-01
6.094518351360404124e-02
-6.664835407448721494e-02
-1.001226697252797782e-01
-4.478528848885105287e-03
5.202332232915326399e-02
-5.429489087304011086e-02
-9.630288138579634616e-02
3.294989184304975005e-01
2.010139342300718002e-01
-2.755503827850180193e-03
-5.252046426078291197e-02
1.895819408705114650e-04
-4.310884811545473427e-02
-1.001618352299486342e-01
-1.542925427120708792e-02
4.739589087928892247e-02
3.081714945224312691e-02
8.862891986462083371e-03
4.285280461709276706e-02
8.974945445256074517e-02
-2.166982980483670579e-02
-4.647506272255602644e-02
1.117524272326265444e-01
-1.614273977774776658e-01
-1.267061314517438364e-01
-5.024348658298547626e-02
3.748646151655411068e-02
9.702884612308386447e-02
5.720880616487622472e-03
2.507278206123270820e-02
1.464973782210172160e-01
-4.867562380926428178e-02
-2.182688834510128351e-02
1.051386830050251089e-02
4.257034664103411664e-02
1.601405150593689791e-02
-4.599224215688785256e-02
2.610857942680171531e-02
6.991251362580419570e-02
3.679279058601149510e-02
3.360348777571211393e-02
4.769961030758305964e-02
6.634568911275134928e-02
-2.467551242357023458e-02
-3.363720955010882779e-02
6.764730368602467347e-02
2.012685704325479358e-02
-2.922297804280028343e-03
-1.825854018498582546e-02
1.158058388250488360e-02
3.926467270322682446e-02
-1.494302849987493541e-02
1.985661441282751336e-02
1.080528735669706031e-01
3.146081779809274670e-02
-1.519393037675511315e-01
-1.082089899663804949e-01
-2.976280268729154105e-02
-1.469430898643974900e-02
5.956973863520496904e-02
1.224036252769237915e-01
9.808419384747038561e-04
-7.750284577731524072e-02
1.639952524524568578e-01
7.082761179198265866e-02
-5.495590291086151907e-02
-8.882526659246944845e-02
2.783602246237871711e-03
5.827954511427961559e-02
-4.891905580592435104e-02
-9.233789182914127480e-02
3.320792609878802648e-01
2.020872501536686849e-01
-2.583473435616936813e-03
-5.408950816968100678e-02
-6.106848452076910419e-03
-5.058099743952409327e-02
-1.048547353213001576e-01
-1.647757107012522149e-02
3.914902392124482156e-02
2.206949384073082776e-02
1.003743605453709820e-03
3.277390825115487211e-02
7.559546403258993186e-02
-3.869773199820213810e-02
-5.913577280877573700e-02
1.059359496753035923e-01
-1.692968686960219515e-01
-1.354965616521748295e-01
-6.186394050325669941e-02
2.241417497551046953e-02
7.925288803281960170e-02
-1.009506548629570538e-02
1.607681338596460632e-02
1.419595669441795494e-01
-5.421938385989164694e-02
-2.874568589805519964e-02
5.803070275870139574e-05
3.106928369454390812e-02
2.009768503374009460e-03
-5.594911818582553459e-02
2.409407440116502139e-02
7.211140749744067435e-02
3.285680669878315863e-02
2.776145084192774629e-02
4.003520910525998344e-02
5.886716002791874541e-02
-3.102444932676982903e-02
-3.684684552927609130e-02
6.995695303864621351e-02
2.510002563414959198e-02
-2.843807737523005620e-03
-2.178942328490312413e-02
7.455898582359068820e-03
3.616067988061681671e-02
-1.686390151185767836e-02
2.058633677219426014e-02
1.136215557483030991e-01
3.850415284743038957e-02
-1.449286606118906084e-01
-1.015225746276496588e-01
-2.551037868759096008e-02
-1.362144362509697115e-02
5.148742642397579478e-02
1.067944990952197637e-01
-1.115462040648435536e-02
-8.548882849736445799e-02
1.505163246782505182e-01
6.406544807114776530e-02
-5.427230820168381376e-02
-8.896406642837074996e-02
-8.153950100835112916e-03
4.307630270759486152e-02
-6.081532427113563871e-02
-1.028482743830851781e-01
3.048530216603673182e-01
1.790498075354749752e-01
-1.287055100416082190e-02
-6.462780919839297700e-02
-2.246843690675975891e-02
-6.535476136325182872e-02
-1.178905088404243046e-01
-3.334304548614440422e-02
2.337294325311671875e-02
5.506796734156880688e-03
-1.416969293819872640e-02
1.474230377131496676e-02
5.279103881458654945e-02
-5.732945155863516939e-02
-7.502920576635009609e-02
8.485654545494608625e-02
-1.738876929467608190e-01
-1.409863295732125266e-01
-7.116061039150999024e-02
7.341684302540961264e-03
5.877681007043628753e-02
-2.400909823839424140e-02
6.163738217735820028e-03
1.273210786703306840e-01
-6.593696181985858606e-02
-3.960950558280479372e-02
-8.420220836676210047e-03
2.233440199137776139e-02
-6.432432363479814903e-03
-5.597733566766523866e-02
2.599347807953992021e-02
6.963447228025489155e-02
1.749474838833493112e-02
1.727197636462847810e-02
3.376518194410312035e-02
5.474735627389601400e-02
-2.938399285562960650e-02
-2.691595851624647290e-02
7.925100442748136964e-02
3.237640582788056665e-02
-1.353974154578439781e-02
-2.631977372643874019e-02
7.152983996128573635e-03
3.659287946319268042e-02
-9.284811125668573223e-03
3.396587310062666037e-02
1.243456231648286947e-01
4.934169709582601759e-02
-4.843508748464284142e-02
-1.711832766742660550e-01
-2.594105320804460796e-02
3.488794518740916950e-01
8.361772754093296789e-02
2.181747953605390339e-02
5.954093565708012958e-02
5.303813493290696589e-03
-1.355450275621374392e-02
-1.617429959321221300e-01
-1.338933692876263792e-01
2.747270593952095274e-01
5.987915510879606579e-02
1.733975437037422757e-03
7.531405089805350006e-02
4.545636716266822364e-02
-1.396597367444540015e-02
-1.277395667249766054e-01
-1.920037089403652253e-01
1.455424429977940082e-01
1.157086262013125033e-01
2.389901763669459445e-02
2.817273706790362348e-02
4.255832792306557533e-02
-2.119587333828816186e-02
-9.627052046274951758e-02
-1.875976774471712072e-01
-2.075645032827346838e-03
1.321528595541746065e-01
8.585590600959944196e-02
1.888908223942865200e-02
5.442289263918522607e-02
-4.868586847288554342e-02
-7.434125653462597683e-02
-1.203086722907699413e-01
-1.156330800656380497e-01
5.942007419035682386e-02
1.269063474730329211e-01
6.161675703432510642e-02
9.040276418082843213e-02
-9.498490418961466619e-02
-5.099476306706098028e-02
-5.199179142337614218e-02
-1.608175729519628061e-01
-2.668106192709539595e-02
1.104104386728670117e-01
7.293041384357581980e-02
7.782843587219970272e-02
-4.355479621629493314e-02
2.986467376221985104e-02
1.879729392807131735e-02
-1.518546747380623285e-01
-6.799642693977403507e-02
7.433911656850836214e-02
6.670839146343533754e-02
9.088196946107747476e-02
-1.418109173838100461e-03
6.720991924665958850e-02
4.224590631328031809e-02
-1.141723680291279602e-01
-9.622261611883960175e-02
-4.879478754842607284e-03
3.030152712229815595e-02
1.003270958055594853e-01
-3.412204879525022189e-02
-1.634152304313897797e-01
-3.192367041006397010e-02
3.276728393442300824e-01
4.863051412948889846e-02
-6.964914102670798947e-03
3.999144373740047553e-02
-8.318017257824444552e-03
7.548191564705378914e-03
-1.436734569365657466e-01
-1.335298053084303382e-01
2.541671310522862770e-01
2.364714513555473893e-02
-2.932609929758608902e-02
5.753334171838654643e-02
3.260663128764300367e-02
8.979251360699070164e-03
-1.026595493087014005e-01
-1.788191455421550835e-01
1.314673735336716887e-01
8.429277295766489375e-02
-6.317306478588908050e-03
8.104947986326532100e-03
2.791060040303818338e-02
2.143584513719952022e-03
-6.856652526171198858e-02
-1.678624258719016438e-01
-6.452024488512281622e-03
1.082080381819766485e-01
5.826294896507737409e-02
-2.739570980922063394e-03
3.999580546778076090e-02
-2.676232974529134390e-02
-4.649432820689754914e-02
-1.006379072229819788e-01
-1.139740720068741220e-01
4.139385822229654788e-02
1.012895944474998949e-01
4.108691839741123591e-02
7.658549121527269410e-02
-7.828890203004101878e-02
-2.798038715707199323e-02
-3.233578271493325884e-02
-1.545244485178587091e-01
-3.830872019457838562e-02
8.829446032391212451e-02
5.021992389455225830e-02
6.124833284517668813e-02
-3.605737382110659611e-02
4.359959154302271711e-02
3.435264128271380696e-02
-1.440616003461461236e-01
-7.562942758989586733e-02
5.547318100286507958e-02
4.477262254028971378e-02
7.149096583834869956e-02
1.697509544256679262e-03
7.447188741213532637e-02
5.126617473499862909e-02
-1.103121291152208416e-01
-1.047687852258484126e-01
-2.445829230320695907e-02
6.994861145999103219e-03
8.032260293350276803e-02
-1.520636457201123698e-02
-1.397685360969826152e-01
-2.398114895653174691e-02
3.007759191783471175e-01
2.917923044461505355e-02
-1.684889098899600493e-02
3.208236526599546334e-02
-1.048548713452571515e-02
2.768665667954278362e-02
-1.149671873289822288e-01
-1.169234175130086095e-01
2.310067110014367431e-01
6.638150478596183297e-03
-3.557464068278244629e-02
5.327762593243869083e-02
3.145371597988915607e-02
3.346842108764598589e-02
-7.026319812004101772e-02
-1.537839420214439923e-01
1.212739466212137684e-01
6.761325583723616639e-02
-1.534642539910510174e-02
4.802863414855368905e-03
2.852167095145456341e-02
2.571421536081220510e-02
-3.789267392761244690e-02
-1.381351478340016037e-01
-4.420742376698273343e-03
9.302680634420301686e-02
4.364335532177903570e-02
-8.247935597821888856e-03
3.987480107856796602e-02
-7.518951476115438154e-03
-2.020585222434490361e-02
-7.496029768752873745e-02
-1.032824282152357137e-01
3.042848632477117982e-02
8.261231515297617900e-02
2.980008205602595328e-02
7.140203918310956965e-02
-6.501500880120748838e-02
-9.815873182420210147e-03
-1.393180846372713694e-02
-1.389579657031549675e-01
-4.258861074001826091e-02
6.879057904396182477e-02
3.668149712627472026e-02
5.242835867375264525e-02
-3.169338596285211501e-02
4.966563860809317110e-02
4.525811829318560769e-02
-1.314723992586618873e-01
-7.718063569424409021e-02
3.888736934480023499e-02
2.938097522333767489e-02
5.927276332500773515e-02
-1.804328962824782367e-03
7.378362740776242545e-02
5.574995905929390483e-02
-1.031970259008370278e-01
-1.066216398066146265e-01
-3.679922610052138027e-02
-6.480787388170319678e-03
6.596474019176680470e-02
3.343319704342730125e-02
8.565200669370578307e-03
-3.471841769654396281e-02
-1.516849220058045893e-02
6.098071011070518854e-02
6.269358713849812470e-02
-4.532136109486701800e-03
-1.206962063993230298e-02
-2.055344156229908445e-02
-1.942242030585801527e-02
-2.422246192706233037e-02
-3.087399955284120256e-02
1.613952031158562284e-02
4.212516882369988364e-02
4.471962759714868604e-03
8.933792819319696585e-03
-4.882661956813225818e-02
-1.548806856219932075e-02
4.155242031928786661e-02
1.061547719480217603e-02
-7.547441146039378726e-03
3.165191663357247442e-02
6.208749845345837293e-02
7.878860005384055731e-02
-2.770765227843523248e-02
-2.511374005161089856e-02
-8.255821345043023660e-03
-2.553553651279679218e-02
-6.258302644267407788e-02
-4.803257466845923390e-02
2.257253904148296894e-02
7.314881840934749080e-02
4.330645127555957791e-02
7.820768054027168667e-03
-6.590094973327353944e-02
-7.727897042962962593e-02
-9.119946555712400704e-02
-1.058182945578243495e-01
-6.696040861610368100e-02
-2.417857458402855250e-02
-1.186099501742535339e-01
-1.279387414049030780e-01
-1.329225343979621721e-01
-5.958989994611858798e-02
-7.799247555981300532e-03
-2.146666650609757587e-02
-4.636891277106935244e-02
-6.319353200029949325e-02
-2.750675273980804358e-01
-2.207687925808439477e-01
-1.483977431008874082e-01
-4.375025382809949459e-02
4.545647751621513175e-03
6.460788436270421559e-04
2.367590340881534083e-03
-2.862311923450433157e-02
2.851900025754711132e-01
3.956096841050761315e-01
3.003996982865210774e-01
1.554531245150589935e-01
2.808512653780041723e-02
-2.418230423310635188e-02
2.534180918607262939e-02
3.682645911385405008e-02
2.763451193389002830e-02
3.388226047319040871e-03
-3.910707898209647010e-02
-2.294534492348093355e-02
5.193920353780787091e-02
5.531058781468025515e-02
-1.554056388126955242e-02
-2.638423776764078216e-02
-2.513655811102446722e-02
-2.317234739921149311e-02
-2.939358800155676341e-02
-3.614316605661576504e-02
1.051401198875408921e-02
3.596772185683667911e-02
-5.306696810630005465e-03
-5.103852810756837402e-03
-5.442758856122537764e-02
-2.171524452105491262e-02
3.472173693383914100e-02
4.432604654148939588e-03
-1.075613270165985506e-02
2.486349077503197808e-02
5.278689100764080711e-02
6.693701696292728154e-02
-3.207663950851330492e-02
-2.848926136775839502e-02
-1.135158007748181090e-02
-2.907151992741484337e-02
-6.380816800320016080e-02
-5.116176146517002060e-02
1.545426647808709371e-02
6.512588106764789775e-02
4.414475775643803002e-02
1.034734835667875004e-02
-6.276312268841857667e-02
-7.374429348360453385e-02
-8.798193893428479795e-02
-1.045111569423151227e-01
-6.748165256427893222e-02
-2.833578419215396216e-02
-1.158053164004196056e-01
-1.232780861477468098e-01
-1.283541880998044227e-01
-5.377569788086286606e-02
-7.575485262910908180e-04
-1.385978138653807222e-02
-4.151194250836630351e-02
-6.344834448020160445e-02
-2.794292307671586983e-01
-2.261754168530582809e-01
-1.520896479422982339e-01
-4.482895602284108633e-02
6.303804491366278920e-03
7.922171948541254644e-04
-6.422189837818602929e-04
-3.482035612402858277e-02
2.746815895945921016e-01
3.860103030756021902e-01
2.889597562576562972e-01
1.462584867623087093e-01
2.072979390589107379e-02
-3.066769211573992446e-02
1.936850639467364854e-02
2.843829548594679901e-02
2.429335284805921036e-02
3.427834771328119694e-03
-3.696774904284026719e-02
-2.379153944795465991e-02
4.663229217743333072e-02
4.550999616241582779e-02
-2.744867683640637990e-02
-3.884394731547599622e-02
-2.465617125576798768e-02
-2.163347068009660937e-02
-2.743503427651313581e-02
-3.457179657243183990e-02
8.301379734579481667e-03
2.770746855776771989e-02
-1.726045857511865345e-02
-1.955284509428844089e-02
-4.906473918142208873e-02
-1.615428840967170557e-02
3.649862499314861231e-02
6.487036019813754648e-03
-8.038111317335372083e-03
2.241192709883198589e-02
4.355449393401591290e-02
5.171086107995020997e-02
-2.178710179533138377e-02
-1.716214709219058068e-02
-2.164948985022936354e-03
-2.442914472609000742e-02
-5.483178684738452408e-02
-4.525059791360021982e-02
1.321529339108284615e-02
5.400144497838084423e-02
5.265674939928949999e-02
2.216090142221185250e-02
-4.672281833219588121e-02
-5.993309107987455225e-02
-7.369599863221920621e-02
-9.012550653823846181e-02
-6.108275793478158688e-02
-3.033182189829871506e-02
-9.886753833789532764e-02
-1.055453701622850460e-01
-1.096845728863221070e-01
-3.932925824305691376e-02
8.527240120731877787e-03
-7.272214189124115609e-03
-3.592808844583206263e-02
-6.021931338583318832e-02
-2.567789018788645405e-01
-2.061021242598758130e-01
-1.357103601490941558e-01
-3.655751337127649547e-02
5.420822815813686191e-03
-4.496879831767722907e-03
-4.608187505499176072e-03
-4.096719142457040663e-02
2.580813103349457460e-01
3.634925974214071043e-01
2.722052955584047251e-01
1.331985035106985904e-01
1.230767305879859608e-02
-4.028112627958385650e-02
8.437498342402038887e-03
1.579408480987303659e-02
-1.228269325165254611e-01
-8.359975224620970480e-02
7.383105713891600919e-02
2.266223256276479747e-02
-7.695584196139475253e-02
-4.259334804948832626e-02
-6.133983146896824362e-02
-6.404493819026751966e-02
-1.201831847187924927e-02
-2.136250323856850666e-02
4.954025100499541423e-02
-2.502296801564790445e-03
-6.627575199089955071e-02
-4.337347704207554500e-02
-6.470079258575564540e-02
-3.964147626211812769e-02
3.807710662962677378e-02
9.636183125597582236e-03
-1.620332911704212928e-03
-2.605689882371615279e-02
-1.945770850633060309e-02
-3.672165803094137176e-02
-8.673040042876284383e-02
-3.390824607645921002e-02
2.490478681660111479e-02
4.466570786087349643e-02
-9.743637558334338269e-03
-6.578466493278983807e-02
-1.768929793507195355e-02
-4.164025734059995099e-02
-9.619335561148625868e-02
-2.465028488016072009e-02
3.679301451975998394e-02
1.071060428850431484e-01
1.791093909912725227e-02
-1.001063293038767926e-01
-6.080979664655632166e-02
-8.174635570048345568e-02
-1.155204646484153247e-01
-1.794764995002598451e-02
4.051438951683958983e-02
8.757805903201686115e-02
3.657604409704572415e-03
-9.971276741544972400e-02
-6.603810883278951605e-02
-8.967270276193510525e-02
-1.137019938742413194e-01
-1.260241773849489141e-02
5.996214739973292768e-02
4.644698415470298325e-02
-8.052185797184424274e-03
-6.890303446690201894e-02
-6.845396234061146279e-02
-1.054134157942898803e-01
-1.093697866566988447e-01
-1.036356069572889026e-02
9.450664506029132772e-02
5.228201569498752005e-02
6.366843679585755360e-03
-4.854120625373741643e-02
-9.302847281130664781e-02
-1.452929220493785756e-01
-1.160715062802301079e-01
-1.355168811768660449e-03
-1.145689849619385692e-01
-7.716986219236846023e-02
8.445352939260605818e-02
3.874933064782810216e-02
-5.006224405562634955e-02
1.983534024494988408e-03
9.310320209509758034e-04
8.982036468993181630e-03
-5.359279091485848190e-03
-1.868817144749657447e-02
5.658568653226693501e-02
1.229420475861095485e-02
-3.814608402128018966e-02
4.427427974352583263e-03
1.537013962113814667e-03
3.859307025847172334e-02
4.022097994761827944e-02
1.019055379339017277e-02
2.132147242943869918e-03
-1.286992206929869417e-02
8.909185126683224695e-03
1.045594779478377367e-02
-2.114043490839783573e-02
4.516211818703913528e-02
2.354734336556840030e-02
4.306483698967029927e-02
-7.966708773580202796e-03
-5.285183463520576330e-02
1.107789821777568906e-02
4.924591450059228465e-03
-3.085194763957392269e-02
5.468703308126546259e-02
3.390019488695962535e-02
1.040696076265829051e-01
1.900961880838555884e-02
-8.881407230213311799e-02
-3.381177209200617040e-02
-3.590707751312514212e-02
-4.932880787042068227e-02
6.065166600136812081e-02
3.681993900090044236e-02
8.315095349574758155e-02
1.075491682930904570e-03
-9.078517176742623151e-02
-3.869002675410197767e-02
-4.389166729194622640e-02
-4.919988570839260722e-02
6.412999919919740166e-02
5.726766112395174219e-02
4.236367259289498810e-02
-1.008134609239399321e-02
-5.910925768839748323e-02
-4.042407123374618105e-02
-5.919547889068415419e-02
-4.487812451106532041e-02
6.483900961851471467e-02
9.446312975835326198e-02
5.064349119997461901e-02
8.831965713404830651e-03
-3.693445311419201599e-02
-6.595424818376165177e-02
-1.006256569843273774e-01
-5.336444389375607361e-02
7.136759680656336313e-02
-8.633164189076886208e-02
-5.384001947551769057e-02
1.012067134353843711e-01
5.820847691474591301e-02
-2.329466791158204750e-02
3.724474811995913404e-02
5.117623618713613293e-02
7.266106842736803906e-02
1.861154031059884806e-02
2.070323697878964034e-03
7.163940175611133165e-02
2.855840107755657289e-02
-1.399043693637033216e-02
4.140876856164782405e-02
5.629111786628961805e-02
1.054002614105765956e-01
6.177746774627831949e-02
2.837172772989569533e-02
1.554552519970169196e-02
9.703299724456848760e-04
3.006238368686707518e-02
4.630185756204904107e-02
3.553646414122638847e-02
1.136761040333605643e-01
4.495387496323374754e-02
5.881422288027250006e-02
4.333011957142178343e-03
-3.844331777466301198e-02
3.188167486552575397e-02
4.065778168049360292e-02
2.718441564073555486e-02
1.260451182328469200e-01
5.358675520956782817e-02
1.170769955330327045e-01
3.051665022310084963e-02
-7.118143384687546094e-02
-9.581810642812362000e-03
2.701880097214298497e-03
1.234171658472028345e-02
1.346393012370799003e-01
5.736880031947062114e-02
9.735391782913720149e-02
1.441250321176684376e-02
-7.124939946466068985e-02
-1.307411926623322160e-02
-4.020685323389076339e-03
1.363358047511876482e-02
1.377461753795942434e-01
7.961637909922497647e-02
5.966432945612384908e-02
6.335458400015436115e-03
-3.718177785649709466e-02
-1.214574192047791247e-02
-1.629188439200737748e-02
1.714739009255471236e-02
1.368071036437926435e-01
1.164671007184328727e-01
7.016930741129444316e-02
2.717708611380208542e-02
-1.353496695735030564e-02
-3.499225350428175618e-02
-5.563099733754805348e-02
7.229092110802306029e-03
1.401655616205095267e-01
-8.899410171522793844e-02
-9.494066932855464713e-02
-1.363548467657323959e-01
-1.708599565584194291e-01
-1.802102572943212189e-01
-1.712932864595746174e-01
-1.588838505830749426e-01
-1.364516326420796566e-01
-7.097678788840590391e-02
-7.921651483990030385e-02
-1.193088676112587093e-01
-1.526885178602988002e-01
-1.530261628632037796e-01
-1.263923375885313005e-01
-9.259115228301359468e-02
-7.568226922427763459e-02
-2.343199572502801045e-05
5.798036606370042187e-03
-2.328151783914320094e-02
-3.864500901181808223e-02
-4.579619535312559608e-02
-4.373133452221451140e-02
-3.367688240575470587e-02
-2.515070933337368309e-02
6.648222839274396667e-02
7.353738685811589404e-02
7.390058263615334466e-02
9.373719609723579760e-02
9.037573581737555484e-02
1.030151395276313470e-01
1.010221836407550339e-01
8.029506787527836142e-02
1.014331474780361536e-01
1.140392600898439412e-01
1.386417023163790951e-01
1.571757053306537810e-01
1.705510518939384879e-01
2.126349123379995265e-01
2.344037644178470492e-01
1.981121436424426452e-01
7.973595092097961190e-02
9.298262070944979252e-02
1.266942507302842025e-01
1.477697379655596721e-01
1.665690433639077095e-01
1.981730074787890206e-01
2.257856589112171297e-01
1.880465153208257800e-01
2.131369364329630672e-02
3.316491609663817230e-02
4.636015854845721568e-02
7.684555725299990758e-02
1.341856339343676652e-01
1.581946462844224244e-01
1.764334671139328181e-01
1.530218181490938800e-01
-2.238755597766880958e-03
-2.519935989016289929e-03
-1.767530200932906220e-02
6.559894069752428367e-04
6.787737430651728798e-02
1.077848168971909798e-01
1.304009948913931183e-01
1.212933007626153109e-01
7.626282080332930091e-02
1.013937670434175431e-01
9.638450837831895324e-02
9.203527064517785794e-02
1.013024939755228920e-01
1.056085158387635031e-01
9.502189184356665819e-02
7.126688436696881901e-02
3.464755500866140842e-02
5.376000248318227315e-02
4.981596379366724087e-02
4.369041165471770211e-02
6.003215015152970485e-02
8.078022398316700436e-02
9.194689009657365519e-02
6.948919246385924786e-02
2.019106979241739458e-02
3.340244332073961930e-02
2.200268787236678639e-02
1.911617353216208542e-02
1.388146085452462639e-02
1.006500454222006291e-02
8.479428784017675226e-04
-6.911097576084811525e-03
-1.508078608734872558e-03
-1.039190193223682966e-02
-2.424673822044721289e-02
-1.551439255619305527e-02
-3.374738424004748022e-02
-3.453884964866024004e-02
-4.592513882357259630e-02
-5.792288637077731839e-02
-1.293173099606489442e-02
-3.335733479132487606e-02
-3.877859717880787621e-02
-4.671430639101801369e-02
-7.356802218059889376e-02
-6.474359919882961834e-02
-3.831515867364489181e-02
-4.902957264063428910e-02
-1.695167375712949495e-02
-2.847329224736046618e-02
-2.244224606434341851e-02
-3.825536665293950700e-02
-7.303123079123415018e-02
-8.462702885216692728e-02
-6.527899949983366479e-02
-7.992249063747235149e-02
-2.769618703750137065e-02
-3.160913345258526547e-02
-3.419367556967094907e-02
-3.462173329454142773e-02
-3.075497214568295029e-02
-6.202326659624765592e-02
-6.611218332248165741e-02
-7.550573172057790938e-02
-1.600313337208795345e-02
-2.586392847650870186e-02
-4.944692060795109756e-02
-5.227181179473036621e-02
-3.266170898880235707e-02
-4.914511470276685529e-02
-4.818064813463017459e-02
-4.884145026024044878e-02
1.936557139410572670e-01
2.428009593697691981e-01
2.806631935393405497e-01
3.105460999577716596e-01
3.423253973316468524e-01
3.548696714638508998e-01
3.327364306954524453e-01
2.747457160730882864e-01
1.076593027054444374e-01
1.443682778074021900e-01
1.807687195811742698e-01
2.085892285543286817e-01
2.502486022931726395e-01
2.765072779849708784e-01
2.736617117702243029e-01
2.275288457982460044e-01
2.999214740816793026e-02
4.571166949882995295e-02
5.807303241054669746e-02
7.700662522497601914e-02
8.944145108712160674e-02
9.595064394413757580e-02
8.114111940315313354e-02
6.711869636102658909e-02
-4.500702845126058893e-02
-6.945776238276601955e-02
-8.159456849608574813e-02
-6.998010604143306557e-02
-8.639832085482768154e-02
-8.238237362824855914e-02
-9.585585438987874463e-02
-9.465768679418071208e-02
-8.135588434576368488e-02
-1.238122256501321267e-01
-1.430539885531371125e-01
-1.676882227810456705e-01
-2.070713615371859717e-01
-2.086088225301970522e-01
-1.788331416765909787e-01
-1.604410857775279142e-01
-6.242783573348694576e-02
-8.896811844275505365e-02
-1.003182852791166396e-01
-1.363469790042437790e-01
-1.938188554949169529e-01
-2.238959458053711993e-01
-2.079167912597773282e-01
-1.978007504805773531e-01
-2.880301363256738620e-02
-3.492259743641857456e-02
-4.451918177994784731e-02
-5.937543340891950766e-02
-8.419043031868042593e-02
-1.459938627602531958e-01
-1.620513317971283285e-01
-1.589330689280667730e-01
1.382274437879381195e-02
3.797849477279651408e-03
-1.771791430028225520e-02
-3.326324192860051487e-02
-3.814716123275162935e-02
-8.510611463476211447e-02
-9.870144402340393086e-02
-9.506954408323130268e-02
3.636316568936289600e-02
3.290080463723529108e-02
5.067522864620096351e-02
7.555913953220917689e-02
6.114380108138935815e-02
-2.131332591240698866e-03
-9.731312364237484913e-02
-1.817571725054241139e-01
1.824670321465999764e-02
-4.757457506273230462e-03
5.318518729844831650e-03
5.562068167498319948e-02
4.464099837625964962e-02
-2.151858223365357356e-02
-5.820032315964723812e-02
-9.707561285903178183e-02
2.038064168715601060e-02
1.934765605075489114e-02
-9.663082005056597423e-03
3.529543750848182504e-02
4.040778890700933573e-02
-3.095493090648446244e-02
-4.559811258750968294e-02
-3.750221836552954796e-02
-1.140233989305257725e-02
4.860805503508894287e-02
4.181286427035687397e-03
2.825473255616848048e-02
3.534768529757202626e-02
-3.111666313566141713e-03
1.977791318009064492e-02
5.110907948670793954e-02
-3.565996445937161252e-02
6.139308500301190324e-02
3.104337540097665965e-02
3.567705832712569219e-02
3.451010925078157321e-02
1.373794333630902996e-02
6.324712094919178462e-02
1.229419719417803591e-01
-1.985791706880277174e-02
4.753151123269115652e-02
2.438681752269239791e-02
2.101728478688296223e-02
2.364764380242907749e-02
2.347762217989672606e-02
3.529665238905056734e-02
8.896159199700796882e-02
-6.558310658018171035e-02
-4.340561276783742178e-02
3.145866795190106757e-02
5.364793482240543671e-02
2.157697071538198022e-02
4.335494075483775633e-02
1.627007466988452181e-02
3.646008432536337971e-03
-1.569347168334744025e-01
-1.247767352902506843e-01
9.030010522281028962e-02
1.616678773064943175e-01
7.837037718814078568e-02
7.680425666854269473e-02
1.813331223489503610e-02
-5.331887240771124303e-02
6.612859139413919396e-02
5.995613032527899455e-02
7.039790078516168503e-02
9.024800673711752541e-02
6.471148860246009327e-02
-7.454103438796638899e-03
-1.045028433716784638e-01
-1.877743670628130301e-01
4.462577483215840468e-02
1.946707180530539080e-02
2.170122687473174244e-02
6.684591577306166210e-02
4.423091904466753405e-02
-2.839705111573436955e-02
-6.581972192688974321e-02
-1.017589450941817492e-01
4.215754616677807459e-02
3.796651525223067314e-02
1.613424965577661902e-03
4.220627665748261786e-02
3.724400038629652188e-02
-4.047218480270077523e-02
-5.348000932367817650e-02
-4.125216319712415175e-02
2.521567908584558017e-03
6.104474655972844110e-02
1.184905036676403393e-02
3.208069900052178819e-02
3.186850865672146565e-02
-1.154165620621791857e-02
1.760674588971373675e-02
5.358270510650968432e-02
-3.007623506010640227e-02
6.471582998406376352e-02
3.163922602072757884e-02
3.555085861063025932e-02
3.183393421814067342e-02
1.032394212385998392e-02
6.869083691701598215e-02
1.337119479264627653e-01
-2.145656377733715786e-02
4.252451178124717901e-02
2.001625482335347983e-02
1.915220371344656183e-02
2.343060386793011096e-02
2.585738146375594904e-02
4.464330946178301368e-02
1.057405339855262971e-01
-7.117815520870046653e-02
-5.182622273961523529e-02
2.731803744910503082e-02
5.315662019690692991e-02
2.368992965917823476e-02
5.159333015110918047e-02
2.834668135132951960e-02
1.958246019381209777e-02
-1.636112200563834551e-01
-1.321914165480142511e-01
8.725438007326785650e-02
1.644357354401179694e-01
8.364713483968982954e-02
8.681790825225921271e-02
2.966544451749005690e-02
-3.913645829055246994e-02
1.132056486359782899e-01
1.073749073138115656e-01
1.107781694779692155e-01
1.233545512335618849e-01
8.767148647926065186e-02
8.975222217273606806e-03
-9.096062943321973904e-02
-1.718966867318093561e-01
9.061274080919388962e-02
6.591564130570196078e-02
6.249371578293121815e-02
1.007094915040414873e-01
6.885772224599276403e-02
-1.198088636293796229e-02
-5.351672782682732193e-02
-8.711605545611837698e-02
8.261493138407441372e-02
8.022676130773145897e-02
4.016426717278048092e-02
7.549496782132304740e-02
6.235994103716761133e-02
-2.399125198201421463e-02
-4.091180763164917189e-02
-2.466828071187576396e-02
3.866489115756884670e-02
9.728117906623086342e-02
4.684247310267596748e-02
6.241524723571695993e-02
5.843628355788923340e-02
8.163573354017281125e-03
3.466915642129672626e-02
7.455506804488323813e-02
-7.746998271865551504e-06
9.415665297443680248e-02
6.169318445248524185e-02
6.384931110628278006e-02
6.128973276465134873e-02
3.751440169654907120e-02
9.625260939507482294e-02
1.626399359566191583e-01
8.299026560670227405e-04
6.418682965298194709e-02
4.684414895367858267e-02
4.869130591341899045e-02
5.689111943272293775e-02
6.236822805404335091e-02
8.230508320109802822e-02
1.430611337078680767e-01
-5.177737864421574215e-02
-3.073384837419024587e-02
5.202343431445028560e-02
8.207224833581798495e-02
5.853517678679649033e-02
8.994313208493698308e-02
7.021231647804848652e-02
6.174998674813133442e-02
-1.408851208368464558e-01
-1.076823033358839943e-01
1.104608585803721205e-01
1.905121938230761314e-01
1.160112576601053519e-01
1.236285841847746675e-01
6.909036762637961460e-02
3.615011492693466326e-03
4.248180140642516395e-02
1.663239714571143266e-02
1.539622215812812647e-04
-1.042459806502051972e-01
-6.402938547639387690e-02
1.424340011937731965e-01
4.945282994907427426e-02
-8.883874690606179125e-02
1.877947369104987496e-02
-2.442701309588843003e-02
-9.499538161401342024e-03
-4.343580786527989623e-02
3.600140930455957011e-02
1.146737725002974356e-01
-4.322786569656916073e-02
-9.066736272066747149e-02
1.665659019479763525e-02
-4.529728444939228049e-02
-3.208460607079093724e-02
2.597217740668122943e-03
7.083279118077367986e-02
-1.266954123104363007e-04
-8.898272843296763102e-02
1.952363558975183169e-02
3.860237711671540145e-02
-2.782046649932458371e-03
-1.924999940746138782e-02
2.791722661237187181e-02
7.758125598981910342e-02
-6.380111468261629067e-03
-2.809357141257652277e-02
8.759485376482373242e-02
-7.283713065750521687e-02
-4.725481878764745992e-03
7.561351896678258910e-02
1.002623438886102031e-01
7.907259683205733469e-02
1.403542628081096144e-02
-1.183832529010997274e-02
1.705746941631692062e-03
-1.378134019951365308e-01
9.124412752053102926e-02
2.541617777104586695e-01
1.588175632684311611e-01
-2.193988668984486398e-02
-7.517694389901209695e-02
-2.630148218169953145e-02
-3.407216030407037716e-02
5.978677751887363084e-02
1.853383492651140829e-01
1.287303048931117133e-01
-1.369764193721935246e-02
-1.372236897393550870e-01
-1.172653281850930818e-01
3.750707330382267030e-02
7.962461322083330684e-02
8.093878271589771689e-02
-6.345067081086226690e-02
-2.705567463873544409e-01
-2.521096225919283729e-01
-1.395585567847303088e-01
-5.072387073493470067e-02
9.210217313745343304e-02
1.310570854711759492e-01
3.385926110921848309e-02
9.430967528671735031e-03
-2.696473900391627154e-03
-1.027218244900305610e-01
-6.072439393420855230e-02
1.477481862169039983e-01
5.019811531164032614e-02
-9.306703543723866823e-02
1.221971584868898272e-02
-3.157597144888774077e-02
-1.112959326573522562e-02
-3.969844327183515154e-02
4.378626733982302066e-02
1.225073957097075061e-01
-4.283431081049841882e-02
-9.443837175393912653e-02
1.139171163722848233e-02
-4.522255589766334405e-02
-2.744073905425520668e-02
1.248425025711669654e-02
7.881375992371345007e-02
4.560267929790858682e-03
-8.622759025844939362e-02
1.771273426570432741e-02
4.043698418727107585e-02
3.892557186671106138e-03
-5.576646176333651013e-03
4.119189260610779668e-02
8.458690973596702523e-02
-2.411041436276144170e-03
-2.732644992644851778e-02
8.138583765937447423e-02
-6.849751126311252880e-02
5.923684969039492119e-03
9.041871820599509113e-02
1.128184702807296658e-01
8.370766506761345704e-02
1.368642421671389942e-02
-2.082850623550180913e-02
-1.430359126288455879e-02
-1.361351379983562204e-01
1.043584885765128090e-01
2.704353919018789854e-01
1.701384840282608446e-01
-1.981579049283578586e-02
-8.103737417491824191e-02
-3.990403232208950685e-02
-5.440392231352825236e-02
6.351386235810360659e-02
1.971412313882058565e-01
1.390467979773072904e-01
-9.277907327603442805e-03
-1.375783122609852416e-01
-1.231782118951241095e-01
2.021490419015206305e-02
5.672839974819774561e-02
8.200383862752218256e-02
-6.208634644253629292e-02
-2.709225236726420238e-01
-2.510706245326779773e-01
-1.414723737509552548e-01
-5.777845323257566751e-02
7.310204022756792985e-02
1.053909093306986122e-01
5.374659452117616296e-03
-1.259753881504709419e-02
-1.586006082047994314e-02
-1.014812960718737000e-01
-5.725394142921375745e-02
1.415386481774970340e-01
4.511840709171771602e-02
-9.216321152182475884e-02
-1.105778158950146937e-02
-4.786893457231455179e-02
-2.104694804020527596e-02
-3.916538896753948146e-02
4.419353431134291632e-02
1.180111392078417726e-01
-4.451428131755457568e-02
-9.491510664769202410e-02
-3.055013621450021737e-03
-5.487778167221345899e-02
-2.870318556002561181e-02
1.611023279964315588e-02
8.212502959880672859e-02
7.069118779504189598e-03
-8.499233441119052879e-02
1.317723779567078063e-02
2.758341426656582898e-02
-2.128612058648637808e-03
-1.430270988899907903e-03
4.769139703192575713e-02
8.912642116619923227e-02
6.601741214514562309e-04
-2.885038745550226255e-02
7.068796933393693693e-02
-7.162579834457367955e-02
3.229985863928489832e-03
9.223570119984250693e-02
1.169548022847486796e-01
8.705170796894128038e-02
1.309247088140046665e-02
-2.715632423169062060e-02
-2.409713666845094207e-02
-1.360197631174697164e-01
1.009062095857468366e-01
2.651100977166576667e-01
1.708460466379029818e-01
-1.394115881760520440e-02
-7.697329880033952632e-02
-4.558220340790992281e-02
-6.457159661560264718e-02
5.848037548907531608e-02
1.927239146867823494e-01
1.401257872770732549e-01
-1.194047897797184199e-03
-1.238564887553177396e-01
-1.156924705248676966e-01
1.160251807663996264e-02
4.177551862596916299e-02
8.347127059428056939e-02
-5.176406715987982854e-02
-2.470944088918547443e-01
-2.289332589307492560e-01
-1.272217535189662241e-01
-5.552818079466366463e-02
6.031661940552655865e-02
8.694816709561110912e-02
2.007205386474262415e-02
-6.622572460041455198e-04
-3.650168453320964956e-02
-9.535060229472297477e-02
-2.143466143023374237e-01
-2.540839858136015317e-01
-5.527120991059579491e-02
2.002234099569585590e-01
-1.038464710985017025e-01
-1.373006348265423393e-01
-1.373015244761078280e-01
-8.670854024279564531e-02
6.695676061490846154e-02
2.983315809932921558e-01
3.363193529300170237e-01
2.159666390892587551e-01
-8.322645732802021190e-02
-4.102968172299503724e-02
4.160470839663096831e-02
1.152574503220551577e-01
2.267303413074672758e-01
2.880676688607745617e-01
6.116295342224584847e-02
-1.851827656386054732e-01
-1.223667106774916497e-02
4.542486766589595715e-02
1.064718837092641091e-01
1.122685357577510451e-01
3.734395160046539291e-02
-8.604265297255100919e-02
-1.782396574722237004e-01
-2.001414563695532445e-01
3.852655673617078752e-02
5.736799993622020838e-02
2.224356604991904740e-02
-1.555434575677213348e-02
-8.000348007506231929e-02
-1.211603916560119731e-01
-6.738741857023990145e-02
-8.175777105104730866e-03
6.091062379506594765e-02
4.496773118872089692e-02
-1.669997119593192095e-02
-5.962522118465572729e-02
-5.236624364871742682e-02
-1.868190937258234000e-02
-1.467430670151275394e-02
-4.209120054279878731e-02
2.122640896042342698e-02
-1.004934942884277982e-02
-2.761639636925557195e-02
-4.692987692443369857e-02
-3.360723373128091801e-02
-1.295505505181931624e-02
-2.304486407501096096e-02
-5.474069811884664516e-02
2.429758817034390842e-03
-4.184939811296933820e-02
-3.774306971667974048e-02
-3.211645422691751517e-02
-3.183349759213636304e-02
-3.732545074746666802e-02
-1.240460979563809234e-02
-2.341923235963947261e-03
2.688807410420081603e-02
1.022346906615815947e-02
-2.741347770402987466e-02
-9.109046750156894745e-02
-2.120374572477450037e-01
-2.563807634124142809e-01
-5.964864247007575782e-02
1.978350329739853031e-01
-9.236690143527924446e-02
-1.265324213975604351e-01
-1.310137612850091615e-01
-8.351300520403931449e-02
6.706818464144577441e-02
2.955392047754507034e-01
3.314521387952987785e-01
2.116731280327058817e-01
-7.250543572962697692e-02
-3.495750162002349282e-02
4.505035250247920592e-02
1.164693544707956496e-01
2.227886804728266279e-01
2.780993584350904269e-01
4.702942581260045191e-02
-1.915698331812996091e-01
-6.072302737536955028e-03
5.001501662677691751e-02
1.085594945373801190e-01
1.099219686998430395e-01
3.121663446430985450e-02
-9.483650503565534129e-02
-1.854491945777698436e-01
-2.016312979589590937e-01
3.912388345423256641e-02
5.946688514596837338e-02
2.404285618571056632e-02
-1.431716738005728469e-02
-8.070358209324762777e-02
-1.227798841646573352e-01
-6.732201641473616049e-02
-6.459512989805856788e-03
5.735810862477597194e-02
4.141225120234180712e-02
-1.870881279244513209e-02
-5.713067958698854476e-02
-4.913659202530872017e-02
-1.863773060558169062e-02
-1.502771176122677868e-02
-4.126075658101681365e-02
1.801771748168975312e-02
-1.433537384636151581e-02
-2.964947186469136728e-02
-4.244480031399551490e-02
-2.869249985943163675e-02
-9.460980354691785402e-03
-2.200503442335550661e-02
-5.167761543463696150e-02
-3.097245957026646939e-03
-4.555169417663070680e-02
-3.612277141857681007e-02
-2.565431098961259287e-02
-2.757962941222830144e-02
-3.572700826955565317e-02
-1.057101699295438617e-02
6.722445970969128303e-04
3.480415628939712014e-02
1.910397264781948934e-02
-2.117644888130780154e-02
-8.727507148054292063e-02
-2.023460145429587520e-01
-2.502884215109320576e-01
-6.814877954419992778e-02
1.775823061348263121e-01
-7.619457028184886682e-02
-1.096224837239294508e-01
-1.222260934951997918e-01
-8.207502257314705507e-02
5.876598638835058008e-02
2.737612957127263935e-01
3.060460546942936344e-01
1.860806867677146093e-01
-5.831740959827215465e-02
-2.882267362991347906e-02
3.966091236282617144e-02
1.038958110983443234e-01
2.019637504383542670e-01
2.534449233875634699e-01
3.136986424943341567e-02
-1.934378104784191810e-01
-1.505485399417400829e-03
4.680320918906683003e-02
9.990850210731425096e-02
9.881862644752449631e-02
2.312951536479589815e-02
-9.832222238139076698e-02
-1.836326769568784045e-01
-1.973196559862112898e-01
3.640427205758529211e-02
5.453877133111639103e-02
1.792834627864236391e-02
-1.896537732356632158e-02
-7.977045632031701250e-02
-1.199415534273085143e-01
-6.713086654208395843e-02
-1.139669826614922964e-02
4.984723511643408822e-02
3.354279481200233420e-02
-2.131000351926756395e-02
-5.627235384438784155e-02
-4.884851859870947832e-02
-2.037527202941799565e-02
-1.787062323312636411e-02
-4.137669984936109824e-02
1.134100089849881914e-02
-1.849894263528562705e-02
-3.389340925839541552e-02
-4.352308649819891517e-02
-2.912232700475824929e-02
-1.161281484669378188e-02
-2.265032313135413936e-02
-5.088291155767398627e-02
-6.429640393233512947e-03
-4.690691451563718667e-02
-4.234960029185054486e-02
-3.070756855869930663e-02
-2.959303521295546940e-02
-3.750166272467284762e-02
-1.072495307874306997e-02
4.357309565653465222e-06
8.248458008185931278e-03
2.184517807598718858e-02
2.766858703865622549e-02
1.024529238706047979e-01
5.968916163598263214e-02
-9.009038542328669241e-02
-7.460531669427462875e-02
-1.257518055861649338e-02
4.970974530239852425e-04
4.815556119280763568e-03
2.401233607704596944e-04
6.656510348152756829e-02
6.704483646625737647e-02
-4.074042213199401130e-02
-6.198294755396888817e-02
-3.365745120379502742e-02
-1.257378679825817309e-02
-9.957126696792276827e-03
-1.593682024007558179e-02
6.531467979542116692e-03
4.690093310575346730e-02
3.441726477184216954e-02
-3.093441633368572766e-02
-5.197684172028281535e-02
-5.189065342665057090e-02
-4.273073700143106834e-02
-3.408232979430107085e-02
-4.447717426355576181e-02
-7.836265007186262246e-03
3.493359524327227517e-02
-2.123572542574993921e-02
-4.112505303362400805e-02
-8.188860164240165107e-02
-7.199812189341835145e-02
-4.705581250261954562e-02
-4.423769982154840408e-02
-2.444997424756175861e-02
2.584313428013471775e-02
2.060998644725559915e-03
1.648065453888248114e-02
-7.411213406839650686e-02
-6.546597151996087771e-02
-3.573848867446671740e-02
-1.913211356366212312e-02
-2.160470901371428290e-02
4.577923583368288807e-03
-2.292040224589692379e-02
2.260800530794642056e-03
-2.463017405921861386e-02
-3.505226565615306156e-02
-2.469495378561714291e-02
-9.366982642730682304e-03
-3.242671722162582953e-02
-6.699873046603005596e-03
-3.902042447332215030e-02
-4.498916529274876036e-02
2.053325986255719049e-02
-2.349833270913306155e-02
-4.501818401397925107e-02
-3.596159234732566878e-02
-4.850657612730895074e-02
1.318413953654620427e-02
1.522499283124579932e-02
-2.698497065269203285e-02
5.544485418705482477e-02
7.093683524761998371e-02
7.593220110512510779e-02
1.427619298596037312e-01
7.527792581102880909e-02
-1.021062468667882639e-01
-9.298255047395007078e-02
-2.795615080493983953e-02
4.427122121950977096e-02
5.125299658816781512e-02
4.732484207703938767e-02
1.054666727650397096e-01
8.079057076518714187e-02
-5.445960781126230055e-02
-8.347265607694447087e-02
-5.126259260236484816e-02
2.336287871831792956e-02
2.773084112338801074e-02
2.279380155229539587e-02
3.970651248611190010e-02
5.802218097894878968e-02
2.162208347396563438e-02
-5.181808260213439932e-02
-6.894121907317080078e-02
-2.457418449372913982e-02
-1.393830704192259608e-02
-3.803505531451657849e-03
-1.789696591084777647e-02
2.441522804165009762e-04
2.404023890169142488e-02
-3.665328693142995420e-02
-5.157689630722336188e-02
-5.708292838137317415e-02
-4.686483023973499890e-02
-2.091872540312237141e-02
-2.088717825683454599e-02
-1.362406032644730182e-02
1.985968801486413804e-02
-5.464859888232785796e-03
1.455666199155094404e-02
-4.481879288940503192e-02
-3.602587047678791621e-02
-4.103745966267254366e-03
9.792598328812424785e-03
-4.663764914526866492e-03
6.708015609547382518e-03
-1.988440218723065006e-02
1.038185460628104212e-02
1.166896728113806306e-02
2.300106472186649268e-03
1.565102093597171493e-02
2.736103712990851922e-02
-8.510409295781154806e-03
6.736592664456119046e-03
-2.735989534060027234e-02
-3.186294406475673885e-02
6.244318909309806709e-02
2.029881085836408167e-02
-1.121545720648381948e-03
3.800335419849875523e-03
-1.886224185155171637e-02
3.502967339293960175e-02
3.308818710678802788e-02
-8.554584822895930710e-03
1.510757073161947406e-01
1.672258672064796670e-01
1.669400120969300461e-01
2.187770749987343610e-01
1.212750080946618514e-01
-8.705550040214950214e-02
-9.427706150210218849e-02
-3.243643295542424088e-02
1.393939815347431666e-01
1.470407098903060428e-01
1.387926024180600737e-01
1.787918407883374028e-01
1.219721233433813390e-01
-4.436240354123285878e-02
-8.951100200293635178e-02
-5.916494038422456109e-02
1.118510370876771298e-01
1.143427549595791154e-01
1.054538989888649664e-01
1.068350071028249665e-01
9.519613277612201663e-02
2.589941637136873587e-02
-6.017483625993081536e-02
-7.580093199380244506e-02
5.718767949974294662e-02
6.524206983145112992e-02
7.073115830678625149e-02
4.375329061829690697e-02
3.831818986590106862e-02
3.138625719851226292e-02
-4.083016701659507308e-02
-5.327505675135536106e-02
2.320082269859533378e-02
3.045216452568472523e-02
5.035673707617405875e-02
3.758168365343796807e-02
2.658598678089420242e-02
3.484421135624995308e-02
-2.128985403281746119e-04
2.072159536177098360e-02
3.952489044687579334e-02
4.519136074163545430e-02
7.068320146795850634e-02
7.194356950340174972e-02
4.134201568938007665e-02
3.193060863415431161e-02
-8.853504205250467768e-04
2.796119053519112441e-02
9.992242697864618661e-02
8.942457134531535401e-02
9.714830204688620907e-02
9.682519817971624310e-02
4.589031447991778756e-02
4.339433000417008968e-02
2.779886802500278978e-03
-2.143852017493450175e-03
1.528632161243690946e-01
1.115652161848306317e-01
8.451363145507011232e-02
7.859798129332196126e-02
4.218555652260420896e-02
7.928502886702609720e-02
6.996909549240602766e-02
2.987745620051909801e-02
-6.449463359423789066e-02
-4.788181555235325459e-02
-3.638631401300006230e-02
2.224944103395810335e-01
2.878168493055318078e-01
3.014113155206351105e-02
-1.032931364924136869e-01
-9.264207170691032833e-02
-2.331318428025997910e-02
5.658159574456912005e-03
8.571663072195900845e-02
2.567690623700040198e-01
3.841752330789906938e-02
-1.877900161391707068e-01
-7.818502661353378402e-02
1.487338949305219661e-03
-4.929541613588672017e-03
7.609402401952507222e-02
2.044733227440446166e-01
1.177489821917996060e-01
-2.346941210521280019e-01
-2.046997537793804334e-01
3.481767897310343585e-02
5.512034602645773246e-02
3.532873081747477106e-02
1.148937486196540819e-01
9.700481236610083990e-02
-1.167921927149391526e-01
-2.312835700100973335e-01
-2.097166152796137856e-02
9.766867940411608218e-02
2.532792909254440866e-02
9.967938327295318424e-02
3.366978360711889856e-02
-6.887135688708566350e-02
-1.582152116616080129e-01
-6.842530808041168144e-02
8.975413855338466862e-02
6.605797811641993256e-02
-4.731644699784934120e-03
7.394627699344742677e-02
-4.079940193598254744e-02
-7.984878359588282182e-02
-7.501001332899599749e-02
2.415842084040807289e-02
6.663561107491781932e-02
5.249548758496166631e-03
-5.971505843355028390e-03
7.278770058164185652e-03
-3.217320429223995137e-02
-2.021372950829648796e-02
-3.310005899952992575e-02
5.419151982784781163e-02
5.095950041806780045e-02
-1.660107079169551372e-02
-9.501505446132674573e-03
-6.722572767673762675e-03
-2.083776992083427419e-03
-1.967524931480307826e-02
-4.498016171556862980e-02
6.391325628424529559e-02
4.270085874994815345e-02
-3.948755522118647943e-02
-4.752471788304959976e-02
-5.508326414006121247e-02
-3.179152133478028303e-02
-2.124875582945029082e-02
2.370061211168501547e-01
2.959154722994477016e-01
2.801763913959873231e-02
-1.077797960585125114e-01
-9.568568659190576642e-02
-1.495803308473084986e-02
2.268842733982908560e-02
1.037933211883196594e-01
2.696737381131203426e-01
3.623838030251127357e-02
-1.955430788361344485e-01
-8.381995645720149990e-02
-2.843499884931645089e-03
-1.992186025695022455e-04
8.462621380805232518e-02
2.146745960961759514e-01
1.235437175549454619e-01
-2.395003894901080455e-01
-2.130700291208540709e-01
2.518021733753617736e-02
4.464719208459626276e-02
3.107351883314538391e-02
1.133855880215174500e-01
9.882572081429714939e-02
-1.205464187784342639e-01
-2.411085242064392731e-01
-3.473711749407179528e-02
8.333914912614998061e-02
1.010970641097616411e-02
9.131602118375098387e-02
2.518090717459122233e-02
-7.588999109597582837e-02
-1.676799187650152290e-01
-8.241117954916893362e-02
7.484047666577782476e-02
5.074640225820736816e-02
-1.778603021076465701e-02
6.339755088033978414e-02
-5.423550287427357508e-02
-8.670934852551502592e-02
-8.460698164359659046e-02
9.035523994013944238e-03
5.146368000875127524e-02
-6.346495957760037686e-03
-1.603840401635574231e-02
-1.867568186429746646e-03
-4.132496169463682062e-02
-2.331783222360067284e-02
-4.216029988803646905e-02
3.686059918553771103e-02
3.627240961987979878e-02
-2.514140789599740924e-02
-1.962081291512769027e-02
-1.727922578660953321e-02
-1.017793760881364508e-02
-2.331084247428417619e-02
-5.344571556539645663e-02
4.957749861357763771e-02
2.874745693750960576e-02
-4.997322507023679167e-02
-5.426925388636676811e-02
-4.203632113149909089e-02
-1.258735978537234984e-02
9.864951551169032565e-04
2.513130791357539029e-01
2.987717411325843120e-01
3.256035758409686620e-02
-1.022270164803298076e-01
-9.067474205524531095e-02
-9.562946233691088302e-04
4.209990933887451658e-02
1.243160420816135925e-01
2.811680568586490958e-01
4.910084848557078746e-02
-1.798400442723155079e-01
-7.991496748239991510e-02
-4.821064947851129955e-03
1.468905483330900166e-02
1.028138339454605366e-01
2.279168763152797927e-01
1.371867068300999248e-01
-2.181145636692904399e-01
-2.003896949308060782e-01
1.773253708784406149e-02
3.367097752310988651e-02
3.848539291846129334e-02
1.243680372942086859e-01
1.106848246658107410e-01
-1.026629236029223957e-01
-2.266135415790791474e-01
-3.972742533864922349e-02
6.694667961529694733e-02
-5.604595510890287083e-03
9.467793505976417057e-02
3.279558453263895640e-02
-6.314454532215188487e-02
-1.567703138775551619e-01
-8.223818857814316208e-02
5.712977868516384838e-02
2.917359090065640981e-02
-3.534552997511163086e-02
6.185548554604625160e-02
-4.991581482223289568e-02
-8.082308837520402189e-02
-8.545816151410100259e-02
-2.630114458662342718e-03
3.138916972774975778e-02
-2.349842380793561170e-02
-3.121783338767949306e-02
-4.292757765391126690e-03
-4.151329926723593827e-02
-2.547781149518373381e-02
-4.869147623162790178e-02
2.026186356286145338e-02
1.759220110612926685e-02
-3.581824126410466935e-02
-2.919405534507835825e-02
-1.985566242186410230e-02
-1.135800336419611790e-02
-2.550025185041187442e-02
-5.834652591246523856e-02
3.328281914263857971e-02
1.181798844587907821e-02
-5.826173199892685506e-02
-6.008206663330847852e-02
1.435006732290864950e-01
-6.948126026619558249e-02
-1.952643009309081024e-01
-4.602394255692743297e-02
1.489432679386945013e-01
1.076527290138335619e-01
-5.137963785366882197e-02
-6.782920906150022300e-02
1.887888899536108445e-01
6.335477737203090709e-02
-4.352514675493979190e-02
-7.762011094838357217e-02
-3.627396074109098117e-02
1.514508050880443261e-02
-2.554479535079259844e-02
-3.727690608873152761e-02
3.938036537037158460e-03
7.331547176506904295e-02
2.405685198251037438e-01
1.141093268781368797e-01
-1.381057161980563386e-01
-1.078166040626695882e-01
-1.945849482890360527e-02
-1.206260039337130226e-02
-2.679198126643572708e-02
3.252997709128715303e-02
1.859866908591288615e-01
1.680388614439425055e-01
-3.526631208348253443e-02
-5.685303848513821590e-02
4.828545178750813689e-03
-1.151235822959763115e-02
1.737407033833394954e-01
8.474257064726301025e-02
-2.996190718788719330e-04
5.764806397130802645e-02
6.284134367617807970e-02
2.871145371899496909e-02
1.157878364368278160e-03
-4.091757399806543460e-02
7.081568961105276505e-02
3.177009144746948538e-02
-1.873823889328151901e-02
6.564958794869048264e-02
1.386597581979497895e-01
8.589418909891045895e-02
2.136186655567679643e-02
-2.151836580455242579e-02
-1.726073308987829125e-01
-8.106355358300207370e-02
-2.590288264909759372e-02
-8.641708439933330765e-03
5.492542149568938742e-02
8.372005693798274806e-02
8.125667667364705471e-02
7.050129701321135312e-02
-1.544706897188688755e-01
-3.468904611564534862e-02
-1.450828194532507304e-02
-9.339242095724102632e-02
-8.435057382429651807e-02
-2.301692208547907390e-02
5.199752783305954668e-02
8.734287511550993532e-02
1.234324234487563926e-01
-8.957523741762134228e-02
-2.100192852659803211e-01
-5.767024377673803104e-02
1.361400784260377028e-01
9.173522419860530297e-02
-6.813054324995820865e-02
-8.143233672777965004e-02
1.666788393258278600e-01
4.200615075648073821e-02
-6.040672317357170806e-02
-8.902192241386942817e-02
-4.930501776747127363e-02
-1.669259855526718456e-03
-4.421649138119018718e-02
-5.289922902772931090e-02
-1.909944890002083714e-02
4.865744895375365836e-02
2.224094478013956266e-01
9.915855467146279800e-02
-1.518845074837165687e-01
-1.249275889146255758e-01
-3.997845655030356216e-02
-3.169058700012031965e-02
-4.849688170064225118e-02
7.552653725987354752e-03
1.670116930843671688e-01
1.527017496940039631e-01
-5.185512042341765271e-02
-7.978235295493363299e-02
-2.157814702247676936e-02
-3.569071148882234368e-02
1.573841437710808144e-01
6.742135271561480736e-02
-1.805501618299246505e-02
4.174001826107336111e-02
4.277659283375880028e-02
2.141602994595484359e-03
-2.855382432213168092e-02
-6.841484817760390413e-02
5.728542741108579028e-02
1.920752755213456925e-02
-2.909281258225093411e-02
5.308140972727875412e-02
1.168266294049183501e-01
5.774694309053139685e-02
-8.060602740687228610e-03
-4.790048768363224657e-02
-1.796863606585687723e-01
-8.667621524956337087e-02
-2.885301984239295112e-02
-1.355944570077152918e-02
3.983537339867316424e-02
6.004546585024492927e-02
5.543674281380478464e-02
4.815584025051411476e-02
-1.579164313954805887e-01
-3.674187628174078318e-02
-1.464939984411717071e-02
-9.240651860170051579e-02
-9.169979225741914375e-02
-3.876671976089941102e-02
3.294623856422228270e-02
6.950393527746351330e-02
1.030785136247386602e-01
-9.424203831402780396e-02
-2.061187745977927643e-01
-6.246098681712079770e-02
1.206445951604381145e-01
7.567014417549343397e-02
-7.348105606842988968e-02
-7.820100036583324532e-02
1.417220268061999966e-01
2.582558704562977481e-02
-6.744537034925224273e-02
-9.030596681518983371e-02
-4.979232912401317102e-02
-9.504958922751452488e-03
-4.926006150614128248e-02
-5.194698412325426951e-02
-3.610148297197395689e-02
3.050224388799187974e-02
2.002091691621452896e-01
8.638533373252053893e-02
-1.504151965664758672e-01
-1.280486325217020105e-01
-5.021209082096531051e-02
-3.777373377284142658e-02
-6.169125640498640539e-02
-8.725749372556540831e-03
1.435819573973824703e-01
1.302269031844434377e-01
-6.593496801815086628e-02
-9.251197277912655281e-02
-3.927743315405170244e-02
-5.099576234527331692e-02
1.362290457651033071e-01
4.601813143185093380e-02
-3.762420041919677799e-02
1.734919064018414919e-02
1.451632630745379460e-02
-2.455861221003492745e-02
-5.318419910259686301e-02
-8.729978485590531023e-02
4.727915522380871788e-02
4.733947682499968501e-03
-4.641624320523752428e-02
2.689314739799604503e-02
8.144207834925509815e-02
2.375767115526458001e-02
-3.670076019307141196e-02
-6.858994730101933279e-02
-1.704597164124200814e-01
-8.548967420929518002e-02
-3.677965287996896870e-02
-2.765423117028942279e-02
1.684004584381136593e-02
3.149782399658012516e-02
3.059772533437378830e-02
2.790938436054219221e-02
-1.480335248215333410e-01
-3.371329525110283720e-02
-1.652574766565591269e-02
-9.449346972460798133e-02
-9.752960819973310880e-02
-5.248175482961009441e-02
1.461941304928151934e-02
5.141725402117531402e-02
-3.207875229788699489e-02
-2.246688902701646923e-02
-2.275430668859674752e-02
-3.716809142774944730e-02
-1.135068610876083933e-01
-1.885903048173003527e-01
-2.834429259521148436e-01
-3.187053954986084348e-01
1.647003970108209744e-02
-8.284609756570691583e-03
8.516859414400428790e-03
5.598517908672861337e-02
9.291027150465508422e-02
1.799069225458156951e-01
2.507163238850273479e-01
2.399108444509727989e-01
6.458637168988469457e-02
5.749495905671451329e-02
4.250840772954579683e-02
3.053172861623836692e-02
1.646563710787819074e-02
3.502199052835579252e-02
6.877686733168693334e-02
1.160653429579228124e-01
1.473035548864947038e-02
4.040462993529002345e-02
5.198819418911873602e-02
4.891228300272068563e-02
4.931009477737820917e-02
1.347711139031460524e-02
-1.324443334037093793e-02
3.324283675580383401e-02
-2.555044023267263181e-02
-1.728443456952021007e-02
-7.258072599445994540e-03
5.237530777519577851e-02
1.649484730450598846e-01
2.367529480226468197e-01
2.782987723163055094e-01
2.650923060428846956e-01
-1.930417326613718954e-02
-3.261759635396237894e-02
-5.766211236082103425e-02
-9.150897472558838786e-02
-1.019664890993819684e-01
-8.710167784714173411e-02
-6.892739749284115813e-02
-7.871105757323908214e-02
3.278387004379022807e-02
2.068698884999366217e-02
3.078923207352259397e-03
-3.526579561526436979e-02
-7.784023951482921255e-02
-1.174079694590012685e-01
-1.689251121738769845e-01
-2.088551469359348212e-01
5.944525062562291268e-03
-9.725260173376919920e-03
-9.553275254819158790e-03
-7.387082776241254978e-03
1.556830440128800438e-02
3.460623408128353506e-02
2.540451487416166623e-02
-6.329379141729860915e-03
-3.770686303300036651e-02
-3.080285334320493826e-02
-3.254923461237409221e-02
-4.442340524491251996e-02
-1.195540081069017546e-01
-1.941371729312177663e-01
-2.897660685008160431e-01
-3.227575078395047981e-01
1.201196803461001585e-02
-1.659066164411420602e-02
-3.360302721487833360e-03
4.682242126945405924e-02
8.632707192278499253e-02
1.786538074794833952e-01
2.519624270520279263e-01
2.413913813050837798e-01
5.816698748016827653e-02
4.453187313902507577e-02
2.889795676621438603e-02
1.859867084243954638e-02
6.447087524248706729e-03
2.912467798602936392e-02
6.039576019935140316e-02
1.104110196480512784e-01
1.399510577216392599e-03
2.496122123720765154e-02
4.043338402531872905e-02
4.088803832146983841e-02
4.115862897727712300e-02
5.648644969834593250e-03
-2.429543627378033532e-02
2.493010659547634580e-02
-3.268482222030801021e-02
-2.547694689114012034e-02
-1.464537799059073206e-02
4.652370455170564550e-02
1.609344055254983141e-01
2.343216029753824037e-01
2.781474417452560188e-01
2.632716406256791486e-01
-1.749275219417740015e-02
-3.001093917777155132e-02
-5.585806735388416239e-02
-9.184924286775343616e-02
-1.037326703376362097e-01
-8.930005107540876785e-02
-7.205374728233397696e-02
-8.481492866010448273e-02
3.459823121940946988e-02
2.218053893134632956e-02
6.474237294273527295e-03
-3.263814502172576737e-02
-7.681956570933164141e-02
-1.164030347104720864e-01
-1.688142766372870140e-01
-2.115355452948407822e-01
6.510728017839239982e-03
-7.714177212219747864e-03
-7.559028712030467327e-03
-6.802982508999183033e-03
1.247650810609571628e-02
3.242365556062471593e-02
2.207801620331771575e-02
-8.769892727018105058e-03
-2.812957091788776190e-02
-1.825779514212228644e-02
-2.152415860491640673e-02
-3.132573851207210575e-02
-9.573908974070471922e-02
-1.659316441564411548e-01
-2.609452496209875849e-01
-2.971651101829484443e-01
1.461772424012430273e-02
-7.777419287465336083e-03
3.026169595048446709e-03
5.179963663244599448e-02
9.705580564314605918e-02
1.881224390366397214e-01
2.499671185550695340e-01
2.349629051458104190e-01
5.553416878066246704e-02
4.429978719209919785e-02
2.809046009929883417e-02
1.938030560405177433e-02
1.511960456627877390e-02
3.939276485144876938e-02
6.257449767878356384e-02
1.048580768908227989e-01
2.251294343207430396e-03
2.460347629963757776e-02
3.983082939167188058e-02
4.053703803700459823e-02
4.833215932333526088e-02
1.685612698878459492e-02
-1.642572841410736700e-02
2.425344393864536235e-02
-2.818669608177462940e-02
-1.604471628734482902e-02
-3.064073207925018839e-03
4.996906406796953332e-02
1.625304028115067412e-01
2.346567739140157094e-01
2.737701975146022981e-01
2.536739788922587335e-01
-1.618543086671114101e-02
-2.104199659483960497e-02
-3.783748729015091322e-02
-7.649090171886632761e-02
-8.417812976025802751e-02
-6.871315311441435203e-02
-5.968769233423754789e-02
-7.579352691316702806e-02
2.949767928457040084e-02
2.332149326690213104e-02
1.641793265864825019e-02
-2.042558885644416705e-02
-6.044493488315221680e-02
-9.947763350393065696e-02
-1.559009529447925591e-01
-1.986567283014994412e-01
9.071262056154199421e-05
-7.996629332495655898e-03
-6.138196202380670659e-03
-4.128027166021737415e-03
1.476963340958463780e-02
3.318320508341820324e-02
1.904649068571807186e-02
-1.493916567012255892e-02
8.039286563157913013e-02
1.110285501918024387e-01
-2.379623499508314310e-01
-2.984593161695929808e-01
1.205586617391338072e-01
1.344793549297268187e-01
3.641046234091589034e-02
4.725842594020406712e-02
5.131089844774280873e-02
1.173958455378658165e-02
-2.877052372625504839e-01
-1.123156326307465647e-01
2.403804595801903587e-01
7.868580148869019908e-02
-6.682467723963414485e-03
2.192293218366732355e-02
6.120950949571459659e-02
-8.420108809630832969e-02
-2.312713992384979600e-01
9.397497738947875601e-02
1.876794706316206318e-01
-1.528201099018628752e-02
6.614895166798204565e-03
2.194966246701894955e-02
4.761083416369892712e-02
-1.426687373088235122e-01
-1.262166774420001303e-01
1.779403994497073815e-01
7.862279512214791211e-02
-3.570100935291626448e-02
2.520338454720148086e-02
6.583280076668983176e-03
6.264863280245826400e-03
-1.910833775387548172e-01
-1.067853972477089165e-02
1.971424203093931071e-01
2.817889338846716468e-02
-2.478316316375900677e-02
1.235631996476528258e-02
-3.142873935709957021e-03
-2.223852986269787488e-02
-1.837768340698748282e-01
7.799553948669128711e-02
1.609252848932101465e-01
6.487937796032658237e-03
6.652705987397864069e-03
3.351451151994844745e-03
-1.669562052093386548e-03
-7.850190164310942575e-02
-1.212581740674440189e-01
1.553503369383686938e-01
9.335893944676461331e-02
-2.097636537383974070e-02
2.749415282749873360e-02
-4.122290824595216570e-03
-1.169503285239890250e-02
-9.371382962324874277e-02
3.948977514217177735e-04
2.235894449804615991e-01
5.787565357439111713e-02
-5.579938943890686703e-02
1.936978558527048533e-02
3.683770358286581233e-03
-3.502825071031410997e-02
9.564298363633350064e-02
1.244325016310770110e-01
-2.304884116994980747e-01
-2.952580141106710965e-01
1.211973140123923098e-01
1.346830940538127630e-01
3.328674384584734414e-02
4.108261737504033395e-02
6.534068408431538411e-02
2.256093153858325026e-02
-2.800605879433403778e-01
-1.082464079317100036e-01
2.464400310366614277e-01
7.952202919296966210e-02
-6.452016520381915164e-03
2.305121255142282555e-02
7.060677359845896062e-02
-7.690222838495287816e-02
-2.250105388161803832e-01
9.901247228034493197e-02
1.910454831196407577e-01
-1.059331766213442334e-02
1.191695040885187851e-02
2.611138496062844275e-02
5.401724393471410424e-02
-1.380243207726429278e-01
-1.226936859025455073e-01
1.829645491883102604e-01
8.346255344186384595e-02
-2.704065736717835983e-02
3.385466983361198889e-02
1.245308559170647637e-02
1.009789260056604895e-02
-1.890886722269267683e-01
-8.502212462441555846e-03
2.016435609070836299e-01
3.497329270181676747e-02
-1.618778674650334093e-02
1.687982877374176113e-02
-2.887294477208631437e-04
-1.600926127589141768e-02
-1.821812081424160346e-01
7.936709290163659891e-02
1.639885116351882111e-01
1.362874081707239615e-02
1.677336892716024819e-02
8.930506702925364998e-03
3.790852446649019356e-03
-7.111600576089947834e-02
-1.169787634467659848e-01
1.606467512376142937e-01
9.603067017801002192e-02
-1.445787724619354564e-02
3.688022193811064942e-02
1.467980829303711880e-03
-5.184896276663421809e-03
-8.852409397844053507e-02
7.057413074192421532e-03
2.302383957565604378e-01
6.122431228543005061e-02
-4.882543479697502159e-02
2.833445306568218441e-02
7.882566270010028797e-03
-2.963844910103450442e-02
9.890469606981515394e-02
1.283728823414705955e-01
-2.199791254646474292e-01
-2.929527807708621201e-01
1.042166723881272489e-01
1.131107202194368555e-01
1.119308081896777489e-02
1.601815974548231880e-02
7.220299710987898578e-02
3.085119108606221988e-02
-2.635928685758119339e-01
-1.098556725846499132e-01
2.268907113212909055e-01
6.099254587565860336e-02
-2.757999420450278627e-02
-5.940077754040470892e-05
7.547351019706617647e-02
-6.567525153318511111e-02
-2.088679856382940903e-01
9.308162174578622772e-02
1.765292919809268168e-01
-2.004107803154355286e-02
-4.070415358494338352e-03
7.768402752915202179e-03
5.557823077144641299e-02
-1.257608502129298478e-01
-1.128991586251389539e-01
1.721856303827021262e-01
7.648999044119177138e-02
-2.880973691645896326e-02
2.242077434900477048e-02
-6.770983412967306785e-04
1.487988254002503043e-02
-1.735014281870764785e-01
-5.625058978105623025e-03
1.866490160634819984e-01
2.708210551180173509e-02
-2.105804982957784621e-02
4.783049954498760567e-03
-1.431791858287555577e-02
-8.782032764102118763e-03
-1.673178147123412229e-01
7.302118281168468172e-02
1.470135633009243270e-01
6.565866117197957132e-03
1.025289969777714964e-02
-1.150570062237697699e-03
-7.059647014206948609e-03
-6.351970251993276084e-02
-1.047449362429748870e-01
1.519107179037627875e-01
8.328421072162199568e-02
-2.074312178504862311e-02
3.372105789043274710e-02
-1.067170391786762419e-04
-1.119975769734391641e-02
-8.395858929203750542e-02
1.140926439414030602e-02
2.204331820716075863e-01
4.996927826670574668e-02
-5.003482940196881529e-02
2.918126060651803771e-02
5.511374548393246919e-03
-3.395327764597420861e-02
-1.614544095555216219e-01
2.154173461904193565e-02
4.319684182064228301e-02
-6.580065091166244218e-02
1.394558136158754492e-02
1.040252589417946516e-01
3.129974536301712018e-02
-1.879841134548611639e-02
-1.010550460139064272e-01
3.680084801323380006e-02
1.802649054926509092e-02
-8.669118872542322385e-02
-1.343802566683788280e-02
5.027997064440944269e-02
1.737240468152970521e-02
3.235187982487769398e-02
-1.674501962519558962e-02
1.500827078643772981e-02
-4.391750616385460548e-02
-7.286426482658477088e-02
-7.097855499823136141e-03
-3.798396801110457809e-03
1.512678894953248254e-02
7.284070106883380746e-02
4.373630233105745696e-02
3.178226551872202071e-02
-4.480190968235781002e-02
-2.370192850853505492e-02
4.581892970867013082e-02
7.882354409567254513e-03
1.338238507410078465e-02
3.968011776490976833e-02
2.465428764237515913e-04
1.263042920522817678e-02
-3.378257760773702156e-02
5.781930675217241723e-03
7.219931286870311105e-02
4.662023346958953096e-02
1.433263201256447343e-02
-7.673281517885430399e-03
-1.966931543234970783e-04
-1.899431908710504102e-02
-3.893599210032159391e-02
2.361656402672719993e-02
8.289892243909230407e-02
9.360108021537213996e-02
7.075397983010750513e-02
3.937077347630911495e-02
1.126995577124814962e-01
-2.459549532080001003e-02
-6.321173505722234298e-02
4.181883511946208470e-02
6.918060187350552614e-02
7.482830581445164275e-02
8.806770983908937533e-02
8.311501642452770455e-02
1.855697363651985510e-01
-9.653034607951331211e-03
-6.716639933335777357e-02
5.037152660091757939e-02
5.910790249418441944e-02
4.041663136014430474e-02
4.761082082852332448e-02
6.313319680665739619e-02
-1.421438312398644321e-01
4.201714205714564970e-02
5.777500745751990713e-02
-5.990437836638633912e-02
1.464680217353649290e-02
1.035690210496763713e-01
2.684332009954597253e-02
-2.435449003965782858e-02
-8.030485456063278515e-02
5.768580768224325361e-02
3.189070511262710739e-02
-8.269861890316179687e-02
-1.535937567406835298e-02
4.540142515677510898e-02
9.796902503476182314e-03
2.684404633222055997e-02
4.137327710460766278e-03
3.460636892374972101e-02
-3.144135537899866301e-02
-6.875465226690705145e-02
-1.090385380252135820e-02
-1.216309880065124908e-02
5.415257863574218788e-03
6.738989376320608793e-02
6.222294168000898351e-02
4.696401551214272885e-02
-3.700501141570627234e-02
-2.269475080821730870e-02
4.036867377059302070e-02
-1.488056244365533855e-03
5.267725880705355877e-03
3.597400634770369504e-02
1.247007302161365003e-02
2.056371684890039367e-02
-3.118653316856918184e-02
3.319941040907594017e-03
6.578227629087302075e-02
4.049165647354854847e-02
1.145147457021809118e-02
-7.618971319328093038e-03
6.921000182609297544e-03
-1.547196094145662608e-02
-4.021023418731321797e-02
2.037425150638230709e-02
7.886512012827494311e-02
9.329505553580770549e-02
7.582899865920744720e-02
4.687615681076779534e-02
1.227275546922321908e-01
-2.059111327373941425e-02
-6.430817839532543267e-02
4.038436999132911237e-02
6.837148717186729285e-02
7.932674833534934800e-02
9.893258605186025512e-02
9.704072809950020639e-02
1.990416101998725984e-01
-2.220813354973036075e-03
-6.555749631072699257e-02
5.044263216413283346e-02
6.027590445402475350e-02
4.759952475830001722e-02
6.046150547226817468e-02
7.820439854057542606e-02
-9.156440184126128645e-02
8.381962417170339685e-02
9.366266509540446816e-02
-2.500369399974391657e-02
4.307307012218624526e-02
1.242735854213599112e-01
4.714460171843720682e-02
3.924013245643223711e-04
-3.149173385688629895e-02
1.000566059470891778e-01
6.767129828966730876e-02
-4.755672211630991575e-02
1.257001826323130185e-02
6.906153535433752488e-02
3.066926236790038299e-02
4.782727634260917904e-02
5.134944169757615223e-02
7.843366876175661417e-02
7.199619051462204274e-03
-3.417409821795694413e-02
1.790045679530425857e-02
1.280399948880198840e-02
2.851790056656011013e-02
9.014405467000784211e-02
1.081955869424333500e-01
9.092424552232018786e-02
2.948323435960826990e-03
1.297172980196212820e-02
7.089638639351630856e-02
2.750188581614033956e-02
3.284748206965212164e-02
6.626166456370044533e-02
6.049223018008171443e-02
6.477486601012792666e-02
9.955332570440298193e-03
4.156322647263484271e-02
1.024167121170125316e-01
7.783885431277537403e-02
5.073588729501875283e-02
3.566605445758146142e-02
5.723807395183541646e-02
3.031278799730501017e-02
2.238906056262071967e-03
6.278802188030500886e-02
1.234926376633734696e-01
1.402964857106748786e-01
1.262347002246158589e-01
1.017260516020981193e-01
1.746821244769222181e-01
2.889831695743165507e-02
-1.575498012266388775e-02
8.779896320881937222e-02
1.183215959917400806e-01
1.338468608208441823e-01
1.578303673431566412e-01
1.588205968191824524e-01
2.526889095746464586e-01
5.202977781796524342e-02
-1.232630944810324258e-02
1.001154155694195941e-01
1.122713736172344517e-01
1.064146886624973004e-01
1.243394785127098223e-01
1.432972806788314346e-01
8.009357404928726942e-02
4.694292951529895064e-02
3.387642587840761221e-02
6.340303010028512654e-02
-1.219798741537141129e-02
-5.232335782505064675e-02
4.905299082306566888e-02
7.843425270377332725e-02
5.196522823842784217e-02
7.246696577818967540e-03
1.103272924250086467e-02
6.376188450797251606e-02
5.361208706955494264e-03
-5.184538200599039109e-02
3.695961052493844379e-02
9.275226028389664534e-02
3.787657998639156615e-02
1.683183434023827196e-02
8.082538944211023826e-03
3.129632994674406976e-02
2.421770859413350033e-02
-4.594864407364378928e-03
4.191755230712981839e-02
8.833262262652810670e-02
1.916773485616547062e-02
1.731766806263313960e-02
1.391483066278758132e-02
7.327446385855053467e-04
8.189699222035669302e-03
1.699143625659084098e-02
2.882749045938175561e-02
5.215766291244883918e-02
-9.081391221751430876e-03
3.286017826302195521e-03
3.184016187647464163e-02
2.877389313433827145e-02
8.813169200550217963e-03
5.915741102939102089e-03
1.201414681090217165e-02
4.821902917571210118e-02
1.103581086715971042e-02
9.394485670802818836e-03
2.730001512916204603e-02
2.573429225304769627e-02
-1.971259755796700083e-02
-6.911883091633826137e-02
-4.086870667374406518e-02
8.844546984070750240e-02
4.922453834229459368e-02
4.145848949236837638e-02
2.773589639957119157e-02
-5.720976548064090651e-03
-6.798076905332771369e-02
-1.617515571353049797e-01
-1.039316196881912568e-01
1.388649984676349203e-01
6.045060115630322001e-02
6.286959208687468992e-02
4.044386633769969652e-02
-1.575996926149203850e-02
-1.084783013967758336e-01
-2.182533139456053206e-01
-1.508566147406819880e-01
1.155114808514790259e-01
1.074054610558756728e-01
7.439422073082199716e-02
6.077866771843414007e-02
8.455369850623165040e-02
1.452215698227961966e-03
-3.691473566310365245e-02
7.122915824651929184e-02
1.032820341247832063e-01
7.784113881422248526e-02
3.502825289253267554e-02
3.738127612093344876e-02
8.480097711003660443e-02
1.896778400304431969e-02
-3.730162334885006592e-02
5.807657014102470677e-02
1.164899942552546641e-01
6.444968745359801188e-02
4.500791356009422456e-02
3.572660959328160385e-02
5.240560307342297802e-02
3.687701701699186430e-02
7.433761115138255368e-03
6.014749175496952871e-02
1.106853430542577565e-01
4.885916857119538409e-02
4.891606743670832980e-02
4.493503410234530454e-02
2.513954470310026182e-02
2.340812137666415174e-02
2.984997827045852634e-02
4.601787319573482499e-02
7.378884485714803931e-02
2.286320244782527947e-02
3.764005789321790002e-02
6.636520716198726633e-02
5.740482799221893750e-02
2.816489255320199156e-02
2.215686186667849278e-02
3.010236972736732991e-02
6.935950051838774000e-02
4.593918778504452183e-02
4.674127850388422323e-02
6.596962302742391537e-02
5.776888692403926023e-02
5.896984317514682161e-03
-4.858222143356698275e-02
-2.070255529245661891e-02
1.118895347720373634e-01
8.824396025509553820e-02
8.157772535388808921e-02
6.905200983419972072e-02
3.102760431358193155e-02
-3.797719509060180215e-02
-1.366942759074002978e-01
-8.285739676580923530e-02
1.627912337734774839e-01
1.012098947321392883e-01
1.048533712019643488e-01
8.428814032323163341e-02
2.254823901371969669e-02
-7.880718336672366819e-02
-1.926163883778511388e-01
-1.289754113308377026e-01
1.377311107435009174e-01
1.035529630946769586e-01
7.260350223363226663e-02
5.610804674652968699e-02
7.487462655067242401e-02
-9.193816104450108773e-03
-4.101181845216804456e-02
7.362474662509188583e-02
1.120794407964017386e-01
7.203926735032684103e-02
3.244504213491008343e-02
3.050327686141064004e-02
7.021466504414621002e-02
2.681745041956128811e-03
-4.652381113618914155e-02
5.979165560242793998e-02
1.265687565137625925e-01
5.615027977594865688e-02
3.680118066219819489e-02
2.213068376325500602e-02
3.142424628959448324e-02
1.074594857023085208e-02
-1.183535013664142703e-02
5.616007487310410023e-02
1.166799501365032299e-01
3.841230026469628911e-02
3.560882069702023950e-02
2.580139287171364856e-02
-2.995502523347405056e-03
-1.038349063203774722e-02
2.904042424154752462e-03
3.740524592131133641e-02
7.748968802371411502e-02
1.315867756765500170e-02
2.133419885840221950e-02
4.264570817674535191e-02
2.448888247056140582e-02
-7.053118168171302986e-03
-5.190145123999984067e-03
2.001316588875550612e-02
6.838049457431526201e-02
3.663012724152008709e-02
2.951452026982738508e-02
4.089427064358872044e-02
2.592615927413523258e-02
-2.708659007224014856e-02
-7.349843694354110668e-02
-2.914023210133612207e-02
1.090598861818126153e-01
7.994309449927798628e-02
6.570052153039722398e-02
4.722737421415765940e-02
2.659064129133834314e-03
-6.747046290026871562e-02
-1.564937024311096880e-01
-8.926466524631723742e-02
1.557621529910754588e-01
9.468669319329978129e-02
9.244382412480713074e-02
6.616379949343378919e-02
-3.892090250441144128e-05
-1.011473168340547846e-01
-2.068634574759989075e-01
-1.348290320709955026e-01
1.289044915259770219e-01
-2.558956778016702183e-01
-2.415709531295675006e-01
-1.375976690582288164e-01
3.328617252794630749e-02
2.006514066096725113e-01
3.379727087642925842e-01
3.645109981684802603e-01
2.857930941556849347e-01
-2.564537373344154547e-01
-2.364659333257238816e-01
-1.275612347885499709e-01
5.220594206951756355e-02
2.235060155665271053e-01
3.388067033132542982e-01
3.545912351062956436e-01
2.765835140803594161e-01
-2.156971110603257136e-01
-2.027051794863703182e-01
-1.170040323925641140e-01
4.264102417232014386e-02
2.081918087667744555e-01
2.777144950497945075e-01
2.762112926375040467e-01
2.076862924285876322e-01
-1.528499639911919949e-01
-1.460105109353369568e-01
-8.342670680338554190e-02
3.381857023026350884e-02
1.448423989134058343e-01
1.882170189408062799e-01
1.695888783137295963e-01
1.098518978805252955e-01
-9.907826616070720960e-02
-8.352517236243804655e-02
-5.217521167183827857e-02
2.151664197249861243e-02
7.827453673211753893e-02
9.387380849111640058e-02
5.558048507879932709e-02
1.149842099568104854e-02
-3.807891043937974146e-02
-2.525468081841109394e-02
-8.534042184994396901e-03
2.408539661836130163e-02
5.227715734437196615e-02
3.318815380112911245e-02
-3.698228773013582243e-02
-7.091515896888654635e-02
-8.344042438484036706e-03
-1.842056424192741598e-03
1.580312128156884099e-02
5.385114037709699819e-02
2.255124201022544461e-02
-2.118224945923443889e-02
-8.573179277618536709e-02
-1.200345229084561344e-01
-2.394011775590296903e-02
-1.237144434617047303e-02
1.938466079462084282e-02
6.593694393321843095e-02
2.490182499547820630e-02
-2.477199036123976447e-02
-7.772300033125636998e-02
-1.074745903140434250e-01
4.321373122039671305e-02
3.090017018075822200e-02
8.504683803963143315e-04
-4.122359197773706185e-02
-1.018788181197875092e-01
-1.248956893795983292e-01
-1.144474630564746992e-01
-1.238078202735822531e-01
5.458805999062878861e-02
5.023846909303447683e-02
1.725593435769291750e-02
-2.817297933891140665e-02
-1.009744947080671168e-01
-1.417202746860988238e-01
-1.331647622402493958e-01
-1.266043321061900151e-01
6.092804133012420797e-02
4.851138772247193948e-02
9.175890308566048495e-03
-2.561543596049894664e-02
-8.083183946836995648e-02
-1.417264104938765201e-01
