-1.920252251269172206e-01
-1.370210851314905276e-01
-1.202661464396490576e-01
-2.551034116303689814e-01
-1.808405959144810948e-01
-3.165712921381276246e-01
-4.945874273744300664e-01
-4.167854496602765857e-01
-4.334235203742599629e-01
-4.029590525824210956e-01
-3.311359073384546048e-01
-2.514721085418695767e-01
-2.490396132823174402e-01
-1.081914528783798901e-01
1.964335209306935226e-01
-8.695789150716456972e-02
-1.084332091400012259e-03
-1.487928099735340813e-02
-8.014431940290020137e-03
-1.187366638834628785e-01
1.396588724991650737e-02
5.410696139641624908e-02
-2.138856050252277985e-01
-1.130451119258725767e-01
1.309187759600995149e-01
2.969362940239953508e-01
4.204885770218704799e-01
3.419629185783151226e-01
2.153421139234701631e-01
3.188471949544874340e-01
-9.889710080192463948e-02
-1.420078263299897059e-01
2.000986662174604122e-02
-9.248222313968730568e-02
5.557135512221861307e-02
1.567766081731414296e-01
1.689775197628236025e-01
1.768678724461990315e-01
3.475523428622462330e-01
3.947480191532951044e-01
8.065186304653612082e-01
1.258578906766752104e+00
1.095068736020218481e+00
5.030338080340043261e-01
3.260158100625283883e-01
-8.854563653915846488e-02
-8.016001538189961029e-02
9.648670157519353280e-03
-9.778670771543787610e-02
-6.270667422688978865e-02
1.842239031219316536e-01
1.786904885318643110e-01
5.475424740060429452e-01
4.743762895807764335e-01
6.833480667686349097e-01
1.003989234207815162e+00
1.019737690932768670e+00
9.428175031926429028e-01
4.817208192491337360e-01
4.151072198133101132e-01
-4.706237019161714497e-02
9.043653394191381034e-02
2.132239785363353526e-02
-1.260272105688755029e-01
1.289252180962533467e-01
1.331077981707773916e-01
1.138912470894963974e-01
-1.210240471598065908e-02
1.698841035736492200e-01
1.693542477865067342e-01
2.971472174208718009e-01
4.473219742972965318e-01
2.661617777484886482e-01
4.415509361221261475e-01
2.930141293274756698e-01
-2.680538939523136738e-02
6.183600105532761166e-04
9.517036546470342140e-02
-2.235231577246381274e-01
4.137673471401552561e-02
1.356235751249651733e-01
7.555075369267820820e-03
-8.623380394064357468e-02
8.685522713998895805e-02
-2.362887647510842626e-01
-2.402629294898973311e-01
-1.632438079579921764e-01
-7.939152836862017892e-02
2.516065617159825019e-01
-4.957488690627752381e-02
1.028600210141629029e-01
-8.301308490317861610e-02
-5.381257619787884611e-03
-1.097518625463327069e-02
1.311770925067707039e-01
1.503377659773106056e-01
5.996495964895107861e-02
-1.361698674699849398e-01
-8.266700105357885353e-02
-3.776147441951157036e-01
-5.717507194708759677e-01
-3.178579952630751215e-01
2.048933303701049036e-02
-7.522859644995753825e-02
4.429859436373232567e-02
-4.997557200070436301e-02
-3.237210982679891019e-02
2.548818651430431736e-02
-6.169167568884012520e-02
8.477420165170035382e-02
1.601931902750187639e-02
9.661534322095934046e-02
-2.410223057454312645e-01
-4.601535077871542895e-02
-1.239508782789564278e-01
-7.867448397441738350e-02
-4.615509675725057437e-02
-7.506452173871402955e-02
-6.015936419795460920e-03
1.041703754409930849e-01
-1.885185938640651301e-02
8.489572731994081412e-02
5.259018226856499584e-02
-1.583582008923935802e-01
-2.224217738030108971e-01
-1.081253393647099575e-01
8.228168215482667414e-02
6.263455394898100048e-02
2.068065516931311132e-01
-3.100642983027726562e-02
4.714157900875553392e-02
3.330008898258322858e-02
7.849587973475492808e-03
-4.824308423430308246e-02
-2.299248000173396977e-01
-7.854714447871179867e-03
2.787321762812151188e-02
-3.657993843350497432e-02
6.065104692077610826e-02
-5.447214020472017360e-02
5.209088596069275795e-02
-2.948909307028840104e-02
1.000390705550532888e-02
1.514981746739444968e-01
8.666567828235749449e-02
6.081764532557926844e-02
-9.233722176441297447e-02
-8.691654953123854888e-02
2.436738750166217715e-01
-1.430201328134065794e-02
-2.457728578191410024e-02
-5.898573110803903563e-02
-7.700669057091560910e-02
-6.124432950803461451e-02
-2.058793744443029039e-01
9.397128673687774048e-02
-1.247125719848813513e-01
2.153498521185607043e-02
1.121219076690547489e-01
1.341048827232148022e-01
-9.231875936063048751e-03
6.059302433289650430e-02
1.884644274776673539e-02
1.804485585571422935e-03
2.818038282986090604e-01
-4.879141236024765738e-02
-1.828648331207001140e-02
-2.308313365141221110e-02
-1.114442714439465854e-01
3.823524004652809061e-02
1.209449401551377506e-02
-5.999826005613724533e-03
-9.875402729264573520e-02
-2.117824372288322210e-01
-1.147805676200776004e-01
6.677908949059187249e-02
-1.209283513425095657e-01
-1.178267537934239301e-01
1.240443637446535796e-01
-1.644085560520247569e-02
-7.576465026694614857e-02
-7.767438594627197081e-03
-1.482855506437992868e-02
1.559259442402559370e-01
-1.094862344553346883e-02
-1.165077918007707686e-01
1.726628197499615880e-01
-1.912500050004109498e-01
7.670032236735596642e-02
-5.962533529773825919e-02
-1.356368874772848065e-01
1.078943814296090403e-01
6.241335085633461892e-03
5.844410258691130206e-02
1.309532866118963239e-02
-1.096144971690180131e-01
-9.008733656144561619e-02
-1.402738014060758015e-02
8.545935082690364615e-02
-5.254839492797038630e-02
2.319367561971165859e-04
1.003958160884260847e-01
3.428149283821790155e-02
7.782990167616471444e-02
-2.428930926547047051e-02
3.874309850456610083e-02
-1.297458777454948975e-01
-6.731616163371377526e-02
1.621179326388854647e-01
-1.110330649837212511e-02
-3.503838275512427547e-02
-3.101100309885956308e-01
-1.468311072670012429e-01
1.545665462028163462e-01
-7.179431722718480902e-02
1.366259418347471610e-01
-1.387157654280450625e-01
2.253781865381263363e-02
-1.145633911486519385e-01
-1.667337998032116242e-01
-1.712288770796678572e-02
-1.059397500756662780e-01
2.523993358064627671e-02
1.624937292675085188e-01
-3.671706125896535833e-02
-2.582878944441105440e-01
-1.671880033875525473e-01
4.951431291729144896e-02
-3.312499648789494350e-02
-1.874760573893002047e-01
7.484458307047486825e-02
1.101264203091346650e-01
2.494851541762742320e-02
1.317252325426321036e-01
-2.469423608291390973e-02
1.429145354892292497e-01
5.952807794173057415e-02
2.342945179553377125e-02
5.638686318568296441e-02
-7.042306577195581174e-02
-1.090898460181743551e-01
6.200927108401724924e-02
-4.261110516651141905e-02
-1.658258561865769420e-01
5.739315096507677759e-03
-4.024654035061178692e-02
-7.087898337655345118e-03
-8.548078392783439727e-02
6.087516381626199152e-02
1.048193098404031492e-02
-1.670723086116885081e-01
-6.802408000179088754e-02
-4.751376250102517379e-02
5.653533612030959415e-02
8.733317923479669287e-02
4.661126716019506344e-02
1.011230357029334753e-01
-7.439244229071753645e-02
-9.576090302937000087e-02
-1.092747813603903023e-01
-3.242338469091601491e-03
9.653526393420250318e-02
-1.373238939721911356e-01
1.732581838178728628e-01
8.575464484805059295e-02
-2.285172128987810192e-01
-2.298132720458764822e-01
-3.052455142904944019e-01
2.353165839560419081e-01
-1.344303247363115850e-01
-7.535067936097079866e-02
6.956727473561909181e-02
-2.016124390796385224e-02
-3.988786374267572904e-03
8.678051499646833450e-03
-5.249372506693528867e-02
-8.992422809190274424e-02
6.831301144238059730e-02
-6.892507048133487968e-02
-1.892737474111493845e-01
-3.923502001785304089e-02
5.908304927018562247e-02
1.894868503406839030e-02
8.739445337784193524e-02
-9.056509259770814668e-02
-6.661099370536339992e-02
-9.819967401686750808e-02
1.011729954262421127e-01
-1.433022453729989321e-01
8.657510435198745302e-02
-3.456586152118563959e-02
-1.982475743436736826e-01
-1.752091679916509964e-02
8.486140416784211660e-02
5.866480988444414124e-02
1.970451402130923846e-01
5.152254706211938790e-02
8.978101056918608158e-02
9.613972631220994713e-02
1.207617170941263501e-01
-5.117675049163873842e-03
-2.547238631677597662e-02
5.565356405840982124e-02
6.925217362588613479e-02
-2.268759704764103380e-01
-5.661793761369581651e-02
2.275173194284199341e-01
5.420250274066699958e-02
-1.750747613026192306e-01
-3.146122764136417838e-02
-2.950001388821302944e-02
1.081828897738874723e-01
-2.376429375115750656e-02
-1.422278832110296931e-01
6.324037524609692207e-02
1.543632161955063864e-01
1.040038634525338596e-01
7.956111873062750653e-03
-1.097972787743577983e-01
-1.462482938314987706e-02
-7.069461267070474564e-02
4.048010572992437328e-02
-1.917160568318913155e-02
-1.372138178907403028e-01
-1.496101351747993469e-01
-2.131593191092749846e-04
-1.962036638376145337e-01
-2.082971069833817468e-01
-5.804044940596514435e-02
-8.248791899248816839e-02
-1.269782230951871024e-02
3.568384004760553202e-02
-5.971715950029864856e-02
8.205575587337331223e-02
7.624387544245264658e-02
7.360964046986201437e-02
-1.207094246603455240e-01
-2.152098534816494213e-01
-3.033834267308291865e-01
-3.856624136630028565e-01
-4.360679283587219901e-01
-4.880014875088056758e-01
-2.196961127050804374e-01
1.638563762605907692e-01
1.314530060399752287e-01
8.143359160657953275e-03
2.115456487432764709e-01
4.041562675068086780e-02
1.308900706092969435e-01
-2.794441013939635149e-02
5.339344795822082573e-02
8.282703734405587326e-02
-9.224980899264134671e-02
-1.914644481684179556e-01
-3.037220088385199634e-01
-9.464691993948122495e-02
1.584563703435266091e-01
4.007017021025445769e-01
2.900764388474577626e-01
9.987226340925625667e-02
-1.463845003290741020e-03
2.052987206999144221e-01
2.428486892556991072e-01
9.935258275175706810e-02
1.739392623028627460e-01
2.680534035708082019e-01
1.566976442511376078e-01
2.761479750604982075e-01
1.443928247931867415e-01
-1.503586747456659711e-01
1.289238921163659568e-01
4.447533496278723852e-01
5.735449877279252817e-01
2.576612151140156848e-01
1.506772725380667588e-01
-1.572252986606648695e-01
1.106441032444424183e-01
-6.482429070123844894e-02
2.465145641338345461e-01
1.747454844137315833e-01
3.858598084835974662e-01
4.289734045639354010e-01
3.540763647662948377e-01
5.336612267076186189e-01
8.989249553188936037e-01
9.848485941627093121e-01
1.017488881162044612e+00
7.617521723367342013e-01
2.132456627951944683e-01
2.413168957152822536e-01
1.174411673524728139e-01
-2.429229659096346639e-01
-7.981113080960973438e-02
6.546459827846466684e-02
2.185063407942612335e-01
3.525202197599230924e-01
4.487971542648370726e-01
5.795335462282362737e-01
9.464419318771951639e-01
1.162866792338706157e+00
5.727896044218712124e-01
3.483450892846946534e-01
9.977704358143921204e-02
2.717779204732255760e-01
1.222173454108655133e-01
-1.773745384068097994e-02
-3.272728236324005252e-02
-9.634925579495443038e-02
1.676612068692321517e-02
1.847856528624623740e-01
2.644789652763687160e-01
3.060830412588892990e-01
2.523988474879835242e-01
5.383513841429877766e-01
2.649142318695147935e-01
2.830613141129941779e-01
1.014044671004392939e-01
1.318627596532327972e-01
3.735145793303108475e-01
9.453564741371764391e-02
-2.132314348255199277e-01
-1.017477476811114584e-01
-1.621320008188102957e-01
-2.412182552421482384e-01
-1.832474688521923412e-01
-1.039710911262696907e-01
2.065978989657702991e-01
6.200820824892033789e-02
1.211631008189751196e-01
-1.772822395327573464e-01
-1.348999764921795796e-01
-3.516338582721427741e-01
-9.142832718206447482e-03
9.469490128945567964e-02
7.046039349988958422e-02
-1.074376525141390593e-01
-9.241136562435998958e-02
-1.735241240651808348e-01
-1.065418469933375467e-01
-1.941989351311443623e-01
-1.174758322378565006e-01
-1.505212568966603492e-01
-1.928971952146072699e-01
-5.062703854407126780e-01
-2.868734640050123463e-01
-2.962563453509179934e-01
-9.043558254642979077e-02
-9.824683196393038664e-02
-8.664184075295773557e-02
2.627567288119002087e-01
-5.650436000839424884e-03
4.625913634070839137e-02
-1.411570498518415762e-01
-8.299920844231827022e-02
3.692785898579653558e-02
-8.615577694363839301e-02
-2.104339696459376907e-01
-3.281093420291167437e-03
4.560987413722725203e-02
-8.875929488621246699e-02
5.065362565206831674e-02
2.526344720490423246e-01
5.561309073189386887e-02
1.388337841703352338e-01
1.487376818864719341e-01
-1.097438460596771997e-01
4.546625103007791158e-02
-5.564725034455969728e-03
-1.267024419701412719e-01
8.878250046029020903e-02
-5.011367480051942547e-02
-1.972801468395932178e-01
-6.578917603299566652e-02
-3.669987401220650702e-02
1.201536976180278549e-01
6.313539021377262417e-02
2.016419908359987634e-01
-6.195300311675617372e-02
-1.816999533621939666e-01
4.146507122859371258e-02
-1.363586017470952427e-01
1.753612569556735057e-01
-1.179630243859845773e-01
-8.757391002856544648e-03
-1.407944651700517302e-01
-5.976931886440495917e-02
-8.208538553860875164e-03
-1.931744233670916189e-01
4.719346603989880290e-02
1.955132133516474524e-01
5.149968633569701471e-03
-7.470683955809541421e-02
2.419722737657336448e-02
-1.602146049810574541e-03
-1.320268252980920159e-03
-5.636050766548226371e-02
-6.579986038448899788e-02
-7.692918438160253891e-02
3.117361324471362022e-02
-1.166937259438072666e-01
1.921410273744695446e-02
-7.000386756962979906e-02
-2.551943253928583635e-02
1.014420158814306888e-01
7.625606758277632402e-02
7.386647588906268547e-02
3.905425745245080099e-02
3.490252067623163257e-02
-1.428637200240617799e-01
-1.069009020885372009e-02
-9.310661148896866648e-03
1.106655343027715677e-01
-1.962876343523725642e-02
5.074875172346352686e-02
5.307889601554481585e-02
-1.388645993185049221e-01
-3.957414394538185526e-02
1.581788139989847852e-01
1.442101451555245772e-01
1.532136966075959283e-01
5.933733668185735971e-02
-1.736644118252205216e-01
-9.708056964937854250e-02
-1.722357852241936105e-01
4.627794665608926661e-02
-1.164579189440700380e-01
-2.064286532619531364e-02
8.385087086158844738e-02
1.324872143222205756e-01
-4.247146989156429936e-02
-2.195676454230930386e-01
-2.050795735939939801e-01
-8.560346453568752623e-02
3.723763144797883479e-02
2.261155579071432165e-01
1.813823772983028798e-02
-8.880330847520673948e-03
-1.574000859785834941e-02
-7.974565484422642403e-02
7.792559833874525277e-02
-1.737753744998500605e-02
7.797005719492883236e-02
1.816008865470205014e-01
1.804516189686012906e-01
-2.092583209825213397e-01
-1.484474952831236205e-01
-7.311939644660574167e-02
1.594381213661790475e-01
2.630497022645491012e-01
1.300497629218305973e-01
2.964759290945277043e-02
-1.462020996419652330e-01
7.157213663819766460e-03
2.553638997977620284e-01
1.626829197775886415e-02
-1.319374021243220341e-01
-3.915461017283612677e-02
9.871658652189128913e-02
-5.699806453009598900e-02
-5.248115117398592933e-01
8.955011694971273155e-04
2.072208738381654258e-01
7.224418265278805817e-01
2.180833690109902911e-01
9.991438179635153682e-02
-1.973981243290553189e-01
-2.240520949136342033e-01
-2.717569894631069287e-03
1.123963413939599865e-01
-1.600549369220530260e-02
9.142532216009755311e-03
2.169651305405061875e-02
4.567463872982489848e-02
-3.652721484694025356e-01
-1.089065857888401323e-01
1.717016845265662839e-01
6.533613026456025485e-01
6.943760983906022144e-01
-1.761010070679650333e-02
-1.959270264198642864e-01
-2.481025145288584532e-01
-4.923002228207265692e-03
4.525550583184492770e-02
4.707470069536518614e-02
-1.598989578534026346e-01
-1.512576694488815265e-01
3.949138890588379386e-02
-1.536521935861452116e-02
-2.812521306363193752e-01
3.665625776424046717e-02
1.781335356670353531e-01
2.203628509042691253e+00
1.726228702355336042e-01
-8.292696140622514422e-02
-1.324405338863069159e-01
-4.067452574338573101e-02
-6.624793924433997061e-02
-1.845093931817286259e-01
-8.337064557097721706e-02
-4.004503624513344739e-02
-9.317252652630370058e-02
-2.474093078142736504e-02
-2.067884548852674531e-01
-9.250041460591600095e-02
1.673715596089514757e-01
7.913616594525374470e-01
1.295479318075177799e+00
1.736000345281540624e-01
-3.712933224689314859e-01
-3.337288561609768611e-01
-5.055979678093936586e-02
-1.865911197048965020e-01
-8.041794122660797517e-02
1.431993075598894660e-01
1.907631974242657014e-01
-2.281012642214051978e-01
-3.212774618037607111e-01
-3.586538231369619800e-01
2.752984645508259678e-02
2.949389050592891581e-01
8.230278409961591102e-01
6.193983543343580811e-01
2.998759245019850805e-01
-3.689560962935366506e-01
-2.897704535672430692e-01
1.755740062935071122e-01
-2.419621455138513955e-01
-5.136088156082657674e-02
-2.180770438615816688e-03
6.259404250834710304e-03
-2.065500138184751255e-01
-2.062458413460546147e-01
-9.203383940447645850e-02
1.240614694969295467e-01
3.769358186252371179e-01
4.714358498354443983e-01
4.316619710755232875e-01
2.120229715673519963e-02
-1.642439764165005700e-01
7.370984124023402528e-02
2.529907115358769887e-01
-2.545615310877435977e-01
9.067423272340716101e-02
-1.393832708847079216e-01
-2.423820572434982334e-01
-1.649935583444695486e-01
-1.351862525612381183e-01
6.670040562127691960e-03
2.951872221605608138e-01
2.138768959327024266e-01
2.262572576657671253e-01
3.079403922914710767e-01
-8.930729589164074222e-02
-1.167289013648424439e-01
1.464939796747226075e-01
-3.341320140180735476e-02
-1.224699868140790154e-01
-8.120704780614243501e-02
1.502788976358744588e-01
1.341157080290370862e-03
3.233450153091629864e-02
-5.799425976607262140e-02
1.477655687166199161e-01
2.165880745699942378e-01
3.767627345972354713e-02
3.313826566085295577e-01
1.836426511547252505e-01
-1.283073644638558497e-01
-7.344194942470672061e-02
1.899397980182164769e-01
-5.773369003771646607e-02
4.379765585469745648e-02
-1.284098137801314710e-01
-1.895248980696545918e-02
-2.141066559672799574e-01
-2.463782494527167952e-02
-2.364310537798283013e-02
-7.296203626221080263e-02
-1.778146429052865352e-01
-2.873154719646047184e-01
-1.133842215743219722e-01
2.054863847588440234e-02
1.570954714647115058e-01
2.180148660501339541e-02
1.219613415357502506e-01
-6.598483689838587074e-02
-4.541078828587925137e-02
3.070379487969677676e-02
-6.629546864932432670e-02
3.047765630894744837e-01
1.046938319103486864e-01
-3.993167495853290659e-04
-1.440972461323032638e-01
-4.327970039258532964e-01
-2.622383275613942577e-01
1.337284854398330392e-01
1.946088035786057990e-01
1.811325105070560326e-01
1.298318025954918742e-01
-6.772955918421087740e-02
-9.828307103870818906e-02
8.131160365310349802e-02
-1.022368037876853902e-01
-2.446695020364042794e-01
-5.542767612269769439e-02
1.252818900779665845e-01
-5.935373382395193326e-02
-3.140109829773834460e-01
-5.069990795050088872e-01
1.726437157414116019e-01
4.586699824788405544e-01
2.103764159792928523e-01
4.482695718598116441e-01
4.795520908369409196e-02
-4.798775271886807255e-03
9.137913499928849992e-02
1.126917250082665745e-01
3.753828506372643842e-02
4.739084379424572668e-02
6.687524574550322842e-02
1.714844816829243571e-02
-1.825984223608408119e-01
-4.840706978150592921e-01
-1.052538745682920183e-02
-6.223315578184340779e-03
4.958473499784374905e-01
1.345902937222061280e-01
1.222131627218110998e-03
-3.491218349637754126e-01
-4.407480888561757931e-02
1.222820275281574359e-01
-2.016515816030808872e-02
2.213275695818608599e-02
2.755123185091410548e-02
-9.240769479404505049e-02
-1.074483507936999788e-01
-1.977646840357719371e-01
-1.793642037484557278e-02
7.555844380198004084e-02
5.102540679964900905e-01
4.989471240834862376e-01
5.502373143249357501e-02
-8.423631784555425661e-02
-1.906238953999614960e-01
6.119685264799858138e-02
-1.077184410272948867e-01
-3.062725406213145235e-02
1.371015506936398287e-01
-6.311531630689926065e-02
6.420951160487717302e-02
-5.575017231625448849e-02
-6.798670652556380867e-02
3.241087707652748895e-01
4.766174176217247704e-01
1.619499099036299850e+00
1.372350063973922230e-01
1.010336821409646840e-01
-1.529475377573973061e-01
-8.164760513126206876e-02
-1.335251698572239611e-02
6.373574068527954051e-02
3.633991831817059981e-02
1.535728151664816910e-01
-4.025765203085621829e-02
4.841132947917298202e-03
2.874983464874001152e-02
2.541121489204710149e-01
3.377880500068849989e-01
1.739037373227690697e+00
8.327724655711669088e-01
1.852826364696542605e-01
-1.184857715887027013e-01
-1.618641311671679406e-01
6.641574639141636927e-02
-3.288754287381845387e-02
-6.596328932272475798e-02
-1.813732075850452152e-02
3.599285562523349413e-02
1.113085784114013765e-02
2.788068955225210532e-02
1.477712657052727696e-01
3.250078543610274151e-01
6.208827715634094302e-01
8.011322838632668475e-01
1.709868294927932297e-01
3.412171101032929893e-02
-1.715061239248569236e-01
-1.285293251645115986e-01
-7.125816834687535850e-02
-1.273967992417101847e-01
9.899347383332801620e-02
1.017729252143683392e-02
-4.242232073300634954e-02
7.437537934542025331e-02
-6.400911732477873595e-02
2.469458910880658609e-01
1.767237002434889348e-01
2.326751598340700278e-01
3.057965123549060693e-01
4.111845775706531037e-02
-3.083813630054567101e-01
-1.632648586013220326e-01
-3.314424509585234269e-02
-1.125444662393454837e-01
-1.220802376454667298e-01
3.301347078019455095e-02
5.653662859955981695e-02
-7.359352324362452256e-03
-7.014885187519681597e-02
-2.694207072685330176e-02
1.451713223059146185e-01
1.931830152106951692e-01
2.194688068912036827e-01
1.175846073999584490e-01
-2.439994270482235758e-02
-1.499400405367267153e-01
1.274140499947785206e-03
1.115468768860525955e-01
4.414894973375983744e-02
-9.118918263453508477e-02
-1.285055153735191191e-01
-2.337271257139530989e-02
-2.893979825894538171e-02
1.264350452061363816e-01
1.996692655247804191e-02
-1.048423686005858953e-02
2.345769124118932958e-01
9.051029262549328824e-02
1.448793109044611283e-01
-8.150311659858648639e-02
-1.633016114845645128e-02
3.694510079288781945e-02
9.815783317533165186e-02
-2.165033293530425618e-01
7.696545236642621246e-02
-8.027238285812045293e-02
-8.925117969069382151e-02
-8.035682278275495249e-02
-6.473167128968415618e-02
2.259735573992168595e-02
-9.036718782932351424e-02
1.466482718826497833e-01
1.216811674475692939e-01
-1.515554562778522740e-01
-9.334748735347740689e-02
9.523165705450435670e-02
1.849771968116487031e-01
1.165868717294345214e-02
8.706763296859680590e-02
6.346051267394851869e-02
-3.634252903197496276e-02
-1.232484372822477969e-01
4.335736883604052183e-02
5.862324910027210192e-03
1.120587311570339639e-01
1.386953415615111429e-01
1.722624533430159310e-01
1.615321868241096082e-01
1.435186611588826731e-02
-2.549944005511454170e-01
1.663119624583300760e-01
4.946051903753303364e-02
-1.319876786418935910e-01
-4.688604123215581176e-02
1.006873412213495599e-02
-2.205647431173939771e-02
-7.384526222617444902e-02
1.855944583552836605e-02
-1.464119188787721959e-01
-1.231611400958161906e-01
4.579274521055114178e-02
1.740317882394279425e-01
-1.471651948895144890e-01
5.003664777659184298e-02
7.466296084238496257e-03
-1.081110658065360074e-02
-9.611002174254615338e-02
2.017705453916725233e-02
1.161102469199861570e-01
5.338854807588373080e-02
-6.084675924740964859e-02
-3.173798873487773675e-02
3.474493631475016747e-02
7.347827008667623394e-02
-2.507213111554355920e-03
1.143479833001030677e-02
-7.679659996709233515e-03
-7.548658330570533204e-02
4.834790944652988913e-03
-1.894440913293850628e-02
-5.876251980678011411e-02
7.882032674168301667e-02
-1.418136786365030433e-02
7.692750864943197729e-03
-5.974708534693798367e-02
5.760208637704127693e-02
3.415470827573335172e-02
-2.234907405109084685e-02
2.547803607831551978e-02
-1.853708344176658862e-01
1.666673929915961638e-01
3.219165808369950366e-01
3.154440277724732677e-01
3.364149361360322388e-01
2.318104271884011969e-01
-1.559003264942274147e-02
-1.646608407949899933e-01
-3.671843212059503481e-01
-3.804677601592472702e-01
-1.951836805833734589e-01
-1.760587649768113327e-01
8.744729829871327603e-03
1.072617650257130795e-01
2.348659132269937944e-01
-5.030643733902624010e-02
2.311868665775987652e-01
1.234246969234015917e-01
3.794116349619400808e-01
2.990492930721257436e-01
4.093388978442981108e-01
1.027873138093121641e-01
-1.207396306026988914e-01
-1.022477738834962901e-01
-1.985560414032272181e-01
-1.677916806206888878e-01
-7.141750185175368970e-02
-1.651155298019367501e-02
-5.975948175858990588e-03
8.183010743069711601e-02
-4.963287464956728928e-02
2.082054048605762875e-01
3.476233529904535491e-01
1.420997329354674876e-01
2.476869958952711004e-01
2.598424670268111858e-01
-8.496125432328369143e-02
-3.595711086218082442e-01
-4.255995313486058557e-02
-7.659064414565827650e-02
-1.639627094810141017e-01
-1.403940434531875669e-01
-1.616753969136930091e-01
-2.981198020974214560e-02
8.163158514637652852e-02
-1.309515866985118404e-01
-1.340144184079967715e-01
-2.524733547709874862e-02
3.109107956062791001e-01
3.327931692071829928e-01
2.072020074741209028e-01
2.771004706557192616e-03
-4.489397133941297469e-02
1.160915258767952624e-01
1.402569642263963023e-01
1.181514716405334398e-01
-5.776047989240429455e-03
-8.041300958025543455e-02
7.371048450574005373e-02
-6.432536923911253909e-03
-3.423645804679456006e-01
-2.947950751611399522e-01
-1.784783987027117047e-01
2.087540913809479357e-02
1.497930346558407344e-01
-1.623862221921296700e-01
1.320312002668488915e-01
1.673377389694039041e-01
2.137061923077704650e-01
5.754085138895594087e-02
6.759995598966529740e-02
-6.832182915172717308e-02
-2.683019509753065135e-02
-1.399216416355565928e-01
-2.686836373208442152e-01
-5.046521357808807506e-01
-4.369839746448372364e-01
-6.350668219833873751e-01
-4.172349609253661606e-01
-1.131099498296024020e-01
-2.327383307818053915e-01
-1.614976337658641514e-01
1.236433172638017053e-01
-3.834394924210056399e-02
-5.794475761144096682e-02
-1.794972882781285528e-01
-7.846961792016439452e-02
5.362583745380261613e-03
-8.444647468283150715e-02
-4.174317661913258815e-01
-6.235366593923048484e-01
-6.374072977357393421e-01
-7.818594233054569909e-01
-5.311514239109520474e-01
-3.818246772322097388e-02
1.720856796605706729e-01
1.606331385996032368e-01
5.780679038628008803e-02
-1.548060084265071024e-01
-1.325747829472707640e-01
-2.133237876187061288e-01
-1.315182667379778125e-01
-8.497713425322135639e-02
-1.257815962432818346e-01
-3.928400061479799255e-01
-5.657641109352139486e-01
-3.972261772436012639e-01
-2.834801202364450878e-01
2.680240465483981760e-01
1.404663238585083518e-01
1.846469826309968532e-01
1.639772642319899665e-01
-1.807072873012005310e-01
2.174074965855510300e-02
8.804664800901547406e-02
-1.590832725940491132e-01
-2.215183766068474502e-01
-2.705633326869140154e-01
-2.892099255778893818e-01
-3.888409806018864878e-01
-5.034983757506407143e-01
-8.768318696457125250e-02
2.574485355652553209e-01
4.165113086402120190e-01
5.782490431973843492e-01
4.745073578268722003e-01
7.007850240194797575e-02
-3.140308006997530321e-02
6.799394066414779503e-02
1.420951671416520803e-02
-1.660177408423234302e-01
-2.268814528361599303e-01
-2.054031328608929285e-01
-3.606253985676248774e-01
-4.278324616954338189e-01
-5.611984747454212830e-01
2.272174320200233688e-01
5.455943848685594899e-01
1.015571680986800285e+00
6.605553844526110829e-01
3.975413443863809460e-01
6.303781081478428139e-02
9.783354293645374344e-02
-1.059507241413763373e-01
-4.946251922659127692e-02
-1.168178266342906474e-01
-1.928078586017499263e-01
-2.176657715531157555e-01
-3.982710928936568640e-01
-4.868584592610709083e-01
-5.606522040181518562e-01
1.266266575035852882e-01
5.755071162549630914e-01
6.536166476996092545e-01
3.766985182684554623e-01
-1.094918711273711459e-01
-4.026389206638298912e-01
-1.223755908875135967e-01
-1.691613273279904406e-01
-1.677029507847057066e-01
-5.896163691854672956e-02
-1.386487022602652386e-01
-2.358412717041831752e-01
-4.208468109657036438e-01
-4.634481996420725114e-01
-5.343251216125813885e-01
5.848909265266244439e-02
9.952514714920858430e-02
4.984014110111692486e-02
-3.218869538598557178e-01
-7.182964150596410358e-01
-2.790153240325726758e-01
-2.173557493859705481e-02
-9.593167966617542619e-02
-8.065330612330395832e-02
-3.348204426219733142e-03
-9.805924557626649607e-02
-3.490219470505255828e-01
-4.678866962261267748e-01
-4.973581944469674943e-01
-5.540218690348915898e-01
6.674040191802868560e-02
-1.500009467610148584e-01
-2.924989926954356667e-01
-4.735883577913341247e-01
-4.257942902708370947e-01
-1.712992240085469686e-01
5.244770153346082348e-02
-5.047924199303546050e-02
-3.762309590004777465e-02
-2.710767104764853254e-03
-1.590400523313716952e-01
-3.867467370658068115e-01
-4.614955733720886855e-01
-4.973225226096493756e-01
-5.109015421572898896e-01
-1.086772701255121487e-01
-1.914996770743311039e-01
-2.721676764521910874e-01
-1.905706763876379439e-01
-2.586280695310866351e-02
2.542126638057554469e-02
6.030422173896569232e-02
2.615664863722612019e-02
1.097474210345355389e-02
-2.314380649318870387e-01
-4.030199734592420646e-01
-4.785049564038900693e-01
-4.769507727987737367e-01
-4.941203255018848384e-01
-5.397132964692497037e-01
9.111195622580724185e-02
1.078366041948745080e-01
2.553337898175535650e-02
2.543676792931202635e-01
2.879471188836494333e-01
2.942536367555247459e-02
-1.159490374982522359e-01
-1.137801452861481877e-01
-2.998792507638559646e-01
-4.933367002813247026e-01
-5.423728886712695374e-01
-5.582439747252023743e-01
-5.203596690079017595e-01
-5.597371008400456871e-01
-6.658744877712908794e-01
7.086147479837467955e-02
-7.353929548290431654e-03
2.233013597049675596e-03
5.646130542876145325e-02
-3.313910983820408246e-02
-8.342132648500878364e-03
1.795419416401173793e-02
6.364691012310647045e-02
-8.365253919106377389e-02
6.455994409714542297e-03
3.825839351720624476e-02
4.770146226950372839e-03
-5.283604927218511077e-02
-1.107705728483472513e-01
1.018632239137649276e-01
1.698416280447685445e-01
7.325158064635003963e-02
3.926215247896515381e-02
-5.666918588676991136e-02
8.462531091633120062e-02
-5.123617065420658229e-02
7.611739998823577324e-02
-3.145686290826246040e-02
-2.291534126774220914e-01
-8.359497858896938749e-02
9.051961901178876002e-02
7.129330018157439657e-03
-6.617041580576579762e-02
-1.357314737879765365e-01
8.790780773931700098e-02
-2.197088453201317959e-02
5.712156728879753259e-02
4.585785478528959375e-02
-1.309292266191760049e-02
-1.656687741475274533e-01
-1.256997142105117371e-01
-4.565268656385331435e-03
6.263072371557912299e-02
-1.805784442321775249e-02
1.601790660019283552e-01
4.485455067065713397e-02
1.482279235766843506e-01
1.118273414228250634e-01
-3.678715700994841103e-02
1.100574219030867745e-02
1.569681443261092824e-01
-3.655948700755784486e-02
6.970303436928280971e-02
1.057061862516598116e-01
-5.046212137929094455e-02
7.704734711141982516e-03
1.287462884042666345e-01
3.435303090173699031e-03
-1.646770064400009947e-01
7.140225690368366684e-02
3.749413866312828383e-03
4.330011385330501117e-02
-1.663749199784949895e-01
-3.585143051315319712e-02
6.041994049964471286e-02
6.307365226013234016e-02
1.713033814802457366e-02
-1.087966969770016445e-01
-1.083904015275340277e-01
-1.393085534904880129e-01
-6.326493682871903168e-02
1.393507341651170628e-01
9.795631416104949932e-03
2.794444175749446480e-01
3.134340237146181901e-02
8.645447358155566864e-02
-1.745640132548869836e-02
3.972576985466259869e-02
-3.500565176525072958e-02
5.673797747467301117e-02
-5.807341175650263670e-02
-1.257264254904027698e-02
-3.438667730643923254e-02
-3.050551730411837567e-02
-1.054849111304822923e-01
-2.024110614981018408e-01
-1.220421101990191298e-01
-3.238195682851592247e-03
2.192521079201580070e-01
3.007357813365231156e-02
-1.864148482244739821e-02
-1.610235829971073837e-06
7.774618211186790084e-02
-5.314111873240645427e-03
-9.111786603661768680e-02
1.894073664473765531e-02
5.079344601052339370e-02
-9.453511134399793236e-02
-1.421420903775882649e-01
-1.910216471246979353e-01
-1.522787306306848665e-01
-1.269269853826056338e-01
2.216977348203292078e-02
1.582322401158806902e-01
-2.418046441648988992e-02
-4.514331057894366284e-03
1.102466585384004501e-02
-1.036448676251164802e-03
-1.091358074939384470e-02
-8.381787471235167819e-02
1.148759209416506250e-01
-4.965063732909819755e-02
-1.916645238181221012e-01
-3.088421764201923492e-01
-4.324386449484639017e-01
-2.038376562860778618e-01
-1.957953646613340426e-02
2.740384855031446562e-02
9.396938381572274290e-02
7.361115553351182950e-02
-9.048892323630072787e-02
1.074825141994519180e-02
3.899608784385250049e-02
4.523938503570597985e-02
2.096106559652629597e-01
2.264383785077258016e-01
5.209655623784464201e-02
-1.654057875764358698e-02
-9.850365685093821766e-02
-2.936548561078451414e-01
1.684808115383381877e-01
1.825030999622471728e-01
-1.879631698363217265e-02
1.335278541513247597e-01
-6.728061537774678025e-02
3.916773575036308630e-03
6.016561042258772307e-02
-9.338600869061898513e-02
-1.018988965000950514e-01
-1.331696835352411679e-01
1.037810426502139699e-01
3.691572310199390805e-01
2.027536258783772527e-01
1.379305090583625160e-01
1.885037063652405531e-01
1.224159658331299555e-01
2.421311950498025722e-01
2.130305330443094114e-01
1.261466382033543387e-01
4.388966849353958394e-02
-8.427002019068911831e-02
-7.629863064662821548e-02
4.591843910766786607e-02
-1.438738461422544856e-01
-8.323209696385087952e-02
2.358768478124355361e-01
7.186548389935181191e-01
5.254782384082140601e-01
7.663316782428430951e-01
4.494727887642906428e-01
3.980284149856233578e-01
1.188977831799146873e-01
2.338307312998046672e-01
1.331809500588908013e-01
6.037342646042853644e-02
-6.582276437659378976e-02
5.690682175592645664e-02
-1.641517021976390267e-01
-1.086749700511338707e-01
7.028157826331089819e-02
5.304046239201241075e-01
1.098125351942760064e+00
2.356834813828692088e+00
1.194799322603071978e+00
3.922986160830490565e-01
3.059328353652230326e-01
2.483710084836307230e-01
-1.344566090647749020e-02
-4.723812214887926353e-02
-2.189203791913633956e-01
2.214476274235174010e-03
-4.368660720610255399e-02
-7.877151087115627504e-02
-1.995492446551811183e-01
-8.511618288328227921e-02
2.189973052713198309e-01
5.891719801190410388e-01
6.064507049771189484e-01
1.750138076283224986e-01
3.395628118074729175e-03
2.377367110566585562e-01
-1.726136097090801014e-01
-1.537146909038567544e-01
-7.461108119170925534e-02
5.175940711559168760e-03
1.048510475808943632e-01
5.663325088007720859e-02
5.941407321202038516e-02
-7.344604462272086298e-02
-1.943353422702803479e-01
2.104999908057286206e-01
4.536774094841062865e-01
2.736027820183295489e-01
-1.314491022426523548e-01
-3.534141086613360461e-01
-5.086934153032095507e-01
-3.015027774703499808e-01
-1.673731079470498206e-01
1.326667080954577471e-01
2.113171821520716531e-01
-1.172117959879389118e-02
-1.267212377808629026e-02
1.220694949311823818e-01
1.731208703940898541e-01
-1.108782942811941362e-02
-6.622662635247772434e-02
1.219060970549700612e-01
-6.499624641967916179e-03
-2.033062314971601225e-01
-3.135135903527304646e-01
-2.755153821614261256e-01
-1.202960354002544224e-01
-4.279970157595129610e-02
4.340465675344887947e-02
2.335663024339278138e-02
5.363715731632400646e-02
6.102726342762635620e-02
-8.153719765561513733e-02
-1.719226484464124460e-01
-2.475973307131112133e-01
-1.316352148341055350e-01
-7.127378534364017804e-02
-2.558517224355667807e-02
-8.108714574552056131e-02
-1.388137026648666172e-01
-4.048428585028813337e-02
-2.178558525262070111e-01
5.701343802754204465e-02
-1.563668770563528265e-01
1.247337049440857409e-01
5.144007948344638675e-02
6.131232243658736591e-02
8.518571874214341661e-05
1.165483946768016837e-01
-4.537420897800421848e-02
-2.598780313766778094e-01
-5.718225121923071856e-03
2.828722876782123821e-02
1.475234817838490808e-01
-6.961402624902961189e-02
-7.353150927830018335e-02
-8.055530732513233039e-02
8.682445175264888459e-02
4.831827374168404243e-02
2.391021980523162782e-02
-5.108936685016784301e-02
1.600061294824481617e-01
2.116155936868855877e-02
1.367367338308958513e-03
6.351088101446455969e-02
-7.831298657685387132e-02
-5.662311702768311333e-02
-1.742311203668912567e-01
-1.134410803009175961e-01
-9.442274636532688170e-02
-1.349327138354157740e-01
-1.768771785805751673e-01
1.791275454668929679e-01
-2.099423490000087156e-01
8.967972518128404513e-02
8.828593625948571999e-02
6.807437776410102392e-02
7.846317978919635505e-02
5.403877598610253713e-02
-4.099010484353874523e-02
8.193712507368100528e-02
-4.158184342850065190e-02
1.022078181096569560e-01
-3.988283475552033275e-02
3.747965598298033663e-02
-4.877917995164843951e-02
9.529459513642060675e-02
-8.327125700437308653e-02
8.810992120458351062e-02
6.176710292869340424e-02
-3.533394331111339159e-02
-1.947234057247959615e-01
3.639501350596197754e-02
4.625194037375869767e-03
-1.618655216443976551e-03
1.175222509426803331e-03
-5.240530502132161039e-02
1.878416730672508028e-02
1.090534523738861256e-01
2.852873626837885701e-01
1.158983539409342428e-01
5.883369993540504828e-02
2.387606158406398518e-02
-7.199794785456949120e-02
-2.859397046213364990e-01
-1.429023389952574496e-01
-9.213074062313851564e-02
-3.220159944321112633e-01
-4.141171477935984280e-01
-2.885806495974838071e-01
8.379077209358364031e-02
1.409735109632689332e-01
1.566090193927383578e-01
-9.490482909150103896e-02
-1.545506525534043052e-01
-2.016548028863234809e-01
-2.152377317099277987e-01
-5.569473792763166564e-01
-4.706301159807302348e-01
-7.131439535356937087e-02
2.583167011698021473e-02
-1.197193420722124924e-01
-7.125205522147787240e-02
-1.489812898757096604e-01
-2.067537542716356772e-02
2.456509592154551280e-01
6.850945539996688982e-02
-4.469537897357804546e-02
-5.778623377956427359e-02
6.178746362368059755e-03
-1.830815455638189898e-02
-2.375216796426098953e-01
4.998022823623286814e-02
1.399574583675380068e-01
3.196063919116611807e-01
3.484213858462699709e-01
5.762436211000636355e-02
-2.305712841819240466e-01
-2.474272747075257906e-01
-1.746002724238350512e-01
2.472973888322355929e-01
-6.914256162201050382e-02
3.398413880714549751e-01
4.647112833785480568e-01
4.444146258562294283e-01
3.728084071299088698e-01
3.777262488624321679e-01
2.525559100800165435e-01
4.419704956503950344e-01
7.582241578496725642e-01
5.777661445246194960e-01
2.853368630975255393e-01
3.047761158366445455e-01
1.017505265103230971e-01
2.859331312741804701e-02
1.740662037537548112e-01
3.446361266786122646e-01
6.873845423360748497e-02
6.053949620944719667e-01
4.710371424636554671e-01
6.533612445060532625e-01
9.593656483345227581e-01
8.871179228820889051e-01
8.908827806010707340e-01
8.283570385314582563e-01
5.527499335473592401e-01
1.945731994403881449e-01
9.076119324577329450e-02
1.159446088400660768e-01
-1.049006405053664465e-01
1.749621822214294520e-01
3.605105276904727041e-01
3.526304975300768030e-01
3.945811746694741773e-01
4.884749536179991414e-01
4.161287821176580248e-01
6.501668482478550892e-01
5.323504275161271559e-01
3.318135985014904477e-01
5.751381851726833361e-01
2.492774078833761009e-01
3.050009047071819968e-01
3.127453271734125240e-01
1.110100750901354960e-01
1.874098757918767899e-01
-4.820555001215774682e-02
2.052259319695443063e-02
-1.355739353337877436e-02
2.943856906463852008e-01
9.080105405832290810e-02
2.196103865640426644e-01
1.306539392993508741e-01
1.464136295259011178e-01
1.517158063052856387e-01
3.816649774415403207e-01
2.659724546620786390e-01
9.203798379074445979e-02
1.025334255283035512e-01
4.107137764354265586e-02
1.415255073269496566e-01
-1.110323952489461613e-01
-9.858425120533993724e-02
-1.342561954302063654e-01
-2.984310219863846592e-01
-8.526714231083701301e-02
-1.423766735054909915e-02
-2.720691543036544702e-01
-1.416181656617383766e-01
-2.088908689324977808e-01
-1.530384706815444140e-01
-1.568985397772302282e-01
-4.426469211591160975e-03
2.053261860140968842e-01
8.351349501545775322e-02
2.388747912058989675e-01
-1.640402090444530725e-01
-2.448440323651837891e-01
-2.334345326994307079e-01
-2.755405869894680948e-01
-1.054436070575122952e-01
-1.226112967762111178e-01
-1.836729992222712604e-01
-3.415045271254756876e-01
-2.512741027694058715e-01
-2.820977917812534930e-01
5.727049367109338790e-02
2.127102052203230509e-01
3.203967099757904641e-02
-3.019305961200014973e-02
-1.224378489346387711e-01
-1.400065074638746909e-01
-1.394179990870182129e-01
-2.413059910607569594e-02
6.134670267866478705e-02
6.797659083372789568e-02
-5.517980534220965488e-02
-1.161682683250863934e-01
-1.472288719197903106e-01
-6.577745055629058424e-02
-9.194859852545497758e-02
1.618392146233713913e-01
1.485254328473468444e-01
1.393386053055747087e-01
2.478935095366824881e-01
8.445257055142187108e-02
-1.708820786775772788e-02
6.642288440470527078e-02
1.317773486510046173e-02
-1.519763245533108098e-02
-1.464521931800727983e-01
-1.873909649753975268e-02
-5.520428068361814961e-02
-1.675042380708574863e-01
8.538848284215071194e-02
-9.043981949067320114e-02
-1.080967802851391102e-01
-5.752881867095516882e-02
-1.128974903107822919e-01
1.292199029798908605e-01
-2.291883762027551452e-01
-3.768566330582237001e-01
-1.423899168269724125e-01
-9.235987229057758541e-02
-1.725713788935449855e-01
-1.214440456041456784e-01
1.012405475518117215e-01
5.247614835250354048e-02
4.324665175756111160e-03
7.744950651700285849e-02
1.743579218394946881e-02
1.697649607627865209e-01
2.271666084597502022e-01
1.277000940044863697e-01
6.019258413061378404e-02
-7.054740676966821111e-02
-2.163943444999500906e-02
-2.932611206516349059e-02
1.553435066354977578e-01
3.519486363490823694e-02
6.319564818857405231e-03
-1.034538425407840884e-01
-9.979248499463324457e-03
7.322776163980432296e-02
8.608636690610782516e-02
8.373631888053725825e-02
-3.822518088465341052e-02
-5.889203473219926238e-02
-3.629838423543532699e-02
6.617030883128793839e-02
-1.233658644138973248e-01
-1.973408643962500097e-01
3.044405861920231396e-02
7.424935784941211203e-02
-1.006007807154090661e-01
-5.941939240206751960e-02
9.006935179339850897e-03
-1.465334233426600630e-01
8.888340496112766276e-02
-8.448602445629015134e-02
3.436888484736492621e-03
8.222758298833079960e-02
7.615947449463617014e-02
-2.622151194257895668e-01
-6.269416111325172569e-02
2.970124389033498759e-03
-2.480029851324547785e-01
8.493226705182232994e-02
5.463469833839820072e-02
-3.617237610026551031e-02
3.737795498784645884e-03
-1.263564189407101468e-01
-3.253122362453813449e-02
7.732389139502209019e-02
5.355010340499193056e-02
-1.472552059935497148e-01
-1.623060539489247778e-01
-9.241129405009319842e-02
-1.400371339442754992e-01
-9.424721740831981664e-02
-4.138636873001923233e-02
-3.043650605793137842e-01
3.227681079092350330e-02
-1.045742821428855690e-01
-1.555205309087087095e-01
1.025484226985443614e-01
8.677795933627306668e-02
1.179684925912834192e-01
-1.760772796605048207e-01
-1.979015009070783926e-01
2.494125742261730019e-02
1.207454469710593503e-01
-1.752329497912471223e-01
-5.877651940349519488e-02
-2.789105744856571964e-02
-1.304931705480664311e-02
1.318080484107217801e-02
4.317542049007170452e-02
3.959995295098501372e-02
-5.000723426890175266e-02
-5.319480992331031277e-02
3.062189465173854874e-02
-1.365699414633557984e-01
1.374529512413060484e-01
1.580142425004511519e-01
6.031765732891682802e-02
1.248337883075302801e-01
6.616882029814803723e-02
9.876158417523396571e-02
3.332187984180889906e-02
2.855460100445915694e-01
-1.236722554948377698e-02
1.006106103151633777e-02
-1.204317221399792484e-02
3.412108181082978975e-02
3.803740332628362253e-02
2.098539353610037739e-01
-4.853305265604604402e-02
1.046686075530920412e-01
1.274611516840996146e-03
1.475563950363711352e-01
1.794964069272819984e-01
5.750924764889556867e-02
1.233774486133660392e-01
3.488890150486209651e-01
3.579756528930335135e-01
-1.114594527888348313e-01
7.289889286357226217e-02
-7.010908301559151679e-02
-7.119238170968669732e-02
-1.957758125981123865e-01
1.047714834671196506e-02
1.021283584485712798e-01
-4.027740994733402385e-02
9.370603848641866074e-02
1.789109363454574608e-01
3.573190305633715258e-02
1.055197021768701920e-01
2.587753870695098588e-02
1.680703706613249637e-01
2.991116903638703084e-01
-2.216606260058396616e-01
4.861984409662965106e-02
7.252944902578545641e-03
3.125200891565083072e-02
-1.981659301197995493e-01
-7.715894833147592113e-02
6.981872777994418966e-02
1.334901124316969223e-01
5.474117985670474279e-02
-8.386712446456724701e-02
3.246831012049488513e-02
-1.052132891819777399e-01
1.792469243071456164e-01
3.652236375305724647e-01
4.083196174549909019e-01
-1.692308273375666139e-01
-7.429444903851721571e-02
-1.778583137838546935e-01
-1.072516546285218059e-01
-6.854301128412747246e-02
-1.284020594332341281e-01
-1.905713882197529463e-01
-6.957323143323161652e-02
6.004509640274999921e-02
-5.029652431429874893e-02
4.727739852438841289e-02
-1.513797171236321362e-02
3.174890028758195482e-01
1.968814420489408690e-01
7.474238829230465120e-01
-1.382999472327951507e-01
-1.068906945580895551e-01
1.130993363749707541e-02
1.346930095354783620e-02
-9.936970369606538955e-02
1.454239939190516695e-01
-5.966488493403940274e-02
-2.122710685745205772e-01
-2.308874845428034450e-01
-4.116417511920674073e-03
-1.468908469029293895e-01
-8.893782261924283727e-02
3.468538114843018327e-01
4.719902177377197638e-01
7.613776707900948848e-01
-2.274586229831212225e-01
-3.747582293335600338e-03
1.597834405725583884e-01
-1.785173322956699338e-01
-2.174328739961374490e-01
-2.640865314663448996e-02
-1.151903605756202376e-01
-1.739405599154882076e-01
-1.568961665176647757e-01
-3.463591545162233998e-02
-1.933960086469559969e-01
-2.506414302195187904e-01
3.619722262634033072e-01
6.577375626518721097e-01
8.133286283651651738e-01
-1.093992766237287112e-01
1.304606399942408006e-02
1.621980069260978707e-01
1.584342170897500707e-02
-1.330967708145845141e-01
-4.129596774038279960e-02
-9.480124326033036175e-02
-2.089605041617334236e-01
-1.349566329471317827e-01
-2.400224424329598927e-01
-5.108880309389407515e-01
-1.304648336573986933e-01
2.318887651472254230e-01
1.114422525370918349e+00
9.252132140805658933e-01
-5.958667782516352540e-02
4.806012903698923810e-02
6.377761268731439899e-03
8.546028114526676989e-03
-1.792130579626836084e-01
-7.925192871954513107e-02
-2.019159774524857953e-01
-2.786914803776592287e-01
-5.003004811509595973e-01
-5.684240770941716425e-01
-5.620823990367881384e-01
-1.158773857027773635e-01
4.240501911909508315e-01
1.238246880555394558e+00
5.460106346090122242e-01
-2.725091234777787808e-01
-2.179959464619676129e-02
-8.602761861455360390e-04
7.203383591821205245e-02
1.494977037167607645e-02
9.322911143324062733e-02
1.173778780525420590e-01
-1.316652144881221564e-01
-2.638904590980885589e-01
-6.593785231954066295e-02
-1.132623518702555003e-02
1.138508785133064138e-01
3.999168132005369580e-01
3.557583504380251727e-01
5.923463382119569243e-01
4.722330322967235872e-02
-4.868597850264896366e-03
4.408779882435458208e-02
-9.152834593587626244e-02
-1.171998233822156149e-01
-9.775444437790535568e-02
-1.815134675471772874e-01
6.002279502479187720e-03
2.664968455959126348e-01
1.034052686715675184e-01
8.140899163844945996e-02
1.721918458226248672e-01
-2.550053470929500993e-02
-4.519352254599040553e-02
3.144824570685422066e-02
-7.154471813834931138e-02
-5.798517646133935499e-02
-6.787049821481461187e-02
-2.889788578675086400e-02
-1.719331183030737842e-01
-2.956187599158059953e-01
2.348122619746860484e-02
3.771943301828669104e-01
6.895642288816995480e-01
6.787955281490060111e-01
3.842737053178048034e-01
1.788013004274793261e-01
-1.660807445748007372e-01
-1.247633802716184709e-01
5.848974883760561100e-02
-1.203475465644742587e-01
-1.670021817092534888e-01
-4.852569573186037155e-02
1.467790004137527573e-04
-3.531034236532631376e-01
-2.727390830397908861e-01
8.644455815310639335e-02
6.421132043023473068e-01
2.022686303436804334e+00
3.143919189696764982e-01
1.765019225742034958e-01
-1.318095330088075168e-01
-2.825918300157478358e-01
-1.031300743189209196e-01
-1.894043969309602282e-01
-1.935311927715766293e-03
-1.142549423823651655e-01
2.098280065888757095e-01
-4.686150028678735119e-02
-3.573687494262792752e-01
-8.336291816425389634e-02
-1.084577082310800300e-01
1.679276229794343323e+00
7.382314386415498308e-01
8.136555023988797930e-02
-1.993704628273861301e-01
-5.639801567729654241e-01
-3.891134445828970390e-01
6.359324357819803875e-02
8.426348658217010235e-02
-8.855665907776674728e-02
1.120751643357187216e-01
7.318719836869445883e-02
-2.089711252824150711e-01
-3.905880599920126817e-01
2.244322226062446524e-01
2.297574388415858093e-01
9.616276321366070690e-01
3.465945812219171224e-02
8.116108984831670037e-02
-4.430991930445182247e-01
-2.906565452083108014e-01
-5.247654258603368094e-02
-8.747129728707707386e-02
3.074698537992650096e-02
5.114734917271174242e-02
1.157170455140371229e-01
8.117124165617728426e-02
-3.692306767365170495e-01
-9.611505462390480814e-02
1.951226298397739645e-01
3.609219646529771008e-01
2.091223109560924887e-01
4.428384165221688901e-02
-3.767120653217501114e-01
-1.685650667306920480e-01
-1.910219799019095832e-01
1.034704655625350023e-01
6.431083540801051102e-02
-1.615936000544188900e-01
2.090870310942474219e-01
1.583909974724749536e-01
-1.908686295071909955e-01
-9.003127727802259783e-02
1.369280201239207462e-01
8.119824622973136063e-02
5.121866618097480339e-01
8.545786374937493213e-02
1.031001949815582228e-02
-7.090205147517937567e-02
-2.158549871865251268e-01
-5.139077547438745952e-02
8.255884230612557662e-02
-3.253251309704004168e-02
-1.366787799985392793e-01
9.411576234168343713e-02
2.058155515710092393e-02
-1.322623509134044917e-01
5.619727824874007349e-02
7.838611586045622290e-03
2.987468422055142292e-01
3.271750842982975027e-01
1.866878555283028472e-04
-3.945623094803553388e-02
-5.148076822883288634e-02
-3.524009029975359863e-02
1.013247767638846275e-01
-8.289646704663905519e-02
4.352191643348089257e-03
-1.460564216921552971e-01
1.401593227997422753e-01
-2.991748008395240035e-02
7.792668936204988350e-02
2.430079565522698659e-01
7.915054701996504516e-02
1.321315013938008098e-01
-2.370237283221689195e-02
-1.797548675962344633e-02
-1.364526851870263013e-01
-9.724567070557597892e-02
-7.964304067746104387e-02
-5.682991553215379493e-02
5.109922015777978305e-02
-6.244554302440714216e-02
-1.331383659822912846e-01
1.762578456359653045e-01
1.419085542578623141e-02
1.442081186807603610e-01
1.245638063952340530e-01
2.672211532254719080e-01
2.900467344849108065e-01
-3.032001594041461648e-02
5.884555078535497197e-02
-1.519508764206106977e-01
1.715264405572648754e-01
-6.324687273688078815e-02
-8.339710586589410557e-02
-7.747387129980837228e-02
1.251882207816197232e-02
-8.265253503883189523e-02
-1.050773434802977496e-01
5.667569221281826969e-02
4.733737184935923187e-02
-2.504428771840104193e-02
-1.195493751507753222e-01
-4.359373819635465989e-03
-1.716635035421638367e-01
-1.529212942047745993e-01
4.345492837496148231e-02
1.598871045175970507e-01
-1.479702835894187822e-02
-6.588791428394322192e-02
4.497386933098561357e-02
-5.771524585235431742e-02
8.630891210449599671e-02
-2.617291245904586686e-02
8.632406599815295109e-03
-1.338874913092832075e-01
-6.248397952141773737e-02
-2.321970769806030732e-01
1.351407854590225624e-02
-1.059614085149171957e-02
3.318002227026600748e-02
3.844577318533601296e-02
3.352656300356419289e-02
4.178923487666871134e-02
3.171526491745612492e-02
-5.287285835780949905e-02
-5.016747229481994391e-02
4.683351277171268756e-02
1.483433001596900780e-01
5.500992623808702298e-02
1.229615914756238687e-01
2.839326871389440295e-03
-1.377451668202075812e-02
-9.723194561724046725e-02
2.974317359506062700e-02
7.464351632913272284e-03
8.786663369146413549e-02
-7.853532262919489526e-02
-4.355866802760711975e-02
3.527992518700119595e-02
-8.856160327125835174e-02
4.492895914534176388e-02
-1.461973566726149643e-01
-1.388241229537958733e-02
3.028771912382504511e-02
4.246768911118342649e-02
8.047111552713462346e-02
1.848474714887899939e-01
-1.400059747380519651e-02
4.670378140249228233e-03
4.142548615936198636e-02
1.062391630156724609e-01
-7.071576188036002297e-02
1.032845787937648335e-01
1.812405838991568152e-02
-1.195192556457905370e-01
1.752521444355162605e-01
-9.773380855541952128e-02
6.233104037226969152e-02
6.974798083230906998e-02
1.026365411127284355e-01
3.840315134796723484e-02
3.214269765288131631e-02
-1.829326555636776735e-02
-5.069447271277741085e-03
4.470072664056466000e-02
1.279420201080427172e-02
6.858797166358934772e-02
8.061408162823746615e-02
-6.020158646114967538e-02
1.682628989995944499e-02
-3.532336759273679849e-02
-3.418975394577960514e-01
-1.368596127224289971e-01
4.827499431710344235e-02
7.402756835934622137e-02
1.335329353982135821e-02
7.792757419653166540e-02
4.175310459378788752e-01
5.214247459758734882e-02
2.304031372287944357e-01
2.807000367450626088e-01
5.001380375713175841e-01
7.342242554840208157e-01
1.112968463799070884e+00
1.406556192854854670e+00
7.219909943319181567e-01
8.842260402084599624e-01
-6.911275124964119665e-02
-2.357905404541661004e-02
-1.208853651942911299e-02
-2.834744138521956280e-01
-2.676800820666899727e-02
-1.623715556951292049e-01
9.256357802813054703e-02
5.764044204127677373e-02
1.693265556645256464e-01
3.694623975320147635e-01
6.460879896572656600e-01
1.037687122927482664e+00
1.319502638030566333e+00
5.127172008189855301e-01
1.836314469144354478e-01
-1.386256243441917335e-01
1.173948988124385723e-01
7.572739439771569714e-02
5.122117825188420015e-02
-2.816662489878601211e-02
-4.447081336690145159e-02
5.656723106495298997e-02
-2.932775902830356968e-02
-1.548018553801284447e-01
-9.701381140186300656e-02
2.664095476622603542e-02
2.704379334251857947e-01
5.752399032427695236e-01
6.055425563143579382e-01
3.655803233876745995e-01
3.966465762836154235e-03
7.231916951287021937e-03
-1.004504345726981752e-02
9.117882687007088094e-02
7.543513400494537835e-02
2.634093196932460815e-02
1.032670328221890338e-01
-4.353281881426695477e-01
-5.156669322011226964e-01
-1.807651839322055309e-01
-7.558814420576472071e-02
-2.430816221680005551e-01
1.674390736301222538e-01
3.401831474145351475e-01
4.184252752760251881e-01
2.193258761388923103e-02
7.736456139373727725e-02
6.492998841885817829e-02
7.195676559898454838e-02
1.668445194949813581e-01
8.897880756833692617e-02
4.127101426178666349e-02
-2.739762956393492765e-01
-2.452287300762041322e-01
-2.330223123079148140e-01
-7.801533590296139131e-02
-1.640950864608241577e-01
1.860263638547573761e-01
-4.749267336301940534e-02
8.703762415328547553e-02
-9.036793099125278728e-02
-3.362192894878453936e-02
1.706397728026482624e-02
-1.886478304512035353e-01
-1.182458069929532979e-01
-1.605310651019165591e-01
-6.363722215117870173e-02
-4.212114373820371321e-02
-1.158699924360655914e-01
-1.245524692257918564e-01
-1.331570319087832799e-01
-8.809150146839435369e-02
-1.071944728854011680e-01
5.992873608354161441e-02
-7.316226237171068181e-02
7.840656745884101719e-02
2.063597693124895327e-01
-7.550655863725587447e-02
3.804740129802343385e-02
4.206420025532867091e-02
1.774482496323635155e-03
4.556987860979871963e-02
1.352855230441018519e-01
8.229429004800847131e-03
-2.843821503344388657e-01
-9.911761954623497795e-02
-1.080818907421609992e-01
5.736843894698172991e-02
1.144065548339036897e-01
1.287725841974899366e-01
-1.946391412861468162e-01
-1.924735033376306567e-02
-1.811449101852134480e-01
-2.779850602203158827e-01
5.740253015183671009e-02
8.343542106404254477e-02
-6.677123463875261900e-02
-6.105662090294543959e-02
-3.493278433744863992e-02
-1.489293935242515243e-01
-2.682238400536679501e-01
-4.434215931473958761e-02
1.548524266302199193e-01
2.102521199223621462e-01
2.312546608119490227e-02
3.985602683702402921e-02
3.160863117958778723e-02
-2.480856875455558219e-01
-4.903650510923644040e-02
-3.630337395258094457e-02
5.394748816235622052e-02
6.225388822595805116e-02
3.911434918182101622e-02
6.047613068601002256e-02
-2.534434582855711326e-01
-7.103049738302590066e-02
-9.578223211992699382e-02
1.714888562637713332e-01
1.253354836915457071e-01
-9.325722434690290885e-02
-4.096548414779484226e-02
2.416132781656662731e-01
-2.280041438206509719e-03
-1.078564090908209899e-01
1.875671420002916479e-01
-8.013211031608631629e-03
-3.373265731309372378e-02
2.045980545503085432e-02
-1.765614147529240285e-01
8.603333441698264583e-02
1.991741792761502969e-02
-7.103920131353949619e-02
1.802423952122437500e-01
-2.693119995061386551e-01
-1.001761989852666818e-01
-1.538221729430463147e-01
2.644703775509547189e-02
-7.302553441807151102e-02
-4.781798044063954867e-02
6.973925551335966033e-02
2.085444082407202082e-01
-2.005491441397737606e-01
5.517243321199226391e-02
9.729947833274905922e-02
-1.197792752138154004e-01
-2.554730669343661664e-01
1.244792871854932953e-01
1.325385505738241043e-01
-2.571053815170848411e-01
1.067791687928508204e-01
1.216168487927941216e-01
-1.348586280493608014e-01
1.993955667141120158e-01
-3.782449753445741442e-02
-1.246502683698436503e-01
1.961223616348557741e-01
-6.873194328508909490e-02
-1.004861698923283225e-01
-1.941254497546528526e-02
1.351883143485725358e-01
-6.281625838051614966e-03
-1.103211769758155048e-01
-1.201551521895352359e-01
1.997393584480926521e-01
-7.468716498710499356e-03
1.774730831687158505e-01
1.517157154632204075e-01
7.316446867201700788e-02
-5.627606940000739327e-02
-3.210427351417769470e-01
-1.121629847906024380e-01
-1.492314764098452151e-01
-8.825736368662634446e-02
1.674770506680711701e-01
7.833889498803786600e-02
-2.336322802203973092e-01
-5.698828454693379009e-02
-9.765854518781239002e-02
-2.835430563852355326e-03
-1.461683011543667143e-01
3.210782191202907199e-01
2.688742409653782639e-01
3.085841804602703631e-01
2.749709651639250518e-01
-1.912775953019305725e-02
-2.089213455336949576e-01
-2.618443784427068252e-02
-3.659401390986259661e-02
7.513499630765534121e-02
-3.001082336860848646e-02
8.328708688197414278e-02
2.266943862312476299e-01
7.542958018629399020e-02
-6.538022350597612331e-02
1.627905397182821401e-01
2.171781443977964243e-01
3.487718506189567136e-01
4.768802777980646890e-01
2.051456712697931062e-01
2.951244109356175871e-01
3.219270569492284628e-01
2.910643628750758105e-01
1.537505619788570588e-01
1.401799641000111771e-02
-1.839186369798420095e-01
-1.096631180867115307e-01
5.079284308841255230e-02
8.304895551652738753e-03
1.124845754725597169e-01
-4.587330757059820963e-02
-9.187707106110894195e-03
-4.737331935234750241e-02
-8.117857036454653730e-02
4.684443252864801260e-02
1.423200847261920643e-01
6.627237063579004273e-02
1.271603132411666948e-01
2.794376674090848223e-01
-6.088837862132870024e-03
-1.085680548862598821e-01
-1.217302650745557269e-01
-1.673952554497279144e-01
1.125335308866096985e-02
1.401411383396634069e-01
4.830253663291466520e-02
-5.737711166186374584e-02
2.311492589078031623e-01
2.767802455915278070e-01
2.972261318322968471e-01
2.730605098314901613e-01
3.410343068348422046e-01
6.863014722364418896e-01
1.765352359263964444e-01
-2.434319031236452380e-01
-5.339189803046916483e-01
-2.653672773010936625e-01
-8.656057951340402623e-02
2.218842061895505077e-02
1.103888078209145779e-01
4.788003298686496073e-02
-1.693387986994565331e-01
3.958838038765580269e-03
-8.392855107964614092e-03
2.142713318175778203e-01
2.749510923630699710e-01
4.745263689276314478e-01
7.671832841743934095e-01
3.502121865843156323e-01
-3.953589944359611752e-01
-6.171366641586760737e-01
-2.833526329371975905e-01
4.797701398303198111e-02
5.574385004189936349e-02
1.696218811928593140e-01
1.087186582939797357e-02
7.636835275976035231e-02
9.010573500741780872e-02
1.568936251571625418e-01
7.309653942141636218e-02
3.269900982852101956e-01
5.886685353592283620e-01
6.871389973220430880e-01
2.237737543700314136e-01
-2.497877790318747682e-01
-4.756704464957807743e-01
-3.346164261207926205e-01
-2.946585631843965936e-01
1.075676635098247666e-02
1.691375057454225228e-01
2.956704126340780614e-01
-7.726589216862848712e-03
-6.976056083780723949e-02
-1.991488442922493551e-01
6.694040254577936222e-02
2.494081830190285620e-01
3.754392403463124861e-01
6.935914843247578121e-01
5.640851327295142575e-02
-1.351939699288192687e-01
-4.220066362938725835e-01
-6.290753512458089336e-01
-8.737296678300598973e-02
1.626139420833862606e-02
-1.463709350451276592e-01
-4.678863836032747490e-03
6.734578372713935501e-02
-7.181545172692826995e-02
-2.150718402003902741e-01
-1.037767684599460311e-01
3.992443720415452257e-01
5.142330232692681191e-01
7.416622789058231469e-01
4.209143479277912547e-01
-7.213895417277410571e-02
-3.594899851097997368e-01
-2.095357766673297817e-01
-8.509334260926265658e-02
-6.154690240266106477e-02
1.470235015552321181e-02
2.367814392267183782e-03
1.688741450844370370e-02
-1.581741038844368952e-01
-3.750034801790112504e-01
-8.548018005868542046e-02
9.183591924651555993e-02
9.382569795286835879e-01
6.765349905924389340e-01
4.085128560757689264e-01
1.946804116009752672e-01
-3.385255066202423613e-02
-1.017302714228126570e-01
-1.642241603764576507e-01
-2.173369646448549963e-01
-9.138229162101117742e-02
-2.953781828779092344e-01
-9.829787538771442290e-02
-2.002313639837490777e-01
-3.667533185547581231e-01
-4.528870169367510967e-01
1.303548893711282963e-01
8.143986451213443001e-01
5.982991264261191544e-01
3.999595239675527436e-01
3.671676062873718283e-01
6.772148636814710743e-02
3.528252508883000793e-02
-8.454175766352442500e-02
-1.789354512320668125e-02
4.502587507293673991e-02
-2.528607282660182420e-01
2.502375219255069047e-02
-3.105526412711699935e-01
-5.066196656222238248e-01
-4.079258564605144910e-01
5.795278353569809082e-02
2.854152347097890785e-01
4.101931653272453127e-01
4.869868403031989978e-01
7.845931630021479863e-02
-1.185145939841683420e-02
-1.175069954322965904e-01
4.947450112104746778e-02
1.325695544290088623e-01
-6.956918584728757904e-02
-2.140560472997871111e-01
9.547882026034315572e-02
-1.964232627490503647e-01
-3.727260050586353457e-01
-4.534756595172615978e-01
-3.016255757373638158e-01
1.642286245344744544e-01
4.487935277451508137e-03
3.606781806208553265e-01
2.118873946054464913e-02
1.857107114310712626e-01
-7.942244174796650458e-02
-1.165475488694195788e-01
2.347552130610532431e-02
-4.917226916340815095e-03
-2.346242822805931216e-01
-1.153828528650067409e-01
-1.223648331763551866e-01
2.571018025947328228e-02
-5.079923481189936307e-01
-1.658417232827771870e-01
-3.944981339738457687e-02
-7.693297300369903412e-03
2.252432970752248353e-01
-9.517018574631804298e-03
6.576152443655207402e-02
1.513536795292402815e-01
4.403731100883823829e-02
-5.102100808539312277e-02
2.190055090769542703e-02
-9.260130948785848248e-02
9.028178461420997836e-02
1.394387537701348156e-01
1.333897578609780366e-01
-8.680093582474890379e-02
-2.219726056977896766e-01
1.562585287638340870e-01
3.143839612843127296e-02
1.954821660914533854e-01
-9.291353180640918308e-02
9.554578610732002153e-02
7.272583995481786412e-02
1.574407869648419139e-02
-4.378674893732325407e-02
-1.642050463551179285e-01
5.020247817957149139e-02
-4.519113499325627670e-02
6.823285064393634636e-02
8.198342900583154014e-02
-9.979918490396333386e-02
-8.426158015321233430e-03
1.666362466701513390e-01
-2.426592621159476965e-02
-1.264575533302564336e-01
-1.666828526799332862e-03
1.557574717036075140e-01
1.054702021096528552e-01
1.591302705759489178e-01
1.920285316626983837e-03
1.376815194640197415e-01
8.319323730686936647e-02
-3.568001478386623876e-02
-1.097810884821185384e-01
-2.324692988795406257e-01
-2.701733888295849706e-01
-5.891882385491038765e-02
1.492692212529584672e-01
1.634835711256543977e-01
-3.973671868000291235e-02
-4.363708593118598156e-02
1.199251021142093560e-01
-3.173353413344798257e-02
-1.246637419119612372e-01
6.167066201732700551e-03
1.106204498348223320e-01
-1.266601584745234710e-01
-1.163639000875318769e-01
-5.789077717565945663e-02
8.985842785020686438e-03
-9.114227285255800670e-02
-1.626043416793117591e-01
9.371140048718736015e-02
-3.208437723190223079e-02
1.600878278041873159e-01
7.681477867461693199e-02
1.813011212431895891e-01
-3.603787092174668295e-03
-8.933841546462466254e-02
-1.804901913972726743e-02
-1.665806827695179640e-02
-5.401624450671089761e-01
1.044022440727908341e-01
-1.726942735704953616e-02
-1.202638515387936119e-01
-1.351909657208835713e-01
-2.217002893787921036e-01
-4.036744983667132636e-01
-2.879455252184772163e-01
-1.939741226895295156e-01
-2.927873159941818404e-01
-1.344682359934592508e-01
-6.787350514315006189e-02
8.412028350243366814e-02
1.804007337485187545e-01
1.222008811341106504e-01
-1.854308436471465218e-02
2.532308665243728774e-01
-2.440915332656024700e-02
-1.818206579057671801e-01
9.211379167476387020e-02
-2.193734671239836731e-01
-3.996634123594274834e-01
-1.209453021968497077e-01
1.587192423703625427e-02
-1.597705533096649422e-01
1.603197902709659409e-02
-2.023320497457922751e-01
-1.458440542880520274e-01
-6.121109793766690149e-02
-8.899528779657796262e-02
-7.921115928993306687e-02
5.882764794107500639e-02
-1.476029203786630439e-01
2.361374290328378256e-01
1.587411458027190858e-01
2.188669477907857208e-01
3.140910782921664812e-01
2.419992409715032711e-01
2.303587152992488396e-01
1.462000248171231309e-01
4.799083922303885169e-02
-3.330295358867739197e-01
-4.150010553998875751e-01
-5.461204909201550217e-01
-4.792159249761084872e-01
-4.124867270294359511e-01
4.814238445905114627e-01
3.192028565134775731e-01
5.274554822781090113e-01
3.175916039061526530e-01
5.313397554989339744e-01
4.481778799555445336e-01
4.906648633886135369e-01
7.419400883532423219e-01
8.431960850745617853e-01
6.465759659816218141e-01
1.463182402352001255e-01
-8.078872962767881527e-02
-1.910220266222844854e-01
-1.211920006512502354e-02
-2.246210838483708172e-01
4.557847803687464228e-01
4.534341579448367132e-01
6.100201743794719800e-01
6.860754718927685181e-01
9.909594775284698009e-01
1.035934967628812098e+00
1.060492956820299426e+00
1.114631294281150042e+00
9.752280261906240977e-01
5.017252844523589772e-01
3.264612558690403454e-01
2.249911767968701959e-01
5.372227742781831433e-02
3.129915608873246741e-02
1.091649883523890530e-01
2.107505639795489993e-01
3.911230836189179549e-01
5.449360997186007971e-01
2.650602350102990723e-01
2.221241399547199125e-01
3.740849441576170054e-01
2.990076047910336099e-01
4.153577737904772249e-01
5.987739109672460813e-01
3.543536258286905105e-01
2.377694186506216500e-01
1.574170878390718231e-01
1.490419131024521004e-01
4.445041208833287044e-02
-3.694364178836749557e-02
1.237878599115575101e-01
2.156705716670552775e-01
-1.740437882001846515e-01
-1.136316496294592637e-01
9.080574350940021078e-02
6.056455962108391738e-03
-3.556995634916063631e-01
-7.350969407864578475e-02
2.511763636133478306e-01
3.144280477578682564e-01
2.253583002885876929e-01
2.516516999773020236e-01
1.852347693780032889e-01
3.980816193454574797e-02
-2.771409784959880107e-02
-1.252851217020529706e-01
-2.462637008840447561e-01
-4.223750636767222288e-01
-3.881749515379402382e-01
-3.273251534047742495e-01
-5.173415707339378278e-01
-5.890499687755944569e-01
-2.840383871338465482e-01
3.915885910819383309e-02
1.003018737677381644e-01
1.057025101481530449e-01
1.245243623016961537e-01
-3.011443848485318917e-02
-1.429152581504389112e-02
-8.084892090615540539e-02
-2.960766830704367192e-01
-2.690815287645885734e-01
-2.591972010277687755e-01
-4.244506478260794829e-02
-1.951197972382771317e-01
-3.248869542048674064e-01
-2.702978994980158034e-01
-2.855866910306975592e-02
5.047006304836441221e-02
-4.977106932336356621e-02
-2.207728717024507945e-02
1.334004986066005538e-01
-4.266621679335235590e-02
1.237040413084342511e-01
-1.380626260288108087e-01
-5.578639332400632533e-02
-6.390885574175092509e-02
-1.366580605581702301e-01
5.648216315895255440e-02
1.307582462981888571e-01
-1.609659545317759961e-03
3.048822108141383339e-02
3.458312646671817675e-02
-4.961752757236181921e-02
-8.036795456668219956e-03
1.524883556112690830e-01
-1.215598400448856531e-01
-3.551799086975371278e-02
8.858364254460066034e-02
-6.207102880011377416e-02
-7.070496345476455502e-02
-2.117772556149145613e-01
-7.576533053655438998e-02
7.293216978808773898e-02
3.162140676681048090e-02
5.049950126468038397e-02
3.520538701555629701e-02
-2.032991607249335919e-01
-1.764025285355093620e-01
-1.439987488772384583e-01
-2.197589759590178743e-03
2.475411380638292969e-01
-6.601777794695896928e-02
3.309192303469275787e-02
-2.176230837901805409e-02
-9.120663755740733222e-03
-2.009653378751179997e-01
-9.678193929025818987e-02
1.486154750146815868e-04
4.039544829522413727e-02
8.062479666630123498e-02
-5.607024969678536808e-02
-1.124857286971572418e-01
-6.736182009905922197e-02
-1.164085449404799327e-01
-3.686332322297283977e-03
1.661381969009204790e-02
-1.519767087408404882e-01
2.289639897795559681e-02
1.186455302985852181e-02
-6.925092304313881786e-02
-7.721518830818117907e-02
-2.005027791804436244e-01
-1.051122247960308981e-01
-2.776978813685756359e-02
-2.918756905724351203e-02
-6.527570079602161568e-02
-7.564672080436217472e-02
1.150469638496102037e-01
-1.057129553672110089e-01
6.153552333199824309e-02
1.738644964733645770e-01
5.395901636385958683e-02
1.761395236126535868e-01
7.559767241583913167e-02
-1.870138039020136089e-01
-4.513360790084215007e-02
6.745528552298445113e-02
-1.543215582590517880e-02
-8.000187992317860097e-02
-2.740233546372156104e-01
-2.393076889721545419e-01
-1.912612394473684613e-02
-2.020670922693804453e-02
-3.568752695827023813e-02
-1.014666272748937850e-02
9.486072664478115146e-02
6.325485076278125618e-02
-3.530904051799744342e-02
3.522434605168141969e-02
-4.826037147463417554e-02
1.189891241676105382e-01
4.931718789230499222e-02
9.741405260198218730e-02
-2.656037461674210995e-02
-1.337865464178614738e-01
-5.414900167064242570e-02
-3.939424893859643818e-03
-1.518410704527038690e-01
-1.550978276321355875e-01
-1.720357639080769552e-01
-1.112202837343340966e-01
-6.354706359926405590e-02
-1.184406045285208570e-01
-8.541303950405582102e-02
-8.393815482662471406e-02
-1.092250707866079668e-01
7.061493477433252071e-03
-1.848206262481450757e-01
1.180976471690414337e-01
-1.334665759469729623e-02
-1.091511210958331056e-02
5.350217139598373306e-02
3.362409616450268840e-02
-9.593263946672428259e-04
4.689274891979223342e-02
1.894137132948810476e-01
6.267686533842699824e-03
-3.071694681137746019e-02
2.053995430988319326e-01
-5.324279073972357917e-02
-5.077273973883577284e-03
-8.807288009717491317e-02
1.091741818148586618e-02
-1.502854987196008130e-01
-7.472877601985945806e-02
-1.774164216298593222e-01
-1.411510968699848101e-01
-1.079937975532568734e-01
9.647564628955074273e-02
1.460958270289539895e-01
1.588059860537983092e-01
-3.837744466139809268e-02
1.886523289092089870e-02
-6.092023951677170285e-02
-1.412657034322237493e-01
1.247255875162066457e-01
-1.175996299892071162e-01
9.135113072692679914e-02
2.763718826538268114e-02
-7.382318546698135586e-02
9.534092997084758769e-02
-1.180883140611886650e-01
-1.368587245322845369e-01
1.408468014141563696e-01
5.240854099049108844e-02
6.520613259878520196e-02
1.284341855917333630e-01
-9.218616880464663987e-02
-1.522479095835328929e-02
-1.340665522878979055e-01
1.044026537479507549e-01
3.183779002260188340e-02
-7.302279976729231237e-02
-4.599820774052577887e-02
3.032204532288324678e-02
9.424090257911472979e-02
-1.683320273748932158e-02
-2.241168056292807895e-02
6.756172634417087486e-02
1.437731062248895908e-01
1.758329429551042933e-01
-1.120923938215248467e-01
-1.954146409552309227e-01
-3.274451876597921779e-02
-5.912350556122679401e-02
-1.309374545237438625e-01
1.753260871521308134e-02
8.279307480094172389e-02
1.246057577733102606e-01
-5.633682848482462341e-02
2.362074537122314452e-02
-9.748243765663422433e-02
-5.303111315148124200e-02
4.866315188835412808e-02
-3.208705277284541052e-02
9.350716083260852962e-02
-8.143931312973491654e-02
-1.663940478681849577e-01
-3.461400525570132447e-01
-3.760546252952234186e-02
-6.302859936856242129e-02
2.860080865821564358e-02
6.555771536721777260e-02
9.481786646594518586e-02
7.003177446922659311e-02
-5.614827853099366162e-02
-9.675192281894631763e-03
-1.420247813812636761e-01
1.052313418582063176e-01
5.382280909499430332e-02
1.809317881574080966e-02
4.616035253212778106e-02
-2.837362237980302626e-01
-2.941399279372540754e-01
2.350750813915740076e-02
8.147256452696147178e-02
-6.135559513539997484e-02
-7.661972956462145823e-02
9.831470767793594467e-02
-1.269300197993733850e-02
-6.143175337433127992e-02
1.474952061454807839e-01
4.192735613689918713e-03
2.145658908538559118e-01
2.260676444668320850e-01
-1.414785618475564340e-02
-1.356080449217600958e-01
-3.306552965230013519e-01
-2.338434270724503439e-01
2.011721767878734725e-03
-6.661907015721013799e-03
8.930903121577017656e-02
-3.107232083170706829e-02
-1.005926799290952911e-01
3.358957865021328787e-02
-1.209637268584268580e-02
-2.371379619254781676e-02
-1.589142792911291402e-01
1.538409748691501322e-01
-8.795975592541235843e-03
1.743334430742077279e-01
-5.778990507841508251e-02
-2.667562388239783644e-01
-2.221144975661051568e-01
-8.689597960076304861e-02
-1.999786404243584712e-02
2.572483989717142330e-02
-4.381266648993051294e-02
-8.657880071763225660e-02
-6.271476200435541215e-02
7.740481035418869671e-02
-7.113673751138289980e-02
-1.442295669794379509e-01
2.229237307538027846e-01
4.407683287818246476e-01
3.366560031355428362e-01
2.111885480050448571e-01
-2.750567415719941677e-01
-3.782333857367913277e-01
-1.118859212469453523e-01
-9.060542039852075014e-02
-1.051490446392443212e-01
-1.739618723247222110e-01
-3.798891387391324648e-02
-7.320081654263393967e-02
7.047560570782562817e-02
-2.338677529351025353e-01
-8.116603459053682579e-02
2.964218697138454872e-01
7.419410717116191600e-01
3.107653791174390112e-01
2.484142681297070443e-01
-1.744971022273167360e-01
-1.251159911350449572e-01
-1.211550568350604207e-01
-7.363072848204213483e-02
9.119318309176241422e-02
6.363244307653051490e-02
-9.853249639300580565e-02
1.319751422934696897e-02
-7.323068221270995215e-02
-4.830198457698273162e-01
1.020084003246049253e-01
4.991757903475154690e-01
1.140455494501232403e+00
2.066868253868772987e-01
4.864306834640386157e-02
-3.233469945965146142e-01
-2.257851997772244990e-01
6.841280924637429053e-03
2.869654357594116339e-03
4.130363888074501527e-02
9.518926252121739928e-02
7.778540334367442521e-02
4.228731426788816250e-02
-4.759134758542727384e-01
-5.250249830814156526e-01
-9.831487611045126862e-02
1.217030490615777394e+00
1.041811217667508283e+00
2.745585784961184217e-01
-1.254635000416971513e-01
-3.079761677465748804e-01
-1.408636022993345616e-01
-9.359371012860190353e-02
-5.223813629212380877e-02
-1.524544031972060176e-01
1.402702941124489011e-01
3.678134862997808896e-02
-3.707969745177741583e-02
-4.965735249597728052e-01
-1.044667218838516570e-01
4.473404448702429925e-01
1.669046274620407111e+00
5.458944129996493588e-01
3.396166392477215079e-02
-2.295221807260678648e-01
-1.485295299743016884e-01
-5.903451024915615936e-02
-2.120000945956328486e-01
1.637279945251342295e-02
-4.393260977651967589e-03
9.741023320094346558e-03
-7.921612418123392951e-02
5.716839537193482007e-02
5.813187112657951239e-02
1.580155881902438331e-01
6.620611262177102940e-01
8.127271266796319837e-01
3.469200580189325533e-01
1.555371704051897175e-02
-2.875492721962830123e-01
-2.408486005559797027e-01
-5.954867688363577743e-02
-1.641355196977304200e-03
1.050540733776851587e-01
2.201661477204695447e-02
1.580848943403726226e-01
1.928588464607732811e-01
-1.116137203304257974e-01
2.451472892339316145e-01
5.291346090585924422e-01
4.740351504272047323e-01
2.815137220794174389e-01
3.080699224339897846e-01
1.029205847284981046e-01
-1.637390244625952507e-01
-1.225985676330441365e-01
-1.259074317000748733e-01
-4.613023645307642306e-01
-2.098190790505055081e-01
-8.153054057999237214e-02
-1.524522185135591124e-01
1.469993097038270295e-02
7.355415813497720445e-02
-1.077561970186946827e-01
5.839174374752557906e-03
-3.817471837446249211e-02
-4.577633197211679328e-02
-5.913865785594341756e-02
1.065123504341142086e-01
-1.391496506502734598e-01
1.069081195318737423e-02
-1.269594383144969085e-01
-2.341147287965205104e-01
-1.133975801850664183e-01
-1.100564231090458110e-02
-1.814725474614270750e-01
-5.691138018856396578e-03
-9.906911529959104568e-02
-7.988951750540269903e-02
-1.030941922195218428e-02
8.667976590959308725e-02
-2.984601053534507997e-02
-1.865114217363388616e-01
-9.043623762649002917e-02
-2.339227513778243187e-02
-2.258420166431725218e-02
2.734399346835285002e-02
-2.312918940491092701e-01
-4.344142353236414241e-04
-1.239617157003283371e-01
-8.893383564525063345e-02
-2.272901723278989913e-02
6.132745607120810433e-02
7.638127456699325690e-02
-1.971156742538694440e-01
-1.281854298050230934e-01
9.790501662166110897e-02
1.138776332825756042e-02
6.128383371280789194e-02
-1.053470556715495679e-02
-1.198716803470713799e-01
9.583735060713337306e-02
-2.566253621160150544e-01
-8.405842042414459273e-04
-5.856999903532193047e-02
-5.903656267642429234e-02
-9.652468656866057539e-02
-6.930237738590924734e-02
-4.460675621537026764e-02
2.006436463129845221e-02
-4.125786345679221569e-03
1.695995763688397731e-02
-2.020047908049125334e-04
1.220733251308073336e-01
-2.126378469850982722e-01
-6.214751044049061923e-02
3.844478068182773794e-02
-1.318005262669009747e-01
-2.427165052546082641e-02
-4.090276365029310059e-03
-9.836437870325118182e-02
-1.360852501973720263e-01
-6.978920209684225107e-02
-2.963543030059833522e-02
-1.155227817008997338e-03
-1.100059265125166996e-01
4.139870543652773849e-02
-7.681907706198273789e-02
-3.648983498332827174e-02
-1.423949607012870433e-01
-9.883552197076757306e-02
1.811451369041569906e-02
-9.731964139654319945e-02
1.224559550529743246e-01
1.840640557389876600e-02
-1.065626967187925378e-01
-1.858927340988133503e-01
-1.049936699539691931e-01
-1.158294425990209903e-01
2.647930705133281701e-02
-1.682437573134550335e-01
5.959523300442612359e-02
-3.392363435002752059e-01
8.936353378650421786e-02
-7.829046767879002666e-02
1.543109297457538609e-02
-7.843253853386579488e-02
-1.059151710951612146e-01
7.994353605377586824e-02
1.096053417459863788e-01
1.261799971142882337e-01
-1.909183220896168431e-02
7.864257464764988492e-02
-1.487787437940724967e-02
-5.662475726886824490e-02
-2.385208280906644662e-01
-1.197231701363220685e-01
-1.438913334245730813e-01
-3.196765087213120776e-02
6.662188816724964879e-02
-7.016088299481636203e-02
-2.120384321936224503e-01
-1.515155894175160833e-01
1.045572757107209039e-01
1.620086707972624371e-02
-3.683203060188831868e-02
-9.317684185767965976e-02
3.996072855295992876e-02
-3.898911862803162293e-02
-6.396361250058460457e-02
-1.995377282322741697e-01
-2.418166640028936443e-01
-2.176205327506441078e-01
2.059139088851240362e-02
-1.457754514765711084e-03
-3.158642698407383986e-01
-9.092028934358382941e-02
-1.397521022703584470e-01
5.498832809810898919e-02
-1.400098270677963518e-02
-2.537748319765448582e-02
7.587960144855431834e-03
-2.533895194225353406e-02
1.827736006452477246e-01
-6.744911795607506921e-02
-4.065106308523254441e-02
-7.815778265739008190e-02
-6.920528602373382521e-02
-7.204572997771860332e-02
-1.540967209351319089e-01
-2.881770126052954351e-01
-1.268235569506618032e-01
-6.308722415972969899e-02
-1.792175578568761321e-02
6.813037350960204908e-02
-9.682131707808752652e-02
6.650893908857867520e-02
2.210884897578886329e-02
1.042751554275054005e-01
-9.943217329283998707e-02
4.967489799892602087e-02
8.517664243939960774e-04
-5.488404929614779798e-02
-1.065286689332494707e-01
-4.031184974022160583e-01
-6.166520588075525833e-01
-6.428301339536747483e-02
-1.539047702542054863e-01
1.008611483887819488e-01
6.891478323432738418e-02
5.060471537444396345e-02
1.957836178028902752e-01
2.909453667077932515e-02
5.381583557470762114e-02
7.231672906792038780e-02
-4.292724196531603337e-02
5.612342897723517077e-02
-1.789190359263366503e-01
-3.349886618576004005e-01
-7.635014820330690011e-01
-7.377302927104737451e-01
1.932811759509067825e-03
3.778329139282410321e-02
8.099803609791260406e-02
1.083512935179871406e-01
9.184821385887242950e-02
2.322884736563976538e-02
2.066003845439006170e-01
-3.133660772982073406e-02
3.047810065557924886e-01
1.980576168461325171e-01
2.383207646371086341e-01
1.744340351932702760e-01
-2.318896204442413844e-02
1.373667018021542882e-02
-6.603690242491798423e-02
2.077487648561345546e-01
1.048607000962770708e-01
-4.791391014926448672e-02
-9.158331291958796139e-02
5.613261269614303051e-02
1.031749905785348254e-01
1.763653540241694462e-01
1.294250183847209246e-01
2.036403157811589315e-01
2.499547959510398376e-01
1.876865363937482711e-01
2.648832198243809000e-01
2.875993378267023282e-01
3.532491544298917430e-01
4.680340623621027651e-01
5.751845604886899332e-01
1.633242896727245264e-02
-1.677512160919181761e-01
-2.511320268409313744e-02
5.085804826400322498e-02
-2.922404542967892843e-02
6.465784273716117941e-03
9.747280334259912637e-02
2.478049471132320047e-01
3.218742082514474689e-01
3.048178921159057086e-01
5.184529946678008150e-01
8.598964005117354370e-01
1.261782105958701328e+00
1.364401364790766236e+00
6.691773599936193806e-01
3.781350928477759249e-02
1.394488985099865547e-02
-4.889005866196174943e-02
1.362479388047717066e-01
1.599297287857909949e-02
1.145781496285547540e-01
2.726093398355192710e-01
1.752467211478516973e-01
3.307907993146523840e-01
5.147426079774765073e-01
8.073110034568926618e-01
9.548355816030641430e-01
1.114965476405810341e+00
8.108306283350873445e-01
5.177032533105163647e-01
-1.734372691077010198e-01
3.085985514388740053e-02
4.572755154491998930e-02
-9.571856951430579574e-02
1.853288304751003757e-01
3.622266100524144938e-02
-1.383574701872559154e-01
-1.447321445441596133e-01
3.245202588836769257e-03
-5.297518359186711295e-02
1.234721776330567344e-01
2.514891320176447231e-01
4.380174361537692018e-02
1.975715763714796513e-01
1.633071327761492220e-01
-7.572749926639624207e-02
-1.591539529994328780e-02
-4.331407871695621553e-02
-2.309489237400447204e-01
-1.186743021244597018e-01
-8.897871676716166689e-02
-1.620054519283446182e-01
6.903882334973461543e-02
1.211421033039158796e-01
4.342681980834978139e-02
1.176392798703502218e-01
1.574238895220792800e-01
1.230479944176073315e-01
4.112253831987282976e-02
1.486097411165868826e-02
-1.010973350240700584e-02
-3.645298390175591430e-02
-1.827828596330497712e-01
9.029629847606100712e-02
-2.600909812861365925e-02
7.184483948660767318e-03
1.203009124443647909e-01
-5.061907208932452107e-02
-4.614114344899775816e-02
3.060233038003574990e-02
1.250289979105044802e-01
6.865534792038212319e-02
5.578418602062774900e-02
-1.055431761662524726e-01
3.641614324162621014e-02
-1.338161939014968771e-01
3.491488474706494483e-02
1.110446667016014022e-01
-6.596199904547260517e-02
2.795955941170033543e-02
-1.045310502105190054e-01
4.474075639962193235e-02
-1.381523265685626334e-01
8.736230415761149504e-02
6.690873502369071302e-02
4.748743100911557297e-02
3.555340682309850869e-02
-9.091201166574443271e-02
-2.458880475385735176e-01
1.449275010077501757e-01
-2.442405550344209017e-02
-5.534730211551595197e-02
-2.307694999044630768e-02
-9.494554366328543382e-02
-3.541233618181399007e-02
-9.519057774615757861e-03
-9.542708316352602194e-02
2.345156368134083263e-02
1.788896472076981492e-01
1.159622716706649737e-01
4.287670645683142739e-02
-1.557683029155959298e-01
-8.547951373184971280e-02
-1.958889758326443076e-01
-5.963080002456649931e-02
-9.632404246192681485e-03
1.265436833209915013e-01
4.523081093711193990e-02
2.150946260431571833e-01
4.646520876197846039e-02
2.183902455896072348e-01
-2.550662005145619693e-01
7.675125095931049912e-02
3.612219512705812374e-02
1.230013161454679010e-01
-7.769645234922689658e-02
-1.645681572570177609e-01
-2.189357130661189477e-01
-1.399730897549727460e-01
4.486321443270337161e-02
-3.522273673346987960e-02
-5.328667899988254186e-02
1.477824353366574972e-01
6.248175326184510214e-02
-1.610200426758592179e-02
4.368332750209288906e-02
-7.210736908512922760e-02
2.336921022252743951e-01
3.004772216486255587e-01
2.393539477612963706e-01
2.476885728296841505e-01
-2.914044482300272021e-01
-1.370233060493041000e-01
-1.373367189530719235e-01
-8.090671904034807752e-03
-9.922826407096414780e-02
-2.377530621779900665e-03
1.106199003219462094e-02
9.608108346728737315e-02
1.906860225774196713e-02
-5.177084213735105855e-02
-1.658763732772415844e-01
3.475834047375354618e-01
3.976029717483500203e-01
1.898734711497674088e-01
1.858958629216659816e-02
-1.972596406255971713e-01
-2.114558123835792725e-01
-8.252198200590613042e-02
2.498535995240729318e-03
3.251357307018244713e-02
-1.378748172664720321e-02
-1.309794482345501831e-01
-8.541151293537656286e-03
3.495620892934544338e-02
-2.101393440627845888e-01
-1.893819663125611841e-01
3.879234874673893052e-01
7.979616869407569757e-01
3.484861998295313845e-01
5.124604202942973502e-02
-3.707931532629064053e-01
-2.897656537561510426e-01
7.820280627682922592e-02
-1.069354886207433096e-02
-1.611238195769972847e-01
-9.827875484095928427e-02
-2.996030514913188697e-02
-4.798028136060893817e-02
-7.634518624951168453e-02
-2.376770981915690140e-01
4.516645498381492013e-02
4.569643536701209485e-01
1.473282998770469421e+00
4.020531550521609376e-01
2.973005870956493477e-03
-3.519272245212313743e-01
-2.175568711213095308e-01
-8.781713462269769357e-03
-3.355547591442848560e-02
-2.268950485669953276e-01
-9.901546074244803319e-02
7.617958186694807898e-02
2.261535642215699859e-01
-7.390188129793863470e-02
-4.945690734876302397e-01
1.848822874403932004e-01
7.340438984109656229e-01
1.350978562123681392e+00
1.205671475779653973e-01
-1.855663623527705752e-01
-3.015526963865615140e-01
-4.798389957072547729e-02
1.049549785696316101e-01
-8.333716094819691722e-02
-3.501782604514954711e-01
-1.487089641967354881e-01
1.640252021815437611e-01
4.169847859202377993e-01
-2.667360326550838878e-01
-2.865304153075923788e-01
-6.468694396593470397e-02
8.183860436243083347e-01
8.646561411061128855e-01
2.196680046044466872e-01
-2.687743368729608173e-01
-5.037556489696539547e-02
2.515489278545856092e-02
-9.469130474082995685e-02
6.153713117959459106e-02
-3.540267619386207598e-01
-2.035880988337666897e-01
-1.030421386758379465e-01
9.240484117042416234e-02
-4.040887900742270444e-01
-1.465951404357384302e-01
4.624801423724785032e-02
6.543787850963326269e-01
5.452048579341139956e-01
2.246565022523566157e-01
-2.562423072106839173e-01
8.716086723234400813e-02
-2.463905643706974791e-02
-9.528380701268475417e-02
-4.879423315618541812e-02
-1.691864676638134002e-01
-1.631623938077162717e-01
-2.906559966609064127e-01
-4.180583593834368838e-01
-5.584227363210026995e-01
1.034987667048493376e-01
3.950695726669236074e-01
5.677714125977801896e-01
3.743355556754978108e-01
8.263950816202185468e-02
4.434307571298074652e-02
-1.767936162044819737e-01
-2.050759809926389898e-01
-1.254187609637322509e-01
-1.484133553770626834e-01
-2.202897072727073025e-01
-1.319162231688141285e-01
6.133298154657091522e-03
-1.404954192153408665e-01
-8.989721653694890749e-03
2.651285462817954408e-01
6.350725678607443969e-01
9.957667491845541285e-02
2.850114676507061739e-01
-1.134807393977278478e-01
-6.081451145889461840e-02
9.469027189380631315e-02
1.211917041046421811e-01
-1.019046892482987528e-02
-2.934197141441984291e-01
-2.013374453208333081e-01
-1.141296234819332150e-01
2.063937536790614452e-02
-8.032316774874286025e-02
1.481653147797149135e-02
3.851279923875078337e-02
-1.656517132977798623e-01
1.142761125630431703e-02
-1.337361465776080172e-01
-6.121244400884835041e-02
-1.942058720895303014e-01
-1.491573682385129995e-01
5.209436807588744417e-02
1.105035477125806964e-02
-4.641958602579704385e-02
2.712284830814662429e-02
8.008834423952963799e-02
4.453350156690914774e-02
5.150593801157857254e-02
-2.287415984811090250e-02
8.423745429755927216e-02
5.735552643961326635e-02
2.175335820137723475e-02
-4.461816699405702497e-02
4.494945955118166692e-02
-1.030630190436785804e-01
-2.920844385424404069e-02
-2.248162743668582209e-01
1.768680108026441170e-02
4.356594609935242335e-02
-5.490686743177315698e-02
-6.350168153849489183e-02
-3.083161420301036224e-02
1.962619614285509781e-02
-5.771019126795613741e-02
1.581369369998244373e-02
6.587659787246674670e-02
1.286056970197011276e-02
1.584209934749834228e-03
1.571955236501279551e-01
-2.808293318363944482e-02
-7.284136196586422918e-02
-6.396929141229869276e-02
2.389666747614928657e-03
1.727788725224113364e-01
1.291955184488768676e-03
6.305576064952343740e-02
-1.315923854076066768e-01
-7.190437233559772434e-02
-6.409394258323015958e-02
-1.125700238606683889e-01
1.428358122188177759e-01
-8.392603854927115081e-02
6.153838743976053349e-02
-1.643127543583900937e-02
-3.423411589191258791e-02
-2.488864614736344127e-01
-2.557070703407768875e-01
1.526764435316070312e-01
-6.495106312968079894e-03
-7.677950062804718423e-02
-1.391432088898104068e-02
-2.289225307343759411e-02
4.782349445722810372e-02
-4.609976948905630811e-02
-2.014053616069479691e-01
3.205035129880328543e-02
-1.515650945203403654e-01
-4.727054008648067657e-02
-1.171559158588611066e-01
-1.991869849429337147e-01
-4.261034235892423583e-01
-1.545370878744743159e-01
2.945349611183537553e-01
1.412272933014949439e-01
-5.644638395337141928e-02
-8.478845983178502632e-02
9.262574358244837422e-03
-8.941952195422768479e-02
2.580823282858134282e-02
4.645790484519634472e-02
6.929517094141035560e-02
1.210648903829581458e-01
2.285628035575489048e-02
-1.138049365491992093e-01
-3.048542317679157065e-01
1.316484327040139124e-01
2.928441210825996621e-01
5.274569399731553476e-01
6.838106927116757716e-02
1.612421750313222657e-01
1.215231780447656798e-02
1.785634704694198660e-02
6.091811214898563975e-02
-5.228528564794090311e-02
-3.728916737866576347e-02
9.907985910249186845e-02
1.313112923397782850e-01
-1.161952404376002251e-01
-2.429374105884986590e-01
2.117674215606870913e-01
1.151422091118678853e-01
1.109181845313323977e+00
9.540121403245009901e-01
3.137147289179143539e-01
1.425824503358207040e-01
-1.110857226716302215e-01
6.172558173345677607e-02
8.155076005541671280e-02
-5.741958351425783397e-02
-6.081688076114147301e-02
4.419331484748427463e-03
-2.090146959490185585e-01
-1.982352605454948923e-03
8.267917284961782964e-02
2.277121191728621319e-01
1.617139273055026472e+00
2.280639557138400164e+00
6.837586017089626322e-01
2.954979697467432498e-01
1.402743695584001554e-02
-7.283363038435243519e-02
4.263428499586064541e-02
-3.178117519959597348e-02
-8.910161696160534550e-02
2.470493194227751585e-02
-8.575794653729276740e-03
-1.191064706005013074e-01
-1.223961173303824423e-01
2.624458189605258784e-01
5.248694681177036303e-01
7.164031361000403608e-01
5.255925745562450152e-02
3.895356524983347168e-01
8.744953637072509778e-02
-1.090258153023689405e-03
-3.586856779202665657e-02
2.726526859014663171e-02
-1.975010817687028464e-01
9.759085989001024114e-03
-1.503541320095052591e-01
1.998425082565987582e-02
8.234920467676332123e-02
2.838009193231493810e-01
1.546206412618107429e-01
3.343647000280129400e-01
2.018624852525335855e-01
1.239985640014693163e-01
-1.035242425976721087e-01
-2.075527813544366176e-02
1.175670545139633622e-02
-3.144142983120025870e-03
9.613657844662334973e-02
-6.018398741730129203e-02
1.070994959327537244e-01
1.414183159595634731e-01
-1.171163900838552152e-01
2.242882810149909260e-03
2.475697446967982662e-01
2.648889355326047856e-01
5.588352184670414280e-02
-1.445949068503009638e-01
-2.557788795247263880e-01
-1.017287496188671453e-01
-5.943183377190423833e-02
1.413332139408245321e-02
1.643543590161120616e-01
4.562968046878766032e-02
5.822332964800981669e-02
1.607494399611855418e-01
1.473202837854538094e-01
-7.585878599699301394e-02
1.518972407220955667e-01
2.016373429362032232e-01
9.691946612107658898e-02
-3.260101655296230305e-01
-2.789432328283796836e-01
-2.730762094132015982e-01
-1.434697301718271256e-01
-2.261095485136840888e-02
-9.457869669916443844e-02
-5.189618171478005415e-02
-3.338856179319199535e-02
1.328417069751486324e-01
2.504531624314261518e-02
1.194362832149376691e-01
1.038112549326713624e-01
6.198824011995372057e-02
2.453170338655784044e-01
2.710282725236427478e-02
-9.980317766817456415e-02
-1.644524911448755067e-01
-1.593949204185879653e-01
-9.856167954421915511e-02
-6.596219617241594335e-02
-2.114068407505420855e-01
-1.779837442165368711e-01
-1.258898318836889629e-01
-1.532203782182790242e-01
-9.622143055244690435e-02
8.382327516116730437e-02
1.010351612964913437e-01
1.420880699666178804e-01
2.407676676003903671e-01
1.055340060272959013e-01
-1.245334919056008925e-02
-1.262075569648991313e-01
-1.850337019489375068e-01
-7.079942499509830900e-02
1.796713956330247275e-01
-1.708129137754458293e-01
-8.312081863554961203e-02
3.125121160379341206e-02
1.066844847300371102e-01
-5.672389029952961542e-02
3.032238739508227865e-01
1.633124620730884990e-01
9.094989828761988748e-02
-5.567829027845547230e-02
-6.878106831196220683e-02
-1.820305421239316046e-01
-1.564836328622748185e-01
-9.601275348536159049e-02
7.161999863183360349e-02
3.909082846602331129e-02
-7.479377671422650364e-02
-1.872520451102912820e-01
5.214323412455578594e-02
5.324024559013506436e-02
-7.848976177300466539e-02
1.155541152135145105e-01
9.454886828183005354e-02
-7.684489753984161120e-02
-1.928562151823869086e-01
-5.197146735644701809e-02
-4.687399023730194625e-02
-9.955226907575744077e-02
-2.204448429424139544e-01
-1.969344366113919831e-01
1.884333659868254740e-01
1.473861182232843459e-01
7.072371669218736889e-02
1.127619145582035437e-01
5.073942105297123140e-02
4.829610644437806743e-02
-1.623743014853054056e-01
-1.824956107939963365e-02
-3.558027091516530876e-02
1.808033363950605765e-01
-1.044818138791374640e-01
-1.069587392691838945e-01
-1.176202951075497327e-01
-3.683821984256563931e-01
-1.869657704675596610e-01
-1.076445400673466286e-02
1.412611633104060918e-02
-3.363986363643853977e-02
4.852618854036302304e-02
1.325659005445992411e-01
-6.809481558869891205e-02
7.779755868516168016e-02
1.454300784002002071e-02
-1.267299120179197769e-01
1.234191788266421758e-01
2.135872471995517441e-02
-4.364830158347164646e-02
-5.140843139553402663e-02
-1.403489039910087444e-01
6.021654328513665472e-02
-2.739758660269227264e-02
-1.777863010077515293e-01
-1.814890001696132724e-02
2.105342103702305401e-01
-7.051542489229171984e-02
-1.381156820966372156e-01
1.207263623937066162e-02
-2.275429461944246563e-03
7.912299430688318758e-02
2.993334804593553861e-02
-3.081854087812883544e-02
-4.699989405817863591e-02
-5.275164056384846339e-02
5.461678710736549147e-02
-6.379052389053180283e-02
-5.193797727608016369e-03
-3.761184673645238952e-02
-1.396255690285106155e-01
9.591977130212681057e-02
-1.673436496630744674e-01
5.287506814917149189e-02
9.765938383970093617e-02
-2.382741499511207769e-02
-4.212274815556409785e-02
5.614538675846372784e-02
2.207875778061828970e-02
-4.673147567999706015e-02
5.364793560908084208e-02
-2.984779784405766981e-02
2.240703934037935052e-01
1.719675004436313215e-01
7.522274933316748513e-02
-1.984022786717338366e-02
3.035490267140015033e-02
-2.696538410343132242e-01
5.339714969683274221e-02
-5.808903814070485311e-02
-3.599193551617461267e-02
9.301964544800381263e-02
7.384957964781588280e-02
1.493010456411606179e-01
1.982538442720904459e-01
2.764342299108132547e-02
-4.330867430582213684e-02
2.468570272628816190e-02
4.158224766334476380e-02
8.453207079654358538e-03
-3.335590038014669273e-02
5.832957870092197322e-02
5.802869214979486032e-03
-4.428189410095448829e-03
-6.728038731935630234e-02
-1.204629782022902523e-01
-6.886695659341653120e-02
9.852537260126827123e-02
3.461963636341660461e-02
2.480210236916849040e-02
-1.151242127898905896e-03
1.240622793016134782e-02
1.916528811755853767e-01
1.459220350678847866e-01
-1.688782826939416171e-01
1.615125555720856865e-01
1.605118718488681151e-01
-2.433946215234439880e-01
-8.886740897058857669e-02
6.006615204879482695e-02
-3.679082108491426445e-02
8.247927483929851089e-02
1.852733123830871687e-01
5.107757150989571636e-03
-1.212005135354698587e-01
-1.428740016793702550e-01
-4.298231044365447701e-02
-1.170722172233643193e-01
2.261413931758353979e-01
-2.030958513752374461e-01
8.922126235609910416e-02
-7.052755869186058679e-02
3.787227581077143995e-02
-5.700390060565649342e-02
-6.527978231935913089e-02
-1.099649032126373410e-01
2.517997229978227031e-02
7.204993007183409237e-02
1.210027031536673459e-01
-4.944754656162354822e-02
-2.171202944803521107e-01
1.767023210893410579e-01
4.327780090735312557e-01
3.213960317837675773e-01
1.124540762012063710e-01
7.843726212334629910e-02
1.471227802520201355e-01
-5.172995336479942197e-02
-1.318895893743652070e-01
3.668130189797227936e-02
-1.043296933698227152e-01
3.167870393299418441e-02
1.420191057322028327e-01
-9.065846843271620215e-02
-3.479971726742849825e-01
-1.363779284414645687e-01
7.061198273239380208e-02
6.852435439871881195e-01
5.528390599774357650e-01
1.265883075859122742e-01
1.335209077929113419e-01
1.044470249906524206e-01
1.143225581625860743e-01
1.630955738422873169e-01
-1.699678875716492954e-01
-4.095824310036723093e-01
-2.138077673676029022e-01
-4.727942357641778393e-01
-5.642334640436501569e-01
-3.537164948937798203e-01
-3.475233887277866529e-01
7.481743552969616351e-01
1.077684565925201676e+00
4.036703452992411179e-01
-2.151891691024635650e-02
7.136216828193178013e-03
2.029254942202342593e-01
-3.014851809863772561e-02
1.310034496326942799e-01
-8.972563625694715550e-02
-2.673689588135654271e-01
-1.495343285300883007e-01
-1.167216861732229966e-01
-5.665691728901477847e-02
2.867995834104554442e-02
3.636825469894333640e-01
1.389744690177438180e+00
4.504120040395838687e-01
3.381937047453148493e-01
5.043447385647249759e-02
1.004703042175150024e-01
3.782670814456046832e-02
2.075347846546162292e-02
1.338511896301136650e-01
-5.545473088038798543e-02
1.803089994808481644e-01
2.241884522858517415e-01
4.408265337980030729e-01
2.393409594992305656e-01
3.671559553275873244e-01
1.115687172592958687e+00
2.160787616144392853e-01
3.706738135256242850e-01
-5.576693635025730539e-02
-5.011870231707915568e-02
-7.196590435540765884e-03
1.598959446940099449e-01
3.009888891163470248e-02
1.763053119813125236e-01
8.774931506834754424e-02
4.420817388839453077e-01
4.479046711353270593e-01
5.402657032740517673e-01
7.722353971602532452e-01
9.503429458264948115e-01
2.839096279182474203e-01
2.361116324708906200e-01
-2.569607875196914804e-01
-4.900100673768846837e-01
1.087569324136666848e-01
-2.498278975347749398e-02
1.025909100295926690e-01
5.185996611534030021e-02
2.063796525709581664e-01
3.650311231825920100e-01
4.286698343723943094e-01
3.679802504623856385e-01
5.070764459255371337e-01
4.825904345041004406e-01
1.714829258553113023e-01
-2.401730875248737351e-01
-2.867531014957259150e-01
-4.515029056089893689e-01
-1.541997169554658667e-02
-2.134321624190966826e-01
-5.133338619011863502e-01
-3.165818863321508414e-01
-3.355139754914451128e-02
-6.102590846310128325e-02
1.677066092122539154e-01
1.834446286223721800e-01
-3.384270386614966070e-02
-1.011223647585065590e-02
3.924161217910978466e-02
-1.266894697496336042e-01
1.600632050269808551e-02
6.146254962350467671e-02
1.794248680217381056e-02
3.026888403975872693e-02
-4.212722178903030579e-01
-4.771688381930749290e-01
2.796637942097406904e-01
2.884159526170569920e-01
6.037912615715359532e-01
2.150983617265171399e-01
4.907980442520303022e-02
-8.715276892064795222e-02
-9.622008126774385384e-02
-6.282487976732947788e-02
4.773289459369801924e-02
1.697708003755337217e-02
-7.726514259429109570e-03
-9.412120824079818482e-02
-5.644693410268642603e-02
-5.355907317441336302e-01
1.525619882174042430e-01
2.661963867311992749e-01
9.601197755536149403e-01
8.652822878618797731e-01
2.419071024364640166e-01
-1.768923572593892324e-01
-1.658710121040136987e-02
1.323748703207396904e-01
1.584912433665333076e-01
-1.289751343683758211e-01
5.712327842184878463e-02
-2.008258018318607313e-02
1.056910536909778514e-01
2.426670481181444350e-01
-2.711071276788898365e-01
1.630967821647450189e-01
6.165665637511326125e-01
2.280107463845373328e+00
1.076256168244368733e-01
1.504774493126097568e-01
-3.316227144249562220e-01
-5.462464422851302098e-02
4.860939338929393116e-02
-4.547481402172252885e-03
-1.388155155598402579e-01
7.900879100748882736e-03
8.019843623570579311e-03
-4.697286024912708351e-03
-1.323560045841744564e-03
-2.372723858299516028e-02
4.838532902134036751e-01
1.133130171349086890e+00
4.099308609650951785e-01
2.517153144440728574e-01
-4.462118704917649170e-01
-1.804207306862221916e-01
-1.327140262211614352e-01
-1.011589338613577554e-01
-6.418534112008576764e-02
-1.876571951898934887e-01
4.051161868105809805e-02
9.728686519324411530e-02
-4.780566588757867094e-03
-9.339377191382880472e-02
1.335914738093023635e-01
3.453605744893675777e-01
4.937838965786922052e-01
4.656550271950636866e-01
-1.403395086204285713e-01
-2.853059746020286669e-01
-1.332705858338291693e-01
7.297409466243586634e-03
2.661294716207801645e-03
-1.520456646121618738e-01
-2.168630265852175276e-01
1.435101636307111643e-03
1.443952886957018851e-02
-9.926151520575038356e-02
-2.693615870267267870e-02
1.886529520903908741e-01
3.147081654052098498e-01
3.287863418491028256e-01
3.089713662659665516e-01
-1.376842847831726002e-01
-2.625968494032540970e-02
