-1.856710340351681032e-01
-4.120325520636831246e-02
-7.870265430381057081e-02
-1.149592361349845993e-01
-2.453438733907031821e-02
1.295423465638496086e-01
1.807699524760456034e-01
1.867832224671183566e-02
5.662680342398747346e-02
1.767779340794945475e-01
3.377277313494941868e-02
1.628024818361631376e-02
-1.938877476627827445e-01
-2.428577244795642465e-01
-1.201863606350294794e-01
-1.549126948194488318e-01
-4.195000381240204107e-02
8.963523917357248474e-03
-6.452611991925751023e-02
-1.106549990323300592e-01
-3.842351790843097099e-03
6.094155842300588016e-02
3.628401089608585678e-02
6.515187675357785035e-02
1.348127925780646663e-01
3.234513688612482285e-02
-8.045083368437250942e-03
-1.510654446038035836e-01
6.637907347925833812e-02
1.104286372291526375e-01
-1.213680537796623382e-01
-3.533141257613738734e-02
-6.054077437863945865e-02
-1.040087314799542778e-01
-4.219315199749113648e-02
-5.014645056722737831e-02
-1.901932269674549460e-03
-1.125107767857803365e-01
8.916247382888374540e-02
-1.458382840152680320e-03
-1.469254831608751977e-01
2.704649876630879982e-02
3.346912914269256079e-01
-7.793112054478634754e-02
5.601694344055027641e-02
-1.110733443524641040e-01
-3.792510681809191375e-02
3.578963532928427366e-02
-1.606869220669945031e-01
-1.377819807781917871e-01
-8.453802240485278063e-02
-4.063464337514532954e-03
-8.846871770864876694e-02
-6.757806378155112315e-02
-1.142066935454688764e-01
2.076912079105866157e-02
5.091291466135150490e-02
1.129868510094435979e-01
-6.094245489783316205e-02
8.677704926416077158e-02
-1.328169183021989386e-01
-4.186564506628808607e-02
-1.949013707977649904e-02
-2.211372458203184344e-01
-1.975212971447251609e-01
-1.587840191859960226e-01
-8.232680454474133880e-02
-1.489565452029339709e-01
-2.360598315605978159e-01
-2.407811648085995265e-02
1.910624342360175421e-01
1.989650296380476580e-01
6.527860125480512421e-01
1.860708014076481454e-01
-9.946718187567601954e-02
-1.373066882441963121e-01
-1.230990894725069312e-01
-1.656265846667124009e-01
-1.230073203289526601e-01
-2.060079175234882931e-01
-3.365757480815950720e-01
-3.570268251436313212e-01
-2.243923527169393306e-01
-5.408485594561083382e-02
1.842731484210529680e-01
2.518020731080499175e-01
5.557308713740749528e-01
4.978630378348883334e-01
3.340213043666255266e-01
-1.528641855735928534e-01
-1.702649243929113543e-01
-2.248338820850304676e-01
-2.704797680318601349e-01
-1.352976516640693183e-01
-1.194802820417839861e-01
-2.958466254758513880e-01
-3.481840861521354746e-01
-1.647721293240072826e-01
-2.041822057116209066e-02
4.641996368465864942e-01
5.385828779022985291e-01
7.158806923323499660e-01
8.048488209601144250e-02
-1.596246879268398144e-02
-3.466331378013150499e-01
-2.643554070051545857e-01
-2.383643772489359713e-01
-2.452053559202063138e-01
-9.693310718341462129e-02
-9.549722412325631349e-02
-2.386995569403555506e-01
-3.705468655628121333e-01
-2.270889765138028316e-01
4.626475294408539246e-02
1.918447030617365934e-01
7.077328728976267636e-01
3.106964052581764890e-01
-1.484069774347592241e-01
-3.958933499078484686e-01
-5.582956977443774838e-01
-3.120733732308433317e-01
-2.095172458242181568e-01
-2.157064022140446624e-01
-1.351116627336235443e-01
-1.251649659968340766e-01
-1.607982937723318462e-01
-4.085210241935809949e-01
-4.094212902609710159e-01
-2.386848251628629139e-02
2.195450357651703918e-02
9.903104192342355727e-01
3.417869415660067592e-04
-1.119669491938229955e-01
-7.656938545487607106e-01
-5.543059743914470205e-01
-4.311917802048820803e-01
-3.689649560104792947e-01
-3.612664545680570050e-01
-3.198439135348726814e-01
-2.557419656277282738e-01
-2.744816625039337432e-01
-5.443022984454597424e-01
-3.216268057031897443e-01
-8.379060246723361860e-02
-4.836558856177713972e-02
7.179088544928625693e-01
4.759572149589613721e-02
-1.198932118814729081e-01
-4.304003538534803552e-01
-4.047548883417014798e-01
-4.431982176681393826e-01
-3.823441606090153821e-01
-4.034580755409579167e-01
-4.201836492355931485e-01
-4.567336896058091233e-01
-4.778132705518540746e-01
-6.747053035073533600e-01
-5.049152847385077747e-01
9.908332131708121049e-02
1.741021696751980929e-01
7.691005138256737927e-01
-9.732789465449326327e-02
-1.185348428132885767e-01
-4.204880232736478707e-01
-4.055738714285684887e-01
-3.975668698694628245e-01
-3.649992515166135543e-01
-3.795108025167369670e-01
-4.548407210992712613e-01
-5.048662336507634407e-01
-6.190036433978832742e-01
-8.538789472258035973e-01
-6.314333425661469157e-01
7.075110050939821538e-02
3.510628707877777588e-01
5.996419152179465195e-01
7.215042142128022529e-02
4.014603090195734136e-02
-2.346163051617750350e-01
-2.436214330358270341e-01
-3.782438189575320631e-01
-3.327344732651289494e-01
-3.376164165865208067e-01
-3.450300183500661921e-01
-4.243081912330890493e-01
-6.015847397423290666e-01
-6.907022597070273662e-01
-5.198376313957407957e-01
-2.070070328302354642e-02
4.115572191724211071e-01
6.860028034365648342e-01
3.661299895637143975e-01
2.539801551688906645e-01
-3.461174450372268840e-02
-2.464311628160713863e-01
-2.267012483695960423e-01
-2.651781520424406624e-01
-2.464122629781814733e-01
-1.676032263690533097e-01
-2.946327593324217231e-01
-4.600597921283459679e-01
-4.330919931715795923e-01
-9.403624453821599061e-02
5.510544857491302129e-02
3.911447435992655985e-01
2.435287274415627312e-01
6.433757906595168052e-02
3.035884798932343975e-01
7.648118551282678812e-02
-1.706397706516021573e-01
-5.290601458287706726e-02
-1.562033817447522621e-01
-1.253956585421275860e-01
-8.931194086198482318e-03
-1.388985722546427493e-01
-1.522114140623561374e-01
-2.120907157329893766e-01
4.077529976594612693e-01
3.337145498768307461e-01
2.109318380720751063e-01
3.444782346684179264e-01
1.012655039802623225e-01
-8.878881083667532681e-04
-1.864064854435039734e-02
-2.114184283827669208e-01
-1.841229051649489190e-01
-1.077496597474123657e-01
2.835864649984165542e-02
9.671473437014564689e-02
-4.790651098148432374e-02
5.697990495870813594e-04
-1.129298227195568577e-01
-1.102954304652757067e-01
-1.828521960485402775e-01
-1.917625973422878993e-01
-2.258508912449994910e-01
-2.532279131641319569e-01
-9.440451143952330315e-02
2.537720133377293144e-02
-2.590018547812443853e-02
-2.149168748731553336e-01
-8.817509204699713887e-02
8.657086991593408720e-02
9.782654982386436437e-02
-6.241838704734721521e-02
-1.374800496628519331e-01
-1.672548278234707864e-01
-1.765863100138421182e-01
-2.016776694221723010e-01
-1.831624251878504472e-01
-1.154535251759328668e-01
-1.805982751025543009e-01
-1.969559788866280248e-01
-1.464310697236794190e-01
-1.127571172230144719e-01
-1.394833995623404044e-01
-6.634434443187754715e-02
7.822973106423303236e-02
2.441936859306756760e-02
-1.146283511115943204e-01
-1.845972495661780399e-01
-2.257704383648311552e-01
-3.128417370449957935e-01
-2.058419127867664733e-01
-2.607602301574882819e-01
-1.943178628892304471e-01
-1.675816605807496085e-01
-3.015367606019844771e-01
-2.959805426447414956e-01
-2.648700682909024273e-01
-9.924840724577013718e-02
-7.037329274011910885e-02
-3.229642089949417982e-02
-1.506932957754143210e-01
-3.437960957358128788e-01
-4.210404778833480299e-01
-4.105620277003261265e-01
-4.060866029681520217e-01
-2.813246257385625393e-01
-2.590948678787891035e-01
-5.427805719832969888e-01
-4.508998043940697364e-01
-3.600679341432812541e-01
-2.317871198311525702e-02
9.524144830970879272e-02
-9.661331426779307119e-02
-7.685310032807658731e-02
-1.080163378492758064e-01
-3.077933820083343375e-01
-4.123473111826033710e-01
-3.966526829721483405e-01
-5.080111891648683153e-01
-5.495905581425244435e-01
-4.054750926851974913e-01
-2.660598946534314391e-01
-2.115060914061601682e-01
-4.121776390524067857e-02
5.682432072106097937e-02
2.602109475041968767e-01
-3.718839293833609005e-02
-1.079375693377700590e-01
-6.617977790257469073e-02
-1.555891773913325171e-01
-3.062941180624949578e-01
-4.284746498630908063e-01
-3.000189968632888671e-01
-3.745768334447878156e-01
-4.873893418646155218e-01
4.893336576488224038e-02
1.897024668207161480e-01
2.773211077284807868e-01
5.424037992911993067e-01
2.888349415161483025e-01
3.357443562076524723e-01
1.095903535631843478e-01
-6.360168087024105354e-02
-5.144539164915493817e-02
-1.606226032397754244e-01
-3.830491229800425113e-01
-4.224429163837344903e-01
-2.186231085179488609e-01
-1.227286816350448423e-01
-1.716999977204698991e-01
-5.755595888454956288e-02
2.830742810536485687e-01
4.430303777117832187e-01
3.172593057223696555e-01
4.082459478673240993e-01
1.373386456875549944e-01
5.134381122926998109e-02
-4.956232333706867693e-02
-5.181974874668574677e-02
-1.007013189490020694e-01
-3.429747986874006616e-01
-3.268124482551418852e-01
-2.395335019933625686e-01
1.110655427619520741e-01
6.684459715780079539e-03
4.829588832734199033e-01
3.576366637580890573e-01
-3.532483559763222730e-02
-2.593970227273013629e-01
-1.770389355869194381e-01
-1.437124593615679569e-02
-1.465382812277448571e-02
-4.624365868674830404e-02
-7.625707406112615383e-02
-4.744610106717617876e-02
-1.874644628472511843e-01
-2.261492897793807855e-01
-2.259428304818829683e-02
1.693568632219626113e-01
8.127794932992089827e-02
3.778667239316524928e-01
7.608260431029504993e-04
-3.848394279065857071e-01
-5.145599625651441356e-01
-4.165409503644155187e-01
-2.813536473116429182e-01
-9.566690640234765119e-02
-9.116776811388650759e-02
-6.628241728480400996e-02
2.749467341343755922e-02
-1.543975888002225294e-01
-2.266960830728371179e-01
1.139938500748565592e-01
4.720791633831896567e-02
3.701527829327578845e-01
6.017751035676300875e-01
-4.775455713483327258e-02
-2.335447353406109039e-01
-6.545792300094795957e-01
-5.290668839820905633e-01
-2.764634839214356876e-02
1.349827418652351230e-01
-1.485029024173503687e-01
-9.948654640479519251e-02
-5.844661261009047315e-02
7.599992699295597676e-02
6.375323214445127902e-03
2.507336326640020041e-01
3.039234630739623966e-01
2.569989497503556986e-01
3.833328593925632299e-01
6.817836222643178234e-02
-2.352398707896167507e-01
-4.986991372250505761e-02
-1.020223595923573506e-01
1.624421971301611978e-01
5.842739151214867421e-01
-1.387758367406768112e-01
-1.559692135054817907e-01
5.401401135394508918e-02
2.405062076069865509e-02
1.397627613248183243e-01
1.759225632509217319e-01
2.814784494767652578e-01
5.200022372441881480e-01
4.909785044002069609e-01
1.968044057680340408e-01
1.022632981892689225e-01
1.427377101064351006e-01
3.740478639080208612e-01
1.522465963333553829e-01
2.532571958869473949e-01
-1.676368057681718871e-01
-1.890654664246162742e-01
2.492270600852278251e-01
1.658824086310634396e-02
2.343741482708550372e-01
2.170393664435292247e-01
-8.484877208702090723e-02
1.474716655461282278e-01
5.136484567662933376e-01
3.684694304240009322e-01
3.560196272419551833e-01
5.767316647326748980e-01
5.641579478234733935e-01
2.929461777997955929e-01
5.408977022254136680e-01
-1.908367590836575201e-01
-1.358986996018736459e-01
2.368476520807565322e-01
8.354331646893626770e-03
1.400931112497566522e-01
3.012375245390556122e-01
6.108996289036733307e-02
3.990609643504417631e-02
4.493058606816482392e-01
3.545069531580902766e-01
5.654974182880783129e-01
7.478099676660908690e-01
3.984778946601033600e-01
5.665420121496467232e-01
5.060790519966013035e-01
4.493948615362390597e-02
-5.734624708514271529e-02
9.499049506679951849e-02
-7.943548230838931579e-02
-1.346925889916772145e-01
2.319254361303495215e-01
1.483797786404287278e-01
4.587286073044986034e-01
7.233907363808687874e-02
2.119420503860187099e-01
4.780328619652887134e-01
1.869648287013207788e-01
4.235391944075576065e-01
2.945690681796320209e-01
1.574102884191303231e-01
-1.268851801697544468e-01
-1.939355199433406007e-01
-8.475531573828855303e-02
-2.185094589537394105e-01
8.805939100864786095e-02
-1.378043539991818112e-01
8.430766966011785102e-02
-2.972262202722124602e-01
-1.607810294975249576e-02
2.190626643015606556e-01
2.371792381234274216e-01
2.549915891804992174e-02
-4.569625424394233720e-02
4.169972003945334738e-01
4.959639555360091656e-02
-1.237401752596887505e-01
8.193787107794615887e-02
2.195474739481124635e-02
1.681396552884241447e-02
-8.402491141847354128e-02
7.340307727837558360e-02
2.823835115840063192e-01
6.933393627811915670e-03
3.284356214794137974e-01
1.236369466679128754e-01
2.269352358055017060e-01
6.606207927943446023e-01
3.298854668271060109e-01
3.331020538960424715e-01
3.565013481686946650e-01
-8.926284957424043820e-02
-1.067650409598466660e-01
-4.012077089511068700e-02
6.840395681963749863e-02
-2.621478391580244760e-01
-2.109172647266934209e-01
-2.179678655557084066e-01
-2.063230055275368513e-01
-1.293716382274245069e-01
-2.205943734070165974e-01
-1.998608569615460406e-01
3.295470655296896534e-01
6.631912033415363616e-01
7.278592013306380837e-01
7.155128788244955462e-01
1.644695742435453301e-01
-1.762640828723883168e-01
1.838892082169124031e-01
-3.658036011083372618e-01
-3.095765772689090811e-01
-4.085389566832894892e-01
-3.140189468404593898e-01
-1.292388471197164213e-01
-3.642469027714851926e-01
-2.203844171894970561e-01
1.986422116101369817e-01
-2.456248035028135990e-01
2.818496019480267734e-01
7.117951802323224664e-01
7.062667632464452172e-01
9.579311780842675317e-02
-2.367425589648853024e-01
-1.251666142431858419e-01
-1.332339332997796166e-01
-2.630812564262891007e-01
-4.318081229610000182e-01
-3.173473363392529389e-01
-1.861568741614579026e-01
-4.013655135821814768e-01
-2.273519719002269623e-01
-8.822621629181133518e-02
-9.872610867102293852e-02
-6.641447166001659963e-02
6.050056184598300302e-01
3.927327994360850227e-01
-8.848281768190496832e-03
-1.941103681102101797e-01
-3.303895590613602495e-01
-8.941074874025968511e-02
-4.030630010663865948e-01
-3.526993355421502718e-01
-2.588404343410297126e-01
-2.403096451017682766e-01
-3.883144036189337123e-01
-4.342367035960796873e-01
-4.636883257700378791e-01
2.207798160488810557e-01
1.008187978328930756e-01
6.993322465270012112e-01
1.220251871945653155e-02
-9.228474668823491434e-02
-7.751853221083794543e-02
-3.147869167449574013e-01
-3.193306161813505017e-01
-3.092075194378679504e-01
-4.567777560532999825e-02
-3.367244747305211255e-02
-2.309002416700073890e-01
-4.741411461694377549e-01
-5.622544952290929876e-01
-5.907743700599058512e-01
9.387964703263059277e-03
3.277780816194465485e-01
6.324017079327439728e-01
3.940577134563978678e-03
-2.560564840059490477e-01
-2.463495161564747127e-01
-1.692105816132886131e-01
-8.854934958934153333e-02
1.103269195758918575e-01
6.730967455121589227e-02
-1.385790301355581400e-01
-3.837561790674296480e-01
-4.418458614486255875e-01
-5.913218235838781922e-01
-5.904467927700688401e-01
-1.949493120912104346e-02
3.405628428104737759e-01
4.909965462093234811e-01
-2.064759099784060359e-01
-3.230488083198798654e-02
-1.693130750224515202e-01
4.825455756110551275e-02
1.834043116438044130e-01
1.819356614189484023e-01
-1.630034323225682813e-01
-5.375712545719201207e-01
-3.907050888024644619e-01
-3.394169373431092929e-01
-4.772715256701172692e-01
-3.520166177208315927e-01
-1.194872594644140057e-01
6.406923767859448171e-01
2.722537869904549379e-01
1.106319186653612618e-01
-1.228552643346695061e-01
9.065379029257476795e-02
1.478661463379108421e-01
1.665265845885943452e-01
1.154386859357523221e-01
-1.041489493795279553e-01
-2.984471374362222540e-01
-2.238897786528351030e-01
-2.375403832983287722e-01
-1.755275788573375240e-01
2.699434615751207245e-01
4.351113557842991586e-01
5.264360777059807761e-01
2.092487336162479894e-01
4.651466066065940846e-02
-2.431027163807644720e-01
-1.912761407873823372e-01
-2.350419623913486966e-02
2.920648172702655088e-01
1.278447136385441052e-01
-1.774077848535142790e-02
7.201708769294241919e-02
3.013638972218013468e-02
-2.020406930908699439e-01
2.650765099238267322e-02
3.456121865445207497e-01
4.937860410375395914e-01
2.800124035304735193e-01
4.305670704661165166e-02
3.793086421271344572e-02
4.485645868791931362e-02
-3.208702451275217138e-01
7.514383807486836597e-02
3.657092744416693963e-01
1.326051902469072286e-01
1.923287631697681299e-01
9.719136310426559899e-02
3.308418056477994140e-01
3.377717402221390164e-01
3.959222121929780180e-01
4.428773954960273374e-01
2.154943595504835163e-01
2.018543263249253372e-01
1.087026167277448385e-01
7.808116228484140997e-02
1.459462399366269481e-01
-1.866167186783190268e-01
1.055307371362210478e-01
1.273527949423420569e-01
1.882553800540640587e-01
-1.606655405561311853e-02
2.600267511934568621e-01
4.433406483221730143e-01
4.680813915665408831e-01
4.943785978688084448e-01
3.840623445844670303e-01
1.925599069897893090e-01
-1.727277638789826569e-02
9.793730226086652668e-02
-2.770778583845030507e-01
-1.146119387509020177e-01
1.489130675273007132e-01
1.727365172300437679e-01
-3.208300469600708360e-02
-2.709441987016320691e-02
-1.775394416257422905e-02
-1.831734664994306636e-02
-6.941186504745111389e-03
3.670042945425271985e-01
2.815144474218768122e-01
3.417459503614085903e-01
9.389704229990541995e-02
1.612570260857884227e-02
-1.754169260888407966e-01
-1.761869208651188068e-01
-6.515294729412991759e-02
3.685472865102804585e-01
2.662827785898770339e-01
3.731122245092511336e-01
3.434225167713854110e-01
2.231778927665975520e-01
3.511783448023750309e-01
1.628438814139526458e-01
-1.501260309703701668e-01
-3.198657800089391712e-01
-4.106450788890998460e-01
-1.884978156483613221e-01
-7.149556404331562642e-02
-1.905133690998641466e-02
-2.204969219372759914e-01
-1.388201622719675288e-01
-2.245269803475001824e-01
-2.862069329726579792e-01
-3.953311106194337676e-01
-3.400238157283861917e-01
-4.673048379000740438e-01
-4.928600264228979455e-01
-6.074665495282071115e-01
-4.834408882856189305e-01
-4.034313822330274357e-01
-4.082275116030369411e-01
-2.529823179552581625e-01
-5.180846282359523325e-02
-1.178898641106675658e-02
7.936355325415174466e-02
-5.622527922092133285e-02
-9.408456871957035506e-02
-1.790059730695452433e-01
-1.476393493671522006e-01
-1.239129390099993483e-01
-2.006618560840353893e-01
-1.556179530453027093e-01
1.686343109773416615e-02
-1.921461813354726281e-02
-1.192591025054281217e-01
1.651907405654312877e-01
1.112002677173047072e-01
4.343909310113598654e-02
-3.552360340758143470e-02
1.710254477032003076e-02
-5.675865759646830239e-02
-2.832575882798090139e-01
-5.105542350061333112e-02
-1.053347091867836982e-01
-5.340427094787845996e-02
6.496310706542701707e-02
2.719863401857660831e-02
4.206105203170954626e-02
2.041287771919656491e-01
5.853125145154571829e-01
6.801740781471145025e-01
3.270753157729173188e-01
3.918829798196940550e-01
2.152806891440193215e-01
1.167100529242992291e-01
-9.844520724659076849e-02
-5.959318057561747983e-02
2.390358270326941800e-02
-3.479898789142883697e-02
2.109135689934500124e-01
1.164845001995992585e-01
7.722360055031878279e-01
1.584759909644892995e+00
1.771091678813162762e+00
1.232979894590181758e+00
9.124882658235708988e-01
5.398274319448056469e-01
3.269479358274398062e-01
4.193016951522484104e-01
1.994550852227221505e-01
-1.492734619222753634e-01
-2.627107442210054392e-02
1.052761194660841032e-01
1.309634523255286398e-01
-3.949552601476044589e-02
4.573392558990948542e-01
9.095373495249630125e-01
5.892911817854007417e-01
1.120381934151460507e-01
1.029186460556446268e-02
5.575449851331890083e-02
3.865936370496836361e-01
1.857326983432546486e-01
3.647860153665452021e-01
1.344490240474536247e-01
-1.632851867192413875e-01
-9.685150440872833388e-02
-1.288086029547133582e-01
1.913794823190699268e-01
2.308988134230112732e-01
1.928015460424973848e-01
3.169874479782837373e-02
-2.255225400557219484e-01
-2.344604310332574770e-01
-1.081075740996997742e-01
2.393410402355136413e-01
-1.302933880854764692e-01
2.639714070252234257e-01
4.675018778738674330e-01
7.292252612992972290e-03
8.118391477045276694e-02
-7.581174701647340475e-02
-1.558782149842439790e-01
2.722153413781437381e-01
3.799650256295748485e-01
1.811974958030094507e-01
5.556176370090253752e-02
-1.917481143525034404e-01
-5.652819265126103332e-01
-3.474129754891446820e-01
-3.337522064867608496e-01
-2.526841861031666747e-01
2.043297553180842829e-01
1.602591029818297430e-01
1.404981417476495187e-01
6.474203264843500852e-03
-4.405455402030113848e-02
6.215339563161177000e-02
-4.010937592021335957e-02
1.442954597503749159e-01
8.817915462331087084e-02
-8.877300546350145108e-03
-2.592465353781691628e-01
-4.068383935382296479e-01
-2.414766044481852017e-02
1.759173533922974916e-02
2.581501666581353938e-01
1.859690603159626365e-01
3.369133091361324328e-01
3.905819762041412568e-02
-1.573616340801839986e-01
-1.223341894299701388e-01
7.857122282283367232e-02
-1.324464567332184484e-01
-1.928405466548410996e-01
-8.788427746396290652e-02
-6.944010494943993368e-03
1.549130025307728920e-01
2.129599963389733897e-01
1.094418868611155421e-01
-4.187121363161794285e-03
1.493232560730548830e-01
3.042372122864981376e-01
1.679123039990794153e-01
3.639600051685170506e-02
-1.884491113893441983e-01
2.029750231700020238e-02
6.325165128469442677e-02
-5.467224264290003466e-02
1.744850607528874997e-02
-8.812587153081513636e-02
-2.134604357617647108e-01
6.585744780054995917e-02
-1.201194875756497228e-02
8.439967639110722286e-02
2.430181483654209051e-01
2.498580783778922010e-01
1.775899483620059227e-01
3.170779778868506593e-01
1.382270296247631314e-02
-2.326949061470053037e-01
-5.936442019050697239e-02
1.485035633417670919e-01
1.459680127416756457e-01
-1.556483331923327607e-01
5.505403329109803678e-02
-2.480279899823336909e-01
-8.680834370219850382e-02
-1.558080069074605639e-02
9.940403309701259515e-02
1.329207717223185314e-01
3.084708716686646590e-01
1.954502705103288440e-01
-4.705045115305841325e-02
2.089427431317665285e-01
-2.541433970405265752e-01
-1.537756852491326820e-01
-1.170938832117891792e-01
-2.310972223539332557e-02
-2.924606949025150282e-01
-9.526006828843887331e-02
-4.577866496629603987e-02
-1.566803983830050151e-01
1.455737281722970823e-02
-7.667431394282654689e-02
1.193824105788214018e-01
2.656322051121835521e-03
1.508637350182536752e-01
-9.277011081151516347e-02
6.912907907586496314e-02
-3.856608006792686810e-02
-4.179522890089355791e-02
-8.007510020442352994e-02
-1.747243138509645966e-01
-1.596166532020635853e-01
-7.525969413271763053e-02
-1.371911964790478028e-02
-9.374021007525452920e-02
1.365852219676413626e-01
4.975219642124391051e-01
1.742499814095109234e-01
1.700530509441292859e-01
2.500486081548865952e-02
-5.408714339894361151e-03
-1.137535662199464226e-01
1.579112053336051424e-01
-4.062576110430642096e-03
-2.926089363738544266e-02
-1.617676141928152123e-01
6.230856934462934878e-03
-4.553984621258609644e-02
-1.345727418153880584e-01
-1.816440162206529596e-01
7.493074034101758485e-02
7.512302263366107957e-02
2.255745972230956131e-01
2.112747270402139371e-03
1.782841604652778411e-01
-7.750398679585186745e-02
1.639029766898663920e-01
1.925869380364623462e-01
-1.681187434523681232e-02
-1.379166151763545900e-01
-6.340130773300099720e-02
-1.604345368012867201e-01
8.447288047274011114e-02
-1.097687129496203867e-01
-1.003573744886643443e-01
4.361956659231849831e-03
7.469050278459156422e-02
1.587280125839515138e-02
-1.201503334642183285e-01
1.965739044756587284e-01
-8.807345402822522318e-02
-1.576529226118675298e-01
-1.163681912535767388e-01
-1.780938584310092498e-01
-1.256043108866603808e-01
-1.093272775666497831e-01
-1.648545230614549550e-01
-1.188436055967092703e-01
-1.436689410662313759e-01
-1.651765368258715228e-01
-5.760180686010293177e-02
-6.026462720997899413e-04
-3.980789445484784334e-02
1.503827873024494392e-03
-3.639888822891616110e-02
-1.509604171295232944e-01
-2.559199122806635543e-02
-4.861634001231440738e-02
-8.225046252446846506e-02
-1.538263272123731595e-01
-1.984809289944895194e-01
-1.622480308393978166e-01
-1.409651511638996546e-01
-2.259307508242281159e-01
-1.811270308738870682e-01
-9.579636342774541791e-02
2.924711152436991479e-02
1.156477865890792600e-01
-9.832304638741903857e-02
-2.072990340887626848e-01
-1.110924961260560118e-01
-3.895018127333996910e-02
-1.065397554503360877e-01
-1.543460305474672889e-01
-1.752297304888205398e-01
-1.890391146317567106e-01
-1.454563399811681923e-01
-1.649461061199929135e-01
-9.929264094448783662e-02
-4.653737436352062967e-02
-7.083136981704976631e-02
-4.564453860655634000e-03
-8.052000691641618413e-02
-7.629272806403740448e-02
-1.561572720943889547e-01
-1.365991844101640262e-01
-5.055233181038355089e-02
-1.672352614048920605e-01
-2.580035093118094314e-01
-2.270742452571233583e-01
-1.840901332919939459e-01
-2.132415846606582066e-01
-1.758385371094004779e-01
-4.739750640716881153e-02
-1.756695178884750130e-01
-6.638653214257916879e-02
-1.030265369536899067e-01
-7.985006963413858461e-02
-1.396988519930234818e-01
-6.895931473262874312e-02
-2.141953163739936800e-03
-7.043163389644194194e-02
-1.016419143098816064e-01
-2.485919335844202216e-01
-2.483565558517638605e-01
-2.969277744719970302e-01
-3.244941245706390864e-01
-2.846086360615014965e-01
-1.266102726482394025e-01
-2.664072912676811455e-01
-2.936623769523125094e-01
-2.839158896877946869e-01
-2.300174193374478759e-01
-3.714832971226141867e-01
-1.011599780364729195e-01
1.945001797028054480e-01
1.920437433010506179e-01
-3.265267564619053764e-02
-2.150141574117839238e-01
-2.985597494160092125e-01
-3.392119496174037518e-01
-3.001008886082178195e-01
-1.643911895193349015e-01
-1.317325309737871486e-01
-2.440750542693725100e-01
-4.632993571496368639e-03
1.089800741510676269e-01
-1.856843378884050211e-02
1.491985663758539638e-01
9.975421840720560818e-02
2.650415719540480386e-01
1.112342962005576502e-01
-2.575963474813149773e-02
-5.434072271188800096e-02
-1.793504365282367619e-01
-2.933087350536519033e-01
-3.325419390538187359e-01
1.217915333829489022e-01
1.091235553780133330e-02
3.787336224504360502e-03
7.080741893270649234e-02
2.654351193186905711e-01
4.069268958942673375e-01
4.671137642668077294e-01
7.144680065084970666e-01
5.176934861648629926e-01
2.439510604664365256e-01
-5.002937585663368852e-02
-9.371595938880757093e-02
-2.250036852467774892e-02
-1.262729587133248066e-01
1.438405708936352050e-02
2.519896240008037691e-01
2.152421916386010325e-01
2.621575768176662713e-01
5.409406833223313615e-01
9.138308173067519746e-01
1.352608250783175148e+00
1.347383533040347858e+00
8.073510673536891113e-01
6.156046181951081442e-01
3.539470456387540653e-01
-9.765098102445403383e-02
-1.656381516660974385e-01
-1.093111324857498068e-01
-3.848742777207855847e-02
-1.237509500367973553e-01
2.970615928835602590e-02
2.788405794521233924e-02
3.153982682814829297e-01
4.645017439011886462e-01
4.957220916534518240e-01
2.286355048688007152e-01
3.019259320378004929e-01
3.408902888808453824e-01
2.751474024600080726e-01
1.475202771007407265e-01
-1.461084305726275401e-01
-1.529039149629896066e-01
-2.092395685232392721e-01
-2.438626540317362021e-02
1.492464181961175931e-02
8.645303363276797548e-03
2.285187280039174262e-01
2.596974436047420620e-01
9.893712665960650160e-03
1.196372016687835410e-01
-2.074700357671962862e-03
1.718326187128527416e-01
2.049145754393672803e-01
3.934943117693462944e-01
3.065017130243100629e-01
-1.084394463187272617e-01
-1.844820875524021409e-01
-1.748775451617219368e-01
-1.033957540179594181e-01
5.459294060613718857e-02
3.192301373037070289e-01
-1.144606542427530765e-01
-1.651174004879297497e-01
-2.308071077741358779e-01
-9.058404416690331307e-02
2.789276592664035118e-02
2.288688006283617349e-01
1.875596470515832892e-01
2.673255577920368165e-01
3.754267908349720462e-02
-1.322399290868245536e-01
-1.815964963161158796e-01
-2.494912723044840352e-01
-2.630742738541159698e-01
-2.532454243587367038e-01
-5.244314884679515676e-02
1.912422518291835658e-03
-2.193060004626166959e-01
-2.736875525626772943e-01
-2.818743555943533097e-01
-1.551194842261208462e-01
-2.261776365492778329e-01
-3.284308196201793373e-02
6.375202162718147936e-02
1.179505510606687763e-01
-3.411906201789872278e-02
-1.089077711711258223e-01
-1.879337252807698200e-01
-1.405504391237892732e-02
-1.206133676680381656e-01
-3.365549875086649156e-01
-4.968171921482981701e-01
-7.072260472906133355e-01
-7.106946563426126406e-01
-4.809513943097835642e-01
-1.467218448067078573e-01
-3.691643882818896882e-01
-1.700128539500947444e-01
3.096762351268760316e-01
2.916080079931432922e-01
-1.435162180681541846e-02
5.695361570662355738e-02
-8.503958411563856956e-02
-1.992360138492287880e-01
-1.096548631089336173e-01
-3.147604133523854708e-01
-5.154877149858058116e-01
-7.304758169654594901e-01
-7.307386151154535714e-01
-5.349082898797603569e-01
-3.230427863402990929e-01
-2.814801820144208211e-01
4.094887645405687060e-02
4.046746188836417013e-01
4.720150879105277086e-01
1.266046272305012821e-01
1.947082315275586173e-01
5.916826451070908433e-02
3.760672045655138324e-02
1.243414155635494678e-01
5.172548615989969178e-02
-1.410059462663681706e-01
-2.325861855004813517e-01
-2.575228334330927349e-01
-1.415377933363196339e-01
-2.036811495753362844e-02
-2.563416319892746764e-01
1.250640252307644862e-01
4.884370664470638612e-01
3.476731706542295908e-01
5.092249431733663484e-02
1.783228209151592469e-01
5.927729565647257837e-02
8.324704486241407686e-02
-3.503030303467236095e-01
-4.174765302578938714e-02
-5.666901137598861354e-03
-7.920979057197605200e-02
2.125425870746018020e-01
-2.076484680862520846e-03
6.767281006651058861e-02
2.816784142855647821e-01
4.704270295385664657e-01
1.611990203030036761e-01
2.888133813520881582e-02
2.750561600843419614e-03
1.432720473079139578e-01
-7.974906758373484505e-02
-9.936061754676170366e-02
-2.547235395605499386e-01
4.352768874186242753e-02
9.726382497511756875e-02
3.311781547024856831e-01
2.575710890045390111e-01
1.703563369199010136e-01
1.646437621584551925e-01
-2.099487764001218559e-01
-1.001885442874968224e-01
-8.254976478322333111e-02
1.630362580986886301e-01
9.303897735200450381e-02
-1.948436176362926819e-01
6.155614694844364562e-03
-1.844280442982655921e-01
-3.820692317217806999e-01
2.553817612680106194e-02
2.792947454139598374e-03
6.668449357066522643e-01
5.901077513980969025e-01
1.025021380193966575e-01
-2.087015334152717283e-01
-2.393712944610819904e-01
1.624821929010681829e-02
5.282765647920828478e-02
1.284925039347742382e-01
1.131341866334650420e-01
-8.896748064352395791e-02
1.028955098964886572e-01
-2.618904435450531420e-01
-5.440279073944360999e-02
1.589846706850098212e-01
1.856801188054493512e-01
9.062275590538261261e-01
4.413594977417698711e-03
-1.117943833108289015e-01
-1.449900865307462029e-03
1.223572532263646484e-01
1.090117118761792930e-01
2.059639586045966253e-01
4.822674651183242456e-02
2.940437556207994158e-02
-9.406140620394207175e-02
-4.885186995299155288e-02
-1.926186658825867759e-01
-1.881546812182632589e-01
-3.139578720329149614e-02
9.255891234650497346e-01
1.405384522645341527e-01
-6.990816717505848876e-02
-1.825560791415559159e-01
-1.514877748947579539e-01
1.307867306858854217e-01
-6.194424701153012497e-02
-2.004705965773011522e-01
-9.294842889334192781e-02
-1.572852714574464114e-02
-1.795567622537404540e-01
-1.747526923399444210e-01
4.616375430397331309e-02
-1.915710531309177955e-01
4.082149826412572180e-01
1.247666671405928795e+00
-1.389523768069625687e-01
-7.462608826523134398e-02
-4.698957749177684606e-01
-9.597875244371133208e-02
-1.429012973248323850e-03
3.051166349292655164e-02
-7.959815841232932565e-03
-2.517516999856649895e-01
-1.893098045966966000e-02
-1.076233115363751935e-01
1.034461184813916142e-02
-1.163255422575661946e-01
-1.493246270006805265e-01
1.188523948598478652e+00
3.647151398788224252e-01
2.115651726200229177e-01
-3.897790225459338842e-01
-3.255324360413087703e-01
-1.196957846906506334e-01
-2.001787110383111967e-01
-1.491541500733722936e-01
-1.195721933773100792e-01
-7.938121082378249427e-02
-4.279733284670105831e-01
-4.381542496230830808e-01
1.266746210488087394e-02
-7.918701268011274497e-02
5.741295388945309996e-01
1.000724129796572104e+00
5.620845165376641556e-02
-2.231826660619095071e-01
-3.470752517127954073e-01
-5.214765787039964823e-02
-1.814146223799959212e-01
-1.942111761690040739e-01
-2.148330278738037336e-01
-1.276394812063547657e-01
-2.342440228916422423e-02
-3.426033928796517469e-01
-3.806146383023124163e-02
2.810537107472434529e-02
4.187322363448599261e-02
1.388207334649753433e+00
1.302759115470665530e-01
2.101371827377597201e-01
-3.192777100348657693e-01
-3.662977484766988256e-01
-2.799266013833998090e-01
-3.360533753732976026e-01
-2.696077907042151445e-01
-1.084595655593563884e-01
-8.603436897140144535e-02
-2.286044048458562017e-01
7.944609083287923479e-02
3.415868141073077346e-01
3.218714773495399140e-01
6.748179661683894048e-01
3.688149972265310494e-01
1.591569360247193921e-01
-1.530181367175271201e-01
-2.812928836580571579e-01
-4.912488384919607709e-01
-3.110426693520945696e-01
-2.231749184432476329e-01
-2.487895479841669422e-01
-2.914135331427139541e-01
-1.890275334023944487e-01
-3.583832500321207370e-02
1.501088310447296348e-01
2.293257095535642942e-01
5.788706860388497244e-01
4.787279832749634645e-01
-7.883619669182487244e-02
-2.407166608883349324e-01
-2.982942567481338680e-01
-1.004208881555625626e-01
-3.109023303352742573e-01
-9.064934137894192778e-02
4.476604252906243864e-02
-1.380787625772211535e-01
-2.557269092211960637e-01
-6.645539780348087844e-02
-7.171885796648809486e-02
8.907627452087068728e-03
1.124171910521466894e-01
1.843207994334402355e-01
2.848350861294169922e-01
-1.558809370774133507e-01
-3.107464121499619036e-01
4.309409269972850655e-03
-3.619397289361956510e-02
-3.077804813739772050e-02
2.254911098848084647e-02
1.127548938254165772e-02
-1.708374142602656909e-01
-1.472179424635791933e-01
-7.029845681309805638e-02
-4.308514050271133183e-02
1.109379733045378624e-01
1.222772517924785966e-03
2.897698797149972361e-01
1.916054490314745840e-01
1.062387771648792834e-01
-1.098734434893396811e-01
2.299871840412183455e-02
-1.840591576304388688e-01
-1.454786380043859295e-01
-2.043575068564264241e-01
-1.339478879721900939e-01
-1.713120258596771972e-01
-2.276584274085913517e-01
-7.752463721926625140e-02
4.635612378949106145e-04
2.048683563091709681e-01
-4.445235639515408149e-02
3.508273734988204828e-01
3.393840384894392659e-01
3.113763900605373558e-01
1.059773171145100661e-02
-1.513182964404961306e-01
-2.665443995175769687e-01
-2.286979362783241876e-01
-2.185743183622967933e-01
-2.014186194266863184e-01
-3.631996566567540774e-01
-1.273449098496424459e-01
6.448129541424593714e-02
3.766143876474799257e-02
1.180548682561233798e-01
-1.050845082677535208e-01
1.375223762293378837e-01
3.966603816230158119e-01
1.831319569214485410e-01
2.008865427371690493e-01
-7.286754618598467736e-02
-1.263414429962380486e-02
-7.210349607134687588e-02
2.839992906081389296e-02
-1.041067375354272351e-02
-1.446669730164886758e-01
-6.427890036577185717e-02
-1.986245378924025307e-01
-2.988853420816805495e-01
5.451549399011497155e-01
-1.836837043285430848e-01
1.476085790958632793e-01
2.497130491027658161e-01
1.045600989606520065e-01
-4.185332637832286061e-03
-1.919395979881888259e-01
-2.237751184805057345e-02
-1.681855944401034197e-01
2.362331822974689521e-01
-1.621950260779458086e-01
-2.678129797727266115e-01
-1.349396575620040728e-01
2.064342594078905080e-01
1.817055000227283390e-01
1.864278653467199842e-01
2.095992542154711535e-01
1.782053565449275012e-01
2.202891139644111151e-01
2.696272492165036061e-01
2.039967012225753218e-01
1.834774876704019786e-01
-1.304453029162891964e-01
8.771538279873260235e-02
7.488678376053073404e-02
4.431277381843038571e-02
6.789909581044908937e-02
-4.220945348054099822e-01
-1.342722809131054740e-01
-1.992931213117000999e-01
1.941099251471637699e-01
4.610871024243437533e-01
1.957472544850912821e-01
1.074787329193182123e-01
-1.074128526176559018e-01
-5.694105042579687692e-02
-2.911361361514901505e-02
-8.646203018055104161e-02
-1.259970423078775603e-01
5.215388122742292687e-02
1.455022816805641439e-01
4.664847013768854134e-01
-1.965450688599824913e-01
-1.809597743954551863e-01
-5.458959278247494523e-02
3.187256429872402652e-01
3.537318589934309587e-01
3.096203355784273303e-01
3.280751768365289811e-01
8.796138509250803206e-02
-7.694756475791673933e-02
5.044689754965318330e-03
-1.242698266511735594e-01
7.793807145360540090e-02
5.190705964191498489e-02
1.401979845690566606e-01
2.219798147306810965e-01
9.396869258785676970e-02
5.772248026865644394e-02
-1.059922197311650577e-01
6.954560939762101379e-02
2.412296220264742719e-01
4.053956885372148600e-01
-1.090451048146880708e-01
-3.530076567148111022e-01
-1.316305598002642518e-01
-6.611090191715070057e-03
1.509450265852463335e-01
1.707157715353482541e-01
-1.895364558503822849e-01
6.499827095296692447e-02
2.796458226321864027e-01
1.420645986438126007e-01
1.066639010318596592e-01
-1.293109562611907126e-01
-1.513993157421667304e-02
5.786731271386829079e-01
3.942416880686787639e-01
-3.424554886364815642e-01
-3.561800651022340447e-01
-1.598193130258734052e-01
4.689385745968131791e-02
2.976225762571594116e-02
1.548622054784969670e-01
1.017524756247942946e-01
2.643306345788613565e-01
3.855624775046857522e-01
1.626503369601565441e-01
1.481125653025982813e-01
-1.686136894645539064e-01
3.006212994022847140e-01
7.261036957541749937e-01
-8.744743982285464734e-02
-3.850801704166643136e-01
-4.491058319095359019e-01
-2.010305355868562960e-01
-1.613147805643118937e-01
-2.306199712695949366e-01
-5.072245478350252690e-02
7.328968234617495858e-02
2.540380197556873498e-01
3.063084205815945760e-01
9.818001342614497695e-02
-6.854388997095145486e-02
-1.424922170237790386e-01
3.133469182421641519e-01
3.033839471025636114e-01
-2.083727284334728480e-01
-3.775616424393274939e-01
-2.744472451230925980e-01
-1.882288429005450903e-01
-3.652746453367884949e-01
-3.241435814352494060e-01
-3.997626574670081617e-02
3.286390342272502152e-01
1.339573587623698048e-01
4.832653265489224026e-01
-4.709477474650422546e-02
-1.708659572037874164e-01
9.092025770305092736e-02
2.464525740680867105e-01
1.233433047454510351e-01
-2.878312725001128669e-01
-2.685902361051414333e-01
-2.904573754954704601e-01
-8.399154741614553443e-02
-1.828834922531456519e-01
-4.733009242278259920e-01
-1.210828739119098468e-01
8.920255706728920375e-02
2.914892108872530266e-02
1.982106540861884314e-01
-1.030689968805710566e-02
-6.441936675179715799e-02
-1.958228839803841381e-01
3.714827462598368490e-01
5.643478682339977404e-01
-9.998748260315670072e-03
-1.490599098171663250e-02
-1.823086685942769958e-01
-9.708114963676310952e-03
-1.067046276692839024e-01
-2.327778931366777104e-01
-8.804581858513188530e-02
3.315888622915911799e-01
3.467842108380207455e-01
2.846963571333611109e-01
2.968051092009839631e-01
-1.415678331140183821e-01
-7.368850518337012601e-02
4.095989738500503408e-01
6.887544671444145727e-01
2.573526015312492254e-01
-2.826310218400051033e-01
1.237314038078499989e-01
-3.130287679621731461e-02
-8.765159733704996903e-02
1.100274931891713076e-01
2.579841552126880266e-01
4.793753483075937072e-01
2.870376688420582800e-01
4.529642915852815643e-01
-2.350394475154521032e-02
3.432343934176942946e-02
-1.992069931745316658e-01
1.221996997347971209e-01
5.671976043110910082e-01
1.866718553342088527e-01
-4.177486783714370877e-02
1.310526690000624050e-01
3.949290550714685821e-01
5.067229180668288979e-01
6.053816248616482598e-01
5.543998765506570336e-01
5.270995034103506116e-01
2.745025792711277557e-01
-8.778629676434906992e-02
5.689855858760251017e-02
-8.158038615641802216e-02
-1.875664143401377659e-01
3.589614884925815264e-01
3.328157000412220179e-01
5.197181657192175841e-01
9.875857055044032773e-01
7.435537926958881716e-01
8.633225594105320422e-01
6.616519397479816433e-01
4.394866040267382812e-01
2.693050024890932814e-01
1.410039936332299071e-01
1.386653746001244858e-01
-1.567067872340738993e-02
5.832712983540188495e-02
-3.769819434854070755e-02
-1.642473292247584038e-01
3.139396082650739994e-01
5.427458403914852125e-01
5.891761820165823949e-01
3.736104001099020966e-01
-6.177826261323218250e-03
-2.204925093334350605e-01
-1.272707069940903768e-02
-2.982770771083238515e-01
1.357416186887458742e-01
3.543908385932247745e-02
1.715125438178530248e-01
2.004595975675511899e-01
-7.847646985678156939e-03
8.546723423671488511e-04
-9.240052490498704141e-02
1.360484183661796187e-01
2.561030943442956231e-01
9.356883685294649367e-02
1.567955605079204007e-01
2.184117462277736510e-01
-4.694966487402713745e-02
1.580744997389013917e-01
8.783828949215833140e-03
-2.520231058371636967e-01
-3.419320694043208042e-01
-4.636905088998297120e-01
-2.156612214099859759e-01
-2.486518769884742686e-01
-1.946575591301229202e-01
-1.477427516634908788e-01
-2.421150539079645336e-01
-1.819909396524694578e-01
-2.474216510049233042e-01
-3.395945504231677181e-01
-3.357797552875867453e-01
-2.778096643344595829e-01
-2.003718518811504201e-01
-1.717180790335409435e-01
-1.077301791650090573e-01
-3.232454463335424077e-02
-1.591386347049759398e-01
-2.314684154916182568e-01
-2.727455153609756322e-01
-2.482050733120633457e-01
-1.805664773112977961e-01
-1.399632048224883629e-01
-7.174707813633852960e-02
-9.321762924001374129e-02
-1.776612073205282583e-01
-9.230280009163041588e-02
-6.552426022858931498e-02
-1.023264501710969554e-01
-1.213768808502437568e-01
-3.782689865932946371e-02
3.737889789441267013e-02
-5.023237651576243495e-02
-5.055355629136758927e-02
-1.105706160898820983e-01
-1.995480648773645116e-01
-8.574077393415974191e-02
-1.078072722013140583e-01
-1.403967232590308256e-01
-1.674733886165446772e-01
-1.526099640510684419e-01
-1.470453793534639286e-01
-7.906278383058049086e-02
-7.018008430249601803e-02
6.481818405083258905e-02
2.372576576961671086e-03
-1.233212802820005533e-01
-2.109305448828850682e-01
-9.094840704993925606e-02
3.707193819926710154e-02
-2.975002459252772957e-01
-1.805134547322335276e-02
-1.447011473568013129e-01
-2.088153471709121856e-01
-1.190008908141855226e-01
-9.647572793588582440e-02
-6.099252943731141990e-02
-1.099146358399078066e-01
-1.279350488304450140e-01
-9.045490326295884190e-03
4.712468271791601937e-02
3.017222077495979385e-02
-1.495666930639148740e-01
-1.040904892051140451e-01
-4.955776502941162953e-02
4.521197667902676631e-02
-3.771253797410092229e-02
-2.356363227426136187e-01
-2.410099284988730106e-01
-1.461062732527464159e-01
-8.407117210677651775e-02
8.943461423661541732e-02
1.407507831390065328e-02
-4.271171136624844072e-02
-1.160345710619637288e-01
-1.585585840969828408e-01
-2.222804438361031254e-02
1.546872703625399236e-04
1.375113727504245487e-01
3.273813708272623191e-01
2.362995875883880381e-01
5.232471105267311184e-02
-2.713325914162521002e-01
-2.578299881067790955e-01
-2.174224481401985376e-01
-1.195672464318342787e-01
-1.760801728353315054e-01
-2.005839469678109277e-01
-2.398409642647033602e-01
-3.179787416814026657e-01
-2.966297698305119246e-01
-3.818124599917269713e-01
-5.982672983009029721e-02
3.860825387421312760e-02
1.155395788256571715e-01
1.449936105898253225e-01
3.816960103123433895e-02
-2.956120894429781210e-01
-3.357835778461831788e-01
-3.359969928702164488e-01
-3.284505651742267718e-01
-3.896886117640691038e-01
-4.103597639986121259e-01
-4.476529929760244553e-01
-4.631555266654701075e-01
-3.639216829332569403e-01
-2.294644862456644563e-01
-1.154376250441124380e-01
4.091231378053751533e-02
2.552740641794441490e-01
-1.427911548464565472e-01
1.317898232799316616e-02
-3.524031569286630861e-01
-3.657608738826364503e-01
-3.337534497388370824e-01
-3.227026006064357411e-01
-4.435171869684084167e-01
-4.489077194231679280e-01
-5.015966051401886672e-01
-4.569533085849613596e-01
-2.572771004776319703e-01
-1.055321271296396080e-01
-1.430359168066261122e-01
2.833710509992981921e-02
-4.752612308280153991e-02
-5.554611131847080052e-02
3.530947873812869710e-03
-3.397619599138277380e-01
-3.580510678370169564e-01
-3.152493000192044259e-01
-2.865483402071593022e-01
-4.178116132769142399e-01
-4.615187842641083615e-01
-5.227749327802285739e-01
-4.955673555511974082e-01
-2.291576430066882275e-01
-2.000183817568998990e-01
-3.577300223876861973e-01
-3.374429008895457049e-01
1.108504762922111336e-01
3.336528885260452437e-01
-1.156536488630172978e-02
-3.447509922292999462e-01
-3.562633541433339879e-01
-3.336844889266176173e-01
-2.482982692616528542e-01
-3.275238235653832874e-01
-3.860602151025164797e-01
-5.034536414224715095e-01
-4.987292686474201764e-01
-3.331362607943400556e-01
-2.036411013977108830e-01
-1.964899169866534123e-01
-1.200806701439950108e-01
5.900713243673291197e-01
4.342721374715378668e-01
1.244457686338937552e-01
-3.344176508268231762e-01
-3.394366233556412871e-01
-3.309215555755264382e-01
-2.603199233173284499e-01
-2.818362961910505504e-01
-3.280799411971075941e-01
-3.925322606409706871e-01
-3.797487901109012354e-01
-1.560542312447844859e-01
-5.036582967395016874e-01
-1.367306651322888582e-02
3.766775041418759518e-01
1.615458336205045642e+00
4.252022404481416440e-01
6.516971786108217979e-02
-2.759927700566591202e-01
-2.961766756504464748e-01
-3.303103904921116385e-01
-3.010553221602348950e-01
-2.920681981639701719e-01
-3.382278954595493992e-01
-3.505022890348934994e-01
-2.486217935206496421e-01
-3.275492677526739560e-01
-4.656938020836569603e-01
2.860975898782063820e-01
9.885035209556956026e-01
1.461464785753022522e+00
3.331223895477931629e-01
4.508349614027174629e-02
-1.931142226421879160e-01
-2.436729156301723209e-01
-2.644229609316960383e-01
-2.308733290096720847e-01
-2.486637345789675935e-01
-3.072375280941413989e-01
-2.880914440369843343e-01
-1.895630543005541735e-01
-1.794670669806935626e-01
-2.075534421278446284e-01
2.784112151603447896e-02
7.197490643314083947e-01
5.858659755345497766e-01
2.005583833470858668e-01
-2.447034044398766484e-01
-1.538793349134735533e-01
-1.631465083962686524e-01
-2.053000709197573270e-01
-2.402058247136344693e-01
-2.443610706031316415e-01
-2.869207827295863211e-01
-2.090852716311582538e-01
-2.741732717740134051e-01
-2.698243018065366594e-01
-2.248004560319682987e-01
6.775103162973360182e-02
1.981834634635171732e-01
1.044517049287024407e-01
-1.165980782555978840e-01
-2.338519103834366952e-01
-2.031913698517318623e-01
-2.076853635299283352e-01
-1.138418742235415143e-01
-1.344047799606180593e-01
-1.155695833489631119e-01
-1.460200606546596946e-01
-1.485745951027045986e-01
-3.194019880682373302e-01
-1.316602200710876858e-01
8.643850613303773883e-03
4.807280814613410294e-03
-1.010443992629885268e-01
-8.067332950723579699e-02
-1.080687661620477122e-02
6.432074182941022178e-02
-2.232240577085271571e-01
-2.319811713871086645e-01
-2.495956366723713071e-01
-3.356150729656754983e-01
-3.556167101243409845e-01
-2.806789800704107551e-01
-3.206699227969164734e-01
-3.002428426878845924e-01
-2.490263951235566764e-01
-2.068351873516519335e-01
-1.185555154290444668e-01
3.409437460104216416e-02
5.658938972671973683e-02
2.878682199304441469e-02
-5.436032020683095878e-02
-1.544917071502333039e-01
-1.910472040277495509e-01
-3.036660842566897833e-01
-3.738902487623185777e-01
-1.878350178936226134e-01
-2.553901284103251013e-01
-3.723659536953232707e-01
-3.635172993677149300e-01
-2.409513583446621088e-01
-1.439880656313406448e-01
-5.716297170738704470e-02
3.103342972498545835e-02
8.731765706226048140e-02
7.937422708847927111e-02
-2.337107408999316779e-02
-1.468854788271320433e-01
-2.110272275329995728e-01
-3.738454486431815882e-01
-4.855782677168911099e-01
-3.675536168230328915e-01
-3.110777177396938376e-01
-2.895509536441337461e-01
-1.306693451176019760e-01
-1.126310044921891712e-02
-1.432780631178965855e-02
3.173377346469237470e-02
4.061034239845772581e-02
-1.160987188899327560e-02
4.501807589900889278e-02
-3.795702103543494715e-02
-1.370585010984189944e-01
-2.084604711630623219e-01
-3.879395828939101731e-01
-4.155170405418716073e-01
-2.976890536944477028e-01
-1.823937295583661078e-01
-1.259847564642157802e-01
-9.132949914909264943e-02
-7.609820012688156554e-02
-1.451775954756493459e-01
5.293933865466602696e-03
8.367371177789673098e-02
-2.273030672841830704e-02
2.391555065313269446e-02
8.086185637242282453e-02
-9.578794125840625617e-02
-2.212115621309665159e-01
-2.840482853416261277e-01
-1.983951164049360394e-01
-1.462963161094160691e-01
-1.017886412133826579e-01
-4.037130032014039221e-02
-1.597606853654428005e-01
-1.190406665493191074e-01
-1.760807884953957403e-01
-1.120038316732582251e-01
6.899835731088313495e-02
-6.699121906680653715e-02
4.459888728049175161e-02
1.561979060435805290e-02
-1.272564484955371888e-01
-2.534455144172145791e-01
-2.743424171427205072e-01
-1.706632899209455656e-01
-2.321834385790218502e-01
-1.885221559234437350e-01
-1.656775990338241467e-01
-2.527195365995205667e-01
-7.034312977206647055e-02
-4.793572675870417382e-02
4.688944298336852467e-05
6.515288230242526069e-02
1.103642193220391449e-01
1.793549600472550132e-01
2.203666569007115827e-01
-2.388001162231487284e-01
-3.601552789555257927e-01
-3.059283575789678022e-01
-2.559998794558843160e-01
-2.690043582868145711e-01
-3.442929534659606161e-01
-3.506953167075251288e-01
-2.793252893343309284e-01
-1.606053307201271152e-01
-2.462645882068175418e-01
-2.243009200207907727e-01
-4.617403099288584084e-02
8.875058313532116494e-02
1.055746286173699306e-03
1.448906731185482244e-01
-2.990027260412962962e-01
-3.864769953039044470e-01
-4.003812667023981531e-01
-4.184978523076827162e-01
-4.551043262062592909e-01
-4.023615915893550832e-01
-2.619083874043992566e-01
-3.201380538444574819e-01
-4.008615635494946483e-01
-2.850166336227102915e-01
-2.591652190156705227e-01
-1.000758030363109730e-01
-1.491535099944958920e-01
-5.655652444318311212e-02
2.656526800985546666e-02
-3.055373103950455027e-01
-3.965191188694018321e-01
-4.534722242160755812e-01
-4.347718827876614345e-01
-3.873790922143657833e-01
-4.089475996205255703e-01
-4.555333110773187588e-01
-6.138646897612112241e-01
-4.671264593402510434e-01
-2.716003693351781156e-01
-3.451120116887212985e-01
-3.877461979896246747e-01
-4.403623680082344727e-01
-1.159639945349523193e-01
1.330737491227333980e-01
-3.067429454973032432e-01
-4.002047016441631633e-01
-4.234702300382285900e-01
-4.069484454880833990e-01
-3.968593128841492734e-01
-4.704811050626294122e-01
-4.850824309504195853e-01
-6.509278809779421859e-01
-2.942225381874467582e-01
-1.421527856214505892e-01
-4.969307167657840418e-01
-8.603299990702876210e-01
-7.001164076149980486e-01
-2.232376523083640651e-01
6.193793910355599452e-02
-2.657820726474083850e-01
-3.650374277394471956e-01
-3.698048517907502331e-01
-3.698590388035536414e-01
-3.871408484889812818e-01
-3.423687192773993138e-01
-4.881810297760328377e-01
-5.960149034860572348e-01
-3.358128934170300783e-01
-5.439359338038450842e-01
-8.099052268109376840e-01
-1.205528277479128940e+00
-5.064132359646712489e-01
1.645230070491389140e-01
1.893705090762549392e-01
-1.702370242644877518e-01
-2.463061937220242525e-01
-2.858964673479347796e-01
-3.104147790045523880e-01
-3.404605760013341142e-01
-2.952192048313458383e-01
-4.275936473214628220e-01
-4.424064556565073802e-01
-3.466912115333475319e-01
-4.703109571705735847e-01
-6.620072143139021925e-01
-8.089849907744057766e-01
-1.752418103347037071e-01
8.742131470331307441e-02
3.230255790938328375e-01
-9.622426269568727653e-02
-1.296762547452428582e-01
-1.653947777264051511e-01
-2.254083440095943636e-01
-2.278423026522166939e-01
-1.769307719045777882e-01
-1.904144208998933552e-01
-9.022181725721824253e-02
-1.621802844477703842e-01
-1.708506546471305620e-01
-4.085473790403584271e-01
-3.288642574586071454e-01
3.346858528857812442e-03
3.470091710563105170e-01
4.543952833054236695e-01
-2.972058590276260501e-02
-3.883016361102918645e-02
-5.785565982137029495e-02
-1.364613377278680040e-01
-7.226708607773305038e-02
-1.854357945582448819e-01
-6.171026402087917417e-02
-3.285743581768725552e-02
2.662149048608205507e-03
2.018620987712762063e-02
5.516403815168562097e-02
-6.866776653141538900e-02
2.992023365143207658e-01
4.623907866013236001e-01
3.030286193381535598e-01
-2.450693545244049878e-02
3.274255218324863964e-02
-5.661560932208099285e-03
-7.315520718425438940e-02
-3.559188210686773518e-02
-6.843743196651755345e-02
-2.256980387201992788e-02
-1.648906687156922179e-01
-1.313904766344916319e-01
1.227464756502643500e-02
1.170281008239451304e-01
2.354540629258604079e-01
1.585525854554910297e-01
2.918235891051361719e-01
4.552805801997098500e-01
-2.777476233419211293e-02
1.535275448840711376e-01
1.076326371628882062e-01
9.565585204646324946e-02
8.665118144888617202e-02
-1.701843125499557796e-01
-1.218276876777180107e-01
-1.566654657990341759e-01
-3.906038757090977975e-02
-1.855128698588030811e-01
-2.172988827282824609e-01
1.001617558151884566e-02
4.110180274057717575e-02
7.819105703606370195e-02
1.675509583431798177e-01
2.177795782677190428e-01
2.044109182376830369e-01
2.952377134172571860e-01
3.913121623444862363e-01
4.840998421303457921e-01
1.289833771112928931e-03
-1.931533218409282604e-01
-4.099557433029750175e-01
-2.100027731863705616e-01
-1.776428026680054728e-01
-1.600342947099661906e-01
-4.670768228832637703e-02
-6.466826220436228123e-02
-6.066895965337546111e-03
1.107828675938093282e-02
3.264314264022218914e-01
1.736364736430746902e-01
3.685566567448976261e-01
2.051447509677236103e-01
-2.455546179556062584e-03
-3.875395039442683376e-02
-2.627933625705504705e-01
-2.105532773615591269e-01
-5.121093105474741614e-02
-1.709518929425652423e-01
-1.070695718521337270e-01
-9.025520186347618656e-02
-5.518664201234139283e-02
-6.796947142181836155e-02
-6.675142552698162812e-02
1.771017457814857143e-01
2.929619184715847036e-01
2.509771838390771337e-01
8.298122693412113282e-02
1.082555311867064093e-02
-3.549337440936983223e-01
-3.653678846935067281e-01
-2.282805938786781064e-01
-3.035701603597665832e-01
-2.644324356532484210e-01
-1.691553758910075422e-01
-1.598333193996109569e-01
-1.280416536021635465e-01
-1.529038809301493107e-01
-1.969791091234429359e-01
1.579148354527081799e-01
5.654474878749994327e-01
1.951538303009189290e-01
2.979272772518806733e-01
-2.246590446553269893e-01
-5.106968398189000169e-01
-3.154334879733668995e-01
-4.228039987927433851e-01
-6.198721778435756224e-01
-4.340493580707333598e-01
-3.367746263852408051e-01
-3.037283024829270928e-01
-2.154190973068411397e-01
-2.038849423742847000e-01
-2.535741367652814549e-01
5.996616645668283868e-02
2.773969461729585695e-01
7.246209848464996162e-02
2.000104036614361314e-01
-3.447452155722225964e-01
-2.253563354760236004e-01
1.646480177031940384e-01
-2.703882360855063838e-01
-4.265849415570283076e-01
-3.638268429370808410e-01
-2.338691367251959363e-01
-2.566703323361611555e-01
-3.002017848679429113e-01
-2.553122938393279640e-01
-3.270374921209865948e-01
4.997867482613299606e-02
1.611619609770446604e-01
1.797288298731757050e-01
1.330197545531863201e-01
-3.784702832498934577e-01
-1.522159020891358239e-01
3.885039201156513522e-02
-1.469505918383509080e-01
-2.185767375322582307e-01
-1.383556580481180576e-01
-1.601869079737833212e-01
-1.835716738359464972e-01
-3.508633192619424190e-01
-2.985459667519417826e-01
-3.896763106957990552e-01
1.493155885763491064e-01
2.205564950178594552e-01
3.599732121481610814e-02
-1.474054543159538655e-01
-5.784972820262016674e-02
2.988716705496647155e-02
-7.292198662560615829e-02
-2.118939499359903111e-01
-1.621312069031466130e-01
-6.600134522335815435e-02
-1.640361112708885460e-01
-2.001182766015766334e-01
-3.093038976701922849e-01
-3.237535562492138141e-01
-4.454675999276326293e-01
2.035883217983500693e-01
2.188361334017529247e-01
2.219206928749141439e-01
-1.170730869469269048e-01
1.604904456580933669e-01
9.341332442284111526e-02
-1.591517324086948737e-01
-2.286914866322300455e-01
-1.453982886942209451e-01
-2.745349921480585431e-01
-2.958775148806782607e-01
-3.707197493622098050e-01
-3.516371949031221189e-01
-3.199375171036831222e-01
-4.559753855504742881e-01
-1.155265227468744715e-01
2.119182671319442823e-01
5.249173063546215372e-03
8.261702852940421005e-02
1.093854072990776694e-01
-9.892821379607141807e-02
-2.827355558121717460e-01
-3.042099617416590407e-01
-1.827443045787459086e-01
-2.582691524046787368e-01
-3.021849097525289296e-01
-2.635359240216795795e-01
-2.690496815048953327e-01
-3.445400205646627634e-01
-4.391543599175883883e-01
-3.099094631758700022e-02
7.036399762839636030e-02
-2.350052321583449289e-01
4.568776095336997065e-03
-2.921586634489111226e-02
-3.592014492143744686e-01
-3.033278394164038438e-01
-3.690224106663976267e-01
-3.691064575933994951e-01
-3.326161595035323493e-01
-2.540732860623901024e-01
-2.699759323819059254e-01
-2.854691614419684331e-01
-3.118980361075988084e-01
-4.085976716435063549e-01
1.251766069211886212e-02
-1.780520622302791678e-01
-2.566246007950827930e-04
-1.434921953209946921e-01
-2.920512540406600688e-01
-4.341274718088896090e-01
-4.225835087189845907e-01
-4.271570069887756782e-01
-3.879764155423069405e-01
-4.303533258657636917e-01
-4.012863177371903123e-01
-3.558124711373735205e-01
-2.975016930199216314e-01
-3.096244384112452064e-01
-3.941916077105023786e-01
-7.121833984730407963e-02
-7.877806471413786871e-02
-9.523193587715769737e-02
-3.235177267340452745e-01
-3.782858470959852837e-01
-4.806700928925306537e-01
-4.554261876925469466e-01
-3.690468874646431474e-01
-3.499125435109594617e-01
-3.535832615558662795e-01
-3.514070740339089172e-01
-3.298429896962857266e-01
-3.303855672315725300e-01
-3.618713376922793046e-01
-4.452840113360929108e-01
3.020045770435043735e-04
-8.330208310930850568e-02
-4.225204402967602801e-01
-6.255561034579787405e-01
-5.597646802348439365e-01
-5.342013065807369454e-01
-4.066160992531845375e-01
-3.459028309111161770e-01
-3.590395561424727378e-01
-3.501971266982962794e-01
-3.420784525299568890e-01
-3.521135576580271542e-01
-3.936715422321995228e-01
-4.247266791073565639e-01
-5.147068198891489033e-01
-1.816488068008388357e-01
-1.318601184353917766e-01
-2.239563094143108279e-01
-3.347748219833714400e-01
-3.320104897078368089e-01
-2.969756688737967831e-01
-2.472794423672451947e-01
-2.945004528371115704e-01
-3.581816238241820050e-01
-4.012376343524790556e-01
-4.114344246989754539e-01
-4.178382798869110792e-01
-4.620802662661683824e-01
-5.384355138148546605e-01
-6.167036148774135418e-01
1.334016387552531546e-01
1.376993126972074211e-01
-5.348324177212131908e-02
-3.022220433718189048e-01
5.258536594419421784e-02
-2.258148673438229240e-02
1.437250922073705917e-01
-5.960919660569051481e-02
-1.881388192703425111e-01
4.652610310380124459e-02
-3.214570623698440044e-01
-3.887356120558468908e-02
1.949087265915480649e-01
1.420207519063441393e-01
3.912557785517938730e-02
1.229013972769303076e-01
-5.504793424464636542e-02
-2.754672973638303546e-01
3.531219306651826179e-02
2.117148880671298472e-01
-7.533260313043074925e-03
2.871707776227274689e-01
3.678180150173641638e-01
3.150879313206152443e-01
1.993143853132744170e-01
-1.062541856958277575e-01
-1.702288502584421992e-01
5.515850471623388873e-02
-1.715987729645223614e-01
-2.310212770166355234e-01
-7.227891090754613723e-02
-1.111042248733211391e-01
-5.234224527801186605e-02
-6.147208788433004140e-02
-2.323555908446301443e-01
2.685055176797921384e-01
1.271186895648725446e-01
6.957230102778145797e-01
5.104871113879803080e-01
-1.626522116494590053e-02
-2.257999492504851324e-01
-1.519256550197836397e-01
-6.012125486052136147e-02
-1.433902440422847036e-01
-2.914921697944821144e-01
3.075448768353776785e-01
1.408015992521347570e-01
8.289375150262112690e-02
6.499637838089068753e-02
5.772901353504744648e-02
6.541047484668358059e-02
3.149571888604911774e-01
5.401378511825878359e-01
2.099554862516201104e-01
2.350876275178109820e-01
-2.879636047171876823e-01
-1.517756901073845366e-01
-3.448960688670338337e-02
-1.725305185034752692e-02
-2.413552487414120928e-01
4.762113945635163686e-02
2.417278844627147039e-01
-1.184176242491657011e-01
1.182778530337124656e-01
8.501445474143817793e-02
5.248545874894491314e-01
6.626720442455430460e-01
3.007528998559815814e-01
3.015320763282604011e-01
4.792985961510769048e-03
-2.731961430889968678e-01
2.133795008055759668e-01
-1.104993194592368000e-01
-3.745537970095272895e-01
-2.190702435506899637e-01
4.196611179206054532e-01
4.504663371704478725e-01
2.209357129527565744e-01
2.297232152197170862e-01
5.617648402627907211e-01
5.316599805673595247e-01
4.010093212436398047e-01
2.350000016690980201e-02
4.119198362550805514e-01
2.576891842415985345e-01
1.971876321201616877e-02
1.281746812682957870e-01
-2.082339103654678725e-01
-2.936124565008524923e-01
-2.741672573156576642e-01
4.344123214187550763e-01
6.659831731511183239e-01
3.817961926777442283e-01
8.465793134438892587e-01
2.426993215172775498e-01
-9.279466327015399238e-03
3.173458671654902918e-01
5.646453590455130511e-02
2.460494629976551773e-01
-1.226173988495031786e-01
1.227261541965167929e-01
-2.844227844329558913e-02
-1.116372841624159451e-01
-1.557565896083163981e-01
-2.300073116946895202e-01
4.878563507615710226e-01
7.593586768227859052e-01
9.212215741238003464e-01
4.518014910514997484e-01
3.088125447418734598e-02
-1.740687995890524420e-01
6.790001970127129693e-02
2.061253862511737422e-01
1.349135461280562276e-01
7.560243397549873401e-02
8.231806244588163457e-02
2.766376746434485653e-02
-4.920560389367149151e-02
-4.631427383449177732e-02
-6.104957523356368404e-02
4.518607694243754747e-01
5.237232033295956546e-01
2.989151303379616320e-01
1.442981997636348934e-01
2.381929685130799723e-01
6.237681771313248469e-02
1.549697161548901914e-02
-2.438965611265324351e-02
-1.525351341180254117e-01
-8.459068514407958039e-02
-1.004748099948482853e-01
-1.466639269160487924e-01
-7.073542790817172188e-02
-2.258534689696580638e-02
3.651612017630622917e-03
3.422201352552852183e-01
7.745345006457114191e-04
5.490968783406243022e-04
1.487463359853591904e-01
-6.108455240687477028e-02
-1.837792539841594935e-02
2.429394147277900637e-02
-7.461147055883418644e-02
-2.390493551935027050e-01
2.691762640709440685e-02
-1.138928955685209604e-01
-8.662031104321571418e-02
-3.519048490797562628e-02
-5.986793438992786542e-02
-2.256942850473780127e-01
2.278017579509027668e-01
-1.159560640866769132e-01
-1.806006219264148227e-01
-2.377519738328188748e-01
5.736215703126944232e-02
-1.298729909949442596e-01
2.602879491690493485e-02
2.204379041776812972e-02
-2.427093036664450254e-01
-7.359952695649160659e-02
-8.867945584895331468e-02
-6.474223164903977756e-02
-1.585520704606057374e-01
-1.547876331820081663e-01
-2.311666505470345578e-01
8.154146181988801770e-03
-3.652821407292694555e-01
-6.303776546218688992e-01
-3.356790230942199305e-01
-2.309256294333101034e-01
-6.262428108921443137e-02
1.187849399824093301e-02
-6.810730505420162229e-02
-3.796122711104991110e-01
-2.165973707456016750e-01
-1.728233382912428839e-01
-3.542776328446656242e-01
-3.440498539211661599e-01
-3.314390951466983370e-01
-2.599377339417947019e-01
1.049409314921869313e-01
-8.842254457623566211e-02
-1.497600669350359071e-01
-2.288295738153976744e-01
-1.889487544233888205e-01
-5.455957926572314876e-02
3.870626665385808879e-02
-1.602583028793657383e-01
-2.639534103913642182e-01
-3.067580574932980420e-01
-2.277441879055946694e-01
-3.206731071581213621e-01
-3.293918498033383546e-01
-3.277884626178192984e-01
-3.082349600179942195e-01
4.016969715492006709e-02
-2.181745592589387772e-01
-3.302302876260126419e-01
-1.897380558870063461e-01
-7.895234333516883141e-02
-1.927980501680164604e-01
-2.817031565914555058e-01
-2.749751806789927366e-01
-2.859017860315403725e-01
-3.155138459477013768e-01
-2.832978039008869908e-01
-3.108786962853852809e-01
-2.807065348503198221e-01
-3.219870640755633784e-01
-3.191106335038139119e-01
2.001203716661844115e-02
4.989918973441799521e-02
-1.251253426583727180e-01
-2.885362354292127507e-01
-4.447138051133042169e-01
-4.190477962681359303e-01
-4.416511434183993945e-01
-4.345687070308154598e-01
-3.245250633257865669e-01
-4.319957697893518356e-01
-4.015481984060592646e-01
-3.653356044356182997e-01
-4.022741379333866774e-01
-3.911520344388355608e-01
-3.295040058574617015e-01
4.108520936743440682e-02
7.497397787173970540e-02
2.930236567193531538e-01
2.764233910162786079e-01
-5.087321078636243554e-02
-7.113179563525297289e-02
4.261948055293972304e-02
3.435331368048443607e-02
2.501086362492895288e-01
1.796525602922727227e-01
1.090562643300292817e-01
6.438582071818561847e-02
-1.244592375941273726e-01
-9.207099905810407769e-02
2.356107462467496236e-02
4.468337689526555301e-02
1.336685549700287468e-01
9.790781787220631527e-02
5.982641352049588440e-02
-3.416244430353680001e-02
-1.911460804631557112e-02
-6.719600594548348627e-02
-3.317604489701556775e-02
9.746826241183444151e-02
1.979484568285235779e-01
2.021126953344687671e-01
7.495823079915640841e-02
1.180046524046123868e-01
1.470950667766459663e-01
-6.421573811390786368e-02
-5.598322523459509092e-02
-1.395846371885258765e-02
-8.995860332728705666e-02
-2.114846392274004894e-01
-1.908942596652626611e-01
-2.803611629642485670e-01
-5.079253368312131034e-01
-9.836201230290224362e-02
1.443199439499664449e-01
8.137953312197370170e-01
8.015831059795004432e-01
2.012450164332994229e-01
9.398249633692828953e-02
-7.473795067135369230e-02
-9.349982655255660580e-02
4.176873149075788216e-02
-2.163530912823679875e-01
6.962338579421929741e-02
-3.066822262168467442e-02
-3.088154027620970687e-01
-3.164561431161717064e-01
-3.744480765888631435e-01
1.382590040357354888e-01
2.188781701663866375e-01
1.730790542140762556e+00
3.557786435580185258e-01
1.441784684312790998e-01
-1.563965205110394996e-01
-2.222037899178196108e-01
-1.592217973669727560e-01
-4.750263183934363975e-02
-1.155688670149158243e-01
-8.886692618409791980e-03
1.027386592319736863e-01
6.929458399827927162e-02
-1.787601615595878213e-01
-3.938075351808487667e-01
-7.769971245427872986e-02
9.136464752929294164e-01
1.162872461923448730e+00
1.802646965253520694e-01
3.858805503318695623e-02
-2.733357006821569013e-01
-2.290314363232744954e-01
-2.214064597181233940e-01
1.229070055791668392e-01
-3.933108429675905710e-02
-1.223762923057794827e-01
1.114540912266094586e-01
-4.179781222046027173e-02
-3.381397170951791487e-01
-5.910022155481841483e-02
-3.785625211344490620e-02
1.206837965058366047e+00
1.539404252180840704e-01
-6.170312627432447683e-02
-2.226622098303494002e-01
-1.497420102072981041e-01
7.348289887481010418e-02
6.446069925566698389e-02
1.439884507494894050e-01
2.980116233230503675e-02
-4.183768499584202688e-02
8.660406149718195834e-02
9.299513695989410772e-03
7.455925947288011280e-02
1.199435069038169190e-02
6.293090200700114378e-01
4.955243955504995967e-01
-2.610333819766578189e-01
-3.357543553160371452e-01
-3.502697835671270132e-01
-2.356828636231066976e-01
-8.460519760630318131e-02
-1.499767930437347421e-02
2.798376278292580635e-02
9.193054941135650471e-02
1.576898780072895634e-01
6.082733212272005419e-02
-5.497830314671626334e-02
1.436127658204581770e-01
3.203029692061140632e-01
8.664454432128042560e-01
-2.023420979877592063e-01
-1.699040498274805577e-01
-2.352964712394603197e-01
-3.006948850431366282e-01
-1.899195340482752459e-01
-1.316207443659513088e-01
-8.294857361863580691e-02
1.234363910332228753e-01
2.138895116857081891e-01
3.915230207060332000e-03
-2.024744659103786537e-01
4.704985630875588819e-03
2.686404826860577244e-01
8.754949056426595266e-01
1.680698132705219505e-01
-1.948435396398612018e-01
-6.168048916138697433e-04
-1.128480424173693708e-01
-1.845297028949602069e-01
-2.503353243204215484e-01
-2.605598035411556546e-01
-2.774226704305245428e-01
4.102807290077805091e-01
5.347561408079595097e-02
-9.132592741026869521e-02
5.069845250435699863e-02
1.637827193682147020e-01
5.714747845815287830e-01
6.320980586710011062e-01
-1.884928335980998459e-01
-1.890704781930612616e-02
-1.331314831882169369e-01
-1.582515966048457512e-01
-1.702978709651194189e-01
-2.669603936243375442e-01
-2.952244323480727739e-01
-2.866533024525911855e-01
1.232382510229926981e-01
1.354889803771214263e-01
2.299760019785336007e-01
2.670562162011217988e-01
2.247027734013253564e-01
6.804283212313919638e-01
9.982461775315409902e-02
7.963112333437867563e-02
-1.932489981433103965e-01
-2.439245488403044004e-01
-2.313530949810732040e-01
-1.694611587087697657e-01
-2.140436803421400802e-01
-1.674362257908351692e-01
-7.732743791950780210e-02
2.674053396365430046e-01
1.902169391619821792e-01
8.405158439275502158e-02
5.629225051847056016e-02
1.377821256289385975e-03
1.803620970434608728e-01
8.038645402805412454e-02
4.763872114371778960e-02
-1.607826685016663926e-01
-1.736705409664182631e-01
-2.985697883425026955e-01
-1.863265338232227286e-01
-1.330281898893482806e-01
-1.202278173782139470e-01
-1.103494155775227720e-01
2.167377515735951776e-01
1.308957012430818079e-01
-2.798113076897544224e-02
7.400224500706444053e-02
1.404264127461564426e-01
-1.379958272981880729e-01
-6.546083456975453421e-03
-7.507764953148786391e-02
-2.119585202664412971e-01
-2.417579544205706865e-01
-2.753186788275929775e-01
-1.920660716079680141e-01
-9.767191935472956110e-02
-5.980046773351585521e-02
-4.926451048101070096e-02
-1.134743732928318038e-01
5.725472894132513368e-02
2.212700168019811897e-01
3.534387346131157015e-01
1.485339459926880712e-01
3.150615056034133249e-02
9.830533297454641106e-02
-3.447704128072502372e-01
-2.376870863254685606e-01
-2.186848488100109900e-01
-2.375264729918104001e-01
-1.366850662921941240e-01
-4.571293987296454892e-02
1.678915314139871329e-02
-2.010311752802494342e-02
1.686722634312404767e-01
4.111094921130957480e-02
7.369744392750629536e-02
3.171939401241615220e-01
7.625436015758170483e-02
1.883270882942559288e-01
-5.660203279648919061e-02
-1.206208162491157337e-01
-1.892174946597749707e-01
-2.379835927087478875e-01
-2.646959465035066961e-01
-2.188503938206678712e-01
-1.617398497599084328e-01
-4.065098782928566051e-02
-2.862802001400214374e-02
-3.542737397925561638e-01
-3.288391721294329217e-01
-3.004968974678778881e-01
-2.809215082257126572e-01
-2.946069932810795877e-01
-3.016400906391615289e-01
-2.747643465068007051e-01
-2.990826340694600627e-01
-3.594819107519964807e-01
-4.011810231155881201e-01
-2.412029801795870787e-01
5.289171079096435107e-02
-1.544789111633857945e-02
1.725275586257198068e-01
-9.827086985513307227e-02
-3.787468654055078932e-01
-3.340829909951096854e-01
-3.134158941387574226e-01
-3.203521669244546177e-01
-3.846896730686410470e-01
-4.018921257349356568e-01
-3.278235856179915753e-01
-2.637929236295331048e-01
-2.918001003453146169e-01
-2.408613967594142868e-01
-7.249471887101505141e-02
1.731086966618858303e-01
1.177917579665719965e-02
2.367098129944004981e-01
3.146097808471224888e-01
-3.645127508708256858e-01
-3.414102987719322413e-01
-3.527485882902495207e-01
-3.836380575368346646e-01
-3.750206535258419627e-01
-3.386306967945362234e-01
-3.158154505525586631e-01
-5.275741908550156678e-01
-9.885839026778930894e-02
1.140580422360001484e-01
4.647490647734326547e-02
2.484594975978622056e-01
1.621797699833218420e-01
1.604677310742999297e-01
3.515888169527846552e-01
-3.477596930817056231e-01
-3.574289025594829527e-01
-3.653404019679095116e-01
-3.864773583535945911e-01
-3.411747623214213543e-01
-3.968862051623148202e-01
-4.177971497781167720e-01
-2.896155040643708656e-01
-4.910396279791423568e-02
2.903933411576808954e-01
6.958786743305689360e-01
7.849150721096267436e-01
6.837444214534272868e-01
2.648598157899771377e-01
2.989457184684826685e-01
-3.359245267892574383e-01
-3.644562675629915982e-01
-3.979732715325734471e-01
-4.358478958123653269e-01
-2.783304774838708529e-01
-4.618851473566644716e-01
-4.174089767119105177e-01
7.743675054320459106e-02
1.502144711720032610e-01
9.785179763182447754e-01
1.063728846048789478e+00
1.501881545862374379e-01
-2.552820345616900813e-02
8.601652064259415753e-02
2.233498840403572161e-01
-3.335163275070469613e-01
-3.854272957192349525e-01
-4.550450744575370021e-01
-5.274517497236255181e-01
-2.573430223344590484e-01
-2.679736384639997970e-01
-1.225654243389571324e-02
1.310303143852115382e-01
7.529437198899769923e-01
7.714131094199276895e-01
2.339549522946423599e-01
1.464235627942079288e-01
-1.710722052727524645e-01
2.040128498835933751e-02
1.803882190236354432e-01
-3.133945557355853340e-01
-3.706360007412404234e-01
-4.477262982743730468e-01
-4.541756241374991787e-01
-4.128440552315704171e-01
5.011206250807721113e-02
2.587949440874486862e-01
3.657436433842906065e-01
3.174066130078161962e-01
-3.251856956378485625e-02
-1.520996501909555043e-01
-5.965712220542477295e-01
-5.124983987645027605e-01
-2.496145082108227053e-01
-8.500809555907884452e-02
-3.100326945590469729e-01
-3.328556775802723466e-01
-3.318573827659108133e-01
-3.570096818036639363e-01
-1.381455545737604318e-01
3.193853945939945649e-01
1.725348361242096118e-01
7.800777929224378404e-02
4.868061110561831550e-01
-2.159593348329580387e-01
-4.160054676527116246e-01
-2.708883247265187477e-01
-2.025874779987635321e-01
-1.813713279771958786e-01
6.793965716853118952e-02
-3.094579932794406796e-01
-2.469468210652054907e-01
-2.480215027377503378e-01
-3.079111304560401829e-01
-1.185731705239275457e-01
-1.258705517383280903e-01
8.697327510688378227e-02
2.268761253414715573e-01
3.861608975010166200e-01
3.353961772573040706e-02
2.575781196406043971e-01
7.086118818860709379e-02
1.312307624366748637e-01
-3.387791322085015322e-02
7.454941893635193273e-02
-3.094213745096869861e-01
-2.555078713335638407e-01
-3.009896726780180720e-01
-2.495695588338650572e-01
1.486179000902489340e-02
-1.779272142153157377e-01
8.415897199065898449e-02
-4.878671658367376290e-02
2.555524733860117248e-01
2.438146056167458109e-01
-5.341022422159340949e-02
-8.121134787331141247e-02
1.814589721541449707e-01
3.269927743107858831e-01
1.556452353810239553e-01
-3.363714754677749053e-01
-2.840203496510265713e-01
-2.673440335893175757e-01
-1.025386633604456754e-01
-3.220290104847485790e-01
-4.597224172598522035e-02
2.149867839119783686e-01
2.573528517773538415e-01
5.092025235889307000e-01
3.362240030129590163e-01
2.491947021910309312e-01
1.714608748424121254e-01
4.156746745354377159e-01
3.016795097941486481e-01
1.804322244131895125e-01
-3.057664972485920618e-01
-2.231780474182614993e-01
-1.535093824547419661e-01
-1.464828759095429533e-01
-2.096167260563215340e-01
-2.305628312178646666e-01
2.356688758439926257e-01
2.681896792576318189e-01
8.235680345630957966e-02
2.048407334165483762e-01
4.090179571429199412e-01
5.499255029257320571e-01
4.376351015905323716e-01
2.110771482030388002e-01
6.028034536665231868e-02
-1.805685515594773471e-01
-1.837700988102538568e-01
-1.543421895361972440e-01
-2.465566185661805521e-01
-1.203842437651019143e-01
1.087977457939881543e-01
-1.226782292481553294e-01
8.499190750210908196e-02
2.865286787420115444e-01
6.966782445735673901e-02
-9.511506919636305776e-03
1.626943121562759442e-01
1.901975717105359731e-01
1.506171022772004042e-01
-5.052393028401314795e-02
-6.205807977286600247e-02
-1.400587743353574055e-01
-9.912397802538278069e-02
-1.835851440558463610e-01
-4.362253755361621410e-01
-2.403102093656732385e-01
-9.755075181236037840e-02
-1.098530541206457628e-01
-1.979799777124598495e-02
-2.614062603716624245e-01
-7.294662232225909704e-02
-2.804135877541925892e-02
-5.693147322980120217e-02
9.017107077012434524e-02
-1.202180093300168721e-02
1.071745227621271890e-01
6.744611968418655346e-02
8.749448253238398254e-02
-2.119161660349584003e-02
-2.288558253923873576e-01
1.391509128342574009e-01
-2.060757952938925275e-01
2.965669256292984696e-02
-5.874775674746521292e-03
-3.604407795645768187e-01
7.684753093544091640e-02
1.549539554222409687e-01
-5.931728820051702933e-02
9.122732808195084531e-02
-6.349370910121482359e-02
-3.359645630504000113e-01
-1.947543551188540556e-01
-1.890395367109111990e-01
-2.117175231597084040e-01
-2.569547215436686072e-01
1.790713204830937308e-02
-1.871456782020773923e-01
-1.449766844732618964e-01
7.685433877161651495e-02
-1.969621514875782853e-01
-3.884755117118228462e-02
1.269717046059314763e-02
2.163653428476911000e-01
1.472509160502822323e-01
-3.957307464712443018e-02
-8.268197335845055285e-02
-1.092562119373896717e-01
-8.119692309526724272e-02
-5.136387269432228508e-02
-1.290143897362363845e-01
-9.693244152852643902e-02
-1.286263511714991759e-01
-4.090908675048435250e-02
2.042847116361764526e-01
1.787254256902446603e-01
7.960440815497128730e-02
1.256658225947097363e-01
2.086268759647955801e-02
9.901581149983691710e-02
2.555737061072138605e-01
-1.386767675067984151e-01
-1.790832639943734095e-01
-2.565293797102590756e-01
-2.091830200494060876e-01
-1.938299430103457288e-01
-5.411148672503773155e-02
-2.527553147955253765e-01
2.568444663468867351e-01
5.527273235269449803e-01
1.417987557847867619e-01
-5.975685212681368375e-02
3.169183416970786649e-01
-6.262719257597138857e-03
2.362118997891151650e-01
1.069769473504362037e-02
-2.688594705237509208e-01
-3.154237085482143876e-01
-4.664578065984251731e-01
-3.649471642829575924e-01
-4.204876405928173466e-01
-2.987889669346377453e-01
1.178768596017487486e-01
4.022967872313655269e-01
4.512292868988337924e-01
1.257568501326338795e-01
1.543970078730438900e-01
1.028471547695894855e-01
-1.571435080864430067e-01
-3.520744909394799560e-01
-1.521213128241613310e-01
-3.159204288849285502e-01
-4.138923320263845906e-01
-5.053380211204056005e-01
-4.558769431818444628e-01
-3.806738207212620462e-01
-8.431522984972743273e-02
1.053342651645955419e-01
3.666293042445379902e-01
4.155304950742411685e-01
-4.188070045901078758e-02
-1.302096627449257915e-01
-2.712233249922141876e-01
-3.796800501295834462e-01
-4.332689597949431204e-01
-1.896125560673637134e-01
-2.972356900952764502e-01
-3.148839787969751058e-01
-4.937663689201135520e-01
-6.100339381853202569e-01
-1.536939457513115392e-01
1.805844125943936174e-01
3.123314442805219526e-01
5.046176507105528675e-01
-1.281081011958925264e-01
-1.084133323616210537e-01
-5.103764219482217340e-02
-1.240222650325004533e-01
-2.110961933547999270e-01
-3.005688327760441814e-01
-5.270947516046571579e-02
-2.460438057047781013e-01
-3.144705925318106443e-01
-4.493465535917418596e-01
-1.429637790381489137e-01
4.609807469035793331e-02
1.781403234423804549e-01
8.291961776877753154e-01
3.773854171350224385e-01
-1.650236279242793536e-01
-2.212284646770910079e-01
-2.221257177668745919e-01
1.835041375450566833e-03
-2.701060679617982574e-01
2.833416730978813858e-01
6.678807829375202343e-02
-3.410519621861566875e-01
-3.732607165586515618e-01
-2.730112553322290858e-01
-4.937353072817822486e-02
1.851480137580800156e-01
3.683153112473578350e-01
4.192536513240142093e-01
4.462463980605401587e-02
1.173363042772967435e-01
-1.506829747378725104e-01
1.595230967751588569e-01
2.014182590963854713e-01
1.253730994580651570e-01
-1.597838666727363355e-01
-6.203875071221959941e-02
-3.596723266974399813e-01
-3.627706037857659771e-01
-2.101681516248160020e-01
-1.895851514375030411e-01
9.311279242981544690e-02
5.747641724232913640e-01
2.855311024116492513e-01
3.095947135640506609e-01
-3.307606298036228076e-01
-1.262956302130184560e-01
4.055098624547085612e-02
7.705943633427576878e-02
1.092282784466082519e-02
1.152690174690540470e-01
1.463400506540387391e-01
-3.464384483744911147e-01
-2.161882087679361242e-01
2.336118911612046489e-01
-8.361726042394213021e-02
2.820277571605947498e-01
5.978282408191251118e-01
1.519726947672463135e-01
1.267514137058786405e-01
-3.069857935546616012e-01
-3.879459448969144880e-02
5.179344533895705593e-01
-2.591568117456987674e-01
-3.812529612523413852e-02
1.204904205429589009e-01
1.482209304932868288e-01
-2.185360331958777491e-01
-2.110620163153732742e-02
-1.620535376598561950e-01
4.515674897907841212e-02
2.448546745422071902e-01
2.976940384027173536e-01
1.990264218963895826e-01
1.170269529917549456e-01
-3.369877653729507205e-01
-3.839082643057244171e-02
3.724411964150705634e-01
2.570775591528144943e-01
2.907065666127586767e-01
1.352869762448682123e-01
1.761669177018333199e-01
-3.035158381868386518e-02
-1.102427775426594037e-01
8.165151601749236210e-02
3.530741745836074030e-01
3.443849709234373391e-01
5.501684568180723600e-01
4.027342481029044796e-01
3.876978403666787587e-01
-9.158473306236708522e-02
4.355239719936575271e-02
4.660831653063116087e-02
3.152551787797533978e-01
4.457180533857731802e-02
2.751901104735758885e-01
4.186297921114532916e-01
3.711648996382910237e-02
-3.781239274718739551e-02
1.617989476806174221e-01
3.845025270584757626e-01
5.731980664193614405e-01
5.371155094122472828e-01
3.744959569924450893e-01
2.955045242539859895e-01
3.091404465153879122e-01
1.884362679901031290e-01
2.244600882345314519e-01
4.164765258960109739e-01
2.375783951477947187e-01
4.624901884407274788e-01
6.305725158509122019e-02
-1.122995582103789441e-01
9.019610067261452438e-03
1.797983975898989617e-01
4.785186909218084456e-02
2.260466698111441297e-01
5.332873932416264395e-01
5.208380734416371283e-01
3.023415014041641036e-01
1.877255071228263461e-01
-4.065287082226351489e-02
4.249265453971606266e-01
1.342109862097322082e-01
2.654950664417647377e-01
4.231576473476185707e-01
1.674021699554761877e-02
-4.471257982565358252e-02
-4.167740137917226584e-02
2.038754393741778748e-01
2.603049836685352725e-01
2.942731062006113119e-01
3.889416903496809574e-01
2.809018163967153536e-01
2.827098809690157255e-01
1.668759093666223048e-01
1.948820898139271285e-01
2.611817557398199430e-01
3.740231800016340369e-01
2.094993467171676893e-01
2.438495785936585850e-02
1.450946592360768672e-01
2.401910436845602209e-02
-3.476285514130295073e-02
6.410758451311422169e-03
2.164273284722344204e-02
-4.438321002482187999e-02
-5.351176902546308373e-02
-1.605104694195393644e-01
-1.268108555433736517e-01
-5.830744141838613975e-02
-2.722815085053627293e-02
-1.376982329433822372e-01
-1.755609936978169139e-01
-6.861082653556400957e-02
4.497486275322124666e-02
2.320857045542747479e-02
-4.624552035221353441e-02
-1.904393052039220768e-01
-2.161174545384368928e-01
-2.215966885409343112e-01
-2.822365504716066731e-01
-2.921519116013979733e-01
-3.564189797516344460e-01
-2.170700658576344699e-01
-1.697514368586368616e-01
-1.625905398819061098e-01
-2.103084830686383078e-01
-1.392395861767906917e-01
-2.254018435510790619e-01
-3.012082272046159165e-02
9.098313651700325189e-02
-1.294786152012393221e-01
-2.401258814323116997e-01
-3.103528978356441259e-01
-3.108580310300010918e-01
-2.096857625623354815e-01
-3.965312154694594637e-01
-2.741280801994915306e-01
-1.714126492439256577e-01
-3.098138220489529693e-01
-3.547545653176757963e-01
-3.368472758010698787e-01
-9.718771782765281420e-02
-1.685997396460103270e-01
3.369312505497137206e-02
-3.014850521851649215e-02
-1.393794658619481597e-01
-2.196168424566859456e-01
-5.334333818455039983e-02
2.621033768551030499e-02
1.121523594801646789e-01
-3.934967203851563733e-02
-1.438566543637646022e-01
-1.888777224736211402e-01
-6.989096462651744890e-02
-1.185845670991677869e-01
1.060852023409651346e-01
6.513343144157841824e-02
1.618788861580170158e-01
2.367900207749130126e-01
-2.555785798059307945e-01
-1.798782886895170796e-01
-5.620050408443451329e-02
1.170796396173758580e-01
1.830090645104971436e-01
-2.019016743855825673e-03
-1.035935820176675792e-01
1.864941031224364720e-01
2.022213064576619257e-01
1.578121789873881409e-01
3.421441146559893731e-01
5.601063647514537003e-01
2.993215711035119853e-01
3.650872063295081404e-01
4.725725748346937261e-01
8.729309731006647255e-02
-3.557727830600126290e-02
1.132885457421583530e-01
-1.119280001703043537e-02
8.643789027329894237e-03
5.502217546989073005e-02
1.027962136917565383e-01
4.655950752665778958e-01
1.007674943391582811e+00
1.555334322522638146e+00
1.383783897247443662e+00
9.942538792783883750e-01
1.047511075804666625e+00
6.565837876657250050e-01
5.273747673844999539e-01
2.982654636181129582e-01
9.509489570741763709e-02
1.271449113409202358e-01
2.781885570955431111e-02
-8.071696306229099449e-02
3.146071350297506286e-01
4.568542800645650215e-01
5.029602459380978496e-01
4.631018136184669176e-01
1.624431367861271236e-01
6.584952127894422302e-02
2.132874129873238989e-01
2.248639043617589317e-01
3.733024144809586331e-01
4.941184618927572103e-01
1.107879425095644604e-01
-1.066705559078215682e-01
6.407901993286375941e-02
1.911137295479104770e-01
-5.826963617723819600e-02
1.420399797615664039e-01
3.333239430941078996e-01
2.861488883817564499e-01
-1.844822411789923400e-01
-2.354050166341028483e-01
-2.601565424503832213e-01
-2.519301601899336107e-02
1.484582497535213985e-01
1.168521528791412467e-01
3.056900413441354103e-01
-1.024038769062301027e-02
-3.569112987572218842e-01
3.525064708931115176e-02
1.911404049175174091e-01
-5.525490071294295730e-02
1.422457334604930179e-01
3.852267436471402268e-02
-2.680134426466318498e-01
-4.455002254157009456e-01
-3.724976930348792292e-01
-5.098342558380496436e-01
-3.663998158747103773e-01
-1.571647048112635170e-01
3.567662408461523271e-01
2.495818463831466771e-01
3.871577398930179936e-01
-1.346826993464370625e-01
3.917711755635101822e-02
1.108296224262493718e-01
-4.458643482862885074e-03
1.344974008531841791e-01
-1.121741385728395116e-02
-2.413069994005442309e-01
-2.335567738565142992e-01
-5.548960167231861140e-01
-4.099114587149525479e-01
-3.620302403694814486e-01
-2.897678362910018346e-01
-6.486240782543872818e-02
1.946682850283541211e-01
4.400715191354414024e-01
-1.566900386100791576e-01
1.333718602167806950e-03
9.901797605938554570e-02
5.936205819069952788e-02
9.467731663807420206e-02
9.414156255434628917e-02
2.622904421906846126e-02
-2.373353213145203977e-01
-2.303010306499355675e-01
-2.621685855839099299e-01
-1.436272457141192782e-01
-1.811885684820669640e-01
-1.138520854713911123e-01
3.038580709791737222e-01
3.120571528915431214e-01
-1.257753812181384434e-01
-6.970713625650405698e-02
-1.044753038422043673e-01
1.108356041350927815e-02
-5.184760310896846525e-02
-1.610803559376184843e-02
-1.576696235636387833e-01
1.513086965140329060e-03
-1.341464331949505373e-01
-1.715608326064840261e-01
4.577223437704054654e-02
2.157292271794766236e-01
4.077660542240595792e-02
2.568497884329850045e-01
2.358327130920184478e-01
-4.243757133482999044e-02
1.051746219166929397e-01
-5.595382107886953584e-04
9.069087007210585583e-02
1.056460476023743898e-02
1.454842589690779897e-01
-5.711472271336151020e-03
-1.333236355267151396e-01
-3.032024150060368406e-01
-1.217410276314957879e-01
1.488112051598956646e-02
9.839784130327959566e-02
1.920915752313513691e-01
2.204574209731696155e-01
1.008520275773311381e-01
-1.995010557658771083e-02
6.280295230991408961e-02
6.592585508082002277e-02
-1.398554549420461535e-01
-4.738946413902210830e-01
-2.244068761282243252e-01
1.857780796744947990e-02
-8.772262889968443500e-02
-7.717050921883347736e-02
1.726129624578324750e-01
1.403512519469698738e-01
1.441590467542777088e-01
3.285843389268869874e-01
2.943583230696843467e-01
5.837634801322707373e-02
2.395653765181169903e-01
1.145766016259740644e-01
8.437748612883462507e-02
1.610265005168774743e-01
4.249054377213124824e-03
-2.717598395979742981e-02
-3.208713076856744423e-02
5.960483210435711665e-02
4.818702746595043135e-02
2.808814268460576875e-03
1.508718592634333000e-01
1.918084039630379989e-01
1.420125550975158673e-03
1.194562187304610140e-01
4.986509402859789011e-03
1.791664408118831542e-01
2.483334260911521096e-01
-2.281858612184055682e-02
2.813450438187113378e-01
3.230198415142637169e-01
3.492368446341238553e-01
1.831614561287749632e-01
3.564044137887483754e-01
2.065631854487945951e-01
6.913543796978241507e-02
5.114923626709840659e-02
3.435273080428478121e-01
4.849086208764362416e-02
1.863279255514491972e-01
2.785419562502912671e-01
2.283056703735594217e-01
3.022528614709749095e-01
3.033419515881438655e-01
4.173670078313701515e-01
1.977652016670909327e-02
1.591691599995559980e-01
-7.041438357248092084e-02
-7.869469210592557051e-02
-1.753754999101978657e-02
1.176097132791201066e-01
1.597864446295876317e-01
2.714739096185215805e-01
1.405323311207790360e-01
-1.338399047909454853e-01
7.464572908404669416e-02
3.962585398775671508e-01
2.600599230082475399e-01
-1.334417651298043517e-02
1.300348022913159762e-01
1.837913229056712672e-01
-2.734169436143699117e-01
-7.504629482209783653e-01
-1.737987626112030559e-01
5.241451161203358744e-02
1.587110097747199133e-02
2.305567597779170363e-01
3.421420995519871000e-01
5.060575530064979205e-02
2.574738362268507580e-02
-2.858824546984060563e-02
2.710364245514640946e-01
1.763118928272923436e-02
3.416085526121895311e-01
3.144132261835241304e-01
-5.619425370766133881e-02
-6.999765620324421844e-01
-5.193294268098123112e-01
-3.154272125740568145e-01
-4.811066107906857708e-02
4.963712421563593047e-02
3.966270434701416603e-01
5.368726652985668091e-01
1.051655240263301566e-01
-4.070173942227908737e-02
-1.349697641373610868e-01
3.568838677027227901e-01
2.744753805135382585e-01
3.818077776218050112e-01
1.632532498439636104e-01
-2.829197558635252255e-02
-2.610202532516899265e-01
-1.776459168950368095e-01
2.181898784519261947e-01
2.590470109179604519e-01
1.400554813106120455e-01
3.627733572355411606e-01
1.621901829000720052e-01
-1.392659544562423884e-02
-8.094595268995911919e-02
7.066165826215006773e-02
3.789235723101926356e-01
1.502397732154086840e-01
3.430393582230940597e-01
-9.460038183549579482e-02
-2.382419766575444853e-01
-2.784028700305894999e-01
1.540939108754761644e-01
1.224722746873130458e-01
3.451657614784236494e-01
1.585048594871229510e-01
3.654456451598896427e-01
1.617616547893532819e-01
1.030694393425732741e-01
-9.190356968350935074e-02
-3.189198194307232836e-02
1.326115046670349185e-01
2.444409627464038115e-01
2.154195772670975950e-01
2.226370934015667047e-01
1.966276247591887405e-01
3.132852782637584599e-01
3.624243038139943868e-04
6.029084171626677285e-02
1.283931628503364453e-01
3.506581001896363348e-01
3.619213609428579836e-01
1.620369362773339816e-01
3.987474382840903303e-02
-1.603722590227043276e-01
-4.070905250767657968e-01
3.629211488992759582e-01
4.787560097816399018e-01
3.330020014302882414e-01
6.027030285770782481e-01
7.346795205622526082e-01
8.269158995800114376e-01
5.587085730219217838e-01
3.728920739990837507e-01
3.574324921408843503e-01
6.217646257935927068e-01
6.412227191104404866e-01
3.862125086317116235e-02
1.706906163085580019e-01
-3.535231708885909485e-02
-9.629351610386588378e-02
-7.658008073535865767e-02
4.934365436808116900e-01
3.500299417323501916e-01
5.573337763531021061e-01
6.323649006183987842e-01
6.827508282190997146e-01
4.279171868137042201e-01
1.563294239020904808e-01
6.782887180650373216e-01
6.534993530407564588e-01
1.456349904581374088e-01
2.888226502436594401e-01
2.260936371957882329e-01
1.438178200822021746e-01
3.854053466638814041e-02
-1.662060208319360299e-01
1.330141362430944767e-02
9.906392392403358393e-02
3.454913990113459010e-01
4.763833195400707932e-01
2.070444306389526978e-01
1.257327409076620661e-01
1.874425548078161308e-01
2.982687906100988107e-01
1.328997110549557381e-01
-1.970505582103116160e-01
5.593183887106015773e-01
9.404261740632036126e-02
3.806296093898511868e-02
-1.149269867144355195e-01
-7.306180021720147522e-02
3.777462753934920231e-02
2.896851274206665439e-01
2.742142556149492205e-01
1.495729924477416095e-01
-2.407274586276779704e-01
-2.259534315936857218e-01
9.719651649339106081e-02
1.792593231568448131e-01
3.689321015507394108e-01
-3.763679074981255562e-02
3.284844745226921381e-01
5.906000025862671865e-02
7.856088523123599954e-02
-9.205285914055849616e-02
-1.555735731738715211e-01
1.154370374816040962e-01
3.577261028815333088e-02
-1.504824854885687124e-01
-3.985968476197493948e-01
-2.342600571677213583e-01
-2.684379030683604062e-01
-2.810951111194543491e-03
-1.063972977464043290e-01
1.897086731344614918e-01
2.019558040414771993e-01
1.971644520978072801e-01
4.717567803713590240e-03
1.899692439345493367e-01
4.987262022492545271e-02
-2.465060560483711971e-01
-2.251561921664288202e-01
-7.852630342991238910e-02
-1.543233838450402962e-01
-4.525518565605130550e-01
-4.024584121019942895e-01
-1.805820758321679542e-01
-1.145832953801426829e-01
-2.586575014971696507e-01
8.155350507260708537e-02
1.020098774223186511e-01
2.412373088257998566e-01
9.377693240396255125e-02
-5.109845844454754399e-02
-8.382897885130377591e-02
-2.054201513812739521e-02
-1.375110428093615222e-01
-2.537908150260247964e-01
-1.249781715184987707e-01
-3.275616049529985752e-01
-1.619601238048475611e-01
6.692517113036108856e-02
1.070596941575062411e-02
1.354773855419398321e-01
5.924274776127896186e-02
1.177780419293710801e-01
1.888150757886206121e-01
4.453847904757067544e-02
-3.717524489072339122e-01
-1.323610866197519609e-01
3.722272518437140520e-02
-2.001572248394491160e-02
-6.843596408317320634e-02
1.065945930378104367e-01
2.014826340744836353e-01
-4.677879006739752571e-02
-1.133241622008235132e-02
-1.634144396849855629e-01
2.858734419318362807e-01
-1.064282215272815968e-01
-4.526831506594243548e-02
1.507071519619806454e-01
2.460294950845558770e-01
-4.468695097706763125e-02
-4.330004574794037997e-01
-1.031190217931165082e-01
-4.380831016152448437e-02
-7.071515658461176301e-02
-6.657788974156209072e-02
1.739236691576625526e-01
6.616905138546476384e-02
1.208836099833400929e-01
2.279650185197761580e-01
1.924847669789960802e-01
3.547350137179047236e-01
4.634109020032158299e-01
3.235027256650617744e-01
1.589304596471178554e-01
1.335341119532762466e-01
9.414032912726591484e-02
-1.638238469368848427e-01
-5.152073115951210508e-02
-9.414795962446065314e-02
1.196240868493198273e-01
1.041435702247671125e-01
2.686748294439926243e-01
6.662563065825305442e-01
7.471239704476663190e-01
1.392531174514975101e+00
1.147137486652456184e+00
8.246125218932693901e-01
9.192890219693523601e-01
6.400960336054826172e-01
2.581268843888670506e-01
3.069470585991898592e-01
-2.911910752082204623e-01
-1.351230276716875733e-01
2.945670077743676313e-02
3.603996347238488940e-01
2.284423645580549445e-01
5.185016135678962579e-01
6.207456775589250686e-01
4.030919347837926270e-01
4.384516019746245719e-01
3.244190006066539067e-01
2.705003283982405082e-01
2.950655452469874707e-01
3.773162011965172091e-01
3.138551810740029535e-01
2.669987982461278775e-01
-2.953202809218984926e-01
-4.138266627708760137e-02
1.633613903665558920e-01
6.947127845316659889e-02
3.178180755330911045e-01
4.644126841867703415e-01
3.707932685925207084e-01
-2.673740296134624606e-01
-2.216146472631789766e-01
-1.878710711702014369e-01
9.362734950122357513e-02
-1.409767965389331079e-01
1.146621438059544223e-01
9.876499538598969286e-02
3.734635827999945867e-01
-1.749430170812276697e-01
1.523707303569947213e-01
6.471843825799158956e-02
4.711726846286704712e-02
2.274289426625881183e-01
3.067359312350895761e-01
-6.201919771435160378e-02
-4.365918307342833010e-02
-2.238582690431671074e-01
-2.048720366855015795e-01
-1.567969224609702950e-01
1.557503428128022005e-01
1.611229816370677581e-01
1.117853746911910279e-01
7.692353710903521158e-02
-8.628152667388519492e-02
-7.199881804242057315e-02
7.597386894279600789e-02
1.758257941306529681e-01
-1.179571164097076436e-01
-1.751812085312905720e-01
5.096660703764450961e-02
-2.530664991173969813e-01
-2.766531569881821029e-01
-3.350043214742341458e-01
3.456493092754625573e-01
2.988864440579489523e-01
2.221048464053321583e-02
-1.172496664874193295e-01
4.753026685925157424e-02
-2.963291137031649480e-01
-1.671774488649546420e-01
-1.817761165969594417e-01
5.903683351683809005e-02
-1.430415444308807960e-01
6.657012010725837925e-02
2.083048666785772829e-01
-2.995995229524537340e-01
-4.155702188442677580e-01
1.120884770374281497e-02
7.536137574324688893e-02
2.744753286783055413e-01
1.772924372548202732e-01
1.362946177539224035e-01
-1.469798236576725092e-01
-2.893783394553738758e-02
-5.613206071766774913e-02
-2.686212148365711982e-01
-1.471012156834388962e-01
3.748090314973846759e-02
8.990657169319378472e-02
2.038936766325668837e-01
1.434051186185400228e-01
9.621774049766906867e-02
1.442264243773400678e-01
3.552912463277519972e-01
6.442032183756509767e-01
3.750919926825665440e-01
-5.174296166063840213e-02
-2.771625196004444680e-01
-6.438344200154297314e-02
-2.677439035659699360e-02
-1.443976394064476754e-01
-1.855701908478810669e-01
-1.297588039734507703e-01
3.253986650276057772e-03
1.582377322558381205e-01
2.416638670975471137e-01
1.133283137783586830e-01
2.038375986533755846e-01
4.495815153837278144e-01
5.274655105319056014e-01
1.909470118421387197e-01
-1.434267957493715606e-01
1.419985908645265971e-02
-2.440937157287633164e-01
-2.040521012933889100e-01
-1.653265225500325508e-01
-4.291219413055027965e-02
7.351224027298233765e-02
2.322297092086186010e-01
4.378950435038366645e-02
4.982846185272158390e-01
3.424071851366825570e-01
4.889598657398490644e-01
3.120603599010922102e-01
-1.837682613122669853e-02
1.220016149025943547e-01
1.342104174411595796e-01
-2.810999387955445683e-01
-4.894420889123964336e-01
-4.191788206253834748e-01
-8.432333142260693692e-02
-1.429096577844715665e-01
7.788764959860405672e-03
1.019780298589555018e-01
-2.393187220575917762e-01
-3.079985984471156693e-02
1.347712740345093640e-01
3.841128551110332134e-01
8.489755424462051836e-02
1.639559006449388748e-02
5.958535001009214460e-02
-1.613556789841415510e-03
-1.008808206586280509e-01
-5.085475301614778010e-01
-3.773044471610152995e-01
-1.148056915674357664e-01
-2.298799316698764972e-01
1.398547736677903663e-01
3.292810858510775152e-02
1.561731295852013812e-01
-1.851233623178801246e-01
1.351010031058167693e-01
1.100612568853475831e-01
2.420710660202448836e-02
-7.110012543495178305e-02
1.310240768353359564e-01
-1.250462501719310773e-03
8.755455563445839473e-02
-2.635700107742283138e-01
-1.988320915648076614e-01
-1.941851836084511895e-01
-2.179171471289206852e-02
-1.153127347192119956e-01
-1.767769621352450193e-01
1.065563387442981791e-01
8.559531984484304579e-02
1.626027889047120811e-01
1.052266952453559251e-01
7.211500578124519639e-03
2.179062982513550184e-01
9.577618445642088751e-02
-7.354260283277742893e-02
7.573117380265115273e-02
-2.914343138672714772e-01
-1.054538741888170622e-01
-6.591214115809259505e-03
-2.307492822261655863e-02
-1.452161766381184493e-01
1.828807390555072659e-02
5.617513814777956582e-02
-7.940015357942853402e-02
-2.099073286901882440e-01
-3.156840220597735280e-01
8.034607254747294647e-02
2.878228884878207827e-01
-4.111386445440296661e-02
-4.193076240934624777e-02
3.040583452939046860e-01
-3.672764139810855144e-02
1.446477505953562837e-01
4.898699003975175853e-02
1.206393854258409615e-01
-2.893264631544678958e-02
-3.951702209934581517e-02
-2.350877588544548688e-02
-1.600986168650543884e-01
-1.401719932167057314e-01
-2.767757044153094925e-02
-2.196519362804083275e-01
-8.441234345684237896e-04
2.056025773861551442e-01
4.423941030578701916e-01
1.320906635314300914e-01
1.151614853158330898e-01
4.470729913676418921e-02
2.139525767666783373e-02
-2.745643291176454864e-02
-6.082541549342229681e-02
-2.366810358651271484e-01
-1.331394941936829002e-01
2.911463332583347219e-01
1.729304444572066224e-01
-2.843559145297149676e-02
6.287623207787548796e-02
2.596519918373799488e-02
6.102176863578221561e-02
6.510872552409938119e-03
1.500888354338928699e-01
-4.139929605538497648e-02
-1.768200537935440131e-01
-1.226322385491010192e-01
7.838847073117087561e-02
2.013188669600059905e-02
5.092145032656136827e-01
1.410038767459634024e-01
-2.132136085527334621e-02
-2.638711219483667603e-01
-2.941792610238909700e-01
-2.722265888467280126e-01
-5.328180954077132991e-02
1.433194565141852894e-01
4.158810558272803617e-03
8.428079198508008074e-02
1.036195482572006311e-02
-1.472526042650882938e-01
-1.579029487788580488e-01
2.476275576843002535e-01
3.633805158538613855e-01
7.991948415140345263e-01
2.267543204104140731e-01
-2.451809926856564625e-01
-3.458263719157000371e-01
-3.634204160753772839e-01
-1.274500616985174972e-01
1.385864165350052801e-01
1.091196566177023847e-01
1.002661380428900989e-01
2.325046000487718950e-02
6.620294680365572393e-02
-3.393306276262967464e-02
1.684389856676145047e-01
1.731090962996003624e-01
1.064794883932795866e+00
4.913694865260758160e-01
5.540720095048850408e-02
-2.469999250892276343e-01
-3.083401784454692929e-01
-9.931891961432719185e-02
8.351683071915763645e-03
7.963153295189671910e-02
1.663326354498765799e-02
-7.112417181537114552e-02
-7.082171365427704368e-02
-1.486070945989362013e-01
-1.462274361413509471e-01
1.388672730233041497e-01
1.571952375435005933e-01
1.124739462390157430e+00
-9.198920675082801479e-02
-4.358395882094057844e-02
-5.973648231916995899e-01
-1.614735089106635324e-01
1.121497127847232989e-01
-1.175320419208173740e-02
2.110999710262666251e-02
-7.582699852940147367e-02
-1.755904052524482339e-01
-2.323977838716230482e-01
-2.405815086730723473e-01
7.679343199201361936e-02
1.563753087150128174e-01
5.277870697989767157e-01
7.677976664852327326e-01
1.511599615265589273e-02
-2.197588955591021631e-01
-5.808346414792238122e-01
-2.687130553552362078e-01
-1.933248489363858791e-01
-1.632817851137546294e-01
