-2.017347968794603874e-01
2.012516921342178688e-01
-1.496808423713750780e-01
-2.236620230931601616e-01
2.026324070082103912e-01
-4.929657564202607478e-01
-2.847405592121972084e-01
2.814518340567392918e-01
-2.342787563116485450e-01
1.251586156491703850e-01
-1.821416935804949233e-01
9.768369264557630327e-02
1.557453552181682910e-01
1.797483236644295546e-01
3.040119596403876301e-01
-9.975137026397472295e-02
-1.682397506057012881e-01
-1.903402158599985577e-03
-1.498416448624080022e-01
-2.520382764119543650e-01
2.828627594679120408e-02
-5.389013518931009550e-01
-4.633851074028789152e-01
1.415389552506194082e-01
-1.202792215233216555e-01
-3.853336537684882296e-02
1.139957776384693949e-01
-1.464231536322795346e-01
1.630701755866909020e-01
1.217247122074203471e-02
-1.934101843650768981e-01
9.680173291696470006e-02
1.516148679948504663e-01
-4.026646591198494995e-01
-9.039440326351914912e-02
-2.300124944697271023e-01
3.585920325947672960e-01
1.451505694119028245e-01
-3.527749413272889267e-01
-2.610827290511791299e-01
-3.000181450012462392e-01
-3.337756392472952527e-01
3.581681676187244978e-01
2.262287737836831195e-02
1.252849039886803628e-01
4.059041366992578032e-02
1.048625340516563254e-01
2.434801057174978134e-01
2.751649028077839398e-01
-3.545084698470733070e-03
-2.020837276041717867e-01
-2.176428230526903859e-02
-1.206524146509367762e-01
1.317602483547274106e-01
-9.176641844068757214e-02
3.191543347095064931e-01
-1.432866672131262731e-01
1.569728888350890167e-02
1.370082947757855774e-01
1.778736831962306197e-01
2.423424183003133892e-01
-4.280798057814265700e-01
-4.398057528101257524e-02
-2.590858495627945679e-01
9.865033667784120497e-02
1.047092932739075166e-01
4.392229227697339033e-01
4.739311832714948602e-02
4.936707203736408894e-02
-1.656336272153841049e-01
-3.633199162786826530e-02
2.145390929342571584e-01
-2.229972170591217745e-02
-4.712629041697282140e-01
-2.162153934039996173e-01
1.478601909662970344e-02
1.827672891517293507e-01
2.516304916051099183e-01
6.357628195651250647e-02
-1.129699611566339218e-01
-1.934378908007892417e-01
-1.000673753949749001e-01
1.076342504947248001e-02
-2.581171764250567713e-01
1.610546473523975508e-01
1.494958013437751310e-01
-3.655284057241878770e-01
-4.420310591340708140e-01
-5.778919537713285148e-01
-2.108255917648700073e-01
-5.978390520280112835e-02
2.312682924318033850e-01
-3.168475772221805986e-01
-2.375190790528885487e-01
1.294173579397202289e-01
1.622894587799632860e-01
2.457893515244611859e-01
8.107791551080592227e-03
-1.642868930310303899e-02
-7.493067928591652660e-02
1.316911523748372781e-01
-1.974036513268013493e-01
-3.235252158827637420e-02
-2.532240460067048948e-01
-2.680202079260623482e-01
2.215038978814550807e-01
-7.242370313062666820e-02
5.982967763722270987e-02
1.277876458066271592e-01
-3.186824240310488499e-01
1.549115364623284696e-01
-2.033004142224332789e-01
-5.691437517321737971e-01
3.921472355555384315e-01
1.615676500386933889e-02
-2.612749137437452296e-01
4.043249749670214110e-01
-4.234680108675253907e-02
7.086271273467055487e-02
-4.519105273718320714e-01
-4.895014848307753953e-04
-2.207543908652776776e-01
2.235639326157898843e-01
1.627366783371867603e-02
6.906688883577126632e-03
1.887442831098617990e-01
-2.059406723223026481e-01
-1.517258880847879854e-01
-7.054740746839519017e-02
1.181266018794116801e-01
4.395400739932097678e-01
3.372890002995314052e-01
4.068520049590022003e-01
-1.386786409058944070e-01
-2.621355676442679861e-01
8.678459726171335042e-02
-1.153255651394870518e-01
2.448574689483711542e-01
-3.811170487887513558e-01
4.290840102914881271e-01
-5.458700047776848807e-01
-1.380410659304262266e-01
3.112654917061003501e-01
-7.265341861998518558e-02
1.077126582735291188e-01
3.392077245372818739e-01
2.559865058524151138e-01
3.606927012181586067e-01
3.154544810881516198e-02
-1.468195338280623152e-01
6.100734619686139920e-02
-7.313552682720959874e-02
-1.052932171556423546e-01
1.971864523269454272e-01
-3.324912898597701671e-01
-3.909838455525605494e-01
-3.066365602949240876e-01
-8.079975718299251541e-01
-9.124271665603510273e-02
1.369126669817803954e-01
6.840770769507964477e-01
3.579279563819359744e-01
-1.171221445919519780e-02
-4.016647774197333876e-01
-5.412971377925021033e-01
-1.473040333154651549e-01
2.390505112927634734e-01
-7.377248641624040149e-02
-1.336583381372612456e-01
-1.470156712023156509e-01
2.205392802715815115e-01
3.704936888579053039e-02
-9.865639805740228363e-02
-5.779142874312980238e-01
-2.927185365248984733e-02
5.909221099683875655e-01
4.364103023016522309e-01
-7.984692976880769510e-02
-1.513846805268284357e-01
-4.752150004683910467e-01
-8.664331930431985740e-02
-2.424206940253111064e-01
-2.773305813922547491e-01
-6.115513818938929369e-02
-3.699212416583573092e-03
3.310003357851221129e-01
2.467064761201384071e-01
-3.146940324944039746e-01
1.642385096914490972e-01
1.903462732495322385e-01
5.629709363396225852e-01
2.578050988801230403e-01
3.149450068748874121e-01
-1.054207636190283986e-01
-2.071641242857976406e-01
-2.867217840737926182e-01
3.508384093434486761e-01
1.684629192883454196e-01
1.675847539181586077e-01
2.406104358810632893e-01
-4.444424521140059869e-02
1.121627138511500504e-01
-2.872879090370347166e-01
-1.302882159837973064e-01
1.872350450386756349e-01
5.728063924032702481e-01
3.715633164796931509e-01
2.052684970128116348e-01
-5.522394194581261434e-02
-2.537522478110874058e-01
8.033067800511263512e-02
2.712471210723546924e-02
-8.954594640235856440e-02
2.233047820440256237e-01
2.433584425875028046e-01
2.482726412613885936e-01
-1.086264472787127656e-02
-9.058985273185977960e-02
2.478908098734972365e-01
4.409554022225788406e-01
4.463732035251292141e-01
2.063949625728934145e-01
2.011709913633009938e-01
-1.935477105177517421e-01
2.381938163631444269e-02
-8.541557840304743465e-02
-1.349290685247782062e-01
2.121153600214844004e-01
-2.390333046351446056e-01
2.852849905007769915e-01
4.993661604212396715e-02
6.442092553776178343e-02
5.775126871041225129e-02
-6.668120458626292102e-02
3.234520233369662656e-01
4.156306232888044849e-02
6.998317901423098050e-03
-1.882214075618229288e-01
1.813640618427990736e-01
-1.430275770024449500e-01
-2.634645597155129554e-02
1.359106520288783926e-01
-4.315211521244385201e-02
1.508914709789702449e-02
6.381961441943301283e-02
1.251894349773652604e-01
2.248403071342801873e-01
1.277515385734247777e-01
4.831166916001793099e-02
-1.431862279797251891e-01
1.266055803719414452e-01
2.845316962506866942e-01
1.049002181121250488e-01
-3.110707969933184658e-01
-1.339734859359929808e-02
-3.947995761961976130e-02
-2.289252380250483276e-01
3.549785131157053714e-02
4.534024708918784480e-02
-4.992583035709521888e-02
1.577827895178190443e-01
2.203992301021461542e-01
1.332604963986253055e-01
-7.115275600693774134e-03
3.792898101580647885e-01
3.481161110888650323e-01
1.564756597618136846e-01
1.555264501383182840e-01
-5.049596475138452140e-02
-1.842482782215243697e-01
-1.745434407992838832e-01
1.058269109047593887e-01
-1.121910913581737057e-01
-2.918449663424954946e-02
1.489015327089513729e-01
1.051787748728833100e-01
-1.591339931762437432e-01
1.163002844553199522e-01
2.621861207760365908e-01
9.823036643787848299e-02
9.184880834253031923e-01
4.350728261661125917e-01
3.142091693423327281e-01
5.197244453871389253e-02
-1.512766632160112562e-02
6.052032444995633642e-02
-1.932658348416803062e-01
1.043454035117734879e-01
-2.966087892993460318e-01
-2.357559902669273399e-01
-1.669474370214983905e-01
-8.182815759736158934e-02
-2.028482876096353305e-01
3.589818443431416206e-01
3.331047021465052826e-01
7.251749514935326157e-01
-3.055872582685004255e-03
2.749860484346698941e-01
-3.645714040583233340e-01
-2.722536607903485173e-01
-1.790052312010256275e-01
-2.824291832013711701e-01
4.201210338807578187e-02
-3.131737403333413883e-01
8.258358197754042673e-02
-2.377320742356359429e-01
-6.420061937221365200e-01
-3.845614286581718055e-02
-9.060727751860080115e-02
6.786536597624068246e-02
6.153547862284481917e-01
1.270181886116014403e-01
-2.002402941622023411e-02
-2.823505897642582529e-01
-3.595427346524369128e-01
4.969251928101933724e-01
2.660781270157732692e-01
-2.941095265191415731e-01
-3.502994968912376272e-01
-4.278065028449153095e-02
-1.764746861094821373e-01
-3.751585207664217547e-01
-5.921413174259645279e-02
1.655143967477425496e-02
5.794765673047479471e-01
-1.304004389559387800e-01
-1.515156125884081495e-01
-4.273308436992400705e-01
-1.179288102889525236e+00
-3.469279333105946828e-01
-1.224501268241298957e-01
-1.078089383845497323e-01
-8.087516103460260647e-03
-3.390376280730306169e-02
1.379191886547456447e-01
2.283906800356381717e-01
-3.270332906366952286e-01
-5.105378078144572757e-02
-1.459552674770925318e-01
2.906080263717873424e-01
1.158860291449588520e-01
-2.186835283484521164e-01
-2.464667159621870829e-01
-1.420933709687478841e-01
1.342277266148276527e-01
6.994854954294277283e-02
1.257980563820741415e-01
7.660128380558853950e-03
-7.305252045335575151e-02
3.812431033176791884e-01
-1.146190661578593006e-01
-9.655912158373543275e-02
-1.048291960626144409e-01
4.466187898514153987e-02
2.572536322559828004e-01
9.521179272012711414e-02
-2.636062786274265268e-01
1.437343913250299920e-01
4.768804566912857729e-02
3.443597685465409758e-02
1.477052455854317367e-02
-8.987437773569877109e-02
-1.304373184257538176e-01
1.592115818263162008e-01
3.145292536293213259e-01
-1.435258113508413869e-01
8.461116924735620493e-02
1.149965706509855912e-01
7.045296531093557524e-02
4.699009449769986912e-01
-8.848371127281152992e-02
2.647219720743573257e-01
-2.694049250251773220e-01
-9.096288542241344477e-02
2.080417854305718073e-01
1.510969670448911173e-01
1.248510744041500531e-01
3.695131662111158372e-02
2.455216058274789781e-01
3.297139060646353537e-02
-1.514107761620289150e-01
-2.330025109789407856e-01
-5.478955325429324744e-03
3.474881394411475366e-01
-6.038288316622218710e-02
4.453723491361859244e-02
2.317961669445023007e-02
-3.656054689663845725e-02
1.379618509524458136e-01
-1.843885461234853751e-02
1.145796222999027336e-01
-6.279372461639406988e-02
3.209213519642247769e-01
5.070300340770669129e-02
-3.476565441797423162e-02
-1.089617328284394338e-01
-2.415455478058375904e-02
2.491539638616091235e-01
-3.088047705728061074e-02
1.097402782233956736e-01
1.547571451148814503e-01
4.016878700740308950e-02
3.194642966239534254e-01
-2.052183293053554125e-02
-1.728420505100997789e-02
-1.623848484959580524e-03
2.258708799927049427e-01
-2.809827815195078959e-01
-6.600330105623042169e-03
-2.201273335722573332e-01
-8.340013649387709171e-02
4.450476491198353257e-02
-1.780637383997969725e-01
-1.689625072305005749e-01
1.058865456766647506e-01
-7.735953825191277389e-02
-9.443344925662645883e-02
6.340007864637639545e-02
6.680636668423778346e-02
9.683633012318858257e-02
-1.862886897262723274e-01
1.288302444130473012e-01
1.544874651714812364e-01
-2.539170890453116280e-01
-2.550478087855054254e-01
1.123581572900150469e-02
-9.340612512385652877e-02
-1.116704852484327187e-01
2.153626518577647642e-02
-4.971942469098453860e-02
2.703559317838971632e-01
8.439384606169099412e-02
3.601661973689681551e-01
-2.012206196971768890e-01
-2.906012534919069981e-02
1.695201387340749266e-01
-1.998326390503912253e-01
-1.444424367265679243e-01
-4.915204931708427177e-02
-1.626989257695216629e-01
-1.305491434849474497e-01
2.236613582622336560e-01
-9.439099355780823652e-02
-5.247723396522430833e-02
5.452679667809163383e-02
5.866219452143461854e-02
1.501769775318875962e-02
-5.445069741582768408e-02
1.718058863160280281e-01
-6.673834916974370757e-02
1.738721007218164277e-02
-1.213984705451106594e-01
-7.671781394779879359e-02
-2.013820404017843853e-03
3.531564550972440472e-03
-2.467176367344167676e-02
-1.943300995954309607e-01
-4.287547204401769285e-01
-4.863993874098705983e-01
-3.858544616233671731e-01
-2.317006327659092424e-01
-1.000604387035948506e-01
4.108732063645475358e-02
2.141878763150697682e-02
2.768386971717129094e-02
-4.361153846086757851e-02
-1.202430389610758127e-01
1.052264031335194278e-01
-9.633451193805640800e-02
1.666883016593029287e-01
4.358280975752894942e-02
-2.388221647191061392e-01
-3.096632808446988516e-01
-3.205911507701612040e-01
-1.139835678129908214e-01
-2.794230032430277538e-02
4.485584867008977905e-02
-2.939178077446340243e-02
-5.045728755506390106e-02
1.427048923994365774e-02
-6.302766385218862288e-02
3.203689472627416386e-03
-1.978144903352663936e-02
1.033523635387051526e-01
9.516542586436964324e-03
-6.385377272477257837e-02
-3.041551974094228727e-01
2.591942674019301687e-02
-3.316475430525546442e-02
1.240231115018158720e-01
1.149482655477677973e-01
1.479041400162053044e-01
2.503089279098337783e-01
1.137378935976782468e-01
9.887585090887353323e-02
1.180832963952161557e-01
-6.675683676997083704e-02
3.894024385441918756e-02
3.440245629783876269e-01
-1.765730660607524871e-01
-2.501871536322827771e-01
9.115747788958966646e-02
2.294237568292846474e-02
1.747703317362702680e-01
1.730526855396396224e-01
1.382483614626428270e-01
8.640412005816207330e-02
-4.512198277561407095e-02
3.866253542301891222e-01
2.285468479430988100e-03
-9.518113699415244044e-02
1.556193140775484485e-01
-3.789098238574956784e-02
-2.544837158222553186e-01
-2.322908189652778677e-01
4.608530062240158431e-02
3.207030529913935252e-02
5.114810337058530582e-02
-1.140900869655064737e-01
-2.425097848842802661e-01
1.480096546042005135e-01
4.141105129901946902e-01
-2.665394483200543910e-02
-9.164930244437871631e-02
7.729953646133287670e-02
-6.835015445097285258e-02
-9.899946970669286361e-02
-2.197575223517667375e-01
-2.989255486462252809e-01
-1.699665222963759881e-01
-9.728539517368885170e-02
-1.228437024242345632e-01
-6.207285608858228998e-02
-1.255777682819530505e-01
5.204031226011628097e-02
-1.053381225081470862e-01
-1.411930656101048898e-01
-3.022988203344731395e-02
2.016668034191443637e-01
-6.809471373292051710e-02
1.576246312975090186e-02
1.312983608373290145e-01
-4.803232404020925383e-02
-1.981898681250539307e-01
5.525914582231659239e-02
-2.141310974197616346e-01
7.250600507147397789e-02
-2.186245595014630894e-01
-3.256364704286396350e-01
-1.614494967488597499e-01
-3.409471791500418708e-02
1.884480930941794807e-01
2.509332180348881058e-01
7.902042774623194155e-02
7.268554576821466273e-02
8.947309362772903896e-02
-4.632921248369873540e-02
4.637516325763094832e-02
-9.868863345887943228e-02
-9.609091320366157374e-03
2.151576276777515950e-01
5.247527573049162036e-02
-8.266202939035910413e-02
3.989014382697575467e-02
2.860670650473274845e-01
8.243116538867442666e-02
-2.671450699275884980e-02
3.139325086151509292e-01
1.843911552286872924e-01
2.598518734653242901e-01
1.868505087598282544e-01
3.801379111621046997e-02
7.768430036795269389e-02
7.434861830493627588e-02
2.865896072123373939e-01
1.404541481326406216e-01
-2.308518537344534383e-01
-2.239917618283223111e-01
-2.349021161517814149e-02
1.679910572088632315e-01
2.222022706589229721e-02
1.780311068609548297e-02
3.886003130116243431e-01
1.498729878927659576e-01
-6.574692678686214209e-02
9.233835854488260664e-02
-9.079331192696621367e-02
7.890476901301679558e-03
-5.344625962357037186e-02
9.684750789056792430e-02
-4.443840325070708142e-02
-3.621883818728881960e-02
7.060945357892094154e-02
-3.531036963631836167e-01
-1.476731356617916602e-01
-7.024703860694363200e-02
8.209035221911231694e-02
1.265866584901770286e-02
2.205002397111816004e-01
-5.434009001220925505e-02
1.277523225055867406e-01
2.944285280050711884e-01
5.714088998229852057e-03
5.335595548799694499e-02
1.523709348121876084e-01
-3.950728288008666933e-01
-4.476691243407276977e-01
-4.317944262948355538e-01
-6.991630876007683126e-02
-2.342403430904863582e-01
-1.273590971559494245e-01
-2.575236531442445798e-01
-1.617595530334915710e-01
2.966628691219963185e-02
-1.372093458283168699e-01
4.561053064521949918e-02
-7.798491311875535570e-02
1.215001090576220966e-01
3.923146961746808679e-03
-4.177083057382731668e-01
-6.569862402866541995e-01
-2.677593709089307605e-01
-3.325935799950428540e-01
-3.303606759502298873e-01
-2.820383556335847031e-01
-6.329963109632021911e-01
-3.506279480126049952e-01
1.731338024447290347e-01
-6.842696517121892308e-01
-5.450910411261573191e-02
9.395882577887068599e-02
8.711119858138717531e-02
1.986857129523239562e-02
-3.601985798747940615e-02
-4.338851944232891555e-01
4.982789369307629584e-02
1.303427153471644895e-01
7.004456323431620078e-03
5.869070575585938476e-02
-2.127134602177502970e-02
-2.689915158269768902e-01
-7.145649960985799298e-01
-6.040323463160180983e-01
-5.907807830521246695e-01
-1.555119406321840980e-01
2.216037068828817166e-02
7.416751981501135127e-02
2.179264674333209473e-01
-5.601213635710483585e-01
-2.605277727589648817e-01
4.510439911543257518e-01
2.411090116971284503e-01
4.580570700980686194e-01
2.782471866472717159e-01
1.149153552197673817e-01
1.950240852427937918e-03
-4.131164135059956499e-01
-6.897705723429581326e-01
-8.868141914983782015e-02
-6.636320175175168534e-02
3.147624271985116629e-01
-2.668702411700644705e-01
-9.213461622787072480e-02
1.228797786865994807e-01
-9.781406661363596655e-02
1.187737781965003125e-01
1.739843595694338385e-01
1.490577759804612434e-01
1.444339745155590882e-01
-7.679451656076645601e-03
-3.143623980472135537e-01
-2.474931186546267814e-01
-3.091353464718518129e-01
6.838881351384451524e-02
-1.171580596865424428e-01
-1.443787287795509910e-01
2.040261242582633652e-02
-1.716545846522349872e-01
-1.138025979938586674e-01
-2.489375332231274773e-01
-8.929724573796291587e-01
-9.673991312183816138e-01
-3.167170189636355770e-01
-2.238177114256919842e-01
-3.642102663639378707e-02
-1.578069971927074655e-01
-1.144502087265873297e-01
1.364269684865739851e-01
-3.780185053068833845e-02
-2.910960418910892369e-02
1.218626787134884787e-01
-2.125144192138901655e-02
-1.424249375738493029e-01
-3.053731908881091583e-01
-5.071877283376313716e-01
-1.634984713793061317e+00
-7.685969258314644392e-01
-2.424723869557536826e-01
1.284328489676356266e-01
-2.046984107624768012e-01
7.747310913562807655e-02
-1.714352635285713577e-01
3.751909106077150335e-02
1.269646695821580740e-01
2.305001705778645105e-01
-3.168404064134580089e-01
2.046730129165659773e-01
-1.569172858330195389e-02
1.756052484034694161e-01
-1.006016576195780804e-01
-4.276454322907537464e-01
2.286997475253147449e-01
2.603079963871279129e-02
-1.543508520279733391e-02
-5.321347994215015753e-02
-4.203932646163712761e-01
1.284355447715144760e-01
1.483048644247471903e-01
6.616403906787717004e-02
-2.241852674613625113e-02
2.372007483767943903e-01
2.214098600899226388e-01
2.059029066330071156e-01
2.060596503480752184e-01
-6.390379563087283943e-01
1.493189092757218617e-01
-1.434578002398277374e-01
2.956006397549382769e-01
-1.059297891484750204e-01
2.766402705841596033e-02
-4.651211955878556403e-02
-2.653366249671560428e-01
1.571394399347669502e-01
-9.717385404249981318e-02
1.081879929185935729e-01
1.240349932626886031e-01
9.679725635088927416e-02
2.292078079882791108e-01
-7.907596987080137141e-02
-6.835510943519021443e-02
8.738531583035953620e-02
1.438900457610021721e-01
8.378379893627566077e-02
-7.212048895480217825e-02
-3.473249704298799201e-01
-7.907617940269281998e-02
8.808485884900429941e-02
-4.326923797098469054e-02
-1.395502701517318048e-02
-8.728284247938028484e-02
1.332629135666487941e-01
1.394601270136228144e-01
1.542011970807222188e-02
-1.197998813569563503e-01
2.762333716258077304e-02
1.723610834971859573e-01
2.312445217164676992e-01
-1.696925162721221736e-01
-2.453052813969723023e-01
-2.604349560969813626e-01
-8.486693961111690943e-02
6.497638709697542425e-02
-6.290791423038138985e-02
-1.299482306892311145e-01
-2.701755674976881738e-01
7.121773437145015317e-02
1.298080817022725375e-01
-1.451438723232140182e-01
-8.653116657265502720e-02
-5.930111464819917688e-02
-1.076523712776402825e-01
7.855556797498194910e-02
-1.565320502045284001e-01
-1.203660765762541579e-01
1.193693012105465634e-01
-1.814215200858498578e-01
1.321870703388743629e-01
-9.736231414566264009e-02
-6.467265213789035183e-01
-2.463309698922956648e-01
-6.211748848601817558e-02
-1.799318011618077640e-01
-4.249340664216896130e-02
-9.224219600346303394e-02
6.373921737453240588e-02
3.146747962547371547e-01
-1.420470297567288584e-02
-2.241575093712788180e-01
1.603849458457112243e-01
8.305511864291555135e-02
4.710554958526848024e-01
-1.487296055405289141e-01
-1.715405405978968900e-01
-5.198905802600265469e-01
-1.735859146896006344e-01
1.737452567958811533e-01
-5.208510094858921635e-02
-1.195791278777236927e-01
-6.734521788693376490e-03
-1.057909423076395516e-01
2.634626350734737762e-02
-3.201053551048504420e-01
8.444938608094174765e-03
2.294223385290259931e-01
-3.357053894078754902e-02
2.292316693122820326e-01
7.234767269587902283e-02
-5.569495878206085493e-01
-4.268711271392054002e-02
-6.219612462222311872e-02
-1.432356668458486526e-01
1.357135149312966860e-01
6.906389042068032669e-02
9.220308668700673282e-02
-1.093462477992568870e-02
-2.283674442519420256e-01
-1.493520671108138353e-01
3.332528517103464094e-02
1.490693172040624126e-01
5.215702732263982622e-02
-1.085537005856348491e-01
-2.393009098452067163e-01
2.343715333220189878e-01
3.385187688528631389e-01
2.573766109267069946e-01
1.637090835709730241e-01
-1.273698763572097548e-01
8.558342478848304791e-02
-1.493003034074990021e-01
1.319745202419041197e-01
-1.890699192597720957e-01
-1.090358680185354520e-02
-2.381721515699608271e-01
-6.219030259490963830e-03
2.338808666694921212e-01
-8.632090384053284216e-02
1.309361376554427636e-01
2.566499461659453307e-01
5.267537747218230537e-01
5.686125299592219573e-01
-2.287743872214255403e-02
2.056560821409681994e-01
2.186283085320323560e-01
1.631626109655336110e-01
-2.035691278255263303e-01
-1.097374677911116536e-01
8.807704169612759482e-02
2.598487067887877422e-01
4.880207725066975331e-03
7.650789765647413032e-02
-1.886060829447611109e-01
2.689775070440659221e-01
3.459653875952704016e-01
5.753752744165459010e-01
4.420515682049642736e-01
3.949991734725329801e-02
1.320453103498189229e-01
-4.419137022619032407e-02
-5.684153207507626482e-02
1.027274065141282056e-01
-6.340963105486409346e-02
3.219198162613886444e-02
8.622607225220550731e-02
6.588995842395528602e-02
-9.325032016680797828e-03
-2.791808192410515366e-01
1.987998538729439935e-01
3.082686711878833696e-01
6.225850720833004948e-01
2.631007203668567773e-01
1.848053702009232746e-01
2.026877215158208179e-01
3.007592404300911682e-01
-1.107880487877868358e-01
-3.301646591480836279e-01
4.802265970212631074e-02
2.150845238497925693e-01
-1.024239901359407928e-01
-2.110843830269525448e-02
-1.468968536654018942e-01
-3.753474053972434277e-01
-1.724529065764985325e-01
1.925906300771841329e-01
2.706170287391390671e-04
4.427031321411056819e-02
2.798969397853421845e-02
-1.316988688984821743e-01
-6.944870540988742902e-02
-2.192811762094902528e-01
1.966149182302482368e-01
-3.438653090556320069e-01
-3.586048307570229802e-03
3.039677925756411811e-03
-1.678202590261469451e-01
-3.678794502207314854e-01
-3.823270494305028300e-01
-3.682384502070549792e-01
-3.546158939071409333e-01
-6.407611042704461357e-02
-1.610712649684595613e-02
-5.803332260552640509e-01
2.992583679621164949e-02
-2.496906174696553737e-01
-2.405627199257701909e-01
-2.616417512872514228e-01
2.425422525944895547e-01
-7.840320568154179881e-02
-1.915146954906832011e-01
1.701389258802657178e-01
-2.209633396421382678e-01
8.592632949308055823e-02
6.351125862071280159e-02
-1.348406534133723134e-01
8.113696590424775146e-02
-5.210461591541649951e-02
-8.569694857890522433e-02
2.214904295838882320e-01
-2.038910441827391368e-02
-1.942448673612596488e-01
1.164050092759516680e-01
-3.655265870362275349e-01
-8.847407213145162819e-02
-3.789988263666823065e-01
-7.372276384504260205e-02
-1.414884739725035256e-01
-2.153873625253941715e-01
1.184619768367872403e-03
7.114745949243822011e-03
1.029601361389854974e-01
-4.426409550262454598e-03
-1.320308606607486501e-01
-3.265825254769941788e-01
2.156223403218785750e-01
-1.262443004572707528e-01
-7.755662780845760940e-02
1.637097298724830008e-01
-1.457572262983484503e-02
-7.137686941500839821e-02
-1.337981384526778020e-02
4.627065514323283613e-02
1.702243548440047494e-01
-7.125125846378785321e-02
-1.126256166204749748e-01
-1.231547581376532530e-01
8.177609650304921984e-02
-2.330856479819613247e-01
1.023805241055843335e-01
1.425951049661252357e-01
2.292485287650378456e-01
-1.735402648571061912e-01
-4.442668624162260382e-02
-1.639792862183641897e-01
2.732274717546533394e-01
-1.467775160166618909e-01
1.408490364272494688e-01
-5.982854787825530457e-02
5.962450166658066902e-02
-2.896677309036349568e-01
5.049597310073403178e-02
2.357458899460244256e-02
1.282714865020606332e-01
1.852376775246440330e-02
-2.244075732440670157e-01
-2.150751561170524406e-01
9.624411822680324635e-02
1.065434572087606280e-01
5.564160324325570506e-02
-3.166566836283856573e-02
-4.450455035689405980e-02
1.378733485376961720e-01
-2.422718849109187222e-01
-9.451314506715825792e-02
-2.675978472780477999e-02
7.307663948233321383e-02
2.544445292831912578e-02
-2.445368658584054777e-01
2.006630432363163130e-01
7.306644727147118719e-03
-1.046555030539618736e-01
-4.435224956125743967e-02
-1.085572264353881072e-01
-7.387522479859920388e-02
1.348734359410871109e-01
-6.573317708058085129e-02
2.043096569784692285e-01
-8.744402833069115505e-03
5.009412062156195361e-02
-6.410232076122945877e-02
1.366609204178053649e-01
2.287985873073296317e-01
8.537067075300469599e-02
1.647932448400482308e-01
-2.751892225240238909e-01
2.465554264433265363e-01
-1.960744839398724515e-01
2.990155173178292158e-01
-1.743243318002637987e-01
5.669717095694775354e-03
-2.225554446199586867e-01
-3.685432103197637532e-02
1.375819534296986169e-01
4.358226151904474877e-02
2.451417047250339376e-01
2.205058249520456537e-01
2.061353885596669822e-01
1.557719078253619049e-01
8.391099713814136052e-02
-2.315129748980641888e-01
-1.506506066870900717e-01
-3.416187772561490865e-02
1.958810988021677038e-02
-1.081963352497435082e-01
-8.221766528965342158e-02
2.534470173720779901e-02
-7.493226918737028175e-02
2.454852117246854315e-02
-5.836046082953539119e-03
2.123083214689072129e-01
1.414922989638428552e-01
8.939207310931458761e-02
-3.386009580501951333e-01
2.598456019408449946e-01
-1.187329024256534027e-01
1.333500808559852369e-01
1.414671909659316329e-01
5.118162477667553834e-02
-1.270944556555926863e-01
7.502661997757602286e-02
2.790189253361007732e-02
-5.660806165337929977e-03
3.238138373790454272e-02
-5.710769371600621369e-02
7.838311742720981135e-02
8.279925012626787595e-02
1.790726837883443445e-01
-3.493252746447979978e-02
8.015214252285567109e-02
-1.218224418682599397e-01
-2.367344009219574108e-02
1.551761875539907354e-01
-6.843549030187751070e-02
-8.850884094575475758e-03
-8.520289319791470029e-02
2.004870570442841282e-01
1.520987206061185093e-01
-6.877404156331687335e-02
-6.152273370571282630e-03
-1.936926880566731679e-01
-1.502165368594936268e-01
7.316400825496634230e-02
4.386547279815169315e-02
-2.100364903137919570e-01
2.022662074313280323e-01
-3.431055253915137049e-02
-2.693791185322058288e-02
-7.113938180215345630e-02
-1.342262007482480646e-01
2.511377431420989265e-02
-4.762854950495729045e-02
-1.114002482449452242e-01
-6.516950221415714062e-02
-1.576407942738977663e-01
-5.481386117249061884e-01
-1.288873588632370448e-01
3.874380450118290742e-02
-5.741065273084274001e-02
1.611574920274610372e-03
3.283564677681532484e-01
-1.607757270388024406e-01
-2.028656677043247647e-01
1.045659968809291469e-02
-1.676374092980177366e-01
1.812228622165073522e-01
-1.548943334709830533e-02
-1.648918269870141284e-01
-1.831390435345788270e-01
-2.445154537732035227e-01
-6.069844355997897414e-03
1.312160829354774294e-01
1.531571890188342389e-01
1.753303541741459970e-01
2.208196658598120254e-01
6.560194446422470960e-02
-1.336292140086307312e-01
-2.600223861421620541e-01
2.365604999586223486e-02
2.228219301966888888e-01
-4.440257574779896826e-02
-2.999000373435871739e-02
-1.300036804040898171e-02
1.215111883593765763e-01
1.310021666597488595e-02
3.536071371406488972e-01
3.437105550849708369e-01
2.280166495434613194e-01
-1.825879631463035377e-02
-5.472522315058932912e-02
6.951855758753004710e-02
-9.243407149680314683e-02
1.287147951907009202e-01
-2.476766224624470936e-01
-4.153257488402997688e-02
-1.536771442850726754e-01
8.533249405451247271e-02
-1.213793101630787213e-01
1.326400219142501169e-01
3.558997733430572796e-01
3.354704443284261539e-01
1.149117202251268788e+00
4.236546441576752864e-01
-1.432687085786203407e-01
3.574025643351751436e-01
-1.509394367245546209e-01
1.675714413515373979e-01
-2.504696281684218873e-01
2.142072124614952944e-01
1.245824379551396105e-01
1.262519832098482342e-01
1.097004857575178544e-01
2.631088684057102389e-01
2.793979338442791338e-01
4.563702777819895195e-01
8.428604043391695333e-01
6.470691968556363527e-01
4.298088109269119772e-01
-4.440707183920423740e-01
5.641144352761046088e-02
-1.619271323313058730e-01
1.821889418378369319e-01
-3.421568578782011594e-01
7.149962088480830980e-02
3.778181690650754543e-02
-1.068376932518045191e-01
-1.289740284951467440e-02
-2.635974735889754506e-01
-3.140102661524519362e-02
6.031831722060922163e-02
-9.855033948329219862e-02
-4.321952193529076530e-02
-1.136367344173432568e-02
5.020382828061258768e-02
9.841499077503276793e-02
-6.755764076200566903e-02
-2.421631708189259449e-02
-5.799781102589268711e-02
1.039923543959153374e-01
-2.319464041751669731e-02
-3.685949365518732031e-03
5.354043936689664718e-02
-1.658822493908370874e-02
-1.288558525468696224e-02
-1.713579489067239559e-01
1.502873173685290720e-01
4.339889969034779055e-02
-1.200409268012703028e-02
1.784039977946282052e-01
2.670904375770655897e-02
-1.487412023394675820e-01
5.254526726528269825e-02
3.478938014173948295e-02
7.022002279926621571e-02
1.181830874949235943e-01
-3.060242133550297380e-02
-2.503913017374509095e-02
6.024292812078391873e-02
-2.221295083195268250e-01
1.615048822190911504e-01
-3.198463219395704105e-01
1.447465521955270951e-01
3.408799247847532545e-03
-3.782934455353105241e-01
-2.998653511815065897e-01
1.232923895255583768e-01
-4.265250761557723078e-03
-6.333280664646831482e-02
-2.060338350337335422e-01
-1.087112628949328114e-01
1.280527043223333994e-01
-1.473137948514006978e-01
1.849465747720086331e-02
1.275592316228060796e-02
9.367149900891565129e-02
-3.196009140602736054e-02
-1.415667058862743743e-01
1.728416260928879733e-01
2.622843775953678791e-01
8.098407706547566809e-02
-1.327623953208412755e-01
-1.492473383206324722e-01
2.391708077568243940e-01
1.248914377216331500e-01
1.427679639974472892e-01
2.524588780461801615e-02
5.965742313046851902e-02
9.101223559635500393e-02
1.078578788162862651e-01
-3.368756302551086101e-02
-5.470936744454060058e-02
1.779324839743483266e-02
-1.953101280528929048e-02
-1.879205825441824518e-01
-9.120653258864777624e-02
1.222062345566831826e-01
-1.502134150900073239e-01
-1.130990838929143982e-01
-1.785650501652322544e-02
-1.001347062531405818e-01
-1.273319821342305258e-01
5.537345962386427956e-02
1.793719873955637589e-01
-5.675168668396106397e-02
-3.580387249175561726e-01
-4.687553090549979040e-01
6.458388057072369202e-03
7.998351030944222950e-02
2.057772155437505579e-01
1.809842241526817275e-01
-2.120088115142481078e-01
-4.244343682103261794e-02
-1.317980697683307327e-02
-1.246851530113823048e-01
1.669855074241782464e-02
2.555853387480820291e-02
-1.540339136536595932e-01
-2.890571123686434540e-01
-4.730967467912179647e-02
-3.919233389940018908e-01
8.727920934059647806e-02
6.492075000242593374e-02
2.072979672756495861e-01
-3.035406752476394604e-02
1.526014920090714355e-03
9.566247820549750314e-02
-1.732067807761734912e-01
-1.140845712153757893e-02
-8.250034826647090203e-02
-8.736102991750624436e-02
-2.736115699912990487e-02
-8.571449463501788768e-02
-1.046222322181148134e-01
1.791617239405501605e-01
7.870405581527008254e-02
2.786307630093471377e-01
6.735581189078255759e-01
2.113171430071821566e-01
3.526039492340064807e-02
2.521316411461604345e-01
-4.575946850792388942e-01
2.274701136328015905e-01
-9.310004505728440224e-03
4.465639903020825197e-02
2.080495213874796745e-01
-2.277038035653360104e-01
-2.672444262941885834e-02
1.421104205454377378e-01
6.202539826538058798e-02
7.289604645730914101e-02
1.047972853993332842e+00
3.319662346560592336e-01
1.613138578430730052e-01
2.594947667887194387e-02
8.783576532083657573e-02
4.794773614104391180e-01
-1.099888665080245298e-01
1.074571492369504888e-01
1.024448277264608520e-01
1.196596558757352241e-01
-4.196012340316462169e-02
2.788711095792055228e-01
-5.517560706553597399e-02
7.667106961168890233e-01
1.118832770105013807e+00
4.279502714726350354e-01
2.475838471906271487e-01
1.243139618097844484e-01
-2.223473408406036536e-02
1.015224469938100088e-01
-1.784068589344215694e-01
1.845806968690576200e-01
1.815661820110629765e-01
4.083822102621723765e-02
1.131554643525102544e-01
1.463845152419645558e-02
2.296371613971337211e-01
5.252789091725964532e-01
5.249579767720814472e-01
2.454440108732925119e-01
3.334432676526700723e-01
1.124636258723568094e-01
2.080761639707730537e-01
1.517384759573241482e-01
-3.284490020019252277e-01
2.873343946379211533e-01
-9.062563361280119578e-02
-1.495675719840525685e-02
1.955255491583949290e-01
1.337124349486165376e-01
2.018245784134728715e-01
2.212317916654367445e-01
2.553061873862197406e-01
4.298228266740084652e-02
1.873689370946231558e-01
-2.236596069988401325e-01
7.782186163884999286e-02
-2.337989851957965933e-03
3.545803327744065370e-02
2.775888754843622852e-01
9.426979476424919568e-02
-1.578374227951768669e-02
3.092475569222435383e-01
8.643008145458930258e-02
4.466018351940418546e-02
-5.519432103414571161e-02
6.197538130273574225e-02
1.022971180111924422e-01
1.938836675032211132e-01
-3.824428488219348554e-01
-1.910548492511722207e-01
2.129294343372060971e-01
-3.530741708720027544e-02
-6.009841983694816370e-02
-9.125314116564350875e-02
-2.419946733044960052e-01
-2.054708721677580771e-02
-2.354361526585579401e-01
-7.854263112716090151e-03
9.793157705424211656e-02
-3.315701081340974299e-02
-1.720987253804146799e-01
-7.480631400783259444e-02
-2.248937032621085019e-01
-3.677955628794066234e-01
-8.363423809060481842e-03
1.671934764804757223e-01
1.034239988870960525e-01
-6.121953615341232252e-02
-9.163168525869389014e-03
-1.520875456432665973e-01
-1.456772343804676670e-02
1.184462090458769240e-01
-3.054496000073308459e-01
-4.555415666907380867e-02
-1.753389504491388029e-01
2.264607974232113116e-02
-2.609550702841224590e-01
-6.385158562050301245e-02
-1.285606106696302875e-01
7.163734946749981958e-02
3.946426646425447299e-02
1.851867833911984007e-01
-2.695079503578524105e-01
-1.328342209282807121e-02
-5.540129092411044676e-02
1.993030894014336668e-02
-1.826062433383080774e-01
1.183018388034769858e-01
-1.641302550890053058e-01
3.603046750572291845e-01
2.885222474041736485e-01
8.337671059581679145e-02
2.874994399670711687e-01
2.592729486690624752e-01
5.792062450321705525e-01
9.768691217089406353e-02
9.218370505872551801e-01
2.848900078502888400e-01
7.119040894277983700e-02
-1.089626902159298166e-01
8.048036408326393262e-03
-5.369368277395226985e-02
5.679229321612070530e-02
3.306995770157226955e-02
7.713724229855284387e-02
3.124554489421845771e-01
1.300731801213668437e-01
6.105148390217064042e-02
4.363400777633670291e-01
6.906336978647997782e-01
5.023194904786361104e-01
3.251581935253483047e-01
-3.252547681938130486e-01
3.506291382089835595e-01
-2.003859188181184373e-02
1.580081385178155606e-01
8.331703210321780850e-02
1.818504390403507809e-01
1.280514299521507970e-01
4.358194159302471449e-01
8.022073890966688325e-02
1.079586240952736947e-01
2.305917016415466314e-01
2.885642248154493550e-01
9.175788755053294610e-01
9.376083501730138048e-01
3.150228894673078317e-01
-2.937495305315851804e-02
-4.230936875971494371e-02
-9.944669467943739738e-02
-8.504068774940722053e-02
-1.056969450570300617e-01
-7.283867392009392427e-02
1.176738183822306910e-01
-8.986242595554537471e-02
-2.982561188840869848e-01
-2.081984997017572725e-01
1.737028142250406082e-01
7.607791609952435641e-02
5.984407924920995825e-01
8.705259977185748899e-02
7.306461013658298587e-01
2.630125633616707259e-01
1.324284172153061268e-01
1.616670626287903256e-01
-9.011633925452001981e-02
1.520390104328878667e-01
-6.661975414778027738e-02
2.857243885088947555e-01
-1.031319247954938650e-01
-2.504303659347602018e-01
-1.531712113465876768e-01
-8.135156801273529803e-02
-6.453214356742224822e-02
3.639247543217302150e-01
3.181351829050673152e-01
4.124961685413332246e-02
-3.408669340445145690e-01
-2.129897903511526469e-01
2.663554874055109045e-01
-1.673253855980594840e-01
-1.001836191514265256e-01
-1.875622164037456518e-01
-3.084698232325326916e-01
1.443930509781387109e-02
-1.920986682064162732e-01
-1.345363411044631086e-01
-1.687889393785921843e-01
-9.160308058739305426e-02
-3.365409825652212472e-01
-5.901215599362568537e-02
-1.468925777048496473e-01
2.742718791373270903e-01
-1.609277062892646229e-02
-1.037515972964791894e-01
-5.304937074899336580e-02
1.212213974673394673e-01
1.111794454371718005e-02
1.990892471162858390e-01
-1.521949745542668098e-01
-1.559387047048741148e-01
-2.704678918325863490e-01
1.334404807975411444e-01
-2.125190036376351232e-01
6.086158175471744619e-02
8.973282576402442229e-03
2.618972521082705285e-01
-2.267979873925903833e-01
-1.923012796949175734e-02
-8.271726689005486077e-02
-8.812264749384556006e-02
-5.889293986244883983e-02
1.363320333304994803e-01
-2.625365788554297475e-01
5.379358422268055301e-02
9.617394207573699144e-03
1.542793190023679095e-01
-2.437117946323179851e-01
-2.688909893374997750e-01
9.100323605334037502e-02
-9.040640104425670676e-02
-4.798503716990994150e-02
3.728692073494552922e-02
5.797863979547666219e-02
5.841558759919323468e-02
1.728269457646943730e-01
-2.221758309035840040e-01
4.647400757085350109e-02
7.696145707823476290e-02
1.722438512134851218e-01
2.253732470459870324e-02
-1.341186883792341161e-02
1.086275520741165762e-01
-1.779403583719554316e-01
2.400107582472034706e-01
1.686845355362996957e-01
2.351724741347121020e-02
9.378552114844908305e-02
4.821330617471282498e-02
-7.143663668249247700e-02
-3.508343732681719063e-01
3.428746571242780039e-01
-1.862143637813587493e-01
-8.314017465241164973e-03
4.267182619581943309e-02
-3.885241546752808695e-02
-9.421905959688212095e-02
8.482040104988243512e-02
-1.438223061090686816e-01
1.271815464806412832e-01
-1.098558473948714476e-01
4.409323226092433379e-02
-2.109826346482013559e-01
4.381366123484371489e-01
-2.582291488952183633e-01
1.963125267286813525e-01
2.379201943084801041e-01
1.892810594929011242e-02
5.315547917016535950e-02
-1.916527683540401594e-01
1.158140984021674286e-01
1.519334085269763157e-01
-3.327332481168387979e-01
1.665053641335502432e-01
-3.922503566576064638e-03
-2.076027520514016900e-01
9.145489187658760455e-02
-3.520059899757217031e-02
-5.584848463623492965e-01
3.226855585663503945e-01
-4.001083641776463917e-01
-6.467961157272697492e-02
-4.233704166714829381e-02
-3.558508369047094777e-01
5.866130474846700110e-02
-2.567439653633483143e-01
-6.019507632255171291e-03
1.972068063414356420e-01
-4.712660834429262535e-01
1.142180864629234183e-01
2.980010652567996465e-01
1.277985519774436918e-01
-2.211142138189137740e-01
1.127719848348972091e-02
-2.944363063000324243e-01
1.453267200233278045e-01
-1.255466838023059084e-01
3.026104953659797259e-01
-1.050685746189409242e-01
-2.013592448340457280e-02
-3.004215127381601111e-02
-3.234712571053469793e-02
-2.276138378681926144e-01
1.978926303784336871e-02
-2.293949820460429168e-01
-8.473432417538093175e-02
2.665046880263467061e-02
2.228387296965163578e-01
-1.135878070171815191e-01
3.197336535198850443e-02
9.885702259960209293e-02
-1.668568679701302182e-01
-2.338961903534123032e-01
-6.383828134717623587e-03
-1.758653975046915174e-01
1.742939959393463856e-01
-1.052848922194900283e-01
1.126544684097278981e-01
1.667451825849484426e-01
-2.691541315809461293e-02
1.739584627084581059e-01
7.549321308000941921e-02
-2.868062180262941768e-02
-3.098179040234191536e-02
1.051290343659457525e-02
2.982847202119863206e-01
1.041575463185525352e-01
9.357649962825784207e-02
1.928179266417627269e-01
4.568118633990059935e-02
-8.001385981137892900e-03
-7.350132695949180769e-04
-1.833973192073100889e-01
1.183602144705521303e-01
-5.398715000796022040e-02
1.161412935879296421e-01
3.143466256510721313e-02
-6.094907749092716431e-02
9.873199910704235152e-03
-6.507481355172256565e-02
-1.756181466872432650e-01
-2.359806756438370956e-01
-2.921374396921307907e-03
1.050801758709472428e-01
7.643718497905545306e-02
6.304735070751375792e-02
1.865676454573308995e-01
-1.869438843294198294e-01
1.825285823437052535e-01
2.194349042557056442e-02
-9.929696612384594778e-02
2.183934706865254260e-01
2.092540481007079123e-01
-2.004237014838655684e-01
-1.177700937598637060e-01
2.174397654184292896e-03
-1.902023342531796168e-01
-8.634575036744092380e-02
3.248481572971913256e-02
3.072173920833432548e-01
-3.824423477151567361e-03
-1.571485925795175209e-01
1.283292083540370498e-01
-2.205029245566954288e-01
2.750576285145509350e-02
-2.147594788453765710e-02
-8.350685901552706847e-02
-1.234638630296726325e-01
2.111283963413999529e-02
-1.994130296418389070e-01
-2.197926433383137479e-01
2.214816013004060891e-01
3.190351555109710580e-02
1.318948070643730375e-01
2.217882895303222197e-03
2.928441642931486344e-01
4.503629849137119612e-02
-1.001429283866461933e-01
2.376376372598410225e-01
1.323008516948357416e-01
-1.729412923380527767e-01
3.368387880481178015e-02
4.332944351844578851e-02
6.616301250545627427e-03
2.091662207666870887e-02
-2.634588346918858570e-01
-2.775983013506111430e-01
9.610399052276721865e-02
-6.673537150821128375e-03
-9.531725323988420040e-02
-2.319757885926573837e-01
-1.209566716472510774e-02
-8.424818807118442110e-02
-7.342673877964030205e-02
-3.427606919506470673e-02
1.091464059025991666e-03
2.761605296066972290e-02
3.038742132199176993e-01
3.448125043229672837e-01
5.119999936311139255e-01
9.930945280242456374e-02
-1.022387744206904453e-01
-2.874417348880707254e-02
-1.406576344042533922e-03
-1.742886675752766956e-01
9.181099615295923444e-02
4.547903593252355936e-02
-9.979226812895543308e-02
2.202813125391744342e-01
-1.196568463534706112e-01
1.239619381247704516e-01
-1.601584000680909559e-01
5.707694041315612976e-01
5.963282568534544748e-01
4.382218510721833660e-01
3.934361482407812138e-01
5.226641881006705015e-02
-2.705073955591330015e-01
1.452438191923762223e-01
-2.599538802219407765e-02
-8.510317781052674502e-02
8.161264060841773305e-02
6.222514151443499231e-02
-1.898498931613137094e-03
3.383179976031694403e-01
-1.864950069632168583e-01
1.383174045178561622e-02
5.244443241698275582e-01
2.489780689305333805e+00
3.802973501926578681e-01
2.028740817147882125e-01
4.270713422901463441e-02
-2.404498583016345670e-02
3.123766127018308067e-02
4.793788836317692398e-03
-1.338635401222909860e-01
-8.712333912043209241e-03
-6.352220178753832658e-02
-4.917063556008317848e-02
-3.219421764112354589e-01
2.507055667041644953e-01
-1.679256780604567734e-01
5.989461460134962723e-01
7.264511035326800537e-01
3.261404985324769523e-01
8.928657812540126415e-02
-1.011545561783470243e-01
2.435105886902083627e-01
2.687738247001342923e-02
-9.108517183552067298e-02
1.335464765596197124e-02
-4.539304522207103162e-03
2.217305767695907509e-02
7.580936967031873253e-02
5.140940672315600507e-02
2.255054237729555225e-02
7.188839081660904073e-02
6.220973148743451642e-01
3.532999564957132743e-01
2.984467854657421038e-01
-2.615736946251276951e-01
-2.986030271801839910e-03
-1.610503803563146930e-01
1.811355485069005289e-01
-4.274045447391722902e-02
-6.724304401426503541e-02
-3.425837993121304530e-03
-1.799645656076148681e-01
-1.216653586145548527e-01
6.135730164784736901e-02
-2.345014240549103401e-01
2.090137419080587422e-01
-7.849293919191722979e-03
3.841453357180084627e-01
-6.854249069127660299e-01
-1.252829042991709940e-01
7.651737902348189346e-02
1.142641366065638708e-01
-1.993485786415829381e-02
8.134912515613344774e-02
-1.411201847535637280e-02
8.816555030637643342e-02
8.025388754008103143e-02
1.150127063096827579e-01
-1.071996737801590577e-01
1.269998224918395535e-01
-2.214984600863489916e-01
1.986967416223195115e-01
-1.163577688838945690e-01
-2.652823655388644730e-01
2.851571346661122691e-02
-3.020831719811381891e-02
-1.042356216733963808e-01
3.126434960492550930e-02
6.460560893948222305e-02
-2.192393213332832769e-01
-8.014133974027555507e-02
8.330728348348676038e-02
-4.638545783009385970e-02
1.571048676540758027e-01
1.513166647688048705e-01
1.309240210970485097e-01
-1.931032447260254692e-01
-2.139606950733610041e-02
-4.420226412126458670e-02
-9.380965585783250515e-02
-2.381371602957859657e-01
1.650062103116378132e-01
-1.466571709555358205e-01
8.161962364463920885e-03
1.737331687474430730e-01
-1.974237707786681839e-01
-1.709107038267307366e-01
3.842878556394679207e-02
-1.906523147517073802e-01
-5.809467585681087759e-02
3.090552994793899916e-02
2.001684553473117578e-01
2.885791249737821446e-02
1.796221728528661354e-01
-1.787432915023303148e-01
1.755798808906460784e-01
-1.398250057984758987e-01
-4.016474661963890386e-02
4.247933144545570916e-02
-2.238816811481587066e-01
1.906939742171643581e-01
1.658816701906527108e-02
9.307050607724924596e-02
-2.376535236402112228e-01
-1.505719069042914249e-01
-7.812808746404570348e-02
-8.868287145296314955e-02
9.156659640660845534e-02
5.906856611115720440e-02
7.891023903409742635e-02
-2.406448919167415434e-01
1.463643648973186329e-01
1.849816721804794784e-01
2.707674762917902656e-02
-3.352931605631189610e-02
-2.957997159725375691e-03
3.342552093714015043e-02
6.476629187380608015e-04
2.205174663421219650e-01
-3.091288202539759292e-02
2.954128243645881002e-01
1.437832021075069744e-01
-5.134290297386638613e-02
7.070376673678413493e-02
-1.108211858160811948e-02
-7.622698653240144069e-03
-1.806852217489083867e-01
-8.285816662933463694e-02
8.013282646394051523e-02
1.173598964238459358e-01
-1.988807175656072124e-01
3.265391869853056378e-02
-1.727803950272744082e-01
-6.181879614815666973e-02
-6.177384647135550182e-03
-6.401024336064529141e-01
9.791487585773148150e-02
-3.139541569454247782e-01
9.985763135393452283e-02
-5.978313227082915349e-02
1.118956517683187268e-01
7.520651472574749197e-02
-3.753421840853719826e-02
-4.725572881751589210e-03
1.290824901491274268e-01
-3.707219063590610347e-02
1.518325546648619517e-01
2.796697587006073682e-02
2.541598561199743256e-01
-1.899070492232352719e-02
2.432239227883913613e-01
9.256698992131362491e-02
1.185205189017981969e-01
-9.714075897607386822e-03
-4.934946536957727364e-02
7.390195515977060893e-05
-2.556498001056647582e-02
5.671576846693350549e-02
4.966261071119036641e-02
-2.318508821675124287e-01
-2.632726641400019024e-02
1.882736447899548138e-01
1.253121021856998425e-02
-1.196108960977565472e-01
-3.911325242937403052e-02
-1.145526010366382024e-03
-8.696512697483813059e-02
-1.129042550893570723e-01
-1.386669991966712479e-01
9.494473072783912726e-02
1.132586646259580061e-02
-3.314333329810238704e-02
1.829336878517862607e-03
-1.362425757008884075e-01
-2.827056563177330131e-02
-1.933119536151912399e-01
8.078810417535227384e-02
5.334127725002469483e-02
2.868438189819962902e-01
-4.422844937122863418e-02
1.569255655389026555e-03
-3.529783005248435940e-02
-5.092087650880511296e-02
-3.054063309661347175e-02
-5.446856829735746697e-02
-1.092704419407414945e-01
7.098194545725619586e-02
4.185743936141123056e-02
-6.135397857245346309e-02
-1.392671045748391026e-02
6.493448990461510306e-02
-5.628552680416074819e-04
7.679753254664924145e-02
-3.521366093248090023e-01
1.239236253087045575e-02
-3.625619661040690306e-02
-8.507195379403174884e-02
1.490155490148476446e-02
2.438000213615967166e-02
2.685290972589894978e-02
-9.575226722786867734e-03
-6.944045353092499068e-03
4.980437670030914143e-02
-1.842117614255111557e-01
3.905392222605130054e-02
-9.033852653585268400e-02
1.224505160829479911e-01
1.168581630650551359e-02
-4.739779992765699029e-02
3.187990479841737446e-02
2.577545465213216397e-02
-2.817907939002133322e-01
4.631037496133052350e-02
-6.957091250544349126e-02
-9.263241343579591003e-02
1.559020360187196239e-02
-1.299086369042235650e-02
-6.409986474236441245e-02
-2.035617714936015232e-02
4.035167499850214612e-02
-8.847985327382696524e-03
-1.667817992678716499e-01
-1.514260492318466877e-01
1.180136556352364002e-01
-5.563710443186815902e-02
-1.269623884153338322e-01
1.022328930242902001e-01
2.989232007910329614e-01
1.072445378366503055e-02
7.520792445576288121e-02
5.237193799968092867e-02
-1.039858163217639297e-01
1.758433365737814280e-01
1.485611493137888872e-01
7.086781125869238973e-02
-1.597544301335014905e-01
2.753020558768207171e-02
2.367254323003545671e-02
-1.433898411338488665e-01
7.300991697012455817e-02
-6.616472977161894087e-02
-4.063662061434546863e-02
-5.282109117220715883e-02
-1.041753811736802066e-01
-1.198616019937559646e-01
1.228373719494714328e-01
2.377343598729018612e-02
-1.688879738361923899e-01
-6.544745866967338621e-02
7.985224065321644416e-02
1.420097901977413757e-01
1.038132067003034141e-02
9.639141449291364905e-02
6.057733520568900354e-02
-1.009219254201543514e-01
2.742685557209074629e-02
-1.161885640100177586e-01
-1.679219782311561215e-01
-2.644062380519897615e-01
-2.103180197412956309e-01
-7.360118312038037292e-02
-1.708042654334243904e-01
7.304384777500527726e-02
2.738785228212400891e-02
-8.797792388593760060e-02
-1.664025070919850358e-01
-1.267787250775962715e-01
2.981596190867246213e-02
-8.217614488369198722e-02
1.537568501953962830e-01
-7.051181202496240030e-02
1.867266071335708377e-01
-1.150960766115123185e-01
1.099587385689135971e-01
-3.226259053768514851e-01
-8.663974412916911061e-02
5.469623327506615423e-02
-1.824803597994074655e-01
-8.889541819513351040e-02
-1.131086729956189488e-02
-8.588273268657987958e-02
2.457855699557928708e-01
-1.985798369489948090e-01
7.233835708589969604e-02
-1.229257821171388099e-01
-3.301744424415262169e-02
1.659774460768308757e-01
2.796240095806313830e-01
1.577353630663594630e-01
4.161994096143727395e-01
-2.132799567181382361e-01
1.932451005767954477e-02
-8.770617675198445762e-02
1.730777176117075933e-01
-1.031743836766019495e-01
5.725950856942969153e-02
5.715454672933517610e-02
1.637554706358523293e-01
2.020658370876867241e-02
7.364762406777235204e-02
-1.203433380071303044e-01
4.983342380470626165e-01
2.580922373112572443e-01
6.334703998829080973e-01
3.281416898528600190e-01
1.493515643028723583e-01
5.209112497465604591e-02
-1.540175459389316326e-01
3.898441070592081892e-02
-6.080419275259010131e-02
1.030762455857424653e-01
-2.984939313805344899e-02
-1.381208271158139989e-01
1.365610995891035524e-02
-7.584789065469726976e-02
1.289807131874632640e-01
6.550256558293910958e-01
9.241229254666945003e-01
8.780067785691596516e-01
4.788279119407045092e-01
1.866925725254985069e-01
5.149327028072873957e-02
-1.643550408750555081e-01
8.257168601975105326e-02
6.784460902817296413e-02
-1.580983341287398036e-01
-1.271515760247502458e-01
3.233274341252482392e-02
1.435265625113268939e-01
-1.227633014020926838e-01
-3.946931949468677203e-01
3.959028852527978204e-01
4.505229270076454018e-01
7.410268911610136122e-01
3.235555025027471165e-01
3.531515377515084819e-01
-1.007949332856508534e-01
-2.359271763009896383e-01
-2.931534115482313796e-01
2.483182243548511803e-01
-8.391912237643638084e-02
-1.103501931159757594e-02
-5.558672481486654572e-05
-1.935520289531669214e-01
2.599373583347966421e-01
1.963333344185853591e-01
5.349643764635562126e-01
2.677351017127202470e-01
6.907445189788861128e-01
5.142189432089476764e-01
1.417621072176625252e-01
-1.267148106360890536e-01
1.719618480351547685e-01
-1.121955385144560308e-01
2.057170538004276517e-01
-2.547250482075404943e-01
-5.105834917553629670e-02
1.291673369886088274e-01
-3.085573506901311824e-01
-2.282741932727573933e-02
-2.990969123895000359e-01
-1.659408420043085031e-01
9.183970755837733702e-02
-7.395885572242302808e-02
-2.706226227965305431e-01
1.620548908180008685e-01
-2.065174999006959833e-01
-5.672868998608827928e-02
4.595368817469167033e-02
2.112964223772103439e-02
1.549417286801865468e-01
-1.139744051836330818e-01
1.272363054352115830e-01
6.970790572311641453e-02
-6.161314689778515929e-02
8.103654214726199734e-02
-1.137181009017074057e-01
1.078487679422117096e-01
8.552403147337554745e-02
5.844197766780442199e-02
-3.249216142856136136e-01
1.576171341191658637e-01
-5.992734193681924920e-02
-7.354064911633245889e-03
-1.199662181239446622e-03
1.168870341466478890e-01
3.286566277206125208e-02
-1.911933367739757361e-01
-2.393462950099331087e-03
1.662608121002699946e-01
9.107542062071082023e-02
-7.247781340696937474e-04
4.512335807157110269e-04
-8.822793310905026332e-02
1.073048337647829059e-01
1.457910150050616138e-01
-9.988591237209477891e-02
1.141789203738774981e-02
-3.816711618867091316e-02
-4.208710455560098901e-02
-1.603694952666572249e-01
-1.209117562244671762e-01
-6.304770614052988831e-02
1.609674749704477492e-02
-6.089638562110746139e-02
4.373577927023237361e-02
-5.638890826891748698e-02
8.405287781991930413e-03
7.213702843245220486e-02
-1.058450555561455397e-01
-1.162237702127857791e-01
3.097332532358374954e-02
-4.058965859391019948e-02
1.233156293984272456e-01
-1.215852625161667200e-01
-4.555744383974822537e-02
-2.384636931680247374e-01
-1.765654509939223182e-01
-4.115027535791935392e-02
4.749621731456643570e-02
1.245352455568404099e-01
1.291396531016193727e-01
-6.087004236215397268e-02
-6.081612037641265928e-02
1.657338797019658194e-01
4.368325854340568415e-02
5.287832314547861318e-02
4.098668776753518206e-02
-9.893906307746179463e-02
8.884413524708399679e-02
-1.243181874127852887e-01
1.903159472514487143e-03
-1.135086249174074302e-01
-1.332697656705275902e-01
-3.377644293741000753e-02
6.733021322422197419e-02
-2.197030665913073458e-02
1.806085540331690831e-02
6.480635805637730007e-02
-3.766734814299842280e-03
-5.600605795965330792e-03
2.432808588477302081e-01
-1.016217283540652855e-01
1.765718390330786314e-01
3.478537316871856827e-02
1.261084918417788026e-01
-1.472938043628392070e-02
5.442899320675802927e-02
-6.235188383942692064e-02
2.240435862238326914e-02
1.230220364665524369e-01
-1.343155545461460071e-02
6.901584572290542750e-04
-3.752224247063797730e-02
1.281954078433152622e-01
-4.466701896853579254e-03
-2.191708361553023135e-02
1.447637205472169231e-01
6.457558511714765748e-02
2.155840080720073104e-01
-8.061180397705416945e-02
1.635141489845008400e-01
-1.065941898867900500e-01
-8.270882864551107327e-02
8.011572573626674076e-02
-1.344447721966637345e-02
-1.398007789427632430e-01
-1.318445664906427173e-01
5.151083584182608588e-02
1.972558399726899794e-02
-1.546075419390308403e-01
3.287339200634251113e-01
-2.376124100170203257e-01
-4.979581840040749052e-03
-2.889453437289010718e-02
2.098046832809482010e-01
-1.060251185875581148e-01
-5.087313380141076508e-02
-1.456652310929784366e-01
7.525316248379200490e-02
4.203864168318245664e-02
2.033781416528608887e-01
-8.081591298116268252e-02
-2.319700323735498105e-03
-9.027860490247517633e-02
2.231151097584678222e-01
-2.164971475916812049e-01
4.316742248616676353e-02
1.800753478462794044e-01
1.062952011307067152e-01
1.412260726800190491e-01
1.762067288173919943e-01
-1.881410777661397804e-01
-2.568732851794698901e-01
-2.418469147039470357e-02
8.277995110491302710e-02
-1.438247650539054845e-01
-5.601691138500496103e-02
5.113217326586694950e-02
1.154435198727968015e-01
-1.265257558378534153e-01
-1.727022758994680579e-02
-1.016399250163732004e-01
7.849582071646333745e-03
2.612791280476787215e-01
2.261344234490338667e-01
4.791446798816478142e-02
-7.699853359445558987e-02
-2.498046660639516303e-01
-2.220586679238114591e-01
-1.964524071312171230e-02
-1.566943721300189940e-01
-8.889906713653938919e-02
3.949681515462125092e-02
-1.178068829724493588e-01
-1.356482385731222762e-01
-2.214906891896785968e-01
9.183778832441730211e-02
1.449017057275471809e-01
4.385197581160973912e-01
2.742039026985072514e-01
1.731984118278322715e-01
-9.880770495167887080e-02
-2.939931593320312814e-03
9.184864036792120268e-02
-2.768457550465025160e-02
6.045026338951398764e-02
-5.193964039930439730e-02
-1.444912362103252523e-01
1.688000647633329521e-01
-1.236335591669400491e-01
-3.457198101215999686e-01
-2.760346535320971628e-01
1.643665668546595571e-01
7.660909268667223104e-01
7.842939588703640164e-01
3.787559170420776722e-01
4.313589580696993581e-02
-1.244725677627337157e-01
-1.938909232477932787e-01
-9.936334614748248972e-02
1.338324306973527611e-02
9.020800248970067825e-02
-4.393818619895530769e-02
9.309864071279083664e-02
-1.809572105522060659e-01
-2.854611598733153288e-01
-1.101826186785538897e-01
3.069410341394684938e-01
1.344117352208517913e+00
3.946177157700099802e-01
2.030127750199123560e-01
1.346023574449211335e-01
-1.531808414104985083e-01
-3.385553016368435253e-02
-4.983302828902723414e-02
-3.352509356266353269e-02
-5.379444499599163321e-02
3.071865076961954877e-01
1.572832159682311173e-02
-3.054571244268462493e-01
-6.049320502281368972e-02
1.334898505929228360e-02
3.043142860210204526e-01
7.839595797589390402e-01
3.272927644281078963e-01
2.264464119482711146e-01
3.429494375549971275e-02
-1.642550444500461282e-01
-2.279341494192984041e-01
6.918132862896327756e-03
2.056271496570960255e-01
-7.150123076824066448e-02
-1.251442564206532021e-02
-7.133584304368396911e-02
5.598513072464335327e-02
-2.440067697618645837e-01
3.141093339232039483e-01
4.407484938169739519e-01
3.114612301374664050e-01
2.120443112782899875e-01
-3.948874052553229264e-02
-1.244777745223307613e-01
-1.767307567929130296e-01
-3.119884426903149401e-03
-6.816445369222721984e-02
-1.610475866914014842e-01
-3.582983896642630284e-01
-1.305328850333397073e-01
1.118488435709190792e-01
1.508452327045886054e-01
1.779717694692994345e-01
7.609902231832849084e-02
-7.682403663704015506e-02
-1.031768870989488440e-01
-1.291020500929456472e-01
8.682419133120312937e-02
-5.718371576444484378e-02
-1.119664187141710954e-01
3.252766239157437456e-01
-2.020163417987225485e-01
-1.919077955725921325e-01
-3.886750908541234950e-01
4.628181041203430213e-01
2.340895385039830356e-01
6.879249543385043131e-01
8.195698159206135647e-02
-9.780394596178390576e-02
-1.296256628345126283e-01
-7.113999169757516394e-02
-6.822807157023688673e-02
6.418755295329845595e-03
-4.180535066756090046e-02
1.293633974945233578e-01
-1.779208512272551224e-01
1.108832974675431626e-01
-1.819398956071278661e-01
4.382180512322548238e-01
2.176545098024161295e-01
1.226294081701050587e+00
4.331582807010724290e-01
1.742287385146225609e-01
4.966289625417585375e-03
-2.392307735359740506e-01
-6.613443828454564077e-02
1.123363702550649462e-01
-8.250262231332568252e-02
1.170751860381549353e-01
-3.639989700178130477e-02
1.547189069082433588e-01
1.731420448477797580e-01
1.209527740981116845e-01
4.264640746716655828e-01
8.524423573984755143e-01
1.707722370921644695e+00
2.248471830459868870e-01
1.689766696526968370e-01
-2.331083097467008258e-01
-1.717087349521202733e-02
1.986906098554395983e-01
-1.209799173078258613e-02
-7.232193875744863387e-02
-1.398037123664549741e-01
4.916237581851409799e-02
-1.249334931218281097e-01
-6.671612561611928345e-03
5.467253330544665640e-02
3.829542661190490915e-01
4.969474565800626187e-01
1.605684794582813990e-01
2.745429042359936456e-01
-1.134191767083471414e-01
1.449236471142980806e-02
3.949457849410527993e-02
1.146591221261234611e-01
4.345115054169022134e-02
-2.054450697939249476e-02
6.995565877021787948e-02
-9.291416028982755690e-03
6.759293985454410680e-02
-1.130899736798260252e-01
9.427028186415231659e-02
2.760086794545887900e-01
2.903695481222712815e-01
2.456613104754007404e-01
-1.240284371155709192e-01
-6.036938294815774597e-02
1.844953984935699676e-01
7.543445729224379850e-03
-2.323941273941151561e-02
-1.155547956279886351e-01
-2.348245411305231040e-02
-4.416393002410685942e-02
-1.296629007496157560e-01
-1.587084597096691252e-01
-1.299407064660379474e-02
-1.750393985199955038e-01
-1.686666164477570728e-01
-1.372526742426720681e-01
2.160052308904025428e-02
-9.374574072579348882e-02
-6.041660365593620741e-02
-7.693698085026073885e-02
8.681611472524487783e-02
-2.633803575507390540e-02
9.091278924298205888e-02
-3.237786183636744836e-02
-6.052308720351326499e-02
1.608574942956802756e-01
-4.899644184915179224e-02
-1.993486997730995747e-01
-3.150511729566704555e-02
-1.591679628599323715e-01
1.076111748586574962e-01
-2.176791946036974734e-01
-7.550925477072066572e-02
5.980229847369243623e-02
1.798157343147426535e-01
-1.087556494932432199e-01
8.300430443189543706e-02
-5.548294334451916998e-02
6.775117013534605326e-02
-2.035848354498472415e-02
-3.626679879837182985e-02
-2.741205654581699291e-02
5.531946298898841180e-02
-2.417057955290217164e-01
3.166125013448315567e-02
-1.806234758567327181e-01
4.130890193894263401e-02
2.167716200843884319e-02
1.389134861779941360e-02
-1.529039955655726590e-01
1.552196010432434770e-01
-6.131923560891651415e-02
-4.824424801402238394e-02
-1.680646788430083596e-02
1.010993761982642396e-02
-5.063008517632006794e-02
6.261963588484063814e-02
-1.006453856227307623e-03
-1.484008212733704986e-03
1.245203122973868731e-01
3.043477147603591837e-02
7.389297177589382315e-02
1.644639799638045741e-01
-7.159515047990207270e-02
-1.975223918707951637e-02
5.228434283457763024e-03
-7.416468844387527626e-03
9.678311531598333961e-02
1.179637552571072556e-01
-3.815307562058215668e-02
3.576579106186715540e-02
-6.612529877804031175e-02
-2.199118903205623393e-02
2.485697485369151374e-02
3.813901975284177820e-02
-5.721597078017105070e-02
1.172705703801587701e-01
8.917985154331171949e-02
-3.249899183948878195e-02
8.127050061262648672e-02
-3.165736319932483528e-02
4.169813521378217674e-02
-3.198893168266107173e-02
1.098191320130983417e-01
-2.204323070562727235e-02
7.158036712395200729e-02
3.801412567406637494e-02
8.054620378504825755e-04
3.860567935892818964e-02
-2.781031596081067619e-02
1.669230595918461124e-01
3.707900635672763817e-02
3.655204219561797307e-02
-6.280705673583897308e-02
3.113568254222433968e-02
-2.848677859514989891e-02
6.485723122698681953e-02
-8.614503978039329823e-02
-8.891305332578873510e-02
9.080649940935439646e-02
-4.770336339932133157e-02
1.239037840427830404e-02
8.470318270419099557e-03
-5.121143067878761862e-02
1.240205761522109595e-01
-5.859769216295491329e-02
4.744379070152324879e-02
-1.249745481812043237e-02
-3.333149693065484698e-02
-2.973950565212854155e-02
1.389887558327491668e-01
-1.730681168875627673e-01
9.930411733753836956e-02
1.516693570804933666e-01
-3.514687899004378252e-02
1.937626212788261804e-01
-1.339794213682611868e-01
-1.195433383977942549e-01
-9.243482702907619697e-02
-2.048613929882991264e-03
-1.219693341250219637e-01
-4.646903877186434051e-02
3.477568471011904805e-02
7.922465086200244921e-02
-5.291453646562152557e-02
-7.624695725339630803e-02
6.371384470137629596e-02
-7.567469787467254183e-02
-3.417162593533080300e-02
-1.461949977081401231e-01
1.102326496634246228e-01
6.694418669265174426e-02
1.325330921065933365e-01
2.338520141037009684e-02
-1.265276953664966342e-01
3.889596971542429171e-02
1.059908843961774594e-01
-4.664275714092297465e-02
-7.395975044865894799e-02
1.156117941192308374e-01
-6.505530327028195836e-02
8.056585944201053937e-03
6.171116761317327337e-02
-4.210662420193208785e-03
1.049192605882406371e-01
-2.179896620859668455e-01
2.518878570021800822e-01
-4.512155436156245480e-01
-1.402027163526847198e-01
-3.298339262564503604e-01
6.239015014343803761e-02
2.482452117718803725e-02
-1.431504313995733135e-01
8.533632622880356344e-02
1.720924520776750677e-01
-1.704189705005400846e-01
1.375552797699904350e-01
-1.061298327253749549e-02
-2.866148605977882763e-02
5.903766403460203316e-02
-4.983325807267478813e-02
-2.027126702403292680e-01
2.431526167125971916e-01
2.823104102930483750e-01
4.904293320460947903e-02
1.084884566926990063e-01
5.150506725444595896e-03
2.034805469326022020e-01
-1.929183147638286744e-01
1.607311910640351893e-01
-2.121171227276703874e-02
-2.697178323081668092e-02
-8.009269534348791020e-02
2.892594972085690483e-02
-1.197822807018757672e-02
-1.602408900347374043e-01
8.777289436163047964e-02
-1.701167942079129247e-01
-8.959452078432943167e-02
-1.099880785852001691e-01
6.367571144850579790e-02
1.542478919388238362e-02
5.264292150085845418e-02
-2.364273259713554204e-02
-2.074747153338226957e-01
-1.128825778102269251e-01
1.322425520843887314e-01
-6.931457755648738617e-02
1.029645236658610491e-01
2.862989494892028558e-02
2.982693655559242457e-02
-2.275504014166895850e-01
1.054946152946806409e-01
-8.556387815098566441e-02
-5.315908195481043597e-02
1.367515260550407341e-01
-2.338093117963175038e-01
1.729892099658376370e-01
1.406577532804224040e-01
-5.145791536216084983e-02
6.535058701512343193e-02
5.716159831549492282e-02
1.273485887036968911e-01
-9.408312323404353916e-02
6.697104992508613741e-02
-6.152194872503608664e-02
1.913275789497611568e-01
8.154407120184159474e-02
-8.493975951320859030e-02
1.931375555317138559e-01
-9.655840524627548604e-02
1.257075631228725676e-01
-4.324064165105307445e-01
-4.626187663793137131e-03
4.852775117325571624e-02
-9.565837390073353430e-02
-7.106157940161098030e-02
8.311640943842256435e-02
1.047236614532868343e-02
-1.920136596991992295e-01
9.548373637304102823e-02
1.426857373707128285e-01
1.545752572705731964e-01
-8.246750160487877068e-02
-2.701661194607668515e-01
-9.453095465002062797e-03
-9.108563048304810228e-02
1.959001332126338868e-01
3.777153497830176149e-02
-1.866844946463467603e-01
1.597979333991866313e-01
9.526463825259702534e-02
-2.774175878504897552e-01
9.482022066719880682e-02
1.323260836141393337e-02
1.090199520047039350e-01
2.150205280580984035e-01
8.571234196724801524e-02
3.359101358585992458e-01
-1.437793861986802202e-01
-3.529805568332663318e-02
1.359989845759351501e-01
7.412241244947918861e-02
-6.598500486922308228e-02
-2.718725683878439950e-02
-2.135231913418338956e-01
-7.475209235929951290e-02
6.454522853320703024e-02
1.043715801795807169e-01
-2.431034006031764227e-01
3.280823541091143491e-01
4.192793578243504959e-01
1.980992914881158362e-01
-2.300540763320618048e-02
2.278179201223049233e-01
9.323629066698882473e-02
-3.893031693512969404e-01
-3.571264988276270230e-02
3.512791823091839793e-01
-1.706271329999802799e-01
9.421819647995305358e-02
-4.316768540373273899e-02
-3.942052865698079944e-02
-2.529599419061102639e-01
1.084787090975359303e-01
-3.538612687546523888e-02
8.373382315937777376e-02
2.579449767855944708e-01
-2.051668630416873806e-01
1.233677747956306442e-01
-1.592593640132177746e-01
2.217352688740095445e-01
5.882150976413863530e-02
-1.597787205450882653e-01
6.382963201536095976e-02
1.107745306340675723e-01
1.291678704414892243e-01
-7.266950419579897014e-02
-2.418655841473537904e-01
-1.154163617132166753e-01
2.061657087225932383e-01
4.163171599905044484e-01
3.516627564843554099e-01
-5.558697866412254905e-03
-1.417341261437659039e-01
-1.901891147888441214e-01
-1.057286214163464105e-01
-2.566882470094357903e-03
1.742827581958100724e-01
-3.640307882399145822e-01
1.664489249288015615e-01
1.599946821685810094e-01
-1.057484287902909353e-01
-4.957853414509867940e-01
-6.077643446506567765e-02
1.818168077594529697e-01
5.030574900517305048e-01
3.127840665240028128e-01
3.861332368969059431e-02
1.089189441146355131e-01
2.418438519329238201e-01
-8.809013719811832621e-03
-2.927065282455425937e-02
-2.233812969174700513e-01
3.361356793998440673e-02
2.548318358645503268e-01
-2.637984225747586620e-01
-3.376943609088359222e-01
1.376086402950325582e-01
-1.107426616787890727e-01
1.161228601427559015e+00
3.855238827617738506e-01
1.895084973133196737e-01
8.145197167818241102e-02
-2.355493873680094066e-02
1.803594858581858418e-02
-6.127420770955820627e-03
1.860296310510725359e-01
-3.624886160088157117e-01
-5.277219646204065612e-02
1.662458464906699518e-01
-1.546133616794657245e-02
-4.199831528765363836e-02
6.296986121836754824e-02
4.615667666581265705e-01
1.343855704493938319e+00
-4.200880156234310797e-02
5.152807153155795038e-03
-8.499274129749277706e-02
1.490009804429851259e-01
-1.310549000286477875e-02
-1.225665609329432137e-01
-2.086375385875872401e-01
-5.968943260037835874e-02
3.015130831477196294e-01
-1.985275626451100950e-01
1.588387633221678974e-01
1.207686885242262587e-01
1.980719994948134666e-01
1.221106730810477270e+00
-5.389622535434637068e-02
2.437716847461609271e-01
-2.710848136703224998e-01
3.800483586343562231e-02
1.038579889576769361e-01
-4.630866750147695499e-02
1.717651031874098677e-01
-2.275409738139201332e-01
-2.440109963100501878e-01
4.289535528956289756e-02
-1.648086962476825665e-02
-1.488070578239084583e-02
1.232004402506491625e-01
3.797319240171881938e-01
4.030178457761350308e-01
4.055570298991240663e-01
-2.372547456404792143e-01
-5.030063508050932608e-01
-4.602139999142802057e-02
-8.552702337186121606e-02
1.358256476014561565e-01
-4.298502490568272827e-01
1.975538614143214078e-01
7.648780491837153805e-02
7.843417308665567855e-02
-7.338996466672631502e-02
1.717448259594209770e-01
1.264358836001950037e-01
2.480021332985716254e-01
-6.722205909112342892e-02
-1.085321401086127985e-01
-3.000499805329193137e-01
-2.384027868373747583e-01
4.930105977493935698e-02
-2.332727947028015100e-02
-8.252838171523115343e-03
8.130929458493717232e-02
-6.652861759434149092e-02
3.517089454244311589e-03
-4.919599061764028808e-02
9.324151015799401207e-04
-4.598239414492886340e-02
1.136800123083214070e-01
5.838063545554196543e-02
-8.432157045900683101e-02
1.410241523970841848e-01
-7.772251096036865425e-02
1.919306578973805910e-01
-1.663378697261990169e-01
8.400037964948160740e-02
8.359974591415110512e-02
-2.014940062725168735e-01
1.353183662492089268e-01
6.258798797548445481e-02
-2.241256504157385782e-02
-7.333321057531426435e-02
-6.578594502904873409e-02
-1.502465839985771441e-02
5.429257147163642216e-02
4.404974251034941141e-02
-9.905898899567971982e-02
7.618674035520972554e-02
-5.843208724245919916e-02
2.024611805733906311e-01
-5.054874852134478430e-02
-8.293567771233131825e-02
-2.350970117220485198e-02
-4.042316671036741416e-02
5.796662758824526474e-02
-3.939418147634119599e-02
1.166359782752145191e-01
5.219222856380265063e-02
-4.305343377626780210e-02
-8.341103513703206074e-02
1.020697738482657796e-01
-6.244608629266523887e-03
1.215531425202041466e-01
-1.609649329586308394e-02
-2.034535054003309418e-01
-6.924022574908164640e-02
-9.806932427343613423e-02
9.221190942609155949e-02
2.643609037695207262e-02
-1.752803439649323544e-02
-9.584979448933787782e-02
-6.906768579352964843e-02
-1.147628614091793925e-01
-7.660427703830968715e-02
1.212887440254304533e-01
-1.629003062208261854e-01
-5.930755700780911133e-02
1.306906308518444686e-02
-5.340261804353839403e-02
-1.112099098428043081e-01
-2.335043641655593638e-01
5.582160701744700443e-02
4.478224853623045260e-02
4.758684472907942498e-02
1.974781238677014439e-01
2.399632566307185241e-03
7.779301535678803670e-02
1.247939519336001557e-01
5.108637699847348029e-02
-1.724803147546466464e-01
4.075471917707085279e-02
9.883971471566703471e-02
-1.452682183384318704e-01
-1.585737383576618208e-03
-1.646840833788294489e-01
-2.773924407131344028e-01
1.669618516723307411e-01
1.444904536632159453e-01
6.888397999759784951e-02
-1.524444809883022944e-01
7.412917348225735170e-02
-2.086675190659825416e-02
-1.243828249528472207e-01
5.120387206961075216e-02
1.137106109802678983e-02
1.860977021323242594e-02
-1.338543431458156241e-01
1.211418131330018605e-01
-1.052486710309016305e-01
-1.917443223662036456e-01
-3.494746575564942059e-01
2.279539212445082785e-01
3.847793496936893209e-01
1.897348801223062431e-01
1.106202355181612820e-02
-2.937309238382962984e-01
8.912589343202961811e-02
4.060639616481244440e-02
-1.041392827943521671e-01
8.467525304211978576e-02
7.247794208324791557e-03
-3.527722325100020317e-02
4.266348581551003549e-02
-4.134693562179647675e-02
-1.650812384478498318e-01
4.529745728146048478e-01
3.535878098905432254e-01
6.828398766673117182e-01
-6.074835694729349700e-02
1.053582047887315493e-01
-1.019380098786040051e-01
-1.652381855038699277e-01
1.084787837003793054e-01
-1.999393558964922962e-02
9.075266511089451205e-02
-5.699557539480819973e-02
-1.925075860139526321e-02
-6.228766236524264227e-02
2.535997008508139930e-02
2.146476675400827983e-01
1.291404500995351756e-01
1.250148207101203779e+00
6.891006037813404150e-01
1.764324523308342108e-01
-2.408614564100036992e-01
-4.746454655192709760e-02
8.588458887973561551e-02
1.266198189004145123e-02
-8.800308204066670248e-02
1.297471154608183068e-02
4.345560612226354730e-02
8.380984867040596614e-03
-6.658349661869196467e-02
-1.056264896454303381e-01
5.287378132354456639e-01
5.349232433290442845e-01
1.247934441722993171e+00
2.882988894989153561e-01
2.518312618559638283e-01
-1.238028141804111831e-01
-1.535231128202969586e-01
4.473572350910143963e-02
4.181677443000413052e-02
7.123869018391722208e-02
-4.936763936396693780e-02
-1.637282168458052689e-01
3.636489286402623533e-02
4.882195481471093140e-02
1.253822626357698755e-01
1.905739317987387438e-01
4.436309012208136671e-01
1.443327121147779668e-01
3.473788022376105289e-01
-1.783060398572283841e-03
-8.362704158353245765e-02
-1.046173927907673301e-01
1.862862287747681089e-01
-1.802995635015250953e-01
1.231927394850731577e-01
-6.161649129157009686e-02
2.368497407184720349e-01
-1.071710675225632653e-01
-6.638295118078579859e-02
-9.443964427093946845e-02
1.768692239785341069e-01
3.285542102169184964e-01
3.415939456068392555e-01
1.489383953644814705e-02
-1.557479904839306484e-01
-1.451871525967889653e-01
1.438493094059131450e-01
-8.715728582899234800e-03
7.110890080300285437e-03
-1.065554459551152078e-01
9.990708116268637307e-02
-1.405593692596712185e-01
-2.494851368192180924e-02
-9.994015311936509105e-02
1.039137736798251971e-01
1.358598960634987141e-01
-5.668869069661517518e-02
-7.156568618774255229e-03
-2.110272393976205807e-01
-1.813033137099711312e-01
-8.388224343380597942e-04
1.339662093123204223e-01
-6.520178678123474125e-02
4.205810635549501325e-02
-2.578654329377454146e-02
-2.946857318484515098e-02
1.234023467963111381e-01
1.952963765416226016e-01
1.305579407549141424e-02
-2.026999320321608566e-01
-2.975156869552667352e-02
-1.234761645166728844e-01
-2.151560785575276635e-01
-3.570898080778977385e-02
1.895417543846658615e-02
7.281687148657263464e-02
2.885515764903643851e-03
1.145253995067080921e-01
-5.089326490065957352e-03
6.420367869057205801e-02
3.321381009568417659e-03
5.392908749935745871e-02
-4.558598260807333880e-02
1.276873491610277245e-01
1.315441575426750942e-01
1.279466159057782715e-01
1.708369104232055138e-02
-1.633436312268991830e-01
-4.453382541468812322e-02
5.505145364216909587e-02
-8.924011720581484161e-03
1.136466675093417145e-01
-1.064393695343751056e-01
-1.481950214431463353e-01
1.549550365009867148e-01
-2.302874764445873579e-01
-7.582042849622210035e-02
1.301541300383655952e-01
-4.816252946495731130e-02
-3.100063930520016720e-01
-1.585017375430358977e-01
-9.395220344732220508e-02
6.106262663392133389e-02
-1.407448928127294774e-01
2.333909407805234149e-01
-2.904623284410812190e-01
3.084336876342662070e-01
-1.493164614325973305e-01
1.329098653636882899e-01
-2.784100737439890866e-02
-3.692106297740844340e-02
-1.210928538498457080e-01
-4.652746345901378339e-02
-9.103220992142609103e-02
-5.677714332027930522e-02
1.008974633054990633e-01
1.588280121140837331e-01
-8.087362338810783965e-03
6.726369257428546633e-02
-5.986003651044384359e-03
1.128437736182614191e-02
3.985648188316990442e-02
1.079582266313078714e-01
-1.896802765847723782e-01
5.294443315851025261e-02
4.833233855434466986e-02
2.907736710487425214e-01
-2.280280356688313137e-01
4.759622475469725555e-02
-1.199320394581439159e-01
-4.376458912076345853e-01
1.776055906901906067e-01
6.418254433738014228e-03
1.777470777461227502e-01
-1.552016622516986244e-01
1.182066305666509415e-01
1.053414841707155276e-03
-1.093021955350292757e-01
7.324828755716634998e-02
2.458550403167513998e-01
-2.652291726070985650e-02
3.959177070476516819e-02
1.314734296561985427e-01
-1.055245783843910129e-01
-9.329856234700925621e-02
3.706333818795298218e-01
-1.277389416281799195e-01
-1.385238414621028091e-01
-2.197283311099166581e-01
3.910100728555161026e-02
-1.464840196652845983e-01
1.966053674090845194e-01
-1.210779388282311325e-01
2.162369757632157108e-01
1.377571283787278889e-01
1.003883030998879711e-02
9.353192673232299525e-02
2.215982725005498644e-01
2.073789146720361465e-01
1.060756530384517338e-01
-3.372527451041516522e-01
1.332079404036851655e-01
-5.605547350098722542e-02
2.255231424355615480e-02
7.099648473485672961e-02
-4.063810960605208217e-02
-1.879230446138061283e-01
1.690724249924388800e-01
1.090125096927612447e-01
-3.319444568383689287e-01
5.448490415553158828e-02
2.796952615192734304e-01
3.505981107011537645e-01
1.330242917308716855e-01
1.053833953371137860e-01
-5.322037451357519017e-03
-7.706850688529168214e-02
1.195758607424882713e-01
-4.466730345421147247e-02
-7.489437824390374199e-02
-2.222703490937570636e-01
3.384279282357136043e-02
-2.698687449287872075e-01
-3.529576511690600271e-01
-1.772313162764889150e-01
6.572610557983263324e-02
4.163038334132505569e-01
9.761469374978410940e-01
5.993384662560885534e-01
2.502378836087085778e-01
-4.505682582224903275e-03
1.223971723523413629e-01
7.792228599012560042e-02
-8.555433666239466162e-02
-1.297628607693305236e-01
2.194380419936199922e-01
-4.957641047367254000e-02
-1.396242382711367913e-01
-3.681979702616618999e-01
5.927517731435361786e-02
2.469100003792469231e-02
1.172337875675097063e+00
7.812974982523624989e-01
2.197327348428183488e-02
-5.445051041984554085e-02
7.660606365967846665e-02
-2.092298323552714001e-01
-4.960233106029668382e-02
1.156606188057447693e-01
2.144697215031849888e-02
-2.422404836710627951e-01
2.689885009869876220e-01
-1.124309677641035510e-01
-2.400891807816046553e-01
8.331448280673314430e-03
1.506521387973743520e-01
8.223778931549242666e-01
1.091308669585666635e-02
2.671475942419562766e-01
-4.148173016588792006e-01
5.864406090888629047e-02
1.964395264889226833e-01
6.525945026244765745e-02
-1.558926763917874159e-01
1.772011336563847073e-01
9.678074435355685234e-02
-6.598585288619983336e-02
-8.882870960204470798e-03
-5.531121655067985921e-02
2.979999124448905537e-02
2.456637556813848766e-01
3.741741636195493603e-01
-1.782046556789307901e-01
-2.916096209720152044e-01
-4.113035198948096771e-01
5.606315754685914365e-02
-5.496153388071160079e-02
1.188333238881486703e-01
-1.426178105396257688e-02
1.124747250228784051e-01
2.160961303404085668e-02
3.089738322028429476e-02
4.866747845144850371e-02
1.467199045612421204e-01
2.902574050269099981e-01
1.113675274540626009e-01
-5.100969045396209350e-02
-4.912232223973810041e-02
-1.909471804507411052e-01
-1.231108404888073549e-01
-2.998666868624773763e-03
-1.022710130828119318e-01
-9.865041139053484787e-02
-2.271079434986227746e-02
-1.000855458001309040e-01
1.527735033196692960e-01
7.158119407839466652e-02
6.700476827454440731e-02
1.234412533352664543e-01
1.707534204516175380e-01
1.299426385678735529e-01
1.268499586252293254e-01
9.430859423232636207e-02
-5.597000091192692872e-02
-4.789959870164869210e-02
2.635743042005830178e-02
1.239352016635947018e-01
5.014250333785603801e-03
-2.322128791980454174e-02
1.625583404580512870e-01
-1.049475631889283528e-01
6.770551993436950411e-02
5.670795749643200989e-03
2.078224579000738648e-01
1.192234064831605711e-01
2.103564813812624779e-01
2.021711317994523971e-01
1.038258229863326804e-01
2.099093538937334136e-02
-6.454477130408667503e-04
-3.865235221277878164e-02
3.476848247272063680e-02
2.762865139011196416e-02
3.306083453955075552e-02
4.504474581362269588e-03
-6.699906135601123303e-02
-9.877782466397361238e-02
6.559478108577433686e-02
-4.880743046455501138e-02
1.379731136911282185e-01
1.966322458084210079e-01
1.268847471529093718e-01
1.479958843201163998e-01
-6.973080367176970676e-03
-4.622327522027015745e-02
-4.064326204211012733e-02
4.108044016067499693e-02
1.340707055567461337e-01
-8.748704712515868731e-02
3.897736112778641543e-02
-1.969917702945468349e-02
-1.047169255472176347e-01
-1.125909820092863278e-01
-1.227273713383493364e-01
-4.176349871578464990e-03
-1.063900314382059398e-01
8.734383897938428898e-02
3.748515573445089510e-02
-1.167466941101157202e-01
-1.171269854888367865e-02
8.659705547014157068e-02
-8.002943517982397115e-02
-2.004873397512254574e-01
-2.726193833477301778e-02
-1.019548589074418393e-01
-3.416529022312525532e-02
-2.682158372676607047e-02
5.424800293350724376e-03
-1.163732738435461211e-01
-3.595284611550561300e-03
2.079072389975031299e-02
-8.180801410089680314e-02
-6.234579796637912397e-03
-2.139371960985176138e-02
-5.725162540553194179e-02
-2.801439915883567090e-03
-3.532454362260745162e-02
-1.135583645892408178e-01
8.792065977168123103e-02
5.611399233939944053e-02
-1.312912032597280676e-01
2.049848483286714484e-01
-1.630318494869308632e-01
-2.205930395775018427e-01
-3.066598526356392740e-01
-2.220548903433247068e-01
-8.346635988425243902e-02
9.083497873853749183e-02
2.021489374319352383e-01
-5.042187875877583020e-02
1.294031404543472819e-01
-3.178262837698626608e-01
1.748775953250419068e-01
-3.275404630674315642e-01
9.263759112161143450e-02
2.396603191755746019e-03
-3.172100690721070815e-01
-3.867763189374808785e-01
-7.349855981868064214e-01
-5.538376344326116918e-01
-2.241407115040265907e-01
6.638791031739617321e-02
1.384200694170757522e-02
5.771873688732336721e-02
1.597746362635368289e-01
-3.037768182707248354e-01
2.497326300543550870e-01
-1.436878396855583162e-01
-1.337363566335579568e-01
-8.938571405217742016e-02
-2.615737646311629416e-01
4.144101510897784529e-02
-2.968362091160827165e-01
-3.039253082044532928e-01
-2.004862623891667250e-01
1.081808678312393690e-01
5.619551161464492878e-02
2.738184012592562167e-01
9.289466054065201317e-02
2.275703904928844945e-01
8.747580481602935942e-02
-2.219807721870477313e-01
1.805164476553775266e-01
-1.103669676899382730e-02
2.166611440498159569e-01
-3.467992332418694257e-02
1.437383112561611553e-01
3.809544469831277480e-02
-2.346823904602186039e-01
-4.151126044966681953e-04
1.110298139485767048e-02
1.921123659160958730e-01
4.439806264962315452e-01
2.661277842161852702e-01
1.000477198902836318e-01
7.847680552140899601e-02
-9.641138062711988865e-02
-1.875906171115949150e-01
8.455346824978135500e-02
2.376363417520503327e-02
5.160869197283248985e-03
-9.831706448673077636e-02
4.746900966160106511e-02
1.285499264916035167e-01
1.827725470479933667e-01
8.482822603450368426e-01
8.275386465378717915e-01
4.530202437084043243e-01
3.926267578139487346e-01
5.632556304556316645e-02
-5.213382208627796721e-02
2.358194591719999511e-01
2.520885896077604965e-02
1.743088695331825727e-02
-1.014327699393819116e-01
9.269733067144760030e-02
2.899063853069563379e-01
1.971747149801555132e-01
3.512041875244741873e-01
8.056850940182070930e-01
4.638213679825358149e-01
1.180301752759338046e-01
1.560095349549918964e-01
1.985789506969365126e-01
-5.894241687819611747e-02
6.981098848024507031e-02
-1.917354018694037432e-01
1.221653323598191759e-01
8.769851538620872244e-02
1.942250508341862580e-01
6.089140689866575501e-02
3.371223956508971609e-02
2.585833143140917056e-01
1.864167953638664332e-01
3.536089378497776770e-02
2.097606738033176432e-01
2.020342478610612225e-01
-1.352443374641815466e-01
4.272642675658006040e-02
-3.273569586052926111e-02
3.517155514365098989e-01
9.126933560016781133e-02
-5.125632781758478890e-02
1.249566174465705226e-01
-1.594482160523792436e-01
1.608552919205061549e-01
1.257558452649501501e-01
-4.806328787449428049e-03
5.558791529145146182e-02
-1.674813994941680428e-02
-1.237910426836560940e-01
-3.192877936385680737e-01
-1.892442179298561011e-01
7.088429236684457013e-02
-2.647001813997845038e-02
-4.472074142497469706e-01
1.003546001017329298e-01
-3.331929535184021546e-02
1.100975962095543520e-01
1.163145790523849449e-01
-2.017553705155150645e-01
2.092596869017659955e-01
9.764955044009118734e-02
-3.943290834425782626e-02
-2.446364603559703088e-01
-1.883875914865621726e-01
-2.119476864096959401e-01
2.794038262233328185e-01
-1.843836994598802015e-01
-6.639293040280326574e-02
1.515080417273896585e-01
3.386198533395195498e-01
-2.444107587746452981e-01
-2.603234407104210515e-02
-1.851795826658984151e-02
2.185722356805701871e-01
-1.883139281904290807e-01
-1.630242612629552168e-01
-7.454087351446431198e-02
3.924521048308967502e-02
-6.175203637351760200e-02
-8.299876408064783828e-02
-1.326906216955660300e-01
3.304792103626942590e-02
-4.970828260633654988e-02
-1.238184515149332449e-01
3.283517183880180212e-02
1.806540173580400699e-01
2.505146033752952625e-02
-3.246834635557031834e-02
2.437253828608411735e-02
-4.550192901411206914e-02
1.950071126238644148e-01
-1.890346023035849310e-02
-1.057903571246990998e-01
3.236900378463942740e-01
8.153519639825626553e-02
-6.877444853462757850e-03
3.104588754699920405e-02
1.317292201024090614e-01
-1.274841130579179027e-01
-2.717867956896047876e-01
7.766478582191252422e-02
-1.245844465771116100e-01
-1.213998289379041333e-03
6.926162836029467473e-02
1.662456972449635195e-01
-1.121445352651565669e-01
1.858562544766565947e-02
4.924424960634374510e-04
2.900828151336558129e-03
1.034432142782412550e-01
-8.774223255376258079e-02
8.519989184542399452e-02
-1.534062498109394213e-01
1.760578964589813167e-01
-6.995733801297187096e-03
-2.204299560027567217e-02
-5.297501310076487523e-03
1.357565218263733775e-01
7.050497237816086673e-04
-7.043028760001672495e-02
-5.952070679612286169e-02
3.336685275330573131e-01
-1.120024632387576873e-02
-1.452722670173725861e-01
-1.199610038717668498e-01
1.019282845025541312e-01
6.622680741533153170e-03
1.703475768186039352e-01
-5.135115672596622660e-02
-1.649936712144795536e-01
2.168009928893240290e-01
-1.596447339807539334e-01
-7.495423037866190408e-02
-8.359586269701127503e-02
9.305286194706147151e-02
-6.223314800202855296e-02
-1.490951120960563314e-01
5.975493459557890824e-02
7.426511862478988625e-03
-8.190765229899914235e-02
7.840928476308835215e-02
-4.637659327907223128e-02
1.467010315874579113e-02
3.360746816459824621e-02
5.947986408930312080e-02
-7.467576075500789723e-02
1.046154640971530547e-01
9.428611465121634894e-02
-4.790581315934861611e-02
-5.559841421698411001e-02
2.480458190437933794e-02
-1.372579834486050560e-02
2.844381476897540895e-02
-1.255317198488378472e-01
-6.380161671869159778e-02
-5.560494663323962972e-02
1.131752520885415392e-01
-3.718158376378228464e-02
-3.718444645589379094e-02
-5.800934234596134831e-02
9.156340979616821307e-02
-1.575191220502913381e-01
-8.071683919521571715e-02
-1.005538027242296739e-01
-2.430704165638954695e-01
2.254376334098629961e-02
-1.759875075035083059e-01
2.185563541214129851e-02
-4.031426692207977502e-02
-5.038263731069970996e-02
-1.368909727299242041e-01
-1.277465400982398525e-01
-1.535801443228464180e-01
3.018346540626721253e-01
3.434050723785474213e-02
4.030480669040768099e-02
-7.975896061279134919e-02
-1.358578701175734704e-02
-1.817698163122488109e-01
1.486695077101529427e-01
2.455631384341671331e-01
3.512327290409161806e-01
2.161406534640628874e-01
1.007030239319478548e-01
-2.930850826963037753e-02
-3.272187344218535077e-01
-3.817168128394439475e-02
7.238687472567903458e-02
-6.517207471067540392e-02
-6.366257751716207502e-02
-1.148476732204396257e-02
-2.035870621531429836e-02
7.178711127327024044e-02
4.289604817416268756e-01
-3.256603302732730826e-02
4.372318800661430527e-01
4.202538966627069605e-01
2.776493847206196186e-01
4.429097143779180124e-02
3.644974368908858731e-01
-1.639444427776151902e-01
-1.858801301758668811e-01
-5.353160164944831267e-02
2.993471098903417449e-01
1.328755496183161855e-01
1.364445211323747631e-01
3.381020320949351676e-02
-5.448720221814586789e-02
2.215275056677610821e-01
4.934838558737189573e-01
7.794989021597391599e-01
3.954757752658716874e-01
3.132390910884328972e-01
1.649499856963016764e-01
2.144825958344020178e-01
-2.939089778816508236e-01
4.145584528518874157e-01
-3.102982475730455825e-01
-3.073231455716712857e-02
1.037731403408460040e-01
-1.083195442838957856e-01
2.257154787946790697e-01
4.504300893074940637e-01
5.678266187433299583e-01
8.541056922702537912e-01
5.116969748234034832e-01
3.317490231030771897e-01
2.137557122355835115e-01
8.570210115250903593e-02
1.461422792280547556e-01
4.771808555965077053e-02
-3.534429718698442469e-01
5.453903622844460397e-01
6.290158307058586751e-02
8.105474238699343636e-02
1.433284262086820249e-01
3.769763182195042667e-02
1.941613005727895469e-01
3.561484510171044615e-01
1.301590196467306282e-01
-6.791142390246339422e-02
4.234239291267805627e-01
-1.115919996135736336e-02
2.919002667087206015e-01
3.153303777726893659e-02
2.498311883289364155e-02
4.423755268278191655e-01
-2.714975873863462175e-01
-7.247561003234086197e-02
-1.939654094114590110e-01
-1.919495546551346077e-02
2.241885140436615242e-01
-6.643063337155831471e-02
1.373623842780889170e-01
3.824303341236383325e-02
-6.154569905310095478e-03
3.089814915871351084e-02
3.282204845081250766e-01
4.249953123981688174e-02
5.537866887278678624e-02
-1.141012714515998033e-02
4.124664223564525334e-02
1.105572519684215188e-01
-7.244523077900751062e-02
-7.713513481603853639e-02
-5.374170304912091745e-02
-1.446806578587151587e-02
5.478072771004809799e-02
-2.752791464832661239e-01
-3.346459402700305286e-01
-2.447148476514005300e-01
3.733526265122328464e-02
-2.586094216702248816e-01
2.739403188907982845e-01
2.683859208284420511e-02
6.454612323215784542e-02
2.443492249396840288e-01
-1.296799377686359278e-01
-5.729346789254354672e-02
-1.394672494326235912e-01
2.411885765525450045e-02
-1.257643104963101499e-01
-3.575809033273872894e-01
-4.575803703161136493e-01
-3.894162117819324753e-01
9.687399492312619154e-02
-5.074677019399783523e-02
1.565469915089292008e-01
-1.115181963497722528e-01
2.316605964037505017e-01
-1.980715169473699078e-01
1.469990092751591870e-01
8.018834827225649817e-03
-1.374565227264838534e-02
-3.269462091860639297e-02
3.345537284647726040e-02
2.064447997341976523e-02
-2.151774799296671259e-01
-1.707910716971145493e-01
3.801036459018462127e-02
-5.832085015464006511e-02
1.350185338723799422e-01
-1.749031469224119617e-01
-4.730234537999328248e-02
-1.086694764300807220e-01
4.935376353248567549e-02
1.152064300918447387e-01
1.977399061925239898e-01
-9.132827289165333651e-02
-4.407351425289286750e-02
1.562612512040892701e-02
-9.320507994871632396e-02
5.042733881219938624e-02
-3.832092839027582271e-02
1.455518506729205951e-03
-3.647378074434736162e-01
-1.312611316105093684e-01
1.431125650077296474e-01
1.465772009116410868e-01
5.686739841150109664e-02
9.346731908073246942e-02
-1.409038171294102193e-01
-1.633528293997913439e-01
-8.018486201918406664e-02
4.726959070095577975e-02
3.698666410290073810e-03
1.616682052363237754e-01
-1.002955970402382296e-01
1.003057035093705696e-01
-1.606621714473865925e-01
5.072640764977997402e-02
-9.013911889652385934e-02
-2.101243199741191781e-01
-2.030573992946657358e-01
-1.284534602050715069e-01
-1.769994081188464019e-01
9.509320097612256051e-02
2.691617330382243822e-01
-8.641980761888573559e-02
-1.227809641749381779e-02
-4.952074407341287149e-02
4.305716892156982722e-02
-7.721545894734135884e-02
1.028143934530076353e-01
1.082811898642716542e-01
-3.484508115474884149e-01
2.471260301061106723e-01
1.175787159071393570e-02
3.451633826447426251e-02
-2.369578506093311318e-02
-1.613765608010376273e-01
4.070009018295046577e-01
-2.726361302894618199e-01
7.521926246816845567e-03
2.561047419673635403e-02
1.444399649299089039e-01
6.321349052172348104e-02
-6.181025905347894978e-02
1.122746244180657799e-01
-1.215342692236917599e-01
4.468163723301125240e-02
6.746845185012817492e-02
-1.330514119310357568e-01
5.364284359232100036e-02
-1.159891087165590556e-01
3.975165633311496249e-02
-3.400133899305516350e-01
3.332704215444659002e-01
4.177113343500529069e-02
1.500215253456252916e-02
-1.245975666324815323e-01
9.512487716067333926e-03
1.575391139789847073e-01
-2.133084616836881386e-01
2.305043682199829080e-01
-1.316822290540592688e-01
4.261618615425288858e-02
-2.348003499962836305e-01
-1.596398635433764479e-01
6.156892997809865903e-02
-1.329118281044389949e-01
4.623340122540469527e-02
-1.056384998163223954e-01
-3.013706365535552892e-03
-1.172447588118473716e-01
2.662328130452746439e-02
-9.516195223901349753e-02
5.472839174784804167e-02
4.037317680963009581e-02
-3.277264801259918009e-02
-6.173502439196442565e-02
5.147371369423188459e-02
7.557787122414012793e-02
-4.174653395733512323e-02
-5.299518998339987352e-02
1.296662662921775067e-01
6.866703830500919814e-02
5.087310492437696618e-02
-1.931068694251033072e-02
1.132914887872901039e-01
-6.063036561856647438e-02
2.261971452425101670e-01
-1.351826369334348243e-01
6.235263579695310421e-02
7.406450397782625428e-02
8.001517449015241312e-02
2.950485787531846246e-02
-2.404411118922761270e-01
1.529402256861500387e-01
1.067994222618998540e-01
-2.091035380791320397e-01
4.734966524664775689e-02
2.002506853729244321e-02
3.395953793869276732e-02
-1.258992420160719716e-01
1.006096517071577295e-01
-4.894191782903520305e-02
9.055115174426298097e-02
-1.680699055764144079e-01
-2.190305549294320562e-03
7.655508975095293156e-02
-3.788776232436760066e-02
9.610393921097087899e-02
-1.545581555818292124e-02
-1.264655027874619642e-01
1.288896851443609715e-01
-7.966524016148965326e-02
6.191021919937487322e-02
1.261993558232860912e-01
-8.566074380845239977e-02
3.784675398025050957e-02
6.858225175159508857e-02
-1.065166925835761835e-01
1.383178810731086061e-01
-7.479833300864384416e-02
-1.081089031479173096e-01
-4.338820729112703722e-02
-7.561255513895592806e-02
1.083211822736396823e-01
1.041670540506803994e-01
-2.069290097372581544e-02
-3.714682002866147997e-02
-1.558749865471962814e-01
-2.364346755761993421e-02
6.357911639126540004e-02
-1.378164098057224063e-01
5.593976278385845262e-03
-1.001857024269074553e-01
1.172078565071650418e-02
1.020868394414803787e-01
1.469821247392838759e-01
-9.612968862243928547e-02
-1.804648078130224598e-01
5.336216942965379267e-02
-7.133451320492659176e-02
5.312778112164436017e-02
1.539523530870555712e-01
-9.442412250801539286e-02
-8.077078059773769303e-02
9.253922592932517250e-04
-1.419509707802349072e-03
-1.242179417138982445e-01
-1.470383397519009760e-01
9.818228732813615023e-02
8.797142797806184467e-02
-5.888477428255765173e-02
4.933538476331341890e-03
2.285358150329697483e-02
2.228278312755196111e-01
1.626699056940832389e-01
-1.451010782956878298e-01
-1.139108542171509975e-01
8.036388324040136255e-02
-1.832516414401085675e-02
4.082162736466240366e-02
-1.040552787188668005e-01
-4.841440015426460436e-02
1.384419915486912456e-01
2.617998204806639140e-01
6.918757703825109684e-02
-7.399308492495473843e-02
-1.137560596773811578e-01
-9.905897281374005658e-02
1.335150661621412327e-01
-1.925464292088172324e-01
-4.189213671647425141e-02
-6.100052574570975772e-02
-1.113842950641013019e-01
2.715721217803096846e-02
-1.097486154719762852e-01
1.307590490140486950e-01
-6.178880990763933878e-02
1.222484521898171833e-01
-3.985061883629071461e-02
-2.380257991988304345e-01
1.385216871530430167e-02
-6.256115951703443423e-02
3.989576427039562972e-02
1.652998312478198284e-01
-8.028093047607098853e-02
1.103992723299264123e-01
1.995354122055461032e-01
1.206719551185743700e-01
5.526338666478278205e-02
-1.209963733876904951e-01
8.717305218498330732e-02
-8.931134741429576362e-02
6.770627555179320467e-02
5.336148354091118165e-03
-1.138428539151512264e-01
-2.164681639712250361e-01
-2.484038029067513198e-02
9.112717357354141456e-02
2.457823186045826058e-01
-7.469336670482185081e-02
-1.787581627115875926e-01
-5.745815975127663289e-02
-1.176725222077761590e-01
-1.926221328138555920e-03
1.300918041731660701e-02
6.454474997326772878e-02
6.015084721034739262e-03
-2.357533649908929718e-01
-1.813036913104333903e-01
-5.100526063321834946e-02
2.290776371472032780e-01
5.171465128796387534e-01
1.153353311518353908e-01
9.613652703356734275e-02
-1.703029877037809947e-01
-1.999268639049537818e-02
2.674166114294221352e-01
-9.728151253000505427e-02
1.429698995883802240e-02
2.522988358689726152e-02
2.699887383542877092e-02
-2.454500590316298081e-01
-2.611120635054794969e-01
7.576858534945728196e-02
9.898183208904218211e-03
4.214839805863315747e-01
4.572681419359839183e-02
6.018570511822894653e-02
-8.240324015845885974e-02
4.670548075481344152e-02
-6.460058661359324716e-02
-1.785284857955332372e-01
6.850723045989846882e-02
-2.497503196020406102e-01
9.184704792835828024e-02
-2.711410114082125622e-01
-1.169987664551194184e-01
2.144821796340839505e-03
2.574597272755462241e-01
7.263286850960077867e-01
1.846092815532867526e+00
4.488412197003752852e-02
-2.210575232585292038e-01
-7.458767065195832935e-02
-2.438789746605261599e-01
2.096071891440517698e-01
-2.747841521265195763e-01
-9.185214371576556902e-02
9.759938186053766784e-02
-7.458139261991893199e-02
-1.251382758982332866e-01
4.113402646758089476e-02
1.805853010587705199e-01
2.166604404018325214e-01
2.304260870811219775e+00
1.864666701594079323e-01
3.759096805802379371e-01
-2.476156578159746102e-01
-4.354426001154524384e-01
2.401087972036895501e-01
-1.683948524862012297e-01
-2.351549897435003256e-01
-1.786612972645384989e-02
-1.213266635556729256e-01
7.909539713700192848e-03
-9.176699783548664113e-02
1.429643836843709770e-01
4.347788743896918162e-01
1.153075066598625992e-01
5.123381019552366578e-01
2.012308242181834739e-01
-1.581132380557885853e-01
-4.224678516938322748e-01
-9.528389731079837943e-02
2.454022693151895473e-01
8.724453166321201325e-02
-1.202159952830782058e-01
-8.855726270519641286e-02
-7.798443053078972509e-02
4.101775471922136651e-02
-5.282988885846825328e-03
1.266047148617848450e-01
5.971571775444884517e-02
3.790063392793872055e-01
2.726401855052033030e-01
9.873710927524217973e-02
-1.381934945371569856e-01
-1.598047308516932774e-01
1.631061565541309377e-01
-1.924383153020463588e-01
1.099684702239268341e-01
-2.062937415869898691e-02
-1.280307503501992017e-01
-5.979719058837582729e-02
9.098292303590915786e-02
-8.723813836881118278e-02
-3.565131342442884321e-01
6.362558965446568626e-02
-1.696205294896777904e-01
-1.169863869786408442e-04
-8.033408012019549460e-02
-5.172948828959551132e-02
-1.841737467675550466e-01
-2.808962874303724822e-01
1.275222069261524038e-01
1.204652570165772041e-01
-1.357979137173978557e-01
2.149171600330754828e-01
5.899870527723751618e-02
1.478308828514726947e-01
9.932588323279158138e-02
1.334179125315946290e-01
-2.795863621669989474e-01
-3.021287701240784468e-02
-1.130641166009991316e-01
7.481589133305197037e-03
-2.153810565553191114e-01
-3.661934985141918619e-01
-1.994864768456531823e-01
2.188047669116620075e-01
-1.629155601992558211e-01
2.557370348050140851e-01
-4.594981318881190963e-02
1.636236014880609879e-01
-2.411651059200579095e-01
3.929644422836288398e-02
-3.469006833195115158e-01
1.669227948044017251e-01
2.472901856201382975e-01
1.921533798864986375e-01
-6.256263011534769769e-02
-2.675914375605742968e-01
-4.534583210831805156e-02
-1.618172018484907715e-02
3.021498547582660010e-01
1.922702814409485150e-01
-7.621089677298342746e-02
4.112576155780665876e-03
5.722544164580808251e-02
-2.050275293964959333e-01
1.217145906077073819e-01
-5.695801130469195506e-02
2.428512114124469767e-01
2.314441386318896177e-01
2.042934080033168287e-01
-9.695388997159505584e-02
-2.093643635694958371e-01
1.380355278851293499e-01
3.598152797872981590e-01
-1.206494463977153542e-01
1.454496759032761211e-01
2.215405075973933893e-02
3.278154812193758150e-01
1.329395293290778490e-01
-3.974908685572517419e-02
6.867408260223152247e-03
1.872118810476026685e-01
4.441664225248687092e-01
6.728285824486899269e-01
6.908106580205958594e-03
-5.936688114024534640e-02
-4.418279560011700302e-01
-2.362489925895326359e-01
-8.078768661788110483e-02
1.646133065000871532e-01
-3.165054143663907638e-02
-2.332011135355569198e-01
-1.199784830173170197e-01
-6.138110379444240705e-02
-2.007989380855786446e-02
1.407112057597863231e-01
2.156365048855356237e-01
6.294826556709990362e-01
5.723060397048697068e-01
2.269616644353219248e-01
-2.444661025474126614e-01
-4.368619139990090883e-01
-1.680344400194959398e-01
1.035405395565154180e-01
-3.473556902836838489e-01
-3.741363329539522560e-03
-9.812630470168280661e-02
1.958347280180340044e-01
2.195623791414060347e-02
-5.921636536701933157e-02
2.557965214698206813e-01
1.502768490616552266e-01
1.128255285847543643e+00
3.868792911512059507e-01
-5.225701496884312819e-02
1.759039472368892076e-01
