6.692326059519788650e-01
-3.051861662861649616e-01
-8.416891860083970389e-01
-6.601916581835235442e-01
-4.868644153927477181e-01
-8.068159562910909299e-01
-1.026680028554171509e+00
-7.381168650864159408e-01
1.585935847376658492e+00
2.553667259706547399e-01
-6.854874991582213806e-01
-6.395118451768536660e-01
-7.102230776582818539e-01
-1.071792774463314224e+00
-9.525979294052031587e-01
-4.057899690757455491e-01
1.740938285163317500e+00
5.540521379553322578e-01
-3.589093796681304682e-01
-3.357073929114780531e-01
-6.791685295682962087e-01
-9.169835831975645668e-01
-4.720322264401278778e-01
1.228000387090298767e-01
8.728373512372964438e-01
3.667385525369403626e-02
-4.747699599858239417e-01
-1.652547433625656537e-01
-2.873765449571975550e-01
-3.171977597837976615e-01
1.015402070917154759e-02
2.716837398129082759e-01
-8.472153694255254996e-02
-6.115111741758896269e-01
-8.050522252949878776e-01
-3.513613072590499042e-01
1.377054876620813738e-02
2.072455448107048404e-01
1.271835404178919271e-01
5.490802217086274140e-02
-5.176557898897918841e-01
-1.065336847869135406e+00
-1.106997832284305705e+00
-5.093089463988397236e-01
2.683833505565224042e-01
4.659837642467257179e-01
-1.159908929530138466e-01
-3.644780390024804917e-01
-4.297836510309847036e-01
-1.131393970954911232e+00
-1.032871308502286256e+00
-2.042434552107652915e-02
8.989220521188547863e-01
6.102273703459087928e-01
-4.974414097575965421e-01
-8.287956274310582794e-01
-9.153593661660712477e-02
-5.083460554412967403e-01
-4.183823020498132483e-01
4.948514890651252163e-01
1.109819490009775089e+00
4.560896554009294945e-01
-6.537899557871301726e-01
-8.008960985904942653e-01
-8.369887610447599435e-01
-9.793610508792979230e-01
-8.385829609068495838e-01
-9.458300312827516709e-01
-1.109315660435632678e+00
-1.025538038669898233e+00
-7.840299628148607036e-01
-6.331416871002770730e-01
-7.500443700437436911e-01
-9.925376341630214316e-01
-8.803585309922987712e-01
-8.509087014076227584e-01
-1.058938716239314459e+00
-1.024311229578791282e+00
-4.867515832414652244e-01
-1.651385366789306364e-01
-6.846455596682085032e-01
-4.566633717491652700e-01
-1.076257774395825428e-01
1.854483763457604739e-01
3.192258061433131400e-01
4.068120947983323576e-01
6.901096479755030044e-01
5.750377076521150377e-01
-2.702083978426965127e-01
1.194866002606639194e-01
4.127109091510865468e-01
7.548322452143498840e-01
1.177790099768448506e+00
1.365562980988463293e+00
1.338963800196217635e+00
8.068649975687895992e-01
4.181779070320258695e-02
1.021188787451598468e-01
1.252236622658059462e-01
3.297910986049850668e-01
5.703167039174055208e-01
5.473182332723309784e-01
3.685073590774623487e-01
8.550482659051440032e-03
3.624776306860078012e-01
1.714233103327360563e-01
-4.363927242007573093e-02
-5.233565454570288100e-02
-1.935670721853277321e-01
-5.664427807228540335e-01
-8.150798274117762032e-01
-6.926494835198215849e-01
8.978284514453369614e-01
6.184784782538242931e-01
1.197004820408017478e-01
-1.053975304625864723e-01
-4.315693789652165768e-01
-9.179005233070900438e-01
-1.148108275115083288e+00
-7.168862988262314495e-01
5.290957629374252180e-01
4.854950572335581249e-01
4.219888190959882740e-02
-2.624932000770679452e-01
-5.689160741018212120e-01
-9.309443723129713355e-01
-1.086303565323080811e+00
-6.802398358565032721e-01
9.722126834806924522e-01
1.380254161930562828e+00
1.730532998736289685e-01
-8.584970918685318475e-01
-8.659553982821499574e-01
-6.540509281984140388e-01
-7.425071597799139944e-01
-5.901127008349134062e-01
1.288489073091053427e+00
1.701133072352435827e+00
3.836479391315568699e-01
-5.963801593798770950e-01
-6.025566831838441439e-01
-5.838406989808403447e-01
-6.383510611295329928e-01
-4.538803603250277652e-01
1.182158411286913458e+00
1.491242960077281188e+00
4.846705219639790285e-01
-1.947137587673663517e-01
-2.274705874194110078e-01
-3.718373771132033045e-01
-4.035016525751262684e-01
-1.139099935552916193e-01
6.079231647059250010e-01
9.009962123357757591e-01
3.935087248585674158e-01
-2.037500768394141792e-02
-1.281459852190536541e-01
-2.735373947092163416e-01
-4.488825794771403310e-01
-2.026164351528790541e-01
1.552091057941995533e-01
3.104843903951466366e-01
-4.743318842818280978e-02
-3.876494192574443942e-01
-3.776043107398791565e-01
-1.758282137408098689e-01
-3.646906189130846854e-01
-3.949451465185199184e-01
3.509559630865939361e-01
4.841590716643376369e-01
-2.183651495061603443e-01
-9.683161687514898475e-01
-9.885703341585753146e-01
-3.036085851172438121e-01
-9.658335155780521653e-02
-3.985884253583397152e-01
6.105502626601878591e-01
1.027797723042584987e+00
9.411579637183216385e-02
-9.734274573643392214e-01
-1.259305234935509610e+00
-5.012865228600168477e-01
1.617794036145800418e-01
-1.222317316889804523e-01
4.890667914239482661e-01
9.280641947023431371e-01
5.708101284928740471e-02
-7.441696675453461918e-01
-9.587287666149030274e-01
-4.320698197207820113e-01
1.929407181076467637e-01
6.989687749743117920e-03
-5.086694747139105521e-01
-3.389230507865075293e-01
4.919980226991321759e-01
9.691956808638404475e-01
3.002803696637039721e-01
-3.796474848234875910e-01
-2.805553474769434397e-01
1.415187216766498612e-01
-6.163831495328410126e-01
-4.392791922504831748e-01
6.341367489374041266e-01
1.344170230499860175e+00
6.552363393570651562e-01
-3.015960581463368873e-01
-6.869657597667219173e-01
-4.758466579591790202e-01
-8.136572498503056305e-01
-5.699522809482669983e-01
5.862263977338103560e-01
1.472197417348205528e+00
8.990309481972152961e-01
-4.524823672486799619e-02
-6.656237112047330706e-01
-7.296575676225867113e-01
-7.725120694839849866e-01
-7.594220490808566426e-01
1.721437165706243555e-01
1.310701595203167313e+00
1.219594707679419798e+00
4.551413102521635889e-01
-4.194230272247404523e-01
-7.342264258897671647e-01
-4.961032031939107689e-01
-1.024284841510097799e+00
-5.869095012791303301e-01
7.586234972444410030e-01
1.336706420533714468e+00
9.948093838894705998e-01
8.542618378632957366e-02
-4.528190863625220497e-01
-2.740112591313879631e-01
-8.092130283452357853e-01
-8.922027850277954864e-01
-1.236660799995905058e-01
7.122333487396805829e-01
1.084222648444035597e+00
5.769500042877971913e-01
-5.442751698394935472e-02
-2.418465293215530110e-01
-2.752400801335233571e-01
-4.942921239308908365e-01
-6.041649823868813218e-01
-9.599087813814637105e-02
6.694625526503590329e-01
4.802804474798882950e-01
-5.910873299489690508e-02
-1.793390406430923900e-01
1.722467880030530973e-01
1.389933690086358510e-02
-4.648650935466219769e-01
-4.692087518770837185e-01
7.875776536110687398e-02
-2.808382234472239780e-02
-4.352668089704823107e-01
-4.435121944850791142e-01
-4.391884791853855607e-01
-1.598697269538136567e-01
7.319016923226581706e-02
-2.857875069433152837e-01
-4.458981614435611474e-01
-2.043576662270333855e-01
-7.554596899017321232e-02
-7.153434947664326637e-01
-8.277240483276965266e-01
-6.032953828645865046e-01
-4.595709867676375793e-01
-7.302738768128923530e-01
-6.706831915782511810e-01
-6.619753843816272854e-02
1.708675306122621473e-01
-7.237008992083854286e-01
-1.012254860952441549e+00
-1.117466040309011088e+00
-1.242631522202718886e+00
-1.262514725257595227e+00
-7.976455643896696035e-01
-1.271395533392657290e-02
2.184526802280635505e-01
-1.305760557241708933e-02
-1.471164804905462364e-01
-7.711519628582405028e-01
-1.357080003382147293e+00
-1.197996666188960946e+00
-4.461225349029964704e-01
1.276267257205542516e-01
1.076799312332088338e-01
1.045029305657597885e+00
1.305203047583351816e+00
3.029643415639338699e-01
-7.036663206954881788e-01
-5.667348701820156265e-01
1.356998724384526622e-01
4.355618671399628661e-01
3.272771158356254095e-01
1.434778019862842147e+00
1.780679068154720879e+00
9.843033154152538433e-01
-1.701256761734241951e-02
-1.430607743884016736e-01
2.512592057647396460e-01
3.650161286936676741e-01
2.434964482597954671e-01
8.332345646299341713e-01
1.152878697589960755e+00
8.534026558952623187e-01
2.194242609249765497e-01
-1.674868092299297284e-01
-1.334707312754202235e-01
-1.731595417124242864e-01
-3.272596613254375453e-01
1.946682434061302869e-01
4.999889590360258040e-01
4.201880761869213887e-01
1.682566467041000935e-01
-5.495159348038993613e-02
-1.391094228143742173e-01
-3.753698795720780690e-01
-5.003824212531378102e-01
-3.466067272791246157e-01
3.384632084793700590e-01
2.931932781126182497e-01
-5.899351549350048129e-01
-7.207666774607788263e-01
-2.114124776109894688e-01
-1.029188185795590210e-01
-2.173505625764865848e-02
1.571140347627281164e-02
9.050690795978147962e-01
1.065807472176294901e+00
3.954155516140113180e-01
6.652146337159202394e-02
1.968470632522041908e-01
-5.859996913873811823e-03
-1.522476686214027652e-01
4.954027680764144445e-03
8.647243202567924669e-01
1.032875322311580080e+00
5.038971518654336013e-01
-3.834844656397724816e-02
-1.973918859626110911e-01
-3.094923028078712668e-01
-4.106896700501033171e-01
7.443237261688120943e-02
4.607792337988902975e-01
2.557745755601874560e-01
-4.540759722795261188e-01
-9.575034666709865139e-01
-9.835856470093582438e-01
-9.285553628135693183e-01
-8.969819303907659025e-01
1.355173768478136198e-01
6.346703700007911208e-04
-3.961110435292232723e-01
-1.108213319278814613e+00
-1.280584768429324782e+00
-8.052185617501732562e-01
-4.578253667969899854e-01
-5.419781353590438222e-01
-4.024784522968392619e-01
-7.181526293760992496e-01
-6.626245274593274281e-01
-8.524843207387058364e-01
-6.584023170852096873e-01
2.119888951963374013e-01
8.976531455726671771e-01
5.964572543548208872e-01
-1.125243771179921248e+00
-1.182642323986285993e+00
-1.903888214286823810e-01
3.998094664681938193e-01
3.973111367261107918e-01
6.479198060644772994e-01
1.146435424702851646e+00
8.573764568602157965e-01
-1.095397431401720967e+00
-8.771564373757406718e-01
3.319257929831201936e-01
1.254905148864791986e+00
9.832143744253837303e-01
3.520853026052608303e-01
3.232479678608319862e-01
1.079380961788337367e-01
-6.958527755904173051e-02
-1.756284984162840568e-01
4.399903788352318434e-01
6.224994087729591730e-01
-3.117874998372594519e-01
-9.025792561785568324e-01
-2.024505052090789237e-01
8.065527138301220589e-01
-4.345191468553094016e-01
-6.763435598674046867e-01
7.598181281728243024e-03
2.396234920404166635e-01
-8.877671728532198214e-01
-1.466888553541320750e+00
-3.763290540761721759e-01
7.872252625958404693e-01
-8.151281761080145793e-01
-9.871101599779515956e-01
-4.032747483905376740e-01
-2.700084677083813278e-01
-1.219152866257930068e+00
-1.329257793704222035e+00
-1.553575868274687244e-01
5.515124197500012038e-01
-1.169219091900795648e+00
-1.073855946839610276e+00
-3.718552095753134279e-01
-1.511804803601227987e-01
-7.021533108223542152e-01
-4.679107595491099891e-01
2.188438200166931413e-01
2.309193245436702013e-01
-1.158268648670400802e+00
-8.935784630249906657e-01
-1.145827810894779059e-01
2.027401665235102624e-01
-1.367662138093229396e-01
4.995338897495230773e-02
2.685525393046249154e-01
-4.740593098682902018e-02
-9.075835156169299589e-01
-6.674081786920785797e-01
8.158228310764081836e-02
2.681400998594793417e-01
-2.211080274965649961e-01
-3.317935154324959113e-01
-2.168971880138792219e-01
-3.999085285115982491e-01
-1.132976660199809471e+00
-9.094107365643293583e-01
-3.183649454041781457e-02
6.844659766867591810e-02
-5.792825079735934857e-01
-7.513675907928886177e-01
-5.138945138341084462e-01
-5.764809410624539554e-01
-9.695727049326247071e-01
-8.346044383878942208e-01
-7.754518336913122922e-02
-5.031652281038479640e-02
-5.734826483436573641e-01
-4.876611183190452392e-01
-1.670017845840576776e-01
-2.582065703280648217e-01
1.609435813533872939e-01
1.515130947888025659e-01
1.644676593980533008e-01
-2.704967198261427064e-01
-4.815707159874048626e-01
-2.283000046553111395e-01
-2.109517166343240768e-01
-3.885064635581372827e-01
1.631389534581970113e-01
1.760475457556894552e-01
9.472031099751244965e-02
-3.388033852471032947e-01
-4.802647754036594718e-01
-1.920882041361341719e-01
-2.210284924997857059e-01
-3.636543018436542707e-01
1.622373999981731596e-01
1.759331527724093958e-01
2.456820789697499244e-02
-3.493159972522888457e-01
-3.078430310738699549e-01
1.327507688431820154e-01
8.574911072306397319e-02
-3.005261669921501649e-02
-4.727716829527634501e-01
-3.513972000133393503e-01
-9.368514246373921273e-02
-8.471274661208189061e-02
1.027706905529102571e-01
5.262972022817613560e-01
3.419760303973103932e-01
1.281211524023809223e-01
-1.111782968183594678e+00
-9.003609610253212603e-01
-3.586703588263261411e-01
-2.486941218291554428e-02
2.712778148362608999e-01
4.360772528334806997e-01
9.580453852077775584e-03
-2.242392991957014026e-01
-1.115665462621575843e+00
-8.819939048713587582e-01
-5.819271766517891686e-01
-5.461250959911275737e-01
-3.223636615728745491e-01
-2.971438254412028801e-01
-8.223610451555286582e-01
-8.678392168122597283e-01
-9.440459389911447508e-01
-7.310157603381306490e-01
-7.012363146619333687e-01
-1.183430935959966845e+00
-1.174668044955206492e+00
-9.547416217455922949e-01
-1.204131369513731675e+00
-9.950902277780342420e-01
-5.822326115920902767e-01
-4.641249074472610370e-01
-6.180405544166639453e-01
-1.193375659874774453e+00
-1.106474129221592717e+00
-6.652371748088969916e-01
-6.803737078458713672e-01
-3.774507849700901585e-01
-7.421790004356010328e-02
-1.271451680380109028e-01
4.014563590279101452e-02
4.144588452659120348e-02
-3.702881865511107873e-01
-1.123777172533571983e-01
3.106068357195799212e-01
8.701088317704902542e-02
2.125447210281971311e-01
1.615779287068682402e-01
-6.709102293226359981e-02
-3.328216094753780885e-01
-6.539946408875341177e-01
-2.385644846081838022e-01
4.103253454263038336e-01
1.993879115816588887e-01
2.400728796240387819e-01
2.531071904388935145e-01
-1.007142945627561015e-01
-5.114877892194557019e-01
-6.301880748440021884e-01
9.320779557051060704e-02
9.827365262760831000e-01
5.264655245348098811e-01
-4.499511633174951147e-02
-2.040154842655282977e-02
-3.586807583854083603e-01
-6.780828162320440278e-01
-4.103861976212833107e-01
6.461788371984871215e-01
1.618119675483326247e+00
9.551082165903900245e-01
-1.796389827976832831e-01
-3.036795019906907700e-01
-6.704499942291752834e-01
-9.279620794872953660e-01
-4.101931057941202163e-01
9.233282921254071240e-01
1.775949161499187356e+00
9.935009713500067008e-01
-1.832534244691523539e-01
-4.782618364927602728e-01
-7.898805997946456436e-01
-9.905237704756723049e-01
-5.923472409132900518e-01
6.715526083629899112e-01
1.508781375291422533e+00
7.745934656617623482e-01
-2.588396904986875469e-01
-6.061351517619916196e-01
-8.218781671350403606e-01
-9.415049812988551814e-01
-7.095062515028967010e-01
2.833575562544366488e-01
1.162823018149123255e+00
5.964891232897910900e-01
-2.801937816251215407e-01
-4.929021663466974235e-01
-7.091157511591946738e-01
-8.039017678945832301e-01
-6.022453593955743312e-01
1.793477299496316624e-01
8.776288863916618110e-01
4.490406008025155660e-01
2.321508599442561049e-01
3.075386265535105801e-02
-4.187283788936063678e-01
-5.841275368221728881e-01
2.846755596078824266e-02
7.918876650744539614e-01
7.573870973349524638e-01
5.995984734276882389e-02
-9.497834283049438886e-02
-7.153740507712563756e-02
-5.269155377614268554e-01
-7.467805674339634825e-01
1.671133083149636267e-01
1.013878897187820760e+00
6.052674461422327123e-01
-2.430715204308374899e-01
-4.286984847719707559e-01
-2.026871242757892766e-01
-6.194162756737859876e-01
-9.533315121642630396e-01
5.654889688160433248e-02
8.668112107564118762e-01
6.139809130389305841e-02
-9.422782575315644671e-01
-2.796451660644876935e-01
-1.418442840420057194e-01
-7.514791139154444188e-01
-1.122273327667086429e+00
-5.202223270309368208e-02
7.729184589098658797e-01
-2.705277910753443038e-01
-1.520524673797923221e+00
-4.049938012474730425e-02
-1.693871762488934618e-01
-1.031650567522425010e+00
-1.190536486662512550e+00
1.189000658038993352e-01
9.707036290808296330e-01
-1.268317018343254055e-01
-1.446400189501162226e+00
4.611963568961836013e-01
4.416141015819704391e-02
-1.096755500485876889e+00
-1.182947421219042283e+00
2.637537773510690853e-01
1.209199877387853839e+00
2.783962916182412539e-01
-9.088308667990524503e-01
9.667081914584180202e-01
4.837752102701143309e-01
-7.187673383512487302e-01
-9.507383396520350249e-01
2.074760493018249496e-01
1.063103661010421863e+00
3.777963613716406877e-01
-6.052763254692392625e-01
8.700309677785741380e-01
5.849275808803237053e-01
-3.795639598417322458e-01
-6.736786905949142534e-01
3.932549717181372390e-02
5.741130220839485432e-01
1.591509667419707397e-01
-4.787434314982239592e-01
-3.638933755213923926e-01
-5.349332374962724179e-01
-5.883864439690339454e-01
-6.056974491848691189e-01
-5.377852600506906056e-01
-4.395099222717199217e-01
-2.403926701709507563e-01
4.797106781275452259e-02
-5.039122057328472293e-01
-8.278115101452168112e-01
-9.603036796268147324e-01
-9.426665901602373498e-01
-8.316257410089907820e-01
-5.561293479240320137e-01
-8.546468389604423843e-02
2.003084838680667945e-01
-4.556632674606208577e-01
-5.953399644041097449e-01
-5.208511883054049996e-01
-4.351427525201104207e-01
-4.739340856193750007e-01
-4.368068163345386612e-01
-8.716911556079280643e-02
1.229141164540083070e-01
-4.829700312624315983e-01
-4.317779084236126885e-01
-5.726981724971112742e-02
5.708297471055619882e-02
-1.990243882324427005e-01
-5.277465802171739107e-01
-6.092351848949988380e-01
-5.772200603033429411e-01
-4.161008721521359810e-01
-3.994905558791585487e-01
-1.673124510544618526e-01
-2.854175435765313185e-01
-6.411310046672370477e-01
-8.413058347309967377e-01
-9.857968459565317199e-01
-1.125015976463156431e+00
-2.447467784347839848e-01
-2.223964017719413100e-01
-2.863424603861858264e-01
-6.151140407428553614e-01
-7.713984274599001711e-01
-3.180051135868836587e-01
-1.616611211769156901e-03
-2.839293601156333002e-01
-3.821524221653092163e-02
6.628495835253736534e-02
-1.199598957597820814e-01
-3.207158955008715950e-01
1.349053796083912130e-04
1.066237901601947646e+00
1.781720217578180110e+00
1.272363548756460849e+00
-1.392808958951469167e-03
1.706862345038033246e-01
2.053149812371742045e-01
1.826338593155151235e-01
5.570847978387727384e-01
1.495942778511127003e+00
2.037962572948484929e+00
1.416270209147834080e+00
-3.056455359201025179e-01
-3.475212618951160626e-01
-3.777480261333945322e-01
-1.412308100196441873e-01
-3.265534814279860004e-02
1.575305085587563186e-02
5.155786340034095028e-02
1.858432533158693375e-02
-5.523124445095249913e-01
-5.185490584334682129e-01
-4.613991112148634888e-01
-3.350548856818348353e-01
-1.600509573425723531e-01
-5.025549325864224481e-02
-1.646971994448138410e-01
-3.243784180954205065e-01
-5.044105189708850689e-01
-3.895965831862033268e-01
-4.127054969051575095e-01
-4.704632420706138518e-01
-4.784230164524151951e-01
-7.362603743074197515e-01
-8.031690639546600341e-01
-7.356941309692247577e-01
-5.322390051918468590e-01
-7.188840457339824574e-01
-7.450762043301741855e-01
-6.809636499374638330e-01
-6.350863572250324829e-01
-8.528062150421770182e-01
-6.961040155391277073e-01
-3.955251371376336533e-01
-1.236638377412625944e+00
-1.555893458862651846e+00
-1.226438439447440132e+00
-6.163961285008660029e-01
-2.910056046165191909e-02
2.156295730771963515e-01
4.513091675648532308e-01
5.339924111755449676e-01
-1.183716294384207890e+00
-8.925013236707536324e-01
-2.515205148789234624e-01
4.683373643721707724e-01
1.021252800217464562e+00
1.015610903677548693e+00
9.136356316835650970e-01
7.549358650689006467e-01
1.499026294350067345e-01
9.171241178995576115e-01
1.270180643330955927e+00
1.124330564267025379e+00
8.698864098835416003e-01
4.386814633625635285e-01
1.222878801715497343e-01
1.369165606197427776e-01
6.519303446909224808e-01
1.115006403261860290e+00
1.061560788394546595e+00
4.752098331574027834e-01
7.006944262069815521e-02
-7.123921838450078536e-02
-2.568875727135720433e-01
-2.223449274195746783e-01
2.931693977319189126e-01
6.634176457406856242e-01
1.104226847582784554e+00
1.374465580725065417e+00
1.253069760402942157e+00
9.304654581560037885e-01
7.238775242599455595e-01
6.021379441643831543e-01
5.220072698747650897e-01
6.395915900714771452e-01
5.662870850495098640e-01
5.115616470911428237e-01
3.236910140018339765e-01
1.396660669308020519e-01
2.630725323719236217e-02
-6.779298914882575522e-02
5.066783359080107019e-01
2.416276186043378460e-01
-4.613475929643873208e-01
-8.442546883838066840e-01
-9.275980471047059472e-01
-8.668446542016950973e-01
-7.213641026136694556e-01
-7.435168355551734498e-01
3.366677563792937478e-01
-6.131027620191990823e-02
-6.946208323732928624e-01
-9.715144929038722621e-01
-1.008089386123774522e+00
-1.013451533887759881e+00
-8.742927230173799247e-01
-9.233045423147416830e-01
-1.508441105358326040e-01
-4.936581557882014915e-01
-6.122743018890705047e-01
-4.857016604574311835e-01
-5.379834721692425825e-01
-7.336064330836189473e-01
-7.621829989516716308e-01
-8.158744049245765240e-01
-3.314501067683569002e-01
-7.852224327940757753e-01
-7.663325120797861434e-01
-4.654707837224705269e-01
-6.054672902334956586e-01
-6.568683573330035275e-01
-4.470209263215468853e-01
-4.318223435347232075e-01
-1.334541326811239381e-01
-6.813049340017544031e-01
-8.800483828421871157e-01
-7.563224871037605990e-01
-8.342402454626122177e-01
-5.341098498709798692e-01
-8.122607743805941583e-02
-5.460009548850700174e-03
-2.526276126210618700e-01
-4.943039384543868597e-01
-7.015948468236282709e-01
-8.483897620980522802e-01
-6.490753050722162243e-01
-2.135253177360132149e-01
-3.125056954041922214e-02
3.453497929595469168e-02
8.936576105081561749e-01
9.329724029252930428e-01
6.717141390680139157e-01
1.764614762795771730e-01
-2.667575991692545667e-01
-4.731624522311996262e-01
-6.728722200605883330e-01
-7.113228899249605108e-01
7.448127482126006838e-01
8.198395638368035643e-01
4.628237916260901086e-01
6.163230978445087549e-02
-8.066365758237982464e-02
-1.299515225182547584e-01
-5.225104929776603901e-01
-7.855745497536911204e-01
-9.993547484082357379e-02
-2.874543263680351957e-01
-6.310525932126895832e-01
-6.269531231006250094e-01
-4.715412399844180757e-02
3.689972613798169765e-01
2.735662470449801847e-02
-3.271123093625940004e-01
-6.589629488399592061e-01
-1.032635500754462532e+00
-1.421306725998583653e+00
-1.329696073710214366e+00
-4.452823816651099165e-01
3.146797239363649523e-01
1.506117033326303811e-01
-1.273650562836621536e-01
-4.865783907480226156e-01
-4.244308635222764914e-01
-8.975601394130345856e-01
-1.331233315366712189e+00
-9.717989590984186243e-01
-3.987894531193721392e-01
-4.272402992055508442e-01
-5.650892520356233240e-01
-5.431775074330441599e-02
8.247513261142538354e-01
7.320531364849361955e-01
-2.083195781841074845e-01
-7.280825577621330424e-01
-7.225240713408866977e-01
-7.170102455214951709e-01
-6.019302483929611647e-01
3.363302107746778818e-02
1.051043086860808051e+00
1.621530452061395566e+00
1.152234919248932510e+00
3.364275387684935170e-01
-1.687263229190186231e-01
-3.756043735375170223e-01
-2.535919816237188207e-01
-2.010626049639103186e-01
3.084168422811586208e-01
9.103436935943161057e-01
1.173646008319366940e+00
8.181329031066416624e-01
2.595006171156234442e-01
-1.893483876548879563e-01
-3.484635634534065107e-01
-9.058042389341204315e-01
-9.422090466725536739e-01
-7.349778864903064868e-01
-4.438265610210581635e-01
-1.808447248310344202e-01
-2.262862157265964902e-01
-6.683864766276650382e-01
-6.712105429203456541e-01
-1.009400325912179763e+00
-9.763730300766317871e-01
-6.305714963582275123e-01
-1.905390648495426387e-01
9.605067723055353557e-02
5.900749364496552657e-02
-3.772195223540374398e-01
-6.261902265817194113e-01
-2.513266370377669201e-01
-1.775403985132583684e-01
-1.000256698051086302e-01
2.391936259292600508e-01
4.817760848892325698e-01
4.076761480569889295e-01
6.104986625395236038e-02
-3.651973402835400617e-01
6.630283502744497293e-01
8.337996270170431323e-01
2.692797610612583936e-01
1.243958040050695962e-02
-1.069147817501958642e-01
-3.016093749529939472e-01
-2.477170158258265864e-01
-2.903690495989053044e-01
1.384346606008965974e+00
1.434514297851628539e+00
2.146499698753742691e-01
-5.945672031654863909e-01
-8.763703963264951602e-01
-9.702274860949516855e-01
-6.419718397816265298e-01
-3.220130172223322207e-01
1.228360067197973304e+00
9.583431473035743942e-01
-3.319984390805911789e-01
-1.084225771303429564e+00
-1.144559129518296858e+00
-8.524044385765783272e-01
-4.644759708560482481e-01
-2.723858734969612505e-01
3.011902168989061268e-01
-2.752634316905103740e-01
-1.177257139542920328e+00
-1.406961992702013609e+00
-1.003826164301519386e+00
-2.319488469235266859e-01
1.580180277412380208e-01
-9.363070046633426013e-02
-2.161602517729399320e-01
-9.001881199363170882e-01
-1.453176268568921792e+00
-1.169575203857262879e+00
-4.998739038261453826e-01
1.214480134292757058e-01
1.626231749976577989e-01
-2.420494225100681684e-01
-5.429225516114684069e-01
-8.334627842448445456e-01
-9.206625225256190870e-01
2.105257099119219044e-02
8.367951642386287636e-01
6.726645871584464587e-01
1.437597284825324062e-01
-2.180188684153304690e-01
-7.587424724391560460e-01
-1.173057717582667747e+00
-1.008970653068004264e+00
2.704333985704405752e-01
9.219338946686163050e-01
4.218938585805983021e-01
-1.764140550191963530e-01
-3.476164046837034727e-01
-7.593510429661104455e-01
-1.060096218675938173e+00
-8.191314972842010933e-01
2.650298827665807933e-01
3.826281659857473927e-01
-2.471623076706165045e-01
-4.701222539191630134e-01
-2.118410379040929492e-01
-7.342265344887143330e-01
-5.760665091617008793e-01
-3.421660545892783040e-02
4.906811590890841068e-01
-1.925101530585593065e-02
-5.139895797018422252e-01
-4.576115644474577082e-01
-1.306013970644323563e-01
-8.739578386770689988e-01
1.087773961358829145e-01
1.176478895945048952e+00
9.570238324718611800e-01
-2.079260949865067432e-01
-6.937203628632744312e-01
-8.000688441165514364e-01
-6.819123699957123641e-01
-7.453388126968473193e-01
6.186589693694702907e-01
1.826708040854849058e+00
9.890261509193302158e-01
-5.325869988183904447e-01
-9.130607406943842541e-01
-1.056608458561299368e+00
-1.056118632574830629e+00
-3.739161817490528894e-01
5.898981598423278516e-01
1.352030027740861229e+00
4.492945052742443046e-01
-7.226831610136197348e-01
-7.385544939466224257e-01
-7.066411950669329034e-01
-8.922726159152472025e-01
-8.885734178014773055e-02
2.736447652248871210e-01
4.585912412024830687e-01
-1.414569985821514386e-01
-6.926474814518557288e-01
-5.159632754403591370e-01
-3.280372897580302594e-01
-5.380155764155503118e-01
2.995609689189152602e-01
4.589350320991960608e-01
5.173423248814943420e-01
4.603106756080159734e-01
5.324390552693386569e-01
4.915789680376493331e-01
1.608091176702363123e-01
1.649672569803991573e-01
2.338935704518353143e-01
6.283065112985493084e-01
8.229405309969037852e-01
1.005497661891227912e+00
1.260058650711288308e+00
1.131672993027044605e+00
9.227602307864053444e-01
6.606694955630695310e-01
-6.982504374882081422e-01
-1.333725177715984200e-01
3.727602272916203385e-01
7.486826440081774114e-01
1.216944150688530790e+00
1.109146821604978239e+00
1.065549407339675847e+00
8.292116670839672077e-01
-1.249454941900684846e+00
-1.023890438273591386e+00
-4.385856104901705854e-01
-1.084620848827459044e-01
1.304730861148253596e-01
2.291341190048659660e-01
6.383722101266844362e-01
8.343269778457210739e-01
-6.313264712255930444e-01
-1.107256218792390001e+00
-9.497808275678887302e-01
-6.428270682668703051e-01
-6.995621709183821313e-01
-6.048331840521568026e-01
1.315563097654560698e-01
7.078108327607627315e-01
1.966602205872251541e-01
-4.379185791721498799e-01
-7.997623975550434139e-01
-7.368042498280746866e-01
-8.723749945110170767e-01
-7.853838213231860710e-01
-1.629223435855214897e-01
1.255915760571408579e-01
4.958582912604797555e-01
2.868819589424130845e-01
-2.339299984301798918e-01
-5.775321063906889707e-01
-7.277657850328350664e-01
-6.651527338908761466e-01
-4.501373264816758146e-01
-5.572002690714075168e-01
7.333401596002671330e-02
5.860967532198865099e-02
-2.998446702232256955e-01
-5.703821626236912357e-01
-4.288973387576814900e-01
-3.618268925301384442e-01
-4.839218658617090996e-01
-6.728316681429670210e-01
-2.986239601248009620e-02
1.162882064305611057e-01
-1.668895414225098905e-01
-5.717529203078481892e-01
-8.079400703587860111e-01
-9.816235629431130372e-01
-1.020964797059397577e+00
-8.029729629974012850e-01
1.459163961861769665e-01
1.446325036798623009e-01
-2.511433697065810211e-01
-7.060976794923893296e-01
-1.055277898316558494e+00
-1.325895710238694791e+00
-1.418255354926903244e+00
-9.683748536050635902e-01
3.171655363850486159e-02
-9.530862540894015356e-02
-4.403093088190826454e-01
-4.524448832899402584e-01
-4.487435782946483931e-01
-7.138801637330536298e-01
-1.103627840642755098e+00
-1.106950307505009778e+00
7.622031062638722800e-03
1.769911419330199576e-01
1.276291913461918229e-03
3.050383063279630269e-01
7.444506131984172104e-01
6.206886981363942679e-01
-3.746475301333092311e-02
-6.850587721951798548e-01
2.817626683816984445e-01
7.477444487357305380e-01
7.293857513586449182e-01
8.225201144133572617e-01
1.175072274743787171e+00
1.347663135653645261e+00
9.103245247411893004e-01
4.959054824977753018e-02
1.569025473193343956e-01
6.034257833367130397e-01
7.934991448537411785e-01
6.848723249602683971e-01
7.012475441692853639e-01
9.559833950895514354e-01
9.445755130725463911e-01
4.307839973407696643e-01
-2.098093935193996729e-01
2.302324488771169755e-02
3.727751424444998296e-01
3.607634862484706550e-01
3.397353553941617199e-01
5.270385632792348174e-01
6.414499338662053018e-01
5.307912498550390046e-01
-1.730250787410368141e-01
-9.934397005335562914e-02
6.502380694732572131e-02
6.845660411181427041e-02
1.661474493429371535e-01
4.171403397944045133e-01
4.509293551291277402e-01
2.873600571997306230e-01
-5.628692653101072807e-01
-3.737506057820955130e-01
-6.354270909308702420e-01
-9.368493801522697062e-01
-2.806018667877894779e-01
1.332158941256177398e-01
-2.567673159414718756e-02
-1.925638194684794191e-01
-5.287356927547588459e-01
-8.927200110103196140e-01
-1.342487849536860400e+00
-1.033726356597605367e+00
1.802531368924303046e-01
8.622428961390899982e-01
5.860118656356548827e-01
5.376753389962149465e-02
-5.393019137959635945e-01
-1.122605888413443331e+00
-1.309587674427298287e+00
-3.776413087185891415e-01
8.211256414105986279e-01
1.310777729647085721e+00
1.045554054743874417e+00
3.067388461917726628e-01
-6.487575837201492446e-01
-1.009734481316225896e+00
-8.865800687570403182e-01
9.617436666402980061e-02
9.502653524435158428e-01
9.883977553376431802e-01
7.941033555207205330e-01
3.223561413586123470e-01
-6.924064318466253143e-01
-8.036534932761206784e-01
-4.132165132751763337e-01
4.056620190308683482e-01
7.410860157286489613e-01
3.588935957188099657e-01
2.799439658825786381e-01
8.248548828559501556e-02
-9.170715089089617189e-01
-8.867881315976214873e-01
-1.029977111139024626e-01
8.207921071514175937e-01
7.041790453452052567e-01
-1.820309545612247646e-03
-5.901873856596291656e-02
-1.092660032681929405e-01
-1.161148842333393327e+00
-9.864885585657465761e-01
7.585318715512318066e-02
9.901823310250780219e-01
6.867799399590481801e-01
9.535511618389190536e-02
1.648481635293642666e-01
1.105907691916595964e-01
-1.052001655602173846e+00
-7.363237572407417275e-01
2.400733115135569584e-01
8.415863934312352024e-01
4.481585929401307178e-01
1.699247512338208643e-01
4.693545534951682474e-01
4.005448685435148426e-01
-4.151722807812706639e-01
2.359608190418348295e-01
9.546076725391190454e-01
4.920693261545279751e-01
-4.805641362646166925e-01
-7.462709815378988365e-01
-3.474805138328684317e-01
-3.085009751139150894e-02
-2.567954738551063709e-01
5.456639436898483853e-01
1.344638655631680946e+00
7.438346597972687047e-01
-5.021923994307587735e-01
-9.964206272907593087e-01
-4.711871235524197066e-01
6.075718124836734096e-02
-3.811538270625814406e-01
3.029542451799075997e-01
1.145711784420486490e+00
7.422949566481950034e-01
-4.382344408214707832e-01
-1.125878779360093507e+00
-8.506564879401049550e-01
-1.461208356909129147e-01
-3.920565697522711002e-01
1.388933825343101613e-01
8.903330093000585421e-01
7.298873052137738737e-01
-1.289913129068624709e-01
-8.120734645536350493e-01
-9.768614861540967365e-01
-4.758141571502382261e-01
1.122155467945006035e-01
6.835448883800183950e-02
4.107234881442222707e-01
5.051751219085981459e-01
-1.851701528990322074e-02
-5.100022308282994299e-01
-6.794231992396611020e-01
-4.287734942668348648e-01
7.913201561451744803e-01
2.435714739644149751e-01
7.400128960840891834e-02
3.022657304165417558e-01
-1.985076478799382982e-01
-8.501542509051202012e-01
-8.280470689402869011e-01
-5.061013039726566243e-01
1.133623578928125042e+00
8.472516809465050480e-01
5.903938137200961389e-01
8.118046884427760901e-01
2.365861571465152080e-01
-8.207962954233365416e-01
-1.063139900669621385e+00
-7.870741631271742644e-01
6.559185603935818731e-01
7.263686985351370806e-01
6.799455055859258135e-01
8.265199402540360785e-01
3.533764435425861827e-01
-5.510300737061969434e-01
-8.754817935524186190e-01
-6.715204820893374560e-01
5.446807998491041275e-02
3.772127842091323874e-02
-2.168887251639281255e-01
-3.481856026670645532e-01
-4.938066386662536833e-01
-4.651443141224099742e-01
9.510996961307482955e-02
4.987180237812326999e-01
-6.588462464674420260e-02
-2.639803279414262849e-01
-3.863107367665657987e-01
-3.528482312464843451e-01
-3.965124882262236472e-01
-3.911514234445622185e-01
7.541997274769504656e-02
5.326168046939909750e-01
-1.924806927633566089e-01
-1.583728236098189690e-01
5.696446858441461120e-02
6.784014453877128259e-03
-3.194433869029238426e-01
-6.348733759286887546e-01
-6.111541671344188770e-02
7.087656984913263125e-01
-6.002951113451605869e-02
-8.876970119522564762e-02
1.896355535397747649e-01
1.488307291587884218e-01
-3.243305335733960293e-01
-8.579674238108496720e-01
-6.080843054408929804e-02
1.134754290510725294e+00
5.437031352504396314e-02
-1.670082540480048727e-01
9.183499544488072167e-03
2.905995112145877413e-02
-6.254690448929424162e-01
-1.216907688250447928e+00
2.837185145320785667e-03
1.607670814552798477e+00
-2.398988471679620177e-02
-9.407928187491822192e-02
5.981886797965950409e-02
-5.433033755512229473e-02
-9.650480869593545119e-01
-1.575046963540112088e+00
1.858719011405702073e-02
1.762793492386780514e+00
-1.262769004702129494e-01
-1.301086441510747489e-02
3.355428032366319230e-02
-2.877820308729960308e-01
-1.175471630589978167e+00
-1.554632074303442302e+00
1.376475199112710546e-01
1.612888136487919510e+00
-8.192132554580000559e-02
5.055193967401344635e-02
-4.114982079676089699e-02
-4.627547723984708483e-01
-1.122859161740837441e+00
-1.156148757222352108e+00
2.863290514305448231e-01
1.261708239592960412e+00
1.200475733649976062e-01
-1.562812150508476328e-01
-1.865621082538792275e-01
2.341453020415823205e-01
6.833709595139487725e-01
1.154416630946324962e-01
-1.201648845222456963e+00
-1.092144185877061302e+00
-3.210879384353471089e-01
-6.934891578483749486e-01
-6.917785942444443226e-01
9.356552916137497733e-02
8.939354367070683205e-01
2.654102876327698590e-01
-1.362852279381958409e+00
-1.435682686022720977e+00
-6.792539776074884017e-01
-1.033067634928910961e+00
-9.320906130552387703e-01
-1.131060298193288932e-01
6.562566050036565679e-01
8.091824638509406697e-02
-1.125837346897653246e+00
-1.084404332779916658e+00
-6.850429936050305146e-01
-1.004180983800872395e+00
-7.971055140159216679e-01
-1.416036040521730655e-01
2.880590944318408564e-01
-3.055720988772568369e-01
-9.206819210333818670e-01
-5.394636181905325678e-01
-4.092084483374712756e-01
-9.011688637117967193e-01
-8.352373300035306203e-01
-3.351633288269779132e-01
-6.480323925195687063e-02
-5.776811852330775432e-01
-7.972084569985655733e-01
-1.210737056016469859e-01
-5.488018067593872229e-02
-7.128123737984528585e-01
-1.006368309817134099e+00
-7.272189711689968084e-01
-4.506688468918080281e-01
-7.081718066814626233e-01
-5.674078559375108632e-01
2.662198141906618742e-01
1.807731002636248918e-01
-2.641171019370721629e-01
-5.764187569429529701e-01
-3.895412182425551095e-01
-3.128624937680212215e-01
-6.863572021850097293e-01
-4.156939849726068448e-01
3.897889611924698627e-01
1.607210650823207299e-01
2.068616259715183939e-02
2.722919425977142482e-02
3.665202027127658635e-01
1.689163295531792564e-01
-4.988220602113004887e-01
-2.234278903149198858e-01
4.379710808806254185e-01
-6.965575997674011699e-01
-6.616120010460724288e-01
-3.346905543156699081e-01
-5.647349628483032680e-01
-5.328160430679904636e-01
1.962740178392925472e-01
7.934343865440933730e-01
9.096289655800107177e-01
-3.163869646417600268e-01
-2.253740860571808169e-01
1.742028541132404906e-01
2.668694782411653033e-01
4.217667260923352313e-01
1.024297442518105949e+00
1.234339219172859492e+00
8.388185553306154452e-01
4.823473263912047559e-01
7.022955694102371860e-01
7.731699712942393665e-01
7.936391599977963285e-01
8.791466195363383251e-01
9.316967585505938620e-01
6.839296164589211413e-01
1.451743285859194710e-01
7.875203362829655829e-01
1.017228615114033952e+00
7.474264284381334500e-01
3.824129639863767527e-01
3.454117813290427108e-01
1.076728071017285515e-01
-2.939176253848959086e-01
-5.271754025574634239e-01
2.320522850079134169e-01
3.098788004510965588e-01
3.080279010396888908e-02
-4.166654510527558752e-01
-4.483570832157036667e-01
-6.727209032438726810e-01
-1.104755177222710882e+00
-1.009440288589012802e+00
-5.269359081187375837e-01
-4.667268570109240344e-01
-5.262566779755227797e-01
-7.048670896969811972e-01
-6.920124188087301009e-01
-9.809923519526041469e-01
-1.391890476118486708e+00
-1.194125421264103037e+00
-7.856431338095735128e-01
-5.645064690152538089e-01
-3.444649333928386237e-01
-2.228724339798304199e-01
-2.092555084744724403e-01
-6.749694640669338108e-01
-1.140668715612206396e+00
-1.099568352790549319e+00
-6.059425833574223486e-01
-3.075869393915186545e-01
1.526162379054159246e-02
1.680149344139318657e-01
1.119481955737893358e-01
-2.881095571657177890e-01
-5.992651998573310657e-01
-6.637556285427728131e-01
-1.847854807682729750e-01
-5.376377863115070627e-02
-4.473737427862733290e-02
-5.197849302767394430e-01
-5.991663888882656774e-01
-6.252928991783771595e-01
-7.885944620340987754e-01
-5.782287344398014950e-01
-4.509944642119162461e-02
2.621201018523698911e-01
3.725507428423958101e-01
-6.256990164133650889e-02
-2.525375312646687687e-01
-4.824642425450849093e-01
-7.461447750550966873e-01
-6.775565585768015264e-01
1.708293632678443974e-01
8.461462375867455643e-01
1.113547085653718849e+00
5.903459109174221675e-01
1.760856852265634265e-01
-1.703387551127906185e-01
-3.696397441791425265e-01
-4.860454374254096765e-01
1.415447182401443904e-01
1.076934798894424672e+00
1.585179736489816360e+00
9.926350822072893543e-01
3.073444175068810735e-01
-1.829049068323010951e-01
-1.928652911356536770e-01
-1.415339452809289966e-01
-3.719055029407202784e-01
4.520309422308277925e-01
1.358264022114576974e+00
1.155241150144268980e+00
4.090559226016543537e-01
-3.621603598292038040e-01
-5.062555734844071953e-01
-1.901698626431932715e-01
-9.538126483474247408e-01
-6.552308375846321864e-01
4.662961033481477502e-01
9.537203566042208314e-01
5.034968598222392400e-01
-2.783298389241950499e-01
-5.711358944658159187e-01
-2.548282833978634532e-01
-1.149735692627701811e+00
-1.551637222848264441e+00
-7.649225570974745869e-01
1.487817758562589021e-01
2.401926157382711091e-01
-1.324108533273451738e-01
-1.374219053236393484e-01
1.132372407096627343e-01
-1.113620199195808569e+00
-1.520199936882294267e+00
-1.289453147618783824e+00
-7.643901108906422381e-01
-3.632949849690447208e-01
-3.624004895843408458e-01
-2.110786961530265460e-01
1.148237189919424084e-01
1.189220913663126877e+00
9.702433392188967165e-01
-1.401507465516702300e-01
-4.377021831422109877e-01
1.484242634295423191e-01
6.739755991414635161e-02
-3.199359825655493372e-01
-1.459949733473774047e-01
8.989997812382730658e-01
5.385048600958058929e-01
-6.224527262652451709e-01
-7.229062527857667009e-01
1.323196713262174140e-01
2.308561638651213943e-01
-1.060782183298818043e-01
-1.404451160224312323e-01
4.534530813521155390e-01
-3.312546821844097322e-01
-1.402399056924966692e+00
-9.501416842649589301e-01
1.908358385032579985e-01
1.033741631253089766e-01
-4.253610449279180417e-01
-3.838334341213759382e-01
6.984972541239541366e-01
-4.265197954552946702e-01
-1.570349478892898221e+00
-9.018276976713158755e-01
3.718852126305574046e-01
1.351178335988067192e-01
-4.129512596697258453e-01
-5.471195280110318498e-02
1.185794325643344083e+00
2.101467875585655565e-01
-8.564893115073574092e-01
-3.122320359643653842e-01
8.551832195152589966e-01
6.148797589848417067e-01
2.247175498400162397e-01
6.547681644140944668e-01
9.273764522215179884e-01
3.800852167285809213e-01
-2.160906943534394720e-01
1.576050815118373860e-01
8.517931856342895180e-01
4.106340641507846834e-01
-3.486069204190352100e-02
2.569313424047490746e-01
-1.002207659184454480e-01
-4.927143304141606284e-01
-4.872133562906822979e-01
-1.984490372252223078e-01
-1.064659376437099708e-01
-5.405340996174757828e-01
-7.673263071930522816e-01
-4.638543113566454545e-01
-1.048801235222660333e+00
-1.244588135983319077e+00
-9.052769308061384690e-01
-8.116250652339664917e-01
-1.122760980856033486e+00
-1.252712559149293359e+00
-9.726235174310922105e-01
-6.306828346025691312e-01
8.681133959736199168e-01
-6.484854002007839346e-01
1.388529884727137009e+00
-5.797045303894510226e-01
-3.513843225099215761e-01
-2.439991106260494813e-01
-5.579847807244854574e-02
2.211302524852259421e-01
6.853029598766878505e-02
2.053353075847800524e-01
-4.487279328446512339e-01
-2.078693158542935515e-01
3.029879545277788799e-01
9.927962515360941875e-01
-8.811389935881075441e-01
-4.402876824984756632e-01
6.584686045389694931e-01
2.505058059031502471e-01
-3.024992516820439459e-01
-4.040193448736973392e-01
7.735534403686657179e-02
-8.673964821494556388e-02
-6.250559257244240330e-01
-2.180830391480789027e-02
1.590841928986214127e+00
-2.339810924515569324e-01
-9.961085942820618877e-01
1.933655762948473189e+00
-5.778616756645940100e-01
-5.366717486836082296e-01
6.146451354219373275e-01
-2.925029889280787998e-01
2.165443994796835414e-01
1.034107458386168861e-02
7.274363073718817518e-02
-7.476358004158983883e-01
-1.857675325989816273e-01
7.780129483698317028e-01
1.167954400000799531e+00
-1.097771855075157621e+00
-8.997339002994465540e-01
1.000955061542748492e+00
2.494675091413928181e-01
-3.370965281429064708e-01
5.041596577504406929e-01
1.903003619662870655e-02
-4.260614821948739972e-01
-5.018078967130449319e-01
4.618649425304433009e-02
1.276906331775116588e+00
-9.835193908668360407e-01
-9.256128024810815758e-01
3.441789748373481062e-01
5.450301765390345166e-01
-1.813933725378735207e-01
5.945324913913708764e-01
3.736197412956768216e-01
8.448341717757217040e-02
7.780233061666888550e-02
-4.814129084580414109e-01
-8.672323271198149053e-01
-3.366791671771488526e-01
1.377854939029746539e+00
8.274068469307318541e-01
-7.523208950888244928e-01
-7.958580247876582137e-01
8.507155714530897361e-01
-8.213154609914737059e-02
-6.882051848011297990e-01
1.358160161357334195e+00
-3.443701219002904823e-01
-4.753558091770015426e-01
-1.067498785376305714e-01
9.321534459243803472e-02
-9.560441107693930241e-02
-4.161574351647753245e-01
-1.041145028070450174e+00
-1.033919130045629409e+00
1.327627338162757242e+00
9.510024239999848028e-02
-2.970366698638215452e-01
7.913312479779518460e-01
-3.299916995338023074e-01
-5.155952239075971798e-03
-5.641071145159001210e-01
-8.616404821490661892e-01
-1.950097546588629438e-01
1.723132028316576525e+00
2.803168445033688561e-01
-3.989135158467020381e-01
3.351053501518669320e-01
5.505166030598535043e-01
-6.307705890342493182e-01
-1.101727086545999379e+00
7.909086236075379972e-01
-5.518262577630672627e-01
2.926701462770729956e-01
-2.703176033876185103e-01
-3.666275962671031174e-02
-4.634911229056467019e-01
-3.157567914237425777e-01
-1.257787812895220458e+00
-7.579138211564675487e-01
5.608470113702014315e-01
-3.860697032850735066e-01
-4.871538235299314179e-01
-3.976887288511333773e-01
-6.699920935499696917e-01
-2.692370454342578046e-01
2.515697421882055751e-02
-6.320405257391893405e-01
-4.845365806466515879e-02
1.590402340076117138e+00
-1.919234807238533735e-01
-1.355238108741609049e-01
1.156848399350425716e+00
7.152493014615093347e-01
-8.140295153318773957e-01
-1.916093339479031932e-01
-2.010639292821222168e-01
-5.484353506011673263e-01
1.028329905376702547e+00
-1.790796282334835010e-01
-4.193759327915236312e-01
3.036276315389269120e-01
-7.996735476599997616e-01
-1.204999001435532513e+00
-4.294782208148122393e-01
-2.401253453553878758e-01
-5.298255596377658971e-01
-6.874755453134014094e-02
-1.199633202604456494e+00
-5.320962240060512771e-01
3.169469523538191724e-02
9.618808027566936314e-01
-4.579215648439745046e-01
1.351135629325089099e-02
1.218890830211608600e+00
-3.390258403209776561e-01
-1.435720823681910785e-01
1.044427125160478642e+00
8.695047080469464618e-01
-8.133504952263033161e-01
4.122783170202251046e-01
-5.752996904370637488e-01
-3.396338403351133461e-01
1.793044463507626526e-03
5.714170206527128260e-01
-5.855932053837014095e-01
1.985757728535480771e-01
-1.032490767117955510e+00
-8.797305752978965554e-01
-5.535991959965153031e-01
-2.237129129142271800e-01
-1.550364851786719955e-01
1.304976606818899487e-01
-3.100023525939667457e-01
-4.500542519676289377e-01
5.225211281876159797e-01
1.098691918881359975e+00
-1.810437263695580945e-01
3.898727801039181956e-02
1.006589921857495629e+00
-5.191460030505066214e-01
-6.169721646056461895e-01
3.680596634940112022e-01
6.905704696904361173e-01
-8.171272819810021515e-01
7.579775092920776336e-02
-2.381524543303114860e-01
2.238840784375296655e-01
-1.455021652567690671e+00
1.189820022763911078e+00
-5.668515234854110130e-01
-2.421976066000204320e-01
-6.813044690704184170e-01
-5.806277321402311120e-01
-4.530205324110236909e-01
2.011190147176018447e-02
-3.341693111268373428e-02
2.102955558394154212e-01
8.493897175914482123e-01
-4.627192949625110185e-01
3.560504862413531035e-01
2.593106268365874545e-01
4.326297532370054072e-02
-1.927546312125104702e-02
6.152478356570252327e-01
-6.624860884550858309e-01
-8.410141604303401630e-01
-1.953262802899691786e-01
6.586762630673694829e-01
-6.554014905210648889e-01
-1.783879852784337472e-01
3.369101176079650206e-02
5.676442626372277811e-01
-1.428585704091278608e+00
1.096709424317490855e+00
-4.393551426471864474e-01
-6.964938735202505504e-02
1.710646045682644223e+00
-7.964228047825437917e-01
1.604581480409573269e+00
-5.939612858476042145e-01
-8.280773893676355302e-01
1.155330116915964933e-01
-4.399717018259842183e-01
1.770653587991146138e-01
1.597228900776591631e-01
5.349768735432575834e-02
-6.228187939687556129e-01
-4.398228767239008019e-01
6.122059337279769364e-01
1.126798893518841105e+00
-8.985018797050322581e-01
-5.052097518416900357e-01
2.025568347015494208e-01
1.843982378772568986e-01
-5.343177624401644898e-01
-3.848559441523542457e-01
-7.642478038193099843e-02
-4.073718515102786597e-01
-3.354704691836845609e-01
3.687482742689315168e-02
1.165813788371599102e+00
3.010022079728132405e-01
-9.421588252002435215e-01
2.245537177327882716e+00
-6.669346617174756187e-01
-9.992170628616791062e-01
1.192394536307213704e+00
-8.024296549733509476e-01
1.173436117975896614e-01
2.658221771065599204e-01
-6.839710471007104386e-02
-1.008370648360354505e+00
-4.820585288345444752e-01
8.722323567956390411e-01
1.197471235527120204e+00
-1.127394949710972760e+00
-1.250528415129435800e+00
9.267002846879619504e-01
9.194224761880950836e-02
-8.056064481372127162e-01
7.314526964174967727e-01
-1.963281558384379344e-01
-8.092296810825556630e-01
-1.503473099467674823e-01
5.107752909655917106e-01
6.126241161878188679e-01
-8.610241564036786865e-01
-8.532106363696159157e-01
6.024467897907149760e-01
6.758664732582662094e-01
-6.761274638869584352e-01
1.344537858800850971e+00
-1.531183046081409649e-01
-7.014825496566651220e-02
2.640845282209957068e-01
-6.094782765722054352e-01
-1.041891023878221079e+00
-5.365333618001644211e-01
8.194924647375566584e-01
6.122294930398873847e-01
-6.154369715241343464e-01
-9.495033168174920046e-01
1.291898535347012489e+00
-1.760924368461218026e-01
-1.291230766861889201e+00
1.782140249504005514e+00
-3.597557957798124817e-01
-8.936262035529578540e-01
2.654669224874546263e-01
5.984019667449557156e-01
-6.285285789501596776e-01
-4.676378071573848993e-01
-1.133803263090213065e+00
-8.649810775245059258e-01
1.760089683026595742e+00
-5.182082926740287920e-01
5.992660270198307826e-01
2.943346549509727739e-01
-4.677022937725575091e-01
-2.836964565039312158e-01
-7.444788028049795781e-01
-1.090382484559032639e+00
-3.682926788106765104e-01
6.877072787216718108e-01
5.858282764338337140e-02
-9.992165371154702880e-02
6.288614897978089813e-01
1.288915240354361114e+00
-7.284002430497025227e-01
-1.105495206622364890e+00
9.039552191202802067e-01
-3.096345068686748858e-01
1.282414736296422775e-01
3.411209688306438559e-01
1.873964400740812941e-01
-6.993068833687290375e-01
-6.980458126188652246e-01
-1.276043183844326245e+00
-6.729336312275198129e-01
9.036059621980772061e-01
-8.975579250094404271e-01
1.239240458396796557e-01
-1.111303638095740842e+00
-5.951160046911972978e-01
-7.958629613463761299e-01
1.982966195938794252e-01
-1.072661561747323633e+00
-1.734624929067041521e-01
5.525256651586096801e-01
-2.014152947302816632e-01
1.727151053867048702e-01
1.240043097298035191e+00
1.493833413175098546e+00
-1.184099182797133665e+00
5.045509232890657003e-01
-5.132860191145628415e-01
-4.023869577362872985e-01
1.205853080890287421e+00
6.215622580840978184e-01
-1.230212876614686784e-01
3.190547377780703076e-01
-1.188164752657850931e+00
-1.085474440686976516e+00
-4.320527600304963078e-01
-3.375833948551287267e-01
-8.184624565024697374e-01
1.408719540945214399e-01
-1.796765238029282452e+00
-2.858007233333761388e-01
-5.580575589041202739e-02
1.181714465510181888e+00
-7.989967848477222967e-01
-8.032096741044626731e-02
3.074702339323091005e-01
-2.662597277490004188e-01
1.204762732904865880e-01
5.993012942600679516e-01
1.470137478570751277e+00
-1.389916832405430069e+00
1.368971687143676341e+00
-9.889217536115234575e-01
-5.121950701977799891e-01
1.526787781436750591e-01
1.277943062734069990e+00
-3.340873666083860605e-01
4.237043261178049525e-01
-9.649097649520522735e-01
-5.325830773104919258e-01
-3.994411940619622126e-01
-5.024245938115246002e-01
-1.036172256233213740e-01
7.560549176139775250e-03
-4.857487654811422639e-01
-2.831759823620890737e-01
8.121735530085785193e-01
7.673900723075166574e-01
-1.301035169610403330e-01
-1.595641864107303076e-01
2.941833417707587564e-02
-5.465325881606214464e-01
-4.394612842168578171e-01
-5.501243537351864499e-02
1.275618218258980363e+00
-1.499571884546037737e+00
8.622061923588711929e-01
-4.176815133562359339e-01
1.058619379705977165e-01
-1.749202177589607832e+00
1.538883425909495006e+00
-5.330777069101846344e-01
-3.699379496786808341e-03
-4.157543921611390747e-01
-1.808445493607003240e-01
-2.241008523070528446e-01
-2.654478403053521229e-01
2.106849735263955359e-01
-2.683555866358967035e-01
8.763186053623301941e-01
-3.898000964707147853e-01
4.859446353650828665e-01
-7.586584063721348026e-02
3.426622954536236998e-01
-3.267159932569439484e-01
-2.784313535069093404e-01
-7.128280261248294281e-01
-6.676256413774651621e-01
-2.684722267815474184e-01
1.024746579471107699e+00
-1.114991728728006892e+00
1.615525032043727549e-01
1.492179659736560249e-01
8.172749665273393305e-01
-1.742696906844480642e+00
1.033556984422186575e+00
-5.609794623160704319e-01
2.859023080507300946e-02
1.843091777991836766e+00
-6.158481833814272166e-01
1.442835629533049335e+00
-6.455206499614094540e-01
-1.030173336470186607e+00
2.662923469169636848e-01
-8.617394039503624148e-01
7.432843171780958991e-02
2.825582707134557947e-01
-2.074324577856030138e-01
-6.869682556778609062e-01
-3.429696422363615049e-01
8.085694283833781970e-01
1.735588939660202834e-01
-4.881154149432599676e-02
-5.443679091673815362e-01
-8.572045130281215064e-01
-1.831489240119085413e-02
-5.297954490099465730e-01
-5.448155069131975781e-01
-2.157302758317368452e-01
-7.691025501951934684e-01
5.525178622402658890e-01
3.900613064143401143e-01
4.854394857630217053e-01
4.512417078174710272e-01
-2.679664163221243123e-01
2.075935711142486984e+00
-7.593627165529830414e-01
-1.294065246574262362e+00
1.133534178627757738e+00
-1.157550138639090731e+00
-6.721187063850862526e-04
3.134701015739130847e-01
-2.027617273901225481e-01
-8.898716294757290646e-01
-5.746144459744796373e-01
4.822614418734876840e-01
1.238521280174651185e-01
-7.759979095857458264e-02
-1.151349709418481027e+00
-1.208533375399430954e-01
-5.354781948071982156e-02
-1.189173693515416685e+00
4.323723085985460846e-01
-1.295665290810587844e-01
-1.067184679726507435e+00
9.163175083548965594e-01
1.246741607115964712e+00
-3.566507492758338449e-01
-6.041706753940825347e-01
2.690594428847639663e-01
9.235023136156571555e-01
6.194969849904542469e-01
-1.266980760835109132e+00
1.190833965860513599e+00
-6.814122648128947413e-01
-1.373472977655099403e-01
3.558536957199488759e-02
-6.747001599816305761e-01
-6.253436349370168346e-01
-5.283048715193296996e-01
-4.259381907477675644e-01
-3.965233981642945493e-01
1.105309014488818214e-01
-6.051083363947492577e-01
7.304284742557292098e-01
-1.515425638685631848e-01
-1.368729361842847547e+00
1.564128984048205773e+00
1.928058305984396703e-02
-9.775686634519915597e-01
1.076015713783051497e+00
1.531398772793049590e+00
-1.404865702842858388e+00
-2.637157682608740061e-01
2.672620571555789915e-01
-2.817768838573811441e-01
1.902424973357304427e+00
-1.404965885971179329e+00
5.898599451903148161e-01
-3.552126772115211106e-01
-4.150548563694655968e-01
-6.629274112044536427e-01
-1.019319101919371251e+00
-4.805374058395767145e-01
-4.679768296323797427e-01
-8.507287518384751834e-01
-6.598872158991683223e-01
3.286705309461191993e-01
6.191798235529806238e-01
1.159332952544171347e+00
-2.160094837694030157e-01
-3.923164803546519974e-01
9.284360521602339489e-01
1.879364022723385708e-01
-9.077429540212478276e-02
9.857618366794252962e-01
7.120994135788105694e-01
-9.053441239210551217e-01
-6.807625331567181970e-01
3.870203139821524196e-01
-3.148996003054342352e-01
1.309167549307732381e+00
-1.593867790822836694e+00
-5.594151114454381374e-02
-1.490016715465218855e+00
-3.679779003909172674e-01
-9.025124491999386711e-01
5.288544682677041170e-02
-6.028631984724620585e-01
-5.653893437410467682e-01
-8.845342953412927978e-01
-1.543839924121851170e-01
4.490221035419114104e-01
5.689135809679617406e-01
1.444438618645681682e+00
-3.694402999281068967e-01
1.175295602589028210e+00
-5.290862669312774713e-01
-2.428918178652316184e-01
9.439344640425784139e-01
1.121705134595723186e+00
6.555652485401848584e-02
3.042768132405997972e-01
-1.015576501245518681e+00
6.334071547000681424e-01
-4.044937637035359579e-01
-1.248377730501941396e-01
-1.073739494685170381e+00
-2.142738953363017285e-01
-1.661136908306804383e+00
3.800473910410619854e-02
3.849491976488823020e-01
1.102684798034311520e+00
-5.721650344346228545e-01
-7.296006319700002463e-01
-1.012109534951077361e+00
3.995511781761230119e-01
3.726003064445064794e-01
-2.344826410315285214e-01
1.414878626951073581e+00
-7.912553557144150762e-01
1.702958113996099199e+00
-1.085262048280426050e+00
-9.287715038993241690e-01
2.239424430782025258e-02
1.120894877939398793e+00
-1.104665410245180279e-01
1.804961056302697431e-01
-4.818212850025006544e-01
9.747757687427857087e-01
-3.936622121396703422e-01
-6.149024711546630106e-01
4.452275684999803390e-02
-2.869092289393206374e-01
-1.860208805166659318e-01
5.629065890802337907e-02
1.513247440581758196e+00
6.077789433847290146e-02
-2.161173660752605530e-01
-8.987253823020864285e-01
-9.999347179370030592e-01
8.114727846182850923e-02
-1.038819520218687981e-01
-4.681885503178087604e-01
1.453954654180149575e+00
-1.319633733121209795e+00
1.295462816823009344e+00
-7.592336046325947052e-01
-1.803882537789825713e-01
-1.577696072293921281e+00
7.991481582195336664e-01
-2.319357976043279757e-01
-3.277976290292638484e-01
9.755161535802324424e-02
8.472763771906738350e-01
-3.912258377958228311e-02
-4.273025679472368110e-01
4.160624897646382769e-01
-5.932709296267578702e-01
6.980087139720675404e-01
-8.447635355736755891e-02
9.103524712545544295e-01
-9.127851303791549853e-01
9.952587098519256881e-02
-8.486467180219949835e-01
-9.214323788173683916e-01
-2.885577102726742393e-01
-4.230009026367273495e-01
-1.407174959346740306e-01
1.191367583346252923e+00
-1.119099025844384698e+00
5.360085072203565337e-01
-5.924342596329134486e-02
1.077802055387407476e+00
-1.272737979863578728e+00
1.528540147749703204e-01
-3.549576791709646018e-01
-2.013578198962837629e-01
1.120345267534589739e+00
-6.570598994540714777e-02
9.068624587072516841e-01
-5.827281558063120981e-01
-1.754237330297290023e-02
2.971488445886611984e-01
-1.165384499002241281e+00
-5.966038837248266447e-01
1.759284875436478712e-01
-2.665793049316875218e-01
-5.917054087365677395e-01
-5.241525770512488469e-01
5.963225169397061709e-01
-7.863939816245698600e-01
1.065266687335847395e+00
-8.737866092286290520e-01
-1.292060700625026648e+00
7.544401178551507492e-02
-4.138498108076378301e-01
-4.445238584895411793e-01
-6.380424706116027966e-02
-8.550826365541609464e-01
8.889029873919266356e-01
2.049524628119168412e-01
7.408897620843741816e-01
-9.560548286411783489e-03
3.124059252709819878e-01
1.381774841232909168e+00
-9.805030408986450396e-01
-2.722226131792406245e-01
5.940909072948614700e-01
-1.165067091158371149e+00
-4.744491029702557761e-01
1.417399456969616611e-01
-2.757813369195998288e-01
-6.451821257496213047e-01
-1.096893060306961099e+00
1.169571264768288522e-02
-1.068392443242672130e+00
1.073860987930471689e+00
-8.128080745028648524e-01
-1.031582613871160570e+00
3.221998277195617932e-01
-1.041625215281807515e+00
1.882449542467617143e-01
-2.774868780836532364e-02
-1.173451967543160945e+00
1.224288717042436136e+00
1.329161908394533853e+00
-3.498509727225119770e-01
-6.162739319921324288e-01
7.872688581832208987e-01
8.824520639629011010e-01
1.831311519030543178e-01
-8.142976112654597420e-01
3.245501933028124286e-01
-6.129510422562577387e-01
-2.486214941654043276e-01
-3.107645469779327652e-01
-7.874929216916112251e-01
-3.353813124829524428e-01
-9.472348179705408766e-01
-8.002911562170347270e-01
-1.532193547383364773e+00
4.502321997976259649e-01
1.461972689812283677e-01
-3.899797109511502491e-01
4.291187573471504924e-01
-8.434543364202710114e-01
1.340662328059113673e+00
4.979676957397954212e-02
-7.975852674023566902e-01
1.019381985073513075e+00
2.035824367930441969e+00
-1.517390647948488436e+00
-2.689801515307707058e-01
1.051171912315857604e+00
1.862255428316764716e-01
1.673415443761637533e+00
-1.471904673398046315e+00
-5.150740260043420449e-01
-2.373897379335315749e-01
-1.261165886006438697e-01
-9.279610202694235088e-01
-1.226444091631321509e+00
-1.321274109205606562e-01
-7.932620589348164941e-01
-1.110955106777784529e+00
-1.497282279697929264e+00
-2.269264332632441733e-02
6.717429724443942929e-01
1.608497881313484812e-01
7.356512524743690218e-01
3.723931745867640752e-01
1.169608314384138925e+00
1.225390016165407020e-01
-1.602072136255470736e-01
5.591347961002560707e-01
1.281885521234912506e+00
-8.709820831765935356e-01
-4.906918387965871764e-01
1.479374469672727122e+00
3.854994707034755004e-03
1.751333465315317417e+00
-1.613332227313803102e+00
-1.150882705441538922e+00
-9.552869816797855407e-01
2.878748736940711303e-02
-6.961169830270229619e-01
-4.913331260428922126e-02
-3.646222014459138405e-01
-9.513510926824848557e-01
-1.130767693886469027e+00
-5.064543869089281891e-01
-2.448326437121344790e-01
6.008899165420357458e-02
3.845038156267144291e-01
1.090447711011725218e+00
1.271989802625868693e+00
-3.016565186450138533e-02
-3.767243582879282182e-01
5.457915843686109714e-01
4.977969568273087897e-01
1.219136873660076476e-01
3.913041587756340145e-01
-4.981924872384881908e-01
1.774408141396720318e+00
-1.163071282836100478e-01
4.514824009815702754e-01
-7.746887766972103684e-01
-1.022621940531631912e+00
-7.780637746187203385e-01
3.898544334866597683e-01
8.898016112924926890e-01
1.185444435886332304e+00
-7.101275246219419524e-01
-1.057561067821987333e+00
-1.296849896238434052e+00
4.142518485352804092e-01
-2.687032410890125012e-01
-6.061452256243835546e-01
5.129368433444083664e-01
8.362028102786071004e-01
1.231456068842794904e+00
-7.844090374179267799e-01
-1.238340115960620880e+00
-3.706753417549255580e-01
1.935616070336201033e-01
-2.933495901046626608e-01
1.749352635532051836e-01
5.597560975764460239e-02
1.843352982761483405e+00
-3.509450800539347104e-01
-3.445450365832072315e-01
2.874961997147235659e-01
-8.287671945332970580e-01
1.309897616959403710e-01
4.106770895281681155e-01
2.082744247377146252e+00
-3.242631508491796710e-01
-7.689265692018126819e-01
-8.842443314806665011e-01
-1.145108484851412589e+00
2.420190403381592414e-01
-4.122484687593855335e-01
-5.863513828288161589e-01
9.351413693740862065e-01
-1.528777789772683138e-01
9.923349648890581465e-01
-8.838621308800196363e-01
-1.797042312260333230e-01
-1.334627570823665232e+00
-2.642340533422023463e-01
-2.030306897455508575e-01
-2.581937707670113324e-01
4.225075616050491534e-01
1.286410567222388002e+00
-1.446365693762533544e-01
-3.950965066351216359e-01
5.401892949490445517e-01
-8.030754090883356344e-01
2.795838300444929980e-01
1.377561889049506716e-01
1.259856706156002204e+00
-1.631915992470927668e+00
-6.817786852339036141e-01
-4.909667852647269792e-01
-8.473038627686164670e-01
-2.158867620686978905e-01
-4.466392353587521069e-01
-9.990361585523777066e-02
1.104213526454005612e+00
-5.994518657014483720e-01
5.637345999271419217e-01
-4.276840215012324142e-01
1.534352215781469964e+00
-6.918516019427036756e-01
-5.812819818073904354e-01
-1.004912615014251220e-01
1.434573365480740492e-01
4.473434995359754779e-02
2.711909644120135132e-01
3.788833426856926812e-01
-3.642376010997668834e-01
1.291166527948962139e+00
2.996608655895929840e-01
-1.322988690409400592e+00
-1.360899385631851422e+00
-1.104536540731498040e-01
-2.136489178409581996e-02
-2.738355380253638671e-01
-1.356014884261491860e+00
-2.152930089344124998e-01
-5.023309897841785610e-01
1.816324293083946717e+00
-8.597562474523491316e-01
-6.695753570596744142e-01
3.954263623954627493e-01
-5.333543732291317063e-01
1.055709891221849085e-03
1.158359333247232920e-01
-5.209555414476162438e-01
3.330177063542322236e-01
-3.270892895221182983e-01
1.314503960563548235e+00
-7.830751658628201106e-01
1.794689298629604246e-01
4.816064043454072463e-01
-9.837833042368483438e-01
1.456642267448107431e+00
1.733021120038744783e-02
-1.050781897698821243e+00
-1.077549758160509574e+00
-1.636838389188149390e-01
-3.151337044218139871e-01
-3.127626202960793189e-01
-1.797403045534410992e+00
-6.587523449192502767e-01
-4.264741058705339705e-01
1.806054316076751043e+00
1.153763190871475858e-01
-1.132614092437269404e+00
7.484193607860388786e-01
-8.767590568516653304e-01
6.035034089624281839e-03
5.599099541060773705e-02
-1.036525713101390966e+00
4.838552546026033130e-01
5.610426826522906252e-01
2.333808748282198142e-01
-9.059795637658454304e-01
1.168752829325170883e-01
1.924923942297935286e-01
-4.699640651813944969e-01
5.761969658908335790e-01
-4.582951168766458694e-01
-2.457479119993428995e-01
-4.824688751369546891e-01
-5.946054091830066390e-01
-1.068786262724160219e+00
-2.910311027564217445e-01
-1.236521702123865696e+00
-8.321449063333614671e-01
-9.718383289059038255e-01
5.147803406553278505e-01
1.468445366147886011e+00
-1.060971863887004485e+00
9.203068584435797339e-01
-4.073013545144471559e-01
6.816721482633446572e-01
4.742198065255845418e-02
-9.141046500933140972e-01
1.598148985566909819e-01
1.764370138417547418e+00
-8.603679814925641045e-01
-4.022410038001597021e-01
4.483381778332720669e-01
-2.361563068677449695e-01
1.058477085301861242e+00
-5.585284075236474077e-01
-1.305300001253610453e+00
2.430841397172917584e-01
-6.506342747551249750e-02
-1.070323688111590288e+00
-1.302455468317455400e+00
-4.340290754660039441e-01
-5.219713367185195851e-01
-7.310649570174514444e-01
-1.438602839915459564e+00
-6.761619608845191864e-01
1.139929293718070280e+00
-6.664113429560593049e-01
1.200982626829920630e+00
7.485190314809693213e-01
9.196041244412208604e-01
-3.277132188553309039e-02
-4.396518257810298480e-01
-3.007770577090826403e-01
1.617009386121904813e+00
-1.894004547736114208e-01
-5.761777064834373158e-02
7.546102988569006742e-01
-3.894858446556611620e-01
1.875332343431041826e+00
-7.812967564320627556e-01
-1.462749978461199030e+00
-3.084859786062702502e-01
1.106816274479591328e-01
-5.250625189999792441e-01
1.106058315797542324e-01
-8.289642737781458548e-01
-1.335299644619230841e-01
-7.324188981230000950e-01
-1.093206623269421973e+00
-1.121453133009778558e+00
-1.158857321699583443e-01
-5.637756029581482142e-01
1.732391928716989993e+00
1.104855467536381752e+00
1.062594852725390199e-01
-6.577985542142450459e-01
7.532319194486553071e-02
-3.364032390269565131e-01
4.495918093954668349e-01
9.351060324354976139e-01
7.542376157854835395e-02
8.430799526657613008e-01
-1.166592650797370623e-01
1.064991441269322214e+00
-4.913696582907946947e-02
-8.472218766011747615e-01
-2.293559454176059276e-01
2.779359296097405063e-01
1.132125653150437783e+00
1.421452556435643277e+00
-1.063568101468305160e+00
1.633506270727435594e-01
-9.794498390090765616e-01
-5.757667302650306684e-01
-1.018022731654650181e+00
-7.771016226736024990e-01
-4.096412960485684707e-01
1.886518436527667042e+00
7.159328627811758494e-01
-6.582772745928129332e-01
-1.499129731960588297e+00
-6.477018001100777189e-01
-6.178635777826644304e-01
-4.282506482854629981e-01
7.145798688629330098e-01
1.885264526550142206e-01
6.888876047687686466e-01
-2.163088172188920300e-01
1.289559327297028213e-01
5.733613051103146896e-01
-3.781471837934384794e-01
1.709127613253265121e-01
7.689350812578651939e-02
2.267903847953359975e+00
-1.101607802846389095e-01
-1.088889165782263913e+00
5.596837284381285249e-01
-9.212516157061788613e-01
-3.992957336032700311e-01
-7.255236057251146509e-01
-8.303678775757441510e-01
3.670684894738154291e-01
1.034146309955121801e+00
3.939191010196821385e-01
-7.134259721380904473e-01
-1.268369631579659151e-01
-1.055372236625115479e+00
-1.115627774061646038e+00
-4.201242770744699762e-01
3.621318413497014443e-01
1.916780582502277397e-01
3.037566431504840070e-01
-3.037993082990214089e-01
-2.833874934126646150e-01
4.994087586871643336e-01
-2.448407894637860127e-01
-5.356253501190054445e-02
-3.328119927406255063e-01
1.330382287335977631e+00
-1.440691418216080599e+00
-1.088380091198207111e+00
7.428549546531519887e-01
-6.819312805959886203e-01
-4.296116249507296314e-01
-3.588948853738042066e-01
-5.833095774777823372e-01
1.001459869727712615e+00
1.368242433537333325e-01
1.371261850583638808e-01
-3.779613901271051679e-01
1.928508941117482944e+00
-2.904629513161760546e-01
-1.103339333032413050e+00
-9.830321474813415172e-02
7.675174366529955439e-01
-5.198417260493557457e-01
5.764871927207104729e-01
4.515220766236758831e-01
-2.156100689039721907e-01
1.782658612154430999e+00
-4.124290030600354928e-01
-1.197477093912969748e+00
-1.462930312031423208e+00
-3.162705913747309028e-01
5.182841306698168227e-01
-1.319985669789544847e-01
-1.152088212064397155e+00
-6.115806322197658851e-01
1.433779540420766496e-01
1.551668031713347551e+00
-5.973956697595560472e-01
1.442248672139101184e-01
2.783357206485224111e-01
-9.789969217470895213e-01
8.944591920225036796e-01
-3.198078171438066032e-03
-1.826524609494183937e-01
-4.472797284483959190e-01
-7.555513430589479995e-01
1.007140400803554492e+00
-1.292564013606035234e+00
2.259721619273888094e-01
5.105438532509197769e-01
-6.097353590193039796e-01
2.227780068933436830e+00
-7.481341520980545612e-01
-7.926317535870823772e-01
-1.117436458454102999e+00
-3.496976211555312131e-01
1.217381479489379748e-01
-2.291168363262565955e-01
-9.691272542239298682e-01
-9.920048838140750336e-01
9.308750458610026701e-01
1.233278417481698419e+00
9.650529235488380930e-01
-5.097256569625709943e-01
7.930785529185994109e-01
-9.402964623868635963e-01
4.244511400684022884e-01
-4.407665320611814375e-02
-7.910473340795470820e-01
-4.131843118038370233e-01
-5.043273614221519541e-01
4.491846244939096677e-01
-1.202758682207688112e+00
-2.141627443121568719e-01
-1.291690996233833266e-01
-8.014384494375544898e-01
1.324207472793450080e+00
-6.529911153769312193e-01
2.254910919055790400e-02
-7.511626106322236707e-01
-7.842112946339945267e-01
-9.811962005452542490e-01
-3.641243549692260717e-01
-1.314267783900731901e-01
-1.010171151328487005e+00
9.743444885254253229e-01
-1.009328635403868024e-01
2.388637268177217887e+00
-8.676081111012473590e-01
9.489870950232386360e-01
-9.768372380398551713e-02
3.203474596042027445e-01
9.802951651606663444e-03
-1.162474691313400088e+00
-6.008994253595416613e-01
6.746210139729089672e-01
-1.273684622149558188e-01
-4.822932213641107357e-01
1.697154455241943818e-02
-9.422545777482503881e-01
6.320972673567684663e-02
2.188983131051158715e-01
-8.821333922873784150e-01
3.403660373405120176e-01
-6.209585132844647193e-01
-1.168120783674329699e+00
-1.227009431366673287e+00
-6.792503187354876903e-01
7.890203657015358862e-01
-6.376302200465078229e-01
9.842106847682179083e-02
-1.217582008834688256e+00
1.393278367851756183e+00
-8.515661643460851193e-01
7.658005683219269999e-01
9.866393172555605329e-01
4.360306438474973456e-01
-1.484913598401780277e-01
-8.141881349062084494e-01
-7.040207896199237592e-01
1.339901388097160861e+00
3.542474451352619624e-01
4.517491921698323920e-01
-7.971613112581489580e-02
-1.066194865262438451e+00
1.253117952236734389e+00
-8.525680670755286794e-02
-6.001842668161738725e-01
-3.573583870580609445e-01
-5.176769952430040345e-01
-5.634752170314710762e-01
2.276935333411229112e-01
-8.681932337155915391e-01
1.344907956411868888e+00
-5.915017669937759903e-01
-6.136005231114364245e-01
-1.320104491894342980e+00
-4.523618266787712838e-01
-9.234767243533898995e-01
1.132984350679080432e+00
1.042567016600733476e+00
-2.138223843560732862e-01
-9.015312071171026620e-01
-2.902383946263028536e-01
-6.249187224036050203e-01
6.694316497607744054e-01
1.001834731083328212e+00
5.228415698755216612e-01
-4.928187473172824795e-01
-3.887277489735010416e-01
1.354247859819172950e+00
3.505577553677990954e-01
2.256748936295314700e-01
-4.517898822905840883e-01
-4.465892213603745442e-01
1.046426753321071157e+00
1.538560424465674314e+00
-2.739951287891423948e-01
1.343362465941830397e+00
-7.703876564589103859e-01
-6.730396784890926298e-01
-8.607811554221367345e-01
-1.022032458093221186e+00
-7.958752347118143167e-01
1.574847050772540946e+00
3.932097957041125746e-01
-9.182435160330904012e-01
-1.589562914278845440e+00
-7.344108758616644250e-01
-9.835460445723653855e-01
-2.146550163015587542e-01
6.316348431229840132e-01
-1.364181709740301673e-01
-8.288077766652635070e-01
-8.190304434830954217e-02
6.488477603557505358e-01
5.248522187524525817e-01
8.977288124326407992e-01
-1.679030823043585474e-01
-7.945688729971275288e-01
2.042109838172061931e+00
2.680758926543247433e-01
1.031303919488446991e-01
1.257989681004988869e+00
-6.393032828569504833e-01
-5.122555984823022879e-01
-4.268515779368664553e-01
-1.028329247875108932e+00
-1.410928252479940193e-01
1.332302431951382982e+00
7.484279605432539104e-03
-8.819188178952548363e-01
-9.013081703683967216e-02
-6.704845946238398025e-01
-1.543620942658587181e+00
-3.188475987069889217e-01
2.375093042385748310e-01
-4.663313589571104201e-01
-8.155359940494206761e-01
-3.198066272066470428e-01
-1.528213222452041650e-03
1.602333670102919494e-01
8.274474457454886744e-01
-4.173665026921899446e-01
-1.011770635325594858e+00
1.197466726657127944e+00
-8.227517354682638562e-01
-7.710233415619274777e-02
1.081276617729518330e+00
-3.477253156493574915e-01
-3.903680028546285263e-01
-8.925470611848479452e-02
-1.061809979607768240e+00
4.264138677364643915e-01
6.294427293064248641e-01
-1.331451456561478230e-01
-4.074141154039461754e-01
2.090777053480750158e+00
1.815132452017393372e-01
-1.418410324749795448e+00
1.173277206015676220e-02
5.336919025551757345e-01
-4.475591006606999822e-01
1.168465318633879368e+00
8.323141282866969304e-01
-1.631493715202677608e-01
1.117223263056202898e+00
-1.452015345716527239e+00
-1.331567825756782231e+00
-1.309316708757902958e+00
-4.175013959413128584e-01
8.500277388270796042e-01
-2.175459767617153942e-02
4.539896371700717914e-01
-3.700780780320001573e-01
1.427651025391816209e-01
4.393842202644443473e-01
-3.058019402527685782e-01
4.499124841748061154e-01
-1.784240542800941132e-01
-1.251546787712357611e+00
1.537942233585924301e+00
-5.811547276961277764e-02
3.341576382951439578e-02
-8.137593582147660820e-01
-1.223277534163007774e+00
-1.203726648388388915e-01
-1.261049772993915852e+00
9.216175348918786980e-01
1.140955604999283279e+00
-2.282274009043779583e-01
1.491053888793009152e+00
-1.253270453930336537e+00
-1.030952753790059573e+00
-9.241554916335712466e-01
-4.613754937924176569e-01
5.176546341016954322e-01
-6.621628063545542675e-02
1.000414140303507393e+00
-7.538967648313114056e-01
1.159055505780615114e+00
-2.995459136453569871e-01
8.650090765772328050e-01
1.237179269292503769e-01
4.162917754988121333e-01
-9.610338679313892296e-01
1.236175160551825636e+00
-5.923536026538425703e-02
-3.081075879254349670e-01
-6.946627085301351201e-01
-1.622912170752303096e+00
-4.597988273807632198e-01
-1.121017772253479983e+00
1.908333655648310756e-01
1.913265763479372328e-01
-5.725749439275134023e-01
1.013388229724957013e+00
5.970372624951356816e-02
-1.713325202923314527e-01
-9.452283902173888031e-01
-7.640821561671610196e-01
-5.754217439485426189e-01
-1.998112935811506841e-01
1.326383278354755557e+00
-9.710794056417557663e-01
1.916748101671816196e+00
-1.332067032963781816e+00
1.745589436421818741e+00
-3.358728652310426499e-01
7.942306978514620530e-01
1.551065661453557010e-01
9.982021535598718520e-01
-1.073179428241520655e-01
-6.365577114056434338e-01
-5.026234482712462759e-01
-7.610876647126800787e-01
-4.560150020367211843e-01
-1.825054233361428357e-01
-8.468326066366103910e-02
-1.077645658438746823e+00
-6.413078793573263603e-01
2.602498357827195408e-01
5.595990931843501937e-01
4.496284533394744737e-02
-1.416517525180317705e+00
-1.086456418263590962e+00
-9.069711129436925923e-01
-3.805198056171611998e-01
1.325848989392663713e+00
-8.522677299824196195e-01
1.481890638446189845e+00
-1.701248885145016487e+00
6.620070471162229353e-01
-5.888822100149998517e-01
5.162520456236967537e-01
1.143392108003363106e+00
1.015577152016536866e+00
-4.670975185286269094e-01
-4.741133403969261528e-01
-3.569330678198044948e-01
3.125635087733595330e-01
-3.073802207076171689e-01
9.505073000698180952e-01
-4.536062815952097704e-01
-1.352603140467006027e+00
1.052118814059282981e-01
-5.183119810409458211e-03
5.063995646083486735e-01
-7.584611979409104920e-01
-1.455940152624051409e+00
-6.535923953018939470e-01
2.521980701993023488e-01
-1.130174630025239553e-02
1.035952259950884580e+00
-7.308648998599129865e-01
6.583317634197564105e-01
-1.091087159452676758e+00
-8.497292552553101785e-01
-6.438350364359746170e-01
6.004811153709121996e-01
9.055751741942106303e-01
3.005045007989263772e-01
-1.218790390408848623e+00
-1.508588738672330676e-01
-3.073497667097467856e-01
3.467165026463176480e-01
-1.847357088356051946e-01
7.623587896542028952e-01
-1.041397446478528277e+00
-4.836788206142184632e-01
8.946622488851839750e-01
1.301299475245967230e-01
8.074234575924550406e-01
-8.344558083372498603e-01
-1.208370385356952514e+00
8.197583094250087132e-01
1.432156590718411060e+00
1.408981010913462617e+00
6.336845777626569642e-01
-5.312497826786952704e-01
1.181357576189912550e-01
-2.075722697472779932e-01
-9.644816862258299706e-01
-5.746601716095233181e-01
1.043607274354613423e+00
1.455791329789896116e-01
-8.909197660460025370e-01
-1.466880913705661982e+00
-6.992868407152160737e-01
-7.215228230092294304e-01
-1.236044687994584113e-01
-5.627207005343182189e-01
-5.217529164963141675e-01
-1.240830702211703107e+00
1.817161062475565192e-01
7.127924861447059168e-01
8.228250072738053922e-02
1.361273223092141826e+00
-5.019109236448476841e-01
-1.302037861968022625e+00
1.584735194109236911e+00
4.099696678100264724e-01
2.128474257202331632e+00
4.254466288855527356e-01
-1.275766026045607460e-01
-2.453699396592409765e-01
1.381176096968122213e-01
-7.593835773952319901e-01
-4.138181701043243677e-01
1.127562254254883767e+00
1.443465912715606037e-01
-1.186723360506421576e+00
6.396943440861450891e-02
-4.665559308047217413e-01
-1.280978784934420522e+00
-9.781590006188083108e-02
-6.993822741685942201e-01
-1.059518695582037706e+00
-8.577529623466694231e-01
-7.021743476334306455e-02
8.796584101453591709e-02
-2.625674468424696872e-01
1.050212731754535112e+00
-6.698714758979738004e-01
-1.226588914901902472e+00
9.010176425276295031e-01
-6.122039568210551064e-01
1.504854327953059068e+00
5.422531400738290763e-01
1.662686468542355911e-01
-3.643294906798523192e-01
9.039669894637228365e-02
-8.990074137588405234e-01
-3.588093156180060528e-01
7.652271079524111119e-01
2.362594807531440688e-01
-5.964999815017141271e-01
2.021084262809128340e+00
4.318190386328523145e-01
-1.215748566162185407e+00
2.197479313455524830e-01
-2.358252880777660931e-01
-1.239873408075007344e-01
9.779698442812416737e-01
7.591571009888747890e-01
-7.420938655011037610e-02
4.606937712948741548e-01
-1.219459301174115495e+00
-1.138816367223940196e+00
-8.409158647107199958e-01
-5.514511300239791636e-01
8.315064640414310260e-01
-1.322434662931803832e-02
1.111648955306442810e+00
-1.798203836136909317e-01
-1.648999331038328298e-01
-1.940620877383118503e-01
8.392122343230774828e-02
2.243848877381101337e-01
-3.546686173309774315e-01
-9.126528707744113733e-01
9.637814206640877845e-01
6.668703498803570107e-02
2.278413833047817916e-01
-5.675082330227838590e-01
-1.207084532611302885e+00
-9.938917449721045294e-01
-6.910740632783850534e-01
9.004293856743081914e-01
1.216022979972921636e+00
1.446674953373022210e-01
6.650858343757936053e-01
-8.066632987729153159e-01
-1.042485832751469887e+00
-5.613988544456557372e-01
-6.318342801457421665e-01
4.008763134608810397e-01
1.992572490056283563e-01
1.422246831935920941e+00
-5.172898739223830145e-01
4.472226632062443197e-01
-9.616992734909137752e-01
4.527230781647369473e-01
1.906912547016844928e-01
1.010782814348814840e-01
-5.621281258266732639e-01
8.967009793440409160e-01
1.723495167656947935e-02
-1.136810992949858698e-02
-2.289771959882575536e-01
-1.612474285143452812e+00
-1.310447472336177199e+00
-5.678514939596184252e-01
4.283769989354028751e-01
3.063596772208245778e-01
1.212455822041101777e-01
4.372688646890257602e-01
5.858128324738991477e-01
-2.788209067329122104e-01
-8.089275389375335523e-01
-7.601389596987044861e-01
-3.653553033753514367e-01
2.193704592965769751e-01
1.177124208897139201e+00
-8.087064798699467039e-01
1.337698871507754461e+00
-1.628251521685142977e+00
5.082960369470042039e-01
-9.182757550757576770e-02
4.777114095019063811e-01
4.060308390017559610e-01
1.004013246811751969e+00
-1.436105113856808169e-01
-1.132550049453467794e-01
2.163831759467046978e-01
-1.160058492815639664e+00
-9.300401655910681686e-01
3.379227162881538460e-01
-1.731053782749958914e-01
-7.772234155788847465e-01
-2.175249023492158429e-01
3.848231099597987370e-02
1.416192813004198969e+00
-1.624980008866386272e-01
-1.418958104774220574e+00
-8.986032582935926660e-01
-5.301399731876549337e-01
1.541880291956823912e-01
5.509689279576035492e-01
-9.695790443979234174e-01
1.527481362636431417e+00
-1.260724998005464004e+00
-2.016244062295614869e-01
-3.185159788747608522e-01
3.728733465494548649e-01
1.112868384690914647e+00
1.288875725656823068e+00
-4.447566652605545734e-01
2.056080321794245269e-01
3.141109945940802617e-01
-5.765164472968774545e-01
-8.779102315606420737e-01
1.284638953053404586e+00
-6.269540289495486585e-01
-1.024185056599734800e+00
-3.383227258218581834e-01
-1.494235740945717983e-01
1.012491637257407762e+00
-8.219028260611989101e-01
-1.382200203807119721e+00
-5.438338022339107569e-01
2.079082797033489916e-01
5.306151929961635538e-01
2.477882934474984200e-02
-7.509735607536844881e-01
1.039792221677462214e+00
-4.301441301946746787e-01
-6.903217303549249451e-01
-2.729839229414738333e-01
3.197997242246953253e-01
6.242108436553230888e-01
7.783281941429390782e-01
-1.067837659521874372e+00
1.803900724083405127e-01
1.748150803470002457e-01
-3.328872441818988559e-01
-1.010273419270368400e+00
7.425583344611491610e-01
-1.064834522415208484e+00
-3.495269532578174076e-01
-9.601351221675453324e-03
-1.978182800511947004e-01
4.729943139816886188e-01
-6.462349092943199258e-01
-9.741141085890284712e-01
4.657205555111125772e-01
9.557199619696963300e-01
1.668745725489435339e+00
-1.575222337707435638e-01
-2.490870619618005544e-01
4.776102140755584813e-01
3.299623893174473133e-01
-4.524994822703519159e-01
-1.405798393862284779e-01
6.287261354162247962e-01
4.244387857126790536e-02
-4.859463263308538283e-01
-1.146561426030887842e+00
-5.672044278960319819e-01
-1.202405261283072124e-01
-4.052585808084464558e-01
-1.275636390070436166e+00
-7.624299928684016292e-01
-1.043488468995898311e+00
3.628879535044252092e-01
8.067107915077575964e-02
-3.464522323076431598e-01
5.995423169217931614e-01
-2.324423777730939278e-01
-8.978738678056219502e-01
9.666779764873347780e-01
1.682337000560547580e-01
2.361246872458746981e+00
-1.474602817473813221e-01
1.331371303476136247e-01
-3.480572833737766852e-02
4.575206942665993592e-01
-1.797257716228674307e-01
-2.071025047288969634e-01
8.590635348532349447e-01
5.012442173002256141e-01
-8.929562122540977143e-01
2.209569315438579817e-01
-2.704601562241825685e-01
-5.356893289758211107e-01
-2.557889406607948835e-01
-1.153497498762949602e+00
-1.155068503753279741e+00
-4.209889598024126323e-01
1.802811588791354280e-01
-2.901829260029646362e-01
-4.540265918683429325e-01
4.089833047712961300e-01
-3.494880494145884420e-01
-8.219336077104070215e-01
6.553881627767887963e-01
-4.228993314373713508e-01
1.671511602463112478e+00
7.614808462094369013e-02
2.528127031040465766e-01
-2.763551003143888130e-01
1.065974280072855968e-01
-2.298595464082943129e-01
-5.326833387943566978e-01
7.098789593512838669e-01
6.249432442997768788e-01
-2.686578716336570083e-01
1.624407197508076717e+00
5.950310555244658905e-01
-6.117004958144195426e-01
1.427347938174513831e-01
-7.517271124868455390e-01
1.748532332171698345e+00
-3.997393594080634327e-01
-4.314531386395042745e+00
-5.735846298104277707e+00
-2.764139127728328482e+00
-3.298641469095663581e+00
5.978109533032270662e+00
6.208334065991932604e+00
-6.155042240370680595e+00
-2.229528570200858706e+00
1.027130645485849897e-01
-2.047133790813812304e+00
2.066210677050673183e+00
-2.732560239444072447e+00
3.159697413691725298e+00
4.000798793341656667e-01
-6.224445914518789813e+00
-6.797428812278105248e+00
-3.701045571425022107e+00
-5.209264876490555807e+00
-2.449629072089463566e+00
5.806920360930271308e+00
-2.445913932034421201e+00
-2.056692022026387789e+00
-9.277017226427920482e-01
-7.614400293961929786e-03
9.762624122848855349e-03
2.868265277486575782e-02
3.630790778936530266e-02
3.123583582035944356e-02
2.761953225695394989e-02
2.996593739422484873e-02
2.037781154384462473e-02
-9.608383569349109379e-03
1.462681510142717876e-02
3.257178898116237786e-02
3.326434158785587097e-02
2.957824606709026291e-02
3.235358839520528079e-02
3.565141025264739055e-02
2.636582352015408651e-02
1.286220458232598379e-03
1.208491055025435329e-02
1.602698851207611311e-02
1.203196476226779665e-02
2.069207888858434763e-02
3.158715295253151228e-02
2.759142515262729203e-02
2.065682738593474163e-02
1.550966734392900115e-02
1.989330728828099526e-02
1.026947540339308990e-02
2.568791145647129730e-03
1.435577124691587991e-02
2.633878437019623528e-02
2.358076553306693440e-02
1.382831496689459171e-02
2.259979873522430585e-02
3.741494872872629107e-02
2.412506057102615370e-02
5.030520633673319676e-03
9.229044033010985054e-03
1.874140868537665580e-02
2.438709092331463671e-02
1.940208981215449380e-02
2.503697728203119199e-02
3.332586434588837715e-02
2.723089849274578506e-02
1.276937832748161264e-02
8.134663541247512397e-03
6.384351942888429575e-03
1.593595769736093001e-02
2.123469745435375630e-02
3.315370855183227133e-02
3.000471232206549863e-02
1.510712549817033908e-02
1.642039318620153870e-02
1.862203055370268215e-02
4.818769256846141234e-03
1.537177961190208404e-03
1.136539067456563724e-02
2.403527123837945895e-02
2.386305915736253169e-02
6.553939638779916060e-03
5.423215009979116819e-03
1.651869694200361685e-02
6.861216482082896015e-03
-1.133534882503483762e-02
-6.157379025325934209e-03
