6.238512844133506929e-01
7.144489791706919446e-01
4.758015321408037290e-01
2.455277920632798760e-01
4.200644264368095793e-01
3.828816153589432170e-01
-7.250516122907529892e-02
-3.109522554265253258e-01
3.997847986058428726e-01
5.671263444222809369e-01
2.631826922044963601e-01
4.695028754654617664e-02
5.119850824734681893e-01
1.094854081264365009e+00
1.148606781366229512e+00
6.334440597710742082e-01
-4.052661339473775381e-01
-2.971287502017811999e-01
-7.803396357728330512e-01
-9.417740515856954930e-01
-4.297887109927090582e-02
1.083937892700558736e+00
1.587616620580959648e+00
1.045666774866776505e+00
-4.986414847247235826e-01
-8.192991121865526027e-01
-1.493163907145722114e+00
-1.584708375681226578e+00
-6.980442342621520080e-01
2.149077883337826567e-01
7.940280274695072915e-01
7.187196529023149871e-01
1.218979227440988439e-01
-6.443079949412323648e-01
-1.340029617586849797e+00
-1.155431635167541771e+00
-4.612113219572286371e-01
-1.879955682127985028e-01
1.793934074496501274e-01
5.557593606636250794e-01
3.813329757371543005e-01
-4.092469680913236596e-01
-9.674855957694346031e-01
-5.943205429391837935e-01
-7.775845319774121744e-02
-3.395259777425380654e-01
-3.211212786897761906e-01
1.217637806332797779e-01
1.070576963419338085e-01
-2.824570418413515638e-01
-5.978967442408227306e-01
-4.000105188429390335e-01
-1.556757194614279971e-01
-5.546417331687176766e-01
-6.799474483021304971e-01
-3.720654581748240042e-01
-2.767049032103900408e-01
-2.269207671147059346e-01
-3.237557302383308189e-01
-4.038350007153429511e-01
-4.502782241030838239e-01
-6.295670454741575384e-01
-5.208050731973318248e-01
-3.683543084237748677e-01
-9.252085239530316585e-01
-7.499507787169155115e-01
-4.080955015322085822e-01
-6.933355931085792845e-01
-8.421539576295291596e-01
-2.608207884387219178e-01
4.834166104423650578e-01
2.808914224339773003e-01
-1.065071112568219736e+00
-8.294029052926179535e-01
-5.887201609244739897e-01
-9.829120421161148258e-01
-1.032062631524069074e+00
-2.775465648812899255e-01
5.987539028786195150e-01
3.346756223733042823e-01
-7.066426377998727970e-01
-5.771687787659462998e-01
-6.552998988039847594e-01
-1.202186638960593523e+00
-1.064551409048565933e+00
-1.558378881476099320e-01
4.418749981245213565e-01
4.559438947988291024e-03
1.105151631796666145e-01
2.372533583085189302e-01
-3.383765691589447067e-01
-1.186352542286567280e+00
-9.401200003978672504e-01
9.876652267258491380e-02
2.168171655535957865e-01
-5.639296592558598054e-01
6.031533208570969418e-01
8.503836569185410088e-01
-1.390662337067107013e-01
-1.106129426358479106e+00
-6.439541626282071496e-01
3.071002997155332648e-01
-4.221400353006631717e-02
-9.124726775965158465e-01
7.141496517555844248e-01
6.823375220364101823e-01
-5.077619672049734634e-01
-1.249152667610239797e+00
-4.944623176702527823e-01
3.857181139393208169e-01
-1.668518545665306496e-01
-9.662820934505808035e-01
8.383384240674366383e-01
4.374824934761750717e-01
-6.279316544617742357e-01
-1.081680708246438805e+00
-3.011083953400713331e-01
3.772931321536824867e-01
-2.875505132737409264e-01
-9.813208027830940816e-01
8.110744058392884703e-01
2.725603183785424988e-01
-4.315771282298183631e-01
-5.265715318409346368e-01
1.220972478709424630e-01
3.634757193521015450e-01
-3.477889912720086296e-01
-7.139553380863450371e-01
1.625852358869748493e-01
5.877281767101817378e-01
3.601641568214761779e-01
-2.464086202018519467e-01
-4.295586546693288543e-01
-4.054507463822383251e-01
-2.913262723978726210e-01
-3.138270330206917591e-01
2.689952726674122996e-01
1.068836381631392607e+00
1.210237573541638190e+00
6.484114557137392598e-01
3.382526341392403380e-01
1.834777822749135423e-01
7.734885401760534240e-02
-7.570654272059985923e-02
-2.694681468188767082e-01
6.403472232361867578e-01
1.261046098379040581e+00
1.000431235761263249e+00
7.373925432342675057e-01
5.791149046463561767e-01
4.800120912935884054e-01
3.326860065469429140e-01
-8.876506307093036119e-01
-3.229088657698309661e-01
2.721834869368154886e-01
2.504853126765977378e-01
1.921248601932777633e-01
3.530839830438837756e-01
4.959739565762955049e-01
3.623323360143116956e-01
-1.004120838651118675e+00
-1.073471941257567064e+00
-9.415613429903062492e-01
-8.822352239456303646e-01
-8.530283514133386591e-01
-5.401285915429355766e-01
-2.145590697594309815e-01
-2.147583225358865588e-01
-2.984496681679771335e-01
-6.629093484759588373e-01
-1.003001875935185527e+00
-1.203610109304406262e+00
-1.365623915631100305e+00
-1.209017601103048900e+00
-8.939720276705331869e-01
-7.862872705063773671e-01
6.688153633843682000e-01
7.057573624533599599e-01
3.587957919052275346e-01
-2.931037169966627456e-02
-4.069699285583470716e-01
-6.917097420187829915e-01
-7.154700008942317391e-01
-7.152187298374484969e-01
6.441406487995489094e-01
1.020226132239719918e+00
9.817445118082737121e-01
7.552509928351901491e-01
5.398831345560501926e-01
1.147458284610645002e-01
-2.211867713539776015e-01
-4.379581046831104718e-01
-3.706875417651322446e-01
-3.144706113910206713e-01
-3.263431311545599289e-01
-3.126566209075416491e-01
-3.465730442949326306e-01
-6.561243180368180328e-01
-8.905479224397739868e-01
-6.532888020636962167e-01
3.564598270929215107e-01
4.693262876411372631e-01
2.979290727149239704e-01
1.586682032610764181e-01
-1.329252558640319215e-01
-4.708180576081790192e-01
-4.915285025504193550e-01
-3.250427897397016319e-01
8.263034098013259943e-01
9.893618833256272449e-01
5.707069554675666678e-01
1.287900853936679302e-01
-3.471417721008972501e-01
-2.865609708488132679e-01
2.652024855186934649e-01
2.768758886645025230e-01
7.113259372446634199e-01
6.042877213042839868e-01
-5.039563317254353719e-02
-5.630262742804253984e-01
-8.082309548087167617e-01
-2.654300793654384982e-01
5.658753128970084312e-01
4.016401170225842865e-01
9.000843329668628545e-02
-1.384639117431381294e-01
-6.502004154319864782e-01
-9.680287097338877711e-01
-7.344892091011173685e-01
1.169540716510012734e-01
7.266063516448377779e-01
3.928828351381390971e-01
-8.733241593101688238e-01
-1.058494347107846956e+00
-9.234685973241090196e-01
-7.628042096054581389e-01
-1.160438243558317706e-01
8.034317576826244256e-01
9.590840914616427515e-01
4.198819437507479435e-01
-1.395118394914538262e+00
-1.682935780359389177e+00
-9.386817574251468121e-01
-1.875443343881392499e-01
6.095167702028089218e-01
1.235940778293345588e+00
9.067037141234786102e-01
1.911626368148678923e-01
-1.035789293857352078e+00
-1.377939082341587573e+00
-7.485742291129300341e-01
3.288909516727119009e-02
6.688169128474921177e-01
9.347183636681194452e-01
3.929152068463145908e-01
-2.475483205928064867e-01
-3.336508664707945604e-01
-5.706702601862054802e-01
-4.274356763580083318e-01
-2.535021892594983561e-01
-2.050694365439883760e-01
-3.216618236226843064e-01
-2.380938245616796567e-01
1.308708488246424217e-01
-7.057547026771521237e-01
-1.087982651911039822e+00
-9.041597598496080579e-01
-6.655094396092049447e-01
-6.105108420494211874e-01
-6.381643560517400449e-01
-4.339386821010149942e-01
9.863238095036121200e-03
-7.847708580026426795e-01
-1.137620590186450231e+00
-8.802565262669589385e-01
-5.937018732054188952e-01
-6.394713377266399990e-01
-7.322164447604549986e-01
-5.921236062634505082e-01
-1.060799319713086331e-01
-7.028711960599374198e-01
-9.978086691657384044e-01
-6.300270133412947393e-01
-2.014176150423574452e-01
-2.700298231659697401e-01
-4.600199642142607237e-01
-5.705474011227644748e-01
-2.900295384921612318e-01
-4.184345259698569741e-01
-5.306141277813800627e-01
-2.706316459830063192e-01
-1.031297325148620991e-01
-2.311014722110432684e-01
-3.630877309643275597e-01
-5.509254611677304458e-01
-4.695473501822601259e-01
-2.835131199304210536e-01
-1.234521128437980064e-01
4.133950508821473274e-02
-3.516617922167445398e-01
-7.242511188890023988e-01
-5.869005267493632161e-01
-4.177450244676839675e-01
-2.441886108633244679e-01
-3.464180764766359166e-01
-4.810788666111946721e-02
2.094490286221266373e-01
-3.239208809113195975e-01
-8.374386091302036261e-01
-4.417118267013607213e-01
1.334283683513441954e-01
2.832289609030866351e-01
-1.360131297058633226e-01
6.856248238257842131e-02
3.523283909705612893e-01
6.005305932433875615e-02
-2.703811820732398008e-01
1.525170712166170617e-01
6.638898084334879934e-01
6.451468103357932415e-01
2.327117115910987410e-01
3.487683372616185995e-01
6.252128788148988425e-01
5.680730179883156650e-01
5.375378531328400822e-01
6.235217006956189634e-01
3.829691652932244450e-01
2.790715232879175667e-01
-3.116051906614523363e-03
-1.727234480402631625e-02
2.552802440948948592e-01
1.682254908634241430e-01
1.134779731634125294e-01
4.433519664684640871e-01
3.443350941372995133e-01
5.754341093557793774e-02
-5.125919249123431776e-01
-2.766287789176083423e-01
-4.111733744010639263e-02
-3.888268566188723407e-01
-6.305813514162529332e-01
-2.810099601380158241e-01
-1.783878400020226240e-01
-5.195232322762090016e-01
-8.451920629651835659e-01
-4.479867972873871618e-01
-1.266286491290768979e-01
-5.039463117961217042e-01
-8.975542881910625326e-01
-8.534755394824038444e-01
-8.967284420493296659e-01
-1.194806465728526890e+00
-9.379832934909972941e-01
-8.356048942027116677e-01
-5.242923125400578144e-01
-6.252458934670795943e-01
-9.098547424796116223e-01
-1.006176646294855814e+00
-1.191715771103073029e+00
-1.361233803941654719e+00
-8.413502717421690313e-01
-1.125458285652222834e+00
-1.023870674481138998e+00
-9.306209480257335853e-01
-9.671713174108174105e-01
-5.682785519092882209e-01
-2.798030017425754967e-01
-3.202450929696116777e-01
-5.815867466308626277e-01
-9.058380102800714928e-01
-9.075649949586932497e-01
-6.490730150194985448e-01
-3.849586083841569639e-01
3.960414595281919192e-01
9.737685477631969899e-01
7.958300013702758191e-01
-1.974205485252494285e-01
-2.815672441980378582e-01
-3.167506220607151368e-01
-6.136853948013020615e-02
2.949812276967579416e-01
7.775712423107428162e-01
9.769586222406220211e-01
6.810160050680861277e-01
7.125246635344205659e-01
7.155808610713500217e-02
-3.044874299959349218e-01
-1.173477493004433103e-01
4.851204440915160196e-04
-2.696732491155238165e-01
-4.372951631153714769e-01
-2.676024435745377184e-01
8.820846451679802414e-01
-8.546762905277395517e-02
-6.206061802006056505e-01
-3.376909336950923990e-01
-2.583179575431922559e-01
-5.417976998406219824e-01
-6.539332225846273827e-01
-3.308974344573987758e-01
7.450470277099534577e-01
-2.281623148408924440e-01
-7.266478586674157691e-01
-3.735943497301890126e-01
-2.574025300790682702e-01
-5.029767283957451429e-01
-5.777251383362405068e-01
-1.785243410888709692e-01
2.178099410106714984e-01
-5.084453895637746079e-01
-6.719503413770159250e-01
-2.989716488585460463e-01
-1.847497121691602795e-01
-3.982719324244861636e-01
-4.768741739508533528e-01
-1.249866587636273146e-01
-1.577940238469482392e-01
-6.356638555825095960e-01
-5.819693580761186036e-01
-2.598642136105817069e-01
-9.132891379152187350e-02
-3.417767177769237552e-01
-5.911891138843954341e-01
-3.214159486729030180e-01
-1.984978535623906637e-01
-5.932544769335418300e-01
-6.027876647982244318e-01
-4.020013992042916762e-01
-1.676588666733495880e-01
-3.659253098027611673e-01
-6.816463166964112919e-01
-4.169052260402919541e-01
-3.184361673458494524e-01
-7.105565981722644642e-01
-7.143924555951927102e-01
-5.103278368934774933e-01
-3.192836585468514232e-01
-4.472826522530321536e-01
-6.474302817057424608e-01
-3.340543823057285366e-01
-2.930319020940209684e-01
-6.873819065383531823e-01
-6.301961109701548214e-01
-2.663612717887690606e-01
-2.712419550919285480e-02
-2.156397929860247309e-01
-4.765733767316734926e-01
-1.965127355509785345e-01
-1.022899747452656882e+00
-1.323961649659757267e+00
-1.379342682385010344e+00
-1.148978192852377900e+00
-8.100979424461288714e-01
-7.711685136550679998e-01
-8.866263518107542208e-01
-7.260853117438569315e-01
-1.014901901102250870e+00
-1.432474425730757117e+00
-1.403986002641002262e+00
-1.126395355771421247e+00
-6.935438878324107215e-01
-6.103602868163845452e-01
-7.141151822072985267e-01
-5.695058283114381448e-01
-2.944277854288089857e-01
-5.453421872157853123e-01
-3.023144947180225750e-01
1.896448545932302165e-01
4.943565944516126742e-01
-9.485602196821608587e-03
-4.282826710248807678e-01
-2.874762954335143839e-01
4.711205695421805117e-01
3.200024857674623746e-01
3.321537586559462074e-01
6.765717945438959324e-01
6.875386571700938809e-01
-2.828904563933272720e-01
-6.773626500309104514e-01
-2.477492518587760262e-01
8.205392038061545268e-01
3.835802166166962235e-01
-9.689521177328690171e-02
-1.250742940835770922e-01
-2.450321705013792373e-01
-8.872155588754679911e-01
-7.950843953474243664e-01
-2.157047984077917480e-01
4.013427003704445606e-01
-2.200346478706455278e-01
-6.969878648833284229e-01
-5.973759705713694856e-01
-4.935894280725467431e-01
-5.770828075005183244e-01
-1.632642256057566243e-01
2.196503310319100899e-01
-2.672669983638937263e-01
-7.395165261302995008e-01
-7.297551369863632953e-01
-2.679619628129859543e-01
-3.570362334149906891e-02
1.702034546100056611e-01
7.671022812458072604e-01
9.053370403013843992e-01
-3.691277743344876239e-01
-6.979730951188187760e-01
-4.189379518097939292e-01
6.664654690090940359e-02
1.542763485987863059e-01
2.785275100892202205e-01
7.553788263788252522e-01
6.942869474433065458e-01
-1.644480944736858574e-01
2.137572029356450687e-01
6.213952290465462047e-01
8.477160936375532918e-02
-7.616917736085039303e-01
-9.528150502700823976e-01
-4.350145219061956614e-01
-1.038745921201280177e-03
-2.989041792925148378e-01
3.165006135207442117e-01
1.064131229107659671e+00
5.775692951615248871e-01
-5.810280084967246461e-01
-1.118034928031016006e+00
-7.540327391499676013e-01
-3.028273384735938323e-01
-4.464605024435490122e-01
5.161531031961074101e-01
1.537158190948143766e+00
1.126192748915219033e+00
-1.466380056636195639e-01
-9.609734536033365249e-01
-8.517421656243088224e-01
-3.885948263770533373e-01
-2.964867606503497899e-01
6.580621672801850730e-01
1.622142797958901594e+00
1.162496078001978184e+00
-1.285657912930139868e-01
-9.224339819322882050e-01
-8.196397898936644832e-01
-3.225277733782428435e-01
-1.044813958246691432e-01
3.688155915699812271e-01
1.182366015656024061e+00
9.236891718306144972e-01
-3.986258900956973772e-01
-1.164614172018947791e+00
-9.440913391658113385e-01
-4.529937243565992366e-01
-1.828997801113801669e-01
-1.034350342384178500e-01
7.315358098986892710e-01
9.869338800971949599e-01
-2.001370140082904814e-01
-1.057065146808088718e+00
-8.235378624078768528e-01
-4.721194162162927199e-01
-3.714480096034057932e-01
-5.195072864639420640e-01
2.663007879990748061e-01
9.389579192053656431e-01
1.786357260391295831e-01
-6.289871325540893343e-01
-3.677249871043304363e-01
-1.118447493948296206e-01
-5.852625344547186526e-01
-6.688279139029371656e-01
-1.239688393529636418e-01
3.245987081077177927e-01
-7.248671976694323615e-02
-6.263544924571936567e-01
-3.571220389271027584e-01
3.959812268878133007e-02
-4.280481999625468381e-01
-5.065587012203787154e-01
-7.741604678371477588e-01
-7.488850600921479472e-01
2.634564939916525864e-02
5.025235999529845676e-01
-1.269453518964535621e-01
-5.935004036092345059e-01
-3.930142851493423906e-01
-6.529009290802906262e-01
-1.016358178342506191e+00
-4.867734432304061110e-01
8.324081721311383797e-01
1.245531136002651751e+00
1.888918617758574836e-01
-6.416656508824704064e-01
-4.294595287443024323e-01
-8.628054014423324203e-01
-9.442976424809430558e-01
6.543228814230732382e-02
1.250937492052254019e+00
1.349388562142244119e+00
4.666862429628276243e-01
-3.322526740238914145e-01
-6.878240442335462612e-01
-1.093832234797590397e+00
-8.084570900501445445e-01
2.174342619792247466e-01
9.627173862255060666e-01
7.928535951172677176e-01
2.032301751445692584e-01
-2.127856003523902750e-01
-1.046135647109813105e+00
-1.183742008100394427e+00
-5.293729561144199236e-01
3.737946888739570594e-01
6.788001792035612825e-01
1.836828796080114123e-01
-4.131450530860386050e-01
-5.792778746587081695e-01
-1.238162846451459798e+00
-8.857789385526454451e-01
1.413955282771624800e-01
8.173248584178375298e-01
4.267609402726113554e-01
-3.800197795172766679e-01
-8.409384083820344857e-01
-8.667998433438866002e-01
-9.557822966020484978e-01
-4.221569338221027312e-01
6.738293690600373198e-01
1.035778442295570922e+00
1.672579374124020246e-01
-5.299128819743440522e-01
-6.287761194090087935e-01
-5.669264369788494795e-01
-4.949770824343702191e-01
-1.973920626196933592e-01
6.772009457096522800e-01
8.356487367514489062e-01
1.134486313281539774e-02
-4.034017255183808270e-01
-2.980194181897012351e-01
-1.831208320380471877e-01
-4.283713329997818064e-01
-5.373917622313141296e-01
-4.387096406337106513e-01
-1.760148015380058606e-01
-3.060117567058406318e-01
-4.646017128791782858e-01
-1.929296690855035468e-01
-1.276742151041818617e-02
-7.155939826445345542e-01
-6.892722107937024889e-01
-4.938969070780134252e-01
-2.366065609796474123e-01
-5.251522184195910048e-02
-8.188798657597735897e-02
-1.327938581050603639e-01
-2.586433378070445710e-01
-9.757722669881917499e-01
-8.058432140257834053e-01
-5.813963310663169404e-01
-3.381720453045462538e-01
-2.655929678719677889e-01
-6.983687747660913825e-01
-7.614428008304643392e-01
-6.396190203956050313e-01
-9.688759554786984252e-01
-8.455179692466914254e-01
-6.971929827510489064e-01
-6.535197500217314603e-01
-8.263032017487298431e-01
-1.214442149341067312e+00
-8.196438629238214091e-01
-3.398817366583375410e-01
-7.816019745732400992e-01
-6.868981391376048906e-01
-4.715574194564975397e-01
-3.475276256886907222e-01
-3.870393420704348886e-01
-4.081619196962871232e-01
9.101008932810489283e-02
2.431737088374019973e-01
-2.473438647941290647e-01
2.497361195752888577e-02
4.547004385606948085e-01
9.110607436824907923e-01
9.634110464099436832e-01
7.311361976756701742e-01
8.830104582764474186e-01
6.972968813718333214e-01
5.648545891532675833e-01
9.623449725562703838e-01
1.229217278889204845e+00
1.415518149693421490e+00
1.252874122775874177e+00
8.009495393861554291e-01
7.443091659640952429e-01
6.467459501579645442e-01
5.954304906616302295e-01
7.232270441946067052e-01
7.031546593007731438e-01
7.053051242843232371e-01
6.052985289172106986e-01
3.596700034810730306e-01
2.055890536333102869e-01
1.259863011876952710e-01
-4.943391063609381408e-01
-6.622107671876634738e-01
-6.928798425721500731e-01
-8.657755916888772996e-01
-1.020576854524376520e+00
-9.597635188303398346e-01
-8.553773706997263027e-01
-6.727118996413705698e-01
-5.922465890470084426e-01
-9.788005343507953926e-01
-1.006475202561192273e+00
-1.102215448519406449e+00
-1.191271661459714082e+00
-9.577532497997232053e-01
-6.613940541286463803e-01
-4.827336889422183530e-01
-7.346539554064048794e-01
-8.420944034062902706e-01
-6.113303616785046302e-01
-4.840323180535642256e-01
-4.460655645843986106e-01
-1.485871577582398850e-01
1.775041707486340048e-01
8.002153552177369844e-02
-2.281490781761292275e-01
1.397241646530761050e-01
4.634069622960032553e-01
6.315254633553977204e-01
8.776165768691988056e-01
1.023765437812150347e+00
1.031913788825552070e+00
7.223810878233575261e-01
3.371558954270431618e-01
9.007518625800061685e-01
1.077219880471625979e+00
1.101914787374604909e+00
1.285425351709108099e+00
1.166253337121924361e+00
8.783328633765525861e-01
5.789228530377104054e-01
3.249964901455495991e-01
6.102792572163783236e-01
6.933185186608726847e-01
8.225444070253451478e-01
7.962208096712070082e-01
4.108131410623452329e-01
9.282754623096250990e-02
-2.305260268596551892e-02
1.580153122440384750e-01
8.466440641367537628e-03
1.686854296168542322e-01
5.572454446347755441e-01
5.162464264488025867e-01
-3.402058240045959664e-02
-3.682906379177415812e-01
-2.538643553349906878e-01
-5.131692876556475519e-02
-2.966983241854719844e-01
-1.108653530695715150e-01
2.040707746253579702e-01
2.127991902439807792e-01
-2.198068836000134918e-01
-5.283529862881034544e-01
-4.202293971431826924e-01
5.054113301669408420e-01
9.954666492686319312e-01
8.142520942360067515e-01
-7.120648235090039704e-03
-7.660379275235520424e-01
-9.546017675865585694e-01
-7.451398489872655961e-01
-4.326960001264905653e-01
3.395046629013954709e-01
8.759227198251673396e-01
7.549565506666732206e-01
-2.571031069499501442e-01
-1.000445430885344100e+00
-9.283398353593025343e-01
-9.523296653914358201e-01
-8.130818104383170652e-01
-1.350644871678547132e-01
6.869007783016899127e-02
-1.396192022053886761e-01
-7.931642232167677165e-01
-8.798886059641274349e-01
-3.702070186949641406e-01
-5.564117745132429738e-01
-8.561308376509250140e-01
-4.358743098973017482e-01
-2.636067636782757351e-01
-3.748710315134045623e-01
-6.885287425839371478e-01
-3.100016800439274189e-01
4.761255715816256617e-01
2.468767520061863618e-01
-4.853823510681828379e-01
-2.340066366743451531e-01
3.552710205396896193e-01
1.702081905729196376e-01
-5.850812467676039796e-01
-4.040765496419844172e-01
7.724542346340753651e-01
1.077623008088860246e+00
2.324737984751410469e-01
8.153545243150563115e-02
1.177303929750426414e+00
7.920775845606846666e-01
-7.871864997718144297e-01
-1.118162735255231244e+00
1.950321089752708736e-01
1.205978619584407330e+00
7.635527667427802756e-01
-1.594777978641954419e-01
1.104014613219882479e+00
9.475271140419276872e-01
-7.298913989955797543e-01
-1.373229689667241571e+00
-3.455489353530817875e-01
8.954432765311000075e-01
8.084753085573310738e-01
-4.159854155142851950e-01
5.048674445725765958e-01
5.263839702599615311e-01
-5.310209990497287702e-01
-1.145607258881934820e+00
-5.534813166691550101e-01
5.060418382825594419e-01
6.134458866690783996e-01
-3.574437158991163321e-01
2.026977813107713189e-01
5.184513652293015751e-01
3.378750355430557711e-02
-3.493752079842440406e-01
1.135700004759627874e-01
4.756569835722668782e-01
1.064245115721652452e-01
-2.200609919830980310e-01
4.831667391928708422e-01
6.524726666346010173e-01
-3.803497975052649860e-02
-3.870632042031601494e-01
2.385497241603250496e-01
5.418966559643821901e-01
4.641400036652760380e-02
-1.007524098147785374e-01
2.944631860500568354e-01
-1.199242061088738598e-01
-9.647448471321745656e-01
-9.480838381661954584e-01
-1.719126614356701055e-01
1.362291180379449629e-01
-9.494361587766571298e-02
1.576135784507247395e-01
6.946464611855794613e-02
-8.545244158373309640e-01
-1.666594729626036386e+00
-1.322548175596597986e+00
-6.253325417070565440e-01
-5.222362651369680808e-01
-5.071792487511739278e-01
4.477480814737700432e-01
4.608283873419914967e-01
-4.635338539727339446e-01
-1.320925422879778433e+00
-1.116457343027495330e+00
-6.740386617082786413e-01
-7.815428155163560708e-01
-8.556555671200989366e-01
1.444840173333916677e-01
8.186534049765226140e-01
7.914101684875145537e-01
1.207603647408637126e-01
-2.543394805157531691e-01
-3.606826472332463895e-01
-5.761230629349729515e-01
-7.751333776927762376e-01
-5.558766490518650683e-01
3.215927258787601994e-01
1.407314060480117757e+00
1.585425882400012920e+00
8.857753509561372418e-01
1.984306396319973353e-01
-1.842892375453472342e-01
-6.079971723223110969e-01
-7.651052178737264287e-01
-2.734639909606327857e-01
7.937400270449301853e-01
1.474510311071062008e+00
1.068497290441433600e+00
3.729125733937770915e-01
-4.109921713830515244e-02
-5.155834676154810170e-01
7.626959345747084118e-01
3.444146194391356497e-01
-9.152567318528091744e-02
4.837514483839185087e-02
5.226234179086772930e-02
-5.172326806866275328e-01
-1.181473887565961611e+00
-9.997617259215836327e-01
8.913898912320330492e-01
-4.593434084318374216e-02
-6.370168944313481241e-01
-5.516616175137145639e-01
-6.586955325431903541e-01
-1.081574388141458565e+00
-1.380093261466400101e+00
-8.475753156302485714e-01
5.622181566226105431e-01
-5.918224341061373295e-01
-1.167006563516942652e+00
-8.613507272229707912e-01
-7.999063358391529377e-01
-9.598098333266630311e-01
-8.180277518284669869e-01
-2.229145531322575258e-01
-1.978106542493804909e-01
-1.057937505117620747e+00
-1.286898355877829969e+00
-6.213104975736988278e-01
-2.843414389615875892e-01
-3.120968232897182726e-01
-1.303084181448360135e-01
1.749577197689575481e-01
-8.094764153379616634e-01
-1.251138699558082212e+00
-1.120086759810364763e+00
-3.097562126489394885e-01
2.597620800304847877e-01
2.014672725547354271e-01
1.605143907400055636e-01
2.310548159807137847e-01
-7.491910872202004468e-01
-9.121350496819055076e-01
-6.084140230429442298e-01
-8.736419194110464637e-02
3.192983845023647516e-01
9.553000683729609421e-02
-2.611774227948735622e-02
1.555850324570805521e-01
-4.428416792788343881e-01
-2.294198507837541812e-01
1.003876711556107443e-01
1.584631736659514456e-01
2.135755758864217591e-01
-1.572780966647591705e-01
-3.767226820014886735e-01
-1.472058668081188959e-01
-1.301028162933543231e-01
2.538597687502917588e-01
3.873936226446840769e-01
2.312085947732908375e-01
3.230530410270961994e-01
-6.729890291825576382e-03
-5.884148173823785521e-01
-5.630717045625321937e-01
4.741319840902191163e-01
8.850627796613137477e-01
1.319483181409976391e-01
-5.215949275981572875e-01
-2.534057023730886815e-01
-2.571938607482215922e-02
-2.163403381401148573e-01
-1.244928167041877975e-01
8.324152892017361305e-01
1.061571413219171367e+00
1.208163596770191472e-01
-1.815635613791158898e-01
1.529342023157764796e-01
-6.372822910947900654e-02
-5.561779139678638684e-01
-4.763306291759750732e-01
1.162844641460473394e+00
1.000970376451076227e+00
-1.181958253235913942e-01
-1.671190563036226429e-01
1.434850592962704230e-01
-3.996185774063618634e-01
-1.008455284599449664e+00
-6.746231729382480280e-01
1.506572231515651339e+00
9.629903297054291933e-01
-3.772894338858400753e-01
-5.624055406972139348e-01
-4.408837294351438674e-01
-9.886875803330348322e-01
-1.338701344449716002e+00
-6.172187161434233849e-01
1.374791768005437120e+00
5.919845287076506146e-01
-6.171697290900380883e-01
-7.615807275238086760e-01
-7.610251250405104528e-01
-1.070414272478667606e+00
-9.967059447225339319e-01
-2.265288552244866249e-01
1.030401054039864706e+00
1.661568253799105832e-01
-7.651436494606914662e-01
-7.890160641817188791e-01
-7.634356562031959781e-01
-6.039661655863798329e-01
-5.594809236217064552e-02
2.981862046773225972e-01
8.292745385032916916e-01
1.659931978514304352e-01
-6.417312397964135551e-01
-7.149223168151918051e-01
-7.240895043636597084e-01
-4.077193720325112403e-01
3.779742462935899439e-01
4.629030144502451760e-01
5.854426403791103128e-01
2.236335195027161216e-01
-4.657828003471575218e-01
-5.422475348431400333e-01
-5.265782003232470920e-01
-4.285234483275232042e-01
-3.445536907086097639e-02
-7.888240645658156636e-02
1.108762734714537485e-01
2.247485776842717553e-01
6.269162465414516161e-01
1.468558021790090651e+00
1.680401934967148847e+00
1.035296773100509604e+00
5.491254796121306514e-01
3.490866702851040393e-01
1.869345809865324230e-03
-8.650443393542490977e-03
3.436960760877763588e-01
1.214956280336066285e+00
1.284840467182550183e+00
3.921552478981327750e-01
-3.287750998838432359e-01
-6.411905524211859442e-01
-3.468946192039138593e-02
-2.879090958601623895e-01
-4.433354988154304399e-01
-1.517195348523116272e-01
-1.938648453386415671e-01
-7.723247944926685538e-01
-1.164220957367475551e+00
-1.246962984635593408e+00
-1.902243742123288029e-03
-2.325210083879381828e-01
-5.294580498279297665e-01
-7.189504295317281635e-01
-8.578607411383910586e-01
-9.704851046540333703e-01
-9.232651211764123511e-01
-8.266710152063194705e-01
-1.931359782425649818e-01
-2.447602400147320389e-01
-2.059395516754942979e-01
-3.314335035926190831e-01
-5.033821681701310391e-01
-4.794102877239572735e-01
-4.374625209452557284e-01
-4.464161172113593756e-01
-3.433351103517209291e-01
-4.231238416162866889e-01
-2.256623015603875793e-01
-1.595044439110478440e-01
-2.694887432091680468e-01
-3.286081048914908376e-01
-6.150541348414348963e-01
-8.336513348700883563e-01
-2.597258942086710931e-01
-4.927830087468393905e-01
-3.307703200956938483e-01
-3.041248128693508357e-01
-4.707474433194284158e-01
-6.720612454783082557e-01
-1.087687987416995128e+00
-1.251982015299228035e+00
-2.051535938781199886e-01
-4.881745691596823811e-01
-3.049553960625668858e-01
-3.426162046443165243e-01
-6.377905430427407429e-01
-9.260752934955769344e-01
-1.101035129069861673e+00
-9.921598998004771408e-01
4.759176014015336631e-01
5.844252827007325735e-01
-1.389007565586619641e-01
-9.045199893812533309e-01
-1.021314281098717247e+00
-7.395801571652977913e-01
-7.038316368966948122e-01
-8.372101085724147351e-01
1.081493194692857429e+00
1.301519901076992669e+00
5.633484584145518337e-01
-5.685776826568237352e-01
-1.060325474665273049e+00
-9.387469590612881332e-01
-8.155540042086982799e-01
-7.737745309250393388e-01
1.302329982176286594e+00
1.526581881067553770e+00
9.465664904644160993e-01
2.012370750597606769e-02
-6.037355056049366064e-01
-7.163065298005035775e-01
-7.519700883008468839e-01
-7.186786875757137372e-01
6.070081534014386548e-01
9.177574148019919109e-01
8.069050277714776565e-01
6.721736211974002062e-01
5.027564985283926591e-01
2.389868878360735527e-01
-2.985285123741377999e-01
-6.634830359052433790e-01
-5.239712321474780943e-01
-3.631626716278138489e-01
-8.059535355295358028e-02
5.215355574835692787e-01
1.006118739220053682e+00
8.254678612062659182e-01
-1.087132707272446715e-02
-6.132442054387636787e-01
-6.714608669040940114e-01
-8.906601266548362927e-01
-7.536301557302858001e-01
-2.782421991533123862e-01
2.177134376632684776e-01
2.214785090742258933e-01
-4.339850479064822908e-01
-8.306918214638490117e-01
1.013844114947898695e-01
-1.876779755309470610e-01
-4.034317267784190975e-01
-3.718044151233586558e-01
-1.752686865720632925e-01
-1.209603588977888750e-01
-5.290099231497636945e-01
-7.986330937868192370e-01
3.108067016739335942e-01
3.630913393032646486e-01
-1.805781251659163422e-01
-4.483038239476689335e-01
-1.950504294789932314e-01
-6.767293109414020125e-02
-3.677538315617069897e-01
-5.053482131361811680e-01
1.683623301358277424e-01
-2.519721097221126471e-01
-6.404518093812724411e-01
-6.195913036749324254e-01
-1.814565970174344678e-01
4.951158787466729549e-01
7.450396980561416749e-01
2.976231692757828062e-01
1.514555799374874556e-01
-3.106658008545798988e-01
-8.113114433828469974e-01
-7.470131402703417134e-01
6.467109546625735526e-03
6.979804028388595372e-01
4.091908158958307840e-01
-7.674029668003286286e-02
-6.560342058938892218e-02
-4.449122973124684521e-01
-7.758961105667981917e-01
-4.854452641712756478e-01
5.281566484243811477e-01
9.057724730217797671e-01
1.958950964195588923e-02
-6.099794279905026428e-01
-2.677628076977008886e-01
-6.331143264074495791e-01
-9.702637526417182690e-01
-5.359684635247254914e-01
7.823627363141706370e-01
1.196716388770170614e+00
2.291691336142267499e-01
-6.044932766563828608e-01
-1.657190145468107889e-01
-7.765013261294994029e-01
-1.299709523287102320e+00
-8.657794922703295759e-01
5.918846893690679067e-01
1.311244172714375988e+00
6.871429344258235261e-01
-2.484428020879611843e-01
1.560531172496955332e-01
-5.095369245720264839e-01
-1.116921978437816376e+00
-9.756711720186609371e-01
3.644436489762590270e-01
1.389117064545471347e+00
1.142629498153971079e+00
1.512628192441894392e-01
8.318611616743525061e-02
-2.857266752420719591e-01
-6.570245153097650226e-01
-8.762532606050811301e-01
-1.683347990799500746e-02
1.112780748490310279e+00
1.335102967838631915e+00
4.788171538046713804e-01
-6.052075140349646998e-02
-2.320711526473745179e-01
-5.030077962084754661e-01
-7.800507803674795460e-01
-4.271060646970370467e-01
4.205838960906583268e-01
9.846255495440723315e-01
4.317814594474930212e-01
1.109913627886138565e+00
7.074555798914317073e-01
-2.525676162420870674e-01
-6.902104810345770503e-01
-4.939054929104312874e-01
-4.058817738387854313e-01
-3.439137409214079177e-01
-4.404034534049056787e-02
9.872609509910630354e-01
6.315101252435991741e-01
-4.638774218352880729e-01
-8.704750565450439792e-01
-5.368773844427556785e-01
-2.821888279096516072e-01
-1.544469713719037185e-01
-2.499054675275717494e-02
4.591622536583550018e-01
2.799275258805276057e-01
-4.508609787814477632e-01
-5.668927574539093239e-01
-1.370815171593245674e-01
8.534136412086555656e-02
1.376317052302978294e-01
2.516991367175325789e-01
-4.046712851896320899e-03
5.991245601423851597e-02
-7.625738472911362809e-02
-1.570464586946759555e-01
-1.358455997941919631e-02
9.411363756340009046e-02
1.660388317733590136e-01
4.240110192939062772e-01
-8.074441925873336590e-02
2.364623451188943848e-01
4.264776856810423289e-01
1.297980785679506421e-01
-1.217199249178849280e-01
-2.461489976476524955e-01
-2.848845092820556091e-01
9.408079629018463452e-02
-2.149295581218832185e-01
8.731819722354892954e-02
3.461868560416031526e-01
7.722874204471524839e-02
-2.809505858615482521e-01
-7.185114728494285119e-01
-1.051356934058566228e+00
-6.564326889551844735e-01
-8.105156468525096525e-01
-7.679767367399077393e-01
-4.272125395040509699e-01
-5.307156290861894110e-01
-8.606975810792999448e-01
-1.271143765382876989e+00
-1.449057468132064708e+00
-8.694218730719273092e-01
-1.161265856576946698e+00
-1.306452663755971466e+00
-1.005497277089565378e+00
-1.038411807633520256e+00
-1.245846538706455453e+00
-1.270134061645700418e+00
-1.039747352572192751e+00
-4.274056563926205143e-01
-3.934003938468820238e-01
-4.987196951367623421e-01
-4.043324206142526189e-01
-4.799726754106183740e-02
-4.327117397182642100e-02
-3.217406791228611951e-01
-4.594559791060919829e-01
-4.771275346965880848e-01
-2.412145730958380474e-01
-5.952640066706811339e-01
-5.054138254674570563e-01
-1.172976284640417644e-01
-5.172752235072339971e-02
-3.442086118911941717e-01
-2.478787894062516872e-01
-1.337900435946829114e-01
-2.574375330385942351e-01
-5.624508720254280947e-01
-3.178753944418272193e-01
-1.492040146997295202e-01
-2.575052366090452294e-01
-3.769855479878745363e-01
3.781296334001525011e-02
2.461534547509856563e-01
-2.374032599893486639e-01
-3.869430509086850822e-01
-1.222789852437592972e-01
2.001870893432301790e-02
-1.725520259770311204e-01
-2.929095455557534922e-01
8.448376593270655321e-02
2.231878679819373212e-01
2.390244919000287238e-01
2.633869840781358218e-01
2.161727738622162553e-01
1.705787491901902264e-01
-1.953446998723272765e-01
-5.918717519354447232e-01
-3.994664272403430361e-01
-1.627832166151207405e-01
1.027932462668783797e+00
1.169079130792717969e+00
7.724391585067369448e-01
1.586612654924187960e-01
-6.452216596853307395e-01
-1.187113185249790925e+00
-9.730569376333756404e-01
-5.474060562404302610e-01
1.676281147748600375e+00
1.827978102513333258e+00
1.093742751816561887e+00
9.483888803818531221e-02
-9.007552760862712615e-01
-1.402566558862243573e+00
-1.118374184858941467e+00
-6.436863740443885540e-01
1.308717562499194687e+00
1.603063122338482582e+00
8.289366086126731537e-01
-1.350642399256140325e-01
-8.209020262759759712e-01
-1.245175190818546218e+00
-9.671267214937675494e-01
-4.188478609397948138e-01
-3.924840607389912250e-01
-1.928894616597845169e-01
-4.272120251905614507e-02
-1.854148261565527200e-01
-5.767628428835601673e-01
-3.589003772019901395e-01
7.007980584080171216e-01
9.247931558678771369e-01
-3.854918651559249843e-01
-3.105187564414896850e-01
-2.019200375133739511e-01
-2.022908319503747554e-01
-6.969008576127618815e-01
-6.316289903753857793e-01
6.096757183246250822e-01
1.095024307919211903e+00
-2.584808734121663565e-01
-9.187466602803284754e-02
1.491573026879544073e-01
6.213843219700842385e-02
-7.228606396367392994e-01
-8.746732069129353748e-01
5.002355886868595780e-01
1.155117667913655888e+00
-2.582888159685072238e-01
-1.195036391869901821e-01
2.005105879088200371e-01
2.364913822474242616e-02
-7.891470816679825306e-01
-8.515600781835380717e-01
5.511991953472911154e-01
1.195472921469357352e+00
-3.777171990311619099e-01
-3.193225237939257277e-01
3.590614573192261322e-02
-9.223270029725376407e-02
-9.587371347687920764e-01
-9.602698675958682983e-01
5.725488947989234578e-01
1.246134391322714974e+00
-4.716262358705629598e-01
-4.135087131199571830e-01
-3.283460525688931125e-02
-8.399635291002674475e-02
-1.022652470144363557e+00
-1.142921161372961292e+00
6.506761834658832955e-01
1.375543013627833711e+00
-4.728126069700134826e-01
-3.833055596520785202e-01
-1.544366828022240012e-01
-2.819273833306674693e-01
-1.003235385966385618e+00
-1.037374803831504710e+00
7.539342177755545826e-01
1.378881799459985347e+00
-2.495955160828122188e-01
-2.485247246246157504e-01
-2.421044763348852435e-01
-4.963962700783235427e-01
-9.086248045508316107e-01
-7.045832479485144573e-01
6.348147761710026815e-01
1.080566482306669407e+00
-8.795093414393049258e-01
-8.254935967678900255e-01
-2.234992601319323313e-01
5.705025584214120510e-02
1.359496243563290130e-01
3.314984074405467052e-01
3.217699831793199849e-01
2.180653887053767837e-01
-9.256388037186149553e-01
-6.766505628995743704e-01
-6.684772422990832748e-03
4.632438503426584142e-01
6.570318681640769931e-01
8.922687734493233158e-01
7.934763601851840820e-01
4.080910588982130105e-01
-3.228591796844800799e-01
1.589577739978319804e-01
4.952565127524735100e-01
6.462850089305187673e-01
8.920589918415858799e-01
1.160201222888045614e+00
8.985650319622575655e-01
1.808658069241452226e-01
1.492832123381291343e-01
8.360148360357878561e-01
9.193218561089068208e-01
4.797186458568813983e-01
2.274621555033044251e-01
1.011932723985757288e-01
-1.414002789358373424e-01
-3.540124740367904255e-01
2.987264875353825011e-01
1.034544854511116663e+00
9.420977328114324978e-01
1.160358921030371082e-01
-6.471362526874034904e-01
-1.115202548038719987e+00
-1.233059123734466800e+00
-8.895342533893225712e-01
2.721784953060549239e-01
7.582298965740693619e-01
4.464242908265133036e-01
-5.735685989894109271e-01
-1.299829590392424183e+00
-1.223781445838084680e+00
-9.834091555512249894e-01
-7.284996723032236554e-01
-2.728490881782652533e-02
-1.368016011252271569e-01
-5.859341991146164164e-01
-1.198565084142526160e+00
-1.214663761114328278e+00
-3.822987359836473864e-01
-2.039018353558371202e-02
-2.795548241239039222e-01
-5.027558479673337466e-01
-8.333006342088754570e-01
-1.086340868196179255e+00
-1.035176159196713908e+00
-5.600588262756379665e-01
1.356547406513419207e-01
1.742031161253191351e-01
-2.126302506692494820e-01
-2.538590120964995811e-01
-3.889656930643928812e-01
-1.280944478925052366e-01
2.026709129881309468e-01
2.259292341161118212e-01
3.061608630907385331e-01
3.325372262938189882e-01
3.511290226382669521e-01
-2.722614570916737642e-01
-1.712465567392477128e-01
3.298466246050869577e-01
5.728854936294168754e-01
1.789254607505212369e-01
1.308424529198992659e-01
5.289786781306150543e-01
5.182658680221137182e-01
-5.687341982422052800e-01
-9.122542299605632121e-02
7.433043213784783498e-01
1.083218030442812729e+00
6.567573368821533197e-01
3.784129552727009682e-01
5.595999591006088902e-01
3.922011941791428424e-01
-6.442861610027517116e-01
-3.158271972327468813e-01
5.914968229587647119e-01
1.076688622842336018e+00
9.740931692863741276e-01
8.753476429967405048e-01
7.576241062766757572e-01
5.142065690872196226e-01
-7.305121173396627032e-01
-9.704578260096848874e-01
-3.025747770585004992e-01
3.525713015590768440e-01
5.176903109113206725e-01
7.135540712647591155e-01
7.896643505547530362e-01
7.575198812415082639e-01
-9.018087136668836434e-01
-1.435810849471573114e+00
-1.122621091765359846e+00
-4.953222156857031155e-01
-3.612240201761379721e-01
-1.408170409836380366e-01
1.630641637888781137e-01
2.511411158355317252e-01
-7.973780632050936346e-01
-1.342402593401986310e+00
-1.255324804934633720e+00
-8.246238810348360815e-01
-7.222762518106599083e-01
-5.598903679009521461e-01
-4.751495113459715536e-01
-6.349284434255482168e-01
-7.012930391703275923e-01
-1.048788070125930005e+00
-9.293103079683410206e-01
-6.899527079202013580e-01
-5.862150346984651428e-01
-4.577889134745203870e-01
-6.579728989778671489e-01
-9.675421653836503433e-01
-6.012250030170128712e-01
-3.523615446128880446e-01
4.777494657679771106e-01
9.280720641614115252e-01
2.228747496066413591e-01
-7.017859186979750197e-01
-8.626642434977155327e-01
-5.428079525677641515e-01
-7.399103560715348804e-01
-4.850729839381419106e-01
6.255814836016081459e-01
1.386771792905353573e+00
6.136242473353821225e-01
-6.945116317995337907e-01
-1.332542355681103352e+00
-9.889211277726609461e-01
-8.606983160232977159e-01
-7.217233199344867955e-01
2.757815933836937905e-01
1.192865800207692617e+00
7.330959419603546579e-01
-4.711790495758902408e-01
-1.355303675919727890e+00
-1.170165205764705618e+00
-7.892677662900760005e-01
-6.924372546221506663e-01
1.303958630447762390e-01
1.167519771450384658e+00
1.167035365695750171e+00
1.169724077698022224e-01
-9.964252802192675729e-01
-1.089342939165970581e+00
-3.880942040644910773e-01
-4.236602324011340404e-01
2.504617409571174153e-02
1.004686306274511720e+00
1.368428988720969297e+00
6.482756130033014985e-01
-2.999391344556275318e-01
-6.004937229531546183e-01
2.235077500850592494e-02
-9.135834412282441142e-02
-2.682592825307273388e-01
1.357306755418482280e-01
7.295651732759124153e-01
7.361048280275669375e-01
3.106639404391317583e-01
-2.687470258723921937e-02
2.085848727593450913e-01
2.997346189815747741e-01
-7.820177397793688645e-02
-3.847100685590746361e-01
4.485352248334928404e-02
5.074181802896535753e-01
2.730542860551603557e-01
-7.311553353317619408e-02
4.619310803904630447e-02
3.189881266514610347e-01
1.309361886767939631e-01
-3.910438957265306992e-01
-3.676657199141527554e-01
-1.865607028504876006e-03
-1.152199226898807383e-01
-2.925346453606182950e-01
8.970399262220718484e-01
-8.664632548156036007e-01
1.936760800908653157e-01
-3.280662980046359367e-01
-4.510729892036546285e-01
1.476290710323544808e-01
6.714471438388127655e-01
-1.112165299968485899e+00
-1.144375662793041398e-01
-3.943495804799938553e-01
-2.116284140554000048e-01
-3.935468996829776800e-01
8.625973835087348274e-01
2.497307581681907848e-02
9.732978702481495104e-01
6.617089218084805102e-01
5.603535788454322430e-02
5.030727546420545870e-01
2.843020971865767854e-01
1.232425825343599346e+00
-4.728199718918239536e-01
-1.325132797161004405e-01
-7.463777566622061821e-01
-9.523946557859463979e-02
-5.998228067721665946e-01
1.088218868564763797e+00
-6.980665442837741264e-01
7.044723132804691090e-01
-3.071960945925547581e-01
-7.491555092190087528e-01
3.163567708595511618e-01
3.003630238870903715e-03
-1.609477911044059129e+00
3.332476331115367119e-01
-5.498640813274600081e-01
-3.370351593864742146e-01
-7.103236373582207941e-01
1.491931884435513167e+00
4.733715854135912005e-01
4.670590755185077825e-01
1.178809632965953202e+00
1.373212852466290379e-01
8.321603379302724424e-01
-9.836515155109254449e-02
8.844353102032531666e-01
-6.104224725443306854e-01
-2.668301384364494266e-01
-7.197374953855220081e-01
-6.062196731780573195e-02
-5.011267468222759813e-01
8.009334506899127293e-01
-4.056751522879804561e-01
6.184827675067454678e-01
-3.664658679804925212e-01
-5.935658156375739347e-01
7.125531096955755039e-01
-4.321295987397456018e-01
-1.628984330524298585e+00
8.026248314206543277e-01
-8.053629177351413482e-01
-4.145754667684132255e-01
-5.785203883327736385e-01
1.024873151144141348e+00
7.729312369442398190e-01
-4.290770338983435073e-02
9.256776748841437363e-02
8.331441213736487938e-01
2.524341167011524001e-01
-6.554185983754421407e-01
-3.352885626660369600e-01
-5.242401996705587930e-01
-1.914876173493366418e-01
-5.283405852878676062e-02
2.033489157676075521e-01
5.781881858899303728e-01
1.305323280513728534e-01
-7.250752924685797129e-01
4.345059243627726053e-02
-3.737000091512944211e-01
-4.423855507823509225e-01
8.531707039595463060e-01
-1.826316898583049408e-01
-1.375938692380398454e+00
3.449684536240786303e-01
-7.822677010257497177e-01
-1.791275133338834924e-01
-6.988022069356993882e-01
8.549635183380986658e-02
2.013527669158439171e-01
1.732203284936201793e-01
-4.747803425074239581e-01
1.830097225029924779e+00
-9.598106201617876421e-01
-5.580725610819226024e-01
-8.414800509781072968e-01
1.227233567161743581e-02
-2.323357716903511616e-01
2.443125841246446550e-01
3.861477663293804707e-01
1.370259485499978114e+00
3.130477457656736795e-01
-1.066473580557979473e+00
-3.059901859845420846e-01
-3.999886886186036494e-01
-4.279558578076830266e-01
7.991902391350923507e-01
-1.857952163936216206e-01
-9.574860066147664606e-01
-7.389086149858656860e-01
2.775838951162340473e-01
-1.659294950389661183e-01
-9.437731510411271341e-01
-6.519534045051889048e-01
-1.518559592059026131e-01
-7.802435952223782389e-02
1.562534804954616441e-01
2.003294802651013562e+00
-9.880883476478151684e-01
1.473268733459112689e-01
-6.520630586848671362e-01
2.326513928233363837e-01
-6.516495035322650287e-01
3.358675357376206261e-01
2.944583839060539998e-01
6.306098486136175740e-01
6.895540837984087679e-01
-1.933403463689265522e-01
-3.210521357920286811e-01
-6.574417700307425561e-01
-5.492137991316234924e-01
7.451573872287291511e-01
-4.662021626932307261e-01
-8.619824732932004352e-01
-9.716729910170675000e-01
6.231539760526494387e-01
-2.551673837520749277e-01
-1.010100019710205022e+00
-8.533189669417922119e-01
3.481999097884276861e-01
-6.938241662384365682e-01
1.353464395887104821e-01
1.253858766142186720e+00
-4.605140898034709163e-01
8.667502921325662690e-01
-6.867764045615037949e-01
-1.577943126247681183e-01
-3.278004299366063523e-01
5.955780245256316885e-01
3.037681839573879716e-01
-5.715667000836479605e-01
3.953149766218461147e-01
7.134734525419632600e-01
-2.531042657642041394e-01
-7.873664542716601877e-01
-4.671590894343876088e-01
5.564673327033493599e-01
-5.880066540683003273e-01
-9.626060202754535000e-01
-3.833437792736101302e-01
-2.123840121776321421e-01
-2.937304766639757536e-02
-8.286959041417975014e-01
-7.231198505333724658e-01
6.350576331402211228e-01
-1.308391733486985231e+00
-1.590712198896835905e-01
7.232545123197606785e-01
-5.452403880047547169e-01
9.938139532964843648e-01
-5.127699677780318543e-01
-5.627304736071424562e-01
8.113284826677917838e-01
4.866356661765447456e-01
5.897471274167901401e-01
-8.888994163268530979e-01
1.789782304134332203e-01
3.069826394089104626e-01
-4.506970984104893135e-02
-4.861717630678724644e-01
-5.323392221514778450e-02
3.157832524848741551e-01
-4.750686013617183567e-01
-7.839841117093460099e-01
-2.532325582848674039e-02
-6.378299072948779846e-01
1.566475425406184951e-01
-6.254102956191460727e-01
-3.902364994906823426e-01
2.416735920211221522e-01
-1.120178997337791138e+00
-2.106100626057437197e-01
3.615872934060556654e-01
-6.067302940824220725e-01
4.321340101083261387e-01
-4.644258346580705521e-02
-5.437213809761615169e-01
1.180916195695802973e+00
2.413908096464398023e-01
7.853274946126304057e-01
-5.817772086742031279e-01
5.095208325745901323e-01
-1.117747329493119723e+00
1.454842700329745664e-01
4.051282608976224386e-01
-8.395737381003702815e-01
-1.702480866151848474e-02
7.761049656416663112e-01
-1.146947595180746848e+00
-2.235216419515053399e-01
-5.326234247545482692e-01
-5.074421754517591809e-01
-6.627134355385867481e-01
4.407085337163892391e-01
3.382034940969994574e-01
9.472967350533657571e-01
1.099755909025350809e+00
-5.853001542745325803e-02
1.294515462730395861e+00
2.128252162821393789e-01
1.044823438833778706e+00
-4.313079989553096905e-01
-2.757283489845533397e-01
-7.314830244943646420e-01
-2.338351500314190812e-01
-7.481983363079542926e-01
6.209659060360436245e-01
-9.160678774757748943e-01
1.206911255740354960e+00
7.132514039562638519e-01
-1.236462705809112217e+00
5.631727187290661019e-02
-1.749315810461892773e-01
-1.736325996019103979e+00
5.571776238782030211e-01
-7.005816504366073616e-01
-6.105721680082095704e-01
-9.918490884355369852e-01
1.138445692665019937e+00
8.381855337793966410e-01
-7.578988997771916869e-02
1.359727545897310597e+00
-9.162230598802972859e-02
1.616439309097696286e+00
-2.605893964207751656e-01
6.190463156655329202e-01
-6.515268637406409491e-01
-3.552071612305183756e-01
-6.903871659444869024e-01
-1.216544043610288117e-01
-6.652589189506979972e-01
3.084108129347251093e-01
-6.394405154746449771e-01
1.372211910150870962e+00
4.584550295252335927e-01
-1.042058402166384123e+00
3.344138165867890367e-01
-7.708885917807054566e-01
-1.613437241488841378e+00
1.357014500551640301e+00
-1.049147915295191025e+00
-5.248469664958111958e-01
-1.028745675395019266e+00
8.500360773387156677e-01
8.205371911759375969e-01
-7.434438230311767315e-01
5.999154350546381104e-02
4.617302655724536686e-01
7.645888191881470286e-01
-8.120202587764090429e-01
-7.212579732979220726e-01
-5.921017023368440046e-01
-1.302343511861519532e-01
9.245322718816162411e-02
5.923558863763969118e-01
5.300119579467992281e-01
-4.468272588206790435e-02
-1.088914252389753923e+00
8.151293544211526410e-01
1.893406003332453180e-01
-7.688231613003927434e-01
3.092384481440956234e-01
-4.527538366252631397e-01
-1.200233372488828998e+00
7.956635621545159465e-01
-5.911011797911027710e-01
-1.589406512061425636e-01
-1.242325009638000521e+00
-3.617023735584163902e-01
-2.797236403804572065e-03
-5.433683426752867751e-01
-3.393916317079747613e-01
1.388776765267890179e+00
-8.318580204990638771e-01
-7.143635652309060502e-01
-1.049348268855167632e+00
-7.475213273452380180e-02
-1.651421969008613211e-01
6.510100593929741830e-01
8.444683670049012436e-01
1.666526698063310441e+00
4.927619068874760089e-01
-1.383978459897972080e+00
5.266363039262009771e-01
-1.475384552049588127e-01
-7.766328110988309774e-01
2.166572948059599935e-01
-4.201679344148641082e-01
-7.225046658105802599e-01
-5.213219473198918985e-01
1.146607644722270614e+00
-6.243255049888114111e-02
-1.395990941002136054e+00
-1.168638385560790027e+00
-3.612183501361055926e-01
-7.953390747269560856e-01
3.834985574961867760e-01
1.519592753421792120e+00
-1.221604826031794877e+00
2.956477827184674778e-01
-4.913964688209284670e-01
-7.019415889369715056e-02
-8.723787160901059767e-01
8.771025376439306465e-01
4.196452775237298205e-01
8.610676756557174016e-01
1.333053897271863519e+00
-3.294389218546447395e-01
2.835394963585580741e-01
-5.158776758942000829e-01
-9.315255372701757297e-01
3.914202275777702300e-01
-6.932820605419529603e-01
-6.097516560379262485e-01
-1.089330238772193482e+00
1.564122502032101902e+00
-2.287279968404863639e-01
-1.160133853020226757e+00
-1.015681237391022451e+00
2.147153597569315120e-01
-1.266328564748448127e+00
7.952271508770278330e-02
4.850200439736213065e-01
-7.540126034605943994e-01
1.059198988458656343e+00
-2.257290933796900212e-01
-4.783502230956299117e-01
-6.911778427830010951e-01
1.123620056350409957e+00
2.628201562881209985e-01
-8.339905782459203776e-01
1.437157953465949101e+00
7.191848840584279534e-01
5.962212666923304843e-02
-4.752206511570888359e-01
-7.252793941151548518e-01
2.282540160389037731e-01
-7.494979897991563833e-01
-7.419907923257574867e-01
-5.593615729052077157e-01
2.706117243246586868e-01
-1.845829863973023344e-01
-7.281351976016462446e-01
-9.359664032290754276e-01
5.452109160811938748e-01
-1.496333919760316933e+00
-5.220268663396341324e-01
-4.300200454187352861e-01
-5.926230542668361467e-01
6.758481948618779711e-01
-9.635722297156935900e-02
-3.562071949295240181e-01
7.363654019221851366e-01
9.430563269787298752e-01
6.396115097314698517e-01
-1.412544552761797911e+00
9.705584596867281588e-01
3.832832825830232437e-01
-2.460744070577427361e-02
-4.192155160668871727e-01
-1.025274228164313461e-01
-5.390079653901889978e-02
-4.587587258864523343e-01
-5.620115799564033843e-01
-7.059604341748169920e-02
-5.695790696974817324e-01
-1.232217270574610113e-01
-4.104004682103409851e-01
-7.242765364199290623e-01
8.621627971741156748e-02
-8.978597296721905208e-01
-5.375139096139327499e-01
-6.514677876909319432e-01
-5.551584129576629945e-01
1.095604966374315037e-01
9.485999393131093471e-02
3.778829112847297694e-02
1.348345155050826083e+00
5.203513409859329419e-01
7.425470962809804787e-01
-8.793939789187421585e-01
-3.354683274558928341e-01
-7.859583084639935047e-01
-2.065620889617212630e-01
8.960604339607515234e-01
-1.084338110227313523e+00
-4.105438582036432527e-01
5.904791759213965374e-01
-3.443816955702523330e-01
-2.241050799796588111e-01
-4.033032542240251317e-01
-7.691785529352581641e-01
-7.750909118322694136e-01
-2.548827017235054671e-01
1.547087642786982020e-01
4.995610773645479119e-01
1.551874779652863356e+00
4.035399628920523576e-03
1.651535266306608962e+00
6.903605221328504293e-02
5.358078678165886233e-01
-4.036385553268656001e-01
-2.410107031419382317e-01
-1.634606347967391127e-01
-5.116925728863422895e-01
-8.620591534695272173e-01
-4.444909940794303793e-01
-6.896123260788985521e-01
9.277841280091586595e-01
1.065427844906249977e+00
-1.390224172438929706e+00
-2.594974444532435753e-01
-3.887970216557566916e-01
-6.133432709303301422e-01
8.522467961415636228e-01
-8.339785331859704831e-01
-8.881354353051434947e-01
-8.617111808205046852e-01
1.669412755042227470e-01
4.868490161088681600e-01
-7.582011663201697615e-01
1.336385365251330448e+00
-3.742016194541908924e-01
2.012851033561265712e+00
-3.509014592808745170e-01
2.079149980467445424e-01
-4.979649355064326710e-01
-1.182323273339001279e-01
1.651309375515488953e-01
-2.829175171850261128e-01
-8.586038297281854970e-01
-8.475855570117617477e-01
-6.834705951608985863e-01
1.600669800398283771e+00
5.231789917338817153e-01
-1.114077958451736627e+00
-5.885845975309598327e-02
-9.709789861556256119e-01
-3.450248114896690699e-01
1.946740243618858335e+00
-1.035534433800814780e+00
-5.932634313651340419e-01
-5.874224401750187674e-01
-1.590182141713086805e-02
-1.692922744629780582e-02
-1.393244957817504570e+00
-8.181335397756211991e-02
-4.797926713242377517e-01
1.310282304149107402e+00
-7.606995172752096801e-01
-6.193526457295067678e-01
-2.763676598016368002e-01
1.988045917676361796e-01
7.371200714484185124e-01
7.921614699430221673e-01
3.165678235182252109e-01
-8.741324587788217304e-01
-1.335859143966176221e+00
1.341239998848416937e+00
5.971285997245342342e-02
-8.051320880686845260e-01
-2.951900594726715177e-01
-5.753597549803359801e-01
1.356813184444577713e-01
1.312806293243447220e+00
-1.454355025682980418e-01
-2.783609042517361520e-01
-3.800655879185191877e-01
-9.235677059958712354e-01
-9.484047184948822817e-01
-1.032474746243299712e+00
-2.910443920939629336e-01
-2.013292474276480171e-01
3.358058202909011691e-02
-5.443471177590292198e-01
-6.883280749615122707e-01
6.850596732001187905e-02
1.288713373131394058e-01
1.113534017399885778e+00
1.339678784219207719e+00
1.599299424741802422e+00
1.275359448533360252e-01
-1.393004756390044729e+00
1.136520245462863787e+00
-3.426903828397305785e-01
-8.453237659822778749e-01
-6.144797481802951600e-01
-4.194624899212239244e-01
4.527719650400303109e-01
-1.845162456871683176e-01
1.584795196210048163e+00
-4.369262564019144035e-01
-3.137386604803195644e-01
-1.147085906820071610e+00
-8.938627225671469390e-01
-9.517638991031517337e-01
2.726349255333416211e-01
-1.443054893602654654e-01
-6.383058884889626361e-01
6.489128908131361895e-01
-1.020438397775738082e-01
-2.109446905979202314e-01
-8.564357894099788870e-01
1.220785581206463410e+00
8.316898540149557650e-01
1.113715933727493113e+00
1.338173028510390772e+00
-1.536478561348209315e-01
8.505945897106957920e-01
-1.536776592004660824e-01
-9.837775254499262489e-01
-4.291115921347972151e-01
-6.475714801848138080e-01
9.858253946840997428e-02
-9.325750057122429437e-01
1.636677697339066206e+00
-7.966289990315834624e-01
-5.326199944299738614e-02
-4.690239471839957597e-01
-6.915999128723651634e-02
-1.104118079478339842e+00
-3.779269757433441068e-01
-8.978796464868895599e-01
-7.095707155816369793e-01
1.272065405544198669e+00
2.589960642987458247e-02
-5.047301831416974860e-01
-1.089856513832391904e+00
1.204271683530950154e+00
4.786857320824122186e-01
-6.234139907807230152e-01
1.810832496413212978e+00
5.885485494418458696e-01
5.305697548479155756e-01
4.119863513431447632e-01
-8.288935565363156899e-01
-4.181743736083639029e-01
-6.732049884065383072e-01
-3.765370704179018535e-01
-6.078813489859588026e-01
4.581532239481819202e-01
-7.888558626323642908e-01
3.358492842154842117e-01
-4.513544484681104585e-01
2.064051254621337983e-01
-9.337791363214980045e-01
-1.095714289446452883e+00
-1.458584927820812727e+00
-6.899304486297687111e-01
2.436532964827989867e-01
6.076099546623505571e-02
4.331723565387694125e-02
5.370367073152587656e-01
8.510449443322800622e-01
8.103894410851519847e-01
-1.533736691640764427e+00
1.182757393874462881e+00
3.868266444418911459e-02
3.255722729570515450e-01
2.445181052377923547e-01
-2.548267092500375308e-01
-6.626504098389756070e-01
-3.176228924674835419e-01
-2.340104663568805810e-01
-1.624595458854450614e-01
-2.005574436639264158e-01
-6.396597906463009631e-01
4.562428141426365658e-01
-5.044370236998725332e-01
-1.042086747648898748e-01
-2.547612439426537589e-01
-7.441670325148702636e-01
-1.325143690581772393e+00
-5.225707440660294356e-01
-5.099618976930611058e-01
1.953475629631930000e-01
6.230416173252221190e-01
1.446960731010181522e+00
3.229550012663034986e-01
7.103569014541264437e-01
-9.355688570124485182e-01
-3.349172557262085625e-01
2.015384475630296324e-01
-9.093969311314809012e-01
9.827014799954095770e-01
-1.030524289220185796e+00
-8.618459932364599396e-01
9.583408936887563567e-02
4.291818387078164543e-01
-2.583947502094540716e-01
-4.935654893477864347e-01
-9.528033689799038086e-01
-1.531606609227065541e-01
-3.488711932738505217e-01
7.927677625843659870e-02
-2.429063411190109656e-01
1.918551092446823425e+00
6.322021659424820195e-02
8.715613980321369469e-01
-2.066129935102835880e-01
-3.554858973868883082e-02
-2.375421739307020108e-01
-2.264796800739730387e-01
3.537470186205998735e-01
-5.831564835645947076e-01
-6.962700074570671305e-01
-7.784201744362628794e-01
2.303371038943989313e-01
-2.760067718727455266e-01
7.779623905482151436e-01
-1.260590483806791395e+00
-5.903319837276074233e-01
-6.568519233713701055e-01
4.311046057989494362e-01
8.399219703438673967e-01
-1.011405552693239285e+00
-1.241198216053714498e+00
2.813807130452176675e-01
-1.175873430417490317e-01
2.532300787362069122e-03
-1.294945606256089787e+00
1.317309658987933174e+00
-4.084050240933843057e-01
1.268139954841512207e+00
-5.977388970306959370e-01
2.855802126975117566e-02
-2.618065731336241542e-01
-4.927049425554883705e-02
9.326300389332410345e-01
-4.715465555852419444e-01
-8.753762976285163200e-01
-1.460667092533375344e+00
-2.824917105031660713e-01
4.344692893584871096e-01
-4.937048416040633325e-02
-8.776477167974817695e-01
-2.668830799388989816e-01
-9.185699880099360559e-01
4.717241409560304355e-01
2.091242494344657477e+00
-8.358900970641101047e-01
-8.387450848763391420e-01
7.175922243575461046e-01
-2.075413985786252746e-01
-9.052306206183652337e-01
-1.568217547194680650e+00
-2.801799392902831198e-01
-6.824021288627606374e-01
1.281543533886963404e+00
-9.633962976084954333e-01
-1.863208493605107430e-01
5.849169050213554738e-02
1.424529074373649951e-01
1.130778975605599035e+00
4.908614588113534571e-01
2.352865313055806928e-01
-1.423274944300197742e+00
-1.239525536116892646e+00
4.980873123790300894e-01
-7.755308868733773453e-01
-4.917951180716425008e-01
-5.502739859000584932e-01
-4.979415171244497285e-01
6.888832620716418553e-01
1.479492145510106438e+00
2.545986465044907110e-01
-6.737982789528517147e-01
9.791221886051201251e-01
-7.586745623529509430e-01
-1.769098650847901633e+00
-8.692784892291772758e-01
-6.367080402138529660e-01
-7.755933878450458341e-01
1.004433095843788815e+00
-6.312929793185226846e-01
-1.794328952753025119e-01
2.998931737129687525e-01
-1.446227947928348939e-02
8.342609166186352176e-01
1.308107814269427127e+00
1.567582674921236263e+00
-4.496228045802014295e-01
-1.115362835604723379e+00
5.373863376447496343e-01
-9.887018215823458744e-01
-5.294365129415499194e-01
-9.739594225341683398e-01
-3.392899975249832334e-01
6.264165661848323241e-01
-1.881156404064562304e-01
1.352559052086055091e+00
-1.053208022483264505e+00
1.178921863174271945e+00
-5.452804754138024235e-01
-1.383705983341821266e+00
-5.088978704467844727e-01
-2.655682283904575725e-01
-8.961751967075114456e-01
6.832053855862719738e-01
7.519848688712620355e-01
7.423591850274927073e-02
-7.016911182139089209e-02
-8.817567521245937012e-01
4.054850341703480354e-01
1.176300756515402890e+00
1.568884497573952874e+00
5.186809811162574890e-01
2.464555360021755959e-01
5.962908946939106114e-01
-8.860121775778080633e-02
-6.798375591611165447e-01
-1.020744580269764556e+00
-5.439347000549954458e-01
-1.706984285703005699e-01
-1.046668696995646464e+00
1.015589112686924311e+00
-1.311394243086015265e+00
1.372469216277409920e+00
4.412518211205429530e-01
-5.858955690169754815e-01
-5.037053856200817137e-01
-8.463584605218292811e-01
-1.209959876494989039e+00
3.605179483618448089e-01
1.571292495369548847e+00
3.906751187272339276e-02
-3.569388376014419606e-01
-1.166951526856908394e+00
9.273146515753018237e-02
9.465068462409578220e-01
1.429199094660125145e-02
1.106973751031923303e+00
3.636096002495536883e-01
6.568590869799956211e-01
8.145458726528120863e-01
-7.554151980382590725e-01
-1.135710533604318284e+00
-5.616467693659717986e-01
-6.167875580459899476e-01
-7.831779316930653767e-01
1.598566375646301163e-01
-8.819432624981162760e-01
1.400370090220291797e+00
3.779433692570859371e-01
-4.943974035704684078e-01
-2.423260161430338400e-01
-1.366928677087832167e+00
-1.155302068880324162e+00
-2.005228615677016046e-01
3.444351054406008528e-01
1.390753631477869567e-01
1.407846273380921887e-01
5.959476347254103468e-01
-2.158483296242188210e-01
1.095894948796984458e+00
-1.178932197701226814e+00
8.713769275700438133e-01
-4.745275804187195634e-01
4.997679399799920263e-01
6.278244284092057148e-01
-4.473118501324122587e-01
-1.290287117545652507e+00
-2.322915716058320257e-01
-2.663756001719223554e-01
-2.838862979642193252e-01
-8.440483836851896127e-02
-4.123037652180138180e-01
1.110839662254043736e+00
3.132156903468023574e-03
-5.349864380024276223e-01
2.040986433485499629e-01
-6.918412127190726180e-01
-7.643346683237740580e-01
-4.744323271524331642e-01
-7.034936769678822310e-01
3.552751650797716931e-01
6.544296539640940269e-01
1.706569207342069516e+00
-3.424263607233677953e-01
9.031337084543714644e-01
-8.866867393182271684e-01
3.639167294321806190e-01
7.376805075941230694e-01
-1.071902811094506580e+00
2.488642326484017675e-01
-6.326228899165703412e-01
-1.025569567874721644e+00
-2.831295500142878563e-01
8.512618231891719844e-01
-2.295288284562645442e-01
-1.038650284521475786e+00
-9.599835466524199168e-01
6.655960531738034369e-01
1.542848178482946787e-02
5.709526940890272684e-01
-1.032062266253711558e+00
1.651930342717868427e+00
-1.900660814930882625e-01
-3.894309679274154945e-01
-1.558380716154976753e-01
-1.682309636602402347e-01
4.352821177406454023e-01
-3.507533368898839155e-01
6.811728371018013206e-01
-6.687635070073508770e-01
-1.587951461778828177e-01
-5.503868777803350154e-01
7.308749710416175827e-01
-1.321457910979008554e+00
5.223381572442195586e-02
-6.979811456441800122e-01
-1.036540422028179087e+00
-8.115247102199980578e-01
5.515945654842782098e-01
3.928018363103182309e-01
-1.151355500401056053e+00
-1.038715103304735932e+00
1.256849324561033932e+00
5.430811464627183227e-01
5.765796240399471140e-01
-1.643191581913648891e+00
9.285811935537857664e-01
-3.679902625193084420e-01
-2.923708854072557539e-01
-7.296628770769263417e-01
1.836300883837514719e-01
2.729098320112366971e-01
-1.348048628792809234e-01
1.446362152236547072e+00
-8.179209124916944074e-01
-5.072659003643517073e-01
-1.363843510275774884e+00
-1.242095529967218032e-01
-1.065982507872677010e+00
-5.657472497347008078e-01
-3.945434339703954851e-01
-7.706683868927372005e-01
-8.021566698350621749e-01
1.819734150381109930e-02
1.679443491914839770e+00
-4.422110522969823210e-01
-4.212059939487665661e-01
1.427892846665018700e+00
4.401377197467689628e-01
-4.350431729382874813e-01
-1.351082609815722035e+00
-5.763105106352794937e-01
-3.558625276359609346e-01
1.543299905248984860e-01
-1.267960789779015496e+00
3.539382812942196144e-01
3.100607760989012585e-01
-3.941790957126617249e-03
1.371082306194635780e+00
-2.841206240958512597e-01
9.090080718278274047e-03
-1.013399644144205247e+00
-9.845976274217557167e-01
-9.174140022752002022e-01
-1.213666387394131130e+00
-2.424753155498315660e-01
-8.968224735336132181e-01
-4.029738389795172182e-01
-1.074341540314808913e-01
1.452191532688208664e+00
6.557733197983105500e-01
-1.323835580052981353e-01
1.462722940482441336e+00
-4.653713493445147398e-01
-1.403211797678696415e+00
-3.231100580209502193e-01
-9.661149507815605109e-01
-4.379348126336662372e-01
7.863766160050551512e-01
-9.183758356881189799e-01
2.344345884809352631e-01
3.700415080260926470e-01
-1.871572900510601323e-01
2.044675903179030696e-01
5.267021117215973103e-01
1.334020224435908286e+00
-2.141226606713772795e-01
-5.780441949598742468e-01
-8.633891811179186249e-01
-8.455468896899617226e-01
-4.344002953837546865e-01
-1.134499672618333399e+00
-2.496020604746743421e-01
-2.626278655196999101e-01
-1.308224613746970799e-01
1.059529810843693687e+00
-3.491575332876061810e-01
1.581525593210126424e+00
-4.057053746236945480e-01
-1.224503333843472985e+00
1.607212337078973707e-01
-6.897288918867963137e-01
-5.464262822989188750e-01
1.050638912719655593e+00
6.206841333494326207e-01
3.437691640757378070e-02
-2.010426717446461009e-01
-9.740066001941244389e-01
-7.582405888755305856e-01
8.109673852052599052e-01
1.826078603672637080e+00
8.143721888694656352e-02
5.411621433941231629e-01
-5.840603124547442127e-01
2.755640838140218096e-01
-6.055831592237073124e-01
-1.199865164861678268e+00
-5.111563385096399292e-01
-8.421654959442107513e-01
-1.167109550177756194e+00
4.038062486942322615e-01
-3.212972524861735790e-01
1.574498982177490847e+00
9.574217098431762052e-01
-8.589131903724798178e-01
1.929600713505728871e-02
-9.225756891499762302e-01
-5.794019669572637588e-01
8.929950690541244018e-01
1.796520560928214660e+00
-1.754838088280840647e-01
-7.231839256265035765e-01
-1.192864815720752869e+00
-1.046755519155785130e+00
8.805955546266899248e-01
7.308703651743526652e-01
5.144805673977046467e-01
-4.695506384148390860e-02
-1.022515453251600231e-01
9.978930593379670144e-01
-7.486239730983321738e-01
-1.400299844939368876e+00
-6.770155124721510820e-01
-7.992292019333739894e-01
-9.139182820316863465e-01
-4.369053653697900219e-01
3.101820833571459768e-01
1.254466003737375157e+00
1.249459116587371632e+00
-8.575054860595970885e-01
1.085781663245499878e-01
-9.060509139550104729e-01
-5.081426958315237163e-01
9.394480537714164359e-02
8.988041889661014805e-01
-2.084266831706561574e-01
-3.635922312564368042e-01
6.611341002506790909e-01
-1.123484754706643551e+00
1.031373083475876085e+00
-4.036150635439466616e-01
8.247480014306779461e-01
-9.533412687100307759e-01
1.362255244176153179e-01
7.124931119371040733e-01
-5.728891964923458202e-01
-1.330306333797618201e+00
-4.245133668696833840e-01
-1.694870236269280239e-01
-3.803884897187697622e-01
-6.205863757885176080e-01
6.563901912505226699e-01
8.518761516872505046e-01
5.752665638477550969e-01
-7.403514200802532308e-01
3.284703352942188181e-01
-1.089433730615501084e-01
-4.163938270566683864e-01
-5.726973034089029024e-01
-2.969553929065514297e-01
-4.835250995077585573e-03
1.968597217549391265e-01
1.829507693687652425e+00
-9.296194998796122322e-01
9.432176748686559309e-01
-6.042525742136408695e-01
5.412346476450214938e-01
8.457279368477786941e-01
-5.778873265227742889e-02
-9.498867981447782771e-01
-4.036693533891010377e-01
-8.985055466019701287e-01
-3.482159943013152792e-01
4.512833578341241547e-01
-1.991929456803216009e-02
-1.395313133764176872e+00
-2.263378943690690370e-01
6.860100961684942877e-01
1.348474150891573464e-01
4.259628051962554562e-01
-9.231819618722115761e-01
1.126888178087498860e+00
-4.221907824797108688e-01
-6.907057083115727414e-01
1.639605990975783745e-01
-3.268798430785435083e-01
1.492134930890571143e+00
-4.962340240447357664e-01
5.373459874036670136e-01
-1.008181226391495100e+00
2.346664057609113563e-01
-3.056991722569282754e-01
7.585151060635173526e-01
-5.458704449864649755e-01
-1.108207396828345237e+00
-2.426680821873857252e-01
-1.261126181122440570e+00
-7.339525161615405580e-01
-1.338285709521699895e-01
-7.183004920268772076e-02
-9.721545159968466576e-01
6.285286925150020132e-02
9.917319221434776066e-01
1.372924348950622209e+00
1.002768867068167147e+00
-9.795084984075956847e-01
4.092489131920316603e-01
-3.789478683750925891e-01
-8.172598640475147169e-01
-2.815284465399420788e-01
3.385216815562736015e-02
1.446257241195318954e+00
-3.576836836946391540e-01
1.114913357334932131e+00
-1.276827548280210278e+00
-2.664151252975924256e-02
-9.016553551370656283e-01
-5.159953273979651645e-01
-1.035660625506109156e+00
-1.066637562808237405e+00
-7.939109542726123514e-02
-1.277807457399894764e+00
-7.737851748197966950e-01
-7.085957136122029709e-01
1.014969027702447013e+00
1.235604342151446905e-01
7.520004801078894463e-01
1.055197742343801037e+00
1.122010269551907857e+00
1.044584371976429393e+00
-6.160793476323651596e-01
-7.777475683322319089e-01
-2.229801564183684359e-01
-6.290310882156516792e-01
-9.897034340497122828e-01
3.155003910427145453e-01
8.413306898167106640e-01
-1.796851636702889721e-01
8.620192064902479911e-01
-1.014911246629030650e+00
-3.294792214984167411e-01
-3.992937741448486233e-01
-1.136384423245269337e+00
-1.275708736084903094e+00
-9.554918256607349836e-01
-4.036183092317522370e-01
-1.197083037278088957e+00
-4.927281904890021824e-01
-7.200674698097032644e-01
1.414181024555544619e+00
9.785170581021646052e-01
1.343887897085992433e+00
1.110051144527430811e+00
-6.055747483464056780e-01
3.452105693279092224e-01
4.739277803883487628e-02
-1.019484325654729240e+00
-1.847634880830126558e-01
-1.572480930987950887e-01
-9.302307692163138686e-01
1.785105765640198627e-01
2.674828102462847301e-01
-3.162400697773604663e-01
-5.522647951490102791e-01
-4.179341945366389921e-01
2.855344699408847164e-01
1.815147524645525368e-01
-3.936278006370494409e-01
-1.447749837494644698e+00
-1.274582297311755742e-02
-8.023351569580515763e-01
-1.084081845328457971e+00
-2.612169636299327413e-01
-5.651018933938142252e-01
1.286422171495100741e-01
7.344554332443046230e-01
1.277609060719612000e+00
1.033157979356886358e+00
-1.011902785494375401e+00
-9.675156460983223849e-02
4.742530437171182944e-01
-7.425774184213373985e-01
-2.179124380470813804e-01
3.097115792605982243e-01
5.286177701923835404e-01
-2.056916329015902878e-01
-6.906033537056465166e-01
-1.059075556632742110e+00
-1.375625027012821411e+00
-1.782638007327864427e-01
1.204197216536182946e+00
4.491004471812946180e-03
5.283645891211133927e-01
-1.405960521919930262e+00
1.024365858804858309e+00
-7.015734431779432345e-01
-6.677250738596617330e-01
-4.625942098377195388e-01
-6.093828243145600343e-01
-9.604999223272399078e-01
-1.741566000801428871e-01
1.074169390878523700e+00
7.167198181120699729e-01
5.535769597257894636e-01
-2.251657520202606788e-01
2.416900714674770634e-01
-6.293787587002609429e-01
-3.165565895564035892e-01
3.367673674108761506e-01
1.917919404615786361e+00
-6.419594719846721809e-01
-1.409196782859270192e+00
-1.153210477704004422e+00
-1.115955461386074932e+00
6.523188696687021171e-02
1.054716044792588070e+00
6.866200057520602251e-02
-3.060837086416106079e-01
-1.062528575085232685e+00
1.236593495679970234e+00
-5.288946407023428220e-01
-4.643783909652178798e-01
-7.361941486612848529e-01
-1.998637827600901473e-01
-7.194713190067869579e-01
-9.080488058767384185e-01
1.341881283619601017e+00
3.720212189625267118e-01
1.544354961587538044e+00
-4.115337175094748723e-01
7.021771224732548111e-02
-7.700956961568589110e-02
-6.935039523892677638e-01
-2.863008733986460164e-01
1.368945955664768288e+00
-9.585150480358931580e-01
-1.065569111206892128e+00
6.641224446954510086e-01
-9.375681961532218445e-01
3.873075763108101421e-01
3.813886400342323402e-01
4.574573285495975861e-01
-1.163818397864389009e+00
-5.093654324009688761e-01
6.685626443212140391e-01
-3.079699714186776016e-01
-1.862383727806550260e-01
-5.515762850327693423e-01
4.497190351264156449e-01
-2.208802407803787948e-01
-9.809312331841418819e-01
1.295560039481285619e+00
1.950541845556360843e-01
1.061184655052935799e+00
-6.046776592503234626e-01
1.410797243019565606e-01
5.691086266351897960e-01
-9.521352962696125743e-01
-8.493595820777044558e-01
2.282339848083625999e-01
-6.466736076690544621e-01
-3.687362065669774758e-01
1.919181389470414167e+00
-8.733672566762678002e-01
4.400111455628011314e-01
-4.298775465266876927e-02
1.397790026934771501e-01
9.403356580708512880e-01
1.108235344296872649e+00
-1.455856513074330616e+00
-4.259181635720187264e-01
-6.514325272623148200e-01
-5.291204187663073322e-01
-3.208207291856246535e-01
-2.606763278670581885e-01
-1.141299870006650119e+00
9.086868976187690849e-01
3.127337463219891922e-01
-1.947880837194879422e-01
-4.525888102812316571e-01
-4.475057800933418539e-01
1.006630446708400184e+00
-4.591164943658368469e-01
-2.509897361889823486e-02
9.989196774931570488e-02
-1.121047715939988532e+00
2.104543346599128562e+00
-4.569537609601186934e-01
-1.273872389784884152e-01
-1.102966360180059002e+00
3.015065797581740759e-01
-2.904816497332849967e-01
6.142801501778309969e-01
1.089335276511015582e+00
-1.796403166492818393e+00
-1.561020757970377204e-01
-9.165178810360434802e-01
-8.456012232441273424e-01
-8.211791526557324916e-01
-6.964293583338259097e-01
-5.014109167111993060e-01
1.222704063866293378e+00
2.761222832778828518e-01
1.309587537389663936e+00
3.838644030737683455e-01
-1.150691769149732036e-01
3.542865495138172727e-01
-5.065134461902400798e-01
2.111032059864649188e-02
-6.763690092788837704e-02
-9.663354132487519399e-01
2.415466100850073961e+00
-4.600247869002156431e-01
-8.610504449075671862e-02
-1.464123833827380761e+00
3.761368517677290413e-01
-5.929552246219899070e-01
-7.121093445401744937e-01
4.877328820756279826e-01
-1.159602539701808599e+00
4.241994238746320256e-02
-1.029137235927296112e+00
-9.046080002810453768e-01
-9.027799087200588657e-01
2.060813818988918855e-01
6.736815855933376840e-01
1.485266473787337338e+00
4.146077226566527441e-01
1.369844814014960166e+00
1.724433943411725290e+00
2.078296097518392282e-02
-6.078982033513969929e-01
-3.543039626634353900e-01
-3.014477224042195203e-01
-6.378628362235513327e-01
-6.404038107359453225e-01
1.353055128432498311e+00
-3.267549919115014800e-01
-5.035848739157247067e-01
-1.292988921787021406e+00
-1.025079869453643655e-01
-3.734208188383564275e-01
-1.213926273235345077e+00
-1.872173983083792737e-02
-2.495738695217210035e-01
-4.566299165738249011e-01
-8.007548742257732943e-01
-6.787687162923471407e-01
-4.879326196273954808e-01
1.101416221782310689e+00
1.130891459883256234e+00
1.720767160519452998e+00
7.279639303422101859e-01
-5.385231480892390676e-01
2.021543310725023801e+00
6.847887526906830391e-02
-8.820211574409348998e-01
-3.336277433117058044e-01
-4.017922313941308943e-01
-8.129329447997911684e-01
-7.402372219045244561e-01
4.486471324049431941e-02
-5.078302945149730796e-01
-1.371862969904086516e+00
-8.809640828863520845e-01
-3.951306868314581333e-01
-8.867655283162251267e-02
-3.677649243037298676e-01
-3.675662321332978655e-01
7.568587202954425441e-01
-9.002638553723003589e-01
-2.577212095135890113e-01
-4.069311517402459666e-01
-1.136451311270489789e-01
3.266423221417027456e-01
3.715155436708955095e-01
1.459860977824935180e+00
6.410458338973341608e-01
-1.503923945897887915e+00
1.187485546432458738e+00
2.942300795488712040e-01
-7.167226177984842295e-01
-4.123749729574263112e-01
-8.827143581818436280e-02
2.288080021882452630e-01
-1.033096402385234036e+00
-9.680662634979916303e-01
-1.127556501691199697e+00
-1.338648115813588335e+00
-8.282148736075342077e-01
1.268298800131145709e-01
-3.467991173692261953e-01
4.702631621096379777e-01
-7.230394362706638045e-01
1.473593054530071722e+00
-4.599785912168357638e-01
5.231388478339021875e-01
-5.221468693650539450e-01
1.682330954540347534e-01
-7.086528773394722425e-01
-6.273558621239111455e-01
1.020428168998502638e+00
1.465630549988720943e-01
-1.758274445743618630e-01
4.642371311525343991e-01
1.962460265215364152e-02
-3.895021404879009941e-01
-7.788532516833701624e-01
6.127031000054938836e-02
1.688132967661836403e+00
-1.403053060194412005e+00
-1.589767048096735857e+00
-9.604039157464793197e-01
-3.793657301356934131e-01
-5.971657252719581033e-01
5.776488868429494605e-01
-4.632640912696321389e-01
-3.612342917644646989e-01
-8.146303761630087070e-01
1.136250461428588432e+00
6.787203561226305693e-02
9.242683816497774263e-01
-7.052919871923108985e-01
7.350574146100475881e-01
-5.028976884742148989e-01
-8.367762913561830329e-01
9.731601045551943052e-01
-1.754455368860922682e-01
1.145598392377791708e+00
-7.848825981684259823e-02
-3.092681139950254066e-01
3.459301111999050771e-01
-1.287213856930606859e+00
-3.931503698181100792e-01
1.563089331832462570e+00
-1.531156262921796518e+00
-1.284607047923145062e+00
6.954454903887885564e-01
-3.360186778889209802e-02
-3.826298534622161185e-01
4.674823253150446889e-01
-1.425411693504090582e-01
-1.121512118817072245e+00
-5.964594366160839156e-01
3.019955425537532157e-01
2.024256472775332882e-01
9.309609855028406766e-01
-5.012328960293597202e-01
1.063663210994291841e+00
7.395489422165522908e-02
-6.031692073449247404e-01
1.003372335253664760e+00
-1.466305769044059792e-01
1.088459263948081457e+00
-6.233919897585001868e-01
-1.882749128647814851e-01
6.670604481631551286e-01
-1.341105045921307193e+00
-7.943091519613674212e-01
5.477291220191584653e-01
-9.197601290127480622e-01
-5.483055372646840064e-01
1.884198122632369188e+00
-2.772584473304403052e-01
-4.627742129512632530e-01
1.542746533963609834e-01
-1.991384189051888520e-01
7.951802723695799990e-01
1.031221984111892365e+00
-1.113708040398417420e+00
-3.182459070999473782e-01
-1.885662582329026560e-01
-5.512285808192745051e-01
-7.064738391820948316e-01
-5.709816590805422143e-01
-4.811889103221902997e-01
9.077122508500815590e-01
8.334316300070898631e-02
-3.635518828216801612e-01
-7.336769152129419824e-01
-2.159670941895742435e-01
7.922275919257469878e-01
-2.644967646100964687e-01
3.147431717389494454e-01
-6.852972955896827201e-02
-1.326928773497122016e+00
1.578588703052276720e+00
-2.016919074541608514e-01
-5.612337591055290842e-01
-6.858027776498485384e-01
1.616002373019697347e-01
-2.477287659020528943e-01
2.804300953922963524e-01
1.354525336361539267e+00
-1.494722940293354396e+00
-1.063435217117107701e-02
-1.300599007560275244e-01
-8.397210328692422676e-01
-7.390726771672990747e-01
-9.845737218690274739e-01
4.731919533883731377e-02
9.470759763627196737e-01
-1.037150267520789010e-01
6.470078254816347130e-01
-2.575951377919475926e-01
2.324539719681623096e-01
2.522177563388290356e-01
-5.615728327524648344e-01
7.546118213750220294e-01
-2.518891447721487986e-01
-1.403894806004467588e+00
2.172357894138704282e+00
-3.117090371412558070e-01
-7.496108878925649144e-01
-1.042965361514583744e+00
4.356581439382218868e-01
-3.249956915300222238e-01
-6.144822397171513240e-01
1.232999216952275656e+00
-8.292609309504226367e-01
2.364363200488900918e-01
-2.947960837188147165e-01
-8.155626907660592506e-01
-3.892119824273489459e-01
-2.784793736715766022e-01
8.808944629824788652e-01
8.483656888366924997e-01
4.151709536156303337e-04
9.450727536446041910e-01
1.145969000349387423e+00
2.665149391659061839e-01
-4.587343117954575389e-01
-4.883948115712898885e-01
1.727263376449656718e-01
-5.164066382492089602e-01
-1.178803070120906904e+00
1.245065407364023491e+00
-2.909842942678795286e-01
-1.076094297118570076e+00
-8.873688094398649584e-01
3.691777500738617768e-01
-4.109544453266235076e-01
-7.794755099793535535e-01
8.978683997386475157e-01
2.212817607741717485e-01
-1.595840852703506174e-01
-1.529250441227035517e-01
-5.040852833964545310e-01
3.282216284549867996e-02
5.953989364866369982e-01
1.024017995898542255e+00
8.234606810915741093e-01
3.437536891673239059e-01
-3.569761489798322085e-01
2.016594963682192709e+00
2.623174927521990454e-02
-6.139342152398770125e-01
-4.521083085113881683e-01
-2.395223764110098741e-01
-6.367658245383697180e-01
-1.301168582647862948e+00
-2.613846866421736803e-01
-4.095855309067696903e-01
-1.055668383340980787e+00
-6.671100596319351483e-01
2.141088550668269683e-02
-4.074744500969048056e-01
3.986064705125261926e-02
6.232203211781434105e-01
9.371201417180731186e-01
-5.633715973989207315e-01
3.963128492109445067e-01
-2.478209081124241042e-01
2.181721535632179798e-01
2.701287655304356883e-01
2.224992859571296444e-01
5.717776164880897793e-01
3.637386825031733717e-01
-1.328101815160935839e+00
1.418978522301546086e+00
1.659179616625603981e-01
-5.627324197328077426e-01
-5.000098491011182311e-01
-4.225759292888139895e-02
-1.948909908700152405e-01
-1.452522828331156868e+00
-1.099841703236258850e+00
-8.917746165859478102e-01
-5.252324434428690125e-01
-7.491079913597517015e-01
-1.720097171118740165e-01
-5.273350195999847445e-01
5.052430360305583124e-01
3.195562488451899052e-01
1.090759915103744371e+00
-9.392743441990404618e-02
9.815910904548564853e-01
-4.189741362817412940e-01
4.436288856954110904e-01
-5.815102804673363268e-01
-4.463020038218960539e-01
2.995055203272650735e-01
-1.137915328545504728e-01
-4.666271833343232367e-01
5.581153439120041249e-01
-8.212431567900978224e-02
-2.451186432527257819e-01
-8.911946703004200998e-01
1.137037874798240700e-01
7.890480190785403858e-01
-1.490986536817115127e+00
-1.352270819991356676e+00
-7.476544476099615810e-01
3.407410684234430942e-01
-5.477113356208243022e-01
-1.761531577729056330e-01
-4.631261614956139194e-01
-4.005272547518564652e-01
-2.311999137004584412e-02
4.755739281674025154e-01
5.347943898501710258e-01
1.261424079487649674e+00
-5.814215190865998917e-01
9.112722949484203250e-01
-4.708954000943065821e-01
-2.565877928461756663e-01
3.050454902668029433e-01
-4.340520184299609951e-01
7.886071173048531113e-01
6.244639111503151943e-03
-5.391223167108443182e-01
2.272184430079884354e-01
-1.236605840877068818e+00
-1.239506466696853743e-01
1.048510739018396976e+00
-1.204345166659851474e+00
-9.322800211721945507e-01
5.955851884047040912e-01
5.781851041546993697e-01
-5.515002035397953417e-01
-8.218325779865651159e-02
-2.089883340439939452e-01
-7.530638441788507498e-01
-1.774962632442435850e-01
-7.763134274369576371e-02
5.357991293471924266e-01
1.036353150402753442e+00
-3.821041079582860323e-01
8.260827208519803122e-01
1.434822746278928696e-01
1.277059291903545439e-02
4.386124443658306893e-01
-2.275390022186729866e-01
8.438492873273908401e-01
-4.151487146104996806e-01
-4.654300130058608986e-01
2.184465365172155449e-01
-9.552233315181626327e-01
-2.731628793081683493e-01
5.591038864152834131e-01
-6.018926732931496604e-01
-2.256787694462940030e-01
1.570964640767625875e+00
2.028649645107483690e-01
-9.667103855219496555e-01
-9.832313352797268646e-02
-2.596259831325335998e+00
3.448239518397853587e+00
-4.710229293410883145e+00
-2.481724765693389845e+00
5.950850134720777618e+00
2.591955844927039898e+00
5.085345930211646603e+00
3.828175837958377237e+00
-3.038843686225908503e+00
-6.146029194210473889e-01
-4.053932812299377630e+00
-5.279845607128786256e+00
-3.929626097783932348e+00
-3.404739103114101439e+00
4.404254287777981780e+00
-2.412833285156104512e+00
2.819334100489754302e+00
-2.195216248867581932e+00
-5.167082469343738715e+00
3.682870685957220669e+00
-2.195030979958293216e+00
-3.066476021257955598e+00
-2.918992476915640122e+00
-2.709037548537734263e+00
-4.099889840873811586e+00
1.056532085848772102e-03
1.376919579308808102e-02
2.517428137451788520e-02
3.622640172745248549e-02
3.642727188768701135e-02
3.254966036945613345e-02
3.445960665998045597e-02
2.534355608010821145e-02
-3.315160014368595011e-03
1.838058217459104596e-02
3.461163007685703896e-02
4.193348432618858312e-02
4.154936764519067544e-02
3.941896906709558418e-02
3.974910671311638471e-02
3.067170806034743083e-02
2.734341514720030428e-03
1.477043810414369225e-02
2.367947630432336650e-02
2.636760738656641206e-02
3.313607132566032815e-02
3.824612522857536584e-02
3.032537046630386438e-02
2.234769808162355431e-02
1.612816775099457783e-02
1.906706514190921117e-02
1.473492217876244681e-02
1.198604244819107510e-02
2.360408936620816966e-02
3.414988407837420137e-02
2.933143410419463207e-02
1.442760772881115580e-02
2.175236252652437696e-02
3.331108224939225565e-02
2.515563800471891029e-02
1.116043623656050136e-02
1.784174778152937055e-02
3.025269912042849452e-02
3.590842202290329271e-02
2.276835146119073061e-02
2.277217170007342362e-02
3.186863619802521308e-02
3.472769937145090552e-02
2.516239700854227060e-02
2.189311991159272747e-02
2.125906928282018590e-02
2.640896226977492919e-02
2.195159980493210927e-02
3.052442207758083656e-02
3.107884701856678325e-02
2.728614429843234310e-02
2.797578058640773357e-02
2.854817520243625728e-02
1.541178186549806498e-02
8.800328774820993447e-03
1.017294290534151435e-02
2.427751929244690438e-02
2.502001014552645078e-02
1.337031835888967575e-02
1.019466273787656731e-02
1.939772919069965296e-02
1.038567511392568185e-02
-6.578770489908203692e-03
-6.705701551466680156e-03
