-1.198504330399877471e+00
-1.527648003436576252e+00
6.723287844327184570e-02
-2.031635471258196102e+00
1.742672611934753257e-01
-1.241726099796926164e+00
-7.476598754328130092e-02
-2.871015602505916919e-01
-1.305429173399021758e+00
-2.835677186627972302e-01
6.957371195670898345e-01
-1.351797963963766280e+00
-7.519507323928092957e-01
-3.356414400419498456e-01
-3.591683907572538748e-01
-1.543997341212207886e+00
4.549648013361994314e-01
2.328629628133855045e-01
1.100146353949238848e-01
4.249852027276586515e-03
-3.207515692418927422e-01
-3.794687557294082469e-01
1.304847844836294624e-01
-1.421478874385987634e+00
6.399698731536836160e-02
6.934870908769956710e-01
-6.014046925516273179e-01
-8.046116507249202465e-01
-8.112812199992147644e-02
3.261576582807151903e-01
6.189009483189739091e-01
-3.817321220581222363e-01
-4.877935026152969145e-01
-7.027214941406654258e-01
3.400825211859121074e-03
-1.043008408390009301e+00
-7.699790290636673862e-02
1.152028201340715707e+00
1.169874705509574564e-01
-1.500554070412194463e-01
-2.826778247642751096e-01
-7.767146902124301144e-01
7.281858185377358961e-01
-8.948904335183797132e-01
-6.808824659256974554e-01
5.230291056510905090e-01
5.504154978752378025e-01
4.052560545077359411e-01
-1.013278286344642343e+00
5.479620507950307973e-01
1.735151368206876654e+00
6.345559486443810848e-02
-4.491937819473620364e-01
-9.651327077265409171e-01
-3.120153107112917934e-01
-1.023987521807856238e+00
1.093499637334682528e-01
2.865650998801789195e-01
1.726838289609800903e+00
-2.102485211516401942e-01
-4.154366945356645011e-03
-8.910581311252993020e-01
2.272800587115164379e-03
-3.129911348256131376e-01
4.013374367756288863e-01
5.612663408546915145e-01
2.524137547421529629e-03
2.074593924258018307e-01
-3.790312389602391585e-01
-1.741196962167805840e-01
-1.230102512813076476e+00
-7.448735721487315109e-01
-6.703339676803798941e-01
7.838652798467526939e-02
4.324227270517918414e-02
2.766045327652916774e-01
3.759789468125412371e-01
5.851072365991948770e-02
-7.311467174019903315e-01
-9.945209409828734692e-01
-1.528770137706037813e-01
-1.118730129320853806e+00
5.489392041684814511e-02
4.664357535450678327e-01
6.767726296420236709e-01
-1.495798373326035491e-01
-6.652411871929344578e-01
8.932829608990403569e-01
3.308484634264938773e-01
-2.484201153002018603e-01
-1.980148018768400353e-01
-2.533703130194725137e-02
-4.379520891143718481e-02
3.739671077881177030e-01
1.339052986100547571e+00
8.794509719163838835e-01
2.252553687940660465e-01
3.776881444031801593e-01
-1.004557668515877467e+00
-4.428336822021461949e-01
-4.013020393267771602e-01
7.594425730167668476e-02
2.819408345126121151e+00
1.530898803120231522e+00
1.616256478108757610e+00
1.739359298896589356e+00
6.755992896779811074e-01
-3.413742941610771187e-01
-3.714939257581104659e-01
-4.690264603043839409e-01
6.728322472919758823e-01
6.017091098208127153e-01
1.099506572519915737e-01
-9.343539532835011263e-01
-4.307407154839348884e-02
2.698375106647803515e-02
1.700845835240021586e-01
1.471203075645293734e-01
-8.335679274840177011e-02
7.429238436844953775e-01
-1.367125842755289256e+00
-6.207842783320250968e-01
2.141962820585066873e-01
-1.870875852398997119e-01
2.579186410586278844e-01
1.276000373542559019e-01
-1.634350074133781305e-01
-1.116319735317249817e+00
1.608126292041056615e-01
-1.826491004822753950e-01
7.952799330123070387e-01
-1.252724126003707861e+00
-9.009995670577051197e-01
-1.009617105839918816e+00
-2.187374677085096863e-01
3.451676840672633917e-01
-7.286682779573820934e-01
-8.969477441164168396e-02
-1.227565284504496673e-01
-1.392648131413217472e-01
-3.227749416734481680e-01
-8.910793799400570370e-01
1.094361577566776433e-01
-1.133240142980181719e+00
-3.547518556669092965e-02
9.666851428970805182e-01
7.761454998734344801e-02
-1.258823737182356017e-01
2.992321570671587772e-01
7.013867632338605107e-01
3.614663515429707985e-01
-1.821473271692416497e-03
-5.307346193224900602e-03
4.731928502055027796e-01
2.486221966789708748e+00
2.410108137797556671e-01
5.119462779393891827e-01
1.005274579503324439e+00
-3.087563867446019850e-01
5.495313252287653549e-01
1.475341576224358020e+00
1.430400534453208694e+00
2.402165270985928025e+00
-5.818974046745001988e-02
6.086971810132997263e-01
-5.802766030636119510e-01
-8.662553064406256498e-01
-4.332160578790288374e-01
5.500472787612570302e-01
2.885077283734536202e-01
-8.996037526047669930e-01
-4.292156770922627151e-01
8.771964367420744813e-01
-1.185684411788388237e+00
-5.639692128797323400e-01
-1.632090048860987963e-01
-5.885221604407109286e-01
7.238601104351206905e-02
-1.690499322054424824e-01
-7.516435868921417240e-01
-8.425431437597189488e-01
-4.735560759993483471e-01
-6.488841962445143219e-01
-7.249111693413476387e-02
-1.021823683163901597e+00
-7.076687407698756260e-01
-1.902926135714408662e-01
-6.714533387756612681e-01
1.892165683962564182e-01
-8.147253876430457509e-02
-5.262293241851676573e-01
1.449859643912332630e-01
-1.680005489841088995e+00
-7.700015627201443058e-01
-2.672632192113584271e-01
-2.159305718766588722e-01
2.184362903469013517e+00
-7.923161939459756331e-01
1.159165181221528007e+00
-9.197655798242897196e-02
-9.761688577065691375e-01
-1.145622260295862782e+00
9.109648824858942451e-01
3.990991835323602355e-01
1.758572098586119070e+00
6.700346870346772787e-01
-5.081686417672968137e-01
-1.300090354294695549e+00
-6.387822356697261394e-01
-8.578238861708942231e-01
-6.056454904350680457e-02
8.212493321502519761e-01
1.033809718516346177e+00
1.538566966188598784e+00
3.993317543476360143e-02
-2.921518645310724471e-01
1.359873324600372468e-01
3.227052359189300224e-01
-9.243192893604159632e-01
5.392279429054843698e-01
9.380497435010370921e-02
1.990000565875095495e-01
-1.174450809340839702e-01
-5.973376688751309560e-01
-9.281671974815189907e-01
5.349232765935300893e-02
-3.640262528494624950e-01
5.725862849370713104e-01
7.546962336284509520e-01
9.783413698472954723e-01
-1.240542081142939068e-01
-4.176444774773960256e-01
-1.817543451328156590e-01
-2.334473649376794246e-01
-7.301738587597593477e-02
-2.679731432455296769e-01
-1.007551843477658027e+00
-9.670737273116059018e-02
-8.648794029550384010e-01
7.123009701630278467e-02
6.574533646697008349e-01
-5.511479089862105774e-01
-1.050121598377123711e+00
-1.717954125335275084e-01
-8.739721685434829190e-01
-3.547552101678871916e-02
-6.442880796984586933e-01
5.348075203792621579e-01
-6.525442544599093786e-01
6.224253564461749294e-02
-9.510362293195366856e-01
-4.003294405107131748e-01
-1.842078962098918193e+00
2.775223452809649216e-01
3.587077386397969914e-01
-8.259988574210573864e-01
-4.472061246194860562e-01
-4.213267227846462237e-01
9.233258261558188185e-01
-8.768059777837861057e-02
1.473830123163799799e+00
-1.367723622709096976e+00
-8.621863723833212978e-01
2.069379808276738397e-01
2.903706696609800186e-01
-7.558930194944442071e-01
5.121087240259452056e-01
2.212465052893896056e-01
-8.017994005087882015e-02
-1.768390151763945095e+00
-5.581935427404943750e-01
-1.282346051927324426e+00
1.277928633711259421e+00
3.146172477319405386e-02
6.208037369654094695e-01
-3.335800671771165238e-01
-1.282094575224241417e+00
-1.157006516471115187e+00
-2.587833728446347625e-01
4.627379945126583460e-01
-7.373147566056623692e-01
-4.458534339424654602e-01
-5.602378770248840345e-01
-6.269224167151092875e-01
-9.631389013045049685e-02
-5.999530430526280739e-02
2.104615191305914956e-01
1.052469399650057147e+00
-3.616139261948727590e-01
2.313099885989365057e-01
4.480516382559094901e-01
2.476128854764306914e-02
5.461294043843845092e-02
-6.263786030035216335e-02
8.597853947156492982e-01
1.829336662493637744e-01
-1.145370587441830290e+00
-1.000202989341336668e+00
3.614041979321450798e-02
3.547166744090121671e-01
4.161563312702273310e-01
-7.238359480698484255e-03
-5.506828147031478382e-01
-9.356452030317954360e-01
-3.164712768379473462e-01
-1.186859817552776697e+00
-5.460228474756719796e-01
3.918016258557160958e-01
-2.475944547082114811e-01
3.607426943844478651e-02
-9.738347225192548473e-01
-1.699540904554742049e+00
5.909643124313478380e-01
-7.571180486159784229e-01
-1.695169392086895765e+00
-4.496635944304702148e-01
-5.936990798648801304e-01
6.477575433468529820e-02
-2.805882229537781103e-01
-2.643543098897450649e-01
1.712612965155792533e-01
1.115756810162227941e+00
8.770568066626428516e-01
1.611745749801229310e+00
5.448402023278291484e-01
1.161033706030326407e+00
5.950320279393298550e-01
3.476519271985036852e-01
-5.981203018730889553e-01
-6.737067731008740401e-02
1.697776589983325923e+00
6.521417121073763701e-01
1.965144799003431045e-02
1.438916499077069477e-01
-5.765154446398446098e-01
7.526249032949769435e-02
-2.678709321435833179e-01
-9.451622591845653121e-01
-1.562371043114124669e-01
-1.183237842416605679e+00
3.637046131044621711e-01
3.780845124808953073e-01
-2.693790107195225825e-01
-1.043407455627475722e+00
-8.365501244183215501e-01
-6.641756764613188091e-01
-1.493116564574184790e-01
-1.455076030477866267e+00
7.696093841620842146e-02
3.079355209515525701e-02
5.572063324909523052e-01
3.242120047859250453e-01
-1.085138131311606413e+00
7.381940853983723350e-02
2.014026342727726904e-01
-8.563310710547625826e-01
-6.640554493476674702e-02
3.340026291462274144e-01
3.014145813727225898e-01
2.229854026528644284e-01
-5.451372661211583148e-01
-3.622070455137362810e-01
-1.134155885229347849e+00
1.520488821679872871e-01
-6.981901168466622121e-01
-7.717167646537391734e-01
-1.276091760122210150e+00
-1.615949647123160818e-02
-1.056549232776345049e+00
5.440129764454426642e-02
4.905938559477712735e-01
1.224959327010479271e+00
-1.040698296905729903e+00
-1.894877943505649531e-01
6.691777681194595317e-02
6.783166493167814837e-01
-4.227484201939139541e-01
1.370779688133781649e-01
1.292935750188386024e+00
1.654494828793854788e+00
8.501369139834911159e-01
3.384079134341439477e-01
4.952045306085123832e-01
9.685885712154341798e-01
1.498361126206783356e-01
6.264289665368515392e-01
-1.148813835483958767e+00
3.816001635139477099e-01
3.219149464421988127e-01
6.330635768769652394e-01
6.733589814317101352e-01
2.727304082631924476e-01
-1.978044066977310000e-01
-3.490120174771049744e-01
-5.002278408049285474e-01
3.884729040623441376e-01
4.494218482409172988e-01
3.837745041613358499e-01
-8.169800840375045503e-01
-3.749443627861305250e-01
4.471769174709878669e-01
2.385857488397274268e-02
4.122206286077985671e-01
-3.606402993297560533e-01
-2.043135825003289108e-01
5.807486397473686779e-01
9.472177109669853434e-02
3.559198107035553282e-01
-5.096286123003219704e-01
-1.604652854043936427e+00
-4.407754788228797072e-01
-4.947716385631649172e-01
-5.488937918126779447e-01
-6.778411255357913445e-01
-1.174360831099450497e-01
-7.003026928765240799e-02
-4.026513614699782639e-01
-1.755541189007868708e+00
-1.113562321970561930e+00
-4.373933289570347549e-01
8.603480594238968049e-01
-5.815790388415381651e-01
2.825082097261872316e-01
6.169023820633567912e-01
3.831255858440796858e-01
3.040989578590268527e-01
2.193931535503115815e-01
-4.979218086470394988e-01
1.638485682456529036e+00
7.617544711053013673e-01
1.703350249795186677e+00
7.889547614866919689e-01
3.144387750055568920e-01
4.298894487112967511e-01
9.857308743376159699e-01
9.938042848708835697e-01
1.989644492576206902e+00
9.783792680663415675e-01
1.108021851661549428e+00
-3.689522335125099972e-01
1.652760678874826583e+00
1.106148338357717753e+00
2.187654085535288839e-01
-5.352472944501844854e-01
6.755253239511654906e-02
1.233356614691378111e-01
-5.888807128467139496e-01
-1.019327223213147976e-01
-7.133448630724814610e-01
-1.169655387424337334e-01
2.781309847494912307e-02
-5.814207120322681943e-01
-4.928318680598105517e-01
1.116861317289701283e+00
5.763414920155102150e-01
-4.831858259555710244e-01
-2.538860763437126078e+00
-1.008261727678209096e+00
8.045164430657276711e-01
9.278026633287620450e-01
1.216351272180978133e-01
-6.799581937674807619e-02
-1.301512158906833694e+00
-1.185242539592973460e-01
-1.060698201126455964e-02
-1.628904720833615205e-01
7.124064944398826871e-01
-2.951683349103776388e-01
-1.068949308843922585e+00
1.538712381223613646e-01
4.479194467705528010e-02
-4.416008711900092920e-01
-2.592661730906547501e-01
2.528644662643891317e-01
1.303724142092413496e+00
2.969852607882594864e-01
-1.475125256697738196e+00
-1.853801838444803840e+00
-3.094390187111974444e-01
-7.678847532046815250e-01
-1.061081293705740114e+00
3.682032594064570813e-02
2.364487652674270857e-01
-8.034106998220209572e-01
-1.233834677609257247e+00
-1.256557391890198661e+00
3.199791701702202340e-02
-6.897521353692341872e-01
-5.614746452060268567e-01
1.114894942957932178e-01
-2.104901563337234147e-02
-4.456993557099357961e-01
-1.008229456875434193e+00
-3.004782430841916874e-01
1.510151028167392162e-01
1.628276620595532631e-01
1.351754099875234427e+00
8.083367906207276077e-01
-8.304559828618461870e-01
-3.110828737276761236e-01
-1.114467900899434732e-01
6.697496566511759175e-01
4.493537317106619522e-01
4.767663777312694529e-01
1.759413532514729761e-01
1.013611045078559592e-01
-4.381848260639614190e-01
-6.033730074054848291e-01
2.226618618256570314e-01
1.851233389066381019e+00
1.849183632714360981e-01
9.299392379952170495e-02
-3.554945967922098493e-01
-6.724750899086221478e-01
-1.823566788332259270e-01
-4.797721437346749718e-01
5.131263552240096226e-01
5.724445363165150402e-01
-6.179864027924472092e-01
1.057036503980074205e+00
-5.288611640904689049e-01
-2.554860923457509259e-01
5.361997117751622355e-01
-8.690307581437618778e-02
-3.998240688807351839e-01
-7.416334017152179658e-01
-7.115596250908902132e-01
5.441619570258942468e-02
6.154266900894891368e-01
-1.278088453155332482e+00
-5.446073328183848039e-01
-3.338895840494946615e-02
5.972901981607103838e-01
-4.812955933993997570e-01
-7.324219511911888025e-01
2.913520863871601474e-01
6.578152713149597597e-01
-8.380215850536969213e-02
-3.385701976537156543e-01
2.330400116224491947e-01
4.992397878762429575e-01
-7.053311634972105892e-01
-5.438962873135271270e-01
1.017320733836453162e+00
-8.711242179769833338e-02
-6.943197615393184585e-02
-5.664402005594603162e-01
8.266864335645591755e-01
3.096756464037794254e-01
-7.210237971978599170e-01
2.198891485925613398e-01
1.593194050047285426e+00
-1.551284796246127640e-01
-4.073868034283451567e-01
-5.445372550931230071e-01
8.072095476603990960e-01
2.774165876735595546e-02
-1.006566525161195491e+00
2.388661914937035557e-01
3.555373953782476892e+00
6.447151044327062985e-01
-2.963561888102834163e-01
-2.310435654659868110e-01
-8.478313318466702830e-02
-6.701575876112386698e-01
-1.541343505050154050e+00
-7.785858077924271425e-01
2.376766096222299840e+00
2.029123705074074024e-01
-4.576947698484041260e-01
4.652670671161768245e-01
-7.897776828826202911e-01
-6.590119051995207977e-01
-7.185999164690095586e-01
-1.566064206223780064e-02
7.541940298340739091e-01
7.313737556077603008e-01
8.368335630267456082e-01
-5.232740224939055329e-01
9.911534166175205440e-01
8.942499706847562013e-02
1.899764244146585845e+00
-2.562594621348242008e-01
2.736195649000575658e-01
1.262128689876653276e+00
7.292851527112051424e-02
-1.868053501577808584e+00
1.334002242670183913e-01
2.596292603996230852e-01
7.707676198409083579e-01
-6.601131591781609353e-01
1.865505621623474719e-01
-1.030044270693859509e+00
3.802325773614443905e-01
-1.381184950728268523e+00
-6.971452165904776788e-01
-3.853710565590233172e-01
-1.098553686184125661e-01
-1.036316543863444517e+00
2.987467570142710027e-01
4.994997753558310105e-01
4.989757435078285286e-01
-1.099050868455785812e+00
-7.022418807766453996e-01
-1.135402502199619912e+00
-7.554383574694411019e-01
-1.893251878620613171e+00
-1.526822331465901961e+00
6.970369524930507543e-01
6.341604667146539809e-01
-6.685005578253433445e-01
-7.435882842907896029e-01
-4.062344959257339627e-01
5.771644929015672387e-01
8.192246373317087216e-02
-5.948171896121651203e-01
-4.577914067338963444e-01
1.366590852291308111e-01
1.520422469869972537e-01
-3.883765759286738062e-01
-3.075010603839478107e-01
2.413485600181727031e-01
7.705605668591758439e-01
-1.253391208795328129e-02
-1.329223092466998102e+00
-1.773751911562412076e+00
5.142777678365735572e-02
3.890592924468045388e-01
-7.501899785028560697e-01
1.549243073942291049e-01
5.854177509063223095e-01
-4.189123679277030887e-01
-9.906380302572436181e-01
2.040339370876012304e-01
-5.486787239776093061e-01
-2.698340518704818169e-01
-4.826778081625603400e-01
-5.436030306415378099e-01
-1.399002992263706169e+00
-7.353100471197025756e-02
-5.064562709940370056e-01
2.399924376715113772e-01
8.160305362748604407e-01
9.393923516419691033e-01
-1.587204030073262884e-01
-7.139137524788105038e-01
9.580381981961277882e-01
4.091019960787592447e-01
3.337480355837250667e-01
5.754266603422116821e-01
6.484518349924383029e-01
4.307300550718679011e-01
-1.018234023381826281e-01
-9.681577011451443504e-02
-1.862854620026897501e-01
6.227481323488778253e-01
3.891723239263593093e-01
5.333757755467939399e-01
1.188078296610537432e+00
1.398119616843328084e+00
4.186781337893831778e-01
-1.073130237173361423e-01
-1.933451268624923669e+00
2.154345380702024915e-01
6.314657980458557307e-02
4.475694282912417443e-01
1.034569948323943889e+00
3.444382297917358837e-01
2.755078209929213706e-01
2.482923568711882523e-02
2.082748604863047803e-01
-4.286827596270703089e-01
1.598552055325499696e-02
-8.054638334858325033e-01
-9.825126574189987916e-02
3.636764128296584575e-01
1.082821526672137713e+00
1.163020479057189169e-03
9.758571875705073229e-01
-1.047824285855598170e+00
2.329622885330238369e-01
-6.304316726454958220e-01
-3.292624358316036393e-01
2.490530762205811766e-01
6.422452568093545144e-01
1.161756093569841441e+00
1.383579662238588304e+00
6.174338312241951510e-01
-1.275194860613661829e+00
-1.188068797802100507e+00
3.481716757919712801e-01
6.748437854767808108e-01
3.868568032463944317e-01
5.974239313544251750e-01
3.093060561296053779e-01
8.972396440492954595e-01
4.457647049524632865e-01
-8.837617378506649191e-01
9.177753253153356217e-02
-1.271322913960054313e-01
1.526243173160238553e-01
9.746814154837991628e-01
3.653093955567042195e-01
4.255045916020613883e-01
5.571212213632509291e-01
9.964799929465970596e-01
1.032028877419548074e+00
-1.295359486807715177e+00
7.436867274427669816e-01
1.018055836358073979e-01
5.708696497743780407e-01
-5.517678833831604068e-01
1.939928499271056150e+00
1.070819128687947375e+00
1.517359965997942872e+00
2.451645617845109593e-01
1.053068875982524188e+00
1.068760105648857817e+00
4.755782822371970586e-01
1.414534252044142848e+00
8.722744695341977383e-01
7.075068009752534248e-01
7.624549294733664606e-01
5.082492754337006868e-01
7.434256205642999493e-01
5.692594719956325378e-01
1.138497929618235982e-01
-6.159800913786556142e-01
-4.595125105371276608e-01
-3.082130123219646856e-01
-8.841983427853818134e-02
1.015376826372972746e-01
7.307588843961250191e-01
-1.111612380806136668e+00
5.666110304234756034e-01
-1.085567621692388740e-01
-5.003207991177659464e-01
6.076581357237710312e-01
2.320783918718923589e-01
-8.810537946356292727e-01
-3.206621532186282875e-01
-1.868664595676274853e+00
-3.292448344427055806e-01
-7.018926513613187312e-01
-2.063811708165997350e-01
1.422643216138255451e-01
4.469896791964133032e-01
-9.971645994290771753e-02
-1.249411530664705561e+00
-4.196528778532248594e-01
1.644385605159518704e+00
6.121520568228168147e-01
6.281925160272734399e-01
-4.818046499504465285e-01
-4.775715420229185715e-01
-4.405331049484034756e-01
-6.805686092054203939e-01
2.033560152465087312e-02
-1.301929059947160017e+00
3.144058469747835760e-01
-1.417476387492308254e-01
-8.439215618615022452e-01
2.111532148339346493e-01
-9.838234391655150679e-01
-9.280379502359155097e-01
9.310159162317461767e-01
-1.091842074242558080e+00
2.835831772624434199e-01
-6.602382454083631780e-01
1.152239662003131659e+00
-1.491110132408063615e-01
1.636806609297700443e-01
-1.365267674938415610e+00
2.887026162820391373e-01
3.772160211995183032e-01
1.545266015480347921e+00
1.165168185513384136e-01
-3.812461154214635134e-02
4.809871121784076164e-01
-1.751200704487822224e-02
-1.340941172153622629e+00
7.702647299067624798e-02
-5.993459563688310343e-01
5.525572899400692517e-01
-1.012249756297260994e+00
-8.892495377489455510e-01
9.551177829736677907e-03
5.717498045352096270e-01
5.148802288052952564e-02
-5.062147190193919816e-02
9.863202455522261658e-02
-1.078085283796993421e+00
-9.296632315922334078e-01
-8.733783368135713543e-01
-2.001947173745867836e+00
1.869443078815700432e-01
5.078827804354415498e-01
-3.015878622250820484e-01
-5.635547556742190878e-01
-6.732161613268451417e-01
-1.068426213086723087e-01
1.174755772856523189e-01
-7.315919367399490447e-01
-9.746453159698535706e-02
2.101008160186409734e-01
5.345549235715137959e-01
-6.827458919075323207e-01
-1.165980427422234067e+00
9.210556761444014251e-01
1.912379483907787059e-01
-6.030495721059605518e-01
-8.528991431895422970e-01
6.306237564846359778e-01
1.499159114917516800e-01
-5.356065354503636300e-01
-2.281052439077828342e-01
4.752921179960548081e-01
2.179175362839657903e-01
-5.384730418281224312e-02
-2.017898405852489863e-01
7.367911472202208767e-01
-1.077658527074114136e+00
-1.758009619542813873e+00
-1.104558726935261470e+00
-8.491342670337139742e-01
-9.240990910270315828e-01
-1.218281454457792901e+00
-1.849853057789678235e-01
1.466035921565517208e+00
3.248339425995097063e-01
-7.791773784696395255e-01
-1.463061221373670451e+00
1.211982714591430144e+00
-4.878923003191347647e-03
-5.271929484811167521e-01
-3.743663383026978736e-02
1.456447041574063239e-01
-3.248389078686398923e-01
-8.292949208904586422e-01
-1.094374094598035280e-01
-1.337998376315937266e-01
-8.774446015149636180e-01
3.384007719854143503e-01
4.326014214196134966e-01
8.744255838199914699e-01
-1.668613981888991127e-01
-5.430335961646477749e-02
-5.259389241924212754e-01
-5.759483299979358817e-01
2.376541026900316489e-01
-1.029893998655103532e-02
4.595168618598835519e-01
1.448462192798262604e+00
-2.489276065427714624e-01
-8.538826836607994464e-01
-7.323627760963173916e-01
-2.027793328857301625e-01
-1.522512387396842970e-01
-2.688750256228060187e-01
7.419055745860675399e-01
-2.951794293917893164e-01
-6.727233508573553511e-01
-8.551510724859612278e-01
-7.748127732262020118e-01
1.881987455167477563e-01
1.693452466152190194e-01
3.771100782577902488e-01
1.604893643075682608e+00
-5.411101997079184045e-01
-2.158115124413688413e-01
-3.873270992189472017e-01
-1.055339376566665210e-01
-7.871582905147077314e-02
1.394822094059197770e+00
1.607820758011462736e+00
1.906349735095331122e+00
-4.897481491329729320e-01
-5.395112435247849669e-01
-6.206476378967225038e-01
-2.815570503860813194e-03
-4.216081412234183867e-01
1.436435130560852702e+00
1.123733539262364411e+00
1.403608447462278974e+00
2.437541144061585729e-01
-1.717037130336047934e-01
-5.044369675999373914e-01
-5.155745082270254409e-01
-3.892929470504028489e-01
1.853359891785645863e-01
1.805570689330606160e-01
9.092062877492104178e-01
2.472227281643588070e-01
-5.392650048321785683e-02
-2.537414700386673716e-01
-7.636010701786567767e-02
-1.552998952054713000e-01
-7.665078533570631736e-01
1.574445638587864682e-01
-1.073256467153387850e-01
-1.196405047110852493e+00
-1.675393097275856835e+00
-2.364539592618531305e+00
-9.044334297819356383e-02
-1.321295284208575116e-01
-4.749742046905588988e-01
-8.427266385036336072e-01
3.091685089163379585e-01
3.385338416535085271e-01
-3.370145088635155828e-01
5.728949023079712433e-01
2.047158248723127405e-01
-4.180418336398826207e-01
-2.395731951554893324e-01
-6.359554474912704203e-01
2.150582066156241090e-01
4.254786918872514589e-01
-4.191543227703870694e-02
1.401685804418657089e+00
9.329582336994958203e-01
-1.704308125851994316e-01
-1.380309397999370802e+00
-1.545016498907531011e+00
2.397996859645671608e-01
1.183447603629731226e+00
-3.593444163456050583e-02
-2.820565671532762053e-01
-3.813992900700498984e-02
7.705266402493867739e-01
-2.607293341487218474e-01
5.067698694605191762e-02
-3.605514597539150046e-01
-7.951714779267989863e-01
-9.734356422847901813e-01
-4.548947726818761139e-01
-3.637755199542672124e-02
-7.209720206937120235e-01
-9.859271021642089794e-01
-2.144571360497039836e-01
-8.806726039369427994e-01
-5.514789643868114322e-01
-3.436028518087261285e-02
7.466098279161943463e-01
-5.608538658669883770e-01
9.655845859472447779e-03
-4.148515402370664962e-01
2.603199571759471365e-01
5.316661518757522797e-01
1.095547601969828255e+00
-2.315499637217664428e-02
1.052061557939803826e+00
1.981486476734819480e-01
3.640434304299103863e-01
-9.415390775993108807e-01
3.261484989613128715e-01
5.789024262064422777e-01
1.866108246813876104e+00
9.676674978187689291e-01
8.003934576992869365e-01
6.857223816293975815e-01
4.464181268750039289e-01
-1.215322062322255814e+00
-1.422069012100575458e+00
-1.146697849207876097e+00
-6.984772631685539634e-01
-1.131440344675950088e-01
8.460903876443561789e-01
-1.371376273512333599e-01
1.798719887894711100e-01
7.145239947023827032e-01
-3.675485929506417948e-01
-7.647865870653023368e-01
1.174747432533069125e+00
-5.337993530146641769e-02
-2.422777146092541523e-01
8.794876524443117072e-01
7.747402703472822116e-01
5.653974149147374950e-01
8.389721317917758769e-01
6.237577265091140966e-01
8.493730204442138110e-01
2.758635767660882337e-02
-1.156524476738153284e+00
1.219394273772866494e-01
1.648177540106452010e+00
6.855097648108249286e-01
2.214255174966391349e-01
5.592059280112494229e-02
1.414338336640589000e-01
1.398767382540332949e-01
-5.110136911250094949e-01
4.012652119898197922e-01
1.005428167045373966e+00
3.881993809498616166e-01
-4.299469481349492694e-01
-1.151011508412844497e+00
-4.655101204142932936e-01
-4.704251570408185534e-01
2.891780303515242290e-01
6.580869772843241094e-02
5.225337079624531311e-01
-1.076664912863420476e+00
-2.131861705694658937e+00
-6.364726998651371037e-01
4.244939479583711983e-01
-8.661444964057261053e-01
-2.838229426709312220e-01
-4.437523896474115381e-01
-1.743420378234093182e-01
-3.539556571236384674e-01
-7.941718222566919450e-02
1.036089409358796454e+00
1.584832224754453567e-01
-6.453692790397282941e-01
-7.704109055314282140e-01
-3.112900953067680443e-01
1.447376309538547678e+00
-2.186307385134526604e-01
3.144570418891338148e-01
1.229761315529926513e+00
6.875257733637497592e-01
2.388672656063698663e-01
-1.391416882361912633e+00
-4.976793204987683406e-01
2.699223807236561523e-01
-2.958576425122906861e-01
1.359137148317104860e+00
2.867081467201927358e-01
2.599863648504727731e-01
1.822889880377662761e-03
3.115793592913054244e-01
1.302410277228637225e-01
-6.885236219067846219e-01
7.965940625582251799e-02
1.090681402404516165e+00
7.428419036597678771e-01
8.132933033775696652e-01
2.580107696405573581e-01
7.014800088402937117e-01
1.437902310537616385e-02
2.336965689654793454e+00
1.994000197389855789e+00
2.187617519952528289e-01
-2.105455145253629090e-02
-1.181564797104771136e+00
-1.196052429173503295e+00
2.423738379334316184e-01
4.462652910226926339e-01
6.387986686376083689e-01
6.511577577670586425e-01
-5.100765725348471724e-01
-3.126274266500573829e-01
-2.965761594637530418e-01
1.843532167922935505e-01
7.292852520557897567e-01
-2.029763804808862593e-01
1.713269680934113914e+00
1.250147627878783529e+00
5.302994983639981452e-01
-6.276916509076283512e-01
-1.196903348330262407e-01
8.241723455250763442e-01
-4.561648809372282898e-01
-2.893517011244334247e-01
1.124690357438902666e+00
6.443685102200635839e-01
6.548138298490273346e-02
5.543354802711091267e-01
-1.726214745343190582e-01
2.673172203506349320e-01
-6.918412527408531743e-01
3.034368666815047688e-01
6.996430697550909406e-02
1.013244513508482880e+00
7.225518557492989213e-01
1.843218187070411851e+00
8.800755860045746115e-02
3.419047696094048017e-01
9.241056406620347385e-02
-1.352829098175766485e-02
-3.397436476855855148e-01
9.266760782072175351e-01
-1.041412615790351825e+00
2.085191989320024086e-01
-6.602801330405418676e-04
8.509795972164730937e-01
5.062037207333361932e-01
-8.891827919884100206e-02
3.866255501153045282e-01
-6.290510646979667886e-01
9.096199005045446651e-01
-9.704930039552973897e-02
9.114189585123666504e-02
-4.823954611742104492e-01
-9.949150228730441192e-01
4.059787486451456040e-01
-4.851588922385544622e-01
-1.143806921746405081e+00
-3.479849959298491058e-01
3.809339938691686522e-01
5.820034493214826243e-01
-5.224238739616807736e-01
1.223624758265415280e-01
7.014577276885790302e-02
1.746832943323340104e-01
2.454896198404245625e-02
-6.282847847647857753e-01
-3.111858948860384277e-01
7.270882796875364207e-01
1.867961534824653103e-01
9.027681482894869824e-02
2.765224546777008130e-01
1.478245662043810582e-01
-5.307922592214457946e-01
-9.013326799234999687e-01
-1.128167947967724238e+00
5.071246419469785938e-01
3.579299659779158760e-01
-3.148052494630888543e-01
4.289280234250782975e-01
1.710548378708511397e+00
8.219350912303912127e-01
2.633594796724937348e-01
-1.250200088397057652e+00
-1.630978973150480626e-01
-3.715549521476605443e-01
4.273247686040121396e-03
-1.642436820168674094e+00
1.158902784341104386e+00
3.396575554531820473e-01
4.879852075710289228e-01
-7.907282002584127278e-01
-1.485335953132509990e-01
-5.160217105430344071e-03
1.413572243232595893e+00
-4.088222525993324696e-01
2.101103486225714079e+00
8.025487559988283559e-01
3.039991541600583491e-01
-9.198588831635216012e-01
-3.961264312551614486e-01
-1.221862937401440918e+00
-9.883975148671462208e-01
-1.289525344109824778e-01
1.046683725945381171e+00
8.960163505797147376e-01
4.901896312426635149e-01
-1.515840949387633196e-01
-5.394416066987577363e-01
-1.146005405923067100e+00
8.401649555103989364e-01
9.240999837769289238e-01
6.153185074377335306e-01
2.986661305373566333e-01
4.416899647980133681e-01
-3.041274413121048403e-01
1.985140673022242341e-01
2.127378672423045625e-01
-2.414305588716575759e-02
3.427106027370526720e-01
1.140950795408604002e+00
3.514239901477440031e-01
-3.911763762794085442e-01
-5.833415654081738344e-01
3.997012150031405420e-01
9.862049292897148156e-01
3.476345537436985045e-01
-5.979167853925572151e-01
2.923139736618429185e-01
6.931197659320420534e-01
2.846124214515242667e-01
7.054235441835835507e-01
5.727150746986614527e-01
1.250163363527679428e+00
1.100736894511205488e+00
7.742714505192239693e-01
-1.285214201256399680e-01
-6.445854744788267476e-01
-8.751979905180627961e-01
-4.823666561246151563e-01
9.016603626708261654e-01
2.400352795386386351e+00
6.092594468008158959e-01
8.203479476721209362e-01
2.948121406171428927e-01
-7.680757275300998943e-01
1.097788774353192887e+00
3.727404716087708847e-01
5.983046003786393063e-01
7.165974566958791536e-01
-2.284284224927825291e-01
4.874201338881072876e-01
-4.338091773302236998e-02
-1.198665511570023323e+00
5.725651486082388164e-01
6.973139076889720567e-01
1.487587873640729308e+00
2.141100596602397987e-01
-3.674482903059273498e-01
3.885705971019022820e-01
-2.923976965423875640e-01
-1.956630972740266705e-01
1.607744232723651745e+00
1.273174334940920804e+00
3.853911631271424443e-01
-3.636774216971992990e-01
-1.303762823566728013e+00
6.679525042577306726e-01
-5.768303550926514450e-02
-8.625996626425255220e-01
1.252411964861395166e-01
-6.777091456631476052e-02
-7.247803236621893630e-01
7.241869576605688419e-01
-2.381140285956437896e-01
9.356711319744143163e-01
-4.591018224069475795e-01
-2.178673624890412400e-02
1.816316065366783972e-01
-5.435650128403005654e-01
1.737646555068679197e-02
7.544645242234371274e-02
-6.177189504362886469e-02
-2.548373352522094459e-02
-3.618780533927820620e-02
6.709604181591674946e-03
4.407090169478597996e-01
-6.089757711401856399e-01
1.663081106531783676e-02
4.604129524331513901e-01
1.994408320626480435e+00
1.201215019445612819e+00
2.117781674276733306e-01
7.672484614156035443e-01
3.085667754223257453e-01
-9.928347023139149075e-01
-3.022612005297542481e-01
4.819126206755273978e-02
3.135546262699090425e-01
1.497702427031208372e-01
1.623039940950043725e-01
5.836319011793988931e-01
-9.789560522922288177e-01
-3.508771330430937030e-01
4.624932977362100073e-01
1.297279008094211816e+00
1.302904247528264836e+00
-4.223989660446477584e-02
-3.975937105176534092e-01
2.690977356823756050e-01
-6.886662322857224350e-01
3.718758781504229449e-01
-6.677024493720498111e-01
2.721159823122787924e-01
1.204950000154312084e+00
2.777126269592198327e-01
-2.711762726594589903e-02
-6.998829289746061333e-01
-1.170676640316271611e+00
-1.636267621441957143e+00
-4.544467383671807470e-01
1.242357669464110526e+00
-4.077637764737459397e-02
7.959227215022033342e-01
4.321426504286224879e-01
-1.205758880818184720e+00
-9.816789742642307859e-01
-2.872655609059685311e+00
5.950165881872311602e-02
6.835331413730222350e-01
-8.439726978364991972e-01
9.198512434976949814e-01
8.202166515593106721e-01
-4.302347066570219036e-01
1.903924145797804002e-01
1.216711640578794079e-01
8.842779849901091227e-01
-6.135805356843769820e-01
1.093402086585864907e+00
-6.306774272335972098e-01
-4.720797687939312648e-01
-1.355154499163823578e+00
3.091149735753376260e-01
-3.413643283001028261e-01
1.959364425472745197e-01
7.067439499608101361e-01
7.835082112092002227e-01
1.124253212759085185e+00
-3.441271170506073340e-01
-1.228468042395999049e+00
-6.400343568403453753e-01
-6.685804426837027581e-02
1.952304955480365922e-01
-3.826133544002222747e-02
1.737586704762492884e+00
1.690712390305331159e+00
-6.408556674459738867e-01
5.151264539703949950e-03
1.595432456920059805e-01
5.510921180443670853e-01
1.049330492999366454e-01
-2.942846422184823285e-01
1.528119602194041082e+00
1.378140804629896188e+00
3.747202499200774084e-01
3.424515225847719613e-01
-6.604336032382772392e-02
4.551873715345964300e-01
-3.266912965156149040e-01
-1.168240477774266095e+00
4.942817921117341196e-01
8.077064120866377372e-01
-3.323349200338911874e-02
-3.323302461302860000e-01
5.482263991561004968e-01
1.136925492201330407e-01
-3.134760592830481696e-01
2.050474131214476414e-01
1.410872016843330856e+00
-1.327580670298951493e-02
-1.741029791023309681e-01
-3.131216479530575802e-01
1.203501202198166808e+00
-4.180918185211722204e-01
-2.376773600870643877e-01
-1.831902654598941693e-01
-6.632253599727336857e-01
-1.113911241665711316e+00
-3.007035501234506802e-01
4.024770137243386947e-01
1.377878509683065245e+00
8.700144077596333458e-02
3.254537078326580901e-01
-5.804141305783082627e-01
-1.261650071457746547e+00
-4.033231073303004122e-01
3.848523341995329083e-01
-1.534020730192370841e-01
5.849106019085437147e-01
-7.304801117995595172e-01
-9.375890299762154045e-01
2.958501049800131288e-01
3.931529922489790385e-01
-7.989991132921530070e-01
7.271883892178991615e-02
-8.248267257350964110e-01
-8.629835586127463376e-01
-5.680101735047421441e-01
1.150386748806825121e+00
6.064245683525495423e-01
4.327051262457140557e-01
3.305195762644927426e-01
-4.037664788961420892e-01
-2.388242517457548897e-01
9.582270661073463702e-02
-1.212867112548737802e+00
-4.542907817762590339e-01
4.626904639826756940e-03
7.247466278712695331e-01
6.742542034135476925e-01
-6.241982130382272009e-01
-1.243173570417931639e+00
-1.398470849485738743e+00
-1.036302551160909191e+00
-1.964894483107303413e-01
-6.541960914220251722e-01
-8.343518351451689741e-01
-2.157467790938538410e-01
1.731304526032574342e-01
7.800591428868985933e-01
-7.005397964803142252e-02
-4.756432599027918817e-01
7.175577973701153800e-01
1.256627401903740449e+00
1.898954397349442436e-01
5.870037211099494723e-01
8.518439550068427485e-03
1.617229813356245494e+00
1.526482652225718661e+00
3.461247776790952746e-01
3.306951031645478656e-01
9.879027068912683562e-01
7.673120076140820256e-01
-8.117968031875315571e-01
-1.552378708376997429e-01
1.094265694540315303e+00
7.339709272396039985e-01
5.419804994032563217e-01
5.754335175964782056e-01
-1.426042778338314776e-01
9.199327620370372216e-01
4.692475241762097959e-02
4.507537748159570201e-01
7.930951461178526243e-03
-5.173768286221442914e-01
4.396944417690388240e-01
1.398264961420800256e+00
8.989270227196338725e-01
-2.395294106681547519e-01
-1.793510070152475877e-01
6.715506372759638687e-01
-5.238261719643955150e-01
8.877018656177321221e-02
7.477990351415541026e-01
4.004910365203689371e-01
1.106074331194285998e+00
1.034466528633428972e-01
1.170039288701288094e-01
2.227581988281373437e+00
3.716333305314565849e-01
6.021687490587253055e-01
-2.617030421771008863e-01
-1.161884636160385842e+00
-1.075617640661607588e+00
-3.871467584607677370e-01
7.585467332905945215e-01
3.697665779041295897e-01
8.539195104086144683e-01
9.606975974142206720e-02
-1.353487466583581211e+00
-2.720428733989782799e+00
-1.695981153496904481e+00
8.644247613293891686e-01
1.021244809764413786e+00
1.349433975843114530e-01
6.817507183797417991e-02
-5.673379754624784388e-01
-1.315178734960741058e-01
-1.077707127566277290e+00
-1.147430460611837955e+00
8.192493748092674055e-01
1.636164804836651998e-01
-5.457570493568677517e-01
-2.218860200234487878e-01
-1.584188490317493814e-01
-2.640173139542128511e-01
-1.034225206452659140e+00
-8.260556728602258536e-01
-3.737293326164646823e-01
-5.191529074013937484e-01
-1.118774033449354111e+00
-6.532906073278320347e-02
1.793033505358746782e-01
-1.452320542293705496e-01
-2.963978624181388688e-01
9.025305756893604592e-01
5.124641804943475681e-02
-3.539577621463602664e-01
1.023149082814214017e+00
9.486797371775938792e-02
3.878728279030658338e-02
7.677934443828624556e-01
-3.715515257198657162e-01
-5.604770008761528199e-01
-2.710258874593446388e-01
3.819214232739631676e-01
-3.416792484169934863e-01
1.360978229338390480e-02
8.257762333914224762e-01
5.267467873640450104e-01
-7.381558441429169060e-01
1.022874736063331957e-01
9.426177426638885359e-01
-7.678211911582335548e-03
5.455285746048949003e-01
-2.505264136923932017e-01
5.315400643421716032e-01
1.435050856689356058e-01
-1.024716270908270888e+00
-1.699870469941989204e-01
-7.022366300564555353e-01
3.694454351032319117e-01
7.714362721383243304e-01
2.620466292334859282e-01
-7.509073085911177614e-01
-1.232168649902278368e+00
-3.503702789696938602e-01
-2.602879518993861385e-01
-1.091585180101286023e-01
-2.952126614671059524e-01
1.068098798159684559e+00
4.057330869224327619e-01
7.458626734952196469e-02
-1.046893928009714037e+00
-3.658537727597549472e-01
5.692019500328248105e-01
-1.657220730899044092e+00
-1.031033426485566062e+00
1.125702735472347671e+00
2.562663127266904817e-01
-8.886301223995802800e-01
-8.451138653648301302e-01
1.103199920518820182e-01
3.599832097699197098e-01
-1.094175446245522210e+00
-1.108327380113732108e+00
3.924874219686029786e-01
-2.907076006305965854e-01
-8.087681792994476648e-01
-1.424221614160797178e-01
6.973132675669988512e-01
-2.807194974133161436e-01
2.010671804387668127e-01
-3.562890319749543178e-01
-6.793956781547554336e-01
-2.654470932744865674e-01
-2.289365948306797960e-01
-2.491553903776640502e-02
5.794993705245288229e-01
-8.212303481122132931e-01
-2.740582556771450351e-01
-1.137916369552120166e+00
-1.111427825295184524e-01
2.952723396008209988e-01
-1.439333007044503177e-01
6.465617611158605560e-02
-5.324368403723949150e-01
-8.113741295265836095e-01
-5.276456766062758152e-01
-1.175681081995368027e+00
5.481347325651240165e-01
4.624428574551178728e-01
-6.423115935790268960e-01
-9.032259301601991419e-02
-1.772566101869803845e-01
2.707636551738304420e-01
3.665808870970098110e-01
5.213109584406551145e-01
-7.384675483123048778e-01
5.566688832437380885e-01
-4.948358757474766167e-01
-1.599442182787317979e+00
-1.681908097059875429e-01
1.655701091332447916e+00
1.759807233164647933e+00
1.336401759705189818e+00
6.725280548014753723e-01
1.118421530853031420e+00
3.756975248164540898e-02
4.493468620009554160e-01
3.596135887087132388e-01
3.437882100357158022e-01
-8.851661421385847994e-01
-9.195260603357794382e-01
1.990206732898998077e-01
5.429823177402752776e-01
-1.205605427106731381e-01
-1.619296169527139617e-01
-7.787036303467552711e-01
-8.448989298346664123e-01
-6.198996920471143701e-01
2.588115266431018080e-01
-4.584359457952921213e-01
1.819891435701629645e-01
4.457711205340530447e-01
8.959876237635669982e-01
1.054245704676660234e+00
-3.732406311830498147e-02
7.730939059687406134e-01
1.661435045307411706e-01
-7.658756260438623897e-01
-2.481349635777518325e-01
6.103881301248589297e-01
3.106484232447829785e-01
8.789262244379093536e-01
7.014175582559981081e-02
9.441550106031501022e-01
3.313949819165779576e-01
-9.287284590227244951e-01
-6.311313962756237572e-01
1.193222920468492987e+00
5.907290832507503531e-01
1.961629936346517278e+00
1.087189539632153590e+00
2.009701059665643108e-01
-1.653416748096040167e-01
5.067871814030444622e-01
-6.942852229859001190e-01
9.565102689089031995e-02
-1.082758747360536233e+00
-7.458924203844867762e-01
-3.198727231059729781e-01
2.081843996371399996e-01
-1.805884543701122280e-01
8.161477605226090670e-01
1.131031619347355077e+00
1.415062910798164098e-01
-2.095679196530392252e-01
5.337053012550714293e-01
-3.093081340040919058e-01
-4.238423691127160553e-01
5.783367697505877036e-02
1.615412243004675785e+00
1.672578671515474236e+00
8.605648636811730201e-01
-6.437066255553237637e-01
3.914161580759072945e-01
1.362804214222320398e-01
-1.978027954376013475e-01
-1.141410380978462369e+00
-5.771148018349542497e+00
1.423433572827284443e+00
-1.026029782034562965e+00
-3.611714259506254798e+00
-9.545844909401289824e-01
4.240920813873231415e-02
6.773934174499898209e-01
-4.008554614118988724e+00
-7.014764541467999326e-01
3.868692305037005674e+00
-7.113965564953312892e-01
4.421645558592717684e+00
4.432670236167060573e-01
5.817736260566034323e-01
-1.360456970888035411e+00
4.652670134147837144e-01
-8.895804020257404021e-01
-3.535678996116723427e-01
2.009579173357036730e+00
-1.776594301281234634e-01
-2.501030198205831834e+00
-7.567587298570029875e-01
4.356139722162812866e+00
3.100951386313950398e+00
1.304633232549476052e+00
-3.747049815953296559e+00
5.611033808325804895e-01
6.132190318740401991e-02
-4.010945393429837580e+00
-1.998996694368847304e+00
2.875347281586243309e+00
9.368380808336204679e-02
-2.854321891021421642e+00
-3.687772868286618433e-01
2.770415656631294521e+00
7.102275800677084749e-01
5.580422896516034292e+00
1.711749431359286699e+00
-4.171275491812289626e-01
-2.289775212541274918e+00
-2.391725760340555507e+00
1.063917773563281211e+00
-6.757171888038268071e-01
1.476985933515953642e+00
3.252538594723048959e-01
-3.585471206405709932e+00
-2.135021303293411332e+00
3.893727048643933042e+00
1.953831823630256315e+00
3.286951384194280124e+00
-2.413221289028648187e+00
-2.077501189639871793e-01
4.826208546727748794e-01
-1.399356137436160941e+00
6.417504718557902610e-01
6.826325380118169583e+00
-1.123495428718861433e+00
2.226541472576971659e-01
-2.949171004189664602e-01
-5.278009315863213535e-01
3.339568410226944728e+00
1.944708940084499238e+00
2.172144448742947542e+00
-7.573535540596287863e-01
-1.734567430920900932e+00
-5.162173210595537576e+00
3.135705679489527942e+00
4.832571694666059070e-01
-3.253314394429572820e-01
4.761192292543934418e-02
-1.563700823237159643e+00
-2.611255680823800773e+00
1.117317341106825790e+00
-2.487190678537848587e+00
2.235357638944966308e+00
-4.848120334688934996e+00
-3.218690732221751727e-01
-2.240709214641310787e+00
2.757605709053622789e+00
3.797528446193965124e+00
6.142790270659950203e+00
-2.914241358262151804e-01
4.157355371548803746e-01
-3.163279640872370679e-01
4.165345524191605420e-01
2.856830336315358654e+00
-4.710066207012384432e-01
-9.848380313776339268e-01
6.438907135968974238e-01
-7.466108065570824515e-01
-4.205026096641979905e+00
3.725970607609772056e+00
1.643342127284191045e+00
-1.916447816173296737e+00
-1.141904112994777121e+00
5.055976116725654501e-01
-1.504596419900974480e+00
-1.032573417583871223e+00
-3.846190802250853302e+00
5.198596829739769998e-01
-4.840986989208342806e+00
-4.950015151684879489e-01
-4.175103263574618140e+00
5.039536447860506918e+00
1.540621388574765493e+00
4.141867057549087683e+00
7.550256127455559074e-01
5.452158147087868972e-02
1.735913352831754131e-01
4.199238234346758247e+00
-1.067168060900206328e+00
1.407354629819673297e+00
-3.469046485794354151e+00
9.616368005305379052e-01
-2.234994945821890511e+00
-1.419188873084056723e+00
2.415963652905541270e+00
4.982410410524628075e-01
-3.607042672040982612e-01
-7.598627325401816623e-01
5.446208774680827425e-01
9.896494681069825106e-01
-5.160800022444630208e+00
-1.265506246210024166e+00
1.471687942489447766e-02
-1.897154339972147996e+00
-1.924435980189950657e+00
-3.417532885847664126e+00
2.679037204602730426e+00
-2.735238950703756000e+00
2.912675181721589457e+00
8.135505988446324332e-01
1.407572711466372528e+00
-2.932390410754280863e-01
3.209342640129824620e+00
-2.080809245925034912e+00
2.900431425327112400e+00
-9.231521864574455671e-01
-5.672863720075106420e-01
-6.085157247855703666e+00
5.443793605961530502e-02
1.239985094065841897e+00
-1.084675970612057894e+00
1.260626585871104988e+00
1.868662016876544207e+00
1.794188294172420983e+00
2.290698911367727852e+00
-4.432248254926101971e+00
-2.971959213130916932e-01
-1.369364093423043549e+00
-2.022572109352640535e+00
-3.665295022824921922e+00
-2.403555931315098260e+00
-8.238033520801495424e-01
-3.573081942927416321e+00
2.115281515542337232e+00
7.721465224649617376e-01
8.295150560102509951e-01
-3.302104123775823630e-01
1.590895591988175650e-01
9.463336632007860461e-01
2.405135456590078213e+00
2.988407858123274252e+00
-1.511670829275302053e+00
-5.211624332574609220e+00
1.013504814500901352e+00
9.618140073771141996e-01
-1.106566363569682299e+00
1.265488620871053072e-01
2.974650058017672904e+00
5.383975114152844021e+00
1.868255661100219678e+00
-1.746112627100275538e-01
-1.603524837560114324e+00
-3.225197274212635801e+00
-3.545965699218734279e+00
-3.403190866794130187e+00
-1.600214335126449505e+00
-1.858212333423825857e+00
-1.724400934818270281e+00
1.886589990387173676e+00
4.291793442515597357e-01
-6.150160660835989335e-01
9.712036310919479609e-01
-6.723566204551623127e-01
2.881903128809435000e+00
1.593273550973010932e+00
3.560360782671843971e+00
-1.881901770217091041e+00
-1.558270509925222536e+00
1.534388546983384671e+00
6.001960042960645669e-01
-1.682585011758426230e-01
-5.636854045917807365e-01
1.405629614354877877e+00
5.406378624200529615e+00
1.515820495464762052e+00
1.417032727339574638e+00
-2.122495284775920865e+00
-2.810412161236173212e+00
-3.805592309194575140e+00
4.385616674396869974e-01
-1.896490271686011919e+00
-3.998147701724419800e+00
1.139030040907513586e+00
-1.356118256565250313e+00
3.613176938923364223e-01
-5.205467875247331122e+00
-6.170752325793807946e-01
2.560569308493297669e+00
8.651894460575985935e-02
6.247846902833436467e+00
-1.315109818695812338e+00
2.970688876270577428e-01
-8.518456258431323924e-01
1.782139756293037669e+00
2.542761177377174331e+00
-9.627132393829327395e-01
1.876205293030028143e+00
4.652653019825593317e-01
-2.563451375693257539e+00
-2.087977714609452473e+00
1.832321431159101399e+00
4.450282055141006943e+00
9.736522897095565288e-01
-1.414232125042532706e+00
-2.505702995137917832e-01
-2.438717665692858028e-01
-4.374249371574479461e+00
2.405007320035072033e-02
1.532171331549601057e+00
-3.332041812332342534e-01
-2.454907698437620134e+00
-5.515719172617690180e-01
1.574009595692516528e-01
1.995371788758230291e+00
8.452128794027755632e+00
1.511512577064587082e-01
-7.885787908709449567e-01
-3.053226549460771100e+00
-2.122274374305941902e-01
4.851179246803301481e+00
-2.029341142555467048e+00
1.185303845965008263e+00
1.029944857307629968e+00
-4.239431802111545800e+00
-3.470636994377966467e+00
1.845779512831280389e+00
2.198286163474690635e+00
2.717889017950050334e+00
-6.402898623924496713e-01
1.078441641903522957e-01
5.635650304330536153e-02
-1.187216396011857134e+00
1.320935813873655107e+00
4.641963902599997027e+00
-1.038471647933046471e+00
1.911986249320796416e+00
-5.920242905515499254e-01
-3.913039576355140881e+00
4.963270168868030296e+00
5.242654801898143369e+00
1.462198484607245774e+00
-4.621802255955201333e-01
-3.092767313425714537e+00
-1.960748914669381726e+00
4.911780554560816192e+00
-1.154894992654222907e+00
-8.543922460160277010e-01
1.604087311967667406e-01
-1.860816116426720512e+00
-4.144531565714984822e+00
2.930483863115712073e-01
-3.099082005515779503e+00
2.105715938268744480e+00
-3.687227998351126246e+00
9.044126688227002164e-01
-2.731352498033721599e+00
3.851821905325543138e+00
2.258415685069905088e+00
3.291201406560653631e+00
-1.003837218213458754e-01
1.587017555381207590e+00
-3.273093889909844401e-01
-2.330618030516877326e+00
4.840693837277664890e+00
2.704551354449218348e+00
-3.676248383784743168e-01
3.004527844505480605e+00
-3.341883152960319903e-01
-4.901316871688820576e-01
3.004480694380334160e+00
6.719513363112816773e-01
-1.553030263376611320e+00
-1.943918383176643783e+00
8.770242656558094874e-01
-4.176489786830067885e+00
-3.492130915803754565e+00
-4.308836200979414777e+00
2.609167103559555390e-01
-4.169046475645926009e+00
4.720065650125120915e-01
-3.415076341708161767e+00
6.885911397737285000e+00
-1.827637497232649455e+00
1.998633673340783012e+00
9.686651223644981989e-01
-2.611994314679729201e-01
-1.275584439107782242e-01
2.656609340295494892e+00
4.507855564978550666e-01
4.030597007877459781e+00
-2.423864965679788153e+00
2.880381464792833413e+00
2.370736156993210053e-01
1.697852549641997610e+00
3.673151035556563859e-01
1.397097322233859851e+00
1.714592364362493848e+00
-1.524066632992776782e+00
4.707041847329049844e-01
-1.447594177490185263e+00
-8.160447509767726260e+00
-2.065701998338588474e+00
-8.517847832740818026e-01
-1.549380590116147705e+00
-1.534645364184184402e+00
-1.161310905905737600e+00
3.567946055032313435e+00
-6.320420605564586403e+00
1.911673123102390015e+00
1.106066851928295680e+00
3.879605282760034135e-01
-1.230406668677782589e+00
2.487012337800184270e+00
-2.431446159618502190e+00
4.451416466949197570e+00
-9.630231288627272290e-01
-1.167465601123436336e+00
-1.901404823228671548e+00
8.749404480119824523e-01
2.245050659066231274e-02
3.615747067590841524e-01
4.358154060472765323e+00
2.299453962937405116e+00
1.688881629380680316e+00
1.463741277848167044e-01
-5.512252131951884238e+00
-1.644854232190651633e+00
-2.042866315595158522e+00
-2.709553944899497413e+00
-3.257433245518111420e+00
-4.560656780993684878e-01
-1.226352246251501299e+00
-5.496483845156156178e+00
3.303794850963597263e-01
5.938320472377696113e-01
-2.557849270501936778e-01
-1.161635182386054677e+00
-2.451630554878941881e-01
-1.114055454530459954e+00
3.487090243894716668e+00
1.418421864415904121e+00
-2.452797392084623773e+00
-3.220373335530244963e-01
-2.447832170403525451e-02
1.327884476067269448e+00
-1.543515983151341475e-01
2.212247237542127820e+00
4.715856265431263239e+00
7.114370071818376218e+00
-1.076889364674169375e-01
4.483704211031804276e-01
-3.798667911890315718e+00
-2.224787922296949105e+00
-5.129915197376858416e+00
-2.961461722509165284e+00
-8.760872611770794682e-01
-3.195119111016002655e+00
-2.017133308455300700e+00
-4.324925998113451353e-01
-3.399797240067313660e-03
-1.355336568663398911e+00
8.825969234170256694e-01
-7.662016385879947267e-01
8.060520749443779165e-01
2.203725203996826920e+00
1.747049657947050250e+00
-1.853898780320745399e+00
1.668561043570284230e+00
7.092550484168195224e-01
9.459849902708652447e-01
7.567980495363498816e-01
4.581966651073573482e-01
2.581347447290019748e+00
7.706738785950742354e+00
3.621902520679745052e-01
2.695268806853667876e+00
-4.239329444861618335e+00
-1.004237864353971332e+00
-4.588851561142930358e-01
-1.496387631479199731e+00
-6.245940180059575964e-01
-2.506835996172999792e+00
2.558261195375904240e+00
-3.029400462799449301e+00
-6.964217341155357066e-02
-3.189556127909040306e+00
-3.300423470226404588e-01
1.171064708593136716e+00
1.031780686933624569e+00
2.647216579405979431e+00
-4.114473236528883859e+00
-6.967465691165440900e-01
-1.760608833515918903e+00
4.629200167431206658e+00
6.856866898625200157e+00
-2.431373234024933050e-01
1.164783948136550507e+00
1.092010056929247241e+00
-9.345659325423610886e-01
-2.611177571185671287e+00
-8.851162390036672045e-01
4.595944889818079915e+00
-1.145042404621058330e+00
1.145207034736959395e+00
-1.716479224269095383e+00
2.493496006895703054e+00
-3.353412614662360181e+00
1.008143714042404993e+00
-9.988540357692270444e-01
-8.715015741759881696e-01
-6.822546232770517784e-03
-5.060031200133724427e-01
-1.268734163612486698e+00
3.014199373350197053e+00
4.544392017812966422e+00
-3.829162031336855954e+00
-1.505650655089907586e+00
-3.885170898389266991e+00
4.294658800768562656e+00
6.941614615105974551e+00
-1.895923862388934289e+00
-4.544723354874005000e-02
1.308850192604546159e+00
-1.656787577910310727e+00
-3.413869417220787295e+00
-6.808658109023579819e-01
1.809510694645887430e+00
6.884631687064878269e-01
8.521445088118128064e-01
-5.157943226836532169e-01
3.441225685726311934e+00
-1.142360368747296295e+00
-1.863387006466266926e-01
1.626210014476575649e-02
-7.745663360225742977e-01
4.197241814667387771e+00
-7.301945589608600518e-01
-5.710848277447510668e+00
5.804918748751403790e+00
3.645034201686674802e+00
-1.412348401350057570e+00
-1.494038833298634850e-01
-3.676576744134215424e+00
2.969414584192908713e+00
2.395140425326771627e+00
-2.753183068842600001e+00
-1.246873891361308440e+00
-9.570183155064176939e-02
2.998133887505667894e-01
-4.112909521433184779e+00
-9.672164705456987033e-01
-2.689638015238548174e+00
2.562056393774444718e+00
-2.198116103855855652e+00
1.326144689017570766e+00
6.860810802188287427e-01
2.656622960145443635e+00
-1.677994911487759921e+00
-2.157531797387802097e+00
-2.237502774561195840e-01
1.453827086912038880e+00
-1.740855363922985122e-01
-5.000832995450642748e+00
5.985634117937917331e+00
3.425471294963938096e+00
2.029905824481863796e-01
3.627691580346223077e+00
8.036556517699628976e-01
3.650876186334728768e+00
-1.412162637386908504e+00
-1.509251045487578491e+00
-5.315011548261618923e-01
-2.495718507310065171e+00
2.352792337867367412e+00
-4.073948269083190965e+00
-3.377637391636005848e+00
-2.416269124679907510e+00
2.216645934080150759e+00
-2.209765949825607922e+00
1.066335938998192789e+00
1.304489112301760345e+00
5.260260139365476206e+00
-5.071705119467364575e+00
-1.410266775250736959e+00
1.683280037256887351e-01
-2.592014362862625099e+00
-1.352174331810289398e-01
-1.319918529152503073e+00
1.989161155986738816e+00
3.623365061596238945e+00
3.159379489361496263e-01
2.446995456279435821e+00
2.995284042727511586e+00
3.933913252289752194e+00
-3.201014518467465209e+00
1.071577534530140818e+00
4.421113540454078894e+00
-1.580065315150943173e+00
-1.481407988439273002e-02
-1.780983362640780943e+00
-6.854873165223059672e+00
7.925151982362337033e-02
7.924799771168690166e-01
-3.220104567982617905e-02
-2.024057929246309701e-02
3.135607340260208709e+00
3.214324818412185980e+00
-5.764624841290633128e+00
1.059548257704782337e+00
-6.372225485948072865e-02
-2.429445201635555662e+00
-2.439621384824604000e+00
-1.979371503303833713e+00
-2.064684233350439158e+00
2.370390084951851772e+00
-3.069491422715868167e-01
-1.709839699192238660e+00
2.083581692326399004e+00
1.935555258734405482e-01
-1.219156247280629213e+00
1.571801778751729772e+00
6.902146113617480871e+00
3.010395546339093897e+00
-1.961411964373110939e-01
-7.894514724877260692e-01
-4.220339523822026706e+00
-3.225810995595292802e-02
-2.223171741044523420e-01
-1.917597201660774520e+00
4.835575307009229995e-01
1.476201067877783268e+00
-4.761054479967353203e-01
-1.874134610900144660e+00
-1.908510047396324294e-01
-3.632535274530949154e-01
-1.627410868430535285e+00
-1.892558485433645910e+00
-4.247187932295736879e+00
-3.191360370322923412e+00
2.246827337113539880e+00
-1.832601216952750356e+00
-3.390777943265749883e+00
3.584374075028707196e+00
-1.832685906949097498e+00
1.480343161800478979e+00
8.028229728431628409e-01
4.604787261597041770e+00
4.836133309620642251e+00
5.392826335185557873e+00
-1.299775462423905292e+00
6.091791265490836826e-01
-3.092489792400978654e+00
-2.511364552591421329e-01
-4.521084952012290437e+00
8.191441871910222217e-01
-1.897951200989091980e-01
-2.096921015321540516e+00
1.185575898715280019e+00
-1.502798788243661310e+00
-8.210406468366132637e-01
-1.636530425017173718e+00
1.191819649608327758e+00
-3.177818996597692180e+00
-1.988345741958738921e+00
1.367128357280030793e+00
-2.339395428340376615e+00
-1.638975169652796771e+00
3.950074026206609190e+00
-6.812079513812715481e-01
1.798267595162245325e+00
1.006135340996642702e+00
1.955342997733173105e+00
1.838754692209874753e+00
6.612159383119951883e+00
-8.009785821290775765e-01
1.698489827536411978e+00
-3.606362710690924622e+00
8.807850147121260020e-01
1.751040851206257520e-01
-3.361783099410972087e-01
1.902815680893771066e+00
-1.495515976191951424e+00
1.475725849273203626e-02
-3.552459325441402527e+00
-1.837606754690780164e+00
-1.738106356851646384e+00
3.382605967103229083e-02
2.359104934444762769e+00
8.009420142526868513e-01
-1.099010343817536040e+00
-3.605405831378851733e+00
-1.424914768479134786e+00
-1.328026131601643733e+00
6.569608406132068978e+00
7.936529581970270364e+00
1.695241495467044279e+00
1.583273688057888207e-01
9.276198138627319567e-01
-1.594272436338210752e-02
1.085984089309997014e-01
-1.632223775029938206e+00
1.369192887343321452e+00
-2.841953014813548339e+00
4.744085158263218471e-02
-1.539655273352755316e+00
6.703497644572585124e+00
-2.479437839072386129e+00
-6.434561683947317423e-01
-1.712175240746421467e+00
-3.695431260994058942e+00
1.550027475466809745e+00
-4.017311037556691722e-01
8.064214651514008958e-01
1.554711014368465927e+00
1.623095913190438777e-01
-5.436298354973875036e+00
-1.479040638799811180e+00
-3.062980877537844204e+00
5.255208508739822371e+00
5.645031411323318871e+00
-6.791998091895255774e-02
-1.208362722240615694e+00
1.001883432982643818e+00
-7.203953036941317112e-02
1.895126825744789967e+00
-1.294320275197932357e+00
-9.529683000782001034e-01
-4.493578462335657275e-01
-7.286121550367138378e-01
-2.146224499743887293e+00
8.387646677617052404e+00
-9.487958643362979227e-01
-8.043848322420551478e-01
-1.534052730347339022e+00
-2.503335296052674686e+00
4.082417894389376301e+00
-5.727906744081617818e-01
-3.412673627826262823e+00
3.673314583968866565e+00
8.030769981357958054e-01
-3.847820225131822536e+00
4.688760691207221054e-01
-3.083578861412293648e+00
2.021272709830931991e+00
-1.049812658431844986e-01
-2.782625989116913168e+00
-1.606994944317216456e+00
-5.293456014803963328e-01
1.181604399446553710e+00
1.307265105028931451e+00
-7.271630966538432661e-01
-2.982527775046423191e+00
3.622158372502405133e+00
-2.185362218883888819e+00
-7.636840858763480622e-01
4.469200403887302109e+00
1.969890019847708063e+00
-1.683553631175056520e+00
-3.745364731234328559e+00
-1.358023131308531806e+00
-4.500608213345461683e-01
3.430030875780681332e-01
-4.889199115542692375e+00
4.677686439581268729e+00
8.115811118696454329e-01
-2.762684072568770133e-01
2.510928261307583398e+00
6.742971950506931877e-02
1.194703670102326143e+00
-2.851407614918307853e+00
-3.074425791999602087e+00
1.723503172176762410e-01
-2.498868554230644357e+00
1.649551516314841981e+00
-1.562027930252576913e-01
-1.942537659126590599e+00
-9.147279392599864112e-01
5.804178178793501175e+00
-9.829312106054068909e-01
-3.178935979393140432e-01
3.344451810943770198e+00
4.340345661612455608e+00
-3.247561275414071691e+00
-1.600594537534430373e+00
-1.396788566110091834e+00
-6.378933642421626082e+00
4.640568641521199411e-01
-3.307236655100253664e+00
2.634526315526936724e+00
-7.946463328269587345e-01
2.191401070063931478e+00
-2.369865829088732834e-01
6.981019643568889821e-01
1.030925832365925832e+00
-2.160436390084052416e+00
-2.503816381332724661e-01
4.553864775705972257e+00
-9.877150844812552233e-01
-1.115502427541619879e+00
1.486855935658711658e+00
-3.527675483350888097e+00
1.830859631104097218e+00
5.117859184264370143e+00
1.636870012323916823e+00
1.031998235400285235e+00
2.508184970291893023e+00
2.958425092901197484e+00
-1.588985986642311499e+00
1.315359085212499890e+00
-1.824739858780418222e+00
-5.490841509708989321e+00
-2.401009663072361633e+00
-4.032198619926047556e+00
-1.019399923873310632e-01
-2.185995355081359115e+00
9.439463996681002333e-01
-2.987942115172218305e+00
-6.274153178473188541e-01
-1.047339875007882837e+00
-3.489537305760722630e-01
1.325429382120594912e+00
6.487924245222312258e+00
3.723317683109170328e+00
-1.577871068189226067e+00
2.284290046751593639e+00
-1.683307535094922036e+00
1.075303443161912176e+00
2.851601651550057959e+00
9.836119736977267936e-01
5.580961847243432139e+00
9.239430539185218560e-02
-3.474659379259473768e-01
2.416228726405989402e+00
7.155445346435277409e-01
-1.438066484604443085e+00
-2.739616310949208877e+00
-1.488654448304861821e+00
-5.739856204341758250e+00
-1.893920633230825601e+00
-5.597707296152857337e-01
-3.228418638727339474e+00
-3.169822149307650161e+00
2.822447619361905802e-01
-1.278484080675696744e+00
1.028921504850323076e+00
-1.789121069185654611e-01
4.135170972574700343e+00
4.571199954858639281e+00
3.025861726892074444e+00
8.499303379547163972e-01
1.242726678205614277e-01
-1.509485975602788743e+00
1.210605913687224477e+00
-1.770745885007535936e+00
6.282128883856041845e+00
-6.211682030742632366e-01
-9.843142268877316248e-01
3.794455529527624105e+00
5.719637215236118497e-03
-5.517774536228630122e-01
-1.786994353396964330e+00
2.802766688119890492e+00
-4.553035976979323607e+00
-2.892970059420413076e+00
4.691323839954203989e-01
-4.651933235688908042e+00
-1.405956536054898676e+00
6.324069682223956157e-01
4.422774723572254763e-01
8.907548729411630672e-01
-5.642707251020141479e-01
2.377790170953058446e+00
8.003336810310495153e-01
3.798072321693057418e+00
2.512721535338499623e-01
6.440102188396319705e-02
-1.972022529943392000e+00
9.830111062586560644e-01
-2.112961164525922086e+00
3.824174857479846867e+00
3.207164499724491691e+00
-9.119805994609742061e-01
-4.291105578129234210e+00
-3.268420339722005519e+00
-2.928486765313462747e+00
-1.328477351019500707e+00
1.427684489254354705e-01
2.475192832662381548e+00
7.318103408924318820e-02
-1.182529756051867276e+00
5.032214597502926434e-01
-5.112915459911719918e-01
-9.713451287022834002e-02
3.665245988157806778e+00
6.412128907468982675e+00
4.745933197771265988e+00
-1.033425807497094118e+00
-1.712590453102338373e-01
-7.567579231489426350e-01
2.398179278144480175e+00
-4.359116852078669391e-01
-1.409587747672769842e+00
-2.641047106787317134e+00
-1.839586672946430523e+00
2.667474351881327088e+00
6.393949567312170679e+00
-1.597198744655573766e+00
-3.319609227215241987e+00
-2.064479501715701382e+00
-4.738158703833486030e+00
1.010276991400513857e+00
-3.719439588811737640e-01
1.236052959927264272e+00
-1.270657747829670114e+00
-2.622040316894739820e-01
-1.825624700314383508e+00
8.401446482329526511e-01
-1.922767203002119230e+00
3.063264608964318403e-01
5.224834383605363897e+00
1.957967787795709791e+00
-1.951057926141957166e+00
-6.889912449070680900e-01
7.992191765638616274e-02
7.206483999480903790e+00
-3.374842955439691372e-01
-2.177738794284704404e+00
-1.699306077206084620e+00
-1.720181980469688288e+00
-6.818445821429663933e-01
6.489072144579335344e+00
-7.101336665788272606e-01
-3.159489338339444703e-02
-2.244477836744962040e+00
-3.798672198109404263e+00
1.880343593115711087e+00
-3.235594931021620879e-01
-1.572748349930499501e+00
5.246564406165827865e-01
5.606006763593058828e-01
-3.383683070209854815e+00
4.390029355354056584e+00
-2.758753821763375136e+00
-3.450450081354277998e+00
6.158573455405810249e-01
-1.734314475549238566e+00
-6.352621851447859402e-01
-2.268408719470810020e+00
1.282451214858331578e+00
6.440261711884594398e+00
6.799498109135028168e-01
-2.325973998004209342e+00
8.842768489730103987e-01
-2.886481882519225106e+00
-1.769988313055276929e+00
3.289690005779421167e+00
1.849016751354801480e+00
1.780400148647645286e+00
-3.709044517751287184e+00
-7.637443898918107044e-01
-2.071692331051381064e+00
6.437700626085061106e-01
-3.156180408759681644e+00
2.498224732142013238e+00
-7.533438544722959040e-01
-1.091011714606020755e+00
3.608812353809762286e+00
-2.330842883285482614e+00
-3.264141556269753330e+00
-8.178807981988567288e-01
-2.880043559517495577e+00
2.401281768753541268e+00
-3.333411719517639593e+00
1.059483533286136980e+00
3.128342477993660165e+00
-3.843855127923591630e-01
-5.355999075382246177e-01
3.701254348264508387e+00
-1.120856945129211857e+00
-1.246294497783578148e+00
1.229506283813899259e+00
3.577897743796792707e+00
7.364938397572395878e-01
-2.239077485919658272e+00
1.125977433040047382e-01
-6.369510835958683614e+00
4.810629874706295328e-01
-1.690066050658323382e+00
3.817135329399312660e+00
-4.212549524697672076e+00
2.385939138772255053e+00
-9.375215577893885044e-01
-3.204208968545538383e+00
-1.780698164461607558e+00
4.631888302865038720e-01
-9.338320052980459973e-01
4.835054726073463982e+00
-6.305412442342394064e-01
-1.579518624184355069e+00
3.887670147304970847e+00
-1.434448251971651267e+00
4.747955971671938280e-01
4.034627322244879188e+00
2.606303724282674761e+00
1.808938784311833636e+00
-9.588476302040916943e-01
2.030439077795358038e+00
5.916608305207116114e-01
-8.835490833564340063e-01
1.483717066676880914e-01
-4.979988535079146850e+00
-2.976964820550978441e+00
-4.277709907883078255e-01
4.218638789573369685e+00
-4.564425203441807355e+00
1.431196317711481925e+00
-3.312006099760726574e+00
-3.870276202677376265e+00
-1.616135181556400457e+00
8.656873582351022334e-01
5.195508819507189679e-01
3.371880865799049776e+00
3.983614270906558730e+00
-1.515002310346026393e+00
4.634062349562075411e+00
-3.078488627349325046e-01
-1.147394495337383580e+00
2.883347370797924469e+00
3.118430413777800503e+00
8.288586680456663913e+00
-2.450735746470285470e+00
-1.071848747721104500e+00
1.716232767827306160e+00
-7.648081473707963873e-01
8.974594621934293137e-01
-2.216124113698595632e+00
-6.975955122421785282e-01
-1.181200861446058958e+00
2.328266700863881322e+00
-1.250936921638926780e+00
-3.185186498067455574e+00
-2.412169113280679067e+00
-2.418046981911166071e+00
-5.529638051577677738e-01
2.300085722569503444e-01
-8.325358979354434696e-01
8.241849966686712881e-01
4.712788676306114866e+00
7.996154630834182431e-01
2.388124858851851329e+00
4.692173855525951232e-01
-3.354967294824326984e+00
1.365963886746096811e+00
3.390426347443682431e-01
7.852917157817802973e+00
-1.160272637498375614e+00
-1.584244540578583216e+00
1.133556373874959222e+00
4.697025195170218687e-02
1.424508775045043141e+00
-1.486924843817413633e+00
6.965035518376440749e+00
-1.743376847011725017e+00
-8.116729369785153914e-01
7.165819541961387928e-01
-3.816623661694156233e+00
-1.138210588353882891e+00
-1.708420930294196616e+00
9.253009682899451249e-01
-2.528374865300902011e-02
-1.795133443528354356e+00
7.024930223100582793e-01
1.377138721265445120e+00
3.116429280039575422e-01
9.468575037409834305e-01
-6.488059043381073920e-02
-3.340040310419830405e+00
3.184924024696810241e-01
-4.182107793274655094e+00
4.651684672269406740e+00
1.479997283462974655e+00
-8.340706753114865979e-01
-4.883843041878228597e+00
-2.811242702617031686e+00
-9.600714420898638357e-01
-5.686071891820522473e-02
-7.555519634443458310e-02
-1.391574325814521229e+00
-8.590566191417919883e-01
-1.410451839618000192e-01
3.238370228743732149e+00
7.535201475188764153e-01
-8.428378217364450586e-01
2.159916299466143053e-01
4.923012741108133916e+00
7.585718588435885756e+00
-1.532529894248364499e+00
-1.013091983362055970e+00
-9.726335077594899792e-01
1.252835036404611024e+00
2.435136954292879685e-01
-2.285327678621199843e-01
2.140930144820957781e-01
-8.933609906135207002e-01
4.777529076707984323e+00
1.733654653215419339e+00
-1.074882375194202044e+00
-4.387165814411654985e+00
-2.148758476789723648e+00
-8.430302306393122613e-01
4.324405732875887254e-01
-7.990055987446772479e-01
-1.813151976577130009e+00
-2.654887861256027382e+00
9.654165977335708859e-02
1.297867103722556648e+00
3.921954169475030838e+00
-2.594419520702725190e+00
-3.773287058422404527e+00
5.668145386719468881e+00
4.339142687837942880e+00
-1.543937829273038131e+00
-2.316696106035316838e+00
1.131605111829114607e+00
4.015135886724512382e+00
1.023415692928503207e+00
3.954940869515196078e-01
-5.155857400355216003e-01
9.096005001716978011e-01
1.580271914175459091e+00
1.010930771082566126e+00
-1.401724488764223286e+00
-6.442897579233998195e-01
-1.148201412265119625e+00
-1.832872261082832965e-01
-4.220358748422278206e-01
-6.705980927170736017e-01
-1.809739210315007174e+00
-1.158108639054550082e+00
2.180090621676130380e-01
-1.783333327529390555e+00
8.468928239352756293e+00
-2.561430637599913407e+00
-5.122006010493541872e+00
2.976935278547858221e+00
-6.055369442022269233e-01
1.481478979421333220e+00
-5.307723480779531933e+00
2.684004136133420815e+00
4.062107245912468301e+00
2.355693550785622037e+00
-6.307789827703539354e-01
-2.013042802412882804e+00
-2.142490361726217429e+00
-8.730234793784297231e-01
1.819283795968360817e-01
-9.079543632139848164e-01
2.640925877032332281e+00
-1.526657238042328668e+00
2.490814726966165349e+00
-2.794921981937689814e+00
8.081268441558309146e-02
-1.544158726331377407e+00
1.155852804553852531e+00
-1.746857527010901689e+00
-9.495859003951732102e-01
6.167924235463426719e+00
-1.970544882097059247e+00
-2.059817384304776233e+00
1.387489082952144681e+00
-2.616077838267585776e+00
5.356773673752289966e+00
-5.854221904210573868e+00
1.393980514279489880e+00
2.883748211288323482e+00
3.147903146375236050e-01
-1.195584447778873294e+00
-9.943566713892906250e-01
-2.321255883284547128e+00
-1.249664411589421098e+00
-2.546846176983295629e-01
3.920471753690357719e-01
1.731878589181954142e+00
-2.825062867456058058e+00
6.310220020350922887e+00
-3.384411720780050370e+00
-3.216882643128112229e-01
1.504462044341184912e-01
3.355117672564989828e+00
-4.363781038373664600e+00
2.200678623879201545e+00
2.188188546600758344e-02
-2.029064259352155286e+00
-6.157184082722260143e-01
1.869944295907073561e+00
-1.963007314051936181e+00
4.605256324597648998e+00
-1.095960749827447733e+00
-1.313833741592650428e+00
3.686425820585315094e+00
-9.195065266338610099e-01
-1.464971176058140534e+00
5.708265432888199459e-02
1.071739304520399338e+00
1.293216675399152749e+00
-2.321056177354828609e+00
5.885167161990331186e-01
-6.294676269888460629e-01
-4.071456297819071146e+00
5.758235889518424244e+00
-9.848372446779675160e-01
-4.042526990415653110e+00
2.406182025547629166e+00
5.984959409969535571e+00
-2.923102925148586273e+00
2.545212505471745601e-01
-2.763119738137885140e+00
-1.046463720064003233e+00
-1.621500716155922950e+00
8.750451944503844226e-01
-4.233848169848755116e-01
6.475307844414790459e-01
3.215771601440920779e+00
-1.882260582015650829e+00
4.051274125570500040e+00
3.004056433796023495e-01
-2.357155741998815834e+00
7.940648831016325349e-02
1.631451722957257378e+00
4.902908642278941187e+00
-2.827264351239413998e+00
-8.326453040629702151e-01
-2.573811634765781342e+00
-3.027191259944239210e+00
4.663016680586244078e+00
3.640321333670375470e-01
-2.651481533757438780e-01
2.145449645002668326e+00
5.624235509524723398e+00
-5.691872746348513971e-03
-4.529121171686452563e+00
-2.013648788929707223e+00
5.524291107878491758e-01
-1.866479474865115451e+00
-6.762435476359403008e-01
-5.361228293624327179e-01
-1.401095743521961756e+00
3.651612735002029542e+00
-1.783481631007711954e+00
1.692032514605066318e+00
1.698444281859452509e+00
-3.055114826554747864e+00
-3.247954880671530820e-01
-5.308114287108577356e-01
4.120100765536978571e+00
-5.562379960506097509e-01
-1.322293566696549405e+00
-3.829807732527832798e+00
-7.400398230202831495e-01
2.987158925001384358e+00
3.443865859296090792e-01
1.005162642854929800e+01
3.147979928044381537e-01
1.911546187705255750e+00
8.369546366497153667e-01
-3.774801870304488993e+00
-8.996436237367244626e-01
2.911438183988137585e-01
-8.389804804336269406e-01
-3.988348673453549487e-01
-1.379642212711548854e+00
-5.822612091847245708e-01
1.828660189054103435e+00
-3.071363471548987700e+00
4.550090970781867084e-01
1.095948176180599365e+00
-2.618969997486661594e+00
-7.707216119465420956e-01
-3.234853745850176931e+00
3.707034864535293378e-02
-1.688930545732246546e+00
-1.336242828176307462e+00
-1.820395269973002161e+00
-2.264023437454772747e+00
2.980556493373105464e+00
1.921912534487310031e+00
-7.974628083423837555e-02
-4.676050020043997613e+00
-2.095331939015015354e+00
-1.718944562148747301e-01
9.725100258405510179e-01
9.571181269600759212e-01
-1.674817856376170200e+00
6.263427207003453567e-01
2.668600827710209789e+00
8.327242373247397467e+00
-1.857823879263657219e+00
-6.774579324808761571e-01
-5.909779927657644594e-01
1.016231200243477018e+00
-3.923687966434946106e-01
8.685418358740868428e-01
5.667953832336647402e+00
2.416317486079371690e+00
4.006073058869221715e-01
-2.225543355962113612e+00
-1.613186714404070576e+00
-4.570041678189289414e+00
-6.714058864035077345e-01
4.398639273232663349e+00
7.626800817135522825e-01
-6.383700476316718220e-01
-4.021132172776539448e+00
-2.983731518398474059e+00
-5.847010633846114747e-01
-7.460296213996306935e-01
2.558182621236877452e+00
-2.976266021295554065e+00
-2.361571853311298153e+00
3.874936113287779982e+00
6.423719619600271713e+00
-1.157161850437494088e+00
-2.198825980784916645e+00
1.527874489455849805e+00
7.661551580995341615e-01
5.479054831344603027e-01
1.587535168780448647e+00
5.051010611616045587e+00
6.067421406222613278e+00
1.774750357529344957e-01
-2.459153421953649055e+00
-2.971658412014150930e+00
-3.555208275421290587e+00
3.011383436418156201e+00
2.313667230411803999e+00
-1.475815591000843474e+00
-8.212991594373287851e-01
-1.472093902985830427e+00
-4.517800033663542658e-01
-1.715182082178987599e+00
-2.281916142092709876e+00
6.898387917707490047e+00
-7.540193811819059233e-01
-1.790789053730404090e+00
2.857287681210364916e+00
7.060103826985361097e-01
2.206685438863347670e+00
-5.125936026051686412e+00
2.621014423552537220e+00
6.830976573027226495e-01
1.982161228282155685e+00
-1.274984536452779205e+00
4.065616336437659628e-01
5.592573369818830686e-01
-9.339664752223373334e-01
-1.660790175916848854e+00
-4.014375755543390767e+00
-6.766268319704754619e-01
3.748794400679240191e+00
2.725228261760037629e+00
-2.455148322339957279e+00
-5.450984789572907996e-01
-1.011570816708182941e+00
9.487878304120862527e-01
-3.473851450679520614e+00
-1.321820731377972014e-01
5.768165304388100267e+00
2.142087100494348029e+00
2.318339157148725072e+00
2.648836050945230447e+00
-2.644723364446083469e+00
4.151948019671002577e+00
-4.958128791770715083e+00
3.921101864230359668e-01
2.150354303451498250e+00
9.695913941287348514e-02
-2.980099664175066554e+00
-1.300456263486917896e+00
-3.381761077521853842e+00
-8.754085135611181512e-01
-9.813872882181379209e-01
-2.747198358164586907e+00
-4.839753729409131400e-01
3.992694661823349422e-01
5.911084309866852848e+00
-3.320626628667471270e-01
-1.432258344955624541e+00
-9.081659461854900695e-01
1.257085186016455136e+00
-3.349851673860610557e+00
3.044577791404427636e+00
1.004819088040549646e+00
3.112659565534133144e+00
2.335857360694964857e+00
2.917619343325465131e+00
-3.743212972277242034e+00
1.678194186591170256e+00
-5.783265777785173700e-01
-2.041228284843394469e+00
4.120069942997804269e+00
-1.693049858778824523e+00
-1.600231779178099112e+00
-5.729611804463502489e-01
-2.006213984731853195e+00
5.440504818075015958e-01
-2.015637666189630028e+00
-4.393726027260971279e-01
-2.135290936056351452e+00
-2.059440045361391469e+00
5.576667184216107742e+00
2.594555916016536123e+00
-4.813498989303575115e+00
9.505043255826495230e-02
3.735000847871495555e+00
-1.106519479459346034e+00
-6.582466179945484219e-01
-1.910512216716479639e+00
3.613849798139564307e+00
-1.496915281725554436e+00
1.549538256300646788e+00
-2.329346074801491362e+00
-1.192853807513418740e+00
2.468305210555362450e+00
-2.215037846381606279e+00
4.343082364795519901e+00
-3.490998888595208682e-01
1.525208465088555343e+00
-4.669339172632515633e-01
-1.275672309064195709e+00
1.171068594983435629e+00
-1.688092531289571596e+00
1.915634828015589652e-01
-4.696306479998662908e+00
-9.236514504402064674e-01
2.802847504229508679e+00
2.646768218390094685e+00
-1.109542824004553369e-01
1.879205328189403890e-01
5.222978406033792709e+00
-1.116617015565773453e-02
-6.877382530692858431e+00
-1.948563031337892770e+00
4.271151036345325558e+00
-3.562692039622552542e+00
3.312490392590360377e-01
-5.677813911007743020e-01
-1.644064695577200252e+00
2.374402634604996898e+00
-2.245552494580766112e+00
2.133489233742301039e+00
1.314746034405354758e+00
3.053791437411953691e+00
-1.351400190833282000e+00
-2.062574122839056834e+00
-2.484654123210421756e-02
3.106446702098026313e-01
-3.618591494584169621e-01
-5.702834015152369318e+00
6.345979151300373822e-01
1.163577505143275959e+00
1.303788623277828185e+00
7.573984892085714016e+00
-8.684607175958298786e-01
3.119416608034403460e+00
-3.756954664230279239e-01
-5.570604362688711397e+00
-8.328016725147936450e-01
2.887815787786976340e+00
-2.503208475647329401e+00
-1.181272641809945605e-03
-4.498365800866657715e-02
1.722579664063725868e-01
9.939548530336745902e-01
-3.302324587024976665e+00
6.588157703026983336e-01
1.248043864878041642e+00
2.635240015139368452e+00
-1.813253771752322052e+00
-1.340615943987660597e+00
-3.749452743294151791e+00
-3.076632866076283612e+00
-1.328236720990751074e+00
5.366456279297732168e-01
-6.546057678468848451e-01
3.866348386067747889e+00
2.070523487467729407e+00
1.065873680067809665e-01
-4.126466319706364239e+00
-1.947744397049431697e+00
-2.228200194209846163e-01
-1.251917091388253800e+00
2.155705408337754980e-01
-8.588056987228033234e-01
2.039621360215729595e+00
4.456928320354355266e-01
6.045495672328150327e+00
-1.728418562180240148e+00
-3.314842731466787623e-02
-4.580119992075149526e-01
1.588374156818212590e+00
-4.419725268953855202e-01
-4.230374736886486908e-01
6.907592190864520809e+00
3.708288662171492778e+00
-3.672667390836255485e+00
-2.834397817702283717e+00
-1.415220774110081292e+00
-3.388783160405429040e+00
9.211177831805491545e-01
4.567490597701470811e+00
5.242598106526830115e-01
-2.925113434069463447e-01
-3.184755101184477244e+00
-1.885842558921255074e+00
-6.355474741830211549e-01
-3.507286458824895536e+00
5.262141957208612553e-01
-1.507139035873177546e+00
8.049729545188211155e-01
7.996378850459646692e-01
5.551874354043483173e+00
-9.466915495043057849e-01
-1.047613198970169579e+00
3.221706426836101755e-01
3.017573483564645054e-01
9.663555924994246538e-02
-1.016814679507917485e-01
7.456350968060537987e+00
7.289339207321919645e+00
-1.845511544325164177e+00
-2.136396086253216975e+00
-2.087418320111538161e+00
-4.750168335670114317e+00
4.855287028612580436e+00
1.175922856761319357e+00
-1.703227369361936194e+00
-7.080587381144163306e-01
-5.735508092563551541e-01
3.716191614304819590e-01
-1.871416941123936750e+00
-3.408307563931570083e+00
1.932782735419998232e+00
1.449886487149249392e+00
1.095759221130755412e+00
8.149294047360526871e-01
1.600981534469589462e+00
9.231307403918442844e-01
-2.159805634504839311e+00
6.177701287192148838e-01
4.176327916304671539e-02
8.118694408070998847e-01
-2.955984890023226175e+00
3.150806692191251202e+00
2.331309356455564696e+00
-8.695647641092704161e-01
-1.586970280084155416e+00
-3.416224959425807395e+00
-3.292413068417127331e+00
6.047947404216945877e+00
9.643039006214775000e-02
-1.236308714008478971e+00
-7.162748984945171982e-01
-7.024166027378154764e-01
1.379467559912527008e+00
-2.958550034443638399e+00
2.615064346937424622e-01
2.915698025470436772e+00
4.910702198399760299e+00
4.172904263827988736e+00
1.370100447889148976e+00
-1.497437650955225408e+00
6.652757372366143729e-01
-1.238317598873059477e+00
-1.319829875603037772e+00
1.659527714260447651e+00
-5.590889260042521958e-01
-3.688393164826615944e+00
5.548568552291136546e-01
-2.360996294629621683e+00
1.208565298276044336e-01
-1.729652382145750344e+00
-2.667730025912295133e+00
-2.069440901989775483e+00
2.885121115925435298e+00
4.891822107272639220e-01
1.862940394968310764e+00
-1.853493178987596357e+00
-2.399513574284267925e+00
3.181137808704292969e-01
-1.751754107931949411e+00
3.234554456315064552e+00
1.204498359807617769e+00
5.662164411943345854e+00
3.471721997854023023e+00
2.342585503067450059e+00
-3.396185218015939977e+00
-6.673510548437355805e-01
5.670263482700602653e-01
-2.748278578074369261e+00
3.870950973031703324e+00
-2.218772881227855542e+00
-1.852066047866099963e-01
2.661814029845168128e-01
-2.729528874049620413e+00
7.104753335293828576e-01
-1.958107845223205912e+00
-6.614943012956082669e-01
-1.915170145801815327e+00
1.257465473201014428e+00
5.840786091308223238e-01
4.483198594268757553e+00
-3.594830372476427449e+00
-3.031525846145055159e+00
1.043997747220371863e+00
-3.742856937455500965e-01
-9.622550080475357481e-02
-1.286561386517424799e+00
4.411445125638694620e+00
-8.644162766308061130e-01
2.192139568604701605e+00
-2.863723717631856847e+00
-1.276726753373434775e+00
1.761105647281503650e+00
-1.376240440344250970e+00
3.599238833485868039e+00
-1.281952713899496832e+00
5.045003827618478986e+00
-2.323016854429434119e-01
-1.795460240835694776e+00
-3.631829232254879525e-01
-8.278252612754057882e-01
1.244068076205575024e-01
-3.330111421988927844e+00
2.277931240380157707e+00
-8.930340390488965968e-03
2.806637876769260576e+00
1.450573701656702463e-01
-2.593214474144844406e+00
2.516190745397325124e+00
-2.997400675216579380e-01
-5.483604783353190903e+00
-1.766264544226425093e+00
3.841237152176410596e+00
-3.160043651925568131e+00
1.584466298390962091e+00
-4.864717741541351725e-01
5.662501231660232309e-02
9.583090591197541697e-01
-4.612683158958914009e-01
1.899766514051963284e+00
2.708239377836660911e-01
7.042160935780591657e+00
-1.707092052537588556e+00
-1.465072535470977044e+00
-1.980050174694123033e+00
6.103344398184853414e-01
-3.078209713555974947e-01
-3.297900846421147225e+00
2.650531886038289375e+00
-1.785918331768338585e-01
7.924179274380896976e-01
4.334080260679340491e+00
-2.416654181522952083e+00
1.878395903842390968e+00
-5.791122787770859315e-01
-5.051127481328612667e+00
-7.606544696924919524e-01
2.551772703437201084e+00
-2.273555889217641734e+00
5.377597025223266325e-01
1.183055917587932493e+00
1.665952348352728540e+00
2.062808738364226568e-01
-1.246148379394945271e+00
1.136104158368260064e+00
5.941620037755300787e-01
4.979842866219295949e+00
-2.180166472417067070e+00
2.347836970702861237e+00
-7.270764107874829740e+00
-4.135421192888836472e+00
-1.441963715916861899e+00
2.521159183415945026e+00
-6.526725550425567235e+00
-9.824166526996078730e+00
-9.251682509503812712e-02
-5.079023939229788454e+00
1.443146247978769559e+00
-1.236744420643147180e+01
-8.307331807503981480e+00
2.308982598521356344e+00
-7.471948931073550959e+00
-2.728755197014905320e+00
-4.626520892583195099e+00
-1.474714091620423417e+01
-5.584728572939315683e+00
-1.409599600723121782e+01
-6.298228561014396654e+00
-7.385631390272332730e+00
-1.006729042948573216e+01
-2.327383507181070232e+00
-7.742639574896768018e-01
-1.044477064431375268e+01
8.900883365427523369e-03
9.763652206853584226e-04
-1.015753142638832051e-03
1.609000991524892760e-02
2.528277382875523602e-02
4.239827552944471639e-02
3.245036263991338266e-02
-8.870330532859007841e-03
-1.376355967789783669e-02
-1.805193526230394058e-02
-1.847698893353405883e-02
-6.977001428398819927e-03
-9.439350238436739100e-04
3.541179667089378730e-02
3.927846338708193552e-02
6.382679341947875874e-03
-3.719234687952559931e-02
-2.959303631424349892e-02
-3.372114354184819335e-03
-8.414948537241119866e-03
-2.665607138245854046e-02
3.449285235516476398e-03
2.176687817033959652e-02
1.058437481103837938e-02
-4.924779556108587614e-02
-2.478413249699501497e-02
1.286434511148617718e-02
2.319848258985026876e-02
-9.410840305291099869e-03
-1.498161239396989843e-02
-1.102289918093362318e-02
-1.335055107449547446e-02
-4.898527074622484323e-02
-2.031929628264657686e-02
2.257899208775396988e-02
3.728576055336101785e-02
3.664257459920267860e-03
-2.752683713932845694e-02
-3.660884595389062024e-02
-2.254214875908381113e-02
-3.109511525267841595e-02
-2.747359622129717446e-02
-6.446064120013889932e-03
8.971538986323209994e-03
-2.276875402845476848e-02
-2.698865892270668060e-02
-1.012603850253590131e-03
4.332677739029382885e-03
-2.491682615333516010e-02
-1.867950147615933879e-02
-3.423832264899121652e-02
-2.981132718203679741e-02
-3.877089829056400844e-02
-2.928938009218580094e-02
1.222448229708628098e-02
2.924915554044514240e-02
-2.469279489220019275e-02
-1.681511524064780837e-03
-1.774483899493488337e-02
-4.871467848730130085e-02
-4.890762848691105474e-02
-4.120558155776193887e-02
-2.603712489499111077e-02
-9.520785999126995039e-03
