2.865074612940763862e-02
2.307582924585521722e-01
2.478693990414241599e-01
2.120841802409695331e-01
2.531030991111930459e-02
-1.837667734488164784e-01
-1.336310343410120338e-01
-1.853602003752063687e-01
-6.610647222362040984e-03
-3.708366672691557758e-02
2.596494684955343284e-03
1.191936370790094707e-01
1.983261742455864340e-01
1.666566900990254785e-01
2.606918008882119775e-01
2.379880704668003444e-01
1.939242864296008007e-01
3.217552023778424419e-01
4.023008102375440487e-01
4.603223134393705784e-01
-1.565059746395624368e-02
-2.350718150867909528e-01
-2.370552975524730099e-01
-1.484965184114138415e-01
-1.512374226224694196e-01
-2.880668287259986471e-01
-1.537241056360515445e-01
-7.235418419771984244e-02
1.211936283134019271e-01
9.809334598483916701e-02
3.622663167543929141e-01
2.873177270396222727e-01
4.616207188295026742e-01
2.153696190316927994e-01
7.109855539629438004e-02
-1.171257330460619139e-01
-2.894533356440484595e-01
-6.366302827583043833e-02
-9.310518617794312501e-02
-2.294340809256959768e-01
-7.463171173792566837e-02
-1.706413597732980014e-01
-1.058157774329912815e-01
-5.775815126987436654e-02
-6.890017033894513254e-02
2.410250165332189776e-01
4.486280072070547020e-01
2.357019873032485113e-01
1.823471375726518073e-01
-5.405410046832724580e-02
-2.852445174327941646e-01
-1.536855276401434267e-01
-7.831326044563290123e-02
3.499651169093766917e-02
-1.338081772663411440e-01
3.938426283281817875e-02
-1.821154728323149119e-01
-7.312614952678263280e-02
-9.499778565570228539e-02
-2.576364287797974217e-01
1.050129828153264777e-01
4.518775548218134097e-01
4.332829208811130733e-02
1.204554986534163430e-01
-1.785309666971317544e-01
-4.920489335806746412e-02
-7.978392896040456539e-02
-6.136808087626044461e-02
-3.190683446109134069e-02
-1.432933381545302698e-01
-8.902535788113993820e-02
-1.898441012559353158e-01
-8.347888716797804975e-02
-1.710394838247510096e-01
-3.088552399671862791e-01
1.873253498856893851e-01
3.015347531406240567e-01
2.485544235953822678e-01
1.050525805995927570e-01
9.992472567325991206e-02
1.056794231927836725e-01
2.880580679148520354e-02
-2.885223140467277902e-01
-2.792138520328133477e-01
-1.278135861091476977e-01
-9.545923419806119636e-02
-9.787530884221121164e-02
-2.429651433080776135e-01
-1.945072452288919007e-01
-3.701246169855436641e-01
-1.518037062982140716e-02
2.159683046323926936e-01
1.936672979148456597e-01
2.239648279147882504e-01
1.657376699259483221e-01
-7.392828271760416847e-02
-9.985654821630973732e-02
-2.573724631557464115e-01
-2.548539639474255991e-01
-7.064165152532989045e-02
-1.203977790436392969e-01
9.501170010780650432e-03
-2.092004290471123074e-01
-1.949011291067956342e-01
-3.320014637636462540e-01
9.238727184988194951e-02
1.436381406786856885e-01
6.040670087439162922e-02
5.068036995020942792e-02
-8.876575946704006251e-03
-9.515053623833913399e-02
-2.256483600190032357e-01
-2.870206710784102278e-01
-3.635678331951121556e-01
-1.012360500432520766e-01
-1.911856565889016313e-01
-7.163425213729099350e-02
-9.788349690561572169e-02
-1.547372652674654792e-01
-3.784949793063462908e-01
5.974094367821950607e-02
1.062771301066828405e-01
1.983317644525298962e-01
2.250626622193229939e-02
1.221697265003827276e-01
4.732172794542560679e-02
-2.171292640227069082e-01
-2.240024973121214069e-01
-1.976244529586885790e-01
-2.803730226010446303e-01
-2.334900946787631659e-01
-1.721933713935284715e-01
-1.128493294626837645e-01
-8.586116195408137475e-02
-3.395534512365194768e-01
-8.482426470647713712e-02
2.509744033723529943e-01
-3.745875913405099372e-02
7.472491316037616071e-02
-1.074099433846936041e-01
-2.193652836403596762e-01
-3.143915032227700967e-01
-2.998077457885038322e-01
-1.645502353446269828e-01
-3.199359471546516787e-01
-2.443827225368920830e-01
-1.592003705085118515e-01
-1.024446932892695006e-01
-2.298925170721993760e-01
-3.602760557637357808e-01
-7.327159064627906948e-02
4.576939484906551725e-02
-2.423527611280514027e-01
-1.568930921678449719e-01
-2.465478439474551309e-01
-1.272164184959459210e-01
-2.453061621766009781e-01
-3.576207331468779227e-01
-4.120128364169456381e-01
-3.341236985530537384e-01
-2.674553339731914336e-01
-2.587152622672056479e-01
-2.358629779032420937e-01
-2.435570232900751142e-01
-3.050350777032512228e-01
1.109466502268043053e-02
-2.088875812582334512e-01
-2.609963178014948482e-02
-6.406223437421212918e-02
-1.992766678770911681e-01
-7.131914167708865160e-02
-2.331187874706572571e-01
-3.700423651999571462e-01
-4.759304486895264974e-01
-5.240353525912473387e-01
-4.267508931222421809e-01
-3.708572278147747037e-01
-2.886174680421393912e-01
-2.160537806608375799e-01
-2.915191429251586808e-01
1.423294759007693276e-02
-9.945247379823120293e-02
1.020474299481251637e-02
-1.225649411764263980e-01
-1.001230209742742100e-01
-2.701521369603152034e-01
-2.794632162845321899e-01
-3.502819627636170607e-01
-3.839432355173097444e-01
-3.768573057315371955e-01
-3.333208061462968885e-01
-3.294124711962670427e-01
-3.164150773507263259e-01
-3.004309572821690644e-01
-2.907039988083352511e-01
1.266774777545331132e-01
-6.368170924756644258e-02
-6.963442357937364713e-02
-2.005350760102892760e-01
-9.727790066566464888e-02
-1.757928155897688360e-01
-1.939554648864688091e-01
-2.921055772565449016e-01
-3.523506468713351047e-01
-2.870825165335443852e-01
-3.233123942946148355e-01
-3.741597133498504868e-01
-4.279592506518049011e-01
-3.581770034250129076e-01
-3.973209692098865209e-01
-2.363055534668901184e-02
5.528317674468619667e-04
-1.068941173102461520e-02
-1.271231875092921487e-02
-3.841296876186731102e-02
-1.038287358479482170e-01
-1.070471823716405979e-01
-1.663345370361233033e-01
-2.651427376456374496e-01
-3.731595823076277463e-01
-4.384796504337385437e-01
-4.303276419373622264e-01
-4.560398028917884150e-01
-5.146861567468697940e-01
-5.811906880261118458e-01
-2.310935068246575130e-01
-2.674620643386366736e-01
-4.493485024590111732e-02
-6.412986922712023141e-02
-1.140833617570817665e-01
-2.490078556410007804e-01
-2.992768304253807243e-01
-2.074916505992395466e-01
-8.923500710375802114e-02
-1.824105495895694817e-01
-3.797909939502362997e-01
-2.938932949043459586e-01
-1.622220387099118644e-01
-1.427968131838353583e-01
5.453104774320113868e-02
5.387230823742370986e-03
2.154334337200866992e-03
-2.721453485264569566e-02
3.472394708677506436e-02
2.456658086603974878e-04
-1.750893198382161842e-01
-2.543699460707338766e-01
-2.464645997691984614e-01
-1.768508995680936613e-01
-4.247160533759247736e-02
-1.140035391643558493e-01
-2.401747291915994897e-01
-1.952918923433924203e-01
-2.178969274136896006e-01
2.472288176151396510e-02
1.695933341716729659e-01
-1.169690840636598665e-02
7.859879593925606089e-02
1.133110691949090199e-01
1.989780204626523663e-01
1.636538183506708599e-01
2.873299597335580158e-01
4.619499851718743277e-02
1.154295554808581689e-02
2.568522358362603231e-01
4.741486077146720990e-01
9.250193546148338664e-02
1.437413108960639008e-01
-8.837669280040713615e-02
-1.957219472166334129e-01
8.966788275834239319e-02
-9.958624293837979678e-04
1.480101310902989797e-01
-9.054338020289395828e-02
2.857091103814627941e-01
2.860233255351405934e-01
1.032387014945898712e-01
4.755004720351024838e-01
6.096090799546051153e-01
5.798840438884306225e-01
5.634041702304084520e-01
4.789794089732428706e-01
3.087566909958489036e-01
2.162790509722425647e-01
-9.794532190927142043e-03
3.170372052787370776e-02
1.178483677506984711e-01
3.288715103761967740e-01
2.200382367455295529e-01
2.748087731342024331e-01
6.364594815498343383e-01
1.301460875834323128e+00
1.522992587185180380e+00
1.439800727625238919e+00
1.075274346955300997e+00
6.223089143920813582e-01
5.266412711145335157e-01
4.593812116999736461e-01
2.547535059284518622e-01
4.589269271581669085e-01
1.714519398256742766e-01
8.750067358880911361e-02
7.917183166641948711e-02
1.421993911495343932e-01
4.678995898022004774e-01
6.065666673241307816e-01
2.560764671664725878e-01
3.636166895360785217e-02
-1.024445531041056831e-02
1.526777699089131857e-01
4.516624742209074950e-01
3.700622116257903937e-01
4.783597011424059464e-01
5.444493575187209222e-02
1.574173083260923811e-01
2.697106699021093457e-01
2.795411600224411708e-01
2.782795158816932513e-01
3.999295717780460002e-01
4.879035671721820844e-01
8.848744063247931946e-02
2.921331746764401632e-02
6.794806121130743393e-02
-2.049602853610607567e-01
1.413597943236034604e-01
4.006872472421706410e-01
2.440353869663249020e-01
3.152263742205780872e-01
3.044113978222267800e-02
-8.996399094779193584e-02
3.209909238319607477e-02
2.664380313909032738e-01
8.264862561976055177e-02
-2.352436406361474788e-02
-2.563957456800450285e-02
-6.367295315080019613e-02
-2.052165915514580774e-01
-2.833559686116761678e-01
-4.152886783195777753e-01
-3.105092741152286617e-01
-1.357318612967209903e-01
6.856145960517241733e-02
3.184123102454639032e-01
2.138065746165557779e-01
1.760169931728736703e-01
-2.281209696173853163e-01
7.744863986251980525e-02
1.712090211123742586e-02
-2.568347285083235135e-02
-2.807344991457163541e-01
-3.242784631912393745e-01
-8.850488301719346140e-02
-1.856365739168436280e-02
-1.021033082132084269e-01
-2.089194435021390073e-01
-2.415695345908161762e-01
3.160237630290251010e-02
1.883408124385638482e-01
3.018114737926190783e-01
1.999791194205989553e-01
-2.519982881506705463e-01
-1.440155952506949610e-01
-2.240797238225487042e-01
3.592409737035301420e-02
1.096546829847240279e-01
-9.547672470260518129e-02
-7.956472848223447580e-02
6.156578367628011417e-02
-1.475043899992147522e-01
-2.267957886767728304e-01
-9.557485222548729731e-02
1.727927477291352210e-02
-7.172089118238805794e-02
1.982496137013212423e-01
1.226550094069259605e-01
-1.706440195791920356e-01
-1.152222528122290035e-01
-8.311150401027884993e-02
-1.030074930956147855e-02
-1.033741153997235623e-02
-6.208077108568076097e-02
-1.184455614401231371e-01
-2.534035786684166736e-01
-1.124593533732783229e-01
-5.254886199625117410e-02
-1.097136523573280370e-01
-6.296923393431351490e-02
-1.004021668363187653e-01
1.099768055211127055e-01
2.331098233717460166e-01
-6.100733828167206191e-02
-1.616581219405079789e-02
-1.888473493586421970e-01
-9.374597311265944755e-02
-1.904941916359434440e-02
9.112436242107446738e-03
-3.843084221143111545e-02
5.434328832822513805e-02
-1.907590928951571202e-02
-1.679749468092488762e-01
-2.414761305886531650e-01
-3.212661269817769782e-01
6.056295432480931357e-02
2.740174707818845284e-02
1.289600502497391665e-01
-1.511303979338511350e-01
1.601037526912642284e-01
-1.279325477180290327e-01
1.107127760227595847e-01
4.018685156095087169e-02
1.071803039414041259e-01
-2.507417060778174139e-02
-2.674714807921076826e-02
3.112387260111223325e-02
-8.032480986676271417e-02
1.916369445689468654e-01
8.053430468464833902e-02
1.837651703157680283e-01
2.157384460256184938e-02
-1.199235236272356564e-01
-1.821909796701134676e-01
3.743535212612904284e-02
-7.355959227844482669e-04
-6.833425086389767478e-02
1.431646360327117409e-02
-1.484289384213146046e-01
-1.548035681748765879e-01
-7.187408486594237811e-02
3.971551910118457929e-02
-8.319041219086287242e-02
1.078781660558103955e-01
-8.475919719775605599e-02
1.721052931191988655e-01
2.128315738740571214e-02
5.394913167704285667e-02
1.729711014728983198e-01
4.661981884484614827e-03
-4.362784333947761911e-02
7.579105211999430380e-02
-3.414428437789567006e-02
-1.527640110206889695e-02
-7.852054629821141052e-02
-1.881500188359551129e-01
-1.334457805205407910e-01
-2.272834427036965754e-01
-9.890942750855527543e-02
-3.795005834696406344e-02
1.060618228065334477e-02
8.127565062810120089e-02
1.670120489917632511e-01
-4.824270185405961711e-03
-2.041719025667501908e-01
1.323218119031501494e-01
7.470080709468986634e-03
-9.213379242802301194e-02
5.483736885331513128e-02
-5.408678013019779102e-02
1.443824145681255611e-01
2.590907745949678764e-01
8.535576261757249483e-02
1.494589406912359142e-01
7.225339252073378904e-02
1.699383846950304200e-01
2.196241938337547758e-02
2.016591679646688451e-01
-9.384688410604949405e-02
9.039159308884352206e-02
-1.044694853331637335e-01
-1.842245955564613957e-01
-8.726523808230972346e-02
-1.611261163100140004e-01
-1.040224266862170843e-01
1.345637933805630126e-01
1.800038367551869134e-01
1.479840718949281819e-01
3.486849051403539401e-01
-7.565709551699659197e-02
-2.413586456954481818e-01
-9.525378195197858888e-03
5.717766698760971128e-02
2.382238916189263409e-02
-2.518173098530158693e-01
-3.999455735003054624e-02
-1.473110228398772925e-01
-1.679366292665281091e-01
-1.911189647967547270e-02
-1.220050901429316215e-02
2.433069215279042574e-01
3.345077925317684886e-01
2.461716577266850337e-01
3.008014654573781810e-01
2.554625702852938995e-01
-2.638943387589718914e-01
-2.471777824407327961e-01
1.180073660123092359e-02
-3.841225709228469898e-02
-2.868575425315688654e-01
2.343162281326664209e-01
7.859360576306152757e-02
5.799672837719639651e-02
-1.698263877007244460e-01
-1.329259082461719532e-01
1.097419482277367103e-01
2.914378002723650440e-01
3.138292846283659565e-01
5.723186874219848147e-02
-8.941568359021806467e-02
9.014656402612161723e-03
-9.290405302652321234e-04
9.749084693168527660e-02
7.255700918440566305e-02
-2.827579617075705321e-02
7.725418776771934837e-02
-7.780220133769918771e-03
3.808698452420660602e-02
-4.947512551688052276e-03
1.790974885951452100e-01
2.716459005103172286e-01
4.088468000525883328e-01
4.863919237532821072e-03
-3.713813318477585806e-02
-2.458385618153316743e-01
-7.538238266494400042e-02
-2.486975111592724941e-02
5.286894472477235429e-02
-5.268909423468570719e-02
-2.877035806537958824e-03
2.040908216916255680e-01
7.448195001291137152e-02
-3.623988016926975586e-01
1.191451136100929453e-01
2.876074924245524689e-01
2.800131186912926951e-01
2.330263929838347070e-02
2.629632679625749578e-02
-2.909078709992025114e-01
-4.053761912818475976e-01
-1.373281521414237150e-01
8.331688739910733665e-02
-1.370567830792113473e-01
1.064876478174217461e-01
2.907183337496170861e-01
2.489699434543071466e-01
-1.918683406869572394e-01
4.378950336695674322e-02
1.468074940051111443e-01
8.952598836904612778e-01
-4.549295771643078329e-02
5.731027317533937161e-03
-3.567109934267424509e-01
-4.715980682940623114e-01
-4.199645063605630391e-01
-2.002006300994010890e-01
-8.595092250944579015e-02
-1.557025483523306331e-01
-2.028156604866767632e-01
-2.023928211153057100e-01
-1.837850117511024006e-01
-2.811270146697341654e-01
1.146040976779487269e-01
7.373604241273266080e-01
7.561125684808251979e-01
-2.358270313665807028e-01
-1.176600855976106114e-01
-1.980433532338090608e-01
-5.745100960650027094e-02
4.749280498134619832e-02
5.443430368874724312e-02
-5.260532354112010950e-02
-6.335676788855723607e-02
-2.263808467944223857e-01
-2.237065271571140324e-01
-3.796905001106332112e-01
-1.030557935701143929e-01
2.418452007790534708e-01
1.972450746877950190e+00
-3.536548710307629156e-02
-2.356576355914960508e-01
-7.109030971226129036e-01
-1.905760350430847072e-01
9.800766303734510798e-02
2.975404531730099431e-02
-4.971965190182896233e-02
-9.894937339707075841e-02
-9.975155148037065378e-02
-8.485354114919721469e-02
-3.452386805600991537e-01
-2.844679324396399145e-01
-6.833517738769621756e-03
3.614129093351837740e-01
1.433350585387288545e+00
-1.404115998191815887e-02
-2.563101341054289106e-01
-3.903760342460317334e-01
-1.756393420246177561e-01
-8.896394111000337224e-02
-2.859078271648632374e-01
-2.504685876860962904e-02
3.595385932084557007e-02
-3.840017675839133698e-02
-6.472549247660046301e-02
-2.646054525596374107e-01
-1.195484620347366800e-01
-1.060230619095296617e-01
9.252962713435010089e-01
4.265946801066267668e-01
1.989224078855645617e-01
-2.877570142995850566e-01
-3.244473858023994017e-01
-3.838529114929579988e-02
-3.701710494237486077e-02
-3.139261705991220480e-02
-4.582552971573288642e-02
9.196314796374009670e-02
-2.736840054819047671e-02
6.074493099466075907e-02
-1.076611474409288338e-01
-8.541699308989614270e-02
4.193624963169488851e-01
7.835484290765295512e-01
1.954838715435729679e-01
1.284555421878702530e-01
-8.776942614465199632e-02
-1.346822254217388271e-01
-1.590355486147621289e-01
-5.853715566259819897e-02
7.863761980736191926e-02
-1.083157316926558200e-01
-5.023012229719105159e-02
1.444308134691826562e-01
2.369549733923251578e-01
7.227499762634186087e-02
1.532239472637002553e-01
1.080630175211629435e-01
2.956629554406905447e-01
1.806061530971726503e-01
8.338418386349823880e-03
-1.546493580570162119e-01
-1.617400456217973070e-01
-1.165688364662838400e-01
-4.853384970831042811e-02
1.313231095863651166e-02
-1.443263417762093714e-01
-1.827421130700261354e-01
2.876024681479683737e-02
2.971572709661062794e-01
2.791171821338159775e-01
3.587363100613368272e-01
3.795128125685797715e-01
4.318487259218828367e-01
1.703017008393079568e-01
-3.758425146889941004e-01
-3.779224812451431048e-01
-8.078628248059920025e-02
-9.686481806767120728e-02
-6.364494485940443147e-02
-7.121202575310320304e-03
-6.387145740459164445e-02
-8.975119967561111245e-02
-6.532977107573165187e-02
1.424968770357768477e-01
6.559452621140079986e-02
5.683172081301262474e-02
1.330039003684049259e-01
2.146689854462573988e-01
1.853591370796954796e-01
-1.347098671375029089e-01
1.012206642818401781e-01
-1.717175125775514122e-01
-3.403885952587146213e-02
1.435801056341148851e-01
2.585818072991049460e-02
-1.788363198618007632e-01
-2.030041453579820576e-01
-8.829814989796687386e-02
-2.619038633596650900e-01
-3.288418055346266616e-03
2.553761590648143814e-02
6.559657623297288076e-02
-9.143953329474030500e-02
-4.330576022130543795e-02
1.902733603389562267e-01
4.724226049722502624e-02
2.270280260326512922e-01
-1.444155549226839030e-01
-2.661966822622346407e-01
-7.726657305835671341e-02
7.269830080229873481e-02
2.322993749639918892e-01
3.812274227053289583e-02
-1.152563679374935396e-01
1.454254985583932347e-01
4.218187221566926937e-02
1.282001135246249807e-03
-1.056602882643125491e-01
-8.755055787785141763e-02
5.506745231034552990e-02
-2.905878331388312974e-01
1.975696544803880877e-02
4.907658383500250465e-02
-1.446267672667482240e-01
-1.758196876934031150e-01
-1.264944429043358132e-01
1.621846632990117942e-01
1.688570151564319499e-01
-6.332794694471351182e-02
1.370541642482090983e-01
-6.072015618040624979e-02
-6.571467733871078076e-02
-2.134995277938312730e-01
6.569261250497643312e-02
-1.166934203030369072e-01
-1.306012538780730869e-01
-6.783619352662129121e-02
6.081465312692523051e-02
3.150732419730602196e-02
1.303108978989855546e-02
3.463805662856530437e-02
3.325872033508474601e-01
-3.097087449714876484e-01
-1.290413839848242039e-01
4.306019173994297955e-02
-2.874186855718252609e-01
-1.378700322971354308e-01
-5.714219818344817153e-02
-2.043051218329929308e-01
-1.585104277673834716e-01
7.198244649410848184e-02
-2.257452931170357280e-01
-1.326872200636816379e-01
-9.104856349143941596e-02
-1.536271030288670625e-01
-1.877559291603096148e-01
1.530332143768618480e-01
2.189055803967568103e-01
-1.549411850817430658e-01
3.231617194176957669e-02
-8.191079507810059002e-02
-3.325107318670852963e-02
-9.166979980563795538e-02
-2.557095966522692221e-01
9.729347680900453377e-02
-5.773711444389462155e-02
-3.212923996584120256e-03
-2.606139699138706467e-01
1.798638352594615630e-01
1.045893451643557376e-01
1.844011417415195864e-01
1.019915427338551617e-01
1.743022769399840410e-01
-1.425043224553310672e-01
2.050911193477473471e-01
2.127208774875462005e-01
8.077691524410034185e-02
-3.847520019076772907e-02
-1.936729739668762995e-01
1.089373710037796622e-01
-1.484135839318493910e-01
-2.946959294681092759e-02
-1.721700429588421954e-01
1.835509024161432468e-01
1.795156872060744424e-01
3.909916171967666165e-01
1.231018160350797891e-01
9.407321692484216236e-02
1.231945523833148926e-01
2.530571765481396951e-01
2.284055049840500451e-01
-1.138397034918820772e-01
-2.943632433920383151e-02
4.710300107415919812e-02
-1.239114448333708679e-01
-2.774366493276584356e-01
-4.608838085060051326e-01
-3.870130458925824524e-01
1.648836551333910522e-02
8.099945957898223303e-02
1.317142910245804599e-01
2.197317074656727209e-01
5.248233188333597393e-02
8.184094811570657990e-02
1.845830219803843708e-01
5.267075170744243279e-02
4.330322459340430440e-03
1.385015338638227733e-01
7.455413310560576878e-02
-2.638146280319845216e-01
9.313317795752740214e-02
-2.935231696892332542e-01
-1.481352228224604994e-01
-1.630299021519314717e-01
-1.515523217109836507e-01
1.945747781790184983e-01
4.434724459378348582e-01
4.424222268871085828e-01
1.079808241090220028e-01
5.022689545696888969e-01
2.506362047252672087e-01
2.676592565044660921e-01
2.973442650352585148e-01
2.697905027375850362e-01
4.427367433929850216e-01
1.447793581753447356e-01
5.014186243358311618e-02
2.191713704124539364e-01
1.502378801973464906e-01
3.531414835369678373e-01
2.167671036212011071e-01
-2.631172629794946080e-02
3.212942896010227700e-02
1.079198543301248120e-01
5.349782978711438153e-01
2.927780895140316697e-01
2.231987680453897116e-01
2.728576784191382720e-01
3.482037312989798572e-01
3.313603397826087593e-01
1.905560949599812703e-01
7.244686358230832679e-02
2.208041185539063450e-02
2.212808022728240676e-01
4.011952194612145028e-01
3.533814041738228551e-01
3.652841661647086013e-01
9.753762060104062548e-02
-9.179471093520982436e-03
4.587019541458689509e-01
2.598507482589829665e-01
4.655953989340421706e-01
4.619944936595256624e-01
7.487550544641926598e-01
5.582512309795795158e-01
5.645697700406915320e-01
6.996104471662447644e-01
9.638411842241776384e-01
9.008151608295981161e-01
8.436819735447920188e-01
3.920364003910892237e-01
2.171573694607477900e-01
1.445051618857950138e-01
1.942955664918967484e-01
1.309889854414426728e-02
3.896103061892738362e-01
1.153344018930472503e-01
2.114420513166047899e-01
3.582555308988889520e-01
8.842020310774431069e-01
1.149857328620641717e+00
5.114667748714827322e-01
3.483766115882093728e-01
2.400660213656161668e-01
2.287527412805939186e-01
1.736148964984697007e-01
1.756059850722396787e-01
1.332989320290230151e-01
-9.253254301583703489e-02
1.910719441955669590e-02
4.154580172498682500e-01
4.578233744022533469e-02
-5.662252850716531505e-02
2.675471845240529056e-01
2.401300824842953485e-01
9.557163818169396585e-02
2.629291637224344114e-01
-9.117631119729125225e-03
-5.062902734002142080e-02
2.725108865420656223e-01
1.277733029166674694e-01
1.482912024187252875e-01
-1.769012717594662387e-01
-2.795269772780399897e-01
-4.356531064728306341e-02
-7.608398092562095039e-02
-1.197990020169276415e-01
-2.872462088315010376e-01
-4.387971335256720673e-01
-3.554559813636036514e-02
-2.484923777945313161e-01
1.001135715271833232e-01
-2.146949682240092971e-02
-2.280411829056850498e-02
-8.301915613635811597e-02
-7.184046879474521342e-03
-6.657054098873102510e-02
-3.597235439897224218e-02
-3.488493095784772624e-01
-9.541092055176164655e-02
-7.737106052364217668e-02
-3.430711966862213386e-02
6.766981994241871162e-04
-6.918602941015074281e-02
-2.416448125932535718e-01
-1.443394835246468166e-01
-5.417591650218184229e-01
-1.154191138811598016e-01
-3.513776332045481232e-01
-2.234506688857346435e-01
-2.393004914048935672e-01
1.764171326639706397e-02
-3.148181999178170098e-01
2.636714111386664339e-01
7.116389199386614905e-02
-6.324424986525277459e-02
-2.416080954731429642e-01
-1.011786989255333662e-03
2.537492621948773119e-01
2.677644092010341148e-01
1.795713378897429435e-01
1.277591489624128884e-01
2.260600295408969340e-01
1.115144049156469169e-01
2.335391979143549568e-01
3.417292258210494760e-01
2.610253207889484672e-01
3.337347661452143011e-01
1.444182931865792829e-01
1.568383503801146772e-01
1.584873628770961107e-01
2.374365855741114861e-01
3.637300755555340492e-01
-1.077788670388823110e-04
1.659769106611436729e-01
1.749555000047469944e-01
5.957840647362077496e-02
2.343007073117693850e-01
4.597260920728847289e-01
3.969354107836558510e-01
1.541825435476698036e-01
2.681639083051967076e-01
3.822607899112174246e-01
1.425325969302960460e-01
2.336668780748008267e-01
1.501102058577108989e-01
3.706495211401760748e-01
-2.675053953643656210e-02
-3.726648003211414095e-01
-2.298278289501409222e-01
-5.953815266166047337e-02
-1.727756633169757290e-03
-1.294759087318568362e-02
3.545723514157581024e-02
2.324312348235898773e-01
4.519799242151298357e-01
3.652737660498561745e-01
3.601887472797297152e-01
2.182565317148107142e-01
3.026522701097710821e-01
2.084755794830864539e-01
-1.382129155945197585e-01
-2.559953146552114700e-01
-2.106492506670977760e-01
-8.597965776748527078e-02
4.560758885533373018e-03
-1.899752917064386482e-01
-2.082897350166444950e-01
1.020962025244033372e-01
-4.719005313719080996e-02
-9.148718081149431747e-02
1.813332643260778532e-01
1.113372914237936301e-01
2.158437374382692620e-01
2.610921156146833733e-01
3.280805839519437828e-01
-9.069535670419692774e-02
-2.531331676580201862e-01
-3.391778214881919218e-01
-2.714974019666620553e-01
-9.434883861164219954e-02
1.873771775612917412e-01
3.968430321264522498e-02
-1.025017078267749376e-01
5.070046677452885037e-02
-4.574491328037416649e-02
6.570523323443881736e-02
-8.535598127745963257e-03
1.266561629849083659e-01
2.197628861550481871e-01
1.935258018138653058e-01
-8.338194045636462826e-02
-3.079392221102595917e-01
-3.299112231003652473e-01
4.863081762755099707e-02
-1.475325065681657166e-01
3.082168416146588083e-02
1.201364228738025369e-01
-5.498056082525439037e-02
-1.441952414973284302e-01
1.387547672752481032e-01
3.080384523486975334e-01
-2.436592092002092258e-01
5.177686557512255032e-03
3.882467255892959046e-01
2.668701675733006762e-01
-6.559991300917822170e-03
-2.366919805652740461e-01
-5.563648911383485551e-02
-1.402861499692387333e-02
-2.337255902844169453e-01
-5.866359904503297418e-02
-1.611822080155251025e-01
-1.227733143325166615e-01
-1.710732982481153186e-01
1.708889572911469479e-01
1.982902399253450298e-01
2.523578338868641135e-01
-4.371228433719916845e-02
2.735538845680496878e-01
1.554478566832439013e-01
-4.984496216506889565e-02
1.065224589728047261e-01
-1.903639954614021745e-01
-6.914058230241020009e-02
-7.315803133373292855e-02
-1.512288801516490366e-01
-2.308358668926605017e-01
-3.536765240521003162e-01
-1.287361574862265767e-01
-7.709951103318861410e-02
2.347038640334609197e-02
5.150884993526615857e-02
-1.737221999000408343e-02
8.868238829237769238e-02
1.492048626626490127e-01
4.005714844660781052e-03
-1.977046576101869069e-01
-1.003469831259163614e-01
-1.113191377415504169e-01
-1.263614662610712536e-01
-2.518828666342078915e-01
-4.160645113297513076e-01
-2.995377141670146903e-01
1.886656270385315692e-01
9.723154805653889954e-02
1.529323552423311749e-01
2.406273305372786109e-01
1.969694531731272236e-01
3.519682575179806650e-01
2.514703165265899099e-01
-3.957737834476735550e-01
-4.877293455528591282e-01
-2.004340188433392511e-01
-2.864002421184717040e-01
-1.856799393642551421e-01
-2.944205270658071250e-01
-1.579651197361301163e-01
9.301482467508767615e-03
4.577916193037919607e-02
-1.772621867374347127e-01
4.917971008657934240e-02
2.261632777717462739e-01
3.756217445508054920e-01
2.761383302419775920e-01
1.902799728911691579e-01
-3.806754641832250929e-02
-1.990316348955895875e-01
-1.681421483068096523e-01
1.608594680467986121e-02
-1.209793087481722887e-02
-1.188282290351288378e-01
-2.183503880828268351e-01
-2.470270825439681572e-01
1.063222388730355183e-01
4.636588997478326840e-02
2.613762877387185157e-01
-1.570202906367447124e-02
2.229477546526195952e-01
3.312919053571607431e-01
6.380534048544741488e-01
1.632259243835261497e-01
-3.760269464725408683e-01
-1.807953772245221025e-01
-2.545582024287476042e-01
1.887785328718960820e-01
-1.895311611904942559e-02
-2.573397335632464089e-01
1.598315981694947707e-01
-2.084335127067318549e-01
1.723890980532383210e-01
2.711195631960645058e-01
-7.169594173664218043e-03
1.864332259324817664e-01
5.890467420248706176e-01
1.563618210720367496e-01
7.175140733318548236e-02
-1.442885830787919155e-01
-3.663109674725089082e-01
-1.782499986217439825e-01
-1.202025316470850952e-01
5.611837142289181901e-02
1.832452275088215787e-01
1.361533143266821511e-01
2.330036055808430151e-01
5.742966255641144269e-01
1.407791661514278536e-01
1.485865952868959672e-01
3.258279700332504247e-01
7.431728644740199785e-01
2.937618108992566812e-01
5.901308960896375355e-01
4.485607425149561456e-01
2.768259900545955721e-01
3.219020427891545744e-01
2.900820946368302122e-01
4.208576762942481397e-01
1.794797750471893993e-01
4.254150701888491093e-01
6.132938094414981389e-01
5.669263650267125643e-01
-3.865428204011168989e-02
2.393836704026699458e-01
8.241543268677251621e-01
8.796873287582218648e-01
7.097023990586303066e-01
4.092540765666756175e-01
3.553410478996143484e-01
4.251403948649741804e-01
5.761944598434050047e-01
6.441124271454760075e-01
2.417846435129838434e-01
-8.717333218557696273e-02
7.479154474329428870e-02
1.460671981333209191e-01
7.279843595111581966e-02
1.219936058553878211e-01
5.614578072158617206e-02
1.064440065778437527e-01
1.695615025555510524e-01
3.375137974297806598e-01
3.738083358778764298e-01
5.334338485469444224e-01
4.064084095848037870e-01
1.056300192736261273e-01
4.598364749921569072e-01
2.476695145696719280e-01
3.445730734252806515e-01
1.267650278363726679e-01
8.768702534104966251e-02
-1.478077416848540548e-01
-3.845636577445342430e-02
-2.607306351818596685e-02
1.531991127107456552e-01
3.713085739414794806e-01
4.184554876187351891e-01
5.642553761828731362e-01
6.161974142535041610e-01
6.176599849362559569e-01
6.260047271020101611e-01
6.050484730111661547e-01
5.002560916749738684e-01
5.114351090964716073e-01
6.108458019551313845e-01
4.183349724248830448e-01
4.865526093049824669e-02
-5.714797679559738969e-02
-1.438834391690220482e-01
2.020769222165313267e-02
3.543779369503473609e-01
2.824626578624640505e-01
6.768815824902101319e-01
3.369466626240765761e-01
1.308212874224506765e-02
3.823663674411472146e-01
2.185964951710774595e-01
3.395279714316176700e-01
4.308019981835324308e-01
3.682959597454438239e-01
1.303068068181996719e-01
-2.449535869304533819e-02
-1.973076378856501445e-01
-2.621533293870383918e-01
9.661491525523353829e-02
3.962547386066190835e-01
6.074398647646225280e-01
5.388049293733301326e-01
1.446475379292180286e-01
-3.222858413981405934e-01
-2.712772344636323746e-02
-7.648041622691015284e-02
4.964383472499017680e-01
2.811327944685021452e-01
5.522503320818109573e-01
2.745961303384769070e-01
-9.810118176619560260e-02
-2.093363840474664894e-01
-5.251542740305513435e-02
2.616515840946593285e-01
2.928796193093416989e-01
1.161271868680091163e-01
-2.102090578793903292e-02
-1.896466437667957139e-01
-1.623346119145966937e-01
-1.927520571968309726e-01
-3.958540176195112781e-01
2.165562049079533813e-01
4.004764653795633844e-01
2.429217093669921446e-01
3.671172142465354282e-01
3.062931792319106145e-02
-5.271964206772421224e-02
-1.422947599090703119e-01
3.777279170588421775e-01
2.762806717698333952e-03
2.754460501069164180e-01
-2.681750480531390202e-01
-2.718248136947409299e-01
-3.610812249130159191e-01
-4.231841296563257915e-01
-2.829322150275707104e-01
-1.570893324701974625e-01
3.348333415327047202e-01
2.710902133019291171e-01
3.072414905691769338e-01
-1.534847573397347398e-01
-1.523088879967647302e-01
-4.637120243783949408e-03
3.844941139725945867e-01
-2.252795923588362184e-02
5.052424977664135217e-03
-9.483397321450616479e-02
-1.546730161485571076e-01
-2.803985859195350927e-01
-2.210801523063107010e-01
-3.526549687686489354e-01
-2.882465585217596216e-01
3.258949399936273972e-01
3.876791524543193312e-01
2.206877913843084404e-01
9.970975221860099713e-02
-1.530387684916474922e-01
-2.106857289382773127e-02
8.682017313082920906e-02
1.498956803349615619e-01
4.325908531978105154e-02
7.546500550455316481e-02
3.248619730918889115e-02
-1.725234493143874559e-01
-9.598545048351520698e-03
-1.488552674743767457e-01
2.299763783491091396e-01
3.189732700291568745e-01
3.447019611544819839e-01
1.884781785365916285e-01
1.193591242626355770e-01
5.530112119623729547e-03
-1.880793842415351413e-01
-4.783611726535298703e-02
5.827655903370886764e-02
5.011427816118554923e-02
-1.114847288649631618e-01
-1.946920016600448651e-03
2.172209106902323050e-01
3.203423793645471945e-02
1.872497244345918965e-01
1.965179114962364859e-01
4.173887630345023969e-01
9.439758026297176419e-02
2.941286119564842094e-01
-6.640464996765893524e-02
9.661879879244572589e-02
-1.815809256894588067e-02
-1.718962264900385228e-01
-1.095816756106900436e-01
-1.057132324626494368e-01
-4.074687310407931751e-02
2.102925921361162853e-01
6.901413044670874630e-02
9.508995088004741636e-02
4.199766926280250612e-01
2.873123825582894475e-01
4.053361803400851726e-01
1.122769095799945188e-01
-1.335367883106892417e-01
-7.689526156237089238e-02
-1.023498870496821478e-01
-4.903527799319615244e-02
-1.818528344983548206e-01
-2.556177294573085731e-03
1.042989332564899230e-01
5.317719994885259510e-02
-6.144660634198182564e-02
-1.434157543657210709e-01
-6.257950118964480946e-02
1.767510249517278698e-01
1.328251894098732011e-01
2.773757101123240920e-01
1.342229085654113308e-01
-4.565659104480090241e-02
1.827103217902898216e-02
-1.897699778873649934e-01
-2.126939700213684448e-01
-4.969838581690843582e-01
-2.605921004357052984e-01
-1.493906560652301374e-01
1.681560170659049391e-01
2.519774394301221854e-01
8.423538464213131682e-02
-6.427167437041805820e-02
-1.458950220136553677e-01
2.385238123662266480e-02
1.812170089185861366e-01
2.821930743546258724e-01
2.284319595552653653e-02
2.834603554746568249e-02
-7.533629894593786569e-02
-1.646501497063564134e-01
-3.742702936668281244e-01
-3.188719970172747553e-01
-2.690291082644851173e-01
-3.675089335969685539e-02
-5.547288282986197888e-04
-1.987066028538055640e-01
-1.678203176908926730e-01
-1.479055392076912834e-01
-8.452169447257254498e-02
3.133702355378523707e-01
4.405107984828926515e-01
1.232713790209414434e-01
1.620686689856199458e-01
1.839243784793017419e-04
-3.648923789867476730e-02
-1.461601851626369297e-01
-3.833661244137918089e-01
-2.636702418472409715e-01
-8.808996135657190529e-02
-2.578143325226897042e-01
-3.143170584341064555e-01
-3.522474947575642001e-02
9.063426194683180115e-02
1.868091811545767866e-01
2.639597857014920335e-01
8.755242988415368188e-02
-2.096535564586927622e-02
-2.320654051740937696e-02
3.479661003649405643e-02
-7.099133910369065381e-02
-1.875642761501458422e-01
-2.039763437963295067e-01
-3.903578926655765918e-02
6.368544706383530429e-02
-2.310818788211812247e-01
5.753320470134577064e-02
8.702252393147773268e-02
-2.526604985786042867e-01
-8.790315718283903124e-02
1.116093139205247831e-01
-9.121159343086360227e-02
-2.460531911136239758e-01
-2.202438678325140398e-01
7.212730044101056670e-02
5.593692534789994342e-02
-3.552798635520221932e-02
1.095689524097062315e-02
-1.060328878321755847e-01
-1.464111273039295225e-01
-1.173839676371075530e-01
-1.020702603431277999e-01
-9.430175488629728708e-02
-9.516917889895465388e-02
-1.521841979849981596e-01
7.973317660976496357e-02
3.857964659516091577e-02
1.489864770792111714e-01
-1.913679685374567938e-02
-1.032384646298913633e-01
2.016108856023156592e-01
2.420917770933892280e-02
1.459954266094591335e-01
6.195990362254508166e-02
-1.515255386114585656e-01
-1.944328720054347148e-01
1.768076863444751901e-01
3.531422309366211709e-01
2.362623962742931849e-01
2.828766563929465683e-01
5.986677350371239631e-02
8.579337644829472531e-02
-1.151448020545252360e-01
5.583969312677397254e-03
-1.164522874523718221e-01
5.160688851061982774e-02
8.248294118059029678e-02
-1.388660550743718858e-01
1.775567084984300444e-03
-1.455199565835299524e-01
-2.055302018429737698e-01
1.651779346249827585e-01
3.242076990702293382e-01
3.949287093019305805e-01
1.997828135881878631e-01
-1.797097715658828032e-01
-1.071755095208034997e-01
-5.805268454389290317e-02
7.581253691792445848e-02
2.009467264224644792e-02
7.773056655279415861e-02
1.778295442220148136e-03
-7.384446893556156910e-02
-3.519020516292270528e-02
-3.158026582907484392e-01
1.456074126274983227e-01
2.375240644088587039e-01
5.495629457646197258e-01
2.823566986596824369e-01
2.998723176582390737e-01
-8.214153269523531697e-02
-1.090300328880641767e-01
2.361980334424525901e-02
9.632026361008851068e-02
1.104204172068744549e-01
-1.309015797481101126e-02
6.482677583617440023e-03
-1.716682829461454174e-01
-2.807729119890589042e-01
-2.837253459504456843e-01
2.287718364389008108e-01
8.938561940757376867e-01
4.734696093705014208e-01
-1.002134243502203342e-01
-1.754670584264845790e-01
-2.928479617789896405e-01
-2.566866366736795801e-01
4.379293846057302070e-02
6.915076241628850817e-02
-1.134296867058820907e-01
-1.734830457558273198e-01
-3.689703740145065802e-02
-2.995282527843594056e-01
-3.522645059988717686e-01
1.043195988628089765e-01
7.708106970337781638e-02
1.372478862209502104e+00
-2.560461228410675361e-01
2.903243977166399675e-02
-1.162020539948172143e-01
-1.882547815775625910e-01
-2.670604572015183864e-01
-4.151029676917496886e-02
1.242192670294105794e-01
-1.607468528329322743e-01
-2.227331521256178115e-01
-1.484380995484185506e-01
-1.274729435937637656e-01
-6.136859514489076059e-03
-6.640247294735284952e-03
1.596727931204982909e+00
1.946779455610979370e-01
1.758813637511783545e-01
-1.350002943736990958e-02
-1.716448075034432974e-01
-3.801573921354481911e-01
-1.698421878481752856e-01
-1.689384525294579387e-01
-3.215209250191195661e-02
-1.620994576196769787e-01
-1.188557773121564076e-01
-1.510636517036046400e-01
-5.782526125653982690e-02
3.810065932409031908e-02
4.945915481937088187e-01
1.141811434207384179e+00
2.018446595366105989e-01
-1.771410155178215484e-01
-2.926193872486101966e-01
-2.387839538574732245e-01
-1.218450210648253235e-01
-1.616407059154441883e-01
-1.209544479840843484e-01
-1.290132753919514541e-01
-1.644260240138931822e-02
-4.402293777007369735e-02
2.131529654789695791e-02
3.149055875630515228e-02
3.835739775227389736e-01
1.227796490619293968e+00
2.040505430874928888e-02
8.772753468454264070e-02
-4.479555974501577831e-01
-7.561089405276527620e-02
-2.933819780461382684e-02
-1.531117395967207528e-01
-2.592250810300904540e-01
-3.175334771067813561e-02
-2.778770716285832235e-02
-1.756909637344574240e-02
-8.258571744615368637e-02
1.592686830896135330e-01
3.488563748387438768e-01
3.942856117075511646e-01
3.788248554479191066e-01
4.389397170186858932e-01
-1.180577056726487550e-01
-1.298239353204995172e-01
4.749426318441243855e-02
-1.283340998761923202e-01
-3.169911818035093393e-02
-1.322249463520929202e-01
-7.610390588072968310e-02
-8.437036519571386450e-02
-1.053029559866504837e-02
-4.595763638956692457e-04
2.774581015442944415e-02
1.222265218471922481e-02
2.479310996147676138e-01
3.389712257977722243e-01
-2.083485115985682090e-01
-4.776786996041139099e-01
-1.912271569151727801e-01
1.269007892357985612e-01
-2.290207739682119936e-01
-1.115567401119908902e-01
-3.768065366765468993e-02
-7.012056727569598857e-02
-1.359264757770910215e-01
1.494859950827835682e-01
5.676445699058759592e-02
1.739328376145100608e-01
5.695881192706419432e-02
2.987883897886540931e-03
7.635218687836906049e-02
-1.964630052842203378e-01
-1.591907857798895154e-02
8.936466174564337839e-02
1.740205884624284605e-01
1.322762422044984620e-02
-8.068378910125777181e-02
-8.591055383345913565e-02
-1.147382186735309145e-01
-5.641433176594445181e-02
-2.427578738841889086e-02
-2.627848131516166350e-02
-6.071091308916068408e-02
1.971871462259119356e-01
1.978953178014051517e-01
2.007324584118732984e-03
-2.027430941790126506e-01
-5.851748597781020189e-02
6.451173386229548667e-02
3.778904517958375092e-02
-2.291598388949083187e-01
-1.240040360624488219e-01
2.971443892964478403e-02
-7.745828472098191010e-03
-7.186169569530208301e-02
-1.070235198962452006e-01
7.234509196327195031e-03
1.724950217989671547e-02
-7.172385361242580859e-02
1.710666412575993500e-01
-9.226584691001092631e-02
2.546254198623421061e-01
-4.563473921248898529e-02
-2.693974595725020724e-02
-8.442750097953120175e-03
1.406513531655266720e-02
-2.140978434994942337e-01
-1.314302903597646677e-01
-1.678496083056571775e-01
3.246921170424663366e-03
4.078323338456705388e-02
-1.208391213075460380e-01
1.913646525827454037e-01
1.003500743542611734e-01
2.354209219927594354e-02
1.654487724192005849e-01
5.328274107475058918e-02
9.085752374096761619e-02
-9.930877738131779764e-02
-1.063249541563073865e-02
-1.221329398882340378e-01
-1.434335711093437660e-01
1.273258544044032214e-01
-1.248573771240848868e-01
-7.186255060749283108e-02
-1.738837112306462207e-01
-4.010921633286982368e-01
-2.607276299413611720e-01
1.009044306463394436e-01
-2.356634927858263558e-03
8.110052193406894205e-03
4.545833936545585346e-02
1.856573411449485567e-01
4.756125454604704511e-02
1.697435049140883501e-01
2.895497839281674923e-01
3.292825732939883565e-01
-4.725452675978026457e-02
2.770384775163786117e-01
4.055170434898258680e-01
1.830153448947249017e-01
4.236200051909689845e-01
-2.986943769531557116e-02
-1.165210594453682524e-01
-1.108961626028510949e-01
-1.373504735665963539e-01
5.359768773267144931e-02
-1.208245633173068573e-01
1.709949605648019427e-02
-1.227582481949833215e-01
-3.345716414318566367e-01
-5.875336607600258054e-02
1.973618343472578196e-01
4.431177563965064681e-01
4.216124667876740006e-01
1.297206442788315928e-01
1.657601173026056751e-01
-8.287480956388812436e-02
-4.737225694790968972e-02
-6.474415748580328311e-02
-1.690873986005360652e-01
-1.341618859457025525e-01
-2.166069153241732548e-01
-2.338650307688205573e-02
-8.784915703489544481e-02
-1.356950193935643756e-01
-1.697733003778137961e-01
4.218031842509920026e-01
1.999721736399162619e-01
5.902011665572974575e-02
1.416681143784496999e-01
1.604855741693484439e-01
-1.106234342792647707e-01
-1.554279103223607794e-01
-1.740679537021375956e-01
5.484798608652322743e-02
-1.680347393655000077e-01
2.409399477683152671e-02
-1.476366985999277015e-01
-3.759188481395331904e-01
-4.974433252229641667e-02
1.706125993680848718e-01
2.987890553754622425e-01
1.508416102913734957e-01
2.110886647727040766e-01
2.943538785262182489e-01
9.100091674917258622e-02
-1.448041179257470168e-01
-2.289718610245536634e-01
-1.867658192634636394e-01
1.329070636798070915e-01
1.298711013576652473e-01
-1.704252183759440847e-02
-3.151884268649711163e-01
-4.512272075586130637e-01
-1.807497162916608391e-01
3.927353136006204171e-01
5.533229059327695598e-01
3.169697512668070427e-01
2.951757616322772115e-01
1.392808366001890008e-01
-2.679041679528125774e-01
-1.949312087631165924e-01
-1.453948053544963370e-01
6.656749635918541999e-04
1.747298215883345551e-01
1.559475787361380185e-02
-7.578692164716165081e-02
-1.082551948324861069e-01
-3.104284425838285330e-02
-1.014274585103160514e-01
6.292570933881668216e-01
5.865377003712171078e-01
1.662873000853269390e-01
2.255240589309189247e-01
3.988764955339792473e-01
-1.126313902417130502e-01
-1.581181132320786387e-01
-9.905282198143411376e-02
-3.697064252032627313e-02
5.264269394910504191e-02
-2.758084331884898266e-02
-8.871834582779071499e-02
-2.111346706802222362e-01
-4.271861833490561006e-02
2.182362278897645447e-02
7.208119555216513374e-01
3.021341091297182757e-01
-4.616771832686198535e-02
-3.584478632971223322e-02
1.657105943187894620e-03
-4.010591048658983249e-02
-1.427290936606478988e-01
-3.723335021110657506e-02
1.584972648650721100e-02
1.473065373576608883e-01
-3.696925928200187755e-02
1.330224404205770095e-01
2.068667567816233344e-01
4.487471496318627961e-01
6.227877156741516984e-01
2.826464158526487691e-01
4.917240609075167190e-02
-1.050732153245397538e-01
6.212686498726615464e-02
-1.181960735991947065e-01
-2.067423120541206361e-01
3.471457834120810632e-02
-3.161693097760976956e-01
5.623933136108653918e-02
1.056096284920203798e-01
-2.655977565723884326e-01
-1.519665057860691004e-01
5.974198225866688139e-01
5.801653554227257370e-01
4.758452580412921296e-01
1.069667607217347910e-01
-1.824200138396365189e-01
-2.609810124872537218e-02
1.670494324398253544e-02
-1.754361849860895314e-02
-2.470487008610961210e-01
-1.013573017702947276e-01
-1.587260203915313306e-01
1.215792841458930157e-01
-3.196214192379960572e-02
-1.587908357486080696e-02
2.456349574340354336e-01
1.103078179297570793e+00
6.345826390175921539e-01
2.451946364299784076e-01
1.465551391389725011e-01
9.256069494850269197e-02
-1.423060482901009893e-01
-2.549772022121682968e-01
-2.258117875259043617e-01
-1.737946207835803503e-01
1.007464193977160583e-01
1.681188917286458306e-01
1.450322040942821911e-01
1.788950918827682812e-01
4.568142844960669802e-01
9.076439143525414366e-01
1.087596786630479068e-01
1.462063311575771962e-01
2.094034567933348440e-02
-9.532721524549166159e-02
-1.509996929802325805e-01
-1.870190761274142244e-01
-5.210226230478280651e-02
-1.758487693151051523e-01
-8.763145104323846746e-02
6.069983311256173936e-02
3.708142294963164276e-01
2.602602712842040922e-01
2.956087020353362904e-01
4.041289570099279582e-01
1.903643311756317569e-01
5.532024122959897094e-02
1.643696311079412553e-01
-4.167566499318433593e-01
-2.200842875636068452e-01
-2.121221037219304939e-01
4.816055647971088927e-02
-8.994226476219643884e-02
-2.714686807838331273e-01
-1.398483740040900036e-01
4.762328616891607809e-03
4.322784580337507565e-01
2.071483024307129994e-01
1.553984795868481039e-01
1.816119903682923420e-01
2.255832054560552580e-01
-1.551659852688996692e-02
-1.825594343138760567e-01
-2.637766872272022112e-01
4.767026003557679747e-02
-6.836013295249461497e-02
3.803463703263772287e-03
-8.522661643874505921e-02
-2.117213243354186536e-01
-2.423579800437050125e-01
5.543399551902403882e-02
2.735006626298537302e-01
2.558398218513185385e-01
4.851834762160395775e-01
6.145321688163386809e-02
-6.148422197971191439e-02
-5.519579928833090454e-02
-4.887217272485714914e-01
-3.239090176692815265e-02
-2.436711294212680345e-02
-1.787800866680359646e-01
-3.070213628093374503e-01
-1.836399696397308656e-01
1.586373203966847945e-01
-5.404753454853145761e-02
2.002359479841119005e-02
2.118470236268941431e-01
3.779151711461042340e-01
2.997782901841264391e-01
5.274790894926020268e-01
2.328505732340397094e-01
-4.636064923562129708e-02
-2.175598786722424960e-01
-8.035346853716432425e-02
-8.206157271207603632e-02
1.758529321877336515e-01
9.236966698640605711e-02
-1.605021304353211886e-01
2.415756962927526064e-02
-3.460828208890570079e-01
-3.197521068282735413e-01
-1.588849686088760205e-01
-3.001857133049550333e-02
-1.868358722586543341e-01
1.506755219057528683e-01
-9.392329879014922611e-02
2.699197652184168877e-02
1.080309577600252653e-02
1.813979600827513375e-02
3.503835453752883189e-01
2.016338495491414584e-01
4.187739193922361547e-02
1.180547521652217519e-01
2.454669426591587766e-01
1.077086253012489309e-01
-1.550805849258846403e-01
3.032884459606122532e-02
-1.176223990151777365e-01
-2.796311481911814001e-01
-3.070149010041319237e-01
3.427651014793674927e-02
4.956412907836590248e-02
-5.124970477037520816e-02
1.021008348658906661e-01
-5.359932173847490461e-02
1.144519535997801790e-01
-8.683942131920331653e-02
2.479822175165897341e-02
-3.300251520225581242e-02
-5.754894820495507456e-03
-1.686536532516330344e-01
-2.341957362075401117e-01
-2.086990515447593730e-01
-1.962465130437792138e-01
-2.073709024106967780e-02
9.467190511147241527e-02
1.193300250121069085e-02
8.112233853061145972e-02
2.368004689408018670e-01
2.731388903898328002e-01
-1.538995164155424443e-02
1.227154216721387109e-02
-1.102167578461704378e-01
-8.933579424566709393e-02
-3.015386547824739499e-02
-3.380146160502683905e-01
-1.612471666192908104e-01
-7.110602459724653900e-04
-9.662051782279656997e-02
1.580244604951816512e-01
-1.464170599986436561e-01
2.807432250962657028e-01
2.544676282301974735e-01
3.734943106456273254e-01
1.263655456248420628e-01
5.836103601086002624e-02
6.485368632824271840e-02
-2.305498016652735016e-01
-2.068520658363033615e-01
1.365554615197681065e-01
-9.922759761464151895e-02
-2.250318689089399193e-01
1.146805496547624245e-02
2.158174743349434710e-01
3.162593461823670071e-01
2.906309578215336420e-01
3.979678989872780237e-01
8.561923494787722355e-02
1.243270899071705904e-01
-1.749799163250743694e-01
-3.953851560391823117e-02
-8.691262406048276545e-02
-2.461157568670571394e-01
-2.688408954157753272e-01
-6.319390687508473492e-02
-4.675275985823017233e-02
-9.649534571584614251e-02
1.130502230985889478e-01
5.305899942481334675e-02
4.682454576292128801e-01
4.675715992897622741e-01
2.051576074260841043e-01
3.767005206763026637e-01
4.178378340077993913e-01
1.782262867315234922e-01
6.752052078461368012e-02
-2.223228227239170407e-01
-1.762307525174929279e-01
-9.439994557280750875e-02
-2.043274124119661972e-01
-1.844606047496671897e-01
-9.005991808406611787e-02
1.928426404876701639e-01
-3.739214373310645323e-02
3.638325202234822253e-01
3.151212557734486830e-01
1.741683771393912894e-01
2.361635703553041921e-01
4.867078526361090507e-01
1.086974838378070851e-01
5.619293366476857399e-02
1.804607429151265652e-01
-3.519119341032327097e-02
3.694379223526089023e-02
-1.022176747065339092e-01
-9.272633339406795294e-02
-5.106843782865571474e-02
7.873668130211278204e-02
-5.537905640802068263e-02
5.423534849651287515e-02
4.181482333555386899e-01
1.516262834549248206e-01
1.372694496425039268e-01
3.588600513094165056e-01
2.299925670758951324e-01
7.132975214233833183e-02
3.216452375167774824e-01
9.392035376528634627e-02
-2.188545453026538579e-01
-9.103759985571144298e-02
-4.272502117186961594e-03
-1.131096616860322868e-01
3.214202336003151028e-02
1.407747978038131377e-02
7.472244852463191811e-02
1.826319855082921828e-01
6.695065130544144982e-02
5.345086035383984913e-02
1.310926521076818951e-01
3.585138434546970565e-01
3.222287677077074197e-01
5.960603418367396711e-02
9.879355210396933984e-02
-7.126704011189767540e-02
-4.961488433166691414e-02
-1.219901115449319035e-01
-2.566042583292986179e-01
-3.264230483442907144e-02
-1.141880845596650873e-01
1.713686355885650145e-02
-1.005652252263015689e-01
-7.833578924045593583e-02
1.757354396852924272e-01
3.731540338775958809e-01
5.287022594649987139e-01
3.655502249912409019e-01
1.528948915352486559e-01
4.551365917389511850e-02
2.122281389843549276e-02
-5.672285924275925068e-02
-1.922466361474496621e-01
-7.100625144545581399e-03
-4.419424895567149875e-02
2.511273316767438733e-03
-2.235013795775351308e-01
5.231593118435360484e-02
-6.151982728952087864e-02
-1.926385008489205075e-01
3.228609711652284386e-01
7.520783285726846401e-01
4.610619681675247605e-01
3.605857029772064903e-01
5.905302078486042439e-02
8.168931438062118633e-02
-3.358359655066568417e-01
-3.372300151992209394e-02
6.817267693056067168e-02
1.025753900607384028e-01
3.151200003433459601e-02
-2.536804381447349543e-01
-9.000475170252125734e-02
-5.476229657142805962e-01
-8.784451767695281021e-02
4.118780114746873333e-01
7.775370850317195881e-01
5.102057736273030164e-01
6.539888076339256395e-02
1.155952329159105549e-02
-1.818031519847909672e-01
-3.670659956688425707e-01
8.237063065308410786e-03
-1.631101770284690833e-01
-4.266611884107498337e-02
1.699155603370251788e-01
-1.203265782416948482e-02
-3.317924822795565443e-01
-4.218823326622931358e-01
-2.055249696272410942e-01
6.284944275886292786e-01
1.303336481893769383e+00
4.017528946069006679e-01
1.498556683277854629e-01
-2.014320698236314600e-01
-4.229197152206398136e-01
-4.777727256536390410e-01
-2.297075263766028275e-02
1.559627245672062790e-01
3.701379885589202445e-02
-2.828466039368769669e-02
5.230998575279144358e-02
-4.978403078151373562e-02
4.165768145686864488e-01
4.538229844267998025e-01
8.569279088093987307e-01
8.149962408375613920e-01
2.387898390816921568e-01
1.178519696960836083e-01
-2.459399792646620453e-01
-5.241380062767685422e-01
-3.742960754744471541e-01
2.270146349079323056e-01
1.540170450598898622e-01
2.648258077421059564e-01
3.400905088382397690e-01
2.764876750786623427e-01
1.056505874046569510e-01
4.669779589845343137e-01
5.569024012043712890e-01
4.891423548722136361e-01
3.758121502897203148e-01
7.564259550331978166e-02
-1.905862551603549060e-01
-2.183527013023954244e-01
-3.790127387417519533e-01
-4.651063501845159043e-01
-3.709833685129659830e-01
-2.256217979397449058e-01
-3.120487941669490284e-01
-3.584151712688778413e-01
-1.889874133415684054e-01
-1.275200978030929799e-01
-5.818638519574753643e-02
-9.432741970434257994e-02
1.846076595707521195e-01
1.321816538047254630e-01
2.673490740353669515e-01
3.732993064891081958e-01
1.066476829962044182e-01
1.281783332291637767e-01
4.495326675029951979e-01
-1.126137198862780520e-01
-4.419598816439801459e-02
-1.402168105431862155e-01
-3.358836708266784710e-01
-6.266405115908457724e-02
8.875198925918723059e-02
2.001798503389013162e-01
1.501704900077543425e-01
5.368853180101076372e-01
6.887423850082575738e-01
1.001895014684763385e+00
1.137713586930939602e+00
9.578155550852307520e-01
5.953438853915233864e-01
4.035086860671019959e-01
-2.602004766459022900e-01
-2.082856749179058664e-01
-1.107578016087859551e-01
2.851964802145424971e-02
1.358602911194746743e-01
2.064543169509387988e-01
4.925211521203812226e-01
7.118174415867003502e-01
8.754417390217650308e-01
6.833667142732090527e-01
3.932557696910981559e-01
3.707304685851696702e-01
9.365663010229509089e-01
7.029724013950816586e-01
1.890946410228895036e-01
-3.438786747363345442e-01
-1.359165611258331963e-01
-7.103238379589733864e-02
6.242569753162975632e-02
1.448044842852887204e-01
4.478161036477231183e-01
5.606810656071606891e-01
2.045700871330505266e-01
2.548187995965057757e-03
1.809228135231226442e-01
2.323691431091497450e-01
-2.257514347323844595e-01
3.074901809004137454e-01
1.888678466101876563e-01
5.151018417317360099e-01
-1.864572380231412085e-01
-1.421044111457233361e-01
1.874061854339688360e-01
-4.522565479318782673e-03
8.202112464292890537e-02
1.310580940032272657e-01
2.422279235612420367e-01
-7.254264070283429622e-02
9.370681639407865693e-03
-4.079805710257826679e-01
-3.703603721590431608e-01
-7.525858124572282204e-02
1.944629150152386299e-01
1.934772371436760674e-01
2.190125167642815174e-01
-1.963156562039170827e-01
-1.706447154887414663e-01
-7.059120758885926994e-02
-1.053686293107869848e-01
-3.515090064883792664e-02
-3.900906477477938256e-02
-1.436041762042489234e-01
-1.483951645573527989e-01
-2.772367795209884633e-01
-6.158893163989451747e-01
-3.429529183060371356e-01
-2.226261385798204706e-01
2.590563754051556367e-01
9.753276772766961145e-02
1.958159851048793532e-01
-1.272587018914664025e-01
-1.109424502069883134e-01
-1.107150987127041575e-01
1.236028299218215054e-01
-7.883725824027430773e-02
1.578452767213353869e-01
1.822487228585715491e-01
-2.044773834150518388e-01
-3.815633243573750555e-01
-3.031928935717130846e-01
-7.067613172540265776e-02
-8.043177356143084086e-03
8.485929385014644166e-02
2.315917920988736500e-01
2.415209321996982239e-01
-1.011005238579215301e-02
-1.546165757243389838e-01
-1.339596409961947218e-02
1.233209747987704386e-01
4.190551830268220840e-02
1.056802336869029635e-01
-4.743670940823713211e-02
-1.480599387712484283e-01
1.768801079671983578e-01
2.423220339885373987e-03
-2.683595918308449568e-01
-1.886233769755768785e-01
1.534608381300233415e-01
1.247510703320152264e-01
-1.861741818247625024e-01
-2.495558958298131277e-02
-2.553121359073007857e-01
-2.332621390314201099e-02
-1.757352574503009968e-01
-1.256361019386701416e-01
-1.673443374357528324e-01
8.716594068749224100e-02
2.341776739319361422e-01
2.368237778846299726e-02
1.206203965937657357e-01
8.349219043417603625e-02
1.660028147792843856e-01
1.892911541486817506e-01
1.391697242293500891e-01
1.524777561771395278e-02
9.810360925292022083e-02
-2.233599863642657668e-01
-1.061740002149914874e-01
-7.250555358055967015e-02
5.135497730704640610e-04
-5.391162685831021179e-02
-1.748446589091339487e-01
9.064302313751539109e-02
1.598171038666921784e-01
1.280800859650419177e-01
-1.354840796181141366e-03
1.549344386601297641e-01
6.539912642416115252e-02
1.241975311226322168e-02
-5.053525967263414187e-02
-1.881921931241183621e-01
-1.533067384150556822e-01
-1.366435353978648903e-01
1.890324297887323313e-02
9.228603170284345458e-02
1.572274561753825572e-01
1.233351265171959837e-01
7.098512786520570772e-02
2.077697250768901494e-01
2.715577267030447328e-01
-1.506406248351107591e-01
7.297225295091366859e-02
5.782411337440009069e-02
-1.357407189081883958e-01
-1.167431380459572031e-02
-2.805162394795523428e-01
-3.492495053878001410e-01
-1.453726004786932979e-01
-1.596415856115329102e-01
-4.236193423783876644e-02
-1.034645773379432032e-01
7.125923111473341995e-03
7.782952219176546282e-02
5.470367629463480236e-02
-1.868247411713811201e-01
7.987518432605317242e-02
-1.554949539122386371e-01
6.092665690792472416e-02
1.059834688111444961e-01
-1.025911979048230692e-02
-1.135228320751861947e-01
9.304331347915537065e-02
2.501537074073687528e-01
-2.812797289476894839e-03
-1.271082348781296667e-01
1.076931547445798831e-01
2.541321125869204223e-01
2.217598472609242505e-02
9.859813907254444398e-02
1.046515461766283767e-01
-1.636373815118575825e-01
4.679213047547216286e-02
7.550746513657562164e-02
-2.196075969617607149e-01
2.569816609288068099e-01
-2.504538388201561078e-02
1.553297210173832862e-02
-8.811642967166369300e-02
6.581111880543283332e-02
8.204137900312125087e-02
6.230049305689796917e-03
2.113072317977749970e-01
-1.595116428800828490e-01
-3.458268458145181690e-01
-2.305121303092649843e-01
4.477002725565573660e-03
1.953339315808185761e-01
1.323682952782754552e-01
2.024636628498741996e-03
2.248784587010797531e-01
1.799227106677323273e-01
-1.838256314080983778e-01
-1.607276687216262767e-01
1.450705747837537918e-01
-9.686965001441566470e-02
-1.717603772793744876e-01
-1.802549642102208860e-01
-1.773197729639355014e-01
-2.099383846893708161e-01
1.820972792618545111e-01
-2.117575866799139006e-01
-2.024330444997598233e-01
3.439659221606034545e-01
3.368881974065918716e-01
1.708786834919759079e-01
-1.891394445742636959e-02
-1.693449084150312478e-01
-1.227593801985715494e-01
-1.747941088116931052e-01
5.078596334525045664e-02
1.456748958645021630e-01
-2.607405126647472857e-02
-1.277688330871842859e-01
1.689249106290884317e-01
-1.720458310455197926e-01
1.220358312563957735e-02
-1.458602103705985420e-01
5.758035237871565737e-02
-1.512106371912483593e-01
-1.188680661825442936e-01
-1.496174951281514787e-01
-3.790677347475117365e-02
1.145502888816896936e-01
2.441119282831716655e-02
1.654505634775896294e-01
-2.254385585020996299e-02
-1.875790416926082227e-01
-1.220694138569381262e-02
2.234399049374568083e-02
3.942961748798337607e-02
-2.313605257285563377e-01
-1.579988713569597247e-01
-2.511026442771260858e-01
-1.337305604415283122e-01
-1.361350367775502890e-01
-1.787019007655229474e-01
-1.859700457283058189e-02
-5.694238284293182129e-02
1.345297517811026022e-01
-7.559372477714645933e-02
1.141196434402698412e-01
-6.868806467158395171e-03
1.677860860921373543e-01
-8.344439095056981059e-02
4.788132035759627529e-03
-3.090214618516849421e-01
1.291465624589509531e-01
-2.388171552036457423e-01
-2.656927595687214386e-02
-2.293114852266383008e-01
-2.728575145519380740e-01
-4.824957318623752239e-02
-9.339770925020127179e-02
-4.413321434908338073e-03
-1.633606721819352294e-04
1.807886617091066239e-01
1.460190138939984339e-01
2.311835607938514670e-01
-7.955208959994523876e-02
-9.159898729522718275e-02
7.170692672320280736e-02
-5.813901734305555041e-02
-9.712819978728845505e-02
-1.492721218374875314e-01
-5.056969352780919802e-02
-2.220659809754436109e-01
-2.213720533382285971e-01
-2.128945952686472354e-01
-8.453646041013306240e-04
5.372926499152528429e-02
5.004903660494303824e-02
-2.850839490209852722e-01
-1.541231389283937436e-01
5.767351567844196348e-04
-9.217234717534615596e-02
2.477960342531310839e-02
1.058515887906593539e-01
-9.883101791063350627e-02
-1.042533771519769115e-01
-2.142472798526309785e-01
-2.158280751565785915e-01
-2.536851977544704595e-01
-1.371519713754931757e-01
1.583941219922929688e-01
8.106104942081427886e-03
-1.406720867028350419e-01
-2.512583296443779979e-01
-2.494097404627497738e-01
3.710406502948484370e-02
-4.318703636840355575e-02
-9.251927039636231864e-02
-1.572503981087373937e-01
-7.328197078451004209e-03
-5.629108049268666258e-02
-1.827980120285424281e-01
-2.196340488140114955e-01
-2.530402289942221827e-01
3.397833781477442583e-02
2.086092633018252207e-01
8.327355028237629075e-02
1.726487471481130132e-01
5.900390885952613157e-02
-2.370884998322663195e-01
-3.252004589772986565e-01
9.480691928894634246e-02
-1.808739249070224486e-01
2.249834259283960969e-01
5.601626532182063523e-02
1.812405380140141853e-01
-1.375160272794717087e-01
-2.227586209608626300e-01
-2.364518491048378801e-01
1.046887871956041632e-01
3.166370405801562371e-01
3.601911115022488757e-02
2.371877288596481725e-01
-2.113497804585508233e-01
-7.303421075244395828e-03
-2.913710147034191331e-02
-1.667192433312727484e-01
1.292687548883814930e-01
3.993731664920097679e-01
3.277447745825443071e-01
-5.413113389082694488e-02
1.255746456469378491e-01
-2.274716374738844082e-01
-1.571210364593227660e-01
1.853556336387612580e-01
1.613016057922645463e-01
2.446062623085684951e-01
4.378604895111488093e-01
5.889753233616339123e-02
-3.902693690142264998e-02
-1.353223249915547766e-01
-9.229558684451592832e-02
-1.899580212459834466e-02
5.450770947804945560e-02
2.259886674263337225e-01
2.369358644237252662e-02
2.856875313212924317e-01
-3.372161774992543659e-01
-1.439681093168919228e-02
2.063679551458581229e-01
-8.373808482110541018e-02
1.706380587914368141e-01
3.311813759228038334e-01
1.596615818869239756e-01
-1.321506081214890160e-01
-1.735524100306900241e-01
-3.828071093438379369e-01
-1.998045993908264262e-01
-3.261883083590798593e-01
-1.645191245152122506e-01
-4.753928594416283876e-02
1.717659497544946345e-01
-4.127447643625124507e-01
1.976689084970752533e-02
-2.676863210789907563e-02
1.873861629182457800e-01
4.194940773752657837e-01
2.249749955354072017e-01
1.406704599170318093e-01
-1.416506705225132889e-01
-2.116409960942906288e-01
5.721064645404647098e-02
-2.570418858311669386e-01
4.520012993322447548e-02
2.282389786241555973e-01
1.070865753086398461e-02
2.095210010105580389e-01
-9.518544271157335090e-02
-9.240247640487805891e-02
9.954560889617432295e-02
3.892384766617321135e-01
5.578721723930358811e-01
5.085812476565718665e-01
3.041256665631409950e-01
3.452388640682770293e-01
1.130973972833076852e-01
-1.359532499064897981e-01
9.864559530991377778e-02
-1.303199431371206835e-02
2.117272698388735219e-01
3.577626513010792042e-01
4.329124258743001774e-01
-1.608113946061589528e-01
-1.384477675396715221e-02
1.595323149000940632e-01
2.962717273721473532e-01
8.976681610106272968e-01
1.301970930178242725e+00
6.544222744210969056e-01
3.633959672774394467e-01
3.451334725617389854e-01
2.583791710245835760e-01
4.062633689528874492e-01
2.379266393039957544e-02
1.638998209577509635e-01
4.258129091898223417e-01
4.315417341644705446e-02
-3.377564090142441966e-01
-3.848251174877070913e-02
1.294116261876126495e-01
1.995290597624307105e-01
3.872769521334727960e-01
1.266551140838457545e+00
1.004973455545252747e+00
3.968965041326653065e-01
4.818585473133824570e-01
4.704222264539804077e-01
4.744281066349436693e-01
3.046738943843814162e-01
5.239842279265495284e-01
3.258631140867790932e-01
1.325415128934677722e-01
-1.847847445456982651e-01
-2.233522375716097963e-01
-1.975961506758475983e-01
2.853125073323218297e-01
4.712739285730336847e-01
4.912419842206551257e-01
7.362983965337462910e-01
3.942297946737112202e-01
2.829908458284819545e-02
2.264715607927467178e-01
3.214313630785876619e-01
2.995658687121370845e-01
3.274714882600553434e-01
2.206124005470474492e-01
4.046853720691566125e-01
4.110527254256288177e-01
2.978727243250506862e-01
4.686098831164934309e-01
2.687600656817819011e-01
2.066908279852045227e-01
4.056256182302206970e-01
1.018512439757323779e-01
-1.119973490671217521e-02
-1.672172949156141009e-01
-2.691917081073260110e-01
-2.241201054545310101e-01
-1.628951179914009950e-01
8.985034794041556194e-02
1.934143879078962514e-01
1.541890909646927987e-01
1.468233695018743845e-01
2.322288300099543401e-01
4.897472688730844514e-01
4.499046274643937471e-01
3.292647413648011612e-01
3.442810548915889446e-01
1.325689687061980815e-01
9.520330484702599697e-03
-3.319513352735010137e-01
-3.934531255786815618e-01
-3.562959873139363576e-01
-4.189613173655117873e-01
-9.642220546954541338e-02
1.241550439385835300e-02
-4.502933521212910961e-02
1.870918731377543276e-01
5.555048438988590132e-01
4.040205272060984343e-01
1.814142282314060162e-01
9.869308754039704534e-02
7.280300638725030471e-02
1.526934924840068764e-01
4.001484031103112043e-02
-2.320521940680351225e-01
-8.296988588694248490e-02
-6.775916719367904018e-02
-3.622447377912292321e-01
-1.969452413315051775e-01
-5.926768981687689786e-02
1.651165310606202835e-02
4.102653513250972273e-01
2.836970019190764303e-01
3.064926258627563294e-01
2.720946670895217911e-01
7.324078853437708536e-02
1.585611736813009598e-01
1.373987458824636465e-01
5.453644117336509806e-02
1.247873025615773984e-01
8.526629692652176740e-02
9.362130965850135045e-02
-2.423301233350858286e-01
-3.279218107424253237e-01
-1.125164873335787602e-01
-1.600694639564541055e-01
9.120491955195725309e-02
2.185012502051480732e-01
-7.946057812889553706e-02
4.239824866626578509e-02
1.833993140143241607e-01
2.251416447811926402e-01
3.190302416310804579e-01
1.342855278287396759e-01
3.938226850396634449e-01
-1.655200032597573256e-01
6.333584496830245436e-02
-4.330875734753269340e-02
-1.613763532478489082e-01
-1.606678997162988287e-01
-3.273870222800975838e-01
-5.140651321291021120e-04
-1.740818870627597326e-02
-4.047221389879573916e-01
-4.802845569240346557e-02
-1.233216919951334034e-02
-9.628988219189683548e-03
-9.878695690081425174e-02
1.351728933901692464e-01
9.979534788718059934e-02
-2.476686233184660288e-02
-2.298863978160284871e-01
4.359552194920655183e-03
-2.216795134565440195e-01
-2.218375889411018653e-01
-3.478013645789891362e-01
-3.779789476200198090e-02
-1.330686546318730901e-01
-2.818345450924255591e-01
-7.066501787635594278e-02
-9.935882502818810247e-02
8.570233929122354766e-02
-5.334095745899519042e-02
1.783910658979580288e-01
2.277332070201036063e-01
-4.657076250218328967e-02
-3.642829151203453297e-01
-1.101328821030838484e-01
-4.416801139295396111e-02
-1.203336692546263936e-01
-2.103720682509086504e-01
-2.863500472817114700e-02
-5.986080926333935404e-01
-6.302653465672661826e-01
-4.518312812977795523e-01
-8.294592787323948335e-02
1.340155013182917076e-01
3.324082139456007723e-01
1.898300765909991528e-01
1.547126951106402026e-01
-4.011209618868139676e-02
-9.515426604047588777e-02
7.128325819236475559e-04
-5.645747037795161710e-02
-3.964504479151227667e-02
-4.889990474806270304e-02
-5.768829339046376709e-02
-4.508278508249349281e-01
-3.209438253422245979e-01
4.787001573234243856e-02
3.486595564231837474e-01
3.243657378071070352e-01
3.129083077956223424e-01
1.418048753721807831e-01
1.262602815938376477e-01
-1.519262047899180455e-03
9.789333584755599560e-02
-1.204928423954069322e-02
-1.712386976979856090e-01
-1.645639449852109026e-01
-1.846547800904915770e-01
5.221743064124626521e-01
1.693554423890724359e-01
1.254805183778090749e-01
4.555960216069949720e-01
3.755943679044445593e-01
6.345986899813810256e-01
3.571623847059759993e-01
2.817861676648185654e-01
-4.609643105620000320e-02
1.780847389922812427e-02
-1.309122660731569521e-04
-1.344617241367514204e-01
-1.113362082745058407e-01
-1.552723326543938298e-01
-2.341133425339166352e-01
1.407046288094008779e-01
3.221490439419929519e-01
2.429342699852976850e-01
4.220781316811431649e-01
6.332842121388537748e-01
1.955359715632028761e-01
4.108771256557731677e-01
2.460189785288713626e-01
-2.601186784418191289e-01
-1.242708047115621273e-01
-1.188378810249272194e-01
-8.957756801213584419e-02
-4.014312693382542097e-02
-1.036830166938789016e-01
-1.126685559914432644e-01
2.179382135810446486e-01
3.420487266281150851e-01
6.636726872190812365e-01
4.937186934688071460e-01
2.619065396252865940e-01
2.433133885549123576e-01
1.857069424907552557e-01
5.666479741005907116e-03
-2.257310094403763567e-01
-1.880316754192741246e-01
-1.142359438522675130e-01
-1.009387400998112694e-01
-9.707959652945867546e-02
-1.073797598918783541e-01
-1.392161758022593121e-01
-8.874886844152887755e-02
9.690571941910290643e-02
3.292196402222241081e-01
1.074634472128088297e-01
5.952053250927219485e-02
2.654075051937226370e-01
9.035416104896057399e-02
-6.116678054392041264e-02
-1.729904179884794169e-01
-1.657251330844707049e-02
6.327362770485399357e-02
-1.169457586369485463e-01
-1.721353203683220479e-01
-9.172844954959842589e-02
-1.928706344440132558e-01
1.315586225851848867e-01
-1.336086707172751964e-01
-2.331312618467024089e-01
-3.508461388290733951e-01
-3.328099555073820159e-01
-2.779615325694100858e-01
-2.114704025572015367e-01
-2.941207471029152684e-02
1.218173474871043910e-01
-1.119504054293008269e-02
-1.956220562465163515e-01
-2.395780179940541488e-01
-2.042998798192478815e-01
-2.032987961118518372e-01
-3.269622186494522964e-01
3.613264701188127759e-02
8.575256889294285631e-03
-3.135441243894709351e-01
-4.498362402820400563e-01
-3.208748069856338092e-01
-2.481504109466271257e-01
-2.029429625010865379e-01
-1.639267307150403252e-01
-1.628602272045989729e-01
-2.511187485153831278e-01
-2.871548011102035836e-01
-2.802985322438497073e-01
-2.991514770517372801e-01
-3.506762022040131321e-01
-4.734520734592668201e-01
-1.608457697426843476e-03
1.276365781594274718e-01
1.608107821664024606e-01
1.378427671101518648e-01
2.175095121508627549e-01
2.869669888780440048e-01
1.450826234090876465e-01
1.742018981140814882e-01
6.241462381420260774e-01
4.863511501364929934e-01
3.520935729632663214e-01
3.985744470327372557e-01
1.479384712024846560e-01
-6.569104873239574316e-02
5.169674369411241671e-02
-5.332557749764932353e-03
1.249484557214403657e-01
2.429004144247750574e-01
1.566307119847810958e-01
1.257643365244729416e-01
3.608371430754598458e-02
1.590013309625412374e-01
1.066990487775464347e-01
1.424502938388899909e-01
5.136548748814577514e-02
-1.792781254787808795e-02
4.201432160888642076e-02
1.012779176805025799e-01
-7.668309156949151828e-02
5.808903949786200366e-02
-1.333610853865905277e-01
-3.078230873472197898e-02
-1.977103176140268537e-02
-1.543045166811473669e-02
7.541497414148827516e-02
-8.736104867406695174e-02
-2.436568199444981778e-02
1.254914816201492256e-01
-4.939073252523482754e-02
-1.644183787665403629e-01
-4.602354183951912897e-02
2.031201640530873043e-01
5.153789712186528787e-02
-2.894746127498304747e-02
1.116015181027184139e-01
6.245746350790159357e-02
1.603146578473892692e-01
2.705183148803759138e-02
4.191433542049518429e-02
3.970707588344916245e-02
-2.327495570202006703e-02
5.846657180236780604e-02
-1.456206819253730300e-01
-1.258430537543276939e-01
-1.732648937319399562e-01
-1.815270822106414619e-02
1.844968172205744550e-01
3.248088472036371899e-03
-5.598941886171273502e-02
-3.450305323007271663e-02
-1.956608431116767244e-01
6.367094242326654108e-02
-1.031045606060537441e-03
-1.910043080108408953e-02
2.402108262375279302e-01
4.691604676744658142e-02
1.812673128409446055e-01
-4.185146781543794270e-02
-1.357306119684998647e-01
-2.022969440836242527e-01
4.202796739771453433e-02
-4.958191684143683359e-02
-8.952049666253379667e-02
-2.827080326271462218e-01
-3.397069083166781578e-01
-2.577272531680501744e-01
-1.417112458980690215e-01
2.079930628693263672e-01
2.464261337834583732e-01
9.129350133838610992e-02
4.533349109996862580e-01
2.421938170954173741e-01
3.918858788112318352e-03
1.784931957156843663e-01
5.472208847356140049e-02
-5.009166782936427809e-02
2.496762560049766710e-01
9.721639335448559183e-02
-2.097611713115605236e-01
-3.982088101768675448e-01
-7.858390013926770667e-02
5.849785310927154564e-02
1.950554114010338569e-01
1.141396939149031536e-01
2.149200545282271002e-01
5.923885960393588945e-01
3.802847361172085883e-01
5.381805734947071596e-01
4.065012454310540368e-01
5.268664151228731329e-01
6.485208782199143318e-01
5.005651366585563977e-01
1.936375799295254052e-01
1.421636857275986304e-03
-2.690187685927416528e-01
-2.150310812253132531e-01
-2.717375841826741856e-01
2.462239406989009671e-01
1.060712136421882029e-01
3.125185540933087536e-01
5.640836238659143742e-01
4.219037677757840332e-01
4.684412633583643903e-01
4.812254805595313489e-01
3.622362497177991081e-01
4.941711958628986490e-01
5.665569169236411851e-01
5.309197470867413893e-01
1.895603959419948914e-01
-3.248173019642236481e-02
-2.344165941969603428e-01
-1.638486893444242309e-01
1.978630522562997360e-02
-6.602997054488214668e-02
2.590527231265989799e-02
3.013692871379481386e-01
3.093876451665860672e-01
2.973713956934570524e-01
1.268194934131978979e-01
4.110957354717837964e-01
4.942398307752984277e-01
1.842328114815094398e-01
4.667210018863194865e-01
4.164791975307332028e-01
-4.838569433626844357e-02
-1.813223839376424673e-01
-5.935108858093859213e-02
5.849868829420726279e-02
-9.429397866652701465e-02
-4.933225926900464825e-02
-5.215040545438918290e-02
9.825321038067083915e-03
-1.245197671975441928e-01
-9.764141419709790326e-02
6.144750988057845476e-02
5.014245926944834730e-01
3.552519947895459440e-01
4.166788679372340765e-01
2.600913596434356045e-01
1.645434229311123486e-01
-1.703484342988114408e-01
-1.530324412095685205e-01
-3.668696519232371445e-02
-7.235536207502887840e-02
-1.168424513805943754e-01
-2.999561803555374495e-01
-4.054166787963653373e-01
-3.037549141291281951e-01
-2.512000323886417474e-01
-4.959271351876078787e-02
2.038956113153707894e-01
4.704374152043289681e-01
5.506867115669056290e-01
4.464601091464341365e-01
3.258706658474430085e-01
-2.676470030429345948e-01
-2.188034155975372985e-01
-2.213798731000941877e-01
-1.440191018606439277e-01
-1.901573934172266500e-01
-2.859328702132803435e-01
-1.776675840067018786e-01
-2.699774261607055803e-01
-5.808610117983927790e-01
-4.907247565890372476e-01
1.075448826842673317e-01
1.513973711532298483e-01
5.165279306222061440e-01
3.740375922818117149e-01
2.908367458505662362e-01
-8.604414023866099881e-02
-1.723821243675551299e-02
9.658729009730349091e-02
5.537482890044759243e-02
-2.217170707533251128e-01
-2.687337860431936454e-01
-8.888242329650662688e-02
-4.245074283947315452e-01
-8.144353270096252873e-01
-6.567782943430071629e-01
-1.082613625343925162e-01
1.840899699342389284e-01
5.957918829218421530e-01
4.221783834266921720e-01
3.257859928629934232e-01
3.660002781992763386e-03
1.640626387782343973e-02
-5.733185976590117472e-02
8.004648304079171883e-02
-1.557860050079384329e-01
-2.030690956022400406e-01
-1.091059582891508867e-01
-3.060851726550146146e-01
-3.419206611986929656e-01
-3.902211852083988797e-01
2.091613399692406339e-01
4.183441050909024739e-01
5.418848182709342653e-01
2.806784404265750821e-01
2.077097862061615396e-01
-1.257152105376646567e-01
3.683774358986719594e-02
-2.267140927456625168e-02
1.604003437486826167e-01
1.707396742007027124e-01
1.048104321760481329e-02
1.407600861067189735e-01
-8.811072884994020429e-03
-1.224736037509034509e-01
3.196855450011580335e-01
2.986756472592110856e-01
2.574035846534405425e-01
3.497625656132952177e-01
2.746783772578828553e-01
2.666464013653232698e-02
-2.186116539075198817e-01
-2.341543258193791166e-01
-2.016101610104185371e-01
-1.919157622519619411e-01
-2.099837417501449199e-01
-1.594797945407288309e-01
-1.989734802094948740e-01
-2.017576795448895177e-01
-1.546511565105430641e-01
-2.822941133296869576e-01
-1.897641626993965824e-01
-6.758725453955014353e-03
1.215761383894122388e-01
1.155028950603081417e-01
1.589112139566140058e-01
-2.209852857632388923e-01
-2.454964558727054935e-01
-2.460287975733256582e-01
-2.474267301472813096e-01
-2.131285920496771846e-01
-1.833188207551290361e-01
-2.699744072479012824e-01
-2.734221697624937830e-01
-1.645912197288062206e-01
-1.670872638083837070e-01
-1.440088001843923826e-01
-7.807486009904326951e-02
-5.644731500316006040e-02
8.652825266674139815e-02
2.100708318967741961e-01
-2.564724946095434666e-01
-2.610614449292895101e-01
-3.176532941211462902e-01
-3.194539068190258013e-01
-3.168502643765147564e-01
-2.570578471193952219e-01
-2.525968912349094708e-01
-1.794378697852138382e-01
-3.395460548865133349e-02
-6.516180214959858830e-02
-9.967128867467807407e-02
-2.324663736450826856e-01
-5.122339772431687699e-01
-3.281127754269184682e-01
9.329293394217599844e-02
-2.337427997517057265e-01
-2.439144203644629805e-01
-2.904679936595098710e-01
-2.957308336091434287e-01
-3.458262544669359340e-01
-3.269412573605803285e-01
-2.570884215694402841e-01
-1.269020826812628233e-01
2.066552346332995241e-02
-2.699778956847664196e-02
-1.372488316492962990e-01
-5.801458779801140775e-01
-9.373222724048735355e-01
-5.137565005778615967e-01
-9.192934607236394329e-02
-1.976702353069745011e-01
-2.644435375605154737e-01
-2.606011338881474848e-01
-3.677502812914439922e-01
-4.168594786685974607e-01
-3.937800943333865655e-01
-3.312581865031480333e-01
-2.567190883360491727e-01
-1.649903627837331355e-01
-1.354771107129793539e-01
-2.499425186436154411e-01
-6.795478651966483374e-01
-8.528772815540632823e-01
-3.661600297688900052e-01
-2.026313746200665566e-01
-2.269347142677154427e-01
-2.302345977245033593e-01
-2.522410783414132940e-01
-3.867495458054820978e-01
-4.164328149594485051e-01
-4.317490881034369288e-01
-3.409187126555154324e-01
-2.219352219380946734e-01
-2.685688578007683347e-01
-3.395857081581999393e-01
-3.782046439379576630e-01
-2.285854060633872864e-01
-1.855238789582315251e-01
4.911803531491421015e-02
1.052223297555266168e-01
-1.979749503781941811e-01
-1.970987938356458247e-01
-2.708025234285366123e-01
-3.469021270184689532e-01
-3.757260396653567813e-01
-4.536868494871775237e-01
-4.506054201611509602e-01
-3.458753269131956687e-01
-3.034523125964911361e-01
-2.838421568059065203e-01
-6.890720135560959858e-02
-8.863075239175947917e-02
-3.984784525886257700e-02
1.385412471437658111e-01
9.895927956476249787e-02
-1.594937551644404206e-01
-1.841670757794158786e-01
-2.548569934230744405e-01
-3.324070325439399953e-01
-4.284494195400349037e-01
-5.029937497680978531e-01
-5.159671877629192771e-01
-4.341422097816638459e-01
-1.515222280325854709e-01
7.016149696359724741e-02
-7.615683224077055002e-02
2.540149684061220395e-02
1.412589241435925624e-01
3.014330419997167110e-01
7.848871752118770362e-02
-1.845214468578851019e-01
-1.888971291636388494e-01
-2.645714805857057872e-01
-3.506428137367219589e-01
-4.295910134571735983e-01
-5.499461471592983486e-01
-4.648321935139051453e-01
-1.841668693717908589e-01
-2.449217213632658430e-01
3.403521498859694572e-01
2.818412050719544815e-01
4.564251688120146144e-01
9.319397808740295663e-02
3.496142453727700550e-02
1.539509452686737556e-01
-2.019197753574701604e-01
-1.875070372035496369e-01
-2.559965404047938597e-01
-3.140146679278257302e-01
-2.532536689291408627e-01
-3.537558113761833933e-01
-1.182414986761570752e-01
-1.054948065315825106e-01
2.486723630390960671e-01
3.233148231587316124e-01
7.136335869442359536e-01
1.230849174897614834e-01
1.876149440643982147e-01
-3.447508185549046367e-01
-7.122445206078963087e-02
-1.550476590115568432e-01
-1.439851176260662780e-01
-2.067261842870748156e-01
-2.396699911684642137e-01
-2.148152153170029832e-01
-2.309292694733718621e-01
3.072810242476314499e-02
1.731823221191857720e-01
2.321238436142876449e-01
3.796752501663196444e-01
3.904262274312451098e-01
1.009126932271621202e-01
-1.433264064300794338e-01
-3.012879211744181052e-01
4.977703735578806188e-02
-1.197762863485825613e-01
-1.124008158509146454e-01
-6.806622326649777732e-02
-1.642902981287393260e-01
-2.669093731792471225e-01
-1.307300288963066381e-01
9.356376197966423391e-02
9.373090619400714640e-02
5.032979423466148183e-02
6.397388924559608281e-01
2.397351071361531194e-01
1.752162827460204964e-01
-1.486307932117731934e-01
-2.468346963492628054e-01
-3.221449454953541672e-04
-4.628233187629845341e-02
-1.137660874495815544e-01
-2.869237798993542685e-02
-2.511599478405305425e-02
-6.407023564502802027e-02
-1.514656057503398767e-01
-1.162719205003422546e-01
4.024347067617918550e-02
3.095711619669428427e-01
3.628090024395483337e-01
1.675750637431960288e-01
-1.087460785262318597e-01
8.090668747744481082e-02
-5.570436848697862819e-02
2.947135473374671299e-01
-8.120912976246116854e-02
-1.081426955451447736e-01
2.035370206989388711e-02
3.782374411116631169e-02
-1.360642454930317477e-02
-3.336060325739100829e-01
3.189822938728014146e-01
1.672063046565391287e-01
1.182632628448888473e-01
2.469680641993473591e-01
1.716980190927807348e-01
-5.639321241847143618e-02
1.997097832179013654e-02
6.531147997189411247e-02
4.112105087998295105e-01
2.584002017235569396e-02
-2.758785866698881817e-02
4.884099638990161557e-02
1.815390698769504263e-01
6.076453343148213032e-02
-1.131879635495611075e-01
6.969035785230030811e-02
1.516485851384682115e-01
2.073556124699419134e-01
1.430162228776895583e-01
1.507575929647754498e-01
-2.093102651679280835e-02
1.417624822153273623e-01
2.671332374634865503e-01
2.805671265764143607e-01
2.076848703604198543e-01
1.586903607158585972e-01
2.852920372522736725e-02
4.779045665387312430e-02
-2.096927199730758249e-04
-2.611056768782871879e-02
-2.226450179255647643e-01
-6.003376716758188764e-02
-1.498653482021512495e-01
2.282331114229892988e-01
-2.980935938292084142e-01
1.035499769953184407e-01
-3.225350298446897496e-02
-2.088194435760381759e-02
-3.624894904184625122e-02
-2.308614333122638654e-02
6.606930638549513013e-02
9.160840298554558114e-02
-2.253365335665545588e-02
3.799357832285534930e-03
-3.280625763138596551e-01
-3.290509589374374655e-01
-9.450294682580355488e-02
4.720934947779620305e-02
9.890919130538909643e-02
3.156884402914452714e-01
1.980354063381700169e-01
4.856723172694038526e-02
1.146196734856217841e-01
1.188741231458214226e-01
3.085126668174889009e-01
5.107665869806035088e-04
-1.286554388446806696e-01
-9.282699207198488733e-02
-4.245197688252257406e-01
-3.896812938824336658e-01
-1.532661450578522433e-01
4.756135315724701468e-02
2.789573240429271683e-01
-1.129955194797679918e-01
3.046245710579353894e-01
-9.494646741628369468e-02
2.084561660747082934e-01
9.410733118510673789e-02
-2.720869610274640957e-02
-1.010865244338836066e-01
-3.512724185079391798e-02
1.628300718940478009e-01
-1.292470528154492926e-01
-5.289418033604628144e-01
-4.123034296539855315e-01
-2.185598736349429472e-01
-8.315653278870897835e-02
3.329664707178269234e-01
5.350684831197948244e-01
-2.492025879131652133e-01
-2.995231493647180360e-02
-6.372536709474913019e-02
-8.768035915044486775e-03
-1.662126026283421432e-01
3.558841909950212212e-01
2.963607268098398806e-01
2.845064965194037815e-02
-3.526730651862437782e-02
1.268812653758153164e-01
-1.981594140908106150e-01
-1.748176398746630611e-01
1.076297614663445368e-01
7.927744868949935242e-01
2.020623649089208496e-01
8.701093940186167830e-02
6.270314003812073843e-03
1.483138229148106557e-01
-1.900513689203885692e-01
-3.201060741163540002e-01
4.766824066252333680e-01
2.043989890925038133e-01
-6.064208647252064543e-02
-6.743259816229492387e-02
7.977804928299103704e-02
-2.453810995652550703e-03
1.708263186243579312e-01
3.247021883798353881e-01
4.041582647693917618e-01
3.151629324835556467e-01
1.835805051341644623e-01
2.390764312196015928e-01
4.886576956466254229e-02
1.706221106648027688e-02
-2.641022826216056496e-02
5.168046444145718565e-01
4.556566173879048609e-01
3.218976654566668150e-01
2.579085284455505112e-01
9.645952631792838183e-02
2.641934147012699463e-01
5.327154005035915629e-01
5.400934464136751822e-01
3.075739366430531585e-01
3.139400374989833598e-01
2.355550880018607851e-01
-1.274119137905360410e-01
-1.378240497271052689e-01
-4.620462022844462613e-02
1.707804279818868898e-01
2.421379456310470968e-01
5.264336392806439058e-01
4.985064485682151880e-01
6.243349018105726067e-01
7.216733312918550691e-01
7.531213133227752099e-01
5.196349866109025717e-01
5.908967497263941659e-01
2.798829075192835192e-01
-2.335313005169110598e-02
9.129603232438375515e-02
-2.256210660112177302e-01
-6.865275503365685095e-02
2.020564095456191256e-02
3.616157000323368953e-01
3.761740920288347279e-01
5.471791213057281000e-01
6.486988834385821745e-01
7.667491250828397664e-01
5.005894937205314088e-01
1.102839461231366475e-01
1.180724759650222527e-01
-5.122277000133745872e-02
-4.197177204712419091e-02
8.770388378135433871e-02
3.369297127472142828e-01
-1.684784506801214610e-01
-1.362094036566276201e-01
-4.752625009269561412e-02
2.735825102075911119e-01
4.217835029251833512e-01
3.874074885885521180e-01
3.818844207732038365e-01
2.717406495274146683e-01
2.799755103595992223e-01
-3.425695092487131277e-02
3.000864543188805911e-01
4.326249669384827495e-02
-6.794009387850519222e-02
2.854205322587933247e-01
-6.318297011640107430e-02
-2.487032689520019824e-01
3.987086488932975459e-02
-2.624708357268199302e-02
-4.184471368427718913e-02
1.217434474993126792e-01
1.588335057309653575e-01
2.166567094444413755e-01
5.713875780323546955e-02
6.755303284829522470e-02
-3.768460610082630113e-02
-3.488084943351659195e-01
-8.686721428969448877e-02
-3.257295671212915439e-02
-8.283537351935571502e-02
-3.347472643604702536e-01
-1.316531637102785202e-01
1.309458659792477574e-02
5.424906626656596231e-02
-8.742756566594322987e-02
2.201220098527690294e-01
3.287161097114163488e-01
2.547104140252593463e-01
-2.360978705092287300e-01
-1.456483191617098383e-01
-1.181688150389238745e-01
-9.829193098222832603e-02
-6.294116042408332001e-02
1.671006575625536283e-01
-1.715688478966100605e-01
-1.407950295249808526e-01
-2.259804380903513710e-01
-1.377613494380629799e-01
-3.832704185279939280e-01
1.083654027857144514e-01
-8.879311087432016636e-02
2.066700540145319231e-01
-6.989086163699369247e-02
-3.519561995595085202e-01
-4.690680298833697637e-01
1.698154493342132754e-02
-1.313627952138027299e-01
-1.005987190423956318e-01
9.028553313252518642e-02
-8.821297416263594593e-02
3.602717162096445713e-02
7.433161807126445475e-02
-2.627107296193208902e-02
-2.583186351548718562e-01
5.663373943073463784e-02
-2.165789932689917430e-01
-3.141100758809690224e-02
-8.616493469839867081e-02
2.747792659563785475e-02
1.662978664878557444e-01
4.925455343803248481e-02
1.326323877343161539e-01
1.807272734247369339e-01
1.120595380637930683e-01
-1.282636111357209931e-02
-6.341407973919702123e-02
9.313293206585418482e-02
7.961002782875589712e-02
-1.074537278118389561e-01
9.940594450579547103e-02
9.074151473096275788e-02
3.485247823983003007e-02
-9.795849225669318872e-02
-1.044314815240210970e-01
-1.350490401524148121e-01
-1.082766830980038814e-01
-1.140550527950940085e-01
-6.329331915394646735e-02
-2.360465054480164748e-01
-2.305907066452085874e-01
-2.733982640911268858e-01
-1.255134786657780555e-01
-1.073583305396778736e-01
-2.378705601621011467e-01
-2.805907750630514119e-01
-1.600496052432464344e-01
-3.857878399274321246e-02
4.035220776390557873e-02
-1.599844543313206913e-01
-7.701634694783181245e-02
1.724402658439992339e-02
2.955672531965239033e-02
2.507655104131357657e-02
5.586634037370205585e-02
-3.487398678431469917e-02
-2.124669284827811547e-02
1.865157792224735323e-01
2.236462229901350074e-01
5.228681928316072924e-02
-6.055469681179093816e-02
-4.317506074883060985e-02
6.860404153384568049e-02
5.596476507146096874e-02
-6.463606726820063375e-02
-3.099590639349359897e-02
1.211264990213723192e-01
-6.623409960989663781e-02
-6.023246505197703271e-02
-1.808804576914331830e-01
-6.859229787863535543e-02
2.587935664031730254e-01
1.352729290575236387e-01
-2.051700795988512516e-01
-4.585735272617413177e-02
3.647536113689612419e-02
1.605214944781183789e-02
-6.876097573175549149e-02
2.388154381080732913e-02
-7.383881299431262202e-02
-2.041591914507005778e-02
-8.350211041769250997e-02
9.705673895512377525e-03
-3.015378319501363924e-01
-2.857501789225586619e-01
-4.679939724667050299e-02
4.542335611950184399e-02
2.376895660837219024e-02
4.421779979740081967e-01
-5.295029459336655225e-02
1.938370710799253160e-01
-1.352840387265348554e-01
-1.499066026005497487e-01
-9.483239006486132716e-02
-9.817310554713808146e-02
-2.589955974308164738e-02
4.049690008190930807e-02
6.277958308768426254e-02
-2.990519880463586300e-01
2.265372116813383838e-02
1.749051063926898020e-01
1.779782337124420355e-01
4.427978654079267051e-01
4.759331583309222014e-01
3.831535058073822220e-01
2.758575450514187954e-01
-4.174842602262913982e-02
-6.570227265300333797e-02
6.299146902545921245e-02
-6.587287714333757427e-02
-5.547211134689005591e-02
-1.089400379452835216e-01
-1.893233670965604742e-01
-2.555336744516621961e-01
2.105068596016676421e-03
8.675383354854135365e-02
1.109298270843757372e-01
4.779377320312075406e-01
6.190265260791112389e-01
6.164281279110824796e-01
1.604426677877312246e-01
-1.369875025804025703e-01
-1.884684283469002519e-01
6.520293183484877908e-02
6.820602227581619437e-02
-1.258615206663997732e-01
-3.119576491624364012e-01
-2.690242066414667010e-01
-2.789560290939229192e-01
-2.543678967447794426e-01
-5.214076616702364303e-02
1.331862179082525244e-01
4.231923194054238446e-01
6.846055539840518733e-01
2.487346939817293434e-01
1.271811827573828269e-01
-1.128195443781789403e-01
-5.123925810061673650e-03
-7.543888654418788586e-02
1.824641668939313080e-02
-2.631782736544738821e-01
-2.175051674978603078e-01
-1.286651755436333533e-01
-3.836658626837532449e-01
-3.632988831304212463e-01
-1.196506356100175555e-01
1.321876864768238569e-01
6.297611956918980347e-01
6.742163587439057304e-01
5.861929882313520607e-02
-2.217617981364179147e-01
-1.066736802921790794e-01
-1.789327968430073634e-01
-9.528303651561856324e-02
9.045501393357022191e-02
1.714806015602824210e-02
-6.381473835723440458e-02
-2.519862928964716198e-01
-5.049158560760778069e-01
-3.739455259166117318e-01
-7.063530689186754696e-02
-1.864172755406469026e-02
1.289232514150540521e+00
3.573512014205163512e-01
-3.113435712861237908e-02
-4.263566218425292598e-01
5.071966923142103706e-02
-4.965031149297455954e-02
1.438728668151247614e-01
6.870788139569608544e-02
4.336828355301356602e-02
9.492083098559102317e-02
-3.011485277428131990e-01
-2.100317153647973667e-01
-2.062756216336382176e-01
9.957584018378223822e-02
1.670489224192371058e-01
1.568816504785107924e+00
1.045752621804831722e-01
-2.724437405228808395e-01
-4.814463226791866890e-01
-6.580042604644714688e-02
-1.874871917686910250e-01
-1.991284807400846985e-02
-1.065637231829739823e-01
4.849160562738726032e-02
8.355171916142041522e-02
-3.629378420599372879e-01
-2.495212260104693047e-01
-2.788291472315269082e-01
-4.130359370100308847e-02
4.411964545714863184e-01
1.068328805231294254e+00
4.671067790849205668e-03
-3.562811710266625131e-01
-2.588280462638335444e-01
-1.910496630874840562e-01
-5.159779282629463337e-02
-1.112917194468885790e-01
-4.348479910124566222e-02
-1.249367856985588165e-01
-9.481609350152540860e-02
-2.620953536519558535e-01
-3.866215412135967644e-01
-1.119526717738613120e-01
1.566121255304532833e-01
5.950788553489694266e-01
4.995773635021398262e-01
9.409094155794263392e-02
-2.505472297997478615e-01
-2.511577237837358534e-01
2.300098652734533164e-02
-5.724285860633009787e-02
-1.310677511175796853e-02
-2.545454408639002963e-02
9.911407769870314577e-02
1.753898955217500499e-02
-2.370622909826955449e-01
-4.737111080739412894e-01
1.818320051441911153e-02
5.932057944734345223e-02
4.719885376245688269e-01
3.518584821408274887e-01
9.445474326979437507e-02
-1.798253319467119360e-01
-2.044984231939486752e-01
-8.967957029875871233e-03
-9.685369549729984373e-02
-3.492354847582851418e-02
1.168469166107971025e-01
1.125910600885828561e-01
-1.182617111628837259e-01
-2.626020981809991661e-01
-1.487361180044873554e-01
2.920765280995583635e-01
2.352828949069706577e-01
2.009817744011522245e-01
4.117708165192836278e-02
1.317738137115439800e-01
-1.406624314836235623e-01
-2.321268090589275190e-01
1.409154377492832615e-02
8.262546779711810174e-02
1.420767427245735182e-01
2.356199517876725325e-01
1.242230704379032186e-01
-1.149226920369657567e-01
-4.085013691386779611e-01
-3.535589636825640647e-01
-7.874457028840967099e-02
1.939798849722217944e-01
1.358126997913441381e-01
1.634907377624061631e-01
1.079359902787244835e-01
-9.556381052091643402e-02
-1.729493454919846795e-01
1.159707040488545393e-01
2.299111006314297212e-02
-5.940364114915595850e-02
-2.760663612613467946e-02
-1.273571298381062922e-01
-3.275778906905079529e-02
-1.738957906138616782e-01
9.152810035023214996e-02
1.936492512747261044e-02
-1.754691218124699442e-02
-1.685925768055968610e-01
-1.846219907116010634e-03
2.158071454971495495e-03
-1.741757391518001519e-01
-1.837859170396697606e-01
-4.218177633112656366e-01
-1.922608153728345148e-01
-1.227410116254166461e-01
-2.113476360461238879e-01
-3.177947037182800027e-01
-3.903257036813109204e-01
-4.553262807044269334e-01
-5.143729317150692593e-01
-3.755189481576761690e-01
-4.116737769647288991e-01
-9.992973055682824457e-02
2.018414381223266607e-01
1.983937106742073367e-02
6.648193493463339099e-02
-1.525951979321457652e-01
-3.627557301042830806e-01
-1.676121760422020490e-01
-2.032404758217910556e-01
-3.448971056765520182e-01
-4.668393577829996199e-01
-5.118724270526144871e-01
-4.536452373285887463e-01
-2.752436487381990093e-01
-2.009603561962662599e-01
-1.980053560393686962e-01
-3.732170221288139134e-02
2.842866659740381774e-01
-4.634490888943488401e-02
1.073155664966903983e-01
3.355519658070482691e-01
-2.972855792620314186e-01
-1.546819883796519413e-01
-2.661507749487684871e-01
-4.293428299802626857e-01
-4.634307322712807875e-01
-3.385760784670093781e-01
-2.252269338961793155e-01
-2.930919470317889242e-01
2.014337476733229215e-01
3.154587233221795572e-01
1.729556685679529415e-01
3.731203970107432322e-01
1.588964518875020937e-01
1.015205177410937326e-01
1.373306287967761830e-01
-2.662232994795112884e-01
-3.229399925901255686e-01
-4.104265740739135304e-01
-4.351685236158948089e-01
-3.571034919217490056e-01
-2.729628144094612963e-01
-1.722825822397945628e-01
1.353532212758839781e-01
2.016321795168142528e-01
6.541322966731127897e-01
1.254885694039534982e+00
8.037899420323921795e-01
6.470613596838531434e-01
2.421884949730584990e-01
2.865691099265655351e-01
-2.876276790273476491e-01
-4.402891294905032504e-01
-4.495060454644671522e-01
-3.868580438407133726e-01
-2.581314079726277910e-01
-3.925849569540366679e-01
-2.675918220135632963e-01
1.759329481528881106e-02
4.501660423248591836e-01
1.513915930935247678e+00
3.046026472692924814e-01
4.446202371866665726e-03
1.680337349994197038e-01
1.144342302617836066e-01
1.030142369579348655e-01
-3.400123936637564626e-01
-4.698189999609326817e-01
-4.505417887573187063e-01
-3.223239978486571178e-01
-1.242139393122437263e-01
-1.651617906479518894e-01
1.488993529293095586e-01
5.660171601423316656e-02
5.110360107329782187e-01
1.936971352773649846e-01
3.299135059163293276e-02
2.234203199138783819e-02
-3.871854135265704877e-01
-7.306308684398016284e-02
-1.350990580414170861e-01
-3.152060527104854626e-01
-3.827255478375785058e-01
-2.815467154046037423e-01
-1.561835817735709731e-01
-2.186654131198115525e-01
9.002725456198534815e-02
1.199345717764438435e-01
3.686798416133981737e-01
2.978651248966308618e-01
-1.498103819328281128e-01
-2.452622435550937396e-01
-6.267140000926069154e-01
-4.613537982937822579e-01
-2.205212081479830111e-01
-1.284307726115241875e-02
-3.064794436120801269e-01
-2.877058595388741202e-01
-1.716772820120916754e-01
-2.678397133527867999e-02
9.141984495072001671e-02
1.970457223411659353e-01
2.439637951448933029e-01
9.211786251723244612e-02
2.208637418318523948e-01
-2.862537470078183599e-01
-3.926354993981575059e-01
-4.474685777518101065e-02
-9.042296594912731245e-02
-2.135222298083814807e-01
-2.549653547380837867e-02
-3.013482388062143080e-01
-1.154097614066475347e-01
-1.360764877338355716e-01
-2.163247275821978122e-01
5.797320565326621877e-02
-4.142934284931703431e-02
3.746233708379673732e-01
2.079700623931766412e-01
1.775825927353025290e-03
-1.024052993305150754e-02
8.387194469397268870e-02
4.458132717954479268e-02
7.374090905749548785e-02
-1.335899319062452684e-01
-1.650980609889219908e-01
-2.435747574116353120e-01
1.462266312055520139e-03
-1.045319275223703243e-01
-2.573612385713119344e-01
1.147103169677161638e-01
7.728121192801442468e-03
2.736733039007662252e-02
-1.114831178337188228e-01
7.182540872935451459e-02
2.093836071987915659e-01
1.675601459879267063e-01
-2.985631358744489719e-02
2.402867549648702791e-02
3.493457780827868286e-01
2.579799370106300449e-02
-9.455341865335600837e-02
-9.447219516138158357e-02
-1.640587355850512130e-01
-1.592402278848591146e-01
-1.305344657061409674e-01
-9.599535380897580850e-02
1.481062502392345159e-01
9.635306406236379684e-02
8.752588741416154894e-02
4.078728351621064424e-02
2.199367371344226885e-01
3.036887508601333191e-02
1.959493477677528017e-01
2.195861363788340903e-01
2.129974702741156412e-01
8.378972344311955839e-03
3.133107014311453664e-02
-2.231999606186243004e-02
7.870786959938256763e-03
-1.241235931413784549e-01
-2.302147857069273273e-01
2.037822420262296319e-01
2.132823347331180841e-01
5.362115126971687962e-02
2.080256053665942018e-01
3.107601452670707975e-01
2.231067658953608812e-01
-4.561417530571471035e-02
4.100238954518941048e-01
9.270423016728263077e-02
4.344523495485477088e-02
-4.431316395330853197e-02
-1.132119402777531821e-02
-7.796738922504067859e-02
-6.569072233607162192e-02
2.174406850702500227e-01
1.102612799678329564e-01
1.077466060195587660e-01
2.521182760692252112e-01
-2.310774030342299667e-02
3.582869928680854077e-02
8.095004060213216446e-02
6.242472524238836667e-02
2.038498345882231999e-01
1.422879090208296893e-01
1.045364123323561517e-01
-6.406126913127248301e-02
1.161196201212396362e-01
-2.929483841265859700e-01
-1.328825889082557443e-01
-8.365352393067745917e-02
1.737169535171980556e-02
-8.084084697446285162e-02
2.091835614779713123e-02
-8.307344921883846531e-03
1.099837684635750351e-01
9.791920157301954586e-02
1.444200125189557815e-01
1.725856289468158111e-01
1.483104927657129812e-01
1.126850517306196425e-01
3.465875797103564609e-02
-9.588368184069687161e-02
-7.797498222814470796e-04
8.724732463963458251e-02
9.739813572042668732e-02
-1.246409776963622873e-01
2.465703831940903312e-01
1.773696199185558764e-01
-1.840441097474712351e-01
1.697766583435741383e-01
3.551438153938068498e-01
1.243966826396569608e-01
-2.481095644019106275e-03
1.464754910084422046e-01
-2.195869583089876953e-01
-1.027097999607619154e-03
-7.920974575473055390e-02
-1.660720365745922966e-01
-7.088919569702716028e-02
-1.019291684992528896e-01
-2.383891489241544426e-01
-1.252812545151335000e-01
-2.580669422066472762e-01
-1.077831089328524714e-02
1.606936492556081952e-01
9.304403844063996454e-02
-1.598324734849968509e-01
9.331277553004733993e-02
-5.368566325643257808e-02
-7.449644189527375449e-02
-1.922466795534120421e-01
-1.703864681488669319e-01
-1.346220049139702855e-04
-3.401172712558003970e-03
1.398540629878058938e-02
2.482941058464799289e-02
-1.244573643429632559e-01
-3.542020709634591258e-01
-1.083165305155309316e-01
6.199357025435509733e-02
2.114721809326427504e-01
4.307627813679493767e-01
2.928065854815564140e-01
8.381164842003327453e-02
-1.504037067613249734e-01
-6.097620259654102509e-02
-5.608334415807075118e-02
-9.993119324424871996e-02
-1.921915607407043425e-01
1.839913934827755795e-02
5.573857901112825620e-03
-1.132446644965425520e-01
-1.891760274076807746e-01
-1.614911596107659608e-01
6.840746224383381646e-02
-8.961307944126931102e-02
2.382754515216152502e-01
1.962393364624405723e-01
1.584362173880548008e-01
-1.131153382451633438e-01
-6.510521486152652526e-02
-2.511533861021382208e-01
-1.074656084524611421e-01
-3.296278152567428017e-03
-3.555717647379568608e-02
-6.894836418273428413e-02
-4.321058956346711111e-01
-2.662549931615200149e-01
-7.276160340240787894e-02
1.067670748278918835e-01
4.708415025145177846e-01
2.356638251985107291e-01
1.514807605754630443e-02
2.702628919546991026e-01
1.027344758403626705e-02
-1.404579640228178772e-01
-1.223338587007176126e-01
-2.329335267000169907e-01
-8.540170057453028152e-03
-1.401763071561292762e-01
-3.212644864543834911e-01
-2.870344009064024204e-01
-1.412089663900359948e-01
-2.189304036236663920e-01
1.781047923640454722e-01
3.989398380011457967e-01
2.164007578487443795e-01
6.730198438301973618e-02
4.950634159095342046e-02
4.357570523875165663e-02
9.326145996407507813e-03
-4.834087791831328737e-03
7.921508634061702470e-02
-8.082638843159209441e-02
-1.686494805689038312e-01
-2.114906963394845851e-01
-2.528841522667147901e-01
-2.435698412029659865e-01
5.943074002789092147e-02
9.683106446553645108e-02
1.610743413049335049e-01
1.546517601566918809e-01
1.825636107567715771e-01
-3.050919318668864344e-01
7.512743494090857316e-03
3.120630737915542838e-02
1.650423709088523760e-01
7.475337923851392563e-02
-5.183929148249417397e-03
