9.084667688446523837e-02
9.137798428712613774e-02
8.703641742740299281e-02
1.010894149891232857e-01
1.267411046743552594e-01
1.691142290035975437e-01
3.086059931772635045e-01
4.821115661078154702e-01
5.305119736587745605e-01
2.415804910790408655e-01
-1.619999059214111692e-01
-3.127002319479716963e-01
-2.315298166277069414e-01
-1.274563667643523190e-01
-7.253733139753969217e-02
2.811192763181123710e-02
1.217567215837265897e-02
7.858305886648623770e-03
3.558367973655576083e-02
6.559453229054845735e-02
9.999850456575500035e-02
2.692911775177978528e-01
5.390953835574433528e-01
6.519326542609251707e-01
3.284039882646578312e-01
-1.509282346646227957e-01
-3.283822609964731631e-01
-2.334818382094380196e-01
-1.316481427000815441e-01
-7.697128748350820504e-02
-4.467504736353318517e-02
-6.252313684098213808e-02
-6.602441476715101287e-02
-4.691809526539474084e-02
-3.920752905939674932e-02
-1.703125577278596578e-02
1.291399056642175136e-01
4.908655172349408735e-01
7.355059197130741078e-01
4.030438164097090992e-01
-1.139994097761530684e-01
-2.988085981119766310e-01
-2.131676718437250095e-01
-1.323121975347621992e-01
-8.300237754506102628e-02
-7.799316479788748202e-02
-8.828832251506132933e-02
-9.178959032146173647e-02
-9.742216292723630822e-02
-1.239861911138216560e-01
-1.516749605025592973e-01
-1.390527098047965489e-02
4.178664202972717789e-01
7.544680952245160777e-01
4.448310078327550876e-01
-9.362826797653212019e-02
-2.700190428702531342e-01
-1.969745480681507621e-01
-1.362448228438954967e-01
-9.471915401341871044e-02
-6.643697165868281407e-02
-7.228800622764475214e-02
-7.824301915405471042e-02
-1.087494948822473190e-01
-1.764642166365895659e-01
-2.511229386846838274e-01
-1.136226524483618383e-01
3.539177217769606809e-01
7.196419807589485851e-01
4.383525899422922589e-01
-9.488665773176134521e-02
-2.458233853869463692e-01
-1.820763247441184451e-01
-1.322050392130858232e-01
-1.049499062403804334e-01
-2.064278340010954754e-02
-2.840895460573022654e-02
-5.498125012265668576e-02
-1.189245891355781293e-01
-2.133422621629747218e-01
-2.917299352831320136e-01
-1.266465055749375901e-01
3.240911110679946527e-01
6.557043732780887257e-01
3.592796632765937748e-01
-9.003606456589552387e-02
-2.065428709025107501e-01
-1.600219066744412444e-01
-1.234579831428817692e-01
-1.130988529816814164e-01
-7.487803507638775974e-03
-7.486220389132482340e-03
-5.059505900680473511e-02
-1.183036263022117923e-01
-2.153791196139579756e-01
-2.669659251278467260e-01
-6.318388554102931376e-02
3.434233671720802739e-01
5.647505444069504943e-01
2.804251981717477693e-01
-6.638317083503053606e-02
-1.626340836347945351e-01
-1.391364031025236758e-01
-1.209142759100097220e-01
-1.135364052758663506e-01
1.759608073663011807e-02
5.375027344284284345e-03
-3.692554130988600497e-02
-9.469685024536515783e-02
-1.734530715529663536e-01
-1.789975401450766279e-01
2.112009491829384619e-02
3.373507191267224314e-01
4.500709085131131548e-01
2.160538546823324579e-01
-1.587906807465316525e-02
-1.009646910564961503e-01
-9.752473260763629137e-02
-1.078089157176278096e-01
-1.106838140895414907e-01
4.745656233059333817e-02
1.982149296299829874e-02
-1.288670000690289759e-02
-4.928696415722227248e-02
-8.293759585172842674e-02
-5.853650934064008604e-02
1.007821132833245092e-01
2.925104005395902651e-01
3.065834208566158847e-01
1.553784575695096315e-01
4.478153772253507144e-03
-6.352401419832261198e-02
-6.987873007769766776e-02
-8.352167688943207269e-02
-9.867273993265046617e-02
5.995415782265899746e-02
3.870157117670079000e-02
2.626683918392356057e-02
1.525978770130357112e-02
1.120007116423354585e-02
4.726769327853908020e-02
1.231097613943727964e-01
2.069840421334008251e-01
1.990386160988528441e-01
1.182548952443652629e-01
1.298919332972367675e-02
-4.228220823723132654e-02
-5.761128594591089641e-02
-6.656312702051989105e-02
-8.220013512628679409e-02
4.943145790008636464e-02
3.441985563730172448e-02
2.506165526271935187e-02
2.827821127307256557e-02
1.406062705830202729e-02
1.648844278183950532e-02
5.929087451447324908e-02
1.359763107866994725e-01
1.348326415637982334e-01
8.653615293427890931e-02
1.180494874572289576e-02
-4.828266888670316309e-02
-6.183722296167323829e-02
-7.041497417907169321e-02
-8.005921856216480226e-02
1.093356975023680039e-02
1.446899342961388210e-02
4.096498579275474443e-03
-6.345180605604134293e-03
-3.118877898867269960e-02
-3.133581615912349461e-02
1.276480947970482296e-02
7.693240773144759126e-02
1.035361005686802338e-01
6.463966475126683986e-02
1.302725500250636118e-02
-4.044738818277309605e-02
-6.102909397302409833e-02
-6.592337449386237447e-02
-8.296506302816145095e-02
-3.931866761098442437e-02
-3.394361820728836882e-02
-3.911986352219613827e-02
-4.830981497603855507e-02
-5.953993193519038774e-02
-5.670820949398226729e-02
-1.874391804350146809e-02
4.134404892105802976e-02
6.462443880360467519e-02
4.533142359233569701e-02
1.252446434088395032e-02
-3.105834841233795149e-02
-4.528577624002611685e-02
-5.290940854010702660e-02
-8.540543622772350796e-02
-5.232232407862066892e-02
-5.306854032099164037e-02
-5.819295281431341449e-02
-5.759180032758381973e-02
-5.842086186105783369e-02
-5.697635511307112127e-02
-2.452367016038092817e-02
1.525965267944580026e-02
4.869566969812391677e-02
3.712835628889841338e-02
8.743747988115731229e-03
-2.647904765140222591e-02
-3.934632269161254109e-02
-5.930197444430020809e-02
-9.101004584790022001e-02
-5.671432737050874362e-02
-6.968693436194509094e-02
-7.321357357728899840e-02
-6.800284735876754860e-02
-6.031536312429298247e-02
-5.671993909125053190e-02
-3.439698656983130459e-02
1.516386259923611576e-02
4.008543378806537355e-02
2.903236035892528544e-02
4.353719619424011034e-03
-2.639307586450506671e-02
-5.736983242327176047e-02
-7.797826785338721201e-02
-1.067375109909528552e-01
3.530172035576210621e-01
4.180580795180049991e-01
4.327688602346625446e-01
4.091139686597471403e-01
2.833349549153549307e-01
2.433929534511978382e-02
-2.166046341538025999e-01
-3.036555858726787682e-01
-2.554430962693696183e-01
-1.683098654529811555e-01
-9.900128725059180457e-02
-5.481554070306295101e-02
-3.705976402996458835e-02
-2.692592212726027667e-02
-3.195387845361361695e-02
4.405325267902973074e-01
5.123898555138965971e-01
5.489862696446071721e-01
5.246125049206039614e-01
3.757298220997014604e-01
7.540497760836550878e-02
-1.885378785834399551e-01
-2.934604183720123105e-01
-2.470248812097541047e-01
-1.702801477614751258e-01
-1.072056290544785295e-01
-6.972137620089151333e-02
-5.375550062640083865e-02
-4.629745189053231791e-02
-3.944856828237356533e-02
3.155756849628675309e-01
3.477966406712472147e-01
4.128669667076230732e-01
4.943450952785448105e-01
4.470137327569648766e-01
2.380892270725786242e-01
-2.872745461754072638e-02
-1.910691114571998472e-01
-1.981789807442744522e-01
-1.473060804533837254e-01
-1.064110991619087176e-01
-8.581898562334240588e-02
-7.303990930233096590e-02
-6.329640962941178450e-02
-5.418799915695825947e-02
4.009927472159866696e-02
-5.577113317902667594e-03
6.268957263853645878e-02
2.854619932065829979e-01
4.357174236053322214e-01
3.573914959086647580e-01
1.297230792390155485e-01
-6.081336257308932874e-02
-1.399361578697128072e-01
-1.370596905335675353e-01
-1.138780236997345152e-01
-1.036680258121250447e-01
-9.527527290970408402e-02
-8.136744107147658722e-02
-7.550739317465189615e-02
-1.843061560807246757e-01
-2.920137141635901767e-01
-2.317322656213849086e-01
3.580547638844992775e-02
3.069040868254092613e-01
3.873425785716603786e-01
2.102321886533226325e-01
1.229457373151188367e-02
-1.061186803547135571e-01
-1.365661659870787137e-01
-1.310734683665336076e-01
-1.149931182088989728e-01
-1.092647903961663641e-01
-9.401500572087444219e-02
-9.110166193671215273e-02
-2.655116673122540627e-01
-3.698593424242768712e-01
-3.350246619340221388e-01
-1.000630156736986992e-01
1.989376517231507269e-01
3.278583999342818966e-01
2.164406934276708050e-01
2.848099399733738935e-02
-9.435486821530560120e-02
-1.438003324684454243e-01
-1.285900229348291846e-01
-1.137085613320122507e-01
-1.055764152964797919e-01
-1.030561893783716876e-01
-1.003612999782660525e-01
-2.400809383165042332e-01
-3.094040994224969698e-01
-2.797068357669221794e-01
-7.749158080088236478e-02
1.696488930298225839e-01
2.798586625102708059e-01
1.926129718317473594e-01
3.101239758437773428e-02
-9.193187965561010200e-02
-1.351456256555267077e-01
-1.225107729413991292e-01
-1.048035637949731036e-01
-9.602142799005175533e-02
-1.001882262147924391e-01
-1.009572543616379797e-01
-1.515918038737913975e-01
-1.848562911596725034e-01
-1.435785483444526334e-01
1.398131708001104298e-02
1.895364840230248649e-01
2.375915030904431346e-01
1.480836780239087325e-01
1.963515104631022995e-02
-8.360449167419779781e-02
-1.141740622479453515e-01
-1.068060250739613637e-01
-1.003195331231483273e-01
-9.085786520973851421e-02
-9.584386546922900318e-02
-1.013562832577747930e-01
-4.626416519466242105e-03
-1.132564899089966853e-02
1.939037970176932593e-02
1.150027738235370328e-01
1.921868065439146789e-01
1.663535419640586877e-01
9.289146797687911072e-02
3.798913047679516267e-03
-7.164255996161876527e-02
-9.273824388560504561e-02
-9.686954027581912152e-02
-9.065679990160625812e-02
-9.006194182832462369e-02
-9.417105982569361211e-02
-9.941921173917370180e-02
1.463640377771435741e-01
1.289052700787418348e-01
1.190569245134281695e-01
1.558861325787271879e-01
1.545546927898771017e-01
1.077606983506046862e-01
3.959182482901785899e-02
-2.497167806542541918e-02
-7.254146067399767916e-02
-8.481135177264964575e-02
-8.652568419462229599e-02
-8.324281192708256338e-02
-8.603590312627974745e-02
-9.186483664249033010e-02
-9.420068658346623935e-02
2.019053776694728075e-01
1.560893645598984136e-01
1.051471091066802921e-01
9.180273026819982252e-02
7.518019998180007490e-02
2.969694669852995794e-02
1.861047886888451573e-03
-4.597968841026001119e-02
-8.068848949509695168e-02
-8.267977179561739054e-02
-7.975188684085413038e-02
-7.991573071046435828e-02
-8.664758877661965508e-02
-8.949073119509205754e-02
-8.976577631603159524e-02
1.004722488994674312e-01
5.452639423481733111e-02
7.516730197052599177e-03
-1.047638608334284897e-02
-1.244927782473794799e-02
-2.574161654783625047e-03
-1.019243982084937737e-02
-5.874359213672007002e-02
-8.231093772263993469e-02
-7.919805921851848229e-02
-7.366123348328358633e-02
-7.492275871713637014e-02
-8.141556384980423722e-02
-8.479278769815132288e-02
-8.874688909213172827e-02
-2.944733404735437252e-02
-4.923123306261075610e-02
-6.261171128869624791e-02
-5.862325134415229122e-02
-3.652130332817751096e-02
-2.533249462375084318e-02
-2.549046906943340518e-02
-6.506473547717717132e-02
-7.568120082064601351e-02
-7.501715047536451630e-02
-6.640385566110193483e-02
-7.355840256726760285e-02
-7.932268121749028178e-02
-8.779012819728793104e-02
-9.386434876510703351e-02
-7.085891825596418725e-02
-7.885932517133434350e-02
-7.867736606122892329e-02
-6.253538629958471651e-02
-3.401324093179759755e-02
-2.679729716774232814e-02
-3.850330359100465061e-02
-5.803797751301109642e-02
-6.060316387293548240e-02
-7.174921237705439436e-02
-6.757046637324994054e-02
-7.407826045284260363e-02
-8.333051407767341767e-02
-9.479780623076167201e-02
-1.028600925144940031e-01
-4.615158607535710389e-02
-4.237356638297726241e-02
-3.182357101889258383e-02
-2.858993215045813746e-02
-2.561630981179992966e-02
-3.641313076405394006e-02
-4.801188643790570143e-02
-5.375280512388112830e-02
-6.528400752099723647e-02
-7.389693833613493468e-02
-7.374793875852138358e-02
-8.127701839675476048e-02
-9.552195730965910847e-02
-1.055132340156736265e-01
-1.123962687612748979e-01
-3.380015007509194758e-02
-5.761152730661118354e-02
-4.197252012418527245e-02
-1.947146640861376413e-02
3.771218000893165195e-02
8.924707439181882307e-02
4.449041760928713202e-02
-5.445650656933597594e-02
-1.281654647683940218e-01
-1.448377572259108570e-01
-1.167458404845431591e-01
-8.082558152564910114e-02
-6.845693268372532447e-02
-3.790365916618262943e-02
-3.585597917100157711e-02
-4.332891623077836374e-02
-6.154178233621898642e-02
-5.767699250016349727e-02
-2.506908306620974497e-02
6.965718326907546776e-02
1.518956019295511495e-01
9.250592983343372544e-02
-3.605775080731615789e-02
-1.191674414950412153e-01
-1.360419112555119603e-01
-1.000293358889486200e-01
-4.815061106189094664e-02
-3.298655571371054973e-02
-1.814986038103229629e-02
-2.709135249895358241e-02
-2.551352390213225407e-02
-5.677148707090617225e-02
-6.037708683518325931e-02
2.495584650989594606e-03
1.267862206014447601e-01
2.244453407340527284e-01
1.191531156336730901e-01
-4.825817950799275030e-02
-1.256893688417113353e-01
-1.256433104080040830e-01
-7.282884412455668810e-02
-1.260335239055519925e-02
-2.879035780067818774e-03
8.940015923321664509e-04
2.181653419455379262e-03
-8.255265718975822800e-03
-3.103754155233964807e-02
-4.538699774388783165e-02
2.167635182569129307e-02
1.966178774348323055e-01
2.876976329459693393e-01
1.265598768489926973e-01
-8.548006649019813941e-02
-1.414840223672055863e-01
-1.154566043104596207e-01
-6.320992026125281382e-02
-2.636441996435258395e-02
-4.622295361255007035e-03
1.110431726526791077e-02
1.826482810491984743e-02
-4.085433356407647612e-03
-3.356483355510097438e-02
-7.415396964339142361e-02
2.525416589942706957e-02
2.796683094728950048e-01
3.664244407591220609e-01
1.111799177410730671e-01
-1.574800356365780030e-01
-1.935483670953592195e-01
-1.399724175237525570e-01
-9.849183909484134081e-02
-6.621764366313442896e-02
-2.842606879722409802e-02
-1.573056383160214081e-02
6.357549997196663017e-04
-2.808087412807751260e-02
-5.225622692379845724e-02
-1.049121608902471442e-01
4.503547415022887690e-02
3.941709666617883578e-01
4.573504697605029756e-01
5.754240515984673787e-02
-2.414543700705259199e-01
-2.468055977264725087e-01
-1.813953374419324804e-01
-1.276711970127457907e-01
-8.561424271170520184e-02
-4.212943457275952069e-02
-4.808262737307125029e-02
-3.820434315744089537e-02
-4.533546502149846114e-02
-1.038529474338876352e-01
-1.552333505347738007e-01
8.177999163008269068e-02
5.238339602691401975e-01
4.955839598256476797e-01
-7.605182574178440298e-03
-3.073106597599162271e-01
-2.877635908590036595e-01
-1.859188092779957557e-01
-1.169036165016851397e-01
-8.125955759005155932e-02
-5.211056473118880900e-02
-5.431665739686650923e-02
-5.682785931762145831e-02
-9.205331241234698814e-02
-1.811232718605363390e-01
-2.146609467283522310e-01
1.297887734196400966e-01
6.443308782305328108e-01
5.094129766624756472e-01
-7.365387529519426546e-02
-3.486442214065229583e-01
-2.663822082887641884e-01
-1.577812548578466922e-01
-1.046238544418880007e-01
-7.332853996128478602e-02
-3.153464933515386093e-02
-2.896974421390781720e-02
-4.863050098641227142e-02
-1.341466386821480727e-01
-2.453311651423844830e-01
-2.667594217958538794e-01
1.625392924188454324e-01
7.052805044241263754e-01
5.004339986196985057e-01
-1.083274010251715908e-01
-3.273192227383548425e-01
-2.319576814030995249e-01
-1.468817609309033545e-01
-1.143916457186281432e-01
-6.688047121817176921e-02
-3.770214990947684530e-02
-2.537791026149738283e-02
-3.501190897694755194e-02
-1.723119589257564033e-01
-2.842022910532534530e-01
-2.619915778897793368e-01
2.278933524024477908e-01
7.103469441589611577e-01
4.726302941096421351e-01
-9.069890839501580648e-02
-2.592252730892251056e-01
-1.952919530037464380e-01
-1.490118900643555566e-01
-1.188696968193733161e-01
-7.817632332690782615e-02
-4.365024377041000492e-02
-2.220361763770869329e-02
-6.968085338498546631e-03
-1.902163490163298609e-01
-2.930080551281625811e-01
-2.247621913952605466e-01
2.652977342340960276e-01
6.633057935881880862e-01
4.353045577915773401e-01
-2.432234113432162753e-02
-1.734701186364145664e-01
-1.484991524640912053e-01
-1.203751905840510644e-01
-9.583345189847161660e-02
-5.577956382044308575e-02
-3.632600263476276625e-02
-2.611367428458071654e-02
1.229638403930337007e-02
-1.866457080104910460e-01
-2.845189368642652705e-01
-1.910672083678488231e-01
2.673596201063135336e-01
5.992441816762209550e-01
4.257997941083179194e-01
6.436028497664210424e-02
-8.628782229103496015e-02
-9.311867275535765098e-02
-7.543548681856794558e-02
-5.339778780760203597e-02
-2.560229255526851044e-02
-2.557954959736355796e-02
-1.943789188909797114e-02
1.873324029405963251e-02
-1.787323041579841898e-01
-2.504080668875839910e-01
-1.548108179366525505e-01
2.208413731018438741e-01
4.966866245010973513e-01
3.708639658492830504e-01
1.089408241272372957e-01
-3.402205828360229528e-02
-6.888826327028867158e-02
-6.424457348938410195e-02
-3.530480793959781677e-02
-1.271132978690952750e-02
-1.943588289282663015e-02
-7.487404150702439264e-04
1.474029184451388329e-02
-1.552565242396508893e-01
-2.180233185369861992e-01
-1.397192181407385936e-01
1.206930345702487278e-01
3.405726809769783481e-01
2.931967084920646394e-01
1.033713877463717234e-01
-6.514167191817440798e-03
-4.698076660434868934e-02
-4.912606040032392596e-02
-2.749529040264758403e-02
-1.011288244013648988e-02
-1.491002889811198114e-02
-4.841574420759183102e-03
-5.486413406886880839e-04
-1.288298607228758608e-01
-1.731981466150026017e-01
-1.276328097458867827e-01
3.227805849667574750e-02
1.600762580434174354e-01
1.689315984628882161e-01
6.779938109085027753e-02
-1.269480942484990139e-02
-3.904001916515999898e-02
-2.859294918064106059e-02
-5.348199154031918826e-03
-7.742641272095606222e-03
-2.149103187515429350e-02
-1.445181350718003147e-02
-7.851101643562490712e-03
-7.891851225294087280e-02
-7.265327456444668763e-02
-6.731516276020162171e-02
-5.741901310918132856e-02
-4.810395390389174408e-02
-4.548422574732686324e-02
-3.412254280621307423e-02
-3.012488587029383755e-02
-6.330391837189795236e-03
1.570587117723371701e-02
1.677082177490693549e-02
-7.283818056944645243e-03
-3.796056090979117031e-02
-5.162509218898010677e-02
-5.203384221579496205e-02
-6.536609486540966019e-02
-5.481775149349408377e-02
-5.044730468474345475e-02
-4.029137107564857018e-02
-3.426573137972471761e-02
-2.537699938855278795e-02
-2.117396057478967628e-02
-2.130515116192167185e-02
-1.045920049090311860e-02
-6.042195516318335513e-03
1.966920642952949688e-02
3.754441185730118813e-02
-4.411236462954992938e-05
-5.809034678140328339e-02
-8.443419868443659271e-02
-6.521561099683841067e-02
-5.932295392459403099e-02
-3.669561391964396707e-02
-2.202715676659364880e-02
-2.607005838606913511e-02
-1.084894781945732432e-02
-3.662329258359923057e-03
9.594439802399873070e-04
2.138206447706755050e-03
1.084175888566642904e-02
5.213568308787035893e-02
1.172008315429819564e-01
1.074570320996433015e-01
1.018275587404410959e-02
-8.561522028536402984e-02
-6.683634212911310213e-02
-6.020914903451733691e-02
-2.629964954814491968e-02
-9.919304639659053471e-03
-1.094190999078402567e-02
5.216444654430260619e-03
9.025590913315208186e-03
-1.312908764456924803e-02
-1.465214925481121352e-02
3.385661674861319918e-03
7.096557817903623167e-02
1.794591993023703924e-01
2.337050695429402358e-01
1.258051004881921564e-01
-3.960282986729119631e-02
-6.710716118637251315e-02
-5.677234236807548323e-02
-3.814303823724456838e-02
-2.449544301813709815e-02
-1.381188053418987496e-02
-3.407053138695127596e-03
-2.975354250463507419e-02
-6.919757867997648748e-02
-5.423720664674790137e-02
-2.811042869303734260e-02
3.036624269247344132e-02
1.626155050132729596e-01
2.901237580557020079e-01
1.954877422841175549e-01
-2.915117085306233313e-02
-6.549910424387810071e-02
-6.088177843866766220e-02
-5.110729840634849197e-02
-4.230947083652356056e-02
-3.513032715741691570e-02
-3.953241056547822374e-02
-9.152860094976356109e-02
-1.138291699680749613e-01
-1.025822101661195002e-01
-1.037446465124592376e-01
-4.708554829924847807e-02
1.064885015689508996e-01
2.938804634251390158e-01
2.323130451848661182e-01
-2.692545137897658925e-02
-5.274100444673946592e-02
-4.900968377484113403e-02
-4.973992087569020781e-02
-3.593354705969860341e-02
-3.452086915044329241e-02
-5.897795692491305392e-02
-1.016748010870757862e-01
-1.176915363583916768e-01
-1.482848559922923803e-01
-1.473563177084952214e-01
-6.768800332559932187e-02
1.058700893419510097e-01
3.406103037907406428e-01
2.865664539070272299e-01
-8.378299739131216811e-03
-6.303541821540260826e-02
-4.744602941740010821e-02
-3.937965257599422564e-02
-2.020199347179665178e-02
-2.360573507294431647e-02
-6.986437116403015901e-02
-1.159442557946877006e-01
-1.385706694994878474e-01
-1.526926666448939207e-01
-1.478330633139527117e-01
-8.147905848183800703e-02
1.178399788117333313e-01
4.195645911895385938e-01
3.599830506236126881e-01
3.742762206934084732e-04
-6.828421364370926283e-02
-5.827545608019770590e-02
-2.887094533862616039e-02
-1.599431429274119493e-02
-3.704934918924079196e-02
-6.140707706240475933e-02
-1.155988576262391154e-01
-1.431371484214226941e-01
-1.611385463533904772e-01
-1.841960885639633005e-01
-1.253682985669807570e-01
1.681601991712100008e-01
5.453400632468856646e-01
4.234652400784598703e-01
-3.522711603087951698e-02
-8.668479355042335577e-02
-7.388078486694235614e-02
-3.728911115229994327e-02
-1.947586061403003277e-02
-1.415959782286556681e-02
-3.422198790101918520e-02
-9.321493350285367518e-02
-1.189192668133289277e-01
-1.781180688268938217e-01
-2.572212385451722594e-01
-1.849558828339664673e-01
2.404715055016507785e-01
6.372227052950668602e-01
4.052199624446911064e-01
-1.194629515585153151e-01
-1.021033979185317075e-01
-9.124573396079074805e-02
-6.551278119952533285e-02
-2.155249484790220868e-02
-1.194237855049695533e-02
-4.108538526614589209e-02
-8.909547629355717147e-02
-1.347656206468163531e-01
-2.204160903589170994e-01
-3.387857198543863801e-01
-2.012529460428233996e-01
3.303529888408628379e-01
6.743988980116442100e-01
2.788292585473430840e-01
-2.293088364490533659e-01
-1.022323883859886928e-01
-1.002511624291633346e-01
-9.179628795125996388e-02
-5.161681936334559795e-02
-3.241191546503519039e-02
-6.219873580255551315e-02
-9.374050642026662827e-02
-1.441277322512647674e-01
-2.731435162364390656e-01
-3.721734475185021207e-01
-1.144089685274089496e-01
4.717258891802792453e-01
6.319230345610532540e-01
1.054982236284179309e-01
-3.255391742722837933e-01
-9.470354270448681777e-02
-1.016073554980176513e-01
-8.662450098605850579e-02
-5.527052671998891609e-02
-5.435245568985195425e-02
-8.934394019758407079e-02
-1.206152219413448856e-01
-1.994874176612225769e-01
-3.165326270139039999e-01
-3.236519435935931721e-01
6.595665056317383257e-02
6.041459340280956880e-01
5.480649072890014795e-01
-3.462440763745911615e-02
-3.756447062741883891e-01
-7.295286139344706045e-02
-7.779884070409660846e-02
-7.279945414251418057e-02
-4.392416245458094504e-02
-5.012513989389855151e-02
-9.398922593338283893e-02
-1.619648605122653295e-01
-2.564569642179662656e-01
-3.313374238661533910e-01
-1.805906950624000529e-01
2.884351331303371957e-01
6.608071222213250939e-01
4.077018973258996204e-01
-1.241022803454051582e-01
-3.601260748037297676e-01
-6.082206923393728565e-02
-5.707180970441446538e-02
-5.001482513778702371e-02
-3.477576573494176038e-02
-3.008135390004378421e-02
-6.556598397424172331e-02
-1.493369211489449511e-01
-2.320272800114413225e-01
-2.128449478429465802e-01
4.021711822225292055e-02
4.256172691922468498e-01
5.603818346537118300e-01
2.573207972307051672e-01
-1.590641857932389436e-01
-3.077018851064839966e-01
2.869006794655417497e-02
-2.664680889762499789e-03
-4.125385023592201272e-02
-7.819721698946069388e-02
-8.407363850112116455e-02
-7.229706297322319175e-02
-5.342806158189346288e-02
-2.009969528252029611e-02
1.129866165281661200e-01
3.291816249164601360e-01
3.888979019278203109e-01
1.763944134914848250e-01
-6.256485789335440584e-02
-1.465264156876786017e-01
-1.207157381081638697e-01
2.841123652516676628e-03
-3.326966787186742130e-02
-7.380450621485959428e-02
-8.552461530011473689e-02
-7.510978091321809935e-02
-4.746308877683284855e-02
-3.656683585071943826e-02
-3.341908696927785305e-02
9.741522861265865252e-02
4.023863657448367714e-01
5.636150319382339235e-01
2.945258840330407524e-01
-8.222779179743952560e-02
-1.941118311184707457e-01
-1.558941551862250419e-01
-2.332560577843175581e-02
-5.646997212555320000e-02
-8.234000618944686822e-02
-9.294010683217722446e-02
-7.969643223690034417e-02
-5.840408386552820713e-02
-7.859815075911583127e-02
-1.148186740153162438e-01
9.205218167959963033e-03
4.219747615306765343e-01
6.908230310860907775e-01
3.758758175619208441e-01
-1.134370455793999866e-01
-2.506760014121267033e-01
-1.833749657675410039e-01
-3.673596069037354805e-02
-7.370880071152802193e-02
-7.999599734897432091e-02
-9.697590347961161650e-02
-8.719599411400108524e-02
-9.273228505668003330e-02
-1.598933228288763886e-01
-2.478859422261718015e-01
-7.048680029759700483e-02
4.712867434125402322e-01
7.641265256142042439e-01
3.689639818371172608e-01
-1.769791876704101818e-01
-2.815023015122786743e-01
-1.973218584978173595e-01
-2.648891248792757669e-02
-7.013408805140386448e-02
-8.689076266916817559e-02
-7.657483440315619727e-02
-9.119689402225057695e-02
-1.326214955111766625e-01
-2.363159435330142444e-01
-3.421447880081907589e-01
-6.559001616808539381e-02
5.672502361194420306e-01
7.643431314060444848e-01
2.507481019080982643e-01
-2.508944355149647643e-01
-2.859095792935751335e-01
-2.002723516530979242e-01
-6.214169086119215347e-03
-6.210510445644344679e-02
-9.317940682198239122e-02
-1.005507944735972298e-01
-1.239166698999520366e-01
-1.776488339906333036e-01
-3.085350542385075778e-01
-3.422973859124561202e-01
5.552945708840790334e-02
6.591336877459005317e-01
6.460532835902929039e-01
6.707167363912173996e-02
-3.071551832316056774e-01
-2.677851605194387918e-01
-1.878060455110550087e-01
6.106284058723312688e-03
-5.004093861610504901e-02
-9.663638150160190621e-02
-1.183778624528989964e-01
-1.522202718171451474e-01
-2.238060663209362755e-01
-3.314161821965450616e-01
-2.453865024894849867e-01
2.422986225409584637e-01
6.726062633263840684e-01
4.524235906601188351e-01
-8.635089947645516184e-02
-2.971694469939560324e-01
-2.268922307978266939e-01
-1.618563738152005715e-01
2.203807996473259451e-02
-1.697557786935483676e-02
-6.661543661902220859e-02
-8.912186262159205175e-02
-1.303871309229975850e-01
-2.148814916332029146e-01
-2.716832628270543504e-01
-6.956672205251304697e-02
3.689915307676514544e-01
5.737831912811186541e-01
2.501348402825129824e-01
-1.592719337903019949e-01
-2.344158807625176255e-01
-1.785412514680469742e-01
-1.324386308473430585e-01
3.169876807025873156e-02
5.039221703769088991e-03
-3.210634520836457007e-02
-5.142642480469716143e-02
-8.928037265370367126e-02
-1.486768844145960611e-01
-1.271407474833415319e-01
9.417077887989906693e-02
3.837572392127193699e-01
3.963208817692432384e-01
8.387153943684813595e-02
-1.514260801854983296e-01
-1.587018511909036034e-01
-1.323170377081275273e-01
-1.121297419541609774e-01
4.058312014595746864e-02
3.757643993601929300e-02
2.692662631287568234e-02
1.807009491077302566e-03
-3.983965595725535991e-02
-6.961767049100023308e-02
-1.805294749734659768e-02
1.571216528370951437e-01
2.992448252863372793e-01
2.203194108521188965e-01
-4.538095833214694959e-03
-9.734782055452897986e-02
-9.764094165893183463e-02
-8.562808972651403394e-02
-9.136843302876949957e-02
5.183365147639468901e-02
4.245130419825943885e-02
4.344233908739206229e-02
6.073931405422295857e-03
-3.353313009835859337e-02
-6.275844210915447474e-02
2.120064338645781185e-02
1.566549025795837546e-01
2.009310659691907197e-01
8.920237463413370482e-02
-3.632755194425107970e-02
-6.888421411688086526e-02
-7.437159426287763553e-02
-6.412461258312066037e-02
-7.254362036568653971e-02
3.273224163322523139e-02
2.680430203887339963e-02
1.515419633391842241e-02
-1.246311057506520846e-02
-5.519484803004880841e-02
-4.748169884359151188e-02
2.765912702702940512e-02
1.152986686634251690e-01
8.968781751623432219e-02
9.708172512293606130e-03
-3.861189157751583612e-02
-5.254232846119392952e-02
-7.083860658570427515e-02
-7.129807888804709504e-02
-6.408430845636074735e-02
7.098551224965452336e-03
5.020917195668764786e-03
-1.610637015929784061e-02
-4.196552308788427388e-02
-7.419743146889261343e-02
-4.666706644196564474e-02
1.746083211098673968e-02
6.835478534860049693e-02
2.217244742091416948e-02
-1.921396855776726781e-02
-2.517457541303836852e-02
-3.352175077786560126e-02
-8.297988535720983438e-02
-9.863398774714779438e-02
-7.412522674844460036e-02
-3.941378580695523159e-02
-3.621445543825035224e-02
-6.072449120230330455e-02
-7.909247163671363767e-02
-9.024488822673558397e-02
-6.141285583519245916e-02
5.002326902164892786e-03
3.168174320205343480e-02
4.091126592790634772e-03
-2.241629176195721052e-02
-1.846325576238740107e-02
-3.612938812504778302e-02
-8.321240021797716990e-02
-8.943315303074012013e-02
-9.120837386515838474e-02
-8.731594939137490852e-02
-9.541486511166173690e-02
-1.149397915890843502e-01
-1.225600061368825044e-01
-1.035712055501925577e-01
-7.266003802305677495e-02
-2.736030289673653526e-02
-2.158128836520370811e-02
-2.479181159850019772e-02
-1.400268635452077762e-02
-6.764049656949138595e-03
-2.496261145901390935e-02
-6.979475811697524734e-02
-7.787677132234294142e-02
-9.168655016312554640e-02
-2.112502299085638330e-02
-3.881842785511402383e-02
-3.416854099936403322e-02
-3.966102525163569398e-02
-4.284817359390667713e-02
-7.864690460834336538e-02
-1.140916470154980378e-01
-1.616925788424112553e-01
-1.894760528264677335e-01
-1.952162315354331878e-01
-1.839390505169479773e-01
-1.586764142858756443e-01
-1.406509028142559903e-01
-1.212241878309618798e-01
-9.365677664485706766e-02
-2.424568971597658787e-02
-3.702766363490000989e-02
-3.844223835803260020e-02
-4.084867012955540472e-02
-4.664987557315548872e-02
-6.613179037558769569e-02
-1.016638843124771513e-01
-1.507148018470073347e-01
-1.546314364935315600e-01
-1.247974421179043752e-01
-1.191119183659419684e-01
-1.356888256427728201e-01
-1.493984886447540517e-01
-1.404312226330265978e-01
-1.156051866771808240e-01
-1.015564405306446268e-02
-1.557583450875757794e-02
-1.419012473290194067e-02
1.770223625121299148e-03
3.553529492510361376e-02
8.367001384225528082e-02
1.174883884339474049e-01
1.673596609242890831e-01
2.387174569501225585e-01
2.974082350682163423e-01
2.665242855260341326e-01
1.791753465335029771e-01
8.049478639070666020e-02
-1.254864729917704730e-02
-5.737190833420469094e-02
3.897909782002885459e-02
4.588620393922332452e-02
7.472894219769597723e-02
1.557354185775669253e-01
2.788746275631514560e-01
4.282683131217306371e-01
5.639821735963687077e-01
6.675602155117582592e-01
7.192967409721374716e-01
7.334617312680681289e-01
6.825729314946459292e-01
5.666847543517051777e-01
4.001208995738350649e-01
2.251700608846539942e-01
8.778428904338138328e-02
6.279093951601059931e-02
8.547594330691417330e-02
1.593147806929367527e-01
2.779641936782613620e-01
4.638695450843324797e-01
5.863265773445314188e-01
6.266415035194936589e-01
5.829657091343479758e-01
5.479973987038070371e-01
5.380130624107035686e-01
5.371309153570846817e-01
5.388420920222306565e-01
4.947646385696937710e-01
3.520034573367246122e-01
1.857488881548068349e-01
4.409511357898220074e-02
6.432696179614684484e-02
1.482014147385444514e-01
2.655343143939032924e-01
3.706490823601128470e-01
3.440124338065270737e-01
2.118409936015148154e-01
6.291722267948136882e-02
-6.877619731145248258e-03
2.673536143909676852e-02
1.065477825036850457e-01
2.244962970154532889e-01
3.234215847404467437e-01
3.042926882233942254e-01
1.831109697749488119e-01
1.659204209320441076e-02
3.392602728600655621e-02
9.394967427691071349e-02
1.708438681144601179e-01
1.619608705761276524e-01
3.184243667743900941e-02
-1.246696438431018489e-01
-2.302784313016404127e-01
-2.550652723245206421e-01
-2.051946095371436074e-01
-1.020831496356839896e-01
3.415341303532057338e-02
1.851062669587979215e-01
2.276910696840204751e-01
1.272484898262064013e-01
-9.357255068187736793e-03
-4.802480067273633309e-03
2.722761191998654753e-02
5.965510599394768798e-02
1.876839739806390739e-02
-6.852290136386207653e-02
-1.492676555356989565e-01
-1.842469468886835937e-01
-1.780006902135443936e-01
-1.467227210193040865e-01
-7.900882583869113518e-02
1.363071738414321256e-02
1.415971118770597004e-01
1.875087809020232477e-01
9.729199577262752363e-02
-3.050673741206987727e-02
-3.692378679976714845e-02
-2.370382918263392799e-02
-1.437657962369723666e-02
-4.905457021724653199e-02
-7.962971425017800753e-02
-8.154476263747245657e-02
-5.422442135308926103e-02
-4.400590135506327744e-02
-3.906304054438536344e-02
-2.259400974231845494e-02
3.225066420339992024e-02
1.114788103401111174e-01
1.354842761523250561e-01
8.116320177343872011e-02
-5.298819355427395600e-02
-6.626305280425351385e-02
-5.268978418056268626e-02
-5.034858288766663748e-02
-4.342851235320155379e-02
-5.247783612562336580e-02
-2.183429177579816055e-02
2.752942898063667418e-02
2.369633489902557219e-02
-6.985859462638427213e-03
1.030891304587491005e-03
2.793095054138759747e-02
9.510201371818872984e-02
1.175792875629388529e-01
6.826525769346292183e-02
-7.060239934994091970e-02
-7.230446592745817802e-02
-5.960208905376113142e-02
-4.914015528487673812e-02
-2.811946338882312380e-02
-1.313104757277026684e-02
1.513752437995137881e-02
2.272192565760033922e-02
2.332310554022832064e-02
1.505680586346545315e-02
6.624630943846653020e-03
3.881129917241640803e-02
8.958127997301670864e-02
9.868947268501503112e-02
6.009930918970786407e-02
-6.277153723844013100e-02
-7.607751185267129512e-02
-5.721935626692763871e-02
-5.226380936374197539e-02
-5.487521760862118514e-02
-2.518814260682050721e-02
8.922632256946625220e-03
1.291281037140639895e-02
3.224708492354561723e-02
4.108075735647642723e-02
3.296521259772219187e-02
5.216936820809009445e-02
6.023157653088954955e-02
5.622907776009758440e-02
3.888873386712646957e-02
-6.149919113887730021e-02
-6.872648220345951853e-02
-8.062344536461887867e-02
-6.899319330075187606e-02
-6.395160777542903408e-02
-4.363639500944830468e-02
-2.811343859407492568e-02
-2.237247828292555571e-02
3.597423702662774780e-02
3.452287259821318344e-02
2.737678728126741179e-02
4.729490782467817012e-02
4.028937623206354374e-02
3.808425857516842955e-02
3.448081208635535300e-02
-5.182458461960268853e-02
-6.208838162754963530e-02
-8.050444738902401420e-02
-8.575505106114097997e-02
-7.574146701545372840e-02
-6.991162926579552739e-02
-6.281986968034192209e-02
-3.691063058188371465e-02
-9.277085447939146731e-03
-1.018334509070192156e-02
4.872751719520769173e-03
1.736133783960127491e-02
2.482954943718523530e-02
1.578151249076142210e-02
2.918892829011200674e-02
-2.595299752184249131e-02
-5.119146826741765438e-02
-7.579034325018828289e-02
-7.599443487750112691e-02
-7.303262569726390319e-02
-7.304354297150611464e-02
-7.023396522271761755e-02
-5.150493644982728075e-02
-2.920712324067057525e-02
-1.816582497481683892e-02
-2.084119378781373183e-02
-6.260106815052866869e-03
1.154823585921605118e-02
1.308022844418555916e-02
7.007563554614196222e-03
1.906089514291044174e-02
3.473057597057913060e-02
3.866722986497050929e-02
2.005611098233333819e-02
-1.146795712967008628e-02
-4.462198768725243736e-02
-7.041496624554902106e-02
-7.980425699590945610e-02
-7.814730030417833817e-02
-7.203394240683938521e-02
-5.831315364618581271e-02
-4.609845722781338168e-02
-3.455979676204400108e-02
-2.381241299701994038e-02
-1.731726921299793845e-02
2.712113157908293756e-02
3.610893729394628465e-02
3.148577035473079655e-02
3.310601578767180270e-03
-2.987464178305467358e-02
-6.107123035555501317e-02
-8.021339376125556642e-02
-8.530524471658015861e-02
-8.089637667322333026e-02
-7.291886316120524403e-02
-6.179768413768867846e-02
-5.235000855599007685e-02
-3.963212055990809890e-02
-2.774154617224495675e-02
-2.094423757706380743e-02
3.350278230860424811e-02
3.347341991700026470e-02
1.429376312018646247e-02
-1.603500153995839062e-02
-4.310049451061432474e-02
-7.225702593248242711e-02
-8.883694913756449985e-02
-9.224003648571880987e-02
-8.567630313061175285e-02
-7.736437644574094274e-02
-6.450599991193213534e-02
-5.617190047374172324e-02
-4.771526148992393662e-02
-3.941701250802177869e-02
-2.953932051136533288e-02
3.636440232689697183e-02
3.221810594775815356e-02
4.800046817909898317e-03
-2.537346937460479082e-02
-5.753786546987823408e-02
-8.425773991041669853e-02
-1.015229847869748708e-01
-1.010313604204075011e-01
-9.319794336895191600e-02
-8.425010941142581367e-02
-7.378330133049511297e-02
-6.596160095350152297e-02
-6.085542930685148427e-02
-5.107443485029564828e-02
-3.999881763917645383e-02
3.813963236600013962e-02
3.492178682127369121e-02
3.584901472011500778e-03
-3.524389951464775711e-02
-7.068391395571367586e-02
-9.788488232338636574e-02
-1.121276998964829408e-01
-1.124026944477762024e-01
-1.038918652044811264e-01
-9.414064416783607392e-02
-8.562920074521383762e-02
-7.958140550579109740e-02
-7.445845683673822657e-02
-6.480090752075053084e-02
-5.178665024031757491e-02
3.662600451408493107e-02
2.704802431926674189e-02
-3.078068019069447620e-03
-4.311078465244209262e-02
-7.756201254396864753e-02
-1.079322713523192673e-01
-1.228827919047119355e-01
-1.230900499830844402e-01
-1.161769683301169254e-01
-1.058408061624768054e-01
-9.458425202883730121e-02
-8.836717454591895560e-02
-8.530108992095014608e-02
-7.623734927422314012e-02
-5.687383032505782809e-02
3.393832885470928623e-02
1.477241508207376326e-02
-1.585383070653603038e-02
-4.950227543679359965e-02
-8.047916339156394039e-02
-1.149784251924465123e-01
-1.324259089509083887e-01
-1.311944427937275781e-01
-1.224557947070832042e-01
-1.091813611009881668e-01
-9.805150007559748637e-02
-9.269344723763654759e-02
-9.075735029091347439e-02
-8.319651436671009204e-02
-5.517613069129117392e-02
3.120571288710839025e-02
2.804778004931994875e-03
-2.876927014445596065e-02
-5.485563162802789550e-02
-8.194499395392944308e-02
-1.162423566576129413e-01
-1.353294612825951537e-01
-1.316215681447247821e-01
-1.226637305908141601e-01
-1.094491674512101664e-01
-9.959735390595327031e-02
-9.188303796863256379e-02
-9.047245221199508303e-02
-7.629151883798614142e-02
-4.562044488107593748e-02
1.674137341728852008e-02
-1.152894246744620363e-02
-3.745275457307763872e-02
-5.583614570815424033e-02
-8.209531864138747137e-02
-1.138390498242731336e-01
-1.303534767427763641e-01
-1.277773077504240351e-01
-1.207339125104736205e-01
-1.127306795649688498e-01
-9.964775535980649468e-02
-8.993243703199443884e-02
-8.060877048862512273e-02
-6.208280716020878748e-02
-2.842616837718410852e-02
-2.570819163385744399e-03
-2.839434294381067148e-02
-4.864482059841329642e-02
-6.199143239272066758e-02
-8.394271796135392705e-02
-1.084632265947973462e-01
-1.215089496401189767e-01
-1.222492365957971311e-01
-1.175800409182147649e-01
-1.092449151087408615e-01
-9.751859520852197705e-02
-8.500222433710037662e-02
-7.282018011109811506e-02
-5.298770139392148387e-02
-1.883079243788142107e-02
-2.388016974031245340e-02
-4.627170504774805876e-02
-5.776122765132579023e-02
-6.620564162074438208e-02
-8.014032791212497009e-02
-9.862607049734707643e-02
-1.089193151311822483e-01
-1.143854376289444030e-01
-1.151921718818090384e-01
-1.095072314909615319e-01
-9.949664346714370833e-02
-8.448547996882682654e-02
-7.067202143374508305e-02
-4.850860882739453650e-02
-1.811852375026910822e-02
-3.926912300065125982e-02
-5.726755915220137910e-02
-6.362049646250511614e-02
-6.443086127590989809e-02
-7.236294534449913551e-02
-8.647337483582970274e-02
-9.746142736558539854e-02
-1.060649854850601176e-01
-1.109337508497345304e-01
-1.094172027690834270e-01
-1.039276899031263413e-01
-8.945689204248907789e-02
-7.340488658470507854e-02
-4.781872793757981077e-02
-1.902014293168343556e-02
-3.900729119990096333e-02
-5.273694027164224640e-02
-5.656982809769278003e-02
-5.811483859764052240e-02
-6.447861457524343975e-02
-7.765154341590489728e-02
-8.713271962804058912e-02
-9.331346453663215412e-02
-1.014796353564498960e-01
-1.046499977565495815e-01
-1.021055337713447225e-01
-9.307494714439587535e-02
-7.494163249094558388e-02
-4.792491142356758438e-02
-1.422581492683329570e-02
-2.845337546360609052e-02
-3.816221065633637610e-02
-4.594758559814442200e-02
-5.072938800099354578e-02
-5.745026101660358903e-02
-6.866597455807618711e-02
-7.509385284212843903e-02
-8.184750041921105834e-02
-8.915268947661356136e-02
-9.426275397075213613e-02
-9.413673374907467750e-02
-8.881611746556385134e-02
-6.777112832100996853e-02
-3.837067110853682739e-02
-6.177104625629743426e-03
-2.065346958070065839e-02
-2.989417968101736739e-02
-3.933624597473447948e-02
-4.671916017031398777e-02
-5.370254137969279751e-02
-6.290279632476053484e-02
-6.807081103632754704e-02
-7.263635894798887993e-02
-7.617210455117578993e-02
-7.732226495174127079e-02
-7.600134552407020183e-02
-6.626276144060763706e-02
-4.308610235903224950e-02
-1.528970620919328088e-02
8.948490754050519858e-03
-7.907685725187839354e-02
-1.132938694438288402e-01
-1.768744440164454756e-01
-2.694000260127275559e-01
-3.220624405286631742e-01
-6.026908152507733096e-02
4.679101799113487004e-01
7.119437765946102781e-01
4.573121640685901546e-01
8.111663033522502342e-02
-9.582017818884627780e-02
-1.106791691302734665e-01
-7.518052370268195339e-02
-4.421933517750321202e-02
-2.515629708125068781e-02
-9.606894067013369010e-02
-1.429083259170130238e-01
-2.215380578982759918e-01
-3.336412206012568382e-01
-2.888429982299264287e-01
1.869942668046081502e-01
7.163322368023350428e-01
6.864007604813746610e-01
2.023853324352696825e-01
-1.535284651228736030e-01
-1.893566876211761063e-01
-1.443975653501556877e-01
-1.077676572445180614e-01
-7.861978182757782541e-02
-6.113136967880199169e-02
-9.496120177638901760e-02
-1.541511964316034655e-01
-2.370958876850614294e-01
-3.252460938685604042e-01
-1.034385904631631853e-01
4.708809069885428467e-01
7.277312608457467968e-01
3.642929896545303303e-01
-1.336152608127455232e-01
-2.860268242232910096e-01
-1.990405959521706902e-01
-1.181472642768511272e-01
-9.853787554488732670e-02
-9.062925075785782658e-02
-8.077654170198050876e-02
-8.340432537626450704e-02
-1.390637718665733991e-01
-2.226143730715454683e-01
-2.193560728796633275e-01
1.681343687497498518e-01
5.906549887242603658e-01
4.800528031697585685e-01
-1.607840879380243587e-02
-2.899912838713294416e-01
-2.518048997359906838e-01
-1.447840115338810685e-01
-9.402617519605277474e-02
-8.654387017596949783e-02
-9.331207552458732624e-02
-9.508287198285909902e-02
-6.796131300584071222e-02
-1.272685819221500980e-01
-1.708067264843716737e-01
-2.459353565278842024e-03
4.015438995852474435e-01
5.224574403988986315e-01
1.737777514742829821e-01
-1.995740327695559035e-01
-2.596576922642864216e-01
-1.589009042844403974e-01
-8.775158611937911024e-02
-5.906292909014405207e-02
-7.746517976476063883e-02
-9.958593762722403597e-02
-1.067194001881477533e-01
-5.845016150891627765e-02
-9.118405262484351181e-02
-4.996441028832655090e-02
2.157648512783935379e-01
4.662709716442074437e-01
3.277028084150033216e-01
-5.047572889497891485e-02
-2.034245911862102019e-01
-1.424387227432110659e-01
-6.084607087879456006e-02
-3.856878899591309473e-02
-4.763278408425571098e-02
-6.565775664186390692e-02
-9.650485689123437794e-02
-1.157158459881581364e-01
-5.694832529069063926e-02
-4.096659824727277854e-02
7.743737834778721685e-02
3.215516666341926566e-01
3.717473254369225155e-01
1.199431487554526443e-01
-1.161262165486348502e-01
-1.198915796300486086e-01
-3.646331740582373082e-02
6.212759480581794835e-03
1.342488844526164293e-02
-3.355680619361562506e-02
-7.479711685719873937e-02
-9.172453741824222739e-02
-1.103875267720018649e-01
-3.875296876221232673e-02
1.406127480429706332e-02
1.701618226818302770e-01
3.064660939410567830e-01
2.096811449315552356e-01
-1.603965868072236567e-02
-1.071509639057763169e-01
-5.579648437214586310e-02
6.151214413305153457e-03
3.871916197215397731e-02
2.089742360550363165e-02
-2.961517772729118855e-02
-6.750572032377617770e-02
-6.929190399544603307e-02
-8.349084216909721801e-02
-1.128852243533448423e-02
5.520262576846943908e-02
1.770708177951063889e-01
2.182307995313915172e-01
6.915861580570929756e-02
-7.408225261323790611e-02
-7.096356959775459994e-02
-1.994606851993723298e-02
7.793136996118909567e-03
1.983737229632305879e-02
1.023796215067717189e-02
-1.077361620554726819e-02
-2.626020956114363120e-02
-3.932275107225616240e-02
-6.118059536908919405e-02
8.122348637897763846e-03
8.015084514001483140e-02
1.545320715655592592e-01
1.157974915882001576e-01
-1.210609705660244638e-02
-8.157020304061148031e-02
-5.663361965849392221e-02
-8.861006147264727587e-03
-2.105826296413974147e-02
1.547335288934645250e-03
1.199712190753628518e-02
1.155001539151659720e-02
-1.438880645048466050e-02
-3.757687086693519557e-02
-6.284816992975750249e-02
2.673860105090833730e-02
9.681647011628807808e-02
1.410004777138041399e-01
6.392059552623567675e-02
-3.491837331711435816e-02
-8.098657263670369644e-02
-6.694624210234521866e-02
-2.449161499397941449e-02
-2.367865324289451789e-02
-1.317674124501280221e-02
5.284264923817169786e-03
1.722890729417516005e-04
-2.592986775476902733e-02
-4.264342111651282796e-02
-6.265635178694937968e-02
5.814534549946403369e-02
1.291090423183725300e-01
1.522034777240585390e-01
6.181968676451019690e-02
-2.984985199217623369e-02
-6.786562448622329713e-02
-5.551358829484320107e-02
-2.121599704322934057e-02
-3.163618911341357920e-02
-3.182375944967259784e-02
-1.539797819473724336e-02
-2.193771000932163290e-02
-3.925519146213468646e-02
-4.951357685475635956e-02
-6.389962142654194432e-02
9.984771350703866566e-02
1.377220654601049865e-01
1.546565405448353803e-01
7.434294166131616421e-02
-2.014797828182179201e-02
-3.805028084191055399e-02
-2.423149917832464334e-02
-2.128368461856860322e-02
-3.372841621586894489e-02
-3.203670261926001156e-02
-3.556627072113853483e-02
-4.356303734071187428e-02
-6.147408264796816457e-02
-6.482903137241159686e-02
-8.280980739016303993e-02
9.189039471116713931e-02
9.524301267425583362e-02
1.092998406766638869e-01
7.284985682532674200e-02
1.227805305077610612e-02
-9.048906922206466363e-03
-2.010646354392645052e-02
-2.462482680086762812e-02
-2.924847263010431006e-02
-4.008137179831744445e-02
-4.810692622866864082e-02
-6.174734753007774662e-02
-7.574539985988795743e-02
-8.923530708425381208e-02
-1.040175538099116503e-01
4.501102070667137300e-02
4.446867709742539226e-02
3.890808611831534508e-02
2.828584244280796245e-02
2.104616835723770521e-02
2.467650366600516922e-03
-2.331664572379219327e-02
-2.819184923063673340e-02
-4.003378103510175229e-02
-4.516611678760372450e-02
-5.960587380878928226e-02
-7.661878230141484780e-02
-9.450452631143617388e-02
-1.084018338602462661e-01
-1.206126109280395847e-01
-8.851627938202278820e-03
-3.028107498319874968e-02
-3.822363140076239646e-02
-5.149826613020001831e-02
-4.922148442811147273e-02
-7.805199805720867273e-03
4.220985922937307150e-02
9.245489066421345992e-02
1.078518222439928398e-01
8.184593533281968314e-02
5.793723020802248741e-02
6.293953308732640195e-02
5.523496993360994811e-02
3.662597669117019505e-02
3.901711428021203965e-02
-2.802488445956222499e-02
-3.777308830518956440e-02
-4.446878192714588673e-02
-5.006638914338215618e-02
-3.803293656115018517e-02
1.931434326292335094e-02
8.161746185921824048e-02
1.299404795330972306e-01
9.749713436671969546e-02
5.177789297961509635e-02
3.629041481942763686e-02
4.214702998742431150e-02
5.682774749071832499e-02
5.026042700543791736e-02
5.051470760582726927e-02
9.518030728195467057e-04
-5.768047679925353104e-03
2.509109828136944255e-03
-1.697572547890944389e-02
-1.321772899697341722e-03
6.421044757199428910e-02
1.215476868138017225e-01
1.290536606739891290e-01
7.130521643238928176e-02
1.622981268900975174e-02
1.915499194425582946e-02
4.452272039127878195e-02
5.389169165483453927e-02
4.894737077161114697e-02
4.439301084338495573e-02
3.500907047638217306e-02
4.349980869536491934e-02
3.381400042353406576e-02
6.877928180507898726e-03
2.872545013779820300e-02
1.132265241113264709e-01
1.524055709663899860e-01
1.089176860186278628e-01
3.030269363936391458e-02
9.218160220888371378e-03
1.449759206960730094e-02
2.236803625418611399e-02
6.633220882478794468e-03
9.694226623566126050e-03
1.400662970703979264e-02
3.558928710207526214e-02
3.227463561804315428e-02
4.816728964948469374e-03
-3.154587547778083673e-03
7.158764149923385611e-02
1.653696201463249471e-01
1.636751620444019950e-01
5.804597906493865617e-02
-2.149084847512639992e-02
-3.217426198721026059e-02
-1.629233394093520387e-02
-1.354309051448141822e-02
-2.780670596638817535e-02
-3.029658819765583891e-02
-1.277531856368303853e-02
1.099948878140763128e-02
-2.876572062563422655e-02
-6.194650352836299917e-02
2.272952698028589749e-02
1.886836754637453983e-01
2.352181160664360560e-01
1.276965885333552209e-01
-3.119330563736968584e-02
-8.266707007931636819e-02
-7.016368944050015155e-02
-5.337419319238138893e-02
-5.246360549056914430e-02
-5.432456562504623526e-02
-5.502416920792103233e-02
-3.283878054628295434e-02
-5.523789660540353447e-02
-1.204392873206966696e-01
-1.006220249922510218e-01
1.340514956884451825e-01
3.519924955756700280e-01
2.575202378199640263e-01
2.662620347920660255e-02
-1.309441870345981751e-01
-1.444714865385900715e-01
-1.157075416034607507e-01
-9.037097624128560824e-02
-8.891434861572858339e-02
-8.344621653842054787e-02
-6.489900427000572236e-02
-3.770685155621406742e-02
-1.738496447845915560e-01
-2.278114895316644684e-01
-6.218356132584533513e-02
3.062748007285898133e-01
4.509954726450263740e-01
1.824746007420419702e-01
-1.201281083643489928e-01
-2.059866874509496126e-01
-1.713520432986727071e-01
-1.326479805974717652e-01
-1.170725984263360914e-01
-1.122108870836373562e-01
-9.789979281719657367e-02
-6.866394136818546046e-02
-3.843214197367820356e-02
-2.878299408888138622e-01
-2.593032369784820657e-01
9.796302867461184616e-02
4.949882520244653916e-01
4.238181081094593572e-01
1.081642608603844077e-02
-2.489365024818966654e-01
-2.380438281424457625e-01
-1.750544549200113709e-01
-1.393962379063874435e-01
-1.263790382095768550e-01
-1.189966634397443407e-01
-1.042335612247973636e-01
-7.535167037977781590e-02
-3.883146704040697783e-02
-3.341341981705773789e-01
-1.409296259143601737e-01
3.399177671721351213e-01
5.850214828793691701e-01
2.625879623061704859e-01
-1.790091777225741865e-01
-2.728945355446641408e-01
-2.110287077391979071e-01
-1.707037071475305534e-01
-1.497767853733239507e-01
-1.244455296679644607e-01
-1.119324319459475414e-01
-1.054161279985964678e-01
-8.464066199108036259e-02
-5.000745107150411650e-02
-2.308206573501354053e-01
1.240125297511725927e-01
5.496926680901663698e-01
5.242633756299684977e-01
5.195507986246610671e-02
-2.602108995368323519e-01
-2.447152881150614356e-01
-1.798184931072939197e-01
-1.600991264330150765e-01
-1.418991790483286608e-01
-1.176319557394280013e-01
-1.094571590547520762e-01
-1.048651621379518700e-01
-7.912362542292077083e-02
-4.415949263051055507e-02
-3.733095983474518480e-03
3.886204472632403539e-01
6.278312196751325569e-01
3.502574059534081519e-01
-1.034696307199682724e-01
-2.542172563775791927e-01
-1.938320791868003989e-01
-1.449986915073973315e-01
-1.384961808407961237e-01
-1.351881120290673310e-01
-1.144260382466197185e-01
-1.000196745488935030e-01
-7.751042253172166219e-02
-5.874198209585444752e-02
-3.166765288446250076e-02
2.163021807629923465e-01
5.253885745686716069e-01
5.567031108165275688e-01
1.768685908272998319e-01
-1.714703460633286991e-01
-2.205922798798851669e-01
-1.600780022573435324e-01
-1.329607170809131433e-01
-1.267669612892566300e-01
-1.174439342935345992e-01
-1.001570417341068747e-01
-6.965283426181100024e-02
-5.331975808049792265e-02
-4.001949646508251579e-02
-1.737078424248672884e-02
2.937117403393244008e-01
4.853750345560881585e-01
3.972491278105474977e-01
7.856804048222168491e-02
-1.492198738410610848e-01
-1.712147805289381264e-01
-1.324260637796877693e-01
-1.135571978478255584e-01
-1.001293066530770381e-01
-8.476406928246586758e-02
-6.704447085881247437e-02
-4.793948309590417151e-02
-3.621368409123981724e-02
-1.881920675840072915e-02
-1.378448294903031031e-03
2.579620718096312104e-01
3.252049244761603952e-01
2.162605903475834368e-01
3.919536931378712896e-02
-7.395163052905780188e-02
-9.645215163514514467e-02
-8.484692514269150110e-02
-7.333297774591673868e-02
-6.057221522286515558e-02
-4.534553094897941783e-02
-3.263461386947576204e-02
-2.014116256321932599e-02
-1.656422015975771850e-02
-1.218405995681870121e-02
-1.514448624094346784e-03
-2.223365294023100514e-01
-3.202836698923784975e-01
-3.283223183702116410e-01
-1.589620245706871715e-01
1.813781812898760393e-01
4.800027503726816969e-01
5.519314245255630969e-01
4.472448843095324644e-01
2.823486293057759222e-01
1.799779189280816816e-01
1.391679126030138380e-01
1.354957094135841311e-01
1.160913413872328853e-01
1.140755894918197150e-01
9.967394038872344486e-02
-2.304600150192261665e-01
-2.304398374396925964e-01
-3.039287532590157978e-02
2.967901455599643579e-01
5.755419014192103555e-01
6.336327396802695633e-01
4.991361602288857946e-01
2.964741887036484447e-01
1.454300009986624898e-01
7.657311701634642032e-02
5.182650053447734884e-02
7.007589725546710391e-02
6.862005902665199719e-02
7.201506424091017045e-02
7.012665479225847764e-02
-3.757648128752760081e-02
1.621111374496978508e-01
4.457927448259809688e-01
6.474460157967554252e-01
5.919542142171643206e-01
3.561749132972719667e-01
1.329110795886882246e-01
1.928044023747015057e-02
-2.946076047530394107e-02
-3.444071390632441609e-02
-2.291537598568542042e-02
-1.035981764401663983e-03
1.250280142220938119e-02
2.423445943948962858e-02
3.530485444432485131e-02
3.074632827919394074e-01
5.663407786651908360e-01
7.145317715470903552e-01
5.453970979004457709e-01
1.999962202193805438e-01
-2.501693598414937714e-02
-9.482626644832772844e-02
-1.016893274655796264e-01
-1.007856299748072781e-01
-8.150476940443739104e-02
-4.898882346643251839e-02
-3.111961039609857996e-02
-8.059810854891217430e-03
-7.395711563287155760e-03
4.864363191316774075e-03
5.437001884069659896e-01
7.220514183890025528e-01
5.348450115457812348e-01
1.417265831834330081e-01
-1.159514646412693750e-01
-1.609373926072853733e-01
-1.154938184132965062e-01
-9.148118695913882992e-02
-8.978714052657392475e-02
-8.120610979710622679e-02
-6.787995004387990805e-02
-4.391348773187627591e-02
-1.929139814210098156e-02
-2.710945381753535055e-02
-2.768954150619444901e-02
5.661731988607606736e-01
5.190847856491737078e-01
1.815064357999589817e-01
-1.133474370613738041e-01
-1.727365158481271590e-01
-1.182155707761149560e-01
-5.877167024015839125e-02
-5.829395278508433392e-02
-7.825608982461212948e-02
-9.306557025431368146e-02
-6.973032804754311642e-02
-4.257389413075574752e-02
-3.025771013902614492e-02
-3.764422215935579047e-02
-5.014070291660064488e-02
4.291187215886098638e-01
2.213267177044197787e-01
-6.578096721083169507e-02
-1.597295115436656032e-01
-8.068888092455377137e-02
-5.229623580534277852e-03
6.188895422220270712e-03
-1.961103959691079188e-02
-6.403798210822958525e-02
-8.197365048271686161e-02
-6.704097285440531462e-02
-4.624511410529802413e-02
-3.699681801214867866e-02
-4.127047778637787240e-02
-5.620688987638498141e-02
2.104694971438477447e-01
7.093642865104325462e-04
-1.451142879831711641e-01
-1.104767486364222062e-01
9.385759071008036719e-03
4.696876326601112650e-02
3.284692128977573233e-02
9.882750941427265179e-03
-4.099247730797688644e-02
-5.953431454454368582e-02
-5.756335015826456042e-02
-4.459198133316167462e-02
-3.813412245515122173e-02
-3.874586832183694873e-02
-4.261502254883625662e-02
3.641165629420159422e-02
-1.416703658055600556e-01
-1.850244360843018299e-01
-8.988894433763550129e-02
6.240439844530911752e-03
2.052428826064899708e-02
6.782459461479103426e-03
-1.312080502792599933e-02
-3.953556911242593619e-02
-4.042044211938813220e-02
-4.346259628649126738e-02
-3.166703200334164414e-02
-2.077602780098338278e-02
-1.697269956256801035e-02
-2.461511964511995179e-02
-7.987545971838347358e-02
-1.962999430065709705e-01
-1.776514952044264961e-01
-7.383538699362050817e-02
-1.470390513859697913e-02
-1.183086985747443254e-02
-4.072186704399828605e-02
-4.449396124108614264e-02
-4.044669955120957366e-02
-2.853008025050578905e-02
-1.510246647648455162e-02
-6.837471525130437745e-03
-2.514208793651169071e-03
-4.486067092224549878e-03
-1.167736691090616626e-02
-1.337445683794712403e-01
-2.040446506082792821e-01
-1.686729826089375106e-01
-7.830351122501577610e-02
-4.013939588394548064e-02
-4.269763392464622637e-02
-5.199321007535757239e-02
-5.649782479601784396e-02
-5.809785195128468194e-02
-3.452262273253228070e-02
-6.127915992529411361e-03
-8.572871096533048185e-03
4.937743779777669165e-03
-2.556012543172002903e-03
-1.377353386159158033e-02
-7.330495152226305933e-02
-1.274847641229734652e-01
-1.089675725071077295e-01
-5.926602289316194178e-02
-5.183026656344600497e-02
-4.461264527120285817e-02
-6.065572400583144064e-02
-6.202355901500775093e-02
-5.340564289312696444e-02
-4.259614037116809387e-02
-2.856175270092026208e-02
-1.667192990540434031e-02
3.348627945133682109e-03
9.100239459029905217e-04
-3.078913180012268422e-02
1.516012198706847246e-02
-9.506746442510267958e-03
-2.474453832244728410e-02
-1.890852791143847120e-02
-3.419413934366288127e-02
-4.927789380629013505e-02
-6.016347852893288994e-02
-5.804802008162896626e-02
-4.434321259121594416e-02
-3.482406430833539374e-02
-3.611053386594497566e-02
-3.451741600544350891e-02
-2.401765203929611889e-02
-2.946101688475779093e-02
-5.158876549085133351e-02
6.382597517199306569e-02
3.600929081197316167e-02
1.765106177121757809e-03
-2.905869650240719068e-02
-5.719511504996616785e-02
-6.515357075145843113e-02
-5.238550448660612979e-02
-4.023126132014283318e-02
-3.497425394731736026e-02
-3.489732136594968226e-02
-4.316748209771106154e-02
-4.152516603802550166e-02
-4.032369534815924417e-02
-5.100068238564827577e-02
-6.505439066900900458e-02
5.976316363974529949e-02
4.125526553360125276e-02
5.162490531963988966e-03
-2.875000599778122432e-02
-4.035251717751325851e-02
-3.874215230212950389e-02
-3.119234673142654360e-02
-3.649573115697724024e-02
-3.437564367840830609e-02
-4.792639237419190484e-02
-5.164556078294800512e-02
-5.025630294894441880e-02
-5.454454945354805795e-02
-6.791784144841336857e-02
-8.418185062499103366e-02
1.197956048600866902e-05
-7.907511723573343310e-02
-1.265204270061623670e-01
-1.609406427672374074e-01
-1.531473857032728536e-01
-1.553037305857875028e-01
-9.240808602930333793e-02
-5.444415185711145438e-02
-9.128298693747836923e-02
-1.310874509713176872e-01
-1.623934780455568716e-01
-1.503646754692868626e-01
-1.118127095693663975e-01
-8.344166991750676110e-02
-5.771662305377828206e-02
1.271314624423521278e-01
1.097317469160547926e-01
1.226587393516294783e-01
1.687998402698373812e-01
2.245887265521584464e-01
2.824733850715063777e-01
3.279104544117765752e-01
3.028388685882267839e-01
2.043204188955417833e-01
7.029250988812757450e-02
-3.305117452567345182e-02
-7.163066299986582675e-02
-8.016196257771027178e-02
-7.604437717840070721e-02
-5.636081207232691154e-02
4.136726346820600031e-01
4.893715786805508117e-01
5.584828961998237196e-01
6.131222406045527817e-01
6.822486820217364967e-01
7.165120637815992621e-01
7.124226814494928339e-01
6.299964381454653539e-01
4.788124080752569345e-01
2.998614164589980535e-01
1.439673271452145409e-01
4.129344718086423727e-02
-8.097538245938723858e-03
-4.665600992668792607e-02
-5.265569299651463864e-02
5.580368581392971539e-01
6.423789893804320306e-01
6.640921913081007100e-01
6.705867981665807331e-01
6.526543360641583469e-01
6.320274192639295796e-01
6.090403569574851517e-01
5.876821241162997200e-01
5.038574246364271314e-01
3.862706362471494126e-01
2.644008276910791433e-01
1.170604602198949545e-01
3.078534248767215986e-02
-1.828938602874022323e-02
-5.514276110862898622e-02
3.550694034662584264e-01
3.417761234504091417e-01
2.932633168278526159e-01
2.191361971194184521e-01
1.570789252244900458e-01
1.221261271669783904e-01
1.316391824028834423e-01
2.018769711019255952e-01
2.690118043219673072e-01
3.036174972199850997e-01
2.682735618083150753e-01
1.681438123629735437e-01
4.471980251401714429e-02
-1.322370669204709151e-02
-6.802094827004405431e-02
5.111269117711684379e-02
-6.645073402443331390e-02
-1.440659956301750255e-01
-2.067424449112777451e-01
-2.167111125166652219e-01
-2.109580721991450580e-01
-1.752903787247369616e-01
-9.300546942473861267e-02
2.992315126833874558e-02
1.814497367150202378e-01
2.360862353819077608e-01
1.729322276861549601e-01
6.367961824157424011e-02
-1.805199842527797915e-02
-8.518283112643737498e-02
-1.136425778036229128e-01
-2.167023944977300998e-01
-2.696867048263606459e-01
-2.774266027477981789e-01
-2.528115554305545021e-01
-2.451135793578752831e-01
-2.293224730973291159e-01
-1.765006850259825399e-01
-4.034710548566801391e-02
1.028380476942149097e-01
1.687298275617545862e-01
1.472260212330857854e-01
8.169073286038686099e-02
-5.785787568420316593e-03
-8.086440660986607409e-02
-1.363385913581276754e-01
-1.815078198424618650e-01
-1.880469342803509081e-01
-1.613259935005446344e-01
-1.408437196845188366e-01
-1.661241074560126929e-01
-1.953462840094300490e-01
-1.760696700930868552e-01
-6.561878432144319095e-02
4.459802558189172178e-02
1.184690793709415324e-01
9.990464511132886305e-02
6.793161739008758693e-02
1.613065477623287086e-02
-5.577155904637401407e-02
-1.176456190028193349e-01
-1.209509462308442224e-01
-9.647006531292587339e-02
-5.559800272704541052e-02
-5.474299627342782415e-02
-9.706174637664188865e-02
-1.433641399950349449e-01
-1.270975002753761407e-01
-6.048571498593909718e-02
1.692017787138062890e-02
5.657087326282274342e-02
4.903484356935242788e-02
4.270296964552257324e-02
2.389669225932643248e-02
-2.952937200005888510e-02
-9.985137797403363658e-02
-8.811788103327961030e-02
-4.032638594691779349e-02
7.646666024956731440e-04
-1.509727740811601243e-02
-6.722101705654237591e-02
-9.609490375181550803e-02
-8.264896234936795760e-02
-3.560044139732191498e-02
6.867758849021456287e-03
1.434222937008434832e-02
5.673552938695375879e-03
2.208301424446228178e-02
2.227388166820226667e-02
-4.461683504249025489e-03
-1.019226634315075763e-01
-1.012203544313240028e-01
-4.959063943241210498e-02
-1.935499835042560693e-02
-3.763817079719573161e-02
-7.002076418258841584e-02
-7.385968294517290811e-02
-6.738630768281676786e-02
-4.077373687282240949e-02
-2.574060022435467610e-02
-4.415169223155123585e-02
-3.848160930815183733e-02
-2.003133377706274240e-02
1.077132809048035773e-03
-4.995411910764205321e-03
-8.358166433318185706e-02
-8.147676712018042666e-02
-3.579913490976651541e-02
-2.473848536169633711e-02
-4.281113154662667675e-02
-4.988762642406697340e-02
-5.008835517361298617e-02
-3.963732784157905642e-02
-3.801058034467164060e-02
-5.910648765912064617e-02
-5.506248669267967827e-02
-4.835585018041408528e-02
-2.229100550378478734e-02
-1.118936478479559508e-02
-8.934079245670205685e-03
-3.181807008499656919e-02
-3.633058751145795684e-02
-1.656271847521828544e-02
-1.760769745955104854e-02
-2.328886311611610277e-02
-3.916210229296102768e-02
-4.987788313424790232e-02
-4.085353429664614205e-02
-4.115917947405046268e-02
-6.713197123394420984e-02
-6.012370926984716285e-02
-3.709022498258460893e-02
-1.721448826371356836e-02
-1.629420930499543910e-02
-1.485473035672140417e-02
-1.825594910497930698e-02
-1.884807226273749539e-02
-2.784564231576926174e-02
-2.972850933386369729e-02
-3.769182788609197476e-02
-4.815892930703905700e-02
-6.026475463443504293e-02
-4.534339732861594058e-02
-5.609173439718617704e-02
-6.898992139512584443e-02
-6.799916630600261191e-02
-4.865873236876356450e-02
-2.774218013738476152e-02
-2.383821932212791192e-02
-2.703747507100218855e-02
-3.522069676580621284e-02
-4.155180576628315220e-02
-4.205866914484645419e-02
-3.688631275094446382e-02
-5.010855671143393808e-02
-7.364318906102179652e-02
-7.359388199826516486e-02
-5.549500923473432018e-02
-6.095698580528380317e-02
-7.267608542429614127e-02
-6.688023493194118763e-02
-6.183233833606963104e-02
-5.478056266950755843e-02
-5.333297565942214657e-02
-4.479454568517594881e-02
6.058337781066815836e-02
5.247638640376631886e-02
4.166730606776960361e-02
1.383971198752125334e-02
7.226606237768407395e-03
3.885105932128890809e-03
6.523206229803592097e-03
4.631338549437875179e-02
1.307096795748884377e-01
2.342195649014740255e-01
3.421415040310661348e-01
3.089720094388313520e-01
9.049386955943375388e-02
-1.528967584098837595e-01
-2.120550079358861362e-01
5.674473571307440956e-02
3.463230269172567349e-02
7.686065725523669526e-03
-6.329175623000233251e-03
-1.244529701609774913e-02
6.194753137347582851e-03
4.595549311135289222e-02
8.556976892072365448e-02
1.377471947523677132e-01
2.662254014541159397e-01
4.892174760248902410e-01
5.797467540264296115e-01
2.822788611354272725e-01
-1.444695663142470665e-01
-2.969087053810715027e-01
3.573529584562966377e-02
5.499752395220844012e-03
-1.426122607448668776e-02
-3.213166775585966223e-02
-2.436440601900881700e-02
-4.067175299345625675e-03
1.102423116469205926e-02
2.083089345200505801e-02
3.065668893742803935e-02
1.344888686218605189e-01
4.473524976471933701e-01
7.316368763831904154e-01
4.783755068229967322e-01
-8.924044199331167271e-02
-3.415609166646020323e-01
1.718409167518736985e-02
-2.093023361921087649e-02
-3.874433714831478776e-02
-6.408932194544086913e-02
-6.512379841258696123e-02
-6.012352046778861314e-02
-7.480186779053615842e-02
-1.245452498380623108e-01
-1.505496150465951144e-01
-6.897481814004825795e-02
3.318456235506687668e-01
7.673268998618405501e-01
5.772625120559939926e-01
-3.119826860830334642e-02
-3.328105250494469147e-01
-1.031326032117184550e-02
-4.338030381997969032e-02
-5.684964683667530910e-02
-9.134085087611734655e-02
-1.046391769465838395e-01
-1.252431463771752906e-01
-1.504700225559654214e-01
-2.072131997709401874e-01
-2.578341464100265545e-01
-2.001229273281271703e-01
2.385287766559199552e-01
7.579638787371042463e-01
5.857163341082120001e-01
-2.233760751030866229e-02
-3.255169978399422015e-01
2.272117266060500167e-03
-3.583906037598937055e-02
-6.558002277092171706e-02
-9.500293818964797299e-02
-1.176935433355258132e-01
-1.471701149906004258e-01
-1.756398075422691829e-01
-2.213719806481011798e-01
-2.854546657299682488e-01
-2.077092092998329143e-01
2.522046862358459651e-01
7.182016213026231055e-01
5.218067397260950369e-01
-4.398451373599741171e-02
-2.984467814821354925e-01
2.010123666922030219e-02
-2.349543305756898043e-02
-6.124958387837611817e-02
-7.602923119472125568e-02
-1.143983484124808658e-01
-1.501635642887995115e-01
-1.746905177904878315e-01
-2.185913391161190544e-01
-2.847190924305928461e-01
-1.443655484793077426e-01
3.217891344571481849e-01
6.408485857066953395e-01
3.942601844439122538e-01
-8.091187261101664974e-02
-2.413891144546348733e-01
2.867392820217748092e-02
-8.414157527908696591e-04
-2.300015264163489739e-02
-4.502479095993415503e-02
-9.427676154486415439e-02
-1.400999331138203519e-01
-1.780239155385421324e-01
-2.317808394243384418e-01
-2.473904437789285760e-01
-4.327700583894912578e-02
3.767577263512139063e-01
5.235063648766898892e-01
2.495216706447870580e-01
-9.267602794446107295e-02
-1.907532837484388066e-01
4.510554474047656637e-02
3.350763329597017393e-02
5.966679409435171437e-03
-2.275529680430897483e-02
-6.356983160813754752e-02
-1.024562286812208400e-01
-1.571361418659867892e-01
-2.093542472988088599e-01
-1.658367081022469602e-01
8.285097828159258826e-02
3.627943405885269423e-01
3.709141935028765213e-01
1.403109283843211874e-01
-8.037976360307613755e-02
-1.442453750340335072e-01
5.975168477681652018e-02
6.798224722936731246e-02
5.621139025973681536e-02
3.635380020350666153e-02
-2.238327308987790240e-03
-3.345326207763638093e-02
-7.364071392487761547e-02
-8.303692510141340299e-02
-2.335789915655108254e-02
1.490199351101192116e-01
2.715598754271987270e-01
2.109458799909179894e-01
6.216217184850507393e-02
-5.229363546304015981e-02
-9.829920364699284985e-02
6.726339393496272301e-02
9.854764903427691569e-02
1.041324272196904044e-01
9.982757633999091162e-02
7.073528409300071373e-02
6.074640576562351929e-02
4.379072970741277465e-02
3.116581850300450401e-02
4.221503809302031701e-02
1.271930359081261952e-01
1.533334376153784318e-01
1.102140898846033085e-01
1.645166931830556109e-02
-5.292927112460251576e-02
-1.044923222304276755e-01
8.455016831601576410e-02
9.966773375764101384e-02
1.143744421611569001e-01
1.063359341849759720e-01
1.017973932871715226e-01
9.778454973861079591e-02
6.423200235750226028e-02
2.410046582882360150e-02
7.648450512528884998e-03
7.078913173445408602e-02
1.161905957190939170e-01
8.866853228801027664e-02
6.810417412672731090e-03
-6.528100518674880004e-02
-1.134358213505597401e-01
5.744796030293562727e-02
5.871802010419832629e-02
8.619088326545795709e-02
9.949432665664262321e-02
7.831022836161730116e-02
3.755453285641008332e-02
-1.853893657434523001e-02
-7.127906320259745632e-02
-5.655114629047024860e-02
4.245307990536382331e-02
1.003772484516532587e-01
9.965447996309244327e-02
3.043884316030411388e-02
-3.940472748301534350e-02
-1.052529795141990410e-01
2.649109931331383727e-03
2.103791505055132779e-02
3.787297357114319946e-02
4.897419103328694984e-02
1.950079003782875797e-02
-4.497300354614469642e-02
-8.733971210950010333e-02
-1.196089143552580003e-01
-7.758418640836835245e-02
1.556381504638522026e-02
8.264418510717544408e-02
8.731694568214047603e-02
4.932283756285400604e-03
-5.433017160132214834e-02
-9.784336716909425302e-02
-4.663896133522549975e-02
-3.943272706177778503e-02
-2.394619294856860717e-02
-5.208028069679240639e-03
-2.202275260937016158e-02
-6.255405713528222611e-02
-1.035702340432269469e-01
-1.196468477977052358e-01
-7.372881843973325133e-02
-3.488975313904600726e-03
5.470410697058964572e-02
6.211939022466635846e-02
9.969832446255615446e-03
-5.405220002439396765e-02
-8.911917375228294025e-02
-1.794788769586495858e-02
-3.171871052815827124e-02
-4.339604356905676918e-02
-4.902164943752048559e-02
-4.525070503675007738e-02
-6.164312616775735609e-02
-8.162058296553298398e-02
-1.076423268331405669e-01
-1.005317107026496154e-01
-1.389395457574490664e-02
5.092297226809477939e-02
6.331372921212069516e-02
3.081167401479072837e-02
-1.899121637587945777e-02
-2.826945441363463984e-02
-2.994623525108709022e-02
-4.929774408261559937e-02
-4.909082676061614359e-02
-4.239256159773578669e-02
-4.251293906599253741e-02
-5.726989114755188376e-02
-8.142775136047834816e-02
-1.273154043966934212e-01
-1.180705253735954419e-01
-2.751124144488532441e-03
1.037631415660972556e-01
1.026470469365024368e-01
2.906641672630794898e-02
-2.621298278443025265e-02
-3.395578507929413598e-02
-5.649603121453154742e-02
-6.583687676991611948e-02
-5.466001691336936502e-02
-3.888345156399099917e-02
-4.850312449776464363e-02
-6.778952877274606326e-02
-1.113895982156841713e-01
-1.645720274835829333e-01
-1.245004318705913993e-01
6.443695133939188191e-02
2.078796587303015364e-01
1.698695437108088679e-01
5.892832497113580786e-02
-6.115587517600043141e-03
-3.546360287133508427e-02
-6.754317779416264822e-02
-8.081673833617279701e-02
-5.498873005133893960e-02
-5.071838071815097659e-02
-6.957263117730996815e-02
-1.032139690259048781e-01
-1.785770538754171688e-01
-2.263114495514349789e-01
-6.403702157343592327e-02
2.384730234447409725e-01
3.405344488513328827e-01
1.825109492216083207e-01
4.422615432117514567e-02
-2.563586593206060998e-02
-3.808953426327733871e-02
-7.121699544730676623e-02
-8.268046400918650785e-02
-5.824120860262876898e-02
-6.440801092895394320e-02
-1.049366553039938338e-01
-1.892175833989380995e-01
-2.880402945297988460e-01
-2.108178290565574098e-01
1.425547842553959443e-01
4.597732050640838675e-01
3.846271966080153648e-01
1.187513528531202039e-01
-2.638096821558487057e-02
-6.080151169029686387e-02
-4.993588894954896495e-02
-6.793561963640985801e-02
-8.074781796550893620e-02
-8.206066686379824560e-02
-1.051021892654047940e-01
-1.821702931865298303e-01
-3.030978319343122784e-01
-3.392299729301636035e-01
-9.983231043569277922e-04
4.409225421780229581e-01
5.502248887008316380e-01
2.390807410005541533e-01
-4.675813121738848360e-02
-1.181995195282376787e-01
-8.907665252909321985e-02
-6.251482075375858205e-02
-6.792793534630606200e-02
-8.154280654818543694e-02
-1.028902268764827210e-01
-1.631441417063197175e-01
-2.640152705854952875e-01
-3.422944495044490942e-01
-1.203734886135061910e-01
3.615256265944408187e-01
6.201350005878832894e-01
3.846712067930817547e-01
-4.787921897097939528e-02
-1.769431027187811645e-01
-1.510494437266693968e-01
-1.021234791229873873e-01
-6.834735847865594516e-02
-6.587666486239890373e-02
-8.015995629031866243e-02
-1.100742371088237609e-01
-1.801355732065299808e-01
-2.739861782466854745e-01
-1.576894711704825702e-01
2.728721342257645621e-01
5.998553069919555503e-01
4.867327489217556091e-01
3.262682651503763520e-02
-2.342593247362587672e-01
-2.089623206901172481e-01
-1.442396155988964201e-01
-1.012327481371218113e-01
-7.358429637790027400e-02
-5.135305194289367658e-02
-6.482914748629169110e-02
-1.026296152689493424e-01
-1.589229983198602592e-01
-1.133965117095563774e-01
2.135729873510361088e-01
5.594450811923306066e-01
5.332729617567131264e-01
1.180480183981526127e-01
-2.231328589297039700e-01
-2.456808380942984704e-01
-1.568841097053766953e-01
-1.046362628821209256e-01
-7.697276390376417421e-02
-7.489221381899027752e-02
-2.880849996339976404e-02
-4.294103734394340982e-02
-4.884036104048839616e-02
-1.635356112478652743e-02
1.895891496674119436e-01
4.935578222252973712e-01
5.467419703354915450e-01
2.084570342489879824e-01
-2.003945955152853231e-01
-2.688100042872568207e-01
-1.736899380852164609e-01
-1.046377862345962834e-01
-8.352426946140519004e-02
-7.253966419388541143e-02
-5.846593008252800455e-02
-5.656478493397080511e-03
-5.493315765304099089e-03
2.693612418622770566e-02
1.519529796384909426e-01
3.676977627484003808e-01
4.605734773255529269e-01
2.475050926974753374e-01
-1.174565462771725577e-01
-2.790638084894822568e-01
-2.090934121682869185e-01
-1.223459822359962840e-01
-7.683190214489275804e-02
-5.574303951344856262e-02
-3.815519568729607708e-02
-2.128919223186848120e-02
-8.741360352159397232e-03
7.700283553984073499e-03
7.493675159017584853e-02
2.049178288415201554e-01
3.130284703735197738e-01
2.389648317822765100e-01
-1.592293303679291616e-02
-2.203460670689506851e-01
-2.121596152147695591e-01
-1.359570441582340916e-01
-8.568536923566047459e-02
-5.338875907958415962e-02
-3.643282899990788609e-02
-9.000285876044686675e-03
-2.287466697922531985e-03
-3.087078617660243829e-02
-9.903204007938025757e-03
7.377960015667434091e-02
1.641870383730485161e-01
1.788880959348261024e-01
6.871078760014702469e-02
-9.813838204219137162e-02
-1.607524263106234474e-01
-1.111446029965745541e-01
-7.154224191484211126e-02
-5.244477414636131846e-02
-4.693209503825500339e-02
-1.526614194523264259e-02
-4.900406176893265173e-03
-7.391239976688229393e-03
-5.592684336416534063e-02
-1.699596948372429292e-02
6.032682010584839577e-02
1.317973340247204084e-01
9.476969207992243238e-02
-1.027081379870621418e-02
-1.076304554515319228e-01
-1.238667997204901394e-01
-7.726122395760162687e-02
-5.468042089843354325e-02
-5.338491769651605712e-02
-3.846760429836201117e-02
-1.082600254648517953e-02
2.657328886200310217e-03
-9.430174783845573019e-03
-3.383060967278966880e-02
4.411680862503808247e-03
7.126576840397777501e-02
8.924560689927947543e-02
3.477756063510942935e-02
-4.685879060264915713e-02
-1.109927969074066406e-01
-1.025354941949311871e-01
-7.039610047480270028e-02
-5.726949995196269766e-02
-4.419752395728811234e-02
-2.207690718845086233e-02
-9.274232780296137041e-03
-1.093602870321802633e-03
-2.146464168081571242e-02
-9.447021260706857382e-02
-7.489508841494028901e-02
-6.729163440584598477e-02
-6.348185308536982707e-02
-5.828018471794853272e-02
-3.367197263288638359e-02
-6.713753494125631292e-03
-1.162816144849602128e-02
3.271465866738862416e-03
-9.258767436812170848e-03
-2.750730955955010479e-02
-4.936205245955450904e-02
-3.218549393374740830e-02
-4.172393274029216614e-02
-4.139212615674867091e-02
-9.235386302769985067e-02
-6.241303881679451104e-02
-5.655466251114215498e-02
-5.789236188641226633e-02
-2.232513172198411291e-02
1.160902024646291199e-02
3.157468764064007977e-02
7.504040829216546138e-02
1.043421886271626714e-01
8.220662629633093688e-02
4.792179168622798940e-02
2.115716963013599891e-02
1.343516936782838088e-02
4.598090644212965948e-03
-8.015013387953196997e-03
-9.158104032561040220e-02
-7.487326571367573791e-02
-6.977202117283703986e-02
-6.029438826825353481e-02
-3.044603113172370326e-02
6.326865272527221369e-03
4.258818416452441608e-02
9.364013806620716251e-02
1.116993908604504288e-01
1.217343304033448453e-01
9.812474923745378996e-02
8.202311645909397819e-02
6.545242035285266102e-02
5.344005065902415058e-02
4.805734742904466117e-02
-9.080071562973350552e-02
-7.437841442804773995e-02
-6.715198537153060920e-02
-6.276572971583466165e-02
-4.661373243174108533e-02
-2.652595369409417592e-02
2.368992456286768758e-02
6.236981903685944600e-02
7.914039111874594801e-02
9.487173799666617779e-02
9.481743214407571674e-02
7.442199719574665862e-02
6.175437845686902044e-02
4.778960520784142352e-02
2.918256869380507143e-02
-6.986779986662304542e-02
-6.382955086254667176e-02
-6.755317768339851037e-02
-8.963121050439816495e-02
-6.253844324948452937e-02
-2.828638486159352691e-02
1.671804072494375432e-02
3.384322633913249001e-02
4.303289710057360551e-02
2.466841021215771326e-02
1.635812904518899394e-02
-1.181277753491865624e-02
-2.592222740998383068e-02
-2.733563233798661299e-02
-5.784404423253103333e-02
-5.673677023898321403e-02
-5.744101231012262165e-02
-7.524474577980845569e-02
-1.021837788335999003e-01
-7.711183943766705684e-02
-2.724013536594546356e-02
6.912567445409121582e-03
4.607143888126078064e-03
-3.171918415188827722e-02
-7.645491249148148039e-02
-9.620324396325644067e-02
-1.142882449733920724e-01
-1.286745173137733567e-01
-1.270894761996747280e-01
-1.332450286608205248e-01
-4.932957887610381342e-02
-6.093604620538022043e-02
-9.106325213724661416e-02
-1.118794210680610496e-01
-8.819655976047552359e-02
-2.534048518131531633e-02
9.301047187787984602e-03
-6.528413200742774238e-03
-5.369388701260904839e-02
-9.069175968744337679e-02
-1.287779833467061763e-01
-1.542361337982593172e-01
-1.752025686047330999e-01
-1.682457821588149993e-01
-1.437419628086543666e-01
-6.184687127882322610e-02
-6.459973581068416404e-02
-8.883442316275524941e-02
-9.540308251228024616e-02
-3.883107648493063641e-02
3.397697522200389397e-02
1.020004166704521070e-01
1.169575977850471765e-01
1.368834819698758198e-01
1.148830030685784737e-01
6.538009980158292211e-02
4.132052028117341735e-02
1.148922691257428692e-02
4.625086055874391526e-03
-2.058824948407416734e-03
-6.184186505159108144e-02
-6.397710499631108216e-02
-8.420919388686354257e-02
-7.154970500448754045e-02
3.846615707949406840e-03
1.234394057314587567e-01
2.411867821532487355e-01
3.298701992850414100e-01
4.049509960981402812e-01
4.568920292121670390e-01
4.731742704834263069e-01
4.806646042814267661e-01
4.875024877568185921e-01
4.287107379868589363e-01
2.849846508589898852e-01
-5.357495341558413116e-02
-5.545794809279617349e-02
-6.729940767801223522e-02
-7.095438346759701254e-02
8.380804244023347047e-03
1.427861847393764871e-01
2.934003611829307245e-01
3.953305327053257545e-01
5.081330958384419061e-01
5.776107369896237298e-01
6.273806366587110217e-01
7.158524927607288202e-01
8.136117199963470714e-01
7.934516715649845287e-01
5.646245982062181312e-01
-6.884195550544779107e-02
-6.731495774545707966e-02
-8.617187712044492576e-02
-8.885217476464675468e-02
-3.760876297458209255e-02
6.465726105722525985e-02
1.447530825087171014e-01
1.957038728774140868e-01
2.276348113152763253e-01
2.572556340827275578e-01
2.871334676492081628e-01
3.823786774919019082e-01
5.732224248237552944e-01
7.147297587372857253e-01
6.156052272566244765e-01
-7.880851155248869144e-02
-8.716333378396866338e-02
-1.044310069919739126e-01
-1.215543786196340015e-01
-1.084862126445887004e-01
-7.540160591691862091e-02
-5.980373968281578467e-02
-7.354675804514872184e-02
-1.221167424125566281e-01
-1.526345720895455893e-01
-1.806312322657822877e-01
-1.205834819808451475e-01
1.006803854023725214e-01
3.909576144248410046e-01
4.771052819775367104e-01
-6.586601120731547243e-02
-7.779250474630440559e-02
-9.544649475557703822e-02
-1.091713171673119182e-01
-1.297733623133592029e-01
-1.392378853251673154e-01
-1.497496472357360831e-01
-1.826242364650192962e-01
-2.422407426839721656e-01
-3.297923283554878293e-01
-3.862780391780803457e-01
-3.794563234827917908e-01
-1.873144882741542838e-01
1.304000192110456591e-01
3.506301006388875541e-01
-5.321043957330641450e-02
-5.795246717127103958e-02
-7.818461412553291690e-02
-8.586448204872543233e-02
-1.065367401683506021e-01
-1.280854023493149529e-01
-1.266963361038538904e-01
-1.690218070231908065e-01
-2.226632245676581634e-01
-2.938544680790575736e-01
-3.639972246904945030e-01
-3.696658738469381644e-01
-2.280494585981543421e-01
4.247070474547842006e-02
2.612046733802720899e-01
-3.698788967680066708e-02
-4.321072155248426028e-02
-4.995575117284188627e-02
-5.213253743457967743e-02
-7.264802579184637121e-02
-8.529239898679243093e-02
-8.254980951053872418e-02
-1.123438871207315809e-01
-1.609754494365921995e-01
-2.226340444987961464e-01
-2.754541811430221698e-01
-2.739901776009485701e-01
-1.662030387022304101e-01
5.883964592772439328e-02
2.216571413222822029e-01
-1.070413473889624406e-01
-9.838809062345474366e-02
-9.383310749944862028e-02
-8.957014526471360205e-02
-9.489158949294822232e-02
-1.094630004973369819e-01
-1.146905836423071229e-01
-1.175046531658747312e-01
-1.007132551240475654e-01
-8.335624533502888900e-02
-5.820704540624421774e-02
-4.179519867647318171e-02
-3.094347788226748525e-02
-3.169056348484111663e-02
-3.710912760308567732e-02
-9.337428705217741542e-02
-9.450009565050709881e-02
-9.168983898152442691e-02
-9.165997748995383110e-02
-9.855936271525353454e-02
-9.713940414452598704e-02
-8.550249945173044042e-02
-6.901335275852248097e-02
-6.234435056317511742e-02
-4.970151556473038218e-02
-1.608678754593482335e-02
-3.042809372573503351e-03
-4.147742712831570949e-03
-1.201223110350886115e-02
-2.140314085638544625e-02
-9.254373537433170649e-02
-8.977695790789000374e-02
-9.232708627863066286e-02
-9.668101540078211098e-02
-9.924981373143416941e-02
-8.199282971495432115e-02
-5.285108408622475606e-02
-5.341446957261620360e-02
-6.340088449894241973e-02
-4.952093923768958322e-02
-3.306496641103728873e-02
-3.132778931171411457e-02
-3.390328762600589713e-02
-5.207014956088533431e-02
-6.013062159983140892e-02
-7.907186951996747482e-02
-8.752320793999000814e-02
-9.863665415169854678e-02
-9.626125598606181943e-02
-1.024109379142882914e-01
-7.869476484362904201e-02
-7.032847492389722455e-02
-9.788740362857377419e-02
-1.160019968439317956e-01
-1.269355757227441095e-01
-1.314888710326499732e-01
-1.283761404132373607e-01
-1.378107724892240760e-01
-1.367758139766652448e-01
-1.282692490982325351e-01
-6.989575323954232144e-02
-9.057805007429312050e-02
-1.069428154540813386e-01
-1.048464727194829554e-01
-1.030168004772795826e-01
-9.527225947760417646e-02
-9.542239089833834398e-02
-1.293120893567965835e-01
-1.563900365172163909e-01
-1.784550541498111931e-01
-1.763264332013818880e-01
-1.779019308918940723e-01
-1.691015024868237904e-01
-1.400215393944660436e-01
-1.245649842184588102e-01
-5.690232129860661042e-02
-8.158581367705160237e-02
-9.436759613534914659e-02
-1.059336347591624955e-01
-9.601895407543448169e-02
-7.944160414112087787e-02
-8.038609930178806928e-02
-9.207133890199106774e-02
-5.532334875907193167e-02
3.328547233171233141e-04
5.333968902851472793e-02
9.578597860887561044e-02
1.161871280661241068e-01
1.310315710350857255e-01
9.653826926942765674e-02
-3.794694430676492231e-02
-5.458718611888564720e-02
-5.861743572036143962e-02
-4.520374303808061961e-02
-3.419993145752134311e-02
8.782386794141802330e-03
6.165929479475347474e-02
1.395012771549178077e-01
2.758419051345477047e-01
3.934286785518835705e-01
4.790835629574051180e-01
5.375965038732838375e-01
5.640769961817662104e-01
5.257246715058322417e-01
3.962742431637652496e-01
-2.608205269324157319e-02
-2.559891584158530131e-02
-1.263165083276768068e-02
1.864353400692464122e-02
6.118268735644245837e-02
1.319483003027097923e-01
2.653767564497196974e-01
4.084623783508204431e-01
5.524007372312134123e-01
6.057906356442542828e-01
6.326951433455564322e-01
6.536113644763487107e-01
6.718501817535467158e-01
6.537442940046018780e-01
5.248933665578094931e-01
-4.484769822098769870e-02
-3.274379339907240033e-02
-1.040561114967483887e-02
3.606023778930244478e-02
8.769366941062844978e-02
1.679546812067381767e-01
2.769489752977780661e-01
3.438883868592662041e-01
3.545872123958306865e-01
2.920409017115429551e-01
2.484478654112082241e-01
2.547559971187440819e-01
3.131118462166131433e-01
3.878260615775164788e-01
3.977912708831963240e-01
-8.066847619367223388e-02
-6.372979019665546419e-02
-5.483942391720079274e-02
-1.674723428864218280e-02
2.732954035566355355e-02
4.397050561201695795e-02
7.373485637339700915e-02
5.380295755467799645e-02
-2.832502186477028200e-02
-1.308770957507654487e-01
-1.956892349218660732e-01
-1.702738461628357236e-01
-7.756318419519289686e-02
6.902204704160828930e-02
2.008475155979794480e-01
-9.348590405690558602e-02
-7.542598685021199845e-02
-7.114709067294584799e-02
-5.891793154872398269e-02
-4.841002790863966482e-02
-6.021626417885610899e-02
-8.750846040990149788e-02
-1.571975659983869400e-01
-2.534547562211874050e-01
-3.092953349829905552e-01
-3.147945190980570573e-01
-2.766982339784632150e-01
-2.190423332434160431e-01
-9.408404200051881383e-02
8.472271278737861233e-02
-8.150454084332449389e-02
-6.709392424404858613e-02
-6.005996596373572999e-02
-6.419882072885599311e-02
-6.860176309921979521e-02
-9.854781560497875847e-02
-1.413654517579435999e-01
-2.087872450569384919e-01
-2.636155758918291570e-01
-2.851716352434266466e-01
-2.790654542478817612e-01
-2.639242618930419670e-01
-2.387763052242671824e-01
-1.291973205222461119e-01
4.974206650395008450e-02
-5.887011846946019894e-02
-4.751489362112418235e-02
-5.771084432175904028e-02
-6.765648090643361368e-02
-8.064392051024832364e-02
-1.116817291814182628e-01
-1.464134294096261502e-01
-1.873179238507334532e-01
-2.145914042615094386e-01
-2.265175104411796536e-01
-2.386091630582445888e-01
-2.528446999865039957e-01
-2.163374803476849628e-01
-9.741125827070228060e-02
6.256404116019997907e-02
-4.624280696990406420e-02
-3.532089452027948467e-02
-4.628927939789852924e-02
-6.142693979703918450e-02
-8.435634642136834171e-02
-9.933438317527448769e-02
-1.208866379233190513e-01
-1.439896950924460517e-01
-1.489306563751195966e-01
-1.645142722640990374e-01
-1.914215404269913878e-01
-2.034871151297928393e-01
-1.481447641869046150e-01
-3.514063520876279517e-02
1.268642149651697526e-01
-3.950180375329466476e-02
-2.428654391042640165e-02
-3.269920005449533651e-02
-4.114371586844797757e-02
-6.481573038663930586e-02
-7.654058995417467592e-02
-1.015291671975277754e-01
-1.087903997345283230e-01
-1.167899606018645564e-01
-1.224635977703793788e-01
-1.447677203116209399e-01
-1.188356536945608666e-01
-4.695620627198771047e-02
8.171570256354290795e-02
2.175678626993352016e-01
6.210225718938828382e-03
2.306078256913499103e-02
3.158137070155013493e-02
3.153327110153193030e-02
3.255484667844275176e-02
5.746891200344159817e-02
5.223225443311193400e-02
3.964579612119877028e-02
4.535439020359429557e-02
4.183748812201257272e-02
3.210693312755151518e-02
1.508534475832018842e-02
1.295029166180305035e-03
-1.240994112056650889e-02
-1.435936160991871033e-02
3.070962148457415455e-02
5.268924359586765749e-02
6.320081587405688983e-02
4.522211253928160729e-02
4.125349032692306184e-02
3.283990174449788468e-02
1.662100693004153057e-02
3.875506717011774089e-03
1.341025403043123385e-02
5.669811865543264960e-04
-2.814536265236627336e-04
9.344936175063343897e-03
1.344151348350605506e-02
1.373587296515521583e-02
7.820766813219351063e-04
5.168618999690847982e-02
6.634913709402354143e-02
7.806435587484979177e-02
6.159684686308138091e-02
3.796828896910645068e-02
2.575795632380720873e-02
5.033467670265868651e-03
6.456166626476455943e-03
5.279477253718549944e-03
-9.214582751774849645e-03
-9.314398760710130946e-05
2.641524579374141674e-02
7.182407938220987387e-02
1.204009454821253350e-01
1.150738623428967794e-01
5.937609759871248505e-02
7.251215132535421271e-02
9.142691910747247075e-02
7.418735887229066517e-02
6.049121841360006330e-02
5.265749660612507876e-02
3.036597304866063204e-02
1.702567408141595923e-03
-1.877108939257234738e-02
-2.806229977676384310e-02
-1.914861715311371240e-02
4.018178750979396058e-02
1.491666436431551279e-01
2.582302052788928992e-01
2.907198721561642385e-01
6.185491622707411236e-02
8.155376168167856321e-02
9.634180669493384863e-02
8.644380150619539183e-02
8.044272665852568449e-02
6.649520905693995232e-02
1.803017639563596689e-02
-1.735723134872885209e-02
-2.786753911813836040e-02
-4.024643335565524643e-02
-2.524447548260957963e-02
3.055008859112717801e-02
1.773798183511666182e-01
3.703350243559491162e-01
4.277849493186253738e-01
6.391844117421345561e-02
8.812674419518418123e-02
1.044251050088701727e-01
8.834445496035664425e-02
7.085612430188518995e-02
4.810826545971275819e-02
-1.765984801288228781e-02
-3.661724691318354874e-02
-5.670483777423389327e-02
-5.729561461542915374e-02
-4.484090187001991273e-02
-1.269268284549666601e-02
1.282195581490131464e-01
3.953676210310961836e-01
5.088028671329776209e-01
6.780887803048001039e-02
9.781171960213737304e-02
1.032262350661715122e-01
8.103157546795071442e-02
5.005960998894853214e-02
4.517532054586791135e-03
-4.273415774631102865e-02
-5.890337510767959528e-02
-6.282137910826858518e-02
-4.942736226780919395e-02
-5.209879200207670480e-02
-5.586942931822069802e-02
9.212308155125455145e-02
4.430161692261562756e-01
5.812614100938447992e-01
6.802463542969688914e-02
1.115250776124069865e-01
1.140901544841562282e-01
8.363867946960201749e-02
2.033337469718141804e-02
-3.378272650295131158e-02
-6.160666146595520504e-02
-5.052028657033606068e-02
-4.065064346028425535e-02
-4.590178126188196317e-02
-8.255206056204214549e-02
-1.128384274113730379e-01
9.120694884277583125e-02
4.946720398262601792e-01
6.212897436318658428e-01
8.343657654654686173e-02
1.236741390589972123e-01
1.292501753107441753e-01
7.872044441901022982e-02
-8.684681361351098000e-03
-5.442676984898721371e-02
-6.800108813764783877e-02
-3.085055613272301087e-02
-1.401308041946855605e-02
-3.446854134397885072e-02
-1.093799257146084863e-01
-1.141382691512516090e-01
1.476822708988890509e-01
5.504249429326045773e-01
5.952461814047995681e-01
8.838076706615302647e-02
1.334654709230823355e-01
1.357458715880457689e-01
8.371331323023292748e-02
7.250252127466953224e-03
-2.644450725298477800e-02
-3.575859355042807636e-02
-1.185394552829993099e-02
-7.959052811694548694e-04
-3.859528701368059728e-02
-1.038352604025375991e-01
-4.621100158658821705e-02
2.458743487170338415e-01
5.674417522158439198e-01
5.042907200159220116e-01
7.579496759282354501e-02
1.299648108058160390e-01
1.429149183583917904e-01
9.907781932589890261e-02
4.031184526561921999e-02
-8.396384674885161870e-04
-2.934466277777173990e-02
-2.040941946655770028e-02
-3.193472137718323528e-02
-8.334343128109646115e-02
-9.659084022080122178e-02
4.682188331070571280e-02
3.527960983380649673e-01
5.451042554057612399e-01
3.719706666766155467e-01
5.339827004638435931e-02
1.073085130434004164e-01
1.107307096373167377e-01
6.798059334949288490e-02
3.657973751512137023e-02
-8.553564436625698750e-03
-3.878573839340503787e-02
-4.722050626644748450e-02
-8.264846546997832444e-02
-1.016175488903878210e-01
-3.010623626370064268e-02
1.924492131247464155e-01
4.448863010259258566e-01
4.543545696382600418e-01
1.990770398361519644e-01
3.057879002821226044e-02
8.193278653738675366e-02
9.117465565143020867e-02
6.472942310310494940e-02
2.206014427356383159e-02
-6.589164891708515839e-03
-2.254212587839109910e-02
-5.162988589897583858e-02
-5.403686954160689948e-02
-9.371551868900493756e-03
1.301287290663852847e-01
3.638238364655957957e-01
4.770170525113843207e-01
3.161242651469640674e-01
5.646402258331873619e-02
9.789649773866941976e-03
4.146836253053327176e-02
6.662321674043338027e-02
6.978698790883385017e-02
3.313338882419266523e-02
1.274837875950847986e-02
-2.531848780186264289e-03
2.309568957451119814e-03
2.370595078151741669e-02
1.152034138371920424e-01
2.937776930213227278e-01
4.312442545002198035e-01
3.911839468530249886e-01
1.592961991389452436e-01
-3.178708973624096851e-02
-4.454275819164271732e-03
9.227882526066532101e-03
3.561382442544193394e-02
4.599672205401963976e-02
3.709805791302520778e-02
3.122459665779458646e-02
3.143499388348977575e-02
5.205974335216916743e-02
1.143026350754420967e-01
2.271228608329322052e-01
3.313782641584145927e-01
3.453394675300162087e-01
2.273455685235810930e-01
5.223514629687792121e-02
-5.651569905246052461e-02
-5.204925401588179207e-02
-3.170967589928328639e-02
-2.424339823721888276e-02
-5.816891165316430065e-03
3.296550202958890841e-02
1.325895624798051620e-01
2.364255040819208675e-01
3.706752651361566175e-01
5.093937826043182238e-01
6.338229818845201313e-01
7.371179141421234648e-01
7.992886783030900277e-01
7.935163643074282236e-01
6.634042046199726261e-01
4.681896706494618199e-01
-1.890364331880054274e-02
-1.095693064499929717e-02
1.308017372774222462e-02
3.357376516455434085e-02
1.221405792309387950e-01
2.244572004220714567e-01
3.160147481454491647e-01
3.873801068251183088e-01
4.478693438400689897e-01
4.461886563860590904e-01
4.665485017262242518e-01
5.506441877947756414e-01
6.849090177810899238e-01
7.240184671996017229e-01
5.655484813111335551e-01
-9.534085071233938322e-03
8.015916630038158464e-03
2.372365381581129085e-02
5.280286078632687868e-02
1.242276419207547639e-01
1.811663117838146209e-01
1.902838149500621912e-01
1.480709147601392828e-01
6.120750376040804547e-02
-3.345196000088770244e-02
-5.950051700328810173e-02
3.033478870497734181e-02
2.805807069408367549e-01
5.202293541545115474e-01
5.188228286483376195e-01
8.715184351598046636e-03
1.172995002500042475e-02
9.112916073425219449e-03
2.067074756932106919e-02
5.466014889061009824e-02
5.278941891422208460e-02
-4.937279411778240992e-03
-1.153473047253076311e-01
-2.030401587995308565e-01
-2.473881681257054377e-01
-2.784227466956800678e-01
-2.043856831896012083e-01
4.086780014488788221e-02
3.466956117638062551e-01
4.632070999859473903e-01
6.444223567014689333e-03
-2.459393274725851265e-03
-1.054041472117293356e-02
-2.772188941187239686e-02
-2.803969407506232484e-02
-7.421463957713390902e-02
-1.210836572412926776e-01
-1.813912218302552171e-01
-2.162656094701927989e-01
-2.451538879804977811e-01
-2.570692123453142131e-01
-2.088564618022599739e-01
-2.210545534601239190e-02
2.319198898556144306e-01
3.804232192388661282e-01
4.840015963219966924e-03
-7.214599505223732133e-03
-1.389797078600771632e-02
-4.385091941249184833e-02
-9.765986498032827590e-02
-1.239985583504629729e-01
-1.368715355544175838e-01
-1.502404361750424577e-01
-1.595180715315404341e-01
-1.896501809562232688e-01
-1.893181658288396740e-01
-1.524319456146684681e-01
1.820481573904323032e-03
1.896133877614105678e-01
2.882124433073831593e-01
-2.906086507887757457e-03
-1.099145088773611362e-02
-2.217784877651189646e-02
-5.319029534020348893e-02
-9.546345494896051054e-02
-1.079436092530087349e-01
-1.195475681893340553e-01
-1.137899568019151292e-01
-1.199206222384377601e-01
-1.310261807013762547e-01
-1.389596001753823640e-01
-9.403904532258286486e-02
2.759752844079218712e-02
1.640401266777803679e-01
2.077972893932983067e-01
-2.904984241341685564e-02
-2.623982746914909486e-02
-3.970997076674744053e-02
-6.663928502162294598e-02
-7.349368192160092572e-02
-8.414772950733963308e-02
-8.342474734110391643e-02
-6.496975287633915963e-02
-5.651657153575534442e-02
-8.418185074095418940e-02
-1.020036307333963971e-01
-4.210293386362019136e-02
4.146157227444320637e-02
1.208090319248174560e-01
1.237472912563397781e-01
-4.068115316470279075e-02
-4.125267602477167284e-02
-5.463860692607960118e-02
-6.287586642769314726e-02
-5.693872441859345462e-02
-6.962635934970612395e-02
-4.518067568893024966e-02
-2.586187664424800456e-02
-3.639803322268685137e-02
-6.073335344106602779e-02
-7.557608234076858278e-02
-1.699730604217778232e-02
3.732089456341571021e-02
7.148339524020264069e-02
7.365473317310224088e-02
-2.872262125030088445e-02
-3.211839126581712139e-02
-4.286767453919945736e-02
-2.845058708480329920e-02
-3.203418577830921543e-02
-2.987820829435312159e-02
-1.249654413998160969e-02
-7.041433576915049307e-03
-2.038536391933450098e-02
-3.963394182936224447e-02
-4.239282273208882373e-02
-7.995358964728190715e-03
2.215910574245949852e-02
3.736164001531672163e-02
5.459660548335757563e-02
-1.054657687166403457e-02
-1.392534947910828262e-02
2.319954401441791641e-03
1.879353593517869500e-02
2.406631989458746582e-02
1.604105021659430266e-02
1.012547613739891300e-02
1.001024840330581173e-02
-1.314165896261465342e-02
-1.666371186917614544e-02
-1.709786520068603752e-02
2.685376681677055250e-04
3.295115415489254657e-02
3.488979898266213880e-02
6.566772135736617666e-02
3.790728465094959226e-02
4.061669742973948727e-02
4.598941064730704270e-02
3.973639359560862672e-02
1.324016086566157102e-02
-1.037335891388936095e-02
-2.207537868178931564e-02
-1.839415056247323960e-02
-1.714309516852232859e-02
-5.062110819548190470e-03
1.097977083475848263e-02
1.080605650155301578e-02
2.403684530452333476e-02
5.945785412634606304e-02
6.844146877076887070e-02
9.557441875927764896e-02
1.089224427626204750e-01
7.271638301287143558e-02
4.360810076062204832e-02
9.835409047998216331e-03
-3.158949476812623197e-02
-5.646858573184367069e-02
-4.895764000420685380e-02
-3.337412673810889047e-02
-1.687227471457018388e-02
3.263036548572345510e-03
1.971651475548865870e-02
4.830776170990404988e-02
6.956632766368475718e-02
7.811755937526858318e-02
1.580711196930257301e-01
1.796021767393923552e-01
1.364022475719077476e-01
1.015550333433859614e-01
3.645468282832751289e-02
-3.827278003496355913e-02
-7.498290963152808020e-02
-6.858101922222784030e-02
-3.971185334921097099e-02
-5.710413607688655593e-03
3.530104700074610663e-02
6.476618970881470316e-02
1.006901193495490787e-01
1.043557270461727693e-01
1.008367521337585199e-01
1.918617949735363093e-01
2.562559084985460700e-01
2.535239106377873974e-01
2.012587739015595234e-01
1.196028813947246361e-01
4.259096561293181787e-02
6.633315219067179198e-03
9.057195532957081768e-03
2.154511111355876876e-02
3.262780084662354058e-02
5.057402079961154095e-02
1.068356281647638295e-01
1.513233456179009784e-01
1.388044850912861228e-01
1.089787229364907045e-01
-6.048992634606997765e-02
-8.048155617280261520e-02
-8.639748239778383132e-02
-7.510296816629458139e-02
-7.002803484448291704e-02
-6.904390087909843821e-02
-5.211989544612492115e-02
-1.187952878396913645e-02
5.778483313825253515e-02
1.161865223486963083e-01
1.370740411857059859e-01
1.157246356569389123e-01
8.727077951758807628e-02
6.789754917695980940e-02
5.291767522776665011e-02
-6.794665021876196420e-02
-9.326650037652242653e-02
-9.249420866181745637e-02
-8.748656199965007541e-02
-8.510410110177579757e-02
-6.934166046045908693e-02
-2.526440875937849620e-02
3.896514686822422774e-02
1.101780992702962175e-01
1.404430340961535795e-01
1.228959108937870692e-01
9.876184892122626124e-02
6.464847003077398013e-02
4.784067772604438246e-02
4.115378918948562476e-02
-5.620003524857387911e-02
-7.217699442736193183e-02
-8.089587822199593992e-02
-8.244139238179522267e-02
-7.191801402777436847e-02
-1.217350818742963386e-02
8.325795903325236558e-02
1.281195156986656980e-01
1.371213433501456969e-01
1.302622643566306582e-01
8.932943836195079979e-02
5.735528204400713870e-02
3.329486289326038378e-02
2.540291738208464919e-02
1.844193424079297247e-02
-7.554206920978061290e-02
-7.743362377715860834e-02
-8.252029335713192970e-02
-5.958800647565275221e-02
1.433761116178698322e-02
1.322029654567817292e-01
1.921143941221551410e-01
1.560049209189413033e-01
9.131200270921747963e-02
5.255029387473347108e-02
2.758466370925846331e-02
1.484967034554945421e-02
4.434659046887393791e-03
7.052381907670791754e-03
7.353855478440272063e-03
-1.229879966980894218e-01
-1.149723029419477682e-01
-7.605953237947711554e-02
3.694318801232487903e-02
2.049039907251944681e-01
2.720765319311547747e-01
2.113448477843233864e-01
7.594518454831676590e-02
3.619780607371952171e-04
-1.840211858375764842e-02
-9.090908058532170405e-03
-1.073354630467485138e-02
-7.506759279906464327e-03
-5.651363984541261411e-03
6.274543455591061886e-03
